tree
version=v4
num_class=1
num_tree_per_iteration=1
label_index=0
max_feature_idx=92
objective=regression
feature_names=WeightedAverageNumberOfDilutedSharesOutstanding ROE ROA AssetTurnover DebtToEquity NetProfitMargin OperatingMargin EarningsPerShareDiluted_log GrossProfit_log NetIncomeLoss_log OperatingIncomeLoss_log Revenues_log Assets_log Liabilities_log NoncurrentAssets_log WeightedAverageNumberOfDilutedSharesOutstanding_log Equity_log ROE_log ROA_log BookValuePerShare_log SalesPerShare_log AssetTurnover_log DebtToEquity_log NetProfitMargin_log OperatingMargin_log EarningsPerShareDilutedTTM_log SalesPerShareTTM_log PE_Ratio PB_Ratio PS_Ratio MarketCapLog CostsAndExpenses_log Returns lag_5 ma_5 std_5 skew_5 kurt_5 total_return_5 min_5 max_5 first_return_5 last_return_5 lag_25 ma_25 std_25 skew_25 kurt_25 total_return_25 min_25 max_25 first_return_25 last_return_25 lag_90 ma_90 std_90 skew_90 kurt_90 total_return_90 min_90 max_90 first_return_90 last_return_90 lag_180 ma_180 std_180 skew_180 kurt_180 total_return_180 min_180 max_180 first_return_180 last_return_180 lag_252 ma_252 std_252 skew_252 kurt_252 total_return_252 min_252 max_252 first_return_252 last_return_252 lag_504 ma_504 std_504 skew_504 kurt_504 total_return_504 min_504 max_504 first_return_504 last_return_504
feature_infos=[317860000:1278608000] [0.047684442824148861:0.090058818123969236] [0.033394367103482106:0.063035152116255697] none [0.36288386613875584:0.47072614530996393] none none [-1.3203580513097881:0.2242859715669073] [-0.15796158791326248:0.14967190576564432] [-0.63296762731443679:0.22150790047665123] [-0.26157850465048588:0.26642344356195125] none [-0.047548953946229516:0.14515031451449223] [-0.072243695586454076:0.29196001210886557] none [-0.011690366816839614:1.3850484188793644] [-0.036132269754537712:0.10809779268037496] [-0.61699796462861345:0.1354539958383767] [-0.61526346356211703:0.14156975709520853] [-1.3561473704106211:0.10900113510856133] none none [-0.11383963605614285:0.20590610747059088] none none [-0.3795732040520316:0.15183123682174518] none [3.7032901417134245:39.768675224765666] [1.0969443332531694:11.534324259789877] none [-0.17104675076951664:1.3850484188793644] none [-0.64907153840900078:0.72190063038357466] [-0.64907153840900078:0.72190063038357466] [-0.58545965672404776:0.70182241595358996] [0.0031342476505407794:0.13490434367964763] [-2.2049449099513772:2.2145379555087357] [-3.3133371676529872:4.9244829818369809] [-2.9272982836202388:3.5091120797679496] [-0.64907153840900078:0.69042465441336121] [-0.52631943771364731:0.72190063038357466] [-0.64907153840900078:0.72190063038357466] [-0.64907153840900078:0.72190063038357466] [-0.64907153840900078:0.72190063038357466] [-0.50412852389443186:0.63525441574548724] [0.017791454951933083:0.19478304377199876] [-3.163832023699146:2.2247507261172457] [-1.8406478988288797:12.341740871472258] [-12.603213097360797:15.881360393637182] [-0.64907153840900078:0.55283515738711486] [-0.41438799193881876:0.72190063038357466] [-0.64907153840900078:0.72190063038357466] [-0.64907153840900078:0.72190063038357466] [-0.64907153840900078:0.72190063038357466] [-0.29920260678157395:0.59458250895666509] [0.049137119606121979:0.23242736365550165] [-3.2615460051981171:1.9224295868407937] [-1.8601398968031069:13.942642606704386] [-26.928234610341654:53.512425806099856] [-0.64907153840900078:0.43494519453091496] [-0.014119878461932883:0.72190063038357466] [-0.64907153840900078:0.72190063038357466] [-0.64907153840900078:0.72190063038357466] [-0.64907153840900078:0.72190063038357466] [-0.20611521101772551:0.5572438145078823] [0.071760585805870566:0.23716987488726493] [-1.944229709322026:0.78725619263611413] [-1.6710087657747321:7.212877977081062] [-37.100737983190591:100.30388661141882] [-0.64907153840900078:0.39166586467474385] [0.12954493234840059:0.72190063038357466] [-0.64907153840900078:0.72190063038357466] [-0.64907153840900078:0.72190063038357466] [-0.64907153840900078:0.72190063038357466] [-0.17710528845782245:0.52791404972880274] [0.084432303545183107:0.28614187218323928] [-1.6980962680055449:0.47399691003588007] [-1.6353509577383529:5.4955509876701942] [-44.630532691371258:133.0343405316583] [-0.64907153840900078:0.35343373314505389] [0.13319852739571059:0.72190063038357466] [-0.64907153840900078:0.72190063038357466] [-0.64907153840900078:0.72190063038357466] [-0.64907153840900078:0.71059317363842245] [-0.074969985067610406:0.40323267101144467] [0.16307979176515514:0.34812469154611503] [-1.0118872237432104:0.2013015067509159] [-1.1825307450739508:0.50031380547681237] [-37.784872474075648:203.22926618976811] [-0.64907153840900078:-0.0080684262746153687] [0.38564179913325425:0.72190063038357466] [-0.64907153840900078:0.71059317363842245] [-0.19104803589320468:0.72190063038357466]
tree_sizes=2708 2762

Tree=0
num_leaves=31
num_cat=0
split_feature=85 83 50 0 79 27 67 92 63 85 80 76 65 67 76 85 27 57 28 86 56 28 81 81 56 50 28 61 46 67
split_gain=26.6123 3.73882 2.03649 1.17842 0.981237 0.557791 0.489059 0.451383 0.40737 0.311267 0.20907 0.206157 0.196943 0.181122 0.16044 0.141684 0.130013 0.0980809 0.0934262 0.131137 0.090112 0.0710752 0.0686083 0.0568966 0.0382479 0.028381 0.025306 0.0207913 0.0195904 0.0133601
threshold=0.25754268445776757 0.22788946146431044 0.61563008657985707 318486000.00000006 -0.088367772679792664 32.054644934627227 1.643696847303638 0.15696727260634416 -0.33212857777227572 0.32239352327690557 0.61212341065971887 0.13515058017067369 0.12978717665530626 -0.5605755686744186 -0.67214479131333305 0.28889497686842963 34.169693374297005 -0.60633820518165404 1.4342391730624489 0.017545813877650581 -0.050119315874101109 7.9959429539770488 0.53437062546129155 0.19659520620126097 -0.29135372102246454 0.60554906236166117 10.422696161610434 0.047443467692433426 0.099695597891175547 -1.0817093526650357
decision_type=10 10 2 2 2 2 2 8 2 10 2 2 2 2 2 10 2 2 2 10 2 2 2 2 2 2 2 2 2 2
left_child=1 3 6 8 5 21 9 22 -1 13 -7 -4 28 25 20 -15 17 -12 -10 24 -14 -3 -5 -23 -20 -2 -18 -22 -9 -16
right_child=2 4 11 7 -6 10 -8 12 18 -11 16 -13 14 15 29 -17 26 -19 19 -21 27 23 -24 -25 -26 -27 -28 -29 -30 -31
leaf_value=0.44476946817964991 0.43088157377268432 0.44694119429675616 0.41291415562527384 0.438094379430646 0.43823753000960913 0.44141141679352847 0.41957235862901299 0.43313005300428314 0.44136266780346467 0.42195303372084531 0.44542401923523739 0.4182619620319068 0.4365018134636412 0.42801790006149903 0.43847687841269473 0.42419007245011542 0.44470718810739396 0.44920781818317801 0.43625079627413865 0.44098993607440484 0.43418085157707786 0.45120146081759915 0.44158357469177772 0.44842596287745934 0.43873079122038211 0.42866244740224463 0.44263802294217691 0.43232726004104483 0.43124296998668943 0.43695432526512684
leaf_weight=37 22 20 20 21 33 31 20 20 37 21 33 38 24 39 22 32 22 20 26 29 22 29 20 25 20 20 21 22 20 20
leaf_count=37 22 20 20 21 33 31 20 20 37 21 33 38 24 39 22 32 22 20 26 29 22 29 20 25 20 20 21 22 20 20
internal_value=0.436136 0.440904 0.423227 0.438049 0.445051 0.44617 0.425791 0.435832 0.440891 0.42672 0.444456 0.416418 0.434748 0.427606 0.43568 0.426293 0.445439 0.446852 0.439609 0.438745 0.4344 0.449112 0.439796 0.449917 0.437329 0.429825 0.443697 0.433254 0.432187 0.437752
internal_weight=786 574 212 340 234 201 154 191 149 134 127 58 150 113 110 71 96 53 112 75 68 74 41 54 46 42 43 44 40 42
internal_count=786 574 212 340 234 201 154 191 149 134 127 58 150 113 110 71 96 53 112 75 68 74 41 54 46 42 43 44 40 42
is_linear=0
shrinkage=1


Tree=1
num_leaves=30
num_cat=0
split_feature=59 83 77 0 77 27 92 50 71 54 65 74 65 76 91 27 55 56 55 73 51 41 43 56 86 32 54 64 36
split_gain=22.407 4.11442 1.74238 1.51378 0.929852 0.656652 0.573463 0.530417 0.374767 0.317229 0.316404 0.186089 0.15401 0.152063 0.139917 0.1367 0.133052 0.130913 0.122727 0.0671977 0.0625573 0.057353 0.0462734 0.0372501 0.0371484 0.032136 0.0268654 0.0177884 0.00546574
threshold=0.28710630205723148 0.22788946146431044 -0.76619964754808945 318486000.00000006 -1.1522304984312337 32.054644934627227 0.15696727260634416 0.66132790079161563 -0.28685665529221432 0.38186653647602314 0.080223208175785002 0.15240107159442517 0.12978717665530626 0.15048934687524007 -0.38372572589427839 35.536137670555895 0.069819141850188907 0.010296002179769078 0.14488492937127995 0.5369587369256642 0.12233236616720715 0.42267418397199435 -0.17919059763101536 -0.43779398452758062 -0.28831779678717484 0.53563589088117036 -0.11253729385636199 0.23027492740977692 -0.14810613843861678
decision_type=2 10 2 2 2 2 8 2 2 2 2 2 2 2 10 2 2 2 2 2 2 2 2 2 10 2 2 2 2
left_child=1 3 7 8 27 24 19 14 -1 12 16 -7 -8 -9 -2 21 -4 22 26 -5 -19 -13 -14 -20 -6 -16 -10 -3 -28
right_child=2 4 10 6 5 11 9 13 18 -11 -12 15 17 -15 25 -17 -18 20 23 -21 -22 -23 -24 -25 -26 -27 28 -29 -30
leaf_value=0.0081743165329437335 -0.010728870837235014 0.0035365318391099216 -0.012774096464556689 0.001766839178075614 0.012072263683695468 0.0051481721201065127 -0.0037819670401955077 -0.022363789782199443 0.003351137630283709 -0.0064119565053285983 -0.0048907062753424458 0.0087560845179826541 -0.0005797725020761247 -0.017531355843161255 -0.0138180383282563 0.0059912338896192432 -0.008127114817642677 -0.0029118202293897848 0.00046867381533437425 0.005219979883762692 -0.00010826847047731433 0.011212963459533154 0.0020344785210205181 0.0028974961545985009 0.01409116733307802 -0.016234977237089707 0.0056761054920694701 0.0017383317921298967 0.0046912751589121456
leaf_weight=39 21 20 21 20 30 32 35 20 23 26 35 39 20 29 20 22 24 39 24 21 23 31 32 22 37 20 20 20 21
leaf_count=39 21 20 21 20 30 32 35 20 23 26 35 39 20 29 20 22 24 39 24 21 23 31 32 22 37 20 20 20 21
internal_value=3.10214e-05 0.0040955 -0.0127186 0.00127737 0.00854838 0.00978628 -0.00100309 -0.0162005 0.00458327 -0.00206642 -0.00793102 0.00794869 -0.00130814 -0.0195038 -0.013547 0.00892279 -0.0102957 -0.000548625 0.00331007 0.00353552 -0.00187179 0.00984413 0.001029 0.00163028 0.0131872 -0.0150265 0.00451742 0.00263743 0.00517168
internal_weight=786 596 190 365 231 191 216 110 149 175 80 124 149 49 61 92 45 114 110 41 62 70 52 46 67 40 64 40 41
internal_count=786 596 190 365 231 191 216 110 149 175 80 124 149 49 61 92 45 114 110 41 62 70 52 46 67 40 64 40 41
is_linear=0
shrinkage=0.0426353


end of trees

feature_importances:
PE_Ratio=4
skew_90=4
PB_Ratio=3
max_25=3
std_180=3
kurt_180=3
skew_252=3
std_504=3
WeightedAverageNumberOfDilutedSharesOutstanding=2
ma_90=2
std_90=2
kurt_252=2
first_return_252=2
lag_504=2
skew_504=2
last_return_504=2
Returns=1
skew_5=1
first_return_5=1
lag_25=1
skew_25=1
first_return_25=1
kurt_90=1
min_90=1
first_return_90=1
lag_180=1
ma_180=1
first_return_180=1
lag_252=1
ma_252=1
min_252=1
max_252=1
first_return_504=1

parameters:
[boosting: gbdt]
[objective: regression]
[metric: rmse]
[tree_learner: serial]
[device_type: cpu]
[data_sample_strategy: bagging]
[data: ]
[valid: ]
[num_iterations: 2000]
[learning_rate: 0.0426353]
[num_leaves: 64]
[num_threads: 4]
[seed: 42]
[deterministic: 0]
[force_col_wise: 0]
[force_row_wise: 0]
[histogram_pool_size: -1]
[max_depth: -1]
[min_data_in_leaf: 20]
[min_sum_hessian_in_leaf: 0.001]
[bagging_fraction: 0.8]
[pos_bagging_fraction: 1]
[neg_bagging_fraction: 1]
[bagging_freq: 5]
[bagging_seed: 400]
[bagging_by_query: 0]
[feature_fraction: 0.8]
[feature_fraction_bynode: 1]
[feature_fraction_seed: 30056]
[extra_trees: 0]
[extra_seed: 12879]
[early_stopping_round: 0]
[early_stopping_min_delta: 0]
[first_metric_only: 0]
[max_delta_step: 0]
[lambda_l1: 0]
[lambda_l2: 0]
[linear_lambda: 0]
[min_gain_to_split: 0]
[drop_rate: 0.1]
[max_drop: 50]
[skip_drop: 0.5]
[xgboost_dart_mode: 0]
[uniform_drop: 0]
[drop_seed: 17869]
[top_rate: 0.2]
[other_rate: 0.1]
[min_data_per_group: 100]
[max_cat_threshold: 32]
[cat_l2: 10]
[cat_smooth: 10]
[max_cat_to_onehot: 4]
[top_k: 20]
[monotone_constraints: ]
[monotone_constraints_method: basic]
[monotone_penalty: 0]
[feature_contri: ]
[forcedsplits_filename: ]
[refit_decay_rate: 0.9]
[cegb_tradeoff: 1]
[cegb_penalty_split: 0]
[cegb_penalty_feature_lazy: ]
[cegb_penalty_feature_coupled: ]
[path_smooth: 0]
[interaction_constraints: ]
[verbosity: -1]
[saved_feature_importance_type: 0]
[use_quantized_grad: 0]
[num_grad_quant_bins: 4]
[quant_train_renew_leaf: 0]
[stochastic_rounding: 1]
[linear_tree: 0]
[max_bin: 255]
[max_bin_by_feature: ]
[min_data_in_bin: 3]
[bin_construct_sample_cnt: 200000]
[data_random_seed: 175]
[is_enable_sparse: 1]
[enable_bundle: 1]
[use_missing: 1]
[zero_as_missing: 0]
[feature_pre_filter: 1]
[pre_partition: 0]
[two_round: 0]
[header: 0]
[label_column: ]
[weight_column: ]
[group_column: ]
[ignore_column: ]
[categorical_feature: ]
[forcedbins_filename: ]
[precise_float_parser: 0]
[parser_config_file: ]
[objective_seed: 16083]
[num_class: 1]
[is_unbalance: 0]
[scale_pos_weight: 1]
[sigmoid: 1]
[boost_from_average: 1]
[reg_sqrt: 0]
[alpha: 0.9]
[fair_c: 1]
[poisson_max_delta_step: 0.7]
[tweedie_variance_power: 1.5]
[lambdarank_truncation_level: 30]
[lambdarank_norm: 1]
[label_gain: ]
[lambdarank_position_bias_regularization: 0]
[eval_at: ]
[multi_error_top_k: 1]
[auc_mu_weights: ]
[num_machines: 1]
[local_listen_port: 12400]
[time_out: 120]
[machine_list_filename: ]
[machines: ]
[gpu_platform_id: -1]
[gpu_device_id: -1]
[gpu_use_dp: 0]
[num_gpu: 1]

end of parameters

pandas_categorical:[]
