tree
version=v4
num_class=1
num_tree_per_iteration=1
label_index=0
max_feature_idx=94
objective=regression
feature_names=WeightedAverageNumberOfDilutedSharesOutstanding ROE ROA AssetTurnover DebtToEquity NetProfitMargin OperatingMargin EarningsPerShareDiluted_log GrossProfit_log NetIncomeLoss_log OperatingIncomeLoss_log Revenues_log Assets_log Liabilities_log NoncurrentAssets_log WeightedAverageNumberOfDilutedSharesOutstanding_log Equity_log ROE_log ROA_log BookValuePerShare_log SalesPerShare_log AssetTurnover_log DebtToEquity_log NetProfitMargin_log OperatingMargin_log EarningsPerShareDilutedTTM_log SalesPerShareTTM_log PE_Ratio PB_Ratio PS_Ratio MarketCapLog Price CostsAndExpenses_log Returns Returns_Daily lag_5 ma_5 std_5 skew_5 kurt_5 total_return_5 min_5 max_5 first_return_5 last_return_5 lag_25 ma_25 std_25 skew_25 kurt_25 total_return_25 min_25 max_25 first_return_25 last_return_25 lag_90 ma_90 std_90 skew_90 kurt_90 total_return_90 min_90 max_90 first_return_90 last_return_90 lag_180 ma_180 std_180 skew_180 kurt_180 total_return_180 min_180 max_180 first_return_180 last_return_180 lag_252 ma_252 std_252 skew_252 kurt_252 total_return_252 min_252 max_252 first_return_252 last_return_252 lag_504 ma_504 std_504 skew_504 kurt_504 total_return_504 min_504 max_504 first_return_504 last_return_504
feature_infos=[24640000000:25380000000] [0.02750408787891493:0.27785961220502031] [0.015088784616800074:0.17069882544138287] [0.13245033112582782:0.33463839846347049] [0.40984483681112893:0.89648227083235754] [0.097852028639618144:0.51009933774834437] [0.074433174224343673:0.5748896247240618] [-0.89844005198550259:1.1045846754991355] [-0.62225345925025244:0.71084675765934613] [-0.90278530867434803:1.1081926168753347] [-1.3200175230372693:1.1561167831483008] [-0.21210432233734527:0.63023877240930792] [-0.071203427789163581:0.29490398239203114] [-0.057074022093411281:0.68657111524620551] none [-0.014504686202881688:0.0064516352814885953] [-0.11082124500635301:0.19028342554610253] [-0.80428234739377147:0.993459360295597] [-0.8636318320468036:0.99969936155271344] [-0.10725193723123257:0.19228623014107318] [-0.20775906564849989:0.6266308310331089] [-0.30298810079199001:0.52174551708668648] [-0.24484198602795018:0.61579899068511679] [-0.69910640383135048:0.71205433350277081] [-1.1079132006999239:0.71706169770934147] [-0.30612854079048013:0.76909884510081783] [-0.054723751994066469:0.31902756553839123] [16.858188073278178:247.9123704281308] [8.3261417499632824:48.194974476128181] [6.370194153908237:46.021882060162447] [-0.20771175902880276:0.21808776444046329] [0.017360339554471183:0.24686747059014991] none [-0.7566527593364103:1.3130230164838128] [-0.20515263652776572:0.20022065555729598] [-0.7566527593364103:1.3130230164838128] [-0.7016950241786174:1.291622418610237] [0.0022894684762349736:0.15909777842208719] [-2.2013757686477207:2.2053262974500583] [-3.2654142036113156:4.8913075712632237] [-0.32958980783437464:0.24205278588798501] [-0.7566527593364103:1.2659128502337555] [-0.66670250350111937:1.3130230164838128] [-0.7566527593364103:1.3130230164838128] [-0.7566527593364103:1.3130230164838128] [-0.7566527593364103:1.3130230164838128] [-0.63924719461845603:1.1886090366069753] [0.022726279758369022:0.22288319454838507] [-1.7084827207958175:1.5584953333437148] [-1.795016065568888:4.5387044031316179] [-0.51195398210528487:0.41879828464336277] [-0.7566527593364103:1.0673226659210122] [-0.55441522071610838:1.3130230164838128] [-0.7566527593364103:1.3130230164838128] [-0.7566527593364103:1.3130230164838128] [-0.7566527593364103:1.1990610159182016] [-0.56936422536618381:1.0621288240984175] [0.071376511916782195:0.3755159440461005] [-1.2171171645755914:1.8302984590764684] [-1.616436893391872:3.7883772363478156] [-0.7238223582280765:0.81512037722782749] [-0.7566527593364103:0.83378024269360063] [-0.38682529559846046:1.3130230164838128] [-0.7566527593364103:1.1990610159182016] [-0.7566527593364103:1.3130230164838128] [-0.7566527593364103:1.1990610159182016] [-0.40363668625812277:0.92091539798989763] [0.10431938848153077:0.55304268647760224] [-1.2743210655823201:1.3233197843866511] [-1.7323356563228114:1.9345769529374848] [-0.81190294075170732:1.2457989713270958] [-0.7566527593364103:0.70979246835108845] [-0.10607951849763209:1.3130230164838128] [-0.7566527593364103:1.1990610159182016] [-0.7566527593364103:1.3130230164838128] [-0.7566527593364103:1.1990610159182016] [-0.26924607318830462:0.86587173703900711] [0.11840115401928851:0.65251412410329457] [-1.0910796612097116:1.52350275333928] [-1.7190595987946748:1.4578081751079748] [-0.75665275933641074:1.3130230164838139] [-0.7566527593364103:0.54049038530519133] [0.32658946469521616:1.3130230164838128] [-0.7566527593364103:1.1990610159182016] [-0.7566527593364103:1.3130230164838128] [-0.62233230593997779:1.1990610159182016] [0.17828462491795788:0.73102172157002432] [0.18714211569394135:0.58772351416622615] [-1.2750666968720687:0.17477075444456106] [-1.6034320661995698:1.8977027507264115] [-0.22617291849696394:1.7645926627829358] [-0.7566527593364103:0.34091082886056606] [0.87636365098959013:1.3130230164838128] [-0.62233230593997779:1.1990610159182016] [-0.7566527593364103:1.3130230164838128]
tree_sizes=4059 4436 4436 4439 4526 4448 4441 4632 4256

Tree=0
num_leaves=44
num_cat=0
split_feature=81 6 84 46 70 83 57 29 68 69 63 29 42 59 69 59 46 86 13 68 52 29 78 49 28 57 90 47 60 60 49 27 47 28 29 75 35 52 46 69 60 56 29
split_gain=7.9371 1.48779 0.471853 0.453121 0.326028 0.0892563 0.0677872 0.0595048 0.0337079 0.0312389 0.030186 0.0245855 0.0166885 0.0132093 0.0108097 0.0105291 0.00899545 0.00831285 0.00761588 0.00890488 0.005519 0.00528466 0.00291497 0.00205941 0.00197255 0.00164065 0.00163353 0.00117159 0.00105278 0.0010307 0.000900336 0.000677469 0.000604224 0.000588655 0.000407189 0.000399737 0.000394128 0.000290289 0.000276889 0.000164806 0.000160039 0.000154881 3.23143e-05
threshold=-0.62776948000260724 0.33606470083419243 0.04228073574780989 -0.17191599910256253 0.39690196120451671 -0.52676396284530658 0.07451258027885653 26.760572151094497 -0.80639250246565164 -1.0678398767246418 -0.31554616765400251 22.190526224294235 -0.12142271361859248 -0.51538742011613092 -1.2356978780372585 -0.89117973922063942 0.55223690028257522 0.20498106383433576 0.088384456660079144 -0.45499817798399805 0.7648313067486997 30.573021098674975 -0.73113311720207441 0.73827052859295617 25.586509521718451 0.095318511788286167 0.62043317908375384 0.061941927544624381 -0.13934642693257371 -0.5058098863604702 0.23368992226776936 56.192264994003608 0.066002077329201478 19.382284779957768 14.384455993785613 -0.39034965084443268 -0.3485669055347333 0.95560278995959491 -0.36505848824440296 -0.52917274496328615 0.027550810515244131 -0.37804263573543362 15.664505002783983
decision_type=8 10 8 10 10 10 10 10 8 10 10 10 10 10 10 10 10 10 2 8 10 10 10 10 2 10 8 10 10 10 10 2 10 2 10 10 10 10 10 10 10 10 10
left_child=3 2 12 10 11 15 23 16 -8 14 -1 20 -2 -11 17 -5 -6 -7 19 -10 28 -9 25 29 -13 32 30 -12 33 -4 35 41 -21 -3 40 37 -31 -20 -28 -32 -30 -27 -35
right_child=1 4 6 5 7 9 8 21 18 13 27 24 -14 -15 -16 -17 -18 -19 26 22 -22 -23 -24 -25 -26 31 38 -29 34 36 39 -33 -34 42 -36 -37 -38 -39 -40 -41 -42 -43 -44
leaf_value=0.010245745173255664 0.0085422963765283185 0.0024392920043578696 0.0033650228448080348 0.015492270797315475 -0.00039345578399636264 0.011830272776544443 0.0057332812853969056 -0.0013398355767614504 0.0053741138793580523 0.014096676966888065 0.0082079685007088871 0.001413546208173546 0.0072440945865301096 0.012664231578809793 0.011482239054203256 0.014154687378327317 0.00068727441220369292 0.012929327998223033 0.0040115357190469818 0.004597332045551043 0.0028167487968765721 -0.0022345567402825544 0.0041025397596276105 0.0035954347975882114 0.00088545154388958158 0.0046177758819944742 0.0040787166490565911 0.0086399412705029308 0.0022228761502826101 0.0029410556576899547 0.0043330873662047716 0.00428070288398129 0.004928744490974247 0.0022255478070862065 0.0019505523410243151 0.0042837451584246469 0.0031804607046157689 0.0042182164322046708 0.0039027025717429057 0.0045021914590475135 0.002074774899090838 0.0044657404008353165 0.002154591024404478
leaf_weight=25 36 25 34 20 28 22 35 20 21 25 25 36 36 22 35 23 28 29 30 20 26 30 36 30 20 21 32 21 21 25 22 33 20 20 39 35 25 21 33 20 36 29 28
leaf_count=25 36 25 34 20 28 22 35 20 21 25 25 36 36 22 35 23 28 29 30 20 26 30 36 30 20 21 32 21 21 25 22 33 20 20 39 35 25 21 33 20 36 29 28
internal_value=0.0051189 0.00335029 0.00465764 0.0119284 0.00117505 0.0130882 0.00421136 -0.000807608 0.00446818 0.0125423 0.00905326 0.00201234 0.0078932 0.0134262 0.0120592 0.0147768 0.000146909 0.0124552 0.00434947 0.00454896 0.00223847 -0.00187667 0.00443997 0.00329221 0.00122494 0.00453874 0.00416342 0.00840517 0.0021495 0.00318391 0.00425181 0.00443064 0.00476304 0.00227153 0.00205671 0.00417279 0.00306076 0.00409664 0.00398936 0.00441361 0.00212934 0.0045296 0.00218416
internal_weight=1198 951 594 247 357 176 522 106 408 133 71 251 72 47 86 43 56 51 373 180 195 50 159 114 56 123 193 46 169 84 128 83 40 73 96 86 50 51 65 42 57 50 48
internal_count=1198 951 594 247 357 176 522 106 408 133 71 251 72 47 86 43 56 51 373 180 195 50 159 114 56 123 193 46 169 84 128 83 40 73 96 86 50 51 65 42 57 50 48
is_linear=0
shrinkage=1


Tree=1
num_leaves=47
num_cat=0
split_feature=81 6 84 88 70 53 64 29 79 0 63 29 42 85 29 75 52 55 52 28 29 31 7 49 94 48 78 31 76 58 79 48 31 49 35 56 28 47 50 75 74 55 48 60 40 50
split_gain=7.27472 1.36363 0.432475 0.415307 0.29882 0.0820136 0.0610809 0.054539 0.038478 0.0286193 0.0276669 0.0225338 0.0152958 0.0124937 0.0105369 0.00839223 0.00824476 0.00721548 0.00505842 0.00497986 0.00484364 0.00442741 0.00420204 0.00190071 0.00163793 0.00150472 0.00150256 0.00148393 0.00142116 0.00139666 0.00118996 0.000897804 0.000802829 0.00061237 0.000506098 0.000487052 0.000379533 0.000303111 0.000288017 0.000234466 0.000184201 0.000170336 0.000166644 0.000146877 3.48656e-05 1.09361e-05
threshold=-0.62776948000260724 0.33606470083419243 0.04228073574780989 -0.58906906033436313 0.39690196120451671 1.0576603860648777 1.1224361003738117 26.760572151094497 -0.5094585856511773 25185000000.000004 -0.31554616765400251 22.190526224294235 -0.12142271361859248 0.83620820467098012 33.788916944444104 0.16444935450198531 0.62735421983586359 -0.20342662167584247 0.7648313067486997 21.986399324013597 30.573021098674975 0.23014259698621661 0.073055066544881878 -0.56022547464754324 -0.62491816570914727 -0.10129051229897658 -0.56887113220867647 0.032613840115260202 0.81086303952441863 -0.089059672007507071 -1.669189537653869 -0.49739208445506872 0.02087887779774825 0.23368992226776936 -0.38650056215203454 -0.39821680927523628 20.917724183758803 0.095637701726714389 -0.056105003627240198 -0.35411725287768409 0.38481356690773821 0.47526779460145802 0.076257521342591672 0.065604327054315639 0.0078278499390698839 0.025446552631170009
decision_type=8 10 8 10 10 10 8 10 10 2 10 10 10 8 10 10 10 10 10 2 10 2 2 10 10 10 10 2 8 10 10 8 2 10 10 10 2 10 8 10 8 10 10 10 10 8
left_child=3 2 12 10 11 8 9 16 14 19 -1 18 -2 -11 15 -5 -6 -10 27 22 -9 -7 30 -13 -12 -15 -21 38 -24 -30 37 -8 -33 39 -34 -31 43 -4 -3 42 -37 -35 -32 45 -45 -29
right_child=1 4 6 5 7 21 31 20 17 13 24 23 -14 25 -16 -17 -18 -19 -20 26 -22 -23 28 -25 -26 -27 -28 36 29 35 33 32 34 41 -36 40 -38 -39 -40 -41 -42 -43 -44 44 -46 -47
leaf_value=0.0050151997655279506 0.0033843781380863075 -0.0024194296816754867 -0.00085870912148445339 0.007629569146811112 -0.0051703952130751638 0.0098181693715043827 -0.0014410218729973127 -0.0060764258049871055 0.0076200141387380996 -0.00054974752473966638 0.0035431770117476946 -0.0033444040252147214 0.002141525591675528 0.00034272203748904751 0.0060366979403016245 0.0065748865600506658 -0.0041357420012221712 0.0086691336105144696 -0.0020970587382915891 -0.00088346839228402015 -0.0069330000457032172 0.0089426817554412123 -0.00070548365944685413 -0.0038440597284635802 0.0030299667444635089 0.0008166085909797838 -0.0013940716907624546 -0.0027165569426811239 -0.00013143603372240106 -0.00031582987119469972 -0.00075405293474502776 -0.0015802820646033339 -0.0019947616643021921 -0.00064920366195556848 -0.001711655749228193 -0.00047590808541785127 -0.0029796536501474598 -0.0010659145782433469 -0.002625678161131551 -0.0006503619077708379 -0.00064154736873037698 -0.00047534747908879824 -0.00091419079597238441 -0.002797052959890421 -0.0028725777267137338 -0.0027572584558352904
leaf_weight=25 36 20 33 24 28 21 26 20 22 25 20 25 36 21 30 32 28 26 26 22 30 21 31 31 26 29 20 30 30 23 27 37 22 21 24 26 22 21 32 20 23 20 21 20 25 20
leaf_count=25 36 20 33 24 28 21 26 20 22 25 20 25 36 21 30 32 28 26 26 22 30 21 31 31 26 29 20 30 30 23 27 37 22 21 24 26 22 21 32 20 23 20 21 20 25 20
internal_value=0.000106937 -0.00158626 -0.000334654 0.00662609 -0.00366877 0.00773649 -0.00076191 -0.00556689 0.00722123 -0.000524977 0.00387356 -0.00286717 0.00276295 0.000228468 0.00668148 0.00702689 -0.00465307 0.00818829 -0.00265069 -0.000692162 -0.00659037 0.00938043 -0.000630516 -0.003621 0.0032531 0.000617576 -0.00112661 -0.00273586 -0.000452679 -0.000375847 -0.000775623 -0.00165965 -0.00172813 -0.00069454 -0.00184705 -0.000477685 -0.00282008 -0.000939289 -0.00254635 -0.00077301 -0.000553657 -0.000564396 -0.000824113 -0.00278313 -0.00283901 -0.00273284
internal_weight=1198 951 594 247 357 176 522 106 134 413 71 251 72 75 86 56 56 48 195 338 50 42 296 56 46 50 42 169 133 102 163 109 83 109 46 72 117 54 52 68 49 41 48 95 45 50
internal_count=1198 951 594 247 357 176 522 106 134 413 71 251 72 75 86 56 56 48 195 338 50 42 296 56 46 50 42 169 133 102 163 109 83 109 46 72 117 54 52 68 49 41 48 95 45 50
is_linear=0
shrinkage=0.0426353


Tree=2
num_leaves=47
num_cat=0
split_feature=81 6 84 46 70 83 57 79 29 29 68 66 56 59 29 57 55 13 68 67 29 55 78 28 28 64 94 57 90 60 46 49 29 33 59 43 28 65 50 46 50 39 39 83 29 29
split_gain=6.66763 1.24983 0.396384 0.380648 0.273995 0.0756259 0.0571223 0.0361252 0.0348866 0.0341254 0.0285439 0.025358 0.0141325 0.00912218 0.00791562 0.00785412 0.00661332 0.00630841 0.00750793 0.00462655 0.00443943 0.00424803 0.0025451 0.00176544 0.00159375 0.00156775 0.00150124 0.00138313 0.00135038 0.00101282 0.000913827 0.00075309 0.000664658 0.000575668 0.000543438 0.000517191 0.000509555 0.000390755 0.000223482 0.000221198 0.000193012 0.00014626 0.000138147 0.000137352 4.07857e-05 2.51737e-05
threshold=-0.62776948000260724 0.33606470083419243 0.04228073574780989 -0.17191599910256253 0.44702457896308784 -0.52676396284530658 0.07451258027885653 -0.5094585856511773 22.190526224294235 26.760572151094497 -0.80639250246565164 -0.28931297092636404 -0.013955307880908452 -0.89117973922063942 35.232137649815236 0.27113333272949786 -0.20342662167584247 0.088384456660079144 -0.45499817798399805 0.13037732316710768 30.573021098674975 0.67728132341988445 -0.73113311720207441 11.135070843011322 24.755335254783422 -0.11570048055218458 -0.62491816570914727 0.095318511788286167 0.62043317908375384 -0.13934642693257371 -0.44290592738501405 0.23368992226776936 14.825890102632915 0.40375748348892299 -0.089356767256935546 -0.31554616765400251 19.382284779957768 -0.41713041827098712 0.017198520181512963 -0.36505848824440296 -0.18238578707364322 -0.74165120193694689 -0.18978494117285588 -0.40471924657927721 15.854001832519486 14.17786042651881
decision_type=8 10 8 10 10 10 10 10 10 10 8 10 10 10 10 10 10 2 8 10 10 10 10 2 2 10 10 10 8 10 10 10 10 10 10 10 2 10 10 10 10 10 10 10 10 10
left_child=3 2 12 11 8 13 23 14 19 -6 -8 -1 -2 -5 15 -7 -9 18 -12 29 -11 -10 27 30 -23 -14 -13 34 31 36 40 37 38 42 -20 -25 -3 -19 -31 -30 -4 -33 -29 -39 -38 -40
right_child=1 4 6 5 9 7 10 16 21 20 17 26 25 -15 -16 -17 -18 28 22 -21 -22 24 -24 35 -26 -27 -28 33 39 32 -32 41 -34 -35 -36 -37 44 43 45 -41 -42 -43 -44 -45 -46 -47
leaf_value=0.0048013750562291117 0.0033519199401939237 -0.0023524554506496684 -0.0016414698264495219 0.0096269022657371143 -0.0046143751237720685 0.00704500822489036 0.0006704987284419598 0.007295132375621979 -0.0040389983952238383 -0.0058173553154250253 0.00033632331142437969 0.0033921124909931316 0.0024008039979012295 0.0083818875074044754 0.005679843249008317 0.0060869857078071242 0.0082995219230553152 -0.00087931825151302419 -0.00038033960218718395 -0.0020506345792974199 -0.0066374096779917898 -0.003110808936667511 -0.00083672136381188341 -0.0019425396132861364 -0.0036132003213874978 0.0018798334643552652 0.0029007830372119558 -0.0003538894520280706 -0.00085062749097373027 -0.002566585934887873 -0.001203104089288534 -0.0004604443222246903 -0.0029385808849484172 -0.00066660185457982754 -6.6039440879330313e-05 -0.0016516577307900712 -0.0025566971451514127 -0.00076787972671094799 -0.002690943137013796 -0.0010079479265230136 -0.0014680540554198559 -0.00061974997129354229 -0.0004974771790041692 -0.00062999340930570697 -0.0026358393113164167 -0.002756346316558357
leaf_weight=25 30 25 20 20 38 35 35 22 28 20 21 20 21 23 22 28 26 33 20 30 30 22 36 20 24 21 26 21 32 28 21 20 20 33 20 25 29 24 23 33 28 22 29 29 20 20
leaf_count=25 30 25 20 20 38 35 35 22 28 20 21 20 21 23 22 28 26 33 20 30 30 22 36 20 24 21 26 21 32 28 21 20 20 33 20 25 29 24 23 33 28 22 29 29 20 20
internal_value=0.000102378 -0.00151863 -0.000320386 0.00634359 -0.00351235 0.00740664 -0.000729426 0.00690412 -0.00283678 -0.00557745 -0.000493671 0.00370841 0.00264515 0.00896096 0.00637609 0.00661922 0.00783918 -0.00060291 -0.000421351 -0.00253767 -0.00630939 -0.00362495 -0.000521421 -0.00157318 -0.00337293 0.00214032 0.0031144 -0.000429138 -0.000772239 -0.00262622 -0.00143768 -0.000691874 -0.00272148 -0.00052839 -0.00022319 -0.00178094 -0.00250909 -0.000764144 -0.00266032 -0.000930498 -0.00154031 -0.00054389 -0.00043717 -0.000692432 -0.002589 -0.00272136
internal_weight=1198 951 594 247 357 176 522 133 269 88 408 71 72 43 85 63 48 373 180 195 50 74 159 114 46 42 46 123 193 165 69 128 91 83 40 45 74 86 71 65 48 42 50 53 49 43
internal_count=1198 951 594 247 357 176 522 133 269 88 408 71 72 43 85 63 48 373 180 195 50 74 159 114 46 42 46 123 193 165 69 128 91 83 40 45 74 86 71 65 48 42 50 53 49 43
is_linear=0
shrinkage=0.0426353


Tree=3
num_leaves=47
num_cat=0
split_feature=81 6 84 89 70 53 57 29 79 63 1 29 56 29 59 52 75 74 55 59 52 29 59 2 70 28 28 89 94 48 57 64 31 45 63 43 69 55 28 30 47 29 31 38 30 30
split_gain=6.1112 1.14553 0.363419 0.348882 0.251554 0.069416 0.0527219 0.0456375 0.0324536 0.0232418 0.0230251 0.0189015 0.0122061 0.0090258 0.0078976 0.00743096 0.00723907 0.00712033 0.00606142 0.00461261 0.00418126 0.00406894 0.00274236 0.00259412 0.00233871 0.00232008 0.00161811 0.00140851 0.00137596 0.00131866 0.00125817 0.00115822 0.000999936 0.000897915 0.000594697 0.00047403 0.000303967 0.000301131 0.000222286 0.000201264 0.000171443 0.00017026 0.000158778 6.63088e-05 1.4819e-05 9.70262e-06
threshold=-0.62776948000260724 0.33606470083419243 0.032691048938627496 -1.1375172387804673 0.39690196120451671 1.0576603860648777 0.07451258027885653 26.760572151094497 -0.5094585856511773 -0.31554616765400251 0.08668769437502781 21.289546138837146 -0.013955307880908452 33.788916944444104 -0.90292126312638632 0.62735421983586359 0.16444935450198531 0.18645641236571187 -0.20342662167584247 -0.88666349009136491 0.7648313067486997 30.573021098674975 -0.78079120415617065 0.03657368265286922 0.3184847812510988 25.586509521718451 11.135070843011322 -0.41614112489884464 -0.62491816570914727 0.3289107495944491 0.13574375825002158 -0.11570048055218458 0.032613840115260202 -0.44607255254106198 0.75093419730342359 -0.31554616765400251 -0.23924256915644357 0.35076218160545319 18.945320526643972 0.020586640625070044 0.095637701726714389 7.2217447538507527 0.034093579132566457 0.1263838572250888 -0.0021823341067944515 0.0034463282035482111
decision_type=8 10 8 10 10 10 10 10 10 10 2 10 10 10 10 10 10 8 10 10 10 10 10 2 10 2 2 10 10 10 10 10 2 10 10 10 8 10 2 10 10 10 2 10 10 10
left_child=3 2 12 5 11 8 26 15 13 -5 17 20 -2 16 -7 -6 -1 22 -10 -12 32 -9 -8 34 30 27 33 -13 -11 36 -25 -14 38 41 37 -28 39 40 -3 43 -19 -4 44 -26 -34 -44
right_child=1 4 6 9 7 14 10 21 18 28 19 25 31 -15 -16 -17 -18 23 -20 -21 -22 -23 -24 24 29 -27 35 -29 -30 -31 -32 -33 42 -35 -36 -37 -38 -39 -40 -41 -42 -43 45 -45 -46 -47
leaf_value=0.0070005483065756057 0.0032090097022020362 -0.0022211495051138327 -0.0013901483500980321 0.0045966667270551983 -0.0047593510426605255 0.0092164562681659075 0.00026863065921030208 -0.0055693304324162659 0.0069841018906818403 0.0032474884876913641 -0.0001511220919375155 -0.0028108833715406829 0.0022984448627217414 0.0055243610400901554 0.0080458371839713019 -0.0037770870327802413 0.0060210025554510499 -0.00079000878019522985 0.0079456692526532844 0.00066943552343002026 -0.0018933597727795936 -0.0063544214413968746 -0.00038032710829805614 -0.00021725815868333699 -0.00058192772418373044 -0.0036299238568908254 -0.0018597187201639658 -0.0032867952522089186 0.0027771071605459164 -0.00098543232411269486 -0.00056432555021747885 0.0018450960057452323 -0.0024769504115920568 -0.0011356477115069862 -0.0010450951577102437 -0.0015812387933724246 -0.00048870562053881334 -0.00067216334524081514 -0.0024023407007424066 -0.00075785890221993801 -0.00095011907188429737 -0.0015493960899816588 -0.0025924265070851123 -0.00067339632870235271 -0.0025240230810461822 -0.0026276562299080439
leaf_weight=24 30 20 23 25 28 20 20 20 22 20 20 20 21 30 22 28 32 31 26 33 25 30 29 37 34 20 20 26 26 23 39 20 20 20 22 25 22 25 32 29 20 26 30 25 31 27
leaf_count=24 30 20 23 25 28 20 20 20 22 20 20 20 21 30 22 28 32 31 26 33 25 30 29 37 34 20 20 26 26 23 39 20 20 20 22 25 22 25 32 29 20 26 30 25 31 27
internal_value=9.80131e-05 -0.00145388 -0.000306726 0.00607313 -0.0033626 0.00709086 -0.000695287 -0.00510415 0.00661682 0.0035503 -0.000469288 -0.00262712 0.00255549 0.00612112 0.00860327 -0.00426822 0.00644081 -0.000592718 0.00750495 0.000359791 -0.00240614 -0.00604039 -0.000115446 -0.000668895 -0.000584029 -0.00324656 -0.00150611 -0.00307988 0.00298162 -0.000691841 -0.000395359 0.0020773 -0.00248626 -0.00137639 -0.000849886 -0.00170501 -0.000630453 -0.000793378 -0.00233265 -0.00066589 -0.000852797 -0.00147465 -0.00256022 -0.000620686 -0.00250556 -0.00260911
internal_weight=1198 951 594 247 357 176 523 106 134 71 409 251 71 86 42 56 56 356 48 53 185 50 49 307 209 66 114 46 46 133 76 41 160 69 98 45 110 76 52 88 51 49 108 59 51 57
internal_count=1198 951 594 247 357 176 523 106 134 71 409 251 71 86 42 56 56 356 48 53 185 50 49 307 209 66 114 46 46 133 76 41 160 69 98 45 110 76 52 88 51 49 108 59 51 57
is_linear=0
shrinkage=0.0426353


Tree=4
num_leaves=48
num_cat=0
split_feature=81 6 89 46 70 53 57 58 29 28 1 63 36 27 59 55 46 59 52 46 63 28 57 33 28 58 94 29 28 31 48 31 15 78 28 48 28 27 55 50 29 48 60 52 59 40 50
split_gain=5.6012 1.04993 0.333837 0.319767 0.230609 0.0636231 0.0452844 0.0302024 0.0292908 0.0285685 0.0230683 0.0213022 0.0179132 0.00906024 0.00723852 0.0062763 0.00624488 0.00422767 0.0039359 0.00382451 0.00368217 0.00330339 0.00344906 0.0030777 0.00299289 0.00158501 0.00126113 0.00120401 0.00120298 0.00115673 0.000914914 0.000819402 0.000679548 0.000556447 0.000442202 0.000433816 0.000299018 0.000280015 0.000277912 0.000236013 0.000207426 0.00017558 0.000115541 8.71963e-05 6.37096e-05 2.58647e-05 1.1742e-05
threshold=-0.62776948000260724 0.33606470083419243 1.0000000180025095e-35 -0.17191599910256253 0.44702457896308784 1.0576603860648777 0.071792003799126439 0.081334694828874052 22.190526224294235 28.153788818082464 0.08668769437502781 -0.31554616765400251 -0.18989589960154774 106.45525184691481 -0.90292126312638632 -0.20342662167584247 0.85788822375303264 -0.88666349009136491 0.7648313067486997 0.5408081566712486 0.67728132341988445 21.986399324013597 0.095318511788286167 -0.073622352141052547 31.355202530986279 0.36282741607279634 -0.62491816570914727 7.6813615001151767 24.755335254783422 0.032613840115260202 0.45517466227932663 0.073311558904289295 -1.0000000180025095e-35 -0.47673506094683099 11.135070843011322 0.30751905196688417 20.917724183758803 55.347914314331511 0.52325953817032977 -0.034589321294484408 6.8857555513852517 -0.61182563114574229 0.063461833960732475 0.62502613606465984 -1.2341766336059889 0.0059892557134206279 0.025446552631170009
decision_type=8 10 10 10 10 10 10 10 10 2 2 10 10 2 10 10 10 10 10 10 10 2 10 10 2 10 10 10 2 2 10 2 2 10 2 10 2 2 10 8 10 10 10 10 10 10 8
left_child=3 2 6 11 8 7 27 13 18 19 21 -1 -4 -5 -7 -9 -15 -12 29 -6 -10 22 35 -14 -11 30 -13 34 -22 39 32 -23 -24 -32 40 -8 42 -27 41 -3 -2 -34 46 -43 -45 -44 -31
right_child=1 4 12 5 9 14 10 15 20 24 17 26 23 16 -16 -17 -18 -19 -20 -21 28 31 25 -25 -26 37 -28 -29 -30 36 33 -33 38 -35 -36 -37 -38 -39 -40 -41 -42 43 45 44 -46 -47 -48
leaf_value=0.00440068632030053 -0.0012672163746017724 -0.0021423668775226558 0.0029561310559051918 0.0066140533916049628 -0.0046891744474952196 0.0088235094185818552 -0.00033293078159116494 0.0066700962735327307 -0.0036962947850205001 -0.0054167150255293285 -0.00014467895244067215 0.0031090306723295805 0.0020289622125598595 0.0059221760829380335 0.0077028001356769273 0.007606902799507387 0.0050498945963908907 0.00064089392636868751 -0.0018370321193072379 -0.0038553827391524585 -0.0028445598177701949 -0.00078622372864308961 -0.00078661459089907646 0.001307362921855644 -0.0060995904255679535 -0.00034673895859182866 0.0026587042551900505 -0.0017627165858730225 -0.0032864258046692331 -0.0023777255999321359 -0.0007087498049195705 -0.0011593651843689195 -0.00052305659388236141 -0.0010104689916722149 -0.0015299024685569596 -6.1425687716875162e-05 -0.0026165114231233538 -0.00054264010377516874 -0.0004630396256933134 -0.0023240298489197384 -0.0014325322929741894 -0.00057909467955501062 -0.00245284254620186 -0.00062819927989499495 -0.00072678067761095899 -0.0025168124274000283 -0.0024204984263829616
leaf_weight=25 37 26 37 20 20 20 23 26 29 20 20 20 22 37 22 26 25 33 26 20 21 23 37 21 28 36 26 20 24 28 25 20 28 20 30 20 22 21 29 26 22 22 20 22 26 27 20
leaf_count=25 37 26 37 20 20 20 23 26 29 20 20 20 22 37 22 26 25 33 26 20 21 23 37 21 28 36 26 20 24 28 25 20 28 20 30 20 22 21 29 26 22 22 20 22 26 27 20
internal_value=9.38343e-05 -0.0013919 -0.000293649 0.0058142 -0.00321923 0.00678854 -0.000692405 0.00633471 -0.00259945 -0.0051138 -0.000484795 0.00339893 0.00226836 0.00582499 0.00823647 0.0071385 0.00557045 0.000344451 -0.00232538 -0.00427228 -0.00332166 -0.000609653 -0.00056093 0.00167655 -0.00581506 -0.000618201 0.0028545 -0.0014638 -0.00308022 -0.00240051 -0.000672552 -0.000959778 -0.000625825 -0.000842847 -0.00139663 -0.000206649 -0.00247487 -0.000418913 -0.00057898 -0.0022332 -0.00132886 -0.000613289 -0.00244207 -0.000649382 -0.000681598 -0.00248959 -0.00239555
internal_weight=1198 951 594 247 357 176 514 134 269 88 405 71 80 82 42 52 62 53 195 40 74 352 309 43 48 266 46 109 45 169 209 43 164 45 89 43 117 57 127 52 59 98 95 70 48 47 48
internal_count=1198 951 594 247 357 176 514 134 269 88 405 71 80 82 42 52 62 53 195 40 74 352 309 43 48 266 46 109 45 169 209 43 164 45 89 43 117 57 127 52 59 98 95 70 48 47 48
is_linear=0
shrinkage=0.0426353


Tree=5
num_leaves=47
num_cat=0
split_feature=81 6 46 89 70 45 59 54 58 68 90 29 83 65 63 29 46 89 13 59 68 28 29 68 49 31 58 57 48 93 46 50 48 50 60 77 49 56 46 49 28 31 83 29 60 50
split_gain=4.95928 0.91577 0.303638 0.295854 0.200841 0.0627904 0.0452532 0.0350484 0.0251627 0.0224627 0.0167365 0.0144042 0.00949789 0.00821616 0.00801227 0.00601398 0.00563928 0.00513538 0.00488318 0.0046986 0.0036199 0.00247834 0.00241356 0.00176771 0.00118474 0.00100008 0.000961068 0.000874603 0.000861306 0.000824086 0.000740111 0.000613171 0.000601662 0.000444802 0.000333839 0.000328454 0.000257676 0.000232527 0.000165326 0.000158694 0.000131042 0.00010146 7.43748e-05 6.89806e-05 5.40224e-05 1.63174e-05
threshold=-0.62776948000260724 0.33606470083419243 -0.36505848824440296 1.0000000180025095e-35 0.39690196120451671 1.0364716551544351 1.0588550840738917 0.68850037797382957 -0.18718992479586266 -0.80639250246565164 0.45293944863215779 22.190526224294235 0.08852862136044988 0.42877566321694532 0.85670746543142984 33.597761380088613 0.54636904990849922 -1.1712814725689886 0.028906532537276486 -0.44645977858036989 -0.49008732621744105 22.660923621755142 8.3789446972665669 -0.7827550193568874 -0.57247598482730899 0.034093579132566457 -0.39218023804324736 0.11361389162436453 0.30214314408510484 1.0364716551544351 -0.32403504778483472 0.044855648525856322 0.25902906104724616 -0.07138018208628745 -0.5058098863604702 0.46258197467634343 -0.61483060469330819 -0.39821680927523628 -0.36505848824440296 -0.57247598482730899 20.678390265979733 0.031621061815231881 -0.38211710459618542 6.8857555513852517 0.12203989728832842 0.037901466853397146
decision_type=8 10 10 10 10 10 8 10 10 8 10 10 10 10 10 10 10 10 2 10 10 2 10 10 10 2 10 10 10 10 10 10 10 8 10 8 10 10 10 10 2 2 10 10 10 8
left_child=2 3 13 6 11 8 9 16 15 -2 29 19 -10 -1 -7 -4 -6 -14 27 25 -12 23 30 38 -13 33 32 31 35 -5 34 -11 36 -3 43 39 -25 -15 -20 -28 44 -35 -38 -8 -27 -43
right_child=1 4 5 10 7 14 22 -9 12 18 20 24 17 37 -16 -17 -18 -19 21 -21 -22 -23 -24 26 -26 40 28 -29 -30 -31 -32 -33 -34 41 -36 -37 42 -39 -40 -41 -42 45 -44 -45 -46 -47
leaf_value=0.003669991375065559 0.00061505161051783087 -0.0020407025423435443 0.0056239111007176752 0.0025054610734797271 -0.0043858487203095563 0.007175209625880666 -0.001243867575057704 -0.0056574973805188864 0.0069296206892181999 1.5448054732399882e-05 0.0018641300072079639 -0.0028246645022060308 0.0064530923258232804 0.0025535142268577854 0.0083420272474374405 0.0047476430849878693 -0.0036038900729516458 0.0054984885046837004 -0.00075745213678729485 -0.0016005291525020755 0.0010626638266108201 -0.0009959516474147116 -0.0017936193290730743 -0.00070006076325298866 -0.0032357296148749939 -0.0023341793936043141 -0.000502939364480089 -0.00048120758295895009 -0.00023668011422121955 0.002892501365009226 -0.001108571921576167 -0.00028304564721591736 -0.00081740123758468309 -0.0021749728483608909 -0.0014754029595132768 -0.00041889994761607629 -0.00057221552735404579 0.0027503538214061511 -0.00091193599363438083 -0.00065179454634690936 -0.0025052569157699828 -0.0022639359749789421 -0.00046004059271002374 -0.0013518981111418824 -0.002424720037275287 -0.0023105745778934563
leaf_weight=22 32 23 35 20 38 20 22 38 37 22 21 26 21 20 23 24 30 20 34 20 20 32 23 20 25 25 23 21 25 20 25 29 26 21 34 35 21 24 20 30 21 30 22 21 23 25
leaf_count=22 32 23 35 20 38 20 22 38 37 22 21 26 21 20 23 24 30 20 34 20 20 32 23 20 25 25 23 21 25 20 25 29 26 21 34 35 21 24 20 30 21 30 22 21 23 25
internal_value=7.98506e-05 -0.00132652 0.00547094 -0.000317346 -0.00307575 0.00637795 -0.000692712 -0.00462041 0.00593183 -0.000467464 0.00207851 -0.00239068 0.00643437 0.00299725 0.00779932 0.00526746 -0.00404087 0.00598743 -0.000563687 -0.00221828 0.00147317 -0.0006422 -0.00139909 -0.000597981 -0.00302617 -0.00229182 -0.000540055 -0.000249636 -0.000457522 0.00269898 -0.00131013 -0.000154284 -0.000644843 -0.00220498 -0.00137557 -0.000520261 -0.000573629 0.00266088 -0.000814668 -0.000587197 -0.00241643 -0.0022547 -0.000514824 -0.00129663 -0.00237756 -0.00228514
internal_weight=1189 943 246 598 345 180 517 106 137 392 81 239 78 66 43 59 68 41 360 188 41 288 125 256 51 168 202 72 113 40 102 51 89 99 77 88 63 44 54 53 69 76 43 43 48 55
internal_count=1189 943 246 598 345 180 517 106 137 392 81 239 78 66 43 59 68 41 360 188 41 288 125 256 51 168 202 72 113 40 102 51 89 99 77 88 63 44 54 53 69 76 43 43 48 55
is_linear=0
shrinkage=0.0426353


Tree=6
num_leaves=47
num_cat=0
split_feature=81 1 73 84 70 45 79 33 3 70 46 79 47 77 90 63 67 55 46 85 55 84 60 52 70 56 38 52 70 4 48 28 40 67 56 33 63 45 31 70 33 74 58 40 28 60
split_gain=4.54541 0.822801 0.279316 0.25066 0.224256 0.055448 0.0322151 0.0321235 0.0248059 0.0218726 0.0136698 0.0115766 0.0102239 0.00985526 0.00918069 0.00734363 0.00671426 0.00552982 0.00517442 0.00477953 0.00452665 0.00438469 0.00313688 0.00215319 0.00184748 0.00158728 0.00137809 0.00131175 0.000957652 0.000672345 0.000625142 0.000569388 0.000565362 0.000504374 0.000432924 0.000355715 0.00034109 0.000265987 0.00021035 0.000149569 0.000107386 7.93719e-05 5.72575e-05 3.63321e-05 3.45947e-05 3.23875e-05
threshold=-0.62776948000260724 0.094484810496866009 0.12675942208336374 0.032691048938627496 0.39690196120451671 1.0364716551544351 -0.5094585856511773 0.68850037797382957 0.17416059410838874 0.12130836465976792 0.78350517813568832 -0.60175490169733914 0.084364250449623604 0.17351165632888843 0.36814880080148155 0.85670746543142984 0.52349980363539161 -0.32624124719565134 0.55009384291568864 0.66397400128982109 -0.18428960914548057 0.19120710961810725 -0.28432792325443157 0.57519839400803918 0.71521575801229331 1.0008278351224777 0.11251372903495259 0.95560278995959491 0.3184847812510988 0.49482544981886428 -0.44854544207540681 20.110918310395189 0.019978527672440512 0.2702887127787475 -0.40592062406205587 0.2499487251158741 -0.0056644674988778161 0.75042713707464326 0.034567536116776314 0.19402947916742252 -0.18723406361800099 0.37097537240896522 0.096049987249903337 0.033202236268281761 19.464391989754407 0.026112331615146419
decision_type=8 2 10 8 10 10 10 10 10 8 10 8 10 10 10 10 10 8 10 10 10 8 10 10 10 10 10 10 10 2 10 2 10 10 10 8 10 10 2 10 10 8 10 8 2 10
left_child=2 3 5 14 9 6 16 18 13 22 21 28 32 17 -2 -7 19 42 -6 -1 -8 -10 35 34 27 -12 -16 37 -11 38 -19 -31 -4 -26 39 -3 -25 -15 45 -23 -32 -36 -5 -33 -40 -13
right_child=1 4 12 8 7 15 20 -9 10 11 25 29 -14 24 26 -17 -18 30 -20 -21 -22 23 -24 36 33 -27 -28 -29 -30 31 40 43 -34 -35 41 -37 -38 -39 44 -41 -42 -43 -44 -45 -46 -47
leaf_value=0.0058339555209030256 0.0027194913588389309 -0.001171640824531487 0.0027795280180676479 -0.00069817415125084581 -0.0041892933907483219 0.0068692921306479629 0.0061797974514878756 -0.0054162881607890357 0.00020587031943100186 -0.0027125672353611129 0.00020463469220637217 -0.0021429366711951813 0.0037490427439975695 -0.00070247403283367439 0.0014917185796171663 0.0079863620200644764 0.0047114244102244036 -0.001191031783040984 -0.0034372831717393994 0.0050524190886375425 0.0070264789072308599 -0.00015288231908371766 -0.0018647274282606202 -0.00057645819389992386 -0.0006616755833257586 0.00071219408290788822 0.0019922232896757517 -0.00024158269819130873 -0.0030795880856049314 -0.0019212819710079606 -0.0013874422693038709 -0.0022153798656306769 0.0024848707112511388 -0.00092097215516877653 -0.00036220988780359729 -0.0014070630216565978 -0.00077819802770556095 -0.00049957510885260232 -0.0022791532761083488 -0.00031379720518106294 -0.0015177273390632622 -0.00046566080852953451 -0.00079585100254161132 -0.0021375725354793938 -0.0023489108823537934 -0.0022196654939475118
leaf_weight=33 31 20 20 20 39 20 22 38 20 24 24 20 20 23 20 23 30 26 29 25 24 21 30 39 30 21 20 31 28 26 23 20 29 25 26 28 25 24 28 21 23 28 24 24 24 20
leaf_count=33 31 20 20 20 39 20 22 38 20 24 24 20 20 23 20 23 30 26 29 25 24 21 30 39 30 21 20 31 28 26 23 20 29 25 26 28 25 24 28 21 23 28 24 24 24 20
internal_value=7.64461e-05 -0.00126996 0.00523768 -0.000193734 -0.00274369 0.00613467 0.0057072 -0.00442342 -0.000547612 -0.00213393 -0.000223148 -0.00235671 0.00293671 -0.000840803 0.00216878 0.00746679 0.00522925 -0.00112801 -0.00386858 0.00549709 0.00662154 -0.000389309 -0.00152272 -0.000463707 -0.000590303 0.000441496 0.00174197 -0.000456869 -0.00291019 -0.00217904 -0.00135814 -0.00207947 0.00260514 -0.000779538 -0.000336002 -0.00130897 -0.000655263 -0.000598866 -0.00225481 -0.00023334 -0.00145258 -0.000415851 -0.000751452 -0.00217294 -0.00231135 -0.0021813
internal_weight=1189 943 246 545 398 177 134 106 474 292 225 214 69 249 71 43 88 116 68 58 46 180 78 160 133 45 40 78 52 162 72 70 49 55 96 48 64 47 92 42 46 54 44 44 52 40
internal_count=1189 943 246 545 398 177 134 106 474 292 225 214 69 249 71 43 88 116 68 58 46 180 78 160 133 45 40 78 52 162 72 70 49 55 96 48 64 47 92 42 46 54 44 44 52 40
is_linear=0
shrinkage=0.0426353


Tree=7
num_leaves=49
num_cat=0
split_feature=81 6 73 89 70 83 57 70 79 68 90 79 65 47 28 46 55 13 77 77 85 68 28 28 68 70 79 76 60 50 57 85 48 49 50 47 50 60 28 58 60 46 27 35 50 28 30 30
split_gain=4.16608 0.769352 0.256006 0.24914 0.168705 0.0511124 0.0373389 0.0294933 0.0280199 0.0193876 0.0140428 0.0121756 0.0093735 0.00630951 0.00875517 0.00561708 0.00414889 0.00400998 0.00396982 0.00377379 0.00300721 0.002824 0.00258524 0.00166884 0.00151816 0.00124315 0.00109995 0.000961552 0.000735774 0.000726901 0.000676688 0.000671411 0.000642704 0.00054584 0.000509445 0.000418337 0.000333601 0.000328839 0.000327906 0.000222942 0.000179484 0.000147852 9.8861e-05 6.76433e-05 5.76371e-05 3.64356e-05 3.41969e-05 3.95409e-06
threshold=-0.62776948000260724 0.33606470083419243 0.12675942208336374 1.0000000180025095e-35 0.39690196120451671 -0.52676396284530658 0.0726597106518026 0.53568656015903804 -0.5094585856511773 -0.80639250246565164 0.45963425594839408 -0.60175490169733914 0.42877566321694532 0.065273488414875416 39.95994867071196 0.55009384291568864 -0.18428960914548057 0.028906532537276486 0.15623050074621864 0.63262021580878225 0.65607101895971798 -0.49008732621744105 22.490773692436274 12.689996964484445 -0.7827550193568874 0.30759922635606324 -0.95959819690767578 0.81086303952441863 0.024777888515339772 0.075154470290858186 0.11361389162436453 -0.4027486094142021 0.51535797941644168 0.83150974285855539 0.044855648525856322 0.04055035387870317 -0.064922726496012453 -0.54582463426652483 19.054091640143174 0.49141625500878761 0.19238171452864566 -0.36505848824440296 59.234292757089428 -0.38650056215203454 0.025446552631170009 19.947564766026929 0.010274045322108552 0.0025587805638077783
decision_type=8 10 10 10 10 10 10 10 10 8 10 8 10 10 2 10 10 2 8 10 10 10 2 2 10 10 10 8 10 10 10 10 10 10 10 10 8 10 2 10 10 10 2 10 10 2 10 10
left_child=2 3 5 6 11 19 23 15 13 -8 26 25 -4 -7 20 31 -10 30 -13 -1 -15 -12 24 33 41 -3 -5 32 36 -29 34 -6 35 37 -11 -26 -20 -2 40 -14 -37 -19 -42 -39 -30 -38 -46 -47
right_child=1 4 12 10 7 8 9 -9 16 17 21 18 39 14 -16 -17 -18 22 28 -21 -22 -23 -24 -25 27 -27 -28 29 44 -31 -32 -33 -34 -35 -36 38 45 43 -40 -41 42 -43 -44 -45 46 47 -48 -49
leaf_value=0.0067998345726853204 -0.0011847871924377292 -0.0025077832514648216 0.0034707512662702101 0.0026777555285251442 -0.0038527177943883349 0.0056962860016925498 0.00056725525970548207 -0.0051861784240937623 0.0059163192540013249 1.2970914272299142e-05 0.0016976453538367097 -0.0014595573077564573 0.0025245310009361492 0.0054807444770284845 0.0041720566954387573 -0.0032400391471888047 0.0067269025660053675 -0.00069367623940059771 -0.0018743403214558645 0.0076280797169274769 0.0047909754264289992 0.00098116814539835452 -0.00091920590761365153 -0.0016598540214506135 -0.00034776832168781992 -0.002924116988647247 0.0022359584267248899 -0.00013036929292345429 -0.0021290121344322423 -0.00046690730023050004 -0.00044210952570127488 -0.004202070314034626 -0.00075300137782026715 -0.0010557348910184572 -0.00026482611304450308 -0.00040109738903510393 -0.0020141874872014564 -0.0014219648261103634 -0.00068738724500148787 0.0023317913926789511 -0.0006084478580112195 -0.00083976805984692544 -0.00049983783396979941 -0.0013137497966919935 -0.0021876964815013811 -0.002070385187122218 -0.0022565728196498641 -0.0020965785564615843
leaf_weight=20 31 22 25 21 20 21 32 38 22 20 20 20 24 27 23 28 24 34 24 20 20 20 39 20 24 32 20 20 21 28 21 20 23 24 30 22 20 21 23 20 25 20 39 21 38 20 20 22
leaf_count=20 31 22 25 21 20 21 32 38 22 20 20 20 24 27 23 28 24 34 24 20 20 20 39 20 24 32 20 20 21 28 21 20 23 24 30 22 20 21 23 20 25 20 39 21 38 20 20 22
internal_value=7.31868e-05 -0.00121582 0.00501437 -0.000290831 -0.00281913 0.00587312 -0.000635291 -0.00423483 0.00548163 -0.00043933 0.00190776 -0.00219125 0.0028115 0.00504812 0.00485367 -0.00370319 0.00633923 -0.000526859 -0.00202684 0.00721396 0.00518723 0.00133941 -0.000595672 -0.00130524 -0.000546766 -0.0027545 0.00246224 -0.000493555 -0.0020956 -0.000326683 -0.000239009 -0.00402739 -0.0005449 -0.00123212 -0.000153707 -0.000508912 -0.00200931 -0.00129012 -0.000544394 0.00243692 -0.000506151 -0.000747784 -0.000542264 -0.00136786 -0.00218953 -0.00206155 -0.00221145 -0.00208411
internal_weight=1189 943 246 598 345 177 517 106 137 400 81 239 69 91 70 68 46 368 185 40 47 40 297 117 258 54 41 204 165 48 71 40 156 97 50 133 86 73 109 44 86 54 64 42 79 62 58 42
internal_count=1189 943 246 598 345 177 517 106 137 400 81 239 69 91 70 68 46 368 185 40 47 40 297 117 258 54 41 204 165 48 71 40 156 97 50 133 86 73 109 44 86 54 64 42 79 62 58 42
is_linear=0
shrinkage=0.0426353


Tree=8
num_leaves=45
num_cat=0
split_feature=81 6 35 84 70 45 57 79 29 68 29 90 29 66 85 46 31 69 88 78 67 31 27 29 13 38 12 49 82 31 84 49 67 60 31 27 60 58 83 49 50 40 50 27
split_gain=3.81841 0.705148 0.234407 0.228033 0.154626 0.0489645 0.0364005 0.0290378 0.0273855 0.0168692 0.0112381 0.00820929 0.00628658 0.00615672 0.00525729 0.00489787 0.00454611 0.00410447 0.00400817 0.00380785 0.00361195 0.00340628 0.00219565 0.00176122 0.00175228 0.00133929 0.00123461 0.00114695 0.000938183 0.000706461 0.000499378 0.000426623 0.000270202 0.000235767 0.000230913 0.000199729 0.000157929 0.000149449 0.000132722 0.000144408 0.000120089 6.64749e-05 4.0271e-05 2.98952e-05
threshold=-0.62776948000260724 0.33606470083419243 -0.17713495238992544 0.04228073574780989 0.39690196120451671 1.0289156954338918 0.0726597106518026 -0.5094585856511773 26.760572151094497 -0.80639250246565164 21.289546138837146 0.36814880080148155 33.788916944444104 -0.23810760195846423 0.70894443430343601 0.55009384291568864 0.2309385747117241 -0.85331651754536442 -0.34538011669240848 0.56799321527074709 0.13037732316710768 0.072669554521631471 91.61311355284262 7.9233941549441349 0.028906532537276486 0.11251372903495259 0.05288710639990709 -0.57247598482730899 0.95122789488805204 0.031903626908893236 1.0202356859395019 0.83150974285855539 0.39803775629035093 -0.57082532021673471 0.034567536116776314 75.238377833084812 0.30030014805840743 0.081334694828874052 -0.40173576874687372 -0.50465714099357728 -0.056105003627240198 0.017018476963661992 0.037901466853397146 39.923182132955866
decision_type=8 10 10 8 10 10 10 10 10 8 10 10 10 10 10 10 2 10 8 10 10 2 2 10 2 10 2 10 8 2 8 10 10 10 2 2 10 10 10 10 8 10 8 2
left_child=2 3 13 11 10 7 23 12 15 -8 20 -2 14 -1 -4 -6 -7 21 -19 -9 29 26 -10 31 -20 -13 -11 -12 -26 40 38 33 -15 -5 42 36 -30 -32 -28 -40 -3 -35 -31 -36
right_child=1 4 5 6 8 16 9 19 22 17 27 25 -14 32 -16 -17 -18 18 24 -21 -22 -23 -24 -25 28 -27 30 -29 35 34 37 -33 -34 41 43 -37 -38 -39 39 -41 -42 -43 -44 -45
leaf_value=0.0032094768338016342 0.002495453989798415 -0.0017765678041271394 0.0053119157304143275 -0.0011180614961195762 -0.0037990074542501267 0.0072294131266494111 0.00054307012838990221 0.005645712824458084 -0.0045378282116776232 -0.00030395501969379885 -0.0024333741949714798 0.0013382251054961415 0.0042078465372754961 0.0022302901457966098 0.0045208120676792163 -0.00303106048397437 0.0063590605040284289 0.00019799531386209668 -0.00015413072367443458 0.006424482683116739 -0.0014099986729297473 -0.0011225813657329841 -0.0051426908721311426 -0.0015752177746428831 -0.00068001322159544331 0.0018257239695774179 -0.00060210208472618178 -0.0028192776858201088 -0.00030278825614381678 -0.0019722546397033512 -0.00061656397030588846 -0.0010107232792561246 0.0024415991267462828 -0.0012312641130417512 -0.0020884202503737561 -0.00051496287048070726 -0.00044247876965035186 -0.00074136208517050484 -0.0005745197322349927 -0.00042757480811954986 -0.001922546116912743 -0.0013375446667748003 -0.0020400254341816121 -0.0021507229198511535
leaf_weight=22 31 20 37 26 36 24 32 21 20 31 28 21 27 22 26 26 20 23 38 25 21 21 24 24 33 20 27 28 31 37 33 24 22 23 28 24 28 37 20 31 21 20 28 28
leaf_count=22 31 20 37 26 36 24 32 21 20 31 28 21 27 22 26 26 20 23 38 25 21 21 24 24 33 20 27 28 31 37 33 24 22 23 28 24 28 37 20 31 21 20 28 28
internal_value=7.00664e-05 -0.00116398 0.00480058 -0.000278431 -0.00269893 0.00559752 -0.00058646 0.00519754 -0.00405427 -0.000396763 -0.00209782 0.00197189 0.00475215 0.00262712 0.00498543 -0.00347697 0.0068338 -0.000476536 -0.000326997 0.00606896 -0.00193609 -0.000608879 -0.00486775 -0.00124959 -0.000405405 0.00157603 -0.000548612 -0.00262633 -0.000487719 -0.00200429 -0.000599858 -0.00116556 0.00233594 -0.00121941 -0.00205612 -0.000411264 -0.000369082 -0.000682529 -0.000525666 -0.0004852 -0.00185134 -0.0012807 -0.00200145 -0.00211957
internal_weight=1189 943 246 598 345 180 526 136 106 409 239 72 90 66 63 62 44 377 177 46 183 200 44 117 154 41 179 56 116 162 148 93 44 69 121 83 59 70 78 51 41 43 65 56
internal_count=1189 943 246 598 345 180 526 136 106 409 239 72 90 66 63 62 44 377 177 46 183 200 44 117 154 41 179 56 116 162 148 93 44 69 121 83 59 70 78 51 41 43 65 56
is_linear=0
shrinkage=0.0426353


end of trees

feature_importances:
PS_Ratio=32
PB_Ratio=25
ma_25=18
total_return_180=16
total_return_25=15
total_return_90=15
Price=14
std_90=13
kurt_25=12
kurt_90=12
skew_25=11
lag_90=11
skew_180=11
max_25=10
kurt_252=10
first_return_90=9
min_252=9
OperatingMargin=8
skew_90=8
last_return_252=8
PE_Ratio=7
std_25=7
ma_90=7
first_return_252=7
kurt_504=6
total_return_504=6
Liabilities_log=5
MarketCapLog=5
Returns=5
total_return_5=5
lag_25=5
std_180=5
kurt_180=5
skew_252=5
lag_504=5
lag_5=4
lag_252=4
std_252=4
last_return_504=4
ROE=3
skew_5=3
first_return_25=3
last_return_90=3
lag_180=3
last_return_180=3
kurt_5=2
max_5=2
first_return_5=2
ma_180=2
first_return_180=2
ma_252=2
skew_504=2
WeightedAverageNumberOfDilutedSharesOutstanding=1
ROA=1
AssetTurnover=1
DebtToEquity=1
EarningsPerShareDiluted_log=1
Assets_log=1
WeightedAverageNumberOfDilutedSharesOutstanding_log=1
ma_5=1
last_return_25=1
max_252=1
ma_504=1
first_return_504=1

parameters:
[boosting: gbdt]
[objective: regression]
[metric: rmse]
[tree_learner: serial]
[device_type: cpu]
[data_sample_strategy: bagging]
[data: ]
[valid: ]
[num_iterations: 2000]
[learning_rate: 0.0426353]
[num_leaves: 64]
[num_threads: 4]
[seed: 42]
[deterministic: 0]
[force_col_wise: 0]
[force_row_wise: 0]
[histogram_pool_size: -1]
[max_depth: -1]
[min_data_in_leaf: 20]
[min_sum_hessian_in_leaf: 0.001]
[bagging_fraction: 0.8]
[pos_bagging_fraction: 1]
[neg_bagging_fraction: 1]
[bagging_freq: 5]
[bagging_seed: 400]
[bagging_by_query: 0]
[feature_fraction: 0.8]
[feature_fraction_bynode: 1]
[feature_fraction_seed: 30056]
[extra_trees: 0]
[extra_seed: 12879]
[early_stopping_round: 0]
[early_stopping_min_delta: 0]
[first_metric_only: 0]
[max_delta_step: 0]
[lambda_l1: 0]
[lambda_l2: 0]
[linear_lambda: 0]
[min_gain_to_split: 0]
[drop_rate: 0.1]
[max_drop: 50]
[skip_drop: 0.5]
[xgboost_dart_mode: 0]
[uniform_drop: 0]
[drop_seed: 17869]
[top_rate: 0.2]
[other_rate: 0.1]
[min_data_per_group: 100]
[max_cat_threshold: 32]
[cat_l2: 10]
[cat_smooth: 10]
[max_cat_to_onehot: 4]
[top_k: 20]
[monotone_constraints: ]
[monotone_constraints_method: basic]
[monotone_penalty: 0]
[feature_contri: ]
[forcedsplits_filename: ]
[refit_decay_rate: 0.9]
[cegb_tradeoff: 1]
[cegb_penalty_split: 0]
[cegb_penalty_feature_lazy: ]
[cegb_penalty_feature_coupled: ]
[path_smooth: 0]
[interaction_constraints: ]
[verbosity: -1]
[saved_feature_importance_type: 0]
[use_quantized_grad: 0]
[num_grad_quant_bins: 4]
[quant_train_renew_leaf: 0]
[stochastic_rounding: 1]
[linear_tree: 0]
[max_bin: 255]
[max_bin_by_feature: ]
[min_data_in_bin: 3]
[bin_construct_sample_cnt: 200000]
[data_random_seed: 175]
[is_enable_sparse: 1]
[enable_bundle: 1]
[use_missing: 1]
[zero_as_missing: 0]
[feature_pre_filter: 1]
[pre_partition: 0]
[two_round: 0]
[header: 0]
[label_column: ]
[weight_column: ]
[group_column: ]
[ignore_column: ]
[categorical_feature: ]
[forcedbins_filename: ]
[precise_float_parser: 0]
[parser_config_file: ]
[objective_seed: 16083]
[num_class: 1]
[is_unbalance: 0]
[scale_pos_weight: 1]
[sigmoid: 1]
[boost_from_average: 1]
[reg_sqrt: 0]
[alpha: 0.9]
[fair_c: 1]
[poisson_max_delta_step: 0.7]
[tweedie_variance_power: 1.5]
[lambdarank_truncation_level: 30]
[lambdarank_norm: 1]
[label_gain: ]
[lambdarank_position_bias_regularization: 0]
[eval_at: ]
[multi_error_top_k: 1]
[auc_mu_weights: ]
[num_machines: 1]
[local_listen_port: 12400]
[time_out: 120]
[machine_list_filename: ]
[machines: ]
[gpu_platform_id: -1]
[gpu_device_id: -1]
[gpu_use_dp: 0]
[num_gpu: 1]

end of parameters

pandas_categorical:[]
