tree
version=v4
num_class=1
num_tree_per_iteration=1
label_index=0
max_feature_idx=94
objective=regression
feature_names=WeightedAverageNumberOfDilutedSharesOutstanding ROE ROA AssetTurnover DebtToEquity NetProfitMargin OperatingMargin EarningsPerShareDiluted_log GrossProfit_log NetIncomeLoss_log OperatingIncomeLoss_log Revenues_log Assets_log Liabilities_log NoncurrentAssets_log WeightedAverageNumberOfDilutedSharesOutstanding_log Equity_log ROE_log ROA_log BookValuePerShare_log SalesPerShare_log AssetTurnover_log DebtToEquity_log NetProfitMargin_log OperatingMargin_log EarningsPerShareDilutedTTM_log SalesPerShareTTM_log PE_Ratio PB_Ratio PS_Ratio MarketCapLog Price CostsAndExpenses_log Returns Returns_Daily lag_5 ma_5 std_5 skew_5 kurt_5 total_return_5 min_5 max_5 first_return_5 last_return_5 lag_25 ma_25 std_25 skew_25 kurt_25 total_return_25 min_25 max_25 first_return_25 last_return_25 lag_90 ma_90 std_90 skew_90 kurt_90 total_return_90 min_90 max_90 first_return_90 last_return_90 lag_180 ma_180 std_180 skew_180 kurt_180 total_return_180 min_180 max_180 first_return_180 last_return_180 lag_252 ma_252 std_252 skew_252 kurt_252 total_return_252 min_252 max_252 first_return_252 last_return_252 lag_504 ma_504 std_504 skew_504 kurt_504 total_return_504 min_504 max_504 first_return_504 last_return_504
feature_infos=[25367000:29505000] [-0.77265598240522071:1.2111536551370576] [0.054676178229542995:0.095143645522305878] none [-15.131492131023418:11.729737740111185] none none [-0.55916572062219072:0.794459161809698] none [-0.56750406553934463:0.78921956560904394] [-0.52329605266176971:0.65274670873076757] none [-0.068957061618759335:0.053227983149096991] [-0.026528893853319548:0.17592095025158277] none [-0.061163044251744875:-0.00047175375329444472] [-0.58151269682888551:1.579406625637674] [-1.5883240090635125:1.3707322624379294] [-0.55395969169615622:0.78319385217639237] [-0.57627310062823167:1.6405696698894188] none none [-1.4034856753860911:0.65813752850362761] none none [-0.113499761742045:0.27761537971254946] none [22.747504681038883:69.046157270651221] [-115.9486393148771:124.32997076075829] none [-0.093859279698688819:0.27078603431357273] [0.17651130849736915:0.50663066238578547] [-0.47035996352582149:0.42243663880825899] [-0.32857149043027994:0.70054455156811968] [-0.084012977692182592:0.23925072176511544] [-0.32857149043027994:0.70054455156811968] [-0.29792433527380319:0.69125257896111691] [0.0027438858152120009:0.16630003512247332] [-2.2090815773121313:2.2206475812509447] [-3.2927539119849119:4.9471961072858619] [-0.11541792923287869:0.29408533495034728] [-0.32857149043027994:0.6790763641203007] [-0.28198655916974941:0.70054455156811968] [-0.32857149043027994:0.70054455156811968] [-0.32857149043027994:0.70054455156811968] [-0.32857149043027994:0.70054455156811968] [-0.26710715241232624:0.6522469694677252] [0.024373502582197115:0.18051057292911463] [-1.9709544404109443:1.9309319933770981] [-1.876098355052854:6.8578773901832637] [-0.25984756070936593:0.37301918742110884] [-0.32857149043027994:0.55343244112957457] [-0.2264985068988308:0.70054455156811968] [-0.32857149043027994:0.70054455156811968] [-0.32857149043027994:0.70054455156811968] [-0.32857149043027994:0.67398164988718046] [-0.20021868245319097:0.5740098639919281] [0.049338506255173491:0.16924455355087126] [-1.0194896612246238:1.5589944460247487] [-1.6710295797811785:3.5070327220524011] [-0.41709765515459213:0.47837054740639223] [-0.32857149043027994:0.45854818358088223] [-0.035255447730735655:0.70054455156811968] [-0.32857149043027994:0.67398164988718046] [-0.32857149043027994:0.70054455156811968] [-0.32857149043027994:0.72232473657440222] [-0.14287975110614545:0.55872988248256816] [0.071014571895548481:0.22250541974657931] [-0.79544012630214189:1.1610152044891717] [-1.5399454277679288:1.2180357681334804] [-0.3030555865025874:0.60483815050444933] [-0.32857149043027994:0.41447624956618961] [0.11291953079912938:0.72232473657440222] [-0.32857149043027994:0.72232473657440222] [-0.32857149043027994:0.70054455156811968] [-0.32857149043027994:0.72232473657440222] [-0.10797826795868454:0.48497577431974098] [0.11679974388594003:0.24698644445326312] [-0.67487578668508064:1.2106052041525086] [-1.4089957463212719:1.5429006730902999] [-0.32857149043028122:0.70054455156811968] [-0.32857149043027994:0.22393722792938353] [0.11291953079912938:0.72232473657440222] [-0.32857149043027994:0.72232473657440222] [-0.32857149043027994:0.70054455156811968] [-0.30386465974530058:0.72773845227787537] [0.04813826037687427:0.30269629336223092] [0.16694658212854585:0.31108723798259008] [-0.25345812926689798:0.57542100953844277] [-1.4058507937221494:0.38768647119950311] [-0.10654932579370142:0.96082989356898463] [-0.32857149043027994:-0.22388078305611037] [0.49558079627143459:0.72773845227787537] [-0.30386465974530058:0.72773845227787537] [-0.32857149043027994:0.70054455156811968]
tree_sizes=1586 1761 1750 1660 1847 1757 1933 1850 1933 1661 1853 1850 1945 2030 1851 1850 1761 1860 1850 1861 1779 1862 2042 1953 1865

Tree=0
num_leaves=17
num_cat=0
split_feature=91 89 66 45 89 76 27 67 46 69 47 28 90 50 69 33
split_gain=2.5136 1.01483 0.26072 0.0911301 0.0590217 0.0384891 0.033877 0.0166743 0.0132389 0.012605 0.00821624 0.00593418 0.00425021 0.0041914 0.00324361 0.00240551
threshold=-0.31621807508779021 -1.0282784884378866 0.1701696033985278 0.076729382668932519 -1.3719373703394302 0.25021237352705744 28.384052780167881 0.17809337062494859 0.028970112027176604 -1.3874447742136617 0.044524348015401914 -14.417397720358858 0.27192031331467398 0.061008219685559924 -0.87532393094291361 -0.1994016241001616
decision_type=2 2 2 2 2 2 2 2 2 2 2 2 2 2 2 2
left_child=1 4 6 8 -1 7 -2 10 15 -6 -5 -10 -4 -8 -9 -3
right_child=2 3 12 5 9 -7 13 14 11 -11 -12 -13 -14 -15 -16 -17
leaf_value=0.097091471288614367 0.087211576917769262 0.089001349124035081 0.082535366446306255 0.090279329403829517 0.093886329703486607 0.09245295980970257 0.085752009596470377 0.091120803587427676 0.089121378953475078 0.095365232910648925 0.089177744174186516 0.090123369333370618 0.081768344005484314 0.085067193205660349 0.090546474569519919 0.088448911829745541
leaf_weight=32 27 23 29 32 20 20 33 39 21 22 20 22 24 32 33 38
leaf_count=32 27 23 29 32 20 20 33 39 21 22 20 22 24 32 33 38
internal_value=0.0892312 0.0913302 0.08457 0.0900228 0.095712 0.0907173 0.0859422 0.0904374 0.0890611 0.094661 0.0898556 0.089634 0.082188 0.0854149 0.0908576 0.0886572
internal_weight=467 322 145 248 74 144 92 124 104 42 52 43 53 65 72 61
internal_count=467 322 145 248 74 144 92 124 104 42 52 43 53 65 72 61
is_linear=0
shrinkage=1


Tree=1
num_leaves=18
num_cat=0
split_feature=91 78 56 70 52 50 46 56 75 55 67 50 90 28 70 30 40
split_gain=2.30384 0.930142 0.238962 0.086379 0.057677 0.0311655 0.0258327 0.0166088 0.00980473 0.00717755 0.00618883 0.00432682 0.00389551 0.00358345 0.00231351 0.000969707 0.00072386
threshold=-0.31621807508779021 -0.18561175944134795 0.020016625810716514 0.38370794395332986 0.64581306591875032 -0.11101673631424876 0.028970112027176604 0.4578922658112754 -0.22280911019171756 1.0000000180025095e-35 0.17809337062494859 0.061008219685559924 0.27192031331467398 -13.893966727640969 0.14423950565529445 0.0053091718014953038 0.011118963724102508
decision_type=2 2 2 2 2 2 2 2 2 2 2 2 2 2 2 2 2
left_child=1 4 5 6 -1 -2 14 10 -8 13 -5 -7 -4 -10 16 -12 -3
right_child=2 3 12 7 -6 11 8 -9 9 -11 15 -13 -14 -15 -16 -17 -18
leaf_value=0.0050574516148122273 -0.0017547432154885498 -7.3138759959284579e-05 -0.0063009276727442852 0.00095732090441862159 0.0074415315211048723 -0.0031911119371989278 -9.8859005899517237e-06 0.0029352896648117402 0.00034441358290572088 0.0016419225507513953 0.002001134345445436 -0.0038770461581599559 -0.0070352479377814772 0.0011035114704205341 -0.00081603250163177611 0.0016363305097740345 -0.00043153567447740576
leaf_weight=35 25 20 29 21 39 35 26 21 26 20 27 32 24 20 20 26 21
leaf_count=35 25 20 29 21 39 35 26 21 26 20 27 32 24 20 20 26 21
internal_value=0.000109455 0.00211898 -0.00435307 0.000867261 0.00631393 -0.00303938 0.000240266 0.00187705 0.000691374 0.000967628 0.00157674 -0.00351872 -0.00663345 0.000674456 -0.000440093 0.00182217 -0.000256708
internal_weight=467 322 145 248 74 92 153 95 92 66 74 67 53 46 61 53 41
internal_count=467 322 145 248 74 92 153 95 92 66 74 67 53 46 61 53 41
is_linear=0
shrinkage=0.0426353


Tree=2
num_leaves=18
num_cat=0
split_feature=91 89 56 70 52 66 53 56 47 67 67 50 90 70 40 30 27
split_gain=2.11157 0.852519 0.21902 0.0791704 0.0528637 0.0289696 0.0249549 0.0152227 0.00656247 0.007277 0.00567235 0.00515155 0.00357042 0.00291837 0.0012272 0.000888782 0.000868101
threshold=-0.31621807508779021 -1.0282784884378866 0.020016625810716514 0.38370794395332986 0.64581306591875032 -0.035257433796922387 -0.02091314485803392 0.4578922658112754 0.041912918256980188 0.17874281810479681 0.17809337062494859 0.061008219685559924 0.27192031331467398 0.14423950565529445 0.011118963724102508 0.0053091718014953038 31.677908389060345
decision_type=2 2 2 2 2 2 2 2 2 2 2 2 2 2 2 2 2
left_child=1 4 5 6 -1 -2 13 10 -8 -10 -5 16 -4 14 -3 -12 -7
right_child=2 3 12 7 -6 11 8 -9 9 -11 15 -13 -14 -15 -16 -17 -18
leaf_value=0.0048418253050232299 -0.0014743120279659362 5.3458830590658991e-05 -0.006032285510092804 0.00091650518829430709 0.0071242590920313487 -0.0027873543744589562 0.0013665751872909968 0.002810142548666602 0.00010890155891420625 0.001061297641177352 0.0019158151986335367 -0.0037117469721046426 -0.006735297660059732 -0.00073766376994039427 -0.00038236139103632502 0.0015665649193877969 -0.0031845961120927037
leaf_weight=35 20 24 29 21 39 20 22 21 35 25 27 32 24 24 23 26 20
leaf_count=35 20 24 29 21 39 20 22 21 35 25 27 32 24 24 23 26 20
internal_value=0.000104788 0.00202864 -0.00416748 0.000830285 0.00604473 -0.0029098 0.000230022 0.00179702 0.000736691 0.000505733 0.00150952 -0.00330854 -0.00635063 -0.000355144 -0.000159815 0.00174448 -0.00298598
internal_weight=467 322 145 248 74 92 153 95 82 60 74 72 53 71 47 53 40
internal_count=467 322 145 248 74 92 153 95 82 60 74 72 53 71 47 53 40
is_linear=0
shrinkage=0.0426353


Tree=3
num_leaves=17
num_cat=0
split_feature=91 56 56 66 53 50 70 89 40 73 50 47 70 93 88 40
split_gain=1.93536 0.78165 0.200742 0.0844578 0.0543802 0.0265892 0.0184478 0.0172384 0.00681916 0.00400221 0.00355962 0.00333961 0.00267482 0.00206824 0.00171439 0.00112479
threshold=-0.31621807508779021 0.49816005593251339 0.020016625810716514 0.45663497868943598 -0.02091314485803392 -0.11101673631424876 0.40789862829064655 -1.3719373703394302 0.022761735310718467 0.022439839520366472 0.061008219685559924 0.048058706220051733 0.14423950565529445 0.25638409908608539 0.39192306811677924 0.011118963724102508
decision_type=2 2 2 2 2 2 2 2 2 2 2 2 2 2 2 2
left_child=1 4 5 -3 12 -2 8 -5 13 14 -7 -4 15 -6 -8 -1
right_child=2 3 11 7 6 10 9 -9 -10 -11 -12 -13 -14 -15 -16 -17
leaf_value=5.1179597665629294e-05 -0.0015991571134244464 0.0036705242660200186 -0.0064518952767506823 0.0070135552267288192 0.0011898285665437897 -0.0029313384022492317 0.0015632672024477132 0.0054833133645742042 3.3231787429223674e-05 0.0010341862805385998 -0.0035534953480817685 -0.00577198583713605 -0.00070621322100178319 0.00068163519155725746 0.002053211471890548 -0.00036605928614101704
leaf_weight=24 25 34 24 32 24 35 37 23 24 20 32 29 24 37 20 23
leaf_count=24 25 34 24 32 24 35 37 23 24 20 32 29 24 37 20 23
internal_value=0.000100321 0.00194214 -0.0039898 0.00534099 0.000643874 -0.00278574 0.00107508 0.00637364 0.000642046 0.0015531 -0.00322849 -0.00607987 -0.000340002 0.00088158 0.00173518 -0.000153001
internal_weight=467 322 145 89 233 92 162 55 85 77 67 53 71 61 57 47
internal_count=467 322 145 89 233 92 162 55 85 77 67 53 71 61 57 47
is_linear=0
shrinkage=0.0426353


Tree=4
num_leaves=19
num_cat=0
split_feature=91 78 56 70 68 66 53 76 88 47 33 67 50 90 70 40 30 27
split_gain=1.77385 0.717949 0.18399 0.0662874 0.0504802 0.0249512 0.0209281 0.0137216 0.00709685 0.00894605 0.00642725 0.00479823 0.00422078 0.00307937 0.0024516 0.00103092 0.000814149 0.000703431
threshold=-0.31621807508779021 -0.18561175944134795 0.020016625810716514 0.38370794395332986 -0.35691070813415748 -0.035257433796922387 -0.02091314485803392 0.24248889427309123 0.40092371555051298 0.047885821560304742 0.59943725590585106 0.17809337062494859 0.061008219685559924 0.27192031331467398 0.14423950565529445 0.011118963724102508 0.0053091718014953038 31.677908389060345
decision_type=2 2 2 2 2 2 2 2 2 2 2 2 2 2 2 2 2 2
left_child=1 4 5 6 10 -2 14 11 9 -8 -1 -5 17 -4 15 -3 -13 -7
right_child=2 3 13 7 -6 12 8 -9 -10 -11 -12 16 -14 -15 -16 -17 -18 -19
leaf_value=0.007003627833321059 -0.0013347539217200435 4.8997543035732638e-05 -0.005525007911324686 0.0008503128055294283 0.0041962678498838109 -0.0025662551348454286 0.00082727527081563428 0.0026364838395488074 0.0011576866158744641 -0.00034483795490726743 0.0059719713238854805 0.0017633088867061099 -0.0034019908510409189 -0.0061778885839579708 -0.00067610355580768346 -0.00035045220718507006 0.0014290436452464078 -0.0029238411691195326
leaf_weight=21 20 24 29 22 30 20 29 20 33 20 23 27 32 24 24 23 26 20
leaf_count=21 20 24 29 22 30 20 29 20 33 20 23 27 32 24 24 23 26 20
internal_value=9.60434e-05 0.00185934 -0.00381969 0.000759629 0.00554486 -0.00266696 0.000210372 0.00164422 0.000674364 0.000348862 0.00646435 0.00137962 -0.00303702 -0.00582065 -0.000325506 -0.000146478 0.00159933 -0.00274505
internal_weight=467 322 145 248 74 92 153 95 82 49 44 75 72 53 71 47 53 40
internal_count=467 322 145 248 74 92 153 95 82 49 44 75 72 53 71 47 53 40
is_linear=0
shrinkage=0.0426353


Tree=5
num_leaves=18
num_cat=0
split_feature=91 78 56 53 68 27 76 82 73 83 90 88 50 65 40 51 70
split_gain=1.85022 0.685492 0.172534 0.0693895 0.0550838 0.0250084 0.0241739 0.0092257 0.00906573 0.00701587 0.00434547 0.00358305 0.00351688 0.0020371 0.00279657 0.00186627 0.00153074
threshold=-0.31621807508779021 -0.18561175944134795 0.020016625810716514 0.068209193853562222 -0.32968841835599272 28.384052780167881 0.25021237352705744 0.12080749618102531 -0.13873504030455736 0.17483838561758705 0.22549147407897494 0.3685966479999721 0.086479694312425248 -0.17751285166622507 0.011118963724102508 0.2316015087965286 -0.11133485645128958
decision_type=2 2 2 2 2 2 2 2 2 2 2 2 2 2 2 2 2
left_child=1 4 5 7 9 -2 8 -3 15 -1 -4 -10 -7 -9 -15 -5 -12
right_child=2 3 10 6 -6 12 -8 13 11 -11 16 -13 -14 14 -16 -17 -18
leaf_value=0.0057609536118237784 -0.0014490268456813984 0.00060486682735812355 -0.0049855979688034503 0.0016446786202272705 0.0038816383745777935 -0.002766563034492491 0.0027149204318148695 -0.0007227157410193576 0.00025182454218294323 0.0067954602390732366 -0.0055139780735737522 0.00097100618914152759 -0.0033732029093910742 0.00014049354273214853 -0.00046822539867646837 0.0011810827750343171 -0.0060190179389842703
leaf_weight=26 24 24 20 38 29 38 20 20 20 22 24 34 32 23 34 27 20
leaf_count=26 24 24 20 38 29 38 20 20 20 22 24 34 32 23 34 27 20
internal_value=-3.01339e-05 0.00184846 -0.00379922 0.00072546 0.00534873 -0.00263669 0.00134343 -0.000125008 0.00111292 0.0062351 -0.00550668 0.000704643 -0.00304388 -0.000352502 -0.000222602 0.00145211 -0.00574354
internal_weight=475 317 158 240 77 94 139 101 119 48 64 54 70 77 57 65 44
internal_count=475 317 158 240 77 94 139 101 119 48 64 54 70 77 57 65 44
is_linear=0
shrinkage=0.0426353


Tree=6
num_leaves=20
num_cat=0
split_feature=87 56 56 45 68 76 28 82 75 83 50 90 49 77 40 35 68 49 57
split_gain=1.6864 0.625148 0.165334 0.0664105 0.0458468 0.0286796 0.0237197 0.00958531 0.00842552 0.00598213 0.00464803 0.00398283 0.00247276 0.00199273 0.00238655 0.00133986 0.00130611 0.000511462 0.000486029
threshold=0.19897829605409148 0.5533326419015191 0.020016625810716514 0.085289100826962852 -0.37827960426368706 0.040011956504584147 -26.590503767944977 0.12080749618102531 -0.220345984365902 0.17483838561758705 0.046094506421754965 0.22549147407897494 -0.87998986215937258 0.12957561620566657 0.011118963724102508 0.34153023806600652 1.0647471554460017 -0.46306193863151768 0.11277645799561041
decision_type=2 2 2 2 2 2 2 2 2 2 2 2 2 2 2 2 2 2 2
left_child=2 3 5 7 9 -1 -5 -2 -8 -3 -7 -4 -10 -9 -15 17 -13 -14 -12
right_child=1 4 11 6 -6 10 8 13 12 -11 18 16 15 14 -16 -17 -18 -19 -20
leaf_value=-0.0010377813435070453 0.00058314874348802833 0.0055417594459956842 -0.0047730352896204467 0.0026665387723394597 0.0038136305083865227 -0.002481756369907176 0.00035741629534042724 -0.00061323106130875223 0.00097026982928344525 0.0065057332040939272 -0.0032906173980140267 -0.0052866118319361164 0.0014353710840608273 0.00019594520408543016 -0.00040945044210553865 0.001167270895245164 -0.0057531260599385254 0.0017402845216821232 -0.0030002156442901821
leaf_weight=20 29 25 20 21 28 34 22 28 30 22 22 24 20 20 29 21 20 20 20
leaf_count=20 29 25 20 21 28 34 22 28 30 22 22 24 20 20 29 21 20 20 20
internal_value=-2.88491e-05 0.00178169 -0.00359334 0.000719917 0.00517936 -0.0024743 0.0013507 -7.74935e-05 0.00110617 0.00599298 -0.00285234 -0.0052719 0.00128719 -0.000326307 -0.00016235 0.00144305 -0.00549866 0.00158783 -0.00315233
internal_weight=475 315 160 240 75 96 134 106 113 47 76 64 91 77 49 61 44 40 42
internal_count=475 315 160 240 75 96 134 106 113 47 76 64 91 77 49 61 44 40 42
is_linear=0
shrinkage=0.0426353


Tree=7
num_leaves=19
num_cat=0
split_feature=87 78 66 45 68 76 76 82 78 83 27 90 70 77 40 58 46 49
split_gain=1.54566 0.572992 0.151537 0.0584624 0.0463738 0.0262862 0.0193859 0.00853253 0.00778183 0.00628143 0.00432218 0.00365045 0.00201864 0.00182643 0.00218739 0.00136088 0.00133698 0.000803036
threshold=0.19897829605409148 -0.18561175944134795 0.1701696033985278 0.078214513717148576 -0.30708046365999991 0.040011956504584147 0.25021237352705744 0.12080749618102531 -0.11208366914836784 0.17483838561758705 31.677908389060345 0.22549147407897494 0.39688461795271474 0.12957561620566657 0.011118963724102508 -0.22092663412312533 1.0000000180025095e-35 -0.34871250892973199
decision_type=2 2 2 2 2 2 2 2 2 2 2 2 2 2 2 2 2 2
left_child=2 4 5 7 9 -1 8 -3 -5 -2 -7 -4 -10 -9 -15 -13 -12 -14
right_child=1 3 11 6 -6 10 -8 13 12 -11 16 15 17 14 -16 -17 -18 -19
leaf_value=-0.00099353514451938022 0.005257840559246647 0.00055672364815147592 -0.0045695352682288736 0.0004171549153238544 0.003518507529151439 -0.0022103881537536459 0.0024886760764333583 -0.0005870857376515722 0.00097171217407489015 0.0062283592563010188 -0.0030883044700022282 -0.0050044831542654161 0.0012787775475452689 0.00018759101363696254 -0.00039199338349229493 -0.0054806787321016173 -0.0026513207746312762 0.0016174420059305965
leaf_weight=20 27 28 20 27 28 21 20 28 31 22 35 20 35 20 29 24 20 20
leaf_count=20 27 28 20 27 28 21 20 28 31 22 35 20 35 20 29 24 20 20
internal_value=-2.76191e-05 0.00170573 -0.00344014 0.000671427 0.00490265 -0.00236881 0.00126516 -8.06298e-05 0.0010486 0.00569358 -0.00273073 -0.00504714 0.00124685 -0.000312395 -0.000155428 -0.00526423 -0.0029294 0.00140193
internal_weight=475 315 160 238 77 96 133 105 113 49 76 64 86 77 49 44 55 55
internal_count=475 315 160 238 77 96 133 105 113 49 76 64 86 77 49 44 55 55
is_linear=0
shrinkage=0.0426353


Tree=8
num_leaves=20
num_cat=0
split_feature=91 56 56 45 52 1 67 46 35 89 31 45 90 27 87 27 67 70 40
split_gain=1.42541 0.527959 0.132672 0.0563047 0.0335833 0.0199139 0.0195525 0.00732224 0.00624419 0.00408565 0.0039043 0.00337415 0.00334581 0.00331526 0.00170163 0.00153739 0.00128292 0.00125729 0.000561316
threshold=-0.31621807508779021 0.5533326419015191 0.020016625810716514 0.085289100826962852 0.64581306591875032 -0.13958409076529868 0.11897599663944608 0.028970112027176604 0.36624618403039083 -1.3936524348049868 0.22556501730877873 0.40415158290831216 0.22549147407897494 31.741163734049 0.21582246193079024 34.380783241705501 0.1447299898818071 -0.11133485645128958 0.026624044702503992
decision_type=2 2 2 2 2 2 2 2 2 2 2 2 2 2 2 2 2 2 2
left_child=1 3 6 7 -3 -5 -2 15 14 -6 -9 -10 -4 -8 -7 18 -15 -14 -1
right_child=2 4 12 5 9 8 13 10 11 -11 -12 -13 17 16 -16 -17 -18 -19 -20
leaf_value=-6.9208082092003502e-05 -0.0011324415392415107 0.0036730871048402869 -0.0043747114418157557 0.0024785379237003777 0.0058977842694903871 0.0010783931225637866 -0.0021659891255755639 0.00080062499259095723 0.00027115112880137665 0.0050752515335652192 -2.2450014218425076e-05 0.0010014543979859425 -0.0048317325906306009 -0.0025480696154942337 0.0015056908322981231 -0.0006518546083981436 -0.0029743551351296329 -0.0052894460487464866 -0.00037103944055331354
leaf_weight=24 20 31 20 20 23 36 20 20 23 21 22 23 24 21 32 21 33 20 21
leaf_count=24 20 31 20 20 23 36 20 20 23 21 22 23 24 21 32 21 33 20 21
internal_value=-2.64415e-05 0.00162245 -0.00333466 0.000653809 0.00474793 0.00123765 -0.00231523 -7.05849e-05 0.00101995 0.00550521 0.00036949 0.000636303 -0.00483195 -0.0026349 0.00127947 -0.000350633 -0.00280858 -0.00503978 -0.000210063
internal_weight=475 317 158 242 75 134 94 108 114 44 42 46 64 74 68 66 54 44 45
internal_count=475 317 158 242 75 134 94 108 114 44 42 46 64 74 68 66 54 44 45
is_linear=0
shrinkage=0.0426353


Tree=9
num_leaves=17
num_cat=0
split_feature=91 56 56 45 68 28 27 50 75 83 47 50 35 40 60 57
split_gain=1.30646 0.483899 0.1216 0.0516059 0.0360786 0.0182758 0.0181951 0.00723949 0.0068005 0.0050218 0.00339022 0.00285957 0.00183821 0.00182532 0.00154374 0.000500722
threshold=-0.31621807508779021 0.5533326419015191 0.020016625810716514 0.085289100826962852 -0.32968841835599272 -26.590503767944977 27.687544867304812 -0.02417882885945365 -0.220345984365902 0.17483838561758705 0.046338603314913303 0.061008219685559924 0.34153023806600652 0.019270076068953257 0.24678721096244935 0.11277645799561041
decision_type=2 2 2 2 2 2 2 2 2 2 2 2 2 2 2 2
left_child=1 3 6 7 9 -5 -2 -1 -7 -3 -4 -8 14 -9 -10 -13
right_child=2 4 10 5 -6 8 11 13 12 -11 -12 15 -14 -15 -16 -17
leaf_value=0.00043655060886139502 -0.001143426786699779 0.0048456915971925836 -0.0049891931140590437 0.0023398883124440707 0.0032986866342446909 0.00029755083803028069 -0.002244005135573446 -8.713510439051137e-05 0.00098908187959903917 0.0057209210584731876 -0.0043608585316031265 -0.0029355833760050447 0.00089600850035134695 -0.000513886745293086 0.0014586391397830743 -0.0026338884063127534
leaf_weight=35 22 26 27 21 27 22 32 35 20 22 37 20 36 38 35 20
leaf_count=35 22 26 27 21 27 22 32 35 20 22 37 20 36 38 35 20
internal_value=-2.53142e-05 0.00155328 -0.00319249 0.000625934 0.0045455 0.00118488 -0.00221652 -6.75755e-05 0.000970234 0.00524684 -0.00462594 -0.00254441 0.00113286 -0.00030928 0.00128789 -0.00278474
internal_weight=475 317 158 242 75 134 94 108 113 48 64 72 91 73 55 40
internal_count=475 317 158 242 75 134 94 108 113 48 64 72 91 73 55 40
is_linear=0
shrinkage=0.0426353


Tree=10
num_leaves=19
num_cat=0
split_feature=87 71 66 68 67 28 69 68 31 50 58 75 47 73 47 35 41 27
split_gain=1.18078 0.402524 0.120369 0.0560732 0.0340164 0.0174974 0.0081588 0.00443055 0.00344847 0.00338668 0.00329492 0.00324577 0.00302579 0.00302017 0.0023046 0.00125541 0.000941351 0.000880794
threshold=0.19897829605409148 -0.015704482593850159 0.1701696033985278 -0.24006357791954014 0.16640228778590821 -17.522467690351828 -1.2577766100191903 -0.61355683592886867 0.22209136030783019 0.086479694312425248 0.075249117557806236 0.0093192280851847418 0.049322274137835853 -0.018645481041075874 0.051914907839836016 -0.20891328197905837 0.28874818966345744 31.186146514218368
decision_type=2 2 2 2 2 2 2 2 2 2 2 2 2 2 2 2 2 2
left_child=2 4 5 7 6 9 8 -3 -2 17 16 -5 -4 -12 15 -8 -6 -1
right_child=1 3 12 11 10 -7 14 -9 -10 -11 13 -13 -14 -15 -16 -17 -18 -19
leaf_value=-0.0019413571549295782 0.00081650533464106131 0.0051676783033157946 -0.0047047222845303781 0.0023728280933386285 0.0011488031404294865 -0.00094420222083954587 -0.00023856924689349127 0.0043419681377343412 6.8380104815059524e-05 -0.0027229192412146575 0.0010837557725032628 0.0030986326533584355 -0.0041270967169269373 0.00044625944240450762 -0.0005022426964381493 0.0002071028111987888 0.0015448543138005906 -0.0023047796748283636
leaf_weight=22 24 27 34 24 24 20 27 21 21 29 35 21 32 22 36 20 20 27
leaf_count=22 24 27 34 24 24 20 27 21 21 29 35 21 32 22 36 20 20 27
internal_value=-7.24648e-05 0.00142732 -0.00301717 0.00379277 0.000466679 -0.00206926 5.09422e-06 0.00480643 0.00046738 -0.00235774 0.00105166 0.00271154 -0.00442466 0.000837705 -0.000245543 -4.89216e-05 0.00132883 -0.00214161
internal_weight=486 322 164 93 229 98 128 48 45 78 101 45 66 57 83 47 44 49
internal_count=486 322 164 93 229 98 128 48 45 78 101 45 66 57 83 47 44 49
is_linear=0
shrinkage=0.0426353


Tree=11
num_leaves=19
num_cat=0
split_feature=87 71 56 68 67 28 50 88 68 49 50 67 47 51 48 38 47 27
split_gain=1.08224 0.368932 0.110324 0.0513937 0.0311776 0.0160372 0.00748867 0.00542603 0.00406081 0.00354517 0.00310405 0.0030425 0.00279166 0.00208288 0.00132379 0.00204505 0.000994988 0.000807289
threshold=0.19897829605409148 -0.015704482593850159 0.020016625810716514 -0.24006357791954014 0.16640228778590821 -17.522467690351828 0.055090856396544749 0.31136388579309099 -0.61355683592886867 -1.0532947609667584 0.086479694312425248 0.13443873355172617 0.048058706220051733 -0.077861762662987943 0.73755903014169732 0.18066900167858649 0.057194312200707191 31.186146514218368
decision_type=2 2 2 2 2 2 2 2 2 2 2 2 2 2 2 2 2 2
left_child=2 4 5 8 6 10 7 13 -3 -6 17 -5 -4 -2 15 -11 -8 -1
right_child=1 3 12 11 9 -7 16 -9 -10 14 -12 -13 -14 -15 -16 -17 -18 -19
leaf_value=-0.0018585867160168801 -0.0002229579452067954 0.0049473525337588604 -0.0045306481852035729 0.0029543820371832207 0.00055437401513470604 -0.00090394583065289246 -0.00019602694466938921 0.00086565444946124968 0.004156846768777713 0.0012531704429545162 -0.002606826645337389 0.002253062123384054 -0.0039750531464764769 0.00028198110272376005 0.001446283091569625 0.00073262902396313383 -0.00058732505539751067 -0.0022065145967428428
leaf_weight=22 27 27 31 22 24 20 21 20 21 34 29 23 35 33 20 23 27 27
leaf_count=22 27 27 31 22 24 20 21 20 21 34 29 23 35 33 20 23 27 27
internal_value=-6.93752e-05 0.00136647 -0.00288853 0.00363107 0.000446782 -0.00198104 4.87702e-06 0.000257483 0.00460151 0.00100682 -0.00225722 0.00259593 -0.00423601 5.47585e-05 0.00114784 0.00104313 -0.000416132 -0.0020503
internal_weight=486 322 164 93 229 98 128 80 48 101 78 45 66 60 77 57 48 49
internal_count=486 322 164 93 229 98 128 80 48 101 78 45 66 60 77 57 48 49
is_linear=0
shrinkage=0.0426353


Tree=12
num_leaves=20
num_cat=0
split_feature=87 71 56 68 67 89 69 68 49 75 27 42 27 63 58 48 38 40 75
split_gain=0.99192 0.338144 0.101117 0.0471047 0.0285758 0.0148722 0.00679561 0.00376087 0.00324932 0.00280075 0.00275373 0.00269764 0.00243369 0.00172456 0.00130488 0.00121332 0.00187438 0.00121298 0.000669468
threshold=0.19897829605409148 -0.015704482593850159 0.020016625810716514 -0.24006357791954014 0.16640228778590821 0.10196634450279191 -1.2577766100191903 -0.63737619630171027 -1.0532947609667584 0.0093192280851847418 32.013290625719073 0.075999082317402336 31.26300552248588 0.075514566024080035 -0.025900487576265407 0.73755903014169732 0.18066900167858649 0.012438025846341908 0.14129691290383953
decision_type=2 2 2 2 2 2 2 2 2 2 2 2 2 2 2 2 2 2 2
left_child=2 4 5 7 6 -1 10 -3 -6 -5 -2 14 -7 18 -4 16 -10 -14 -8
right_child=1 3 11 9 8 12 13 -9 15 -11 -12 -13 17 -15 -16 -17 -18 -19 -20
leaf_value=-0.00085934016104054667 0.00073855227353329287 0.0047827121260624363 -0.0040748392766216911 0.0021706182600687257 0.00053073808354981941 -0.0017942579599142627 -0.0004915613827562315 0.0040279267482717261 0.0011997411104932205 0.0028448319826701288 7.0021294295495592e-05 -0.0044687948384242561 -0.0021269543506441499 0.00010985745094651869 -0.0036167686354185587 0.0013846202790491892 0.00070139313595688163 -0.0025279992773127253 -0.00021003961017152976
leaf_weight=20 24 24 26 24 24 23 28 24 34 21 21 20 29 21 20 20 23 26 34
leaf_count=20 24 24 26 24 24 23 28 24 34 21 21 20 29 21 20 20 23 26 34
internal_value=-6.64174e-05 0.00130821 -0.00276537 0.00347625 0.000427734 -0.00189658 4.66908e-06 0.00440532 0.000963895 0.00248525 0.000426571 -0.00405541 -0.00216253 -0.000224073 -0.00387568 0.0010989 0.000998653 -0.00231654 -0.000337178
internal_weight=486 322 164 93 229 98 128 48 101 45 45 66 78 83 46 77 57 55 62
internal_count=486 322 164 93 229 98 128 48 101 45 45 66 78 83 46 77 57 55 62
is_linear=0
shrinkage=0.0426353


Tree=13
num_leaves=21
num_cat=0
split_feature=87 0 56 68 67 89 69 75 31 73 67 50 70 87 90 60 50 27 27 55
split_gain=0.909142 0.310024 0.0926788 0.044166 0.0269726 0.0136311 0.00703102 0.00353653 0.00285756 0.00283029 0.0027388 0.00263778 0.00248381 0.00177213 0.00116153 0.00115785 0.00107231 0.000643997 0.000618321 0.00041009
threshold=0.19897829605409148 25415000.000000004 0.020016625810716514 -0.24006357791954014 0.16526645537097939 0.10196634450279191 -1.2577766100191903 0.11266165175474141 0.22209136030783019 -0.0042150740883675668 0.13443873355172617 0.086479694312425248 -0.14023999285604838 0.21582246193079024 0.28900120617695985 0.36158567339638775 0.067553204256881799 31.186146514218368 35.035093770565553 0.043854176240347938
decision_type=2 2 2 2 2 2 2 2 2 2 2 2 2 2 2 2 2 2 2 2
left_child=2 3 5 7 6 -1 8 -2 -3 13 -5 17 -4 -6 -14 -15 19 -7 -18 -8
right_child=1 4 12 10 9 11 16 -9 -10 -11 -12 -13 14 15 -16 -17 18 -19 -20 -21
leaf_value=-0.00082270188670152493 0.0038947474447742349 0.0007261922341641777 -0.0035475572148146472 0.0027123569715859254 0.00081659482260173501 -0.0017083606537489587 -0.00023820281017053219 0.0046324611068366559 4.5174884341577267e-05 0.00054806484264813932 0.0020537723303097905 -0.0023926184414664337 -0.0038652829289278143 0.001468888442210683 -0.0043192783131135943 0.0010206649839844041 -0.00024624780832062116 -0.0020191145748207325 -0.0005815040058595708 3.4826557362750999e-05
leaf_weight=20 27 24 25 22 33 22 20 21 21 28 24 29 21 20 20 22 20 27 20 20
leaf_count=20 27 24 25 22 33 22 20 21 21 28 24 29 21 20 20 22 20 27 20 20
internal_value=-6.35856e-05 0.00125243 -0.00264747 0.00331279 0.000402985 -0.00181571 -1.79622e-05 0.0042175 0.000408384 0.000913843 0.00236875 -0.00207033 -0.00388251 0.0010504 -0.00408674 0.0012341 -0.000257782 -0.00187959 -0.000413876 -0.000101688
internal_weight=486 322 164 94 228 98 125 48 45 103 46 78 66 75 41 42 80 49 40 40
internal_count=486 322 164 94 228 98 125 48 45 103 46 78 66 75 41 42 80 49 40 40
is_linear=0
shrinkage=0.0426353


Tree=14
num_leaves=19
num_cat=0
split_feature=87 0 68 68 67 67 69 68 49 31 75 47 50 47 40 48 38 58
split_gain=0.833271 0.284151 0.0849445 0.0404802 0.0247223 0.0126516 0.00616794 0.00336602 0.00287463 0.00261908 0.00253717 0.00234734 0.00219639 0.00144261 0.00126402 0.00108058 0.00167099 0.000574874
threshold=0.19897829605409148 25415000.000000004 0.4613416775131815 -0.24006357791954014 0.16640228778590821 0.11897599663944608 -1.2577766100191903 -0.61355683592886867 -1.0532947609667584 0.22209136030783019 -0.022246460740691223 0.049322274137835853 0.099773437942511686 0.051914907839836016 0.020036388984725966 0.73755903014169732 0.18066900167858649 -0.11997281469763355
decision_type=2 2 2 2 2 2 2 2 2 2 2 2 2 2 2 2 2 2
left_child=2 3 5 7 6 -1 9 -2 -6 -3 -5 -4 17 14 -8 16 -10 -7
right_child=1 4 11 10 8 12 13 -9 15 -11 -12 -13 -14 -15 -16 -17 -18 -19
leaf_value=-0.00083792193158401473 0.0043525557200015837 0.0006952307814596507 -0.0039636475703274422 0.001922272961222149 0.00047622391533539321 -0.0017002270404196064 0.00018280152296968534 0.0036328457393882013 0.0011058845117060407 4.3248838705729131e-05 0.0025579602375596627 -0.0034548846131571081 -0.0023167822050622669 -0.00043236911640681793 -0.00026804071121156012 0.0012802630400759836 0.00063535009481873524 -0.001990292084306611
leaf_weight=22 27 24 34 21 24 27 20 21 34 21 25 32 26 36 26 20 23 23
leaf_count=22 27 24 34 21 24 27 20 21 34 21 25 32 26 36 26 20 23 23
internal_value=-6.08747e-05 0.00119903 -0.0025346 0.00317155 0.000385804 -0.0017383 -1.01146e-05 0.00403768 0.000883641 0.000390973 0.00226776 -0.00371697 -0.00199894 -0.000230223 -7.20223e-05 0.00101063 0.00091602 -0.00183366
internal_weight=486 322 164 94 228 98 127 48 101 45 46 66 76 82 46 77 57 50
internal_count=486 322 164 94 228 98 127 48 101 45 46 66 76 82 46 77 57 50
is_linear=0
shrinkage=0.0426353


Tree=15
num_leaves=19
num_cat=0
split_feature=91 56 56 68 53 27 65 33 45 83 33 50 88 47 46 40 60 27
split_gain=0.70573 0.272874 0.0676556 0.0365059 0.016434 0.0135471 0.00782898 0.00442356 0.00308258 0.00226615 0.00216575 0.00169084 0.00142611 0.00118512 0.000991751 0.000551693 0.000468548 0.000401522
threshold=-0.31621807508779021 0.49816005593251339 0.020016625810716514 -0.3060226275715357 -0.02091314485803392 27.34681984362927 0.052183094600485931 0.58615251600454032 0.23501407750445627 0.039031377066468885 0.039031377066468885 0.11161503368115291 0.39572458519952003 0.057194312200707191 0.29088626297659537 0.011118963724102508 0.19681287909986844 31.186146514218368
decision_type=2 2 2 2 2 2 2 2 2 2 2 2 2 2 2 2 2 2
left_child=1 4 5 7 13 -2 8 -3 16 -5 -4 17 14 15 -10 -1 -6 -7
right_child=2 3 10 9 6 11 -8 -9 12 -11 -12 -13 -14 -15 -16 -17 -18 -19
leaf_value=6.9095844560283364e-05 -0.00069880176220542657 0.0044664299534769468 -0.0032900807167032167 0.001979577239222968 0.00061072331383491376 -0.0016285586894706832 1.721728772676238e-05 0.0036230311800482798 0.00098301238677681708 0.0025921627268456777 -0.003827019853966719 -0.0021995123555127436 0.0011380415847187257 -0.00046608112268508223 0.00058181128407934002 -0.0002199907905007471 0.00031888204827798191 -0.0018720795770683237
leaf_weight=24 21 20 36 23 20 20 32 26 21 21 22 26 33 20 24 24 20 32
leaf_count=24 21 20 36 23 20 20 32 26 21 21 22 26 33 20 24 24 20 32
internal_value=-1.10152e-05 0.00117485 -0.00233743 0.00314992 0.000359459 -0.00166 0.000608701 0.00398973 0.000769103 0.00227195 -0.00349375 -0.00191878 0.000925155 -0.00019034 0.000769038 -7.54475e-05 0.000464803 -0.00177842
internal_weight=465 308 157 90 218 99 150 46 118 44 58 78 78 68 45 48 40 52
internal_count=465 308 157 90 218 99 150 46 118 44 58 78 78 68 45 48 40 52
is_linear=0
shrinkage=0.0426353


Tree=16
num_leaves=18
num_cat=0
split_feature=91 0 66 68 70 28 86 75 50 69 75 33 49 50 75 45 40
split_gain=0.646834 0.250138 0.0620095 0.0342916 0.0149173 0.0127015 0.00602546 0.00443705 0.00316294 0.00255497 0.00239982 0.00198501 0.00193701 0.00159507 0.00136011 0.00115109 0.000421222
threshold=-0.31621807508779021 25415000.000000004 0.1701696033985278 -0.3060226275715357 0.37246833843092175 -17.522467690351828 0.057074874050483976 0.10330292927513536 0.092012075180258571 -1.2505634607440632 0.029387537004986749 0.039031377066468885 -0.79426754152803447 0.11161503368115291 0.14129691290383953 0.3072846429453609 -0.010816396988603977
decision_type=2 2 2 2 2 2 2 2 2 2 2 2 2 2 2 2 2
left_child=1 3 5 7 6 13 8 -1 -3 -8 -5 -4 -6 16 -11 -14 -2
right_child=2 4 11 10 12 -7 9 -9 -10 14 -12 -13 15 -15 -16 -17 -18
leaf_value=0.0034523691475922499 -0.0015659041821940135 0.00070991075211178898 -0.0031498070098431065 0.001859728024438013 0.00053366311807618509 -0.00062942985379369897 0.00024153565076259409 0.0042970529053535404 3.2228441328178182e-05 -0.00051247155703034971 0.0024825869992689169 -0.0036638536290744114 0.00079433087514719385 -0.0021057353975395374 -0.00011448930000895722 0.001211905849020306 -0.0018073715314838353
leaf_weight=26 24 31 36 23 29 20 23 20 21 27 22 22 28 26 37 21 29
leaf_count=26 24 31 36 23 29 20 23 20 21 27 22 22 28 26 37 21 29
internal_value=-1.05455e-05 0.00112476 -0.00223778 0.00300103 0.000337945 -0.00158922 7.31404e-05 0.00381962 0.000436231 -0.000143879 0.00216424 -0.00334479 0.00080984 -0.00183221 -0.000282388 0.000973292 -0.00169803
internal_weight=465 308 157 91 217 99 139 46 52 87 45 58 78 79 64 49 53
internal_count=465 308 157 91 217 99 139 46 52 87 45 58 78 79 64 49 53
is_linear=0
shrinkage=0.0426353


Tree=17
num_leaves=19
num_cat=0
split_feature=91 0 56 68 67 89 68 44 31 58 58 51 70 73 50 63 58 44
split_gain=0.592854 0.229263 0.0568346 0.0315139 0.0137043 0.011707 0.00668556 0.00390623 0.0035954 0.00283529 0.00216939 0.00203888 0.00186988 0.00166725 0.00145467 0.000829601 0.00046456 0.000388442
threshold=-0.31621807508779021 25415000.000000004 0.020016625810716514 -0.35691070813415748 0.16965360020547171 0.10196634450279191 -0.15074360138922635 0.59943725590585106 0.23695636854827723 -0.38613617350244894 0.045450282586074191 -0.11023770962194117 -0.14023999285604838 -0.0042150740883675668 0.11161503368115291 0.074333429829865863 -0.11997281469763355 -0.20670812678436454
decision_type=2 2 2 2 2 2 2 2 2 2 2 2 2 2 2 2 2 2
left_child=1 3 5 7 6 -2 -3 -1 11 -5 15 17 -4 -12 16 -6 -7 -8
right_child=2 4 12 9 10 14 8 -9 -10 -11 13 -13 -14 -15 -16 -17 -18 -19
leaf_value=0.0041471263470008041 -0.00060001337203940681 0.00067591848250218552 -0.0029140487514636988 0.0017344072119947441 0.0007495668049993852 -0.0015117745175987367 -2.6676805351987027e-05 0.0033324142350047354 -0.00054010943830237138 0.0023990602819729317 0.00073409949021469945 0.00031335167595348309 -0.0034055734023044327 0.00026400653494602504 -0.0020159566490250591 0.0011378998708339839 -0.0017653598604004019 -0.00028599800725812496
leaf_weight=20 20 23 24 20 20 29 21 23 28 28 32 28 34 24 26 20 24 21
leaf_count=20 20 23 24 20 20 29 21 23 28 28 32 28 34 24 26 20 24 21
internal_value=-1.00959e-05 0.00107681 -0.00214237 0.00287308 0.000323536 -0.00152147 2.17416e-05 0.00371135 -0.00013179 0.00212212 0.000703924 3.15382e-05 -0.00320218 0.000532631 -0.00175475 0.000943733 -0.00162661 -0.000156337
internal_weight=465 308 157 91 217 99 121 43 98 48 96 70 58 56 79 40 53 42
internal_count=465 308 157 91 217 99 121 43 98 48 96 70 58 56 79 40 53 42
is_linear=0
shrinkage=0.0426353


Tree=18
num_leaves=19
num_cat=0
split_feature=91 56 56 68 70 27 40 86 33 75 33 49 60 89 75 59 27 65
split_gain=0.543379 0.210134 0.0520916 0.0281999 0.0131164 0.0109221 0.0049104 0.00455651 0.0033508 0.00280176 0.00171752 0.00168392 0.0016727 0.00129971 0.00111917 0.000810616 0.00073724 0.000494024
threshold=-0.31621807508779021 0.49816005593251339 0.020016625810716514 -0.37827960426368706 0.38370794395332986 27.34681984362927 0.034243264068506037 0.056680199839259912 0.59943725590585106 0.029387537004986749 0.039031377066468885 -0.79426754152803447 0.33299727014628822 -0.61862451068497559 0.42802034544344747 -0.63650263955510178 32.350149906711813 -0.079591001468775374
decision_type=2 2 2 2 2 2 2 2 2 2 2 2 2 2 2 2 2 2
left_child=1 4 5 8 6 -2 7 15 -3 -5 -4 -6 -13 -9 16 -1 -7 -15
right_child=2 3 10 9 11 14 -8 13 -10 -11 -12 12 -14 17 -16 -17 -18 -19
leaf_value=0.00077446034229392631 -0.00059353563304904739 0.00397031217686576 -0.0028842869407492838 0.0017040358473623322 0.00049466997273830764 -0.0015784322016964699 -0.0003470208097384889 -0.00028109076819379125 0.0032078076633536593 0.002357780044939996 -0.0033624461190026444 0.0011951320609120903 0.00069431049451507349 0.00026437444788206808 -0.001422890477956707 0.00039059645488588341 -0.0018997212518381888 -1.5334258690753591e-05
leaf_weight=20 21 20 36 22 26 20 37 20 22 26 22 22 27 24 21 20 37 22
leaf_count=20 21 20 36 22 26 20 37 20 22 26 22 22 27 24 21 20 37 22
internal_value=-9.66548e-06 0.0010309 -0.00205103 0.0027641 0.000315357 -0.0014566 7.58544e-05 0.000223462 0.00357091 0.00205815 -0.00306566 0.000772009 0.000919169 5.84572e-06 -0.00168896 0.000582528 -0.00178699 0.000130601
internal_weight=465 308 157 90 218 99 143 106 42 48 58 75 49 66 78 40 57 46
internal_count=465 308 157 90 218 99 143 106 42 48 58 75 49 66 78 40 57 46
is_linear=0
shrinkage=0.0426353


Tree=19
num_leaves=19
num_cat=0
split_feature=91 0 56 68 67 28 68 78 31 58 46 70 73 46 58 48 40 33
split_gain=0.498032 0.192632 0.0477444 0.0266695 0.0116635 0.0102049 0.00560835 0.00345823 0.00314761 0.00186653 0.00173167 0.00161909 0.0014739 0.00145479 0.00112579 0.000695536 0.000678418 0.000330575
threshold=-0.31621807508779021 25415000.000000004 0.020016625810716514 -0.24006357791954014 0.16965360020547171 -17.522467690351828 -0.15074360138922635 -0.33636745184186762 0.23695636854827723 0.045450282586074191 0.028970112027176604 -0.14023999285604838 -0.0042150740883675668 0.52735909985316143 -0.15227481786022065 -0.018791091344656809 0.014646930857909368 -0.20670812678436454
decision_type=2 2 2 2 2 2 2 2 2 2 2 2 2 2 2 2 2 2
left_child=1 3 5 7 6 14 -3 -1 10 16 17 -4 -11 -5 -2 -16 -6 -8
right_child=2 4 11 13 9 -7 8 -9 -10 12 -12 -13 -14 -15 15 -17 -18 -19
leaf_value=0.0029582723771350511 -0.0013950808343065259 0.0006172139994487046 -0.0026668347303963921 0.0020843461396360895 0.0010454187822512878 -0.00053418644037889467 -2.3278900661075058e-05 0.0036747769890089583 -0.00050461418967002092 0.00067793154092304323 0.00028996782551627456 -0.0031242117805924743 0.00023593620977074224 0.0015819247132460182 -0.0015888497693076801 -0.0019052754515654288 0.00069424793021320426 -0.00026250578741218538
leaf_weight=25 28 23 24 22 20 20 21 24 28 32 28 34 24 20 28 23 20 21
leaf_count=25 28 23 24 22 20 20 21 24 28 32 28 34 24 20 28 23 20 21
internal_value=-9.2534e-06 0.000986947 -0.00196358 0.00263347 0.00029647 -0.0013945 1.80524e-05 0.00330921 -0.000122567 0.000647392 3.02517e-05 -0.00293495 0.000488505 0.0018451 -0.0016123 -0.00173155 0.000869833 -0.000142892
internal_weight=465 308 157 91 217 99 121 49 98 96 70 58 56 42 79 51 40 42
internal_count=465 308 157 91 217 99 121 49 98 96 70 58 56 42 79 51 40 42
is_linear=0
shrinkage=0.0426353


Tree=20
num_leaves=18
num_cat=0
split_feature=91 56 56 45 87 58 27 65 50 55 93 50 47 65 87 37 33
split_gain=0.457234 0.180683 0.0434644 0.0204305 0.0115925 0.00862404 0.00804024 0.00435062 0.00397301 0.00250035 0.00166128 0.00165741 0.00159357 0.000616232 0.000805164 0.000232751 0.000162363
threshold=-0.31621807508779021 0.5533326419015191 0.020016625810716514 0.076729382668932519 0.30193030001139126 0.035788687138404773 27.34681984362927 0.043854176240347938 -0.03529521762505463 0.27319542179309925 0.27704284064522261 0.099773437942511686 0.048058706220051733 -0.1994016241001616 0.20711871096309561 0.020812103864107648 0.29904323873214805
decision_type=2 2 2 2 2 2 2 2 2 2 2 2 2 2 2 2 2
left_child=1 3 6 8 -3 9 -2 10 -1 16 -7 15 -4 -10 -15 -8 -5
right_child=2 4 12 5 -6 7 11 -9 13 -11 -12 -13 -14 14 -16 -17 -18
leaf_value=0.00036734971453636459 -0.00059792347289145265 0.0022571255605817373 -0.0030644514060947357 0.00077930369430733175 0.0033395285736969333 0.00083091324516614538 -0.0015122226559436281 -0.00012247325695949812 -0.00042862297494552246 0.0014230889951803943 0.00039030897694567216 -0.0018115887901986088 -0.0026172227375219279 -0.00037311743523449613 -4.5666878648795079e-05 -0.0013244530359109998 0.00095109999009036696
leaf_weight=27 20 37 28 20 35 28 21 21 21 23 35 29 30 21 39 28 20
leaf_count=27 20 37 28 20 35 28 21 21 21 23 35 29 30 21 39 28 20
internal_value=-8.83153e-06 0.000897222 -0.00190806 0.000364684 0.00278329 0.000691793 -0.00136057 0.000408982 -8.05474e-05 0.00106887 0.000586133 -0.00155612 -0.00283313 -0.000229846 -0.000160275 -0.00140493 0.000865202
internal_weight=483 327 156 255 72 147 98 84 108 63 63 78 58 81 60 49 40
internal_count=483 327 156 255 72 147 98 84 108 63 63 78 58 81 60 49 40
is_linear=0
shrinkage=0.0426353


Tree=21
num_leaves=19
num_cat=0
split_feature=91 56 56 70 68 27 88 56 48 50 75 50 68 70 58 87 90 40
split_gain=0.419076 0.165604 0.0398371 0.0187562 0.0119999 0.00736926 0.00681478 0.00344706 0.00266271 0.00260469 0.00161526 0.00151909 0.00115421 0.00107717 0.000848613 0.00074109 0.0008051 0.00023595
threshold=-0.31621807508779021 0.5533326419015191 0.020016625810716514 0.40789862829064655 -0.37827960426368706 27.34681984362927 0.31902201470384167 0.47002055066077447 0.048717065937183369 -0.013345055205846923 0.11266165175474141 0.099773437942511686 0.020909761659593532 -0.14023999285604838 0.035788687138404773 0.21081615635906106 0.090307254302010212 -0.010816396988603977
decision_type=2 2 2 2 2 2 2 2 2 2 2 2 2 2 2 2 2 2
left_child=1 3 5 6 10 -2 9 12 -8 -1 -3 17 14 -4 -5 -11 -17 -7
right_child=2 4 13 7 -6 11 8 -9 -10 15 -12 -13 -14 -15 -16 16 -18 -19
leaf_value=0.00017576620091287151 -0.00057243078519266465 0.0028729739059966354 -0.0024590703598082238 0.00077766431674240538 0.0019943901402812614 -0.0012495388639311988 0.0006912486740086127 0.001329485318396562 0.00010071085974390183 -7.6826242726110776e-05 0.0033968714854305695 -0.001734351048267259 0.00095655155267806069 -0.0028456320622496267 0.00040654320569849029 -0.00021226502804346436 -0.00056916512295249015 -0.0014366941029386032
leaf_weight=37 20 23 20 21 29 24 35 21 23 25 20 29 22 38 24 27 20 25
leaf_count=37 20 23 20 21 29 24 35 21 23 25 20 29 22 38 24 27 20 25
internal_value=-8.45499e-06 0.000858969 -0.00182671 0.000349136 0.00266463 -0.00130256 8.37023e-05 0.000852856 0.00045707 -0.00011497 0.00311665 -0.00148978 0.000703465 -0.00271233 0.000579733 -0.000264377 -0.000364137 -0.00134503
internal_weight=483 327 156 255 72 98 167 88 58 109 43 78 67 58 45 72 47 49
internal_count=483 327 156 255 72 98 167 88 58 109 43 78 67 58 45 72 47 49
is_linear=0
shrinkage=0.0426353


Tree=22
num_leaves=21
num_cat=0
split_feature=91 76 61 70 68 28 46 93 76 44 75 47 50 68 30 31 44 63 37 35
split_gain=0.384103 0.151784 0.0365126 0.017191 0.0109985 0.00691208 0.00593723 0.00393114 0.0031594 0.00261035 0.00148046 0.00144776 0.00136767 0.00106309 0.000921895 0.000722261 0.000680626 0.000449774 0.000277774 0.000159614
threshold=-0.31621807508779021 0.3357362477951375 -0.22347755778024661 0.40789862829064655 -0.37827960426368706 -18.491036043374979 0.021119503669426196 0.19685717388415394 0.24884979362135237 0.4474228857501078 0.11266165175474141 0.048058706220051733 0.099773437942511686 0.029963449475030064 0.0044840827760706794 0.33252404482820713 -0.1994016241001616 -0.18091208863431699 0.018510063218438021 -0.1574643130164062
decision_type=2 2 2 2 2 2 2 2 2 2 2 2 2 2 2 2 2 2 2 2
left_child=1 3 5 6 10 12 16 -8 13 14 -3 -4 18 15 17 -5 -1 -9 -2 -18
right_child=2 4 11 8 -6 -7 7 9 -10 -11 -12 -13 -14 -15 -16 -17 19 -19 -20 -21
leaf_value=-3.8617729591835893e-05 -0.0014132310985276301 0.002750483654361 -0.0028171818742789762 0.00074085313455780574 0.0019093586219017511 -0.00053990635892833957 0.00081901611452342784 0.00025609519924992783 0.001272802252821448 -0.00027118676861031339 0.0032520447686288016 -0.0023909045319324856 -0.0016604064182985474 0.00093381827458788097 5.0731523166538993e-05 0.00040589971095092632 -0.00024864994505273598 0.00053545583224090239 -0.0012066930852726479 -0.00041122649036493133
leaf_weight=21 20 23 28 22 29 20 20 20 21 20 20 30 29 20 20 25 21 22 29 23
leaf_count=21 20 23 28 22 29 20 20 20 21 20 20 30 29 20 20 25 21 22 29 23
internal_value=-8.09451e-06 0.000822346 -0.00174883 0.00033425 0.00255102 -0.00124703 8.01336e-05 0.00028307 0.000816494 0.000152352 0.00298377 -0.00259669 -0.00142834 0.000673472 0.000288977 0.000562686 -0.00023832 0.000402427 -0.00129099 -0.000333633
internal_weight=483 327 156 255 72 98 167 102 88 82 43 58 78 67 62 47 65 42 49 44
internal_count=483 327 156 255 72 98 167 102 88 82 43 58 78 67 62 47 65 42 49 44
is_linear=0
shrinkage=0.0426353


Tree=23
num_leaves=20
num_cat=0
split_feature=91 56 56 45 68 27 58 73 50 55 83 75 93 88 85 40 56 75 40
split_gain=0.352049 0.139117 0.0335196 0.0159852 0.0100807 0.00715201 0.00675967 0.00403546 0.0032 0.00202032 0.00165257 0.00135691 0.00135492 0.00109791 0.000634831 0.000622827 0.000557112 0.000277275 0.000250418
threshold=-0.31621807508779021 0.5533326419015191 0.059649968653295367 0.076729382668932519 -0.37827960426368706 27.34681984362927 0.035788687138404773 0.043854176240347938 -0.03529521762505463 0.27319542179309925 0.27704284064522261 0.11266165175474141 0.27704284064522261 0.52954120666314475 0.5805595996845786 0.034243264068506037 -0.15015877427455415 0.42802034544344747 0.010788242783559559
decision_type=2 2 2 2 2 2 2 2 2 2 2 2 2 2 2 2 2 2 2
left_child=1 3 5 8 11 -2 9 12 -1 18 14 -3 -8 -4 -7 16 -10 -12 -5
right_child=2 4 13 6 -6 10 7 -9 15 -11 17 -13 -14 -15 -16 -17 -18 -19 -20
leaf_value=0.00032814198412817267 -0.00051329471110890242 0.0026332158188592828 -0.0028172874297880206 0.00086678154364110279 0.0018279524967841363 -0.0014430231659530092 0.00073966776966409955 -0.00016967068727639798 -0.00025704347368385737 0.0012615871416507901 -0.0013282537597449362 0.0031133927291790492 0.00034558830224108836 -0.0024121120493101884 -0.0017682636066071087 -0.00035796403822001781 2.7589936958236633e-05 -0.0011064381431260351 0.00065342674632838291
leaf_weight=27 20 23 20 20 29 24 29 20 25 23 20 20 35 31 20 31 25 21 20
leaf_count=27 20 23 20 20 29 24 29 20 25 23 20 20 35 31 20 31 25 21 20
internal_value=-7.74939e-06 0.000787285 -0.00167426 0.000319999 0.00244226 -0.0012387 0.000609342 0.000358959 -7.38277e-05 0.000943185 -0.00140939 0.00285655 0.000524156 -0.002571 -0.00159086 -0.000207818 -0.000114727 -0.00121464 0.000760104
internal_weight=483 327 156 255 72 105 147 84 108 63 85 43 64 51 44 81 50 41 40
internal_count=483 327 156 255 72 105 147 84 108 63 85 43 64 51 44 81 50 41 40
is_linear=0
shrinkage=0.0426353


Tree=24
num_leaves=19
num_cat=0
split_feature=91 56 56 45 66 58 28 73 50 55 89 47 93 50 40 89 37 40
split_gain=0.322669 0.127508 0.0307505 0.0146512 0.00822209 0.00619555 0.00595288 0.00369868 0.00293295 0.00185172 0.00181755 0.00125435 0.00124185 0.00114046 0.00057085 0.000534654 0.000261301 0.00022952
threshold=-0.31621807508779021 0.5533326419015191 0.020016625810716514 0.076729382668932519 0.46126246947143251 0.035788687138404773 -18.491036043374979 0.043854176240347938 -0.03529521762505463 0.27319542179309925 -1.3776004199200811 0.048058706220051733 0.27704284064522261 0.099773437942511686 0.034243264068506037 -0.61060480411954488 0.018510063218438021 0.010788242783559559
decision_type=2 2 2 2 2 2 2 2 2 2 2 2 2 2 2 2 2 2
left_child=1 3 6 8 -3 9 13 12 -1 17 -6 -4 -7 16 15 -10 -2 -5
right_child=2 4 11 5 10 7 -8 -9 14 -11 -12 -13 -14 -15 -16 -17 -18 -19
leaf_value=0.00031415153591743167 -0.0013037767359653524 0.0016034782364574114 -0.0025862086781527141 0.00082982601332600315 0.0028281505761053251 0.00070813178307641206 -0.00048615165855701717 -0.00016243672150070175 -0.00026089181730550297 0.0012077989113691626 0.002314433470933578 -0.0021894250964902841 0.00033085401879070668 -0.0015225547317848569 -0.00034270211704211598 1.884237466677116e-05 -0.0011034568428162962 0.00062556767341484325
leaf_weight=27 20 20 28 20 31 29 20 20 23 23 21 30 35 29 31 27 29 20
leaf_count=27 20 20 28 20 31 29 20 20 23 23 21 30 35 29 31 27 29 20
internal_value=-7.419e-06 0.000753719 -0.00160288 0.000306356 0.00233813 0.000583362 -0.00114238 0.000343654 -7.068e-05 0.000902972 0.00262069 -0.00238098 0.000501808 -0.00131064 -0.000198957 -0.000109835 -0.00118522 0.000727697
internal_weight=483 327 156 255 72 147 98 84 108 63 52 58 64 78 81 50 49 40
internal_count=483 327 156 255 72 147 98 84 108 63 52 58 64 78 81 50 49 40
is_linear=0
shrinkage=0.0426353


end of trees

feature_importances:
ma_90=33
total_return_25=29
skew_180=28
PE_Ratio=21
total_return_5=21
total_return_180=19
min_504=18
std_180=17
lag_252=17
std_25=15
skew_90=13
std_504=12
lag_25=11
kurt_504=11
PB_Ratio=10
total_return_504=10
Returns=9
ma_25=8
kurt_25=8
ma_180=8
first_return_180=8
ma_252=8
Price=7
kurt_180=7
skew_504=7
skew_252=6
first_return_252=6
WeightedAverageNumberOfDilutedSharesOutstanding=5
lag_5=5
skew_25=5
first_return_25=5
lag_90=5
lag_180=5
first_return_504=5
MarketCapLog=4
last_return_5=4
total_return_90=4
std_5=3
skew_5=3
min_25=3
max_25=3
first_return_90=3
min_180=3
max_252=3
std_90=2
std_252=2
ma_504=2
ROE=1
min_5=1
max_5=1
kurt_90=1
min_90=1
lag_504=1

parameters:
[boosting: gbdt]
[objective: regression]
[metric: rmse]
[tree_learner: serial]
[device_type: cpu]
[data_sample_strategy: bagging]
[data: ]
[valid: ]
[num_iterations: 2000]
[learning_rate: 0.0426353]
[num_leaves: 64]
[num_threads: 4]
[seed: 42]
[deterministic: 0]
[force_col_wise: 0]
[force_row_wise: 0]
[histogram_pool_size: -1]
[max_depth: -1]
[min_data_in_leaf: 20]
[min_sum_hessian_in_leaf: 0.001]
[bagging_fraction: 0.8]
[pos_bagging_fraction: 1]
[neg_bagging_fraction: 1]
[bagging_freq: 5]
[bagging_seed: 400]
[bagging_by_query: 0]
[feature_fraction: 0.8]
[feature_fraction_bynode: 1]
[feature_fraction_seed: 30056]
[extra_trees: 0]
[extra_seed: 12879]
[early_stopping_round: 0]
[early_stopping_min_delta: 0]
[first_metric_only: 0]
[max_delta_step: 0]
[lambda_l1: 0]
[lambda_l2: 0]
[linear_lambda: 0]
[min_gain_to_split: 0]
[drop_rate: 0.1]
[max_drop: 50]
[skip_drop: 0.5]
[xgboost_dart_mode: 0]
[uniform_drop: 0]
[drop_seed: 17869]
[top_rate: 0.2]
[other_rate: 0.1]
[min_data_per_group: 100]
[max_cat_threshold: 32]
[cat_l2: 10]
[cat_smooth: 10]
[max_cat_to_onehot: 4]
[top_k: 20]
[monotone_constraints: ]
[monotone_constraints_method: basic]
[monotone_penalty: 0]
[feature_contri: ]
[forcedsplits_filename: ]
[refit_decay_rate: 0.9]
[cegb_tradeoff: 1]
[cegb_penalty_split: 0]
[cegb_penalty_feature_lazy: ]
[cegb_penalty_feature_coupled: ]
[path_smooth: 0]
[interaction_constraints: ]
[verbosity: -1]
[saved_feature_importance_type: 0]
[use_quantized_grad: 0]
[num_grad_quant_bins: 4]
[quant_train_renew_leaf: 0]
[stochastic_rounding: 1]
[linear_tree: 0]
[max_bin: 255]
[max_bin_by_feature: ]
[min_data_in_bin: 3]
[bin_construct_sample_cnt: 200000]
[data_random_seed: 175]
[is_enable_sparse: 1]
[enable_bundle: 1]
[use_missing: 1]
[zero_as_missing: 0]
[feature_pre_filter: 1]
[pre_partition: 0]
[two_round: 0]
[header: 0]
[label_column: ]
[weight_column: ]
[group_column: ]
[ignore_column: ]
[categorical_feature: ]
[forcedbins_filename: ]
[precise_float_parser: 0]
[parser_config_file: ]
[objective_seed: 16083]
[num_class: 1]
[is_unbalance: 0]
[scale_pos_weight: 1]
[sigmoid: 1]
[boost_from_average: 1]
[reg_sqrt: 0]
[alpha: 0.9]
[fair_c: 1]
[poisson_max_delta_step: 0.7]
[tweedie_variance_power: 1.5]
[lambdarank_truncation_level: 30]
[lambdarank_norm: 1]
[label_gain: ]
[lambdarank_position_bias_regularization: 0]
[eval_at: ]
[multi_error_top_k: 1]
[auc_mu_weights: ]
[num_machines: 1]
[local_listen_port: 12400]
[time_out: 120]
[machine_list_filename: ]
[machines: ]
[gpu_platform_id: -1]
[gpu_device_id: -1]
[gpu_use_dp: 0]
[num_gpu: 1]

end of parameters

pandas_categorical:[]
