tree
version=v4
num_class=1
num_tree_per_iteration=1
label_index=0
max_feature_idx=92
objective=regression
feature_names=WeightedAverageNumberOfDilutedSharesOutstanding ROE ROA AssetTurnover DebtToEquity NetProfitMargin OperatingMargin EarningsPerShareDiluted_log GrossProfit_log NetIncomeLoss_log OperatingIncomeLoss_log Revenues_log Assets_log Liabilities_log NoncurrentAssets_log WeightedAverageNumberOfDilutedSharesOutstanding_log Equity_log ROE_log ROA_log BookValuePerShare_log SalesPerShare_log AssetTurnover_log DebtToEquity_log NetProfitMargin_log OperatingMargin_log EarningsPerShareDilutedTTM_log SalesPerShareTTM_log PE_Ratio PB_Ratio PS_Ratio MarketCapLog CostsAndExpenses_log Returns lag_5 ma_5 std_5 skew_5 kurt_5 total_return_5 min_5 max_5 first_return_5 last_return_5 lag_25 ma_25 std_25 skew_25 kurt_25 total_return_25 min_25 max_25 first_return_25 last_return_25 lag_90 ma_90 std_90 skew_90 kurt_90 total_return_90 min_90 max_90 first_return_90 last_return_90 lag_180 ma_180 std_180 skew_180 kurt_180 total_return_180 min_180 max_180 first_return_180 last_return_180 lag_252 ma_252 std_252 skew_252 kurt_252 total_return_252 min_252 max_252 first_return_252 last_return_252 lag_504 ma_504 std_504 skew_504 kurt_504 total_return_504 min_504 max_504 first_return_504 last_return_504
feature_infos=[106020936:113986129] [-0.088263309501130399:0.27670596839877898] [-0.074451067372359403:0.24785492031356934] [0.16765805793659139:0.52467016378819609] [0.10391769427543086:0.28239514350549255] [0.12742465710843531:1.4783358662505119] [0.096011910939356848:0.44810023767661816] [-1.3308487395745661:1.4919612278108112] none [-1.3322064480418707:1.488734772542363] [-0.54769041620880532:0.49780794224156522] [0.64619350291190247:1.1189406060982368] [-0.071631942378926394:0.2856487259266991] [-0.30703720765602266:0.87788473042709703] none [-0.0096149087492309066:0.024600433461652409] [-0.073933764944668967:0.34252955335724011] [-1.4117641927115012:1.1462052191851229] [-1.4275588576653859:1.2030860466156639] [-0.073153551318490537:0.34575600862568823] [0.65580841166113324:1.1202983145655416] [0.49585683052688861:1.0235881964747218] [-0.44555014511137025:0.76448953448921897] [-2.4511470541401077:-1.1879055373033518] [-1.4250325089318006:-1.193883919120708] [-0.62168765058641806:1.2796650797499955] none [4.4218208672910322:45.045933447496239] [2.0173181918333509:8.0866516103110282] none [-0.34303211534826439:0.2140456599249615] none [-0.84864461784093215:1.3032973879899494] [-0.84864461784093215:1.3032973879899494] [-0.74544022842575008:1.2773872055776276] [0.0045613209013296721:0.4122351126923538] [-2.2002153052114695:2.1507343529611513] [-3.2789516738726192:4.8644405601999949] [-3.7272011421287505:6.3869360278881384] [-0.84864461784093215:1.2328532426408683] [-0.68826519640238992:1.3032973879899494] [-0.84864461784093215:1.3032973879899494] [-0.84864461784093215:1.3032973879899494] [-0.84864461784093215:1.3032973879899494] [-0.63625267599533852:1.0991293744285278] [0.022316363202449868:0.37848261858917498] [-2.1950405790312293:2.5343923904603352] [-1.9511372884092137:8.1862867839433342] [-15.906316899883464:27.478234360713191] [-0.84864461784093215:0.96203679284202515] [-0.47482629701426193:1.3032973879899494] [-0.84864461784093215:1.3032973879899494] [-0.84864461784093215:1.3032973879899494] [-0.84864461784093215:1.3032973879899494] [-0.45527482273779835:0.90225197659336953] [0.091942229224276542:0.40263596462554818] [-2.480578644652403:1.6728766331249141] [-1.6286612734145574:7.5330545843973695] [-40.974734046401849:81.202677893403262] [-0.84864461784093215:0.67622630263471406] [-0.18046288846454323:1.3032973879899494] [-0.84864461784093215:1.3032973879899494] [-0.84864461784093215:1.3032973879899494] [-0.84864461784093215:1.3032973879899494] [-0.25386339962167637:0.85256234017649157] [0.12174587102377546:0.40315299163006479] [-2.2491658098206679:0.88450437335917653] [-1.5500318357686724:7.2375593644414993] [-45.695411931901745:153.46122123176849] [-0.84864461784093215:0.63240377300110029] [0.21921427685532352:1.3032973879899494] [-0.84864461784093215:1.3032973879899494] [-0.84864461784093215:1.3032973879899494] [-0.84864461784093215:1.1631508589641504] [-0.18261680884617226:0.78208521285409593] [0.18013645715391247:0.44345682125262853] [-1.1035628354525213:0.4414976896071815] [-1.376252624296842:1.0079032967680861] [-46.019435829235412:197.08547363923216] [-0.84864461784093215:0.4060486666512621] [0.35437349483454628:1.3032973879899494] [-0.84864461784093215:1.1631508589641504] [-0.84864461784093215:1.3032973879899494] [-0.84864461784093215:0.85987667385147337] [0.084620686344643897:0.64150142901667084] [0.23151299168887987:0.4289076491689558] [-0.55263065607048201:0.0042481038033358228] [-1.172781328402541:0.23880614911710185] [42.648825917700528:323.3167202244021] [-0.84864461784093215:0.080932290664193357] [0.73271274343834703:1.3032973879899494] [-0.84864461784093215:0.85987667385147337] [-0.27563378130783378:1.3032973879899494]
tree_sizes=2442 2643 2643 2745

Tree=0
num_leaves=28
num_cat=0
split_feature=28 90 75 28 64 71 7 92 54 74 77 55 34 71 71 46 28 64 77 51 54 71 64 64 87 47 57
split_gain=60.4378 11.1758 5.91344 4.00738 3.16583 1.15917 0.920094 0.807695 0.753045 0.583003 0.569109 0.550334 0.431902 0.31944 0.252842 0.246748 0.229051 0.215196 0.182535 0.168833 0.165778 0.15783 0.139839 0.104807 0.0541992 0.0437887 0.0339827
threshold=4.4848304806295118 0.82689194647232278 0.28372832253814767 4.9552404357745869 0.47360754019937995 0.19880708418589763 -0.1347292930126264 0.6048971365635597 0.52674903411384644 -0.086880047911506053 -0.80962108277940381 0.16117211576187584 0.11420806592542014 0.55810821523668708 0.39916747804166802 0.13214346113606254 2.7558188231657428 0.34862274283889566 -1.1005369999205745 0.67867407063031571 0.45616054500901221 0.36281723518479786 0.5734297957718133 -0.057430084346020947 -0.91688971133232655 -0.44917400175705641 -0.73016437304855464
decision_type=2 8 2 2 2 2 10 8 2 2 2 2 2 2 2 2 2 2 2 2 2 2 2 2 10 2 2
left_child=1 4 12 7 6 9 18 -2 15 16 23 21 -3 -12 -13 -6 -4 -9 -1 24 -16 -5 -10 -7 -14 -22 -15
right_child=3 2 5 11 8 10 -8 17 22 -11 13 14 19 26 20 -17 -18 -19 -20 -21 25 -23 -24 -25 -26 -27 -28
leaf_value=0.39162550662344037 0.36821129027754607 0.36923541777244079 0.38052236857159411 0.34907566260135442 0.37996847797464406 0.38027353450758455 0.39720750232518065 0.36117100264761226 0.38273083466916341 0.38499204374113349 0.36917518243619174 0.35504630340635224 0.35993972893830423 0.37360006975248 0.35320818100196377 0.37335143722446479 0.37531506023101879 0.35602046101391288 0.38636712768787762 0.36621237203697471 0.35033824988062773 0.34513619856323696 0.38724887606625269 0.37624595921689657 0.36278651839804787 0.34800683298505269 0.3758222218229218
leaf_weight=20 22 28 34 36 21 24 39 30 33 36 33 31 20 29 29 20 28 29 30 21 32 38 20 23 31 27 22
leaf_count=20 22 28 34 36 21 24 39 30 33 36 33 31 20 29 29 20 28 29 30 21 32 38 20 23 31 27 22
internal_value=0.369441 0.37809 0.373392 0.35328 0.386536 0.377169 0.392299 0.361239 0.381079 0.380676 0.374546 0.34994 0.364742 0.372444 0.351735 0.376741 0.378171 0.358639 0.38847 0.362995 0.350569 0.347053 0.384436 0.378303 0.36167 0.349271 0.374559
internal_weight=786 512 329 274 183 229 89 81 94 98 131 193 100 84 119 41 62 59 50 72 88 74 53 47 51 59 51
internal_count=786 512 329 274 183 229 89 81 94 98 131 193 100 84 119 41 62 59 50 72 88 74 53 47 51 59 51
is_linear=0
shrinkage=1


Tree=1
num_leaves=29
num_cat=0
split_feature=28 90 28 28 66 91 66 7 92 54 68 65 84 55 71 66 63 68 46 77 54 63 68 60 66 85 28 86
split_gain=55.3941 10.2432 3.86234 3.67295 2.90164 1.74143 1.21795 0.843309 0.745846 0.690202 0.659051 0.59453 0.559313 0.506466 0.270394 0.260067 0.24472 0.233624 0.226156 0.167302 0.149942 0.149497 0.128169 0.0844669 0.0819947 0.0604966 0.0402291 0.037686
threshold=4.4848304806295118 0.82689194647232278 3.2758536719458373 4.9552404357745869 -0.39917120864945727 0.54793983443575123 0.085929723120927212 -0.1347292930126264 0.61396501147695914 0.52674903411384644 -42.515263643988163 0.32476256053044644 0.099865353417911348 0.1648302019964924 0.39916747804166802 0.24314788131721554 0.82046525807951765 62.752093711001216 0.13214346113606254 -1.1005369999205745 0.45616054500901221 0.43545291160156013 103.21736323892638 0.67983372419949661 -0.11389311484401564 0.38685616010335044 5.8678330301966506 -0.20901033140244241
decision_type=2 8 2 2 2 10 2 10 8 2 2 2 10 2 2 2 2 2 2 2 2 2 2 2 2 8 2 10
left_child=1 4 6 8 9 11 10 19 -2 18 -3 16 24 21 -15 27 25 -10 -1 -6 -16 -5 -11 -7 -12 -4 -22 -8
right_child=3 2 5 13 7 23 15 -9 17 22 12 -13 -14 14 20 -17 -18 -19 -20 -21 26 -23 -24 -25 -26 -27 -28 -29
leaf_value=0.010209892541680622 -0.0014159172775758803 0.010720864203595361 -0.0058034858538912344 -0.019323924237918278 0.021369918925211496 0.007941430675809661 0.0098222192563103029 0.026713924248104454 -0.0077861465916762304 0.012854474994208345 0.0047933301827369386 0.0026921387798081813 -0.0014318019705902801 -0.013095603563744954 -0.01540947045003566 0.016990081621866857 -0.0022642651830416974 -0.013252822668507707 0.0038749709868067185 0.016335732999190698 -0.018041336777862498 -0.023057020682617814 0.017179888281024441 0.0041898103403712013 0.0082732900009105381 -0.00860276514494741 -0.020287059221420649 0.012439557335478944
leaf_weight=21 24 33 36 39 20 24 20 39 30 33 32 21 27 28 29 21 32 27 20 30 29 39 20 20 20 23 29 20
leaf_count=21 24 33 36 39 20 24 20 39 30 33 32 21 27 28 29 21 32 27 20 30 29 39 20 20 20 23 29 20
internal_value=0.000131528 0.00841153 0.00391395 -0.0153406 0.0164974 -0.00095077 0.00830063 0.0220148 -0.0077209 0.0112734 0.00566056 -0.0037742 0.00354676 -0.0185385 -0.0167398 0.013148 -0.00526643 -0.0103756 0.00711969 0.0183494 -0.0179126 -0.0211905 0.0144867 0.00623615 0.00613178 -0.00689473 -0.0191642 0.0111309
internal_weight=786 512 329 274 183 156 173 89 81 94 112 112 79 193 115 61 91 57 41 50 87 78 53 44 52 59 58 40
internal_count=786 512 329 274 183 156 173 89 81 94 112 112 79 193 115 61 91 57 41 50 87 78 53 44 52 59 58 40
is_linear=0
shrinkage=0.0426353


Tree=2
num_leaves=29
num_cat=0
split_feature=28 90 75 28 74 27 10 92 57 55 55 34 43 77 77 71 64 41 28 55 51 75 71 64 84 87 40 45
split_gain=50.7713 9.38834 5.00325 3.36643 2.66305 0.976648 0.81218 0.683603 0.658778 0.643723 0.4642 0.376592 0.349241 0.348922 0.26049 0.247829 0.214127 0.201766 0.172271 0.158166 0.146015 0.144389 0.137021 0.113221 0.0565502 0.046001 0.0266438 0.0241947
threshold=4.4848304806295118 0.82689194647232278 0.28372832253814767 4.9552404357745869 0.35976190339447833 8.3356994677764522 -0.10875424604696217 0.61396501147695914 -0.69866917970751385 0.16168999734344952 0.1648302019964924 0.11420806592542014 0.1468890077273616 -0.85225489978226932 -0.62076902387222821 0.39916747804166802 0.34862274283889566 0.21684260316148599 2.5431424455785208 0.16168999734344952 0.67867407063031571 0.24051634862540211 0.36281723518479786 0.5734297957718133 0.5779140158752164 -0.91688971133232655 0.75768806984385595 0.08554723352899167
decision_type=2 8 2 2 2 2 10 8 2 2 2 2 2 2 2 2 2 2 2 2 2 2 2 2 8 10 2 2
left_child=1 4 11 7 6 8 19 -2 13 23 22 -3 24 -4 18 -12 -9 -11 27 -1 25 -17 -5 -6 -7 -13 -23 -10
right_child=3 2 5 10 9 12 -8 16 14 17 15 20 -14 -15 -16 21 -18 -19 -20 -21 -22 26 -24 -25 -26 -27 -28 -29
leaf_value=0.020165192373041103 -0.0013555491638804055 -1.371686916782847e-05 0.0085157538266690605 -0.018500041793375936 0.012404686349386433 0.0070122956468616337 0.025836217759466755 -0.0074541812931946776 0.011005043909918376 0.0097349579162674237 -0.012537267969800432 -0.0086671360690293592 -0.00058999753240246455 0.00099043656932715283 0.015428340568542236 -0.014413627465253346 -0.012687783969013133 0.0037513740217133182 0.0080081504519623186 0.015353863007763546 -0.0028488088577857092 -0.017139711734897863 -0.02207397609987161 0.016447418062635475 0.0042583202576687591 -0.006044472350802443 -0.018954250513251922 0.013032655645632035
leaf_weight=23 24 28 24 39 34 23 38 30 23 21 28 20 26 21 21 25 27 20 38 27 21 24 39 20 33 31 38 20
leaf_count=23 24 28 24 39 34 23 38 30 23 21 28 20 26 21 21 25 27 20 38 27 21 24 39 20 33 31 38 20
internal_value=0.00012592 0.00805291 0.00374708 -0.0146865 0.015794 0.00722148 0.0211378 -0.00739171 0.00930103 0.0108439 -0.0177481 -0.0042093 0.00349351 0.00500394 0.0111968 -0.0160261 -0.00993326 0.00681614 0.0100997 0.0175671 -0.00584092 -0.0171489 -0.020287 0.013902 0.00538942 -0.00707297 -0.0182518 0.0119481
internal_weight=786 512 329 274 183 229 88 81 147 95 193 100 82 45 102 115 57 41 81 50 72 87 78 54 56 51 62 43
internal_count=786 512 329 274 183 229 88 81 147 95 193 100 82 45 102 115 57 41 81 50 72 87 78 54 56 51 62 43
is_linear=0
shrinkage=0.0426353


Tree=3
num_leaves=30
num_cat=0
split_feature=28 90 75 28 66 66 0 92 54 64 55 67 34 71 71 66 46 86 64 55 75 87 63 64 74 83 92 45 28
split_gain=46.5343 8.60485 4.58571 3.08549 2.44081 1.23967 0.744401 0.628179 0.590003 0.477432 0.425907 0.350085 0.348252 0.341416 0.206753 0.206391 0.195135 0.168293 0.167412 0.144966 0.133645 0.124367 0.123832 0.103772 0.0551812 0.0440996 0.0365118 0.0268837 0.0252304
threshold=4.4848304806295118 0.82689194647232278 0.28372832253814767 4.9552404357745869 -0.38045466600714711 0.085929723120927212 107819390.50000001 0.6048971365635597 0.52674903411384644 -0.23619590913326757 0.16204687181687524 -1.1222372432660987 0.097123021323988604 0.55810821523668708 0.39916747804166802 0.24314788131721554 0.13214346113606254 -0.20418851612510922 0.34862274283889566 0.16168999734344952 0.24051634862540211 -0.91688971133232655 0.43545291160156013 0.5734297957718133 0.75549698171991253 0.69794777419680765 0.0094752070527377875 0.13619208021028853 5.7232605131471548
decision_type=2 8 2 2 2 2 2 8 2 2 2 2 2 2 2 2 2 10 2 2 2 10 2 2 2 8 8 2 2
left_child=1 4 12 7 8 9 -6 -2 16 -4 22 25 -3 17 -12 26 -1 -13 -9 -8 -16 -14 -5 -10 -23 -11 -7 -15 -22
right_child=3 2 5 10 6 15 19 18 23 11 14 13 21 27 20 -17 -18 -19 -20 -21 28 24 -24 -25 -26 -27 -28 -29 -30
leaf_value=0.0093959812793624822 -0.00092786154492222365 0.00057376447677101605 0.0095861514282254874 -0.017747954377708663 0.024734681409626435 0.011431948370335622 0.019305442619191138 -0.0071363699755248363 0.011875807443582393 0.0055356122502436961 -0.012338082776687829 -0.0034997044421351074 -0.0082976096092314908 0.0037441928151024885 -0.013799097463687104 0.015103321900416321 0.0035115524351153901 0.0020312792277890554 -0.011679232169106556 0.01469924595493881 -0.016616460757703559 -0.0032989001621075856 -0.021213125538059475 0.015746176491855231 -0.0060028559201774877 0.0081406619777480531 0.0089411304304737454 0.0058815115889689967 -0.01832311646103775
leaf_weight=21 22 23 32 37 38 20 23 30 34 27 30 20 20 23 25 23 20 20 29 27 31 34 38 20 23 21 23 20 32
leaf_count=21 22 23 32 37 38 20 23 30 34 27 30 20 20 23 25 23 20 20 29 27 31 34 38 20 23 21 23 20 32
internal_value=0.000120551 0.00770957 0.00358732 -0.0140604 0.0151206 0.00691359 0.0202366 -0.00707657 0.0103816 0.00491749 -0.0169914 0.00377705 -0.00402984 0.00210094 -0.0153947 0.0118434 0.00652553 -0.000734213 -0.0093693 0.0168181 -0.0164367 -0.00540494 -0.0195036 0.0133093 -0.00438997 0.00667532 0.0100997 0.00473829 -0.0174833
internal_weight=786 512 329 274 183 229 88 81 95 163 193 131 100 83 118 66 41 40 59 50 88 77 75 54 57 48 43 43 63
internal_count=786 512 329 274 183 229 88 81 95 163 193 131 100 83 118 66 41 40 59 50 88 77 75 54 57 48 43 43 63
is_linear=0
shrinkage=0.0426353


end of trees

feature_importances:
PB_Ratio=13
ma_180=9
first_return_180=9
std_90=7
skew_180=7
ma_90=5
std_252=5
kurt_252=5
last_return_504=5
max_504=4
ma_5=3
skew_25=3
lag_180=3
total_return_180=3
ma_252=3
kurt_504=3
EarningsPerShareDiluted_log=2
std_25=2
first_return_25=2
kurt_90=2
ma_504=2
skew_504=2
WeightedAverageNumberOfDilutedSharesOutstanding=1
OperatingIncomeLoss_log=1
PE_Ratio=1
max_5=1
first_return_5=1
lag_25=1
kurt_25=1
max_90=1
std_180=1
kurt_180=1
lag_504=1
std_504=1
first_return_504=1

parameters:
[boosting: gbdt]
[objective: regression]
[metric: rmse]
[tree_learner: serial]
[device_type: cpu]
[data_sample_strategy: bagging]
[data: ]
[valid: ]
[num_iterations: 2000]
[learning_rate: 0.0426353]
[num_leaves: 64]
[num_threads: 4]
[seed: 42]
[deterministic: 0]
[force_col_wise: 0]
[force_row_wise: 0]
[histogram_pool_size: -1]
[max_depth: -1]
[min_data_in_leaf: 20]
[min_sum_hessian_in_leaf: 0.001]
[bagging_fraction: 0.8]
[pos_bagging_fraction: 1]
[neg_bagging_fraction: 1]
[bagging_freq: 5]
[bagging_seed: 400]
[bagging_by_query: 0]
[feature_fraction: 0.8]
[feature_fraction_bynode: 1]
[feature_fraction_seed: 30056]
[extra_trees: 0]
[extra_seed: 12879]
[early_stopping_round: 0]
[early_stopping_min_delta: 0]
[first_metric_only: 0]
[max_delta_step: 0]
[lambda_l1: 0]
[lambda_l2: 0]
[linear_lambda: 0]
[min_gain_to_split: 0]
[drop_rate: 0.1]
[max_drop: 50]
[skip_drop: 0.5]
[xgboost_dart_mode: 0]
[uniform_drop: 0]
[drop_seed: 17869]
[top_rate: 0.2]
[other_rate: 0.1]
[min_data_per_group: 100]
[max_cat_threshold: 32]
[cat_l2: 10]
[cat_smooth: 10]
[max_cat_to_onehot: 4]
[top_k: 20]
[monotone_constraints: ]
[monotone_constraints_method: basic]
[monotone_penalty: 0]
[feature_contri: ]
[forcedsplits_filename: ]
[refit_decay_rate: 0.9]
[cegb_tradeoff: 1]
[cegb_penalty_split: 0]
[cegb_penalty_feature_lazy: ]
[cegb_penalty_feature_coupled: ]
[path_smooth: 0]
[interaction_constraints: ]
[verbosity: -1]
[saved_feature_importance_type: 0]
[use_quantized_grad: 0]
[num_grad_quant_bins: 4]
[quant_train_renew_leaf: 0]
[stochastic_rounding: 1]
[linear_tree: 0]
[max_bin: 255]
[max_bin_by_feature: ]
[min_data_in_bin: 3]
[bin_construct_sample_cnt: 200000]
[data_random_seed: 175]
[is_enable_sparse: 1]
[enable_bundle: 1]
[use_missing: 1]
[zero_as_missing: 0]
[feature_pre_filter: 1]
[pre_partition: 0]
[two_round: 0]
[header: 0]
[label_column: ]
[weight_column: ]
[group_column: ]
[ignore_column: ]
[categorical_feature: ]
[forcedbins_filename: ]
[precise_float_parser: 0]
[parser_config_file: ]
[objective_seed: 16083]
[num_class: 1]
[is_unbalance: 0]
[scale_pos_weight: 1]
[sigmoid: 1]
[boost_from_average: 1]
[reg_sqrt: 0]
[alpha: 0.9]
[fair_c: 1]
[poisson_max_delta_step: 0.7]
[tweedie_variance_power: 1.5]
[lambdarank_truncation_level: 30]
[lambdarank_norm: 1]
[label_gain: ]
[lambdarank_position_bias_regularization: 0]
[eval_at: ]
[multi_error_top_k: 1]
[auc_mu_weights: ]
[num_machines: 1]
[local_listen_port: 12400]
[time_out: 120]
[machine_list_filename: ]
[machines: ]
[gpu_platform_id: -1]
[gpu_device_id: -1]
[gpu_use_dp: 0]
[num_gpu: 1]

end of parameters

pandas_categorical:[]
