tree
version=v4
num_class=1
num_tree_per_iteration=1
label_index=0
max_feature_idx=94
objective=regression
feature_names=WeightedAverageNumberOfDilutedSharesOutstanding ROE ROA AssetTurnover DebtToEquity NetProfitMargin OperatingMargin EarningsPerShareDiluted_log GrossProfit_log NetIncomeLoss_log OperatingIncomeLoss_log Revenues_log Assets_log Liabilities_log NoncurrentAssets_log WeightedAverageNumberOfDilutedSharesOutstanding_log Equity_log ROE_log ROA_log BookValuePerShare_log SalesPerShare_log AssetTurnover_log DebtToEquity_log NetProfitMargin_log OperatingMargin_log EarningsPerShareDilutedTTM_log SalesPerShareTTM_log PE_Ratio PB_Ratio PS_Ratio MarketCapLog Price CostsAndExpenses_log Returns Returns_Daily lag_5 ma_5 std_5 skew_5 kurt_5 total_return_5 min_5 max_5 first_return_5 last_return_5 lag_25 ma_25 std_25 skew_25 kurt_25 total_return_25 min_25 max_25 first_return_25 last_return_25 lag_90 ma_90 std_90 skew_90 kurt_90 total_return_90 min_90 max_90 first_return_90 last_return_90 lag_180 ma_180 std_180 skew_180 kurt_180 total_return_180 min_180 max_180 first_return_180 last_return_180 lag_252 ma_252 std_252 skew_252 kurt_252 total_return_252 min_252 max_252 first_return_252 last_return_252 lag_504 ma_504 std_504 skew_504 kurt_504 total_return_504 min_504 max_504 first_return_504 last_return_504
feature_infos=[586300000:587500000] [-0.034684112006235349:0.064459940328709484] [-0.0074311635266613007:0.013528312735564575] [0.1576737132000679:0.1851041410473421] [2.7387982179956736:4.1112058580690567] [-0.047130009028404751:0.077032684656703043] none [-1.8980982754131488:2.094753891245503] none [-1.8972465591535017:2.0944132917871694] none [-0.053486133891418985:0.10388188986728282] [-0.020672678668993267:0.06525648501644421] [-0.021677969557419064:0.072499084413246095] none [-0.0013635590999708628:0.0010224949766100139] [-0.085577156417278269:0.072735132962251134] [-1.8909350515648367:2.1121632909597481] [-1.9364786744877891:2.1150859704561626] [-0.085918220540639051:0.072735132962251134] [-0.052122574791448127:0.10285939489067283] [-0.0920578995386961:0.072665185512214528] [-0.092250055550762627:0.1394348541842754] [-1.8933500186054475:2.042420784943948] none [-0.94248679206073149:0.71277349510934462] [-0.007941465685835215:0.070866473746468525] [9.2031756697152396:115.17256919976917] [2.7036714637784289:5.4307701671927289] [1.080684565560341:1.6737438598916234] [-0.14061779301359389:0.084970207714760992] [0.31968282645051938:0.53404560380489241] none [-0.038038860133818055:0.30198255222076459] [-0.11467544556131525:0.068646128709445864] [-0.038038860133818055:0.30198255222076459] [-0.034247395799949898:0.28517592992360052] [0.0015808866646712368:0.055589225544291722] [-2.2309345970472134:2.1636808954892079] [-3.2255725433274858:4.9815565708092295] [-0.11198506576447999:0.087447021123826449] [-0.038038860133818055:0.27655448497705282] [-0.027056315869269622:0.30198255222076459] [-0.038038860133818055:0.30198255222076459] [-0.038038860133818055:0.30198255222076459] [-0.038038860133818055:0.30198255222076459] [0.0034576660031289436:0.27302925031887776] [0.011002883843270694:0.066288482102496354] [-2.3833999650542625:2.0777025833401241] [-1.8438268268932581:9.329543499916511] [-0.11556210070440388:0.13412962429639844] [-0.038038860133818055:0.24769126482423631] [0.050906219817266556:0.30198255222076459] [-0.038038860133818055:0.30198255222076459] [-0.038038860133818055:0.30198255222076459] [-0.038038860133818055:0.36146303756644954] [0.04453757163805467:0.25099046449423013] [0.028063586783998618:0.091354134069654591] [-0.8483399071378368:0.8415608958373576] [-1.2977372076488785:1.1945857536947451] [-0.18705849289150739:0.26070710877141823] [-0.038038860133818055:0.18607222178138541] [0.11362498617648174:0.36146303756644954] [-0.038038860133818055:0.36146303756644954] [-0.038038860133818055:0.30198255222076459] [-0.038038860133818055:0.36146303756644954] [0.092058870571539511:0.22272100582304288] [0.042621600716807359:0.10678661725771961] [-0.69208038695505802:0.96061931228407604] [-1.1705377509393313:0.39142870385068151] [-0.065564656690981882:0.2615127557825393] [-0.038038860133818055:0.12565356533501471] [0.22687776764643158:0.36146303756644954] [-0.038038860133818055:0.36146303756644954] [-0.038038860133818055:0.30198255222076459] [-0.038038860133818055:0.36146303756644954] [0.10388266986642067:0.22049973940483389] [0.047191981493457137:0.10112482347680224] [-0.60797693481025783:0.56985587669750715] [-1.1280141817813016:0.33410313375841921] [-0.038038860133818575:0.30198255222076448] [-0.038038860133818055:0.08609911226370455] [0.235728384189928:0.36146303756644954] [-0.038038860133818055:0.36146303756644954] [-0.038038860133818055:0.30198255222076459] [-0.052899259589320714:0.36146303756644954] [0.1407376696669653:0.16674673396724182] [0.064829069146591228:0.10207192419667287] [-0.35360407372486213:0.11813088834873953] [-1.0780061035640802:-0.4895681005564062] [0.16081221793292011:0.49119253330885937] [-0.052899259589320714:-0.010492974062172464] [0.30198255222076459:0.36146303756644954] [-0.052899259589320714:0.36146303756644954] [-0.038038860133818055:0.30198255222076459]
tree_sizes=1688 1848 1848 1862 1757 1766 1856 1768 1860 1859 1954 1854 1867 1961 1871

Tree=0
num_leaves=18
num_cat=0
split_feature=25 76 51 69 78 93 46 27 77 78 89 90 86 57 89 55 37
split_gain=1.75082 0.174101 0.109088 0.0431109 0.0359101 0.0151572 0.0145839 0.0143757 0.00896986 0.00497206 0.00468297 0.003456 0.00329145 0.00268366 0.0024836 0.00139678 0.000726759
threshold=0.088285425278535543 0.13593190010608899 0.045461109882766783 -0.79979197836058169 0.076054241240394768 0.12965209447325471 0.20768290057026842 89.222170770043434 0.074023115797756042 -0.16270506364032986 -0.89779438995961869 0.41896897466177396 0.16487121898482845 0.045867867132627478 -0.74878708467259603 0.23355939922659097 0.015866648928144999
decision_type=2 2 2 2 2 2 2 2 2 2 2 2 2 2 2 2 2
left_child=1 4 8 6 9 -5 13 11 -2 -1 -6 16 14 -3 -7 -15 -4
right_child=2 3 7 5 10 12 -8 -9 -10 -11 -12 -13 -14 15 -16 -17 -18
leaf_value=0.035359922798274171 0.044661982754990573 0.039443545080644592 0.042694713913296906 0.039009634758496232 0.037714355526719028 0.038244770022561228 0.040305849236900781 0.041782144140847001 0.045794800637245607 0.036182508477894872 0.036911304051294426 0.043480640316422597 0.03737330068839087 0.038699223125544011 0.037725086471366631 0.039125358392444395 0.04304270697815489
leaf_weight=22 24 24 24 27 33 35 22 20 27 34 22 25 20 29 32 27 20
leaf_count=22 24 24 24 27 33 35 22 20 27 34 22 25 20 29 32 27 20
internal_value=0.0396998 0.0379917 0.0436895 0.0386969 0.0366193 0.0381272 0.0393337 0.0427886 0.0452617 0.0358593 0.0373931 0.0430803 0.0378533 0.0390663 0.0379966 0.0389047 0.0428529
internal_weight=467 327 140 216 111 114 102 89 51 56 55 69 87 80 67 56 44
internal_count=467 327 140 216 111 114 102 89 51 56 55 69 87 80 67 56 44
is_linear=0
shrinkage=1


Tree=1
num_leaves=19
num_cat=0
split_feature=87 82 51 16 27 27 27 76 76 75 90 46 78 30 27 75 70 45
split_gain=1.62268 0.143452 0.120871 0.0325667 0.0308495 0.01487 0.0105069 0.00719512 0.00643169 0.00441717 0.003695 0.00323975 0.00259296 0.0025156 0.00144631 0.00112017 0.00103874 0.000372327
threshold=0.083191217132513151 0.28981753981189107 0.045461109882766783 -0.007834209712559749 90.577512181077608 18.124707492979564 30.633313401625806 0.18141820515957818 0.20607808183129944 0.040661731100080908 0.41896897466177396 0.15116924721466421 -0.16270506364032986 0.0052473818635504861 84.210629259104692 0.24683459601353391 0.064697688716319215 0.15861891209054776
decision_type=2 2 2 2 2 2 2 2 2 2 2 2 2 2 2 2 2 2
left_child=2 6 7 5 10 -3 -2 -1 13 -7 16 -11 -8 15 -13 17 -4 -5
right_child=1 3 4 8 -6 9 12 -9 -10 11 -12 14 -14 -15 -16 -17 -18 -19
leaf_value=0.005770714274126146 -0.0026118820396777089 -0.00064904994830811016 0.0031936667146221058 -0.00015984310924858198 0.0014808136011204931 -0.002443654415740138 -0.0041156664038849138 0.0047334770596408476 -0.0014063848681825685 -0.0021244586234314827 0.0036588214787263572 -0.0013519911632131484 -0.0034867543634835066 -0.00086378313778081553 -0.0017747239019895676 -0.00065642673936691914 0.0028051612760858703 -0.00041401665896307775
leaf_weight=31 20 21 29 22 24 21 22 20 20 29 25 28 26 34 31 22 22 20
leaf_count=31 20 21 29 22 24 21 22 20 20 29 25 28 26 34 31 22 22 20
internal_value=3.91881e-05 -0.0016981 0.00367485 -0.00122243 0.0028134 -0.00168791 -0.00343291 0.00536395 -0.000709615 -0.00188806 0.00323422 -0.00175547 -0.00377501 -0.000567417 -0.0015741 -0.000409973 0.00302608 -0.000280878
internal_weight=467 316 151 248 100 130 68 51 118 109 76 88 48 98 59 64 51 42
internal_count=467 316 151 248 100 130 68 51 118 109 76 88 48 98 59 64 51 42
is_linear=0
shrinkage=0.0426353


Tree=2
num_leaves=19
num_cat=0
split_feature=87 82 62 27 69 27 27 77 77 77 86 93 28 57 78 78 46 70
split_gain=1.48726 0.131481 0.093779 0.0334124 0.0328585 0.00992356 0.00963007 0.00819146 0.00765432 0.00610277 0.00673416 0.00441849 0.00343508 0.00270179 0.00237657 0.00204544 0.00126279 0.00111226
threshold=0.083191217132513151 0.28981753981189107 0.23584074659127696 90.577512181077608 -0.8894804624905136 18.124707492979564 30.633313401625806 0.074578900201017151 0.060755311502951069 0.068672262867738657 0.15109894315378841 0.1329904201732274 4.8993567744043807 0.045780497659890729 -0.16270506364032986 -0.3639953927136107 0.15061720557799588 0.062094439571019379
decision_type=2 2 2 2 2 2 2 2 2 2 2 2 2 2 2 2 2 2
left_child=2 6 7 8 13 11 -2 -1 17 12 16 -6 -7 -3 -8 -15 -11 -4
right_child=1 4 3 -5 5 9 14 -9 -10 10 -12 -13 -14 15 -16 -17 -18 -19
leaf_value=0.004502671780976044 -0.0025005235234388267 -0.00015159236706620312 0.0030627859304845875 0.0014176785848836195 -0.00056902598217727562 -0.0010160594506589151 -0.0039401934698850265 0.0056448915234403544 0.0037161884223343646 -0.0019384570558346351 -0.0026596832187299226 -0.0014141836618701022 -0.0016908225870074887 -0.00032933131609690265 -0.0033380953207128401 -0.00086450634653137024 -0.0014762364187781193 0.0026456042657300029
leaf_weight=21 20 29 26 24 23 24 22 25 34 22 20 22 32 21 26 34 21 21
leaf_count=21 20 29 26 24 23 24 22 25 34 22 20 22 32 21 26 34 21 21
internal_value=3.75173e-05 -0.0016257 0.00351817 0.0028149 -0.00117031 -0.00152154 -0.00328655 0.00512344 0.0032289 -0.00172548 -0.00201334 -0.000982214 -0.00140164 -0.000484588 -0.00361406 -0.000660167 -0.00171272 0.00287639
internal_weight=467 316 151 105 248 164 68 46 81 119 63 45 56 84 48 55 43 47
internal_count=467 316 151 105 248 164 68 46 81 119 63 45 56 84 48 55 43 47
is_linear=0
shrinkage=0.0426353


Tree=3
num_leaves=19
num_cat=0
split_feature=87 82 51 16 56 57 27 77 48 58 90 40 75 77 59 93 56 47
split_gain=1.36315 0.120508 0.102378 0.0273882 0.0258685 0.012704 0.00882641 0.00692829 0.00652234 0.00481165 0.00363311 0.00261157 0.00241039 0.00216096 0.00143972 0.00101497 0.000741133 0.000641664
threshold=0.083191217132513151 0.28981753981189107 0.045461109882766783 -0.007834209712559749 0.19478400751941563 0.056668507757414034 30.633313401625806 0.074023115797756042 0.47336227408493775 1.0000000180025095e-35 0.41896897466177396 0.0033112266540187012 0.24683459601353391 0.064308601334837928 -0.090182170469338588 0.15645883982624623 0.21018505019221445 0.023996280217404208
decision_type=2 2 2 2 2 2 2 2 2 2 2 2 2 2 2 2 2 2
left_child=2 6 7 5 10 9 -2 -1 12 11 14 -3 15 -8 -4 17 -13 -5
right_child=1 3 4 8 -6 -7 13 -9 -10 -11 -12 16 -14 -15 -16 -17 -18 -19
leaf_value=0.0043956259885313907 -0.0023939128756633355 -0.0013289915385440063 0.0025596175513993942 -0.00060689569231241452 0.0012038886423344902 -0.00068352384872471552 -0.0031489794816820156 0.0053912159960159585 -0.0013313863642947063 -0.002269235966529253 0.0033443854104515782 -0.0019987354189815489 -0.00081276064764493154 -0.0037231165524771103 0.003013079581249932 -0.00010342583621578019 -0.0016446312606761934 -0.0002856769286421873
leaf_weight=24 20 37 35 26 20 25 22 27 21 25 25 21 31 26 20 20 22 20
leaf_count=24 20 37 35 26 20 25 22 27 21 25 25 21 31 26 20 20 22 20
internal_value=3.59177e-05 -0.00155639 0.00336817 -0.00112042 0.00257536 -0.00154728 -0.00314642 0.0049227 -0.000650136 -0.00175294 0.00291822 -0.0015916 -0.000502649 -0.00345997 0.00272451 -0.00035699 -0.00181757 -0.000467235
internal_weight=467 316 151 248 100 130 68 51 118 105 80 80 97 48 55 66 43 46
internal_count=467 316 151 248 100 130 68 51 118 105 80 80 97 48 55 66 43 46
is_linear=0
shrinkage=0.0426353


Tree=4
num_leaves=18
num_cat=0
split_feature=87 82 51 69 27 29 27 77 77 86 46 93 28 90 77 70 59
split_gain=1.24946 0.113418 0.0888569 0.0311794 0.0198342 0.00865788 0.00808982 0.00635011 0.00624411 0.00483669 0.00420558 0.00345405 0.0030107 0.00275652 0.00198062 0.00140148 0.00124331
threshold=0.08305292199415254 0.28981753981189107 0.045461109882766783 -0.8894804624905136 90.577512181077608 1.2824483111745633 30.633313401625806 0.074023115797756042 0.068672262867738657 0.15109894315378841 0.15540896192466544 0.16726426790562232 4.8993567744043807 0.41896897466177396 0.064308601334837928 0.050794717154305648 -0.12201083583787424
decision_type=2 2 2 2 2 2 2 2 2 2 2 2 2 2 2 2 2
left_child=2 6 7 11 13 10 -2 -1 12 -10 -5 15 -7 16 -8 -3 -4
right_child=1 3 4 5 -6 8 14 -9 9 -11 -12 -13 -14 -15 -16 -17 -18
leaf_value=0.0042082168971771363 -0.0022918475496217249 -0.0003393348607009987 0.0024861949691067082 -0.0012452716271949579 0.0013547666410748881 -0.00092279270067775309 -0.0030147216143130246 0.0051613594018449322 -0.0016289089822972924 -0.0024518436306805286 -0.00045227343295555129 6.4882948740914017e-05 -0.0015545019920439737 0.0032017963311257881 -0.0035643802593568435 -0.00073645798496940773 0.0029173653836790585
leaf_weight=24 20 30 31 31 21 24 22 27 37 20 20 22 32 25 26 35 20
leaf_count=24 20 30 31 31 21 24 22 27 37 20 20 22 32 25 26 35 20
internal_value=3.43863e-05 -0.00146774 0.00327208 -0.0010493 0.00251458 -0.00139541 -0.00301228 0.00471282 -0.00160352 -0.00191766 -0.000934292 -0.000396881 -0.00128377 0.00283506 -0.00331245 -0.00055317 0.00265528
internal_weight=467 319 148 251 97 164 68 51 113 57 51 87 56 76 48 65 51
internal_count=467 319 148 251 97 164 68 51 113 57 51 87 56 76 48 65 51
is_linear=0
shrinkage=0.0426353


Tree=5
num_leaves=18
num_cat=0
split_feature=87 82 51 69 87 27 77 93 46 58 83 57 60 78 65 70 47
split_gain=1.15613 0.11152 0.0827101 0.0256383 0.0232342 0.00859841 0.00761392 0.00548807 0.0070411 0.00479288 0.00351732 0.00294577 0.00314718 0.00162592 0.00121036 0.000873771 0.000246414
threshold=0.083191217132513151 0.28981753981189107 0.045461109882766783 -0.87962126028489995 0.081683556010875569 30.935351217348707 0.074023115797756042 0.14027766993976629 0.16996551921648592 1.0000000180025095e-35 0.25919404137374419 0.047868480860120084 -0.023433966980732555 -0.171205218327033 0.20781444833528692 0.06777057685445638 0.026655741362575817
decision_type=2 2 2 2 2 2 2 2 2 2 2 2 2 2 2 2 2
left_child=2 5 6 11 10 -2 -1 8 -5 14 15 -3 -13 -7 16 -4 -9
right_child=1 3 4 7 -6 13 -8 9 -10 -11 -12 12 -14 -15 -16 -17 -18
leaf_value=0.0039328078895804657 -0.0022162109822450801 -0.00021110026785957481 0.0027099434334750898 -0.0014258324291672585 0.0010884532536364106 -0.0035241412128532517 0.0049859004953573868 -0.001405218647712614 -0.00047588232001517013 -0.0020079091073931001 0.0031611144914437464 -0.00043119617395957017 -0.0010936283417113967 -0.0030441232393099726 -0.0011261544068310507 0.002363110299242971 -0.0015945172089989969
leaf_weight=24 20 38 23 37 21 23 26 25 23 32 21 32 22 29 23 31 25
leaf_count=24 20 38 23 37 21 23 26 25 23 32 21 32 22 29 23 31 25
internal_value=-8.32447e-05 -0.00148446 0.00307429 -0.00106898 0.00234194 -0.00296749 0.00448042 -0.00138696 -0.00106168 -0.00157284 0.00269291 -0.000498695 -0.000701076 -0.00325644 -0.00138212 0.00251084 -0.00149987
internal_weight=475 329 146 257 96 72 50 165 60 105 75 92 54 52 73 54 50
internal_count=475 329 146 257 96 72 50 165 60 105 75 92 54 52 73 54 50
is_linear=0
shrinkage=0.0426353


Tree=6
num_leaves=19
num_cat=0
split_feature=87 76 62 87 83 27 49 31 59 75 83 76 33 47 2 53 38 49
split_gain=1.05965 0.09737 0.0663162 0.0285447 0.017869 0.0141227 0.0088223 0.00699591 0.00548006 0.00364537 0.00310434 0.00207405 0.0018511 0.00181024 0.00153339 0.000967088 0.000956118 0.000413837
threshold=0.083191217132513151 0.12693170598942524 0.20693560776411221 0.081683556010875569 0.12220029696173795 30.133389801168921 0.038096244259762276 0.43563217731571807 -0.48870597609047334 0.044220757231996859 0.25919404137374419 0.14260366479466749 0.19751266752505106 0.032808922183396871 0.011133158377891498 0.13772423055203761 0.25952070811601496 -0.62431209290229861
decision_type=2 2 2 2 2 2 2 2 2 2 2 2 2 2 2 2 2 2
left_child=2 5 -1 7 9 -2 8 -4 11 -3 15 -6 -7 -11 -8 -9 17 -13
right_child=1 4 3 -5 6 12 14 10 -10 13 -12 16 -14 -15 -16 -17 -18 -19
leaf_value=0.0046582849653976008 -0.0018498766293885789 -0.0020484727202138837 0.0034888623888903202 0.0010420466998646812 -0.00083216661728427184 -0.0028495101133066735 -0.0010384398894115589 0.0026447205784060723 -0.001108276844034555 -0.0011530211158488795 0.0030263391666353005 -0.0003653786856547267 -0.0033400769577550363 -0.0016442554368096807 -0.0015418248112745283 0.0022667879374598187 -0.0005152745384547796 -0.00010741307098893776
leaf_weight=32 24 20 20 21 20 29 22 20 29 30 21 20 27 25 22 32 35 26
leaf_count=32 24 20 20 21 20 29 22 20 29 30 21 20 27 25 22 32 35 26
internal_value=-7.96956e-05 -0.00142117 0.00294322 0.0024618 -0.00100542 -0.00271519 -0.000768299 0.00278239 -0.000591679 -0.00155555 0.00258883 -0.000443349 -0.00308603 -0.00137631 -0.00129013 0.00241215 -0.000347345 -0.000219572
internal_weight=475 329 146 114 249 80 174 93 130 75 73 101 56 55 44 52 81 46
internal_count=475 329 146 114 249 80 174 93 130 75 73 101 56 55 44 52 81 46
is_linear=0
shrinkage=0.0426353


Tree=7
num_leaves=18
num_cat=0
split_feature=87 82 51 69 87 27 77 93 46 83 69 55 57 70 65 78 40
split_gain=0.97122 0.0939067 0.0698766 0.0219205 0.0194534 0.00723755 0.00643053 0.00466151 0.0061785 0.00298846 0.0027214 0.00257727 0.00249973 0.00268257 0.00142686 0.00137107 0.000863707
threshold=0.083191217132513151 0.28981753981189107 0.045461109882766783 -0.87962126028489995 0.081683556010875569 30.935351217348707 0.074023115797756042 0.14027766993976629 0.15848993753095628 0.25919404137374419 -0.19783878103969901 0.20340499315406096 0.047868480860120084 0.068603978718042261 0.20781444833528692 -0.171205218327033 -0.0062869554730527405
decision_type=2 2 2 2 2 2 2 2 2 2 2 2 2 2 2 2 2
left_child=2 5 6 12 9 -2 -1 8 -5 16 11 14 -3 -14 -9 -7 -4
right_child=1 3 4 7 -6 15 -8 10 -10 -11 -12 -13 13 -15 -16 -17 -18
leaf_value=0.0036069168726166022 -0.0020321969647968639 -0.00018706965551378076 0.002511657960425425 -0.0014062074230587894 0.00099761865955398221 -0.0032323922013648403 0.0045747172744842373 -0.001324527565018524 -0.00054090940557638021 0.0028973102385712588 -0.0017724863679093714 -0.0017133328859149771 -0.00040795297080202476 -0.001030236173637924 -0.00087224122121512418 -0.0027915953559334737 0.0021618873815763859
leaf_weight=24 20 38 21 30 21 23 26 32 30 21 32 20 34 20 21 29 33
leaf_count=24 20 38 21 30 21 23 26 32 30 21 32 20 34 20 21 29 33
internal_value=-7.62977e-05 -0.00136058 0.00281773 -0.000979321 0.00214459 -0.00272146 0.00411017 -0.00127334 -0.000973558 0.00246574 -0.00144465 -0.00130094 -0.000451998 -0.000638428 -0.00114532 -0.00298656 0.00229791
internal_weight=475 329 146 257 96 72 50 165 60 75 105 73 92 54 53 52 54
internal_count=475 329 146 257 96 72 50 165 60 75 105 73 92 54 53 52 54
is_linear=0
shrinkage=0.0426353


Tree=8
num_leaves=19
num_cat=0
split_feature=87 76 51 69 87 27 85 58 52 76 83 57 68 78 57 77 40 40
split_gain=0.890169 0.082167 0.0640452 0.0220565 0.0178299 0.011898 0.00664275 0.00634021 0.0039118 0.00310459 0.00273906 0.00221368 0.00201191 0.001923 0.00186637 0.00161555 0.000791628 0.000776225
threshold=0.083191217132513151 0.12693170598942524 0.045461109882766783 -0.85956409457800931 0.081683556010875569 30.133389801168921 0.13693531507485948 0.056494955245800969 0.20305877586043772 0.13698938812670114 0.25919404137374419 0.064591634496442799 -0.17798945184589612 -0.36519146214889947 0.044462855405486855 0.064308601334837928 -0.0062869554730527405 0.0085319246069486352
decision_type=2 2 2 2 2 2 2 2 2 2 2 2 2 2 2 2 2 2
left_child=2 5 7 11 10 -2 8 -1 -5 -8 16 17 14 -13 -11 -7 -4 -3
right_child=1 3 4 6 -6 15 9 -9 -10 12 -12 13 -14 -15 -16 -17 -18 -19
leaf_value=0.0034147532794998828 -0.0016970431833231402 -1.669664589023926e-06 0.002404572549590134 -0.0012181973030153193 0.00095508484494694328 -0.0025672385936543036 -0.0018895953911848735 0.0043780518158838128 -0.00043867986730184734 -0.0012766049244905093 0.0027737822634463505 -0.000284231900155203 -0.0010309440822640747 -0.00083581601265636822 -0.0017854384574663936 -0.0030299856199200812 0.0020697145765147915 -0.00035590727144197668
leaf_weight=23 24 22 21 22 21 24 20 27 25 38 21 20 32 27 20 32 33 23
leaf_count=23 24 22 21 22 21 24 20 27 25 38 21 20 32 27 20 32 33 23
internal_value=-7.30447e-05 -0.00130257 0.0026976 -0.000920657 0.00205315 -0.00249128 -0.00122783 0.00393493 -0.00080356 -0.00140911 0.00236061 -0.000396459 -0.00130233 -0.000601099 -0.00145206 -0.00283167 0.00219994 -0.000182724
internal_weight=475 329 146 249 96 80 157 50 47 110 75 92 90 47 58 56 54 45
internal_count=475 329 146 249 96 80 157 50 47 110 75 92 90 47 58 56 54 45
is_linear=0
shrinkage=0.0426353


Tree=9
num_leaves=19
num_cat=0
split_feature=87 76 62 69 69 27 85 78 52 86 46 57 79 78 77 60 40 53
split_gain=0.815882 0.0753099 0.051637 0.0226602 0.0202158 0.010905 0.00608839 0.00575651 0.00358535 0.00290986 0.0028625 0.00202894 0.00185343 0.00176252 0.00148073 0.00146772 0.000713976 0.000537257
threshold=0.083191217132513151 0.12693170598942524 0.20693560776411221 -1.0062922448235978 -0.85956409457800931 30.133389801168921 0.13693531507485948 -0.34593018661454605 0.20305877586043772 0.16487121898482845 0.17096495065971382 0.064591634496442799 -0.68738296120721787 -0.36519146214889947 0.064308601334837928 0.067516421241188812 0.010963102007260309 0.14834239999580287
decision_type=2 2 2 2 2 2 2 2 2 2 2 2 2 2 2 2 2 2
left_child=2 5 -1 -4 11 -2 8 -5 -6 12 17 16 15 -13 -7 -8 -3 -9
right_child=1 4 3 7 6 14 9 10 -10 -11 -12 13 -14 -15 -16 -17 -18 -19
leaf_value=0.0040959775223783816 -0.0016246891680830155 -8.8403500753652181e-06 0.0010787622733242329 0.003127404857130612 -0.0011662590654104622 -0.0024577834488590184 -0.00079538474383133496 0.002235494250763124 -0.00041997660243503184 -0.001787600398972574 0.0026761803765303037 -0.00027211357474062731 -0.0014587094645099954 -0.00080018070635742226 -0.0029008011441039815 -0.0012669056595872301 -0.00034857720073861207 0.0019333486772229241
leaf_weight=32 24 23 27 20 22 24 21 23 25 22 24 20 39 27 32 28 22 20
leaf_count=32 24 23 27 20 22 24 21 23 25 22 24 20 39 27 32 28 22 20
internal_value=-6.99304e-05 -0.00124704 0.00258259 0.00215777 -0.000881404 -0.00238506 -0.00117548 0.00249264 -0.0007693 -0.00134903 0.00230316 -0.000379556 -0.00123939 -0.000575471 -0.00271094 -0.00106483 -0.000174934 0.00209496
internal_weight=475 329 146 114 249 80 157 87 47 110 67 92 88 47 56 49 45 43
internal_count=475 329 146 114 249 80 157 87 47 110 67 92 88 47 56 49 45 43
is_linear=0
shrinkage=0.0426353


Tree=10
num_leaves=20
num_cat=0
split_feature=87 82 51 69 69 27 77 86 47 78 88 46 93 33 31 69 93 53 63
split_gain=0.746965 0.0762937 0.0542824 0.0154281 0.00988271 0.00588939 0.00540192 0.00486609 0.00412045 0.00457095 0.00299583 0.00229308 0.00114245 0.00104008 0.000969053 0.00116509 0.000759743 0.000550108 0.000379616
threshold=0.08305292199415254 0.28981753981189107 0.045461109882766783 -0.8894804624905136 -1.0062922448235978 30.633313401625806 0.074341939848616076 0.16504404321917077 0.037742792614719071 0.35149750490827553 -0.1076152555023205 0.17264352175828063 0.15645883982624623 0.19197359108724152 0.33194433889153308 -1.031668280800369 0.10802096306489774 0.13772423055203761 0.058138655432719476
decision_type=2 2 2 2 2 2 2 2 2 2 2 2 2 2 2 2 2 2 2
left_child=2 5 6 12 -4 -2 -1 8 9 10 -5 17 14 -7 -3 -16 -12 -6 -11
right_child=1 3 4 7 11 13 -8 -9 -10 18 16 -13 -14 -15 15 -17 -18 -19 -20
leaf_value=0.0031442340832989308 -0.0017705947591031791 -0.00024947385522107831 0.0011956235908410278 -0.00098604369594272189 0.0021479617729805176 -0.0023792392088895133 0.0040139826382670288 -0.0016537292196306325 -0.0013742093175914277 -0.0013367593048352483 -0.00023583018857590698 0.0025285773673007347 -0.00010331469801406087 -0.0027735980227392688 -0.00033737514639369692 -0.00078231803889125204 -0.00058253133654822848 0.0018617144998685268 -0.0010772161453531778
leaf_weight=25 21 27 27 29 23 20 27 21 34 20 20 21 23 31 20 23 27 26 21
leaf_count=25 21 27 27 29 23 20 27 21 34 20 20 21 23 31 20 23 27 26 21
internal_value=-2.93765e-05 -0.0011408 0.00248438 -0.00080642 0.00188855 -0.00237151 0.00359583 -0.00104563 -0.00096106 -0.000841 -0.000645266 0.00215583 -0.000364009 -0.00261895 -0.000449666 -0.000575368 -0.000434999 0.00199608 -0.00120382
internal_weight=486 337 149 265 97 72 52 172 151 117 76 70 93 51 70 43 47 49 41
internal_count=486 337 149 265 97 72 52 172 151 117 76 70 93 51 70 43 47 49 41
is_linear=0
shrinkage=0.0426353


Tree=11
num_leaves=19
num_cat=0
split_feature=87 82 51 69 27 27 58 86 50 79 56 43 58 93 28 69 87 93
split_gain=0.684629 0.0699267 0.0497524 0.0141406 0.00913012 0.0053979 0.00510425 0.00446 0.00434272 0.0050437 0.00128281 0.00112582 0.00111642 0.00104711 0.000752448 0.0010881 0.000669774 0.000473367
threshold=0.08305292199415254 0.28981753981189107 0.045461109882766783 -0.8894804624905136 90.110150002849011 30.633313401625806 0.056494955245800969 0.16504404321917077 0.0074985391020370639 -0.59917814008422166 0.12464311465436261 0.17192891442006894 -0.20684176683211586 0.15645883982624623 2.8398203814210365 -1.031668280800369 0.075950054404570116 0.2185530951250261
decision_type=2 2 2 2 2 2 2 2 2 2 2 2 2 2 2 2 2 2
left_child=2 5 6 13 10 -2 -1 8 9 -5 -4 -7 17 14 -3 -16 -12 -10
right_child=1 3 4 7 -6 11 -8 -9 12 -11 16 -13 -14 -15 15 -17 -18 -19
leaf_value=0.0029293023924877033 -0.0016951048682623555 -0.00026428620365608768 0.0022841059108740171 -0.0003224206100009095 0.0011060642147792249 -0.0022772988480903615 0.0037901913439834546 -0.0015832219356032087 -0.00087640896875782696 -0.0010465278213307311 0.0017284738237451048 -0.0026817621466843915 -0.001318740655330095 -9.8909842263593043e-05 -0.00032299103773520939 -0.0007624035622101744 0.0020594945294125817 -0.0011485672502380658
leaf_weight=21 21 29 27 36 25 22 31 21 26 34 20 29 34 23 20 21 25 21
leaf_count=21 21 29 27 36 25 22 31 21 26 34 20 29 34 23 20 21 25 21
internal_value=-2.81241e-05 -0.00109216 0.00237846 -0.000772038 0.00180803 -0.0022704 0.00344252 -0.00100105 -0.000920085 -0.00067413 0.00205177 -0.00250729 -0.00113264 -0.000348489 -0.000430494 -0.000548056 0.00191237 -0.000998012
internal_weight=486 337 149 265 97 72 52 172 151 70 72 51 81 93 70 41 45 47
internal_count=486 337 149 265 97 72 52 172 151 70 72 51 81 93 70 41 45 47
is_linear=0
shrinkage=0.0426353


Tree=12
num_leaves=19
num_cat=0
split_feature=87 82 51 69 69 27 58 86 50 79 86 58 93 44 30 87 93 41
split_gain=0.627495 0.0640911 0.0456004 0.0129605 0.00841524 0.00494743 0.00467829 0.0040878 0.00398031 0.00462279 0.00203067 0.00102325 0.000959724 0.000901199 0.000676798 0.00050678 0.000433863 0.000361232
threshold=0.08305292199415254 0.28981753981189107 0.045461109882766783 -0.8894804624905136 -1.0062922448235978 30.633313401625806 0.056494955245800969 0.16504404321917077 0.0074985391020370639 -0.59917814008422166 0.15956594848912056 -0.20684176683211586 0.15645883982624623 0.19197359108724152 0.0060012129479931715 0.075873977323470357 0.2185530951250261 0.023990658194433145
decision_type=2 2 2 2 2 2 2 2 2 2 2 2 2 2 2 2 2 2
left_child=2 5 6 12 -4 -2 -1 8 9 -5 15 16 14 -7 17 -6 -10 -3
right_child=1 3 4 7 10 13 -8 -9 11 -11 -12 -13 -14 -15 -16 -17 -18 -19
leaf_value=0.0028044105146051209 -0.0016228334360855092 -0.00019901022429240586 0.001091530728498736 -0.00030867410054087933 0.0016929045453240156 -0.0021772571960196438 0.003628595187439498 -0.0015157207123283095 -0.00083904297329785737 -0.0010019087377449085 0.0023283551990697115 -0.0012625157005801461 -9.4692786945739293e-05 -0.0025443444826869308 -0.00062175390155171594 0.0019671893477606196 -0.0010995976714680599 -0.00042987477567176012
leaf_weight=21 21 22 27 36 25 20 31 21 26 34 21 34 23 31 20 24 21 28
leaf_count=21 21 22 27 36 25 20 31 21 26 34 21 34 23 31 20 24 21 28
internal_value=-2.6925e-05 -0.0010456 0.00227705 -0.000739122 0.00173095 -0.0021736 0.00329575 -0.000958369 -0.000880857 -0.000645388 0.00197758 -0.00108435 -0.000333632 -0.00240039 -0.00041214 0.00182725 -0.000955461 -0.000328294
internal_weight=486 337 149 265 97 72 52 172 151 70 70 81 93 51 70 49 47 50
internal_count=486 337 149 265 97 72 52 172 151 70 70 81 93 51 70 49 47 50
is_linear=0
shrinkage=0.0426353


Tree=13
num_leaves=20
num_cat=0
split_feature=87 76 51 68 53 27 83 67 88 76 87 90 86 73 1 37 56 87 46
split_gain=0.575128 0.0539524 0.0417949 0.0174172 0.00869056 0.00777673 0.00452431 0.00226732 0.00215949 0.00185401 0.0016988 0.00153687 0.00137009 0.00124084 0.00148907 0.000841702 0.000746431 0.000454371 0.000287831
threshold=0.08305292199415254 0.13666255303459127 0.045461109882766783 0.023542289225038548 0.22399024175861029 90.110150002849011 0.22737687671247223 0.055297901229243884 0.044456802530995522 0.20607808183129944 0.086357769814188662 0.42913042145835617 0.16394911411568336 0.19325073797069767 0.047155409082596619 0.011444800677000806 0.13612060365678844 0.075873977323470357 0.060125032449047787
decision_type=2 2 2 2 2 2 2 2 2 2 2 2 2 2 2 2 2 2 2
left_child=2 3 6 7 8 11 -1 15 9 13 12 17 -6 14 -3 -2 -5 -4 -15
right_child=1 4 5 16 10 -7 -8 -9 -10 -11 -12 -13 -14 18 -16 -17 -18 -19 -20
leaf_value=0.0026521940405013888 -0.002170791162682045 -0.00060824205095850775 0.001628962554387104 -0.001330433291205996 -0.0011012700447963894 0.0010092922015269169 0.0034696369817041567 -0.0018760435550770125 -0.00081295791755915084 -0.00072354848761675358 -0.0013323040748073733 0.0021997189810941025 -0.00060819692116160866 -0.00024201152466985399 -0.00018947944830499688 -0.0025619462221917605 -0.00099840404467973739 0.0018812088633099072 -3.1552504656991521e-05
leaf_weight=20 20 33 25 20 21 25 32 30 22 21 21 20 20 21 29 20 32 27 27
leaf_count=20 20 33 25 20 21 25 32 30 22 21 21 20 20 21 29 20 32 27 27
internal_value=-2.5777e-05 -0.00100102 0.00217997 -0.00171716 -0.000594649 0.00165715 0.00315524 -0.00215623 -0.000422096 -0.000356455 -0.00102047 0.0018821 -0.000860747 -0.000286373 -0.000412369 -0.00236637 -0.00112611 0.00175994 -0.000123628
internal_weight=486 337 149 122 215 97 52 70 153 131 62 72 41 110 62 40 52 52 48
internal_count=486 337 149 122 215 97 52 70 153 131 62 72 41 110 62 40 52 52 48
is_linear=0
shrinkage=0.0426353


Tree=14
num_leaves=19
num_cat=0
split_feature=87 82 51 16 27 31 27 83 76 58 58 40 90 85 43 86 30 87
split_gain=0.527132 0.0538835 0.038307 0.00938073 0.00712774 0.0045644 0.00421345 0.00414674 0.00316322 0.00220518 0.00201491 0.00168248 0.00140861 0.00118619 0.000943783 0.000912223 0.000458997 0.000416452
threshold=0.08305292199415254 0.28981753981189107 0.045461109882766783 -0.007834209712559749 90.110150002849011 0.37521666939002679 30.633313401625806 0.22737687671247223 0.21040658950165333 -0.36135014401723181 1.0000000180025095e-35 0.013505190571837007 0.42913042145835617 0.10865930327686453 0.17192891442006894 0.1638484711236832 0.0025545431044677355 0.075873977323470357
decision_type=2 2 2 2 2 2 2 2 2 2 2 2 2 2 2 2 2 2
left_child=2 6 7 5 12 -3 -2 -1 9 -5 11 15 17 -11 -8 -7 -15 -4
right_child=1 3 4 8 -6 10 14 -9 -10 13 -12 -13 -14 16 -16 -17 -18 -19
leaf_value=0.0025391168193695732 -0.0014843486269725487 -0.00037134553781048715 0.0015595111748740018 -0.00072019539761727599 0.00096626070094439111 -0.0009369723255588609 -0.0019913359313383505 0.0033217079694944978 -0.00091884912574789681 -0.00043479713041592958 -0.0013003834670225404 -0.001206632344462003 0.0021059332737790376 -2.6891563760845594e-05 -0.0023616589159688537 -0.0005671227402669328 -0.0002829310235838496 0.0018010028761578621
leaf_weight=20 21 22 25 22 25 27 22 32 20 36 37 24 20 35 29 22 20 27
leaf_count=20 21 22 25 22 25 27 22 32 20 36 37 24 20 35 29 22 20 27
internal_value=-2.4678e-05 -0.00095834 0.00208703 -0.000677327 0.0015865 -0.000931954 -0.00199262 0.00302071 -0.000424615 -0.00033714 -0.00104408 -0.000914166 0.00180185 -0.000244533 -0.00220191 -0.000770917 -0.000119997 0.0016849
internal_weight=486 337 149 265 97 132 72 52 133 113 110 73 72 91 51 49 55 52
internal_count=486 337 149 265 97 132 72 52 133 113 110 73 72 91 51 49 55 52
is_linear=0
shrinkage=0.0426353


end of trees

feature_importances:
PE_Ratio=23
std_504=23
kurt_180=16
std_252=14
min_25=12
first_return_504=12
ma_252=11
skew_252=11
max_252=10
ma_504=10
ma_25=9
skew_90=9
std_90=8
first_return_252=7
total_return_5=6
total_return_504=6
total_return_180=5
std_25=4
first_return_25=4
ma_90=4
lag_252=4
Equity_log=3
PB_Ratio=3
MarketCapLog=3
Price=3
kurt_90=3
max_90=3
kurt_252=3
lag_504=3
Returns=2
std_5=2
first_return_5=2
kurt_25=2
total_return_25=2
max_25=2
lag_90=2
total_return_90=2
lag_180=2
skew_180=2
skew_504=2
kurt_504=2
ROE=1
ROA=1
EarningsPerShareDilutedTTM_log=1
PS_Ratio=1
skew_5=1
min_5=1
last_return_5=1
lag_25=1
skew_25=1
first_return_90=1
std_180=1
first_return_180=1

parameters:
[boosting: gbdt]
[objective: regression]
[metric: rmse]
[tree_learner: serial]
[device_type: cpu]
[data_sample_strategy: bagging]
[data: ]
[valid: ]
[num_iterations: 2000]
[learning_rate: 0.0426353]
[num_leaves: 64]
[num_threads: 4]
[seed: 42]
[deterministic: 0]
[force_col_wise: 0]
[force_row_wise: 0]
[histogram_pool_size: -1]
[max_depth: -1]
[min_data_in_leaf: 20]
[min_sum_hessian_in_leaf: 0.001]
[bagging_fraction: 0.8]
[pos_bagging_fraction: 1]
[neg_bagging_fraction: 1]
[bagging_freq: 5]
[bagging_seed: 400]
[bagging_by_query: 0]
[feature_fraction: 0.8]
[feature_fraction_bynode: 1]
[feature_fraction_seed: 30056]
[extra_trees: 0]
[extra_seed: 12879]
[early_stopping_round: 0]
[early_stopping_min_delta: 0]
[first_metric_only: 0]
[max_delta_step: 0]
[lambda_l1: 0]
[lambda_l2: 0]
[linear_lambda: 0]
[min_gain_to_split: 0]
[drop_rate: 0.1]
[max_drop: 50]
[skip_drop: 0.5]
[xgboost_dart_mode: 0]
[uniform_drop: 0]
[drop_seed: 17869]
[top_rate: 0.2]
[other_rate: 0.1]
[min_data_per_group: 100]
[max_cat_threshold: 32]
[cat_l2: 10]
[cat_smooth: 10]
[max_cat_to_onehot: 4]
[top_k: 20]
[monotone_constraints: ]
[monotone_constraints_method: basic]
[monotone_penalty: 0]
[feature_contri: ]
[forcedsplits_filename: ]
[refit_decay_rate: 0.9]
[cegb_tradeoff: 1]
[cegb_penalty_split: 0]
[cegb_penalty_feature_lazy: ]
[cegb_penalty_feature_coupled: ]
[path_smooth: 0]
[interaction_constraints: ]
[verbosity: -1]
[saved_feature_importance_type: 0]
[use_quantized_grad: 0]
[num_grad_quant_bins: 4]
[quant_train_renew_leaf: 0]
[stochastic_rounding: 1]
[linear_tree: 0]
[max_bin: 255]
[max_bin_by_feature: ]
[min_data_in_bin: 3]
[bin_construct_sample_cnt: 200000]
[data_random_seed: 175]
[is_enable_sparse: 1]
[enable_bundle: 1]
[use_missing: 1]
[zero_as_missing: 0]
[feature_pre_filter: 1]
[pre_partition: 0]
[two_round: 0]
[header: 0]
[label_column: ]
[weight_column: ]
[group_column: ]
[ignore_column: ]
[categorical_feature: ]
[forcedbins_filename: ]
[precise_float_parser: 0]
[parser_config_file: ]
[objective_seed: 16083]
[num_class: 1]
[is_unbalance: 0]
[scale_pos_weight: 1]
[sigmoid: 1]
[boost_from_average: 1]
[reg_sqrt: 0]
[alpha: 0.9]
[fair_c: 1]
[poisson_max_delta_step: 0.7]
[tweedie_variance_power: 1.5]
[lambdarank_truncation_level: 30]
[lambdarank_norm: 1]
[label_gain: ]
[lambdarank_position_bias_regularization: 0]
[eval_at: ]
[multi_error_top_k: 1]
[auc_mu_weights: ]
[num_machines: 1]
[local_listen_port: 12400]
[time_out: 120]
[machine_list_filename: ]
[machines: ]
[gpu_platform_id: -1]
[gpu_device_id: -1]
[gpu_use_dp: 0]
[num_gpu: 1]

end of parameters

pandas_categorical:[]
