tree
version=v4
num_class=1
num_tree_per_iteration=1
label_index=0
max_feature_idx=94
objective=regression
feature_names=WeightedAverageNumberOfDilutedSharesOutstanding ROE ROA AssetTurnover DebtToEquity NetProfitMargin OperatingMargin EarningsPerShareDiluted_log GrossProfit_log NetIncomeLoss_log OperatingIncomeLoss_log Revenues_log Assets_log Liabilities_log NoncurrentAssets_log WeightedAverageNumberOfDilutedSharesOutstanding_log Equity_log ROE_log ROA_log BookValuePerShare_log SalesPerShare_log AssetTurnover_log DebtToEquity_log NetProfitMargin_log OperatingMargin_log EarningsPerShareDilutedTTM_log SalesPerShareTTM_log PE_Ratio PB_Ratio PS_Ratio MarketCapLog Price CostsAndExpenses_log Returns Returns_Daily lag_5 ma_5 std_5 skew_5 kurt_5 total_return_5 min_5 max_5 first_return_5 last_return_5 lag_25 ma_25 std_25 skew_25 kurt_25 total_return_25 min_25 max_25 first_return_25 last_return_25 lag_90 ma_90 std_90 skew_90 kurt_90 total_return_90 min_90 max_90 first_return_90 last_return_90 lag_180 ma_180 std_180 skew_180 kurt_180 total_return_180 min_180 max_180 first_return_180 last_return_180 lag_252 ma_252 std_252 skew_252 kurt_252 total_return_252 min_252 max_252 first_return_252 last_return_252 lag_504 ma_504 std_504 skew_504 kurt_504 total_return_504 min_504 max_504 first_return_504 last_return_504
feature_infos=[23072955:23268060] [0.10425511306213529:0.18425151213192392] [0.090000205098107897:0.15662373005667246] none [0.11897677485438926:0.18507750886822949] none none [-0.2629370382351795:0.3852203400145271] none [-0.263803256142356:0.38501647757493396] [-0.26579304800740977:0.37058089333663374] none [-0.11344081332528086:0.11428331964812487] [-0.14177765074295623:0.18829817682233704] none [-0.0036837148606847013:-1.753461281046215e-05] [-0.12044482317990089:0.11118901228748895] [-0.33306121721783033:0.31473061349330261] [-0.32060822558322732:0.30772660363868254] [-0.12007653804166268:0.11201029463528994] none none [-0.21357955479768762:0.11814935787748831] none none [-0.058386225724776981:0.17834548752565438] none [22.108188265497031:50.628581471096808] [10.963735397736725:28.103190325825665] none [-0.10964372000804716:0.10906606758499339] [0.3147938781395585:0.70469147349555328] [-0.26279332820987933:0.37449588822423008] [-0.38431763437452332:0.99397855327231022] [-0.08148333687920345:0.092091062992850276] [-0.38431763437452332:0.99397855327231022] [-0.36729276075050354:0.96051370626992194] [0.003059892082868759:0.082711119392466059] [-2.0263606027298922:2.085324344707383] [-3.3002007433579035:4.3866953324567488] [-0.16186320717952285:0.17341899863396501] [-0.38431763437452332:0.92088525610384542] [-0.34275868817839827:0.99397855327231022] [-0.38431763437452332:0.99397855327231022] [-0.38431763437452332:0.99397855327231022] [-0.36492341973724329:0.99397855327231022] [-0.34841217800754337:0.90298196346367288] [0.021213966418882523:0.13262944705246635] [-1.8029384128405952:1.9563706855373668] [-1.8292870291596095:6.0554985695991776] [-0.24630199332345881:0.31094210059069194] [-0.38431763437452332:0.84478362599995949] [-0.2937268337450169:0.99397855327231022] [-0.36492341973724329:0.99397855327231022] [-0.38431763437452332:0.99397855327231022] [-0.21643648775643923:0.99397855327231022] [-0.12830957404737012:0.86762927830765224] [0.045394294420094218:0.30907432528578782] [-1.2616789778740169:1.314001263033143] [-1.6025820989681807:1.703719596758942] [-0.46102238656235284:0.46534667579791661] [-0.38431763437452332:0.77874365940686019] [0.099373838921860816:0.99397855327231022] [-0.21643648775643923:0.99397855327231022] [-0.38431763437452332:0.99397855327231022] [-0.21643648775643923:1.2682570474935242] [-0.083218904665536123:0.86292401782767203] [0.11805447762749553:0.41219921515042823] [-1.2820425602910956:1.0422572391786531] [-1.6336942704679493:1.5249537723219839] [-0.44733891137774906:0.75410155279442603] [-0.38431763437452332:0.51209363371470351] [0.21346281145632959:1.2682570474935242] [-0.21643648775643923:1.2682570474935242] [-0.38431763437452332:0.63591135374838148] [-0.21643648775643923:1.2682570474935242] [0.053564077653072861:0.66382525852964991] [0.20018295445130768:0.41994998316416521] [-1.0690180605400197:0.82006825265695515] [-1.7218191504180089:-0.067145707687429418] [-0.38431763437452282:0.99397855327230955] [-0.38431763437452332:-0.049207597575075666] [0.61034251559613339:1.2682570474935242] [-0.21643648775643923:1.2682570474935242] [-0.38431763437452332:0.63591135374838148] [0.44566852379705152:1.2682570474935242] [0.11278529658595368:0.45957766268145706] [0.25180559247564677:0.36662322400223918] [-0.097149827959156457:0.55072857198169023] [-1.26669729829335:-0.67270145949461102] [-0.15737626959916168:1.3348773120146769] [-0.38431763437452332:-0.21643648775643923] [0.63591135374838148:1.2682570474935242] [0.44566852379705152:1.2682570474935242] [-0.38431763437452332:0.21346281145632959]
tree_sizes=1710

Tree=0
num_leaves=18
num_cat=0
split_feature=32 76 90 46 79 67 76 67 36 74 59 33 4 60 63 77 63
split_gain=5.76469 1.58494 1.17363 0.28219 0.179928 0.122278 0.097884 0.0823693 0.036575 0.037819 0.0213086 0.0190004 0.0135914 0.00431451 0.00349958 0.0031821 0.00162246
threshold=-0.023325038751443768 0.17154345326680381 -0.018473495088431671 0.41952981817514784 -1.4532615914540419 0.21398538977099407 0.27987475113594656 0.25952458118957922 0.78509645455126809 -0.13174633184653309 -0.95407687852592404 0.5247439548202314 0.18094186155675654 0.23127247102812654 0.44519928657298086 0.3150328850105118 0.1753760703317471
decision_type=2 8 10 2 10 8 10 8 2 10 2 2 2 2 2 10 2
left_child=1 -1 6 4 13 -3 7 -2 9 -7 15 -5 14 -4 -12 -6 -13
right_child=2 5 3 11 10 8 -8 -9 -10 -11 12 16 -14 -15 -16 -17 -18
leaf_value=-0.0049519261338739941 -0.017594934496398498 -0.013544652380271908 -0.026655398044387303 -0.027210906459408216 -0.023437095917014525 -0.014863022932153894 -0.021938984681820244 -0.021007493148159355 -0.018389116258073344 -0.017107206208873557 -0.025123368825905452 -0.028915773040589548 -0.023480425985876848 -0.027520632501880745 -0.024344120628945372 -0.022685656684710495 -0.028372702636998093
leaf_weight=30 36 27 20 29 20 21 27 20 21 39 22 20 24 22 20 21 20
leaf_count=30 36 27 20 29 20 21 27 20 21 39 22 20 24 22 20 21 20
internal_value=-0.0208368 -0.0136213 -0.024145 -0.0257877 -0.0247438 -0.0160295 -0.0198304 -0.0188137 -0.0168577 -0.0163217 -0.0238156 -0.0280418 -0.0242898 -0.0271086 -0.0247523 -0.0230522 -0.0286442
internal_weight=439 138 301 218 149 108 83 56 81 60 107 69 66 42 42 41 40
internal_count=439 138 301 218 149 108 83 56 81 60 107 69 66 42 42 41 40
is_linear=0
shrinkage=1


end of trees

feature_importances:
first_return_90=2
std_180=2
ma_252=2
DebtToEquity=1
CostsAndExpenses_log=1
Returns=1
ma_5=1
ma_25=1
kurt_90=1
total_return_90=1
last_return_180=1
std_252=1
kurt_252=1
total_return_504=1

parameters:
[boosting: gbdt]
[objective: regression]
[metric: rmse]
[tree_learner: serial]
[device_type: cpu]
[data_sample_strategy: bagging]
[data: ]
[valid: ]
[num_iterations: 2000]
[learning_rate: 0.0426353]
[num_leaves: 64]
[num_threads: 4]
[seed: 42]
[deterministic: 0]
[force_col_wise: 0]
[force_row_wise: 0]
[histogram_pool_size: -1]
[max_depth: -1]
[min_data_in_leaf: 20]
[min_sum_hessian_in_leaf: 0.001]
[bagging_fraction: 0.8]
[pos_bagging_fraction: 1]
[neg_bagging_fraction: 1]
[bagging_freq: 5]
[bagging_seed: 400]
[bagging_by_query: 0]
[feature_fraction: 0.8]
[feature_fraction_bynode: 1]
[feature_fraction_seed: 30056]
[extra_trees: 0]
[extra_seed: 12879]
[early_stopping_round: 0]
[early_stopping_min_delta: 0]
[first_metric_only: 0]
[max_delta_step: 0]
[lambda_l1: 0]
[lambda_l2: 0]
[linear_lambda: 0]
[min_gain_to_split: 0]
[drop_rate: 0.1]
[max_drop: 50]
[skip_drop: 0.5]
[xgboost_dart_mode: 0]
[uniform_drop: 0]
[drop_seed: 17869]
[top_rate: 0.2]
[other_rate: 0.1]
[min_data_per_group: 100]
[max_cat_threshold: 32]
[cat_l2: 10]
[cat_smooth: 10]
[max_cat_to_onehot: 4]
[top_k: 20]
[monotone_constraints: ]
[monotone_constraints_method: basic]
[monotone_penalty: 0]
[feature_contri: ]
[forcedsplits_filename: ]
[refit_decay_rate: 0.9]
[cegb_tradeoff: 1]
[cegb_penalty_split: 0]
[cegb_penalty_feature_lazy: ]
[cegb_penalty_feature_coupled: ]
[path_smooth: 0]
[interaction_constraints: ]
[verbosity: -1]
[saved_feature_importance_type: 0]
[use_quantized_grad: 0]
[num_grad_quant_bins: 4]
[quant_train_renew_leaf: 0]
[stochastic_rounding: 1]
[linear_tree: 0]
[max_bin: 255]
[max_bin_by_feature: ]
[min_data_in_bin: 3]
[bin_construct_sample_cnt: 200000]
[data_random_seed: 175]
[is_enable_sparse: 1]
[enable_bundle: 1]
[use_missing: 1]
[zero_as_missing: 0]
[feature_pre_filter: 1]
[pre_partition: 0]
[two_round: 0]
[header: 0]
[label_column: ]
[weight_column: ]
[group_column: ]
[ignore_column: ]
[categorical_feature: ]
[forcedbins_filename: ]
[precise_float_parser: 0]
[parser_config_file: ]
[objective_seed: 16083]
[num_class: 1]
[is_unbalance: 0]
[scale_pos_weight: 1]
[sigmoid: 1]
[boost_from_average: 1]
[reg_sqrt: 0]
[alpha: 0.9]
[fair_c: 1]
[poisson_max_delta_step: 0.7]
[tweedie_variance_power: 1.5]
[lambdarank_truncation_level: 30]
[lambdarank_norm: 1]
[label_gain: ]
[lambdarank_position_bias_regularization: 0]
[eval_at: ]
[multi_error_top_k: 1]
[auc_mu_weights: ]
[num_machines: 1]
[local_listen_port: 12400]
[time_out: 120]
[machine_list_filename: ]
[machines: ]
[gpu_platform_id: -1]
[gpu_device_id: -1]
[gpu_use_dp: 0]
[num_gpu: 1]

end of parameters

pandas_categorical:[]
