tree
version=v4
num_class=1
num_tree_per_iteration=1
label_index=0
max_feature_idx=94
objective=regression
feature_names=WeightedAverageNumberOfDilutedSharesOutstanding ROE ROA AssetTurnover DebtToEquity NetProfitMargin OperatingMargin EarningsPerShareDiluted_log GrossProfit_log NetIncomeLoss_log OperatingIncomeLoss_log Revenues_log Assets_log Liabilities_log NoncurrentAssets_log WeightedAverageNumberOfDilutedSharesOutstanding_log Equity_log ROE_log ROA_log BookValuePerShare_log SalesPerShare_log AssetTurnover_log DebtToEquity_log NetProfitMargin_log OperatingMargin_log EarningsPerShareDilutedTTM_log SalesPerShareTTM_log PE_Ratio PB_Ratio PS_Ratio MarketCapLog Price CostsAndExpenses_log Returns Returns_Daily lag_5 ma_5 std_5 skew_5 kurt_5 total_return_5 min_5 max_5 first_return_5 last_return_5 lag_25 ma_25 std_25 skew_25 kurt_25 total_return_25 min_25 max_25 first_return_25 last_return_25 lag_90 ma_90 std_90 skew_90 kurt_90 total_return_90 min_90 max_90 first_return_90 last_return_90 lag_180 ma_180 std_180 skew_180 kurt_180 total_return_180 min_180 max_180 first_return_180 last_return_180 lag_252 ma_252 std_252 skew_252 kurt_252 total_return_252 min_252 max_252 first_return_252 last_return_252 lag_504 ma_504 std_504 skew_504 kurt_504 total_return_504 min_504 max_504 first_return_504 last_return_504
feature_infos=[83959000:86794000] [0.16358089635711848:0.38012264731648598] [0.050621263930254276:0.08398403249550504] none [1.3789019174399397:4.7049001330392466] none none [-0.38102989392109432:0.31979195732695392] [-0.044381462646413052:0.11305754736459611] [-0.38503491139494572:0.31551161212766415] [-0.32706042884327768:0.31280147021649773] none [-0.011007026038351315:0.072413832595433061] [-0.10176492171383096:0.11129003642890137] none [-0.011711803712724081:0.00028581296118159231] [-0.33645160532221874:0.32332542895432353] [-0.29542775511847041:0.27479675495023226] [-0.3906104455531082:0.30297841172970313] [-0.33244658784836756:0.33093111111853857] none none [-0.40654881845687985:0.43269093088954325] none none [-0.096928097322190446:0.127214958788434] none [38.504962548241579:84.15642418301033] [25.336952860496307:82.615741953844093] none [-0.071996101838780163:0.093493788559049884] [0.36834508903987589:0.67709940485827946] none [-0.54765136742811071:0.49220155988147868] [-0.059217758084550473:0.07645645536806471] [-0.54765136742811071:0.49220155988147868] [-0.53318593141922055:0.48578158949571365] [0.0018880151695258257:0.077440154348356757] [-2.2090923520541761:2.1837803071088877] [-3.2418503283982685:4.9043173609684301] [-0.20214136086915405:0.13847288349870709] [-0.54765136742811071:0.47131046791849007] [-0.52654659115445901:0.49220155988147868] [-0.54765136742811071:0.49220155988147868] [-0.54765136742811071:0.49220155988147868] [-0.54765136742811071:0.53907760250811831] [-0.50728223118868998:0.48458527466159107] [0.018813379514152902:0.14847898120618874] [-1.3118776710237405:1.7075404435841197] [-1.7471851831323695:3.1421403642798378] [-0.39238383347123895:0.23547003296192964] [-0.54765136742811071:0.41693895612490639] [-0.44173056517325271:0.53907760250811831] [-0.54765136742811071:0.53907760250811831] [-0.54765136742811071:0.49220155988147868] [-0.54765136742811071:0.61030136955207492] [-0.47645360840490414:0.50361636541708954] [0.029266042773424161:0.21120915792179376] [-1.4058944262459405:1.556652025863505] [-1.6907863459740711:3.0358658168614201] [-0.5190397685194974:0.34347592544383049] [-0.54765136742811071:0.41693895612490639] [-0.37818334831772571:0.61030136955207492] [-0.54765136742811071:0.61030136955207492] [-0.54765136742811071:0.49220155988147868] [-0.54765136742811071:0.85598273335007602] [-0.39967896840839345:0.51635915480941375] [0.071228044396761378:0.24606887376697159] [-1.0303625030879611:2.171331898695823] [-1.6846086522644392:6.7263614810948562] [-0.54542972652355926:0.36474582362360108] [-0.54765136742811071:0.41693895612490639] [-0.12844779368139611:0.85598273335007602] [-0.54765136742811071:0.85598273335007602] [-0.54765136742811071:0.49220155988147868] [-0.54765136742811071:0.85598273335007602] [-0.30354111547792983:0.49089763039469764] [0.076922609520388832:0.30257427791621938] [-0.84279854421762923:1.3866231788419443] [-1.6017910884611004:4.9210596616832243] [-0.54765136742811005:0.49220155988147973] [-0.54765136742811071:0.32865041708043474] [0.033278674709205966:0.85598273335007602] [-0.54765136742811071:0.85598273335007602] [-0.54765136742811071:0.49220155988147868] [-0.16374274634135205:0.85598273335007602] [-0.07842284294499012:0.34968279131143204] [0.16526879183820717:0.39860161307975817] [-1.0600206707011999:0.17389159854531697] [-1.4708089097220376:0.64806454677702741] [-0.37239682252192419:0.8903146195383721] [-0.54765136742811071:-0.08504447778849146] [0.3238217067086952:0.85598273335007602] [-0.16374274634135205:0.85598273335007602] [-0.54765136742811071:0.49220155988147868]
tree_sizes=1832 1747 1757 1836 1661 1763 1931 1931 1950 1946 1678 1676 1669 1765 1865 1586 1681 1681 1675 1672 1768 1773 1860 1873 1775 1775 1870 1954 1872 1764 1774 1777 1778 1875 1784 2065 1892 1977 1980 1885 1891 1882 1886 1987 1896 1883 1708 1888

Tree=0
num_leaves=19
num_cat=0
split_feature=79 46 62 79 67 31 61 63 47 40 79 49 58 46 37 59 31 89
split_gain=1.76649 0.212598 0.0990845 0.065728 0.0406378 0.0420569 0.0320249 0.0121253 0.00901718 0.0089796 0.00559888 0.00505452 0.00388492 0.00507128 0.00331527 0.00202082 0.00200201 0.000559797
threshold=0.085727807347322632 -0.016088226735564006 0.49786875842870132 -1.4095142966267613 0.13658402326064148 0.51890027240966019 -0.41091757078779878 0.52219829722458222 0.043808629136606256 0.013019206275647292 -1.2285127107762042 -0.83465923007409581 0.50101941170150499 0.24020694748699262 0.02451768712016417 -1.1053807811721095 0.54612663964010788 -1.2203264082072078
decision_type=2 2 2 2 2 2 2 2 2 2 2 2 2 2 2 2 2 2
left_child=1 3 -2 9 -3 12 8 -4 11 -1 -8 -5 13 17 -10 -13 -7 -6
right_child=2 4 7 6 5 16 10 -9 14 -11 -12 15 -14 -15 -16 -17 -18 -19
leaf_value=-0.0093087223389311004 -0.014339494108048861 -0.01194435840477096 -0.017866384957106882 -0.0068027166481544367 -0.010149010175055062 -0.010807423739057844 -0.0095477589070381806 -0.016547915963523459 -0.0077534240282066316 -0.010479086229266556 -0.0085723749762767355 -0.0072902873512967481 -0.0091018146588497939 -0.0091923951560385041 -0.0084697462473862176 -0.0078824376477470842 -0.011285275326523334 -0.0098475872907536448
leaf_weight=26 32 29 32 22 24 34 20 21 24 22 23 20 22 20 23 22 30 21
leaf_count=26 32 29 32 22 24 34 20 21 24 22 23 20 22 20 23 22 30 21
internal_value=-0.010654 -0.00941705 -0.0162129 -0.00846758 -0.0104826 -0.0102018 -0.00803822 -0.017344 -0.00765554 -0.00984514 -0.00902604 -0.00732624 -0.00959153 -0.00975728 -0.00810396 -0.00760046 -0.0110314 -0.0100083
internal_weight=467 382 85 202 180 151 154 53 111 48 43 64 87 65 47 42 64 45
internal_count=467 382 85 202 180 151 154 53 111 48 43 64 87 65 47 42 64 45
is_linear=0
shrinkage=1


Tree=1
num_leaves=18
num_cat=0
split_feature=56 56 36 59 67 9 61 56 48 50 67 69 48 55 69 61 31
split_gain=1.61977 0.218324 0.07715 0.0510101 0.0354355 0.0310812 0.021495 0.0189012 0.0104787 0.0100831 0.00871434 0.00576865 0.00546074 0.003144 0.0030064 0.00275943 0.000755845
threshold=0.28388488407979823 0.050042985691287838 0.25900891292615141 -0.86004354648211867 0.13020913018236829 0.19643225172908052 0.096805077374688561 -0.17072905352657541 0.3609406597106844 -0.0021669646616673055 0.23860470762589167 -0.97338738404626579 0.28887440970491107 -0.36736364564114882 -0.45413679886554953 -0.036010202131746619 0.55332299970780785
decision_type=2 2 2 2 2 2 2 2 2 2 2 2 2 2 2 2 2
left_child=1 3 -2 7 -3 10 11 12 -7 -4 14 16 -1 -10 -5 -13 -6
right_child=2 4 9 5 6 8 -8 -9 13 -11 -12 15 -14 -15 -16 -17 -18
leaf_value=0.0036650139527047865 -0.0036653980582649673 -0.0015399766405017861 -0.0068406755006739164 0.0015809910023962483 -0.00018278257356947825 0.0015892724926007337 0.0012899845425521331 0.0020732228088300706 0.00015812163709809219 -0.0056047938592256067 0.0029741463265137678 0.00057111595507411959 0.002808330875654894 0.00090504876771857305 0.002244324972583419 -7.1229843458973596e-05 -0.00052383046664314424
leaf_weight=38 32 22 30 23 27 30 31 32 20 20 21 31 21 21 27 20 21
leaf_count=38 32 22 30 23 27 30 31 32 20 20 21 31 21 21 27 20 21
internal_value=0.00014068 0.0012995 -0.00530011 0.00211954 4.24636e-05 0.00161453 0.000310261 0.00290757 0.000983755 -0.00634632 0.0022453 3.47908e-06 0.00336009 0.000540694 0.00193919 0.000319216 -0.000331991
internal_weight=467 385 82 233 152 142 130 91 71 50 71 99 59 41 50 51 48
internal_count=467 385 82 233 152 142 130 91 71 50 71 99 59 41 50 51 48
is_linear=0
shrinkage=0.0426353


Tree=2
num_leaves=18
num_cat=0
split_feature=79 56 62 56 61 83 67 59 63 49 47 40 60 33 50 55 31
split_gain=1.48492 0.190227 0.083447 0.0476424 0.0423047 0.0295807 0.0131664 0.0114001 0.0103824 0.00732203 0.00635647 0.00564589 0.00547105 0.00496779 0.00448263 0.00301438 0.00101555
threshold=0.085727807347322632 0.045022276414376179 0.49786875842870132 -0.44188486168220842 -0.41091757078779878 -0.44100650743267161 0.1314085919768839 -0.64589220356352661 0.52219829722458222 -0.2117094970976808 0.034933673147561246 0.015725534362799425 -0.07381219169448229 -0.052902751237654866 -0.023901380931847762 -0.44382481355912567 0.53752074725010401
decision_type=2 2 2 2 2 2 2 2 2 2 2 2 2 2 2 2 2
left_child=1 3 -2 11 7 9 -7 10 -4 -3 -5 -1 -9 -6 -8 -12 -16
right_child=2 5 8 4 13 6 14 12 -10 -11 15 -13 -14 -15 16 -17 -18
leaf_value=0.0012081504352344581 -0.0032427566113266419 0.00048923797404037484 -0.0064833883383077868 0.0037748973793715478 0.0018720938244583829 -0.001313488295081994 0.00039053712521421773 0.0027327942972077087 -0.0052633554244329158 0.0014909945595316311 0.0031903936631319726 0.0002072212070472293 0.0017355416960406582 0.0011635241128311869 -9.3329691436504718e-05 0.0025752972821357092 -0.00048554955753115123
leaf_weight=21 32 36 32 20 35 21 23 20 21 21 30 20 20 37 20 28 30
leaf_count=21 32 36 32 20 35 21 23 20 21 21 30 20 20 37 20 28 30
internal_value=0.000134682 0.00126875 -0.00496197 0.00203798 0.00232241 9.19833e-05 -0.000372702 0.00281936 -0.00599998 0.000858306 0.00311946 0.000719892 0.00223417 0.00150797 -0.000102065 0.00289345 -0.000328662
internal_weight=467 382 85 231 190 151 94 118 53 57 78 41 40 72 73 58 50
internal_count=467 382 85 231 190 151 94 118 53 57 78 41 40 72 73 58 50
is_linear=0
shrinkage=0.0426353


Tree=3
num_leaves=19
num_cat=0
split_feature=56 56 36 56 61 67 31 59 50 52 47 40 60 69 88 55 57 31
split_gain=1.3624 0.183203 0.0647135 0.0436665 0.0387742 0.0299332 0.0183736 0.0104487 0.00868161 0.00675338 0.005826 0.00517473 0.00501448 0.00457314 0.0048514 0.00276282 0.00179028 0.0016016
threshold=0.28388488407979823 0.045022276414376179 0.25900891292615141 -0.44188486168220842 -0.41091757078779878 0.13020913018236829 0.51890027240966019 -0.64589220356352661 -0.0021669646616673055 0.31801131816011241 0.034933673147561246 0.015725534362799425 -0.07381219169448229 -0.94166335710982185 0.052611387466991198 -0.44382481355912567 0.079607923791911478 0.54612663964010788
decision_type=2 2 2 2 2 2 2 2 2 2 2 2 2 2 2 2 2 2
left_child=1 3 -2 11 7 -3 9 10 -4 16 -5 -1 -9 14 -6 -12 -7 -8
right_child=2 5 8 4 13 6 17 12 -10 -11 15 -13 -14 -15 -16 -17 -18 -19
leaf_value=0.0011566405339734841 -0.003363734946699466 -0.0014033627338799252 -0.0062778009691664763 0.0036139533748537609 0.0016134311495603923 0.00024590201769107635 -1.2441689894298634e-05 0.0026162806907373158 -0.00513102335989461 0.0014350578586935954 0.0030543701939497059 0.00019838626393525421 0.0016615462693966984 0.0018823424202648496 0.00072783813863992709 0.002465498581624564 0.00079038370717717063 -0.00043164358785757062
leaf_weight=21 32 22 30 20 23 23 37 20 20 21 30 20 20 27 22 28 21 30
leaf_count=21 32 22 30 20 23 23 37 20 20 21 30 20 20 27 22 28 21 30
internal_value=0.00012894 0.00119171 -0.0048609 0.00195109 0.0022234 5.26389e-05 0.000295306 0.00269916 -0.00581909 0.000806 0.00298646 0.000689199 0.00213891 0.00144368 0.00118047 0.00277009 0.000505768 -0.000200144
internal_weight=467 385 82 231 190 154 132 118 50 65 78 41 40 72 45 58 44 67
internal_count=467 385 82 231 190 154 132 118 50 65 78 41 40 72 45 58 44 67
is_linear=0
shrinkage=0.0426353


Tree=4
num_leaves=17
num_cat=0
split_feature=56 56 57 59 83 89 56 67 48 78 31 56 48 50 76 56
split_gain=1.2487 0.167932 0.0593322 0.0394781 0.027252 0.0232346 0.0147585 0.0141204 0.00997161 0.00900042 0.00642383 0.00487732 0.004414 0.00371818 0.00247872 0.000936729
threshold=0.28388488407979823 0.050042985691287838 0.084293322188176242 -0.86004354648211867 -0.44100650743267161 -0.54861805583523637 -0.17072905352657541 0.12890089144391118 0.3609406597106844 0.58439567549471849 0.510656901228148 -0.4556924078680557 0.28887440970491107 -0.032421352391306439 -0.25461973115652919 0.10272139225563072
decision_type=2 2 2 2 2 2 2 2 2 2 2 2 2 2 2 2
left_child=1 3 9 6 10 8 12 -6 14 -2 -3 -10 -1 -9 -5 -15
right_child=2 4 -4 5 7 -7 -8 13 11 -11 -12 -13 -14 15 -16 -17
leaf_value=0.0032273721565034149 -0.0049965542614077412 0.0011262626104553057 -0.0031032453383468181 0.0018876624020965906 -0.0013747637387076148 0.0024070067689126928 0.0018160974463690899 0.00034197816584357764 0.00016650720546368294 -0.0061127348349426045 0.00017325930962657155 0.0010152417945882535 0.0024571596480523167 -8.7132052462201933e-05 0.0012985403590716959 -0.00045691141978546963
leaf_weight=38 29 36 29 20 21 33 32 22 20 24 20 32 21 20 37 33
leaf_count=38 29 36 29 20 21 33 32 22 20 24 20 32 21 20 37 33
internal_value=0.000123442 0.0011409 -0.00465366 0.0018601 3.84434e-05 0.00141583 0.00255336 -0.000397575 0.00111575 -0.00550199 0.000785904 0.000688805 0.00295323 -0.000123963 0.00150525 -0.000317372
internal_weight=467 385 82 233 152 142 91 96 109 53 56 52 59 75 57 53
internal_count=467 385 82 233 152 142 91 96 109 53 56 52 59 75 57 53
is_linear=0
shrinkage=0.0426353


Tree=5
num_leaves=18
num_cat=0
split_feature=56 56 36 56 61 67 57 69 59 56 36 31 63 31 50 68 40
split_gain=1.30922 0.178466 0.0468128 0.0344704 0.0302167 0.0298638 0.0145534 0.0117915 0.00814141 0.00537168 0.00440728 0.00417964 0.00400107 0.00363545 0.00194444 0.00267891 0.00128819
threshold=0.28388488407979823 0.045022276414376179 0.26114112663099015 -0.44475970505207024 -0.38651069380827924 0.12890089144391118 0.048218045049082232 5.6577604631824991 -0.65810042691319548 -0.20548854253676502 -0.080163295320617098 0.54804757468100496 -0.18869132984566694 0.45263132106944876 -0.062151193697531776 -0.092434390839034694 0.0049207242336084846
decision_type=2 2 2 2 2 2 2 2 2 2 2 2 2 2 2 2 2
left_child=1 3 -2 -1 8 -3 -7 16 9 13 -6 14 -10 -5 -8 -16 -4
right_child=2 5 7 4 10 6 11 -9 12 -11 -12 -13 -14 -15 15 -17 -18
leaf_value=0.0005558781086661878 -0.0032851973480999669 -0.0013369206397058084 -0.0054851517416220743 0.0033845148964091816 0.001643660533414209 0.0011262877925785357 0.00040363867904571462 -0.0044592046141033259 0.0016434716216002347 0.0022017075164947313 0.00094574666971919223 -0.00042842895010586227 0.0024304040727413947 0.0026667406440455633 -0.00031940779394011191 0.00034871268617688288 -0.005969056295896895
leaf_weight=32 32 26 20 23 38 27 37 20 24 23 29 28 23 29 24 20 20
leaf_count=32 32 26 20 23 38 27 37 20 24 23 29 28 23 29 24 20 20
internal_value=-3.50791e-05 0.00106196 -0.00460211 0.00184993 0.00206903 -1.2982e-05 0.000240124 -0.00530447 0.00246853 0.00274425 0.00134158 2.06155e-05 0.00202857 0.00298422 0.000175841 -1.57167e-05 -0.0057271
internal_weight=475 383 92 221 189 162 136 60 122 75 67 109 47 52 81 44 40
internal_count=475 383 92 221 189 162 136 60 122 75 67 109 47 52 81 44 40
is_linear=0
shrinkage=0.0426353


Tree=6
num_leaves=20
num_cat=0
split_feature=56 56 36 56 61 67 57 69 59 56 46 69 67 31 51 89 40 56 27
split_gain=1.19996 0.16369 0.0429061 0.030926 0.0293778 0.026736 0.0138903 0.0108075 0.00746198 0.0049234 0.00389374 0.00370969 0.00366717 0.00333206 0.00263663 0.00252044 0.00118069 0.000746328 0.000663616
threshold=0.28388488407979823 0.050042985691287838 0.26114112663099015 -0.44475970505207024 -0.38651069380827924 0.12890089144391118 0.048218045049082232 5.6577604631824991 -0.65810042691319548 -0.20548854253676502 -0.081666399379168947 -0.9678397020375501 0.23860470762589167 0.45263132106944876 -0.11325097470808662 -1.2345864534645965 0.0049207242336084846 0.1201391516005183 58.767413234638134
decision_type=2 2 2 2 2 2 2 2 2 2 2 2 2 2 2 2 2 2 2
left_child=1 3 -2 -1 8 -3 -7 16 9 13 -6 17 -10 -5 -12 -13 -4 -8 -17
right_child=2 5 7 4 10 6 11 -9 12 -11 14 15 -14 -15 -16 18 -18 -19 -20
leaf_value=0.0005321780487718427 -0.0031451319664785701 -0.0012799205513727221 -0.0052512902473983219 0.0032402149250598477 0.0016941836717974 0.0010782681605099411 -0.0001423899421288196 -0.0042690847002175942 0.001573401653945432 0.0021078369867050645 0.00068166738684633226 -0.00017489905284985793 0.0023267829385936628 0.0025530432612463874 0.0013358298095152898 0.00058495097994538481 -0.0057145634021290269 -0.00048881717138311864 0.00023763237587199677
leaf_weight=32 32 26 20 23 25 27 26 20 24 23 21 20 23 29 24 20 20 20 20
leaf_count=32 32 26 20 23 25 27 26 20 24 23 21 20 23 29 24 20 20 20 20
internal_value=-3.35835e-05 0.00101669 -0.0044059 0.00175929 0.00196381 -2.94936e-05 0.000214951 -0.00507831 0.00236329 0.00262725 0.00126756 -4.9509e-06 0.00194208 0.00285698 0.00103055 0.000215895 -0.00548293 -0.00029301 0.000411292
internal_weight=475 383 92 224 192 159 133 60 122 75 70 106 47 52 45 60 40 46 40
internal_count=475 383 92 224 192 159 133 60 122 75 70 106 47 52 45 60 40 46 40
is_linear=0
shrinkage=0.0426353


Tree=7
num_leaves=20
num_cat=0
split_feature=79 46 36 57 67 31 61 69 59 78 60 58 31 79 31 40 31 57 67
split_gain=1.1 0.137966 0.0472582 0.0320058 0.0250071 0.0163433 0.0155823 0.00894898 0.00859792 0.00825734 0.00408472 0.00378132 0.00347631 0.00344393 0.00276376 0.00174339 0.00158147 0.00115077 0.00053511
threshold=0.085727807347322632 -0.016088226735564006 0.25900891292615141 0.066873152445010228 0.12890089144391118 0.51890027240966019 -0.41091757078779878 5.6577604631824991 -0.65810042691319548 -0.5220866151667779 -0.12374763042400948 0.05474231862270338 0.49195239093497828 -1.2285127107762042 0.45263132106944876 0.0049207242336084846 0.54804757468100496 0.11072903310191044 0.17740117129790858
decision_type=2 2 2 2 2 2 2 2 2 2 2 2 2 2 2 2 2 2 2
left_child=1 3 -2 -1 -3 9 8 15 11 -6 -10 -5 -11 -8 -13 -4 18 -14 -7
right_child=2 4 7 6 5 16 13 -9 10 12 -12 14 17 -15 -16 -17 -18 -19 -20
leaf_value=0.00045472230492409559 -0.0028321739512958593 -0.0011755827096944682 -0.0049209176951638114 0.002036259219926703 7.2384870030651598e-05 0.00016028763179044503 0.00090770593063245865 -0.0040870707533014628 0.0022275797238846965 0.0014366255971008698 0.0014543830830378991 0.003062712432347688 0.00053052844510380359 0.0016402327581320497 0.0024441933297045652 -0.0054709209299108356 -0.00039839167453956879 0.00098789484349182826 -0.00014060027932226419
leaf_weight=29 33 23 22 20 25 22 20 20 23 21 27 24 20 28 29 20 28 20 21
leaf_count=29 33 23 22 20 25 22 20 20 23 21 27 24 20 28 29 20 28 20 21
internal_value=-3.21517e-05 0.00099371 -0.0041356 0.00176441 0.000137375 0.00032972 0.00198652 -0.00482936 0.00224077 0.000724968 0.00181005 0.00253578 0.00099242 0.00133501 0.00272428 -0.00518282 -0.000149032 0.000759212 1.33424e-05
internal_weight=475 380 95 200 180 157 171 62 123 86 50 73 61 48 53 42 71 40 43
internal_count=475 380 95 200 180 157 171 62 123 86 50 73 61 48 53 42 71 40 43
is_linear=0
shrinkage=0.0426353


Tree=8
num_leaves=20
num_cat=0
split_feature=56 56 36 56 61 67 57 69 59 56 46 69 60 31 51 89 40 48 89
split_gain=1.00928 0.137327 0.0359317 0.0261247 0.024707 0.0221662 0.0119739 0.00911598 0.00623072 0.00415955 0.00333679 0.00310848 0.00304514 0.00281406 0.00231255 0.00222199 0.00097075 0.000729339 0.000484532
threshold=0.28388488407979823 0.050042985691287838 0.26114112663099015 -0.44475970505207024 -0.38651069380827924 0.12890089144391118 0.048218045049082232 5.6577604631824991 -0.65810042691319548 -0.20548854253676502 -0.081666399379168947 -0.9678397020375501 -0.12374763042400948 0.45263132106944876 -0.11325097470808662 -1.2345864534645965 0.0049207242336084846 -0.45430910963380217 -0.68539816470539217
decision_type=2 2 2 2 2 2 2 2 2 2 2 2 2 2 2 2 2 2 2
left_child=1 3 -2 -1 8 -3 -7 16 9 13 -6 17 -10 -5 -12 -13 -4 -8 -17
right_child=2 5 7 4 10 6 11 -9 12 -11 14 15 -14 -15 -16 18 -18 -19 -20
leaf_value=0.00048477360562264039 -0.0028869286636052098 -0.0011643632843149139 -0.0048175947124360959 0.0029714874643098541 0.0015570167664352601 0.00099832664245525144 -9.3765828417176594e-05 -0.0039128171931360973 0.0021326061678663077 0.0019307174981309575 0.00061593744141924447 -0.00017216476810543349 0.0014460868953544456 0.0023399843223801476 0.0012285784705522286 0.00052661537078295981 -0.0052376664167351128 -0.00043362299554882864 0.00022983794002232592
leaf_weight=32 32 26 20 23 25 27 22 20 23 23 21 20 24 29 24 20 20 24 20
leaf_count=32 32 26 20 23 25 27 22 20 23 23 21 20 24 29 24 20 20 24 20
internal_value=-3.07809e-05 0.000932434 -0.00404069 0.00161261 0.00180058 -2.58029e-05 0.000196773 -0.00465603 0.00216694 0.00240814 0.00116209 -7.3965e-06 0.00178204 0.0026193 0.000942679 0.000194763 -0.00502763 -0.000271083 0.000378227
internal_weight=475 383 92 224 192 159 133 60 122 75 70 106 47 52 45 60 40 46 40
internal_count=475 383 92 224 192 159 133 60 122 75 70 106 47 52 45 60 40 46 40
is_linear=0
shrinkage=0.0426353


Tree=9
num_leaves=20
num_cat=0
split_feature=56 56 36 56 56 67 57 68 60 27 58 50 56 56 51 67 40 44 45
split_gain=0.925053 0.125866 0.0329331 0.0239445 0.0224918 0.0203164 0.0109746 0.00807831 0.00603091 0.00298832 0.00299932 0.00293213 0.00264471 0.00247829 0.0015009 0.00115503 0.000943127 0.000734915 0.000511383
threshold=0.28388488407979823 0.050042985691287838 0.26114112663099015 -0.44475970505207024 -0.14564121996485288 0.12890089144391118 0.048218045049082232 1.9885261254572195 -0.27504062107603205 59.382794901659786 0.62922486917432885 -0.050624006700180878 -0.2294068903694704 0.095676995579173432 -0.11325097470808662 0.24015838411267357 0.0049207242336084846 0.029657532000969943 0.2369790472915701
decision_type=2 2 2 2 2 2 2 2 2 2 2 2 2 2 2 2 2 2 2
left_child=1 3 -2 -1 9 -3 -7 16 -6 10 12 17 -5 -13 -10 -12 -4 -8 -15
right_child=2 5 7 4 8 6 11 -9 14 -11 15 13 -14 18 -16 -17 -18 -19 -20
leaf_value=0.00046410510904419292 -0.0027638434660191883 -0.0011147202188301526 -0.0046003047728572595 0.0026966635070884209 0.0017316113801919052 0.00095576264791512094 0.0004602250440969767 -0.0037578831364345382 0.00064869705978355609 0.0017362143716146488 0.0017002012624668912 0.00017058137067803856 0.0020547372789179712 -0.00023814310976106313 0.0011255172637583875 0.0021584125278450326 -0.0050143566501739427 9.9101757728965061e-05 -0.0005360231515238081
leaf_weight=32 32 26 20 28 20 27 20 20 28 35 20 23 20 22 21 20 20 21 20
leaf_count=32 32 26 20 28 20 27 20 20 28 35 20 23 20 22 21 20 20 21 20
internal_value=-2.94685e-05 0.00089268 -0.00386841 0.00154386 0.00172382 -2.47027e-05 0.000188383 -0.00445751 0.0011077 0.00206944 0.00220197 -7.08115e-06 0.00242919 -0.000185173 0.000853049 0.00192931 -0.00480733 0.000275259 -0.000379991
internal_weight=475 383 92 224 192 159 133 60 69 123 88 106 48 65 49 40 40 41 42
internal_count=475 383 92 224 192 159 133 60 69 123 88 106 48 65 49 40 40 41 42
is_linear=0
shrinkage=0.0426353


Tree=10
num_leaves=17
num_cat=0
split_feature=66 52 62 79 78 31 55 46 50 90 31 43 68 31 31 37
split_gain=0.878146 0.0998291 0.0362595 0.0318494 0.0237067 0.0205436 0.00790875 0.00757639 0.00648389 0.00546678 0.00249166 0.00245988 0.00205298 0.00200864 0.00146714 0.00022709
threshold=0.37883155712201694 0.035572717981506186 0.49786875842870132 -1.2959045456259803 -0.56371836959148569 0.5160221958113439 -0.41769461007215064 -0.44716271959063608 -0.0021669646616673055 -0.011955911548503931 0.54612663964010788 -0.36031283881546633 -0.41316687559186321 0.49329771077550233 0.50275165271175271 0.021038607284662798
decision_type=2 2 2 2 2 2 2 2 2 2 2 2 2 2 2 2
left_child=1 3 -2 6 -3 12 -1 -5 -4 14 15 -11 -6 -14 -9 -7
right_child=2 4 8 7 5 10 -8 9 -10 11 -12 -13 13 -15 -16 -17
leaf_value=0.00019046487489191995 -0.0024833347512144429 -0.00087815087550015855 -0.0046337365589376013 0.0026734277912271055 0.00049672009274681454 0.00018043990713559793 0.001155761475390354 0.0022719878621984798 -0.0037786921249939784 0.0018482038339342672 -0.00039863328737858161 0.0012675681975827932 0.0012264055158912378 0.00073650120416846141 0.0018167368638711164 -7.0372643063235745e-06
leaf_weight=27 30 33 38 20 23 23 36 31 28 21 33 36 29 32 22 24
leaf_count=27 30 33 38 20 23 23 36 31 28 21 33 36 29 32 22 24
internal_value=-5.94992e-05 0.000839664 -0.00371235 0.00152882 0.000164496 0.000374297 0.000742063 0.0019101 -0.00427099 0.00177131 -0.000114671 0.00148149 0.00083998 0.000969407 0.00208302 8.47069e-05
internal_weight=486 390 96 193 197 164 63 130 66 110 80 57 84 61 53 47
internal_count=486 390 96 193 197 164 63 130 66 110 80 57 84 61 53 47
is_linear=0
shrinkage=0.0426353


Tree=11
num_leaves=17
num_cat=0
split_feature=79 56 62 79 61 57 67 48 50 47 49 69 67 40 70 48
split_gain=0.805304 0.0939811 0.0372295 0.0247266 0.0161911 0.0141973 0.00992406 0.00732125 0.00594279 0.00465846 0.0033762 0.00252431 0.00190249 0.00109066 0.000973968 0.000758335
threshold=0.085727807347322632 0.050042985691287838 0.49786875842870132 -1.2959045456259803 -0.44654173050022899 0.048218045049082232 0.12890089144391118 0.48825283238891876 -0.0021669646616673055 0.079864745171442 -0.80360661070531358 -0.9678397020375501 0.19867982945904472 0.009365100458094822 -0.33548521072047033 -0.36453518332343549
decision_type=2 2 2 2 2 2 2 2 2 2 2 2 2 2 2 2
left_child=1 3 -2 7 9 -3 -7 -1 -4 10 -5 15 -6 -13 -12 -8
right_child=2 5 8 4 12 6 11 -9 -10 -11 14 13 -14 -15 -16 -17
leaf_value=0.0011693672631163153 -0.0023168312916343314 0.00093491499374674929 -0.004436175531415747 0.0024885526864861672 0.0013854790010326169 -0.0010048695265355023 -7.9335612062896051e-05 0.00028870178106949363 -0.0036175863814642737 0.001472235833568112 0.0017165145863658024 0.00034744772877453412 0.00090610525897090964 -2.12632145544066e-05 0.0021276078425849368 -0.00040906188984556139
leaf_weight=32 32 26 38 33 27 21 32 37 28 23 22 35 34 25 20 21
leaf_count=32 32 26 38 33 27 21 32 37 28 23 22 35 34 25 20 21
internal_value=-5.69624e-05 0.000815263 -0.00351026 0.00137112 0.00166361 2.31599e-05 -0.000153748 0.000697126 -0.0040889 0.00200305 0.00216584 4.42523e-06 0.00111829 0.000193818 0.00191227 -0.000209982
internal_weight=486 388 98 228 159 160 134 69 66 98 75 113 61 60 42 53
internal_count=486 388 98 228 159 160 134 69 66 98 75 113 61 60 42 53
is_linear=0
shrinkage=0.0426353


Tree=12
num_leaves=17
num_cat=0
split_feature=56 56 62 79 86 61 31 48 59 68 58 49 75 37 31 68
split_gain=0.738307 0.088944 0.0302949 0.0226631 0.0151833 0.0148399 0.0117287 0.00671027 0.00464417 0.00456079 0.00302271 0.00236866 0.00213977 0.00185948 0.00181298 0.000158859
threshold=0.28388488407979823 0.050042985691287838 0.49786875842870132 -1.2959045456259803 -0.071605604141571785 -0.44654173050022899 0.51648879803158898 0.48825283238891876 -0.65810042691319548 1.9856214198280786 0.23969500581499867 -0.2117094970976808 0.33938666888426733 0.019744222739981405 0.54612663964010788 -0.24877550661680078
decision_type=2 2 2 2 2 2 2 2 2 2 2 2 2 2 2 2
left_child=1 3 -2 7 -3 8 11 -1 10 12 -5 -6 -4 -7 15 -8
right_child=2 4 9 5 6 13 14 -9 -10 -11 -12 -13 -14 -15 -16 -17
leaf_value=0.0011195108828254646 -0.0022805424561291067 -0.00093792625235950369 -0.0044572858163895047 0.0018674778283409832 0.00044033408682942604 0.0013261600637498529 9.9534788856645519e-05 0.00027639287344072446 0.001475771171468461 -0.0033957463428010205 0.0024422444316974752 0.0010150209445183927 -0.003869141346612029 0.00085377691570975584 -0.0003729417005537417 -5.7791731464713462e-05
leaf_weight=32 30 26 22 39 32 28 28 37 30 21 29 22 23 33 34 20
leaf_count=32 30 26 22 39 32 28 28 37 30 21 29 22 23 33 34 20
internal_value=-5.45338e-05 0.000769933 -0.00340393 0.00131267 6.0876e-06 0.00159269 0.000186561 0.000667404 0.00191765 -0.00391456 0.0021126 0.000674466 -0.00415668 0.00107061 -0.000134742 3.39821e-05
internal_weight=486 390 96 228 162 159 136 69 98 66 68 54 45 61 82 48
internal_count=486 390 96 228 162 159 136 69 98 66 68 54 45 61 82 48
is_linear=0
shrinkage=0.0426353


Tree=13
num_leaves=18
num_cat=0
split_feature=79 56 62 79 61 67 57 48 50 59 31 56 27 53 57 31 67
split_gain=0.676879 0.0789231 0.031171 0.0204775 0.013295 0.0121386 0.00818829 0.00641957 0.00518961 0.0042566 0.00302815 0.00236558 0.00235018 0.00175412 0.000947002 0.000938681 0.000586869
threshold=0.085727807347322632 0.045022276414376179 0.49786875842870132 -1.2959045456259803 -0.44654173050022899 0.12890089144391118 0.048218045049082232 0.48825283238891876 -0.0021669646616673055 -0.65810042691319548 0.53138730972672221 -0.20548854253676502 52.498057018708884 -0.074120101810125905 0.082074017389403911 0.5160221958113439 0.17272319594069405
decision_type=2 2 2 2 2 2 2 2 2 2 2 2 2 2 2 2 2
left_child=1 3 -2 7 9 -3 -7 -1 -4 11 14 12 -5 -6 -8 -16 -12
right_child=2 5 8 4 13 6 10 -9 -10 -11 16 -13 -14 -15 15 -17 -18
leaf_value=0.0011038727461744463 -0.0021261872176056031 -0.00092371237575434272 -0.004072193321830197 0.0025409169876756147 0.00072706794144415101 0.00085837548581430066 -2.1336045249503557e-05 0.0002646087710905967 -0.0033072337339902624 0.0014128511569702015 -4.1124601494017755e-05 0.0016463237817429027 0.0019311381182153466 0.0012054471125533851 0.00052839921678414362 0.00012988666648575662 -0.0003311884953486717
leaf_weight=30 32 21 38 20 22 26 20 37 28 30 21 21 27 38 22 21 32
leaf_count=30 32 21 38 20 22 26 20 37 28 30 21 21 27 38 22 21 32
internal_value=-5.22087e-05 0.00074745 -0.0032182 0.00126501 0.00152987 3.30297e-05 0.00017452 0.000640399 -0.00374767 0.00183589 2.12417e-05 0.00202253 0.00219062 0.00103004 0.000221043 0.000333777 -0.000216258
internal_weight=486 388 98 225 158 163 142 67 66 98 116 68 47 60 63 43 53
internal_count=486 388 98 225 158 163 142 67 66 98 116 68 47 60 63 43 53
is_linear=0
shrinkage=0.0426353


Tree=14
num_leaves=19
num_cat=0
split_feature=71 52 60 79 50 55 46 52 79 77 86 48 53 30 90 41 40 57
split_gain=0.620675 0.0703106 0.0272654 0.0225365 0.0172166 0.00656064 0.00646455 0.00622672 0.00609807 0.00474667 0.00405174 0.00377812 0.00208071 0.00208062 0.00126732 0.00100541 0.000955432 0.000955221
threshold=0.08963824155652883 0.035572717981506186 -0.019939284761861974 -1.3082034902916237 0.034418299352463516 -0.41769461007215064 -0.44716271959063608 0.29096668504852896 1.9879254854120425 0.27187547939568957 -0.045950714752545453 0.37764644289096699 -0.33337215561402217 0.013129445705844447 -0.018495456907697019 -0.040257811684153912 -0.0056834284525507034 0.11510661165157966
decision_type=2 2 2 2 2 2 2 2 2 2 2 2 2 2 2 2 2 2
left_child=1 3 -2 5 7 -1 -5 13 -4 17 -6 12 -8 15 -14 -3 -10 -9
right_child=2 4 8 6 10 -7 11 9 16 -11 -12 -13 14 -15 -16 -17 -18 -19
leaf_value=0.00011459144482558319 -0.0020824376427072714 0.00052011704562533842 -0.0029832993909275868 0.0022876575348725428 -0.00084423002406296978 0.0010047888890514609 0.001326133503611401 0.0011722111259042296 -0.0036584050162848619 0.00017085112639473747 -0.00011126007553845971 0.0011271528146991614 0.0019907435542966456 -0.00021155805184011007 0.0015495825887168976 0.00014491762717802812 -0.0040537632845475012 0.00076555528549802215
leaf_weight=27 32 20 20 21 29 34 24 21 20 20 26 38 29 22 20 37 25 21
leaf_count=27 32 20 20 21 29 34 24 21 20 20 26 38 29 22 20 37 25 21
internal_value=-4.99828e-05 0.00071086 -0.0031012 0.0012885 0.000142065 0.000610767 0.00160169 0.000391632 -0.00360274 0.000711454 -0.000497735 0.00147191 0.00165138 0.000140633 0.00181068 0.000276567 -0.00387805 0.000968883
internal_weight=486 389 97 193 196 61 132 141 65 62 55 111 73 79 49 57 45 42
internal_count=486 389 97 193 196 61 132 141 65 62 55 111 73 79 49 57 45 42
is_linear=0
shrinkage=0.0426353


Tree=15
num_leaves=16
num_cat=0
split_feature=56 56 36 48 10 78 31 59 89 50 68 67 48 31 48
split_gain=0.503119 0.0632021 0.0226113 0.0151014 0.0101809 0.0100554 0.00754715 0.00591558 0.00460032 0.00339866 0.00264947 0.00223774 0.00150056 0.00122192 0.000203243
threshold=0.28388488407979823 0.034558160371264045 0.2602353688000893 0.35092721230408219 0.13399083969882297 -0.56371836959148569 0.51950426905751901 -1.192304770914637 -0.54861805583523637 0.016081132556248937 1.9772074364537606 0.17183518889493196 0.19401854303559909 0.54612663964010788 -0.096095992876992262
decision_type=2 2 2 2 2 2 2 2 2 2 2 2 2 2 2
left_child=1 3 -2 7 -5 -3 12 -1 11 -6 -4 -9 -7 14 -8
right_child=2 5 10 4 9 6 13 8 -10 -11 -12 -13 -14 -15 -16
leaf_value=0.0019630623181787414 -0.0020763735194409953 -0.00066885339422680578 -0.0037074248955920909 0.0013456835924126511 0.00061471345576085323 0.00038069204785645461 -4.3910980761670829e-05 0.0013838625311921992 0.0016641190434646571 -8.5718977259833924e-05 -0.0030855328375049254 0.00086061569524909203 0.00081701290795948168 -0.00030515235785476302 0.00013935481195390286
leaf_weight=30 35 30 33 29 34 38 22 24 36 20 20 39 23 30 22
leaf_count=30 35 30 33 29 34 38 22 24 36 20 20 39 23 30 22
internal_value=-1.46322e-05 0.00066293 -0.00291737 0.00114994 0.000701334 3.71951e-05 0.000194095 0.00143858 0.00127965 0.000355294 -0.00347275 0.00105995 0.000545206 -9.53352e-05 4.77219e-05
internal_weight=465 377 88 212 83 165 135 129 99 54 53 63 61 74 44
internal_count=465 377 88 212 83 165 135 129 99 54 53 63 61 74 44
is_linear=0
shrinkage=0.0426353


Tree=16
num_leaves=17
num_cat=0
split_feature=79 42 68 57 90 76 67 31 31 57 83 49 68 31 67 88
split_gain=0.461227 0.0502735 0.0219761 0.0175822 0.0114783 0.0101451 0.00566815 0.00549177 0.00382135 0.00290522 0.00257863 0.00255274 0.00122107 0.00204951 0.00115735 0.00074937
threshold=0.10488712019631341 0.033805280448750169 0.29817770938874649 0.083014708099794957 0.14317825650017404 0.044302108902818584 0.21909914041558892 0.52267737868772002 0.50275165271175271 0.039290703999242817 0.44578118575400039 -0.80360661070531358 -0.41316687559186321 0.49408060545135751 0.18657316684695255 -0.14221499320865696
decision_type=2 2 2 2 2 2 2 2 2 2 2 2 2 2 2 2
left_child=1 3 -2 6 8 7 -1 12 11 -4 -7 -5 -3 -14 -13 -12
right_child=2 5 9 4 -6 10 -8 -9 -10 -11 15 14 13 -15 -16 -17
leaf_value=-1.8015356341046561e-05 -0.0018575516309085527 0.00027754109780715042 -0.0035870744345486215 0.0019368252486435986 0.00045739455788342177 -0.00064825953654793161 0.00085620628077689629 -0.00017349643040213617 0.0011358316444632546 -0.0029821365571794361 -0.00029024252938522567 0.0017126508178724306 0.00099330157401186455 0.00045760850476908902 0.0013077642951226374 7.0349668277578064e-05
leaf_weight=26 31 23 27 34 23 25 28 26 38 31 20 21 20 37 33 22
leaf_count=26 31 23 27 34 23 25 28 26 38 31 20 21 20 37 33 22
internal_value=-1.40084e-05 0.000639275 -0.00277395 0.00109439 0.00133326 0.00010524 0.000435285 0.000364812 0.00149314 -0.00326375 -0.000305428 0.00164743 0.000539762 0.000645571 0.00146522 -0.000101361
internal_weight=465 376 89 203 149 173 54 106 126 58 67 88 80 57 54 42
internal_count=465 376 89 203 149 173 54 106 126 58 67 88 80 57 54 42
is_linear=0
shrinkage=0.0426353


Tree=17
num_leaves=17
num_cat=0
split_feature=56 56 60 56 56 78 31 57 69 31 50 58 56 58 31 73
split_gain=0.422953 0.0530466 0.0192343 0.0127116 0.0100436 0.00842745 0.00645188 0.00466178 0.00327848 0.00315574 0.00269772 0.00131081 0.00096741 0.00133628 0.000947019 0.000145761
threshold=0.28388488407979823 0.034558160371264045 -0.019939284761861974 -0.45888593629619906 -0.13124743459759028 -0.56371836959148569 0.52267737868772002 0.083014708099794957 -0.94166335710982185 0.50275165271175271 -0.0021669646616673055 -0.13411522984444293 -0.20548854253676502 0.6425014997459696 0.54612663964010788 0.4464303441180158
decision_type=2 2 2 2 2 2 2 2 2 2 2 2 2 2 2 2
left_child=1 3 -2 -1 7 -3 11 -5 -6 12 -4 -7 13 -9 15 -8
right_child=2 5 10 4 8 6 14 9 -10 -11 -12 -13 -14 -15 -16 -17
leaf_value=0.00017097883233791998 -0.0018410180126431832 -0.00061180461362619367 -0.0034170894806582119 0.00081374151520289748 0.00042861628238520744 0.00069739787508528222 -5.1396553063441921e-05 0.0019924721636587926 0.0010603406704388443 0.0011718432164026871 -0.002821822637288821 0.00031223314996184235 0.0014200423507480051 0.00155590850200896 -0.00028689787058678651 0.00011137928918463081
leaf_weight=26 32 30 31 21 32 29 20 25 28 34 25 36 20 26 30 20
leaf_count=26 32 30 31 21 32 29 20 25 28 34 25 36 20 26 30 20
internal_value=-1.34111e-05 0.00060783 -0.00267486 0.001054 0.00117743 3.45667e-05 0.000178205 0.00139363 0.000723421 0.00150961 -0.00315135 0.000484076 0.00167136 0.00176991 -0.000105818 2.99914e-05
internal_weight=465 377 88 212 186 165 135 126 60 105 56 65 71 51 70 40
internal_count=465 377 88 212 186 165 135 126 60 105 56 65 71 51 70 40
is_linear=0
shrinkage=0.0426353


Tree=18
num_leaves=17
num_cat=0
split_feature=79 56 68 48 2 78 31 59 89 55 55 72 48 31 47 38
split_gain=0.38769 0.0478338 0.0186417 0.0124013 0.00815126 0.00651036 0.006255 0.00451713 0.00351619 0.00313436 0.00262796 0.00160076 0.00135501 0.00112593 0.000429718 0.000196147
threshold=0.10488712019631341 0.034558160371264045 0.29817770938874649 0.35092721230408219 0.06766068281815095 -0.56371836959148569 0.52267737868772002 -1.192304770914637 -0.54861805583523637 -0.36736364564114882 0.50608374306509119 0.09108224599355623 0.19401854303559909 0.55332299970780785 0.047771577851625412 0.12766409319428043
decision_type=2 2 2 2 2 2 2 2 2 2 2 2 2 2 2 2
left_child=1 3 -2 7 -5 -3 12 -1 11 -6 -4 -9 14 15 -7 -8
right_child=2 5 10 4 9 6 13 8 -10 -11 -12 -13 -14 -15 -16 -17
leaf_value=0.0017289424302888972 -0.0016991961938574291 -0.0005526710722244659 -0.0032530136416377732 0.0011790899541552476 -0.00013061520581208658 0.00018300802955585163 -7.6251411959036544e-05 0.0012046334726920748 0.001467875735475825 0.00054203105078121788 -0.0026759396186906933 0.00076535355923592718 0.00072649125496718127 -0.00038653659948597268 0.0004557593309626738 9.5006070919296943e-05
leaf_weight=30 31 28 32 29 20 21 31 25 36 34 26 38 23 20 21 20
leaf_count=30 31 28 32 29 20 21 31 25 36 34 26 38 23 20 21 20
internal_value=-1.28394e-05 0.000586105 -0.00254321 0.00100906 0.000602534 3.9355e-05 0.000161243 0.00127063 0.00113175 0.000292903 -0.00299433 0.000939671 0.000463437 -0.000115414 0.000319384 -9.09161e-06
internal_weight=465 376 89 212 83 164 136 129 99 54 58 63 65 71 42 51
internal_count=465 376 89 212 83 164 136 129 99 54 58 63 65 71 42 51
is_linear=0
shrinkage=0.0426353


Tree=19
num_leaves=17
num_cat=0
split_feature=56 56 36 48 78 2 59 68 27 78 68 79 79 58 73 69
split_gain=0.35559 0.044573 0.0161752 0.0135469 0.00772369 0.00747102 0.00366799 0.0035639 0.00333634 0.0025171 0.00231039 0.00200947 0.00190961 0.00121884 0.000893678 0.000705779
threshold=0.28388488407979823 0.01616561785665353 0.2602353688000893 0.35092721230408219 -0.56371836959148569 0.06766068281815095 -0.61801780532534745 0.036499209125294273 58.831001782236619 0.12709618031051673 1.9772074364537606 -1.1971887346581467 -1.0225421367599972 0.31261612876865369 -0.30125658763925472 -0.91256819635201036
decision_type=2 2 2 2 2 2 2 2 2 2 2 2 2 2 2 2
left_child=1 3 -2 6 -3 -5 13 -8 11 -7 -4 14 -13 -1 -6 -10
right_child=2 4 10 5 8 9 7 -9 15 -11 -12 12 -14 -15 -16 -17
leaf_value=0.0013581278392999303 -0.0017413076285675386 -0.00055889796381586104 -0.0031414920378184368 0.0011288190509421655 -7.3080257613958308e-05 0.00065994611942003377 0.0014325134462072025 0.00079116802020692562 -0.00020258820740783046 5.7161077912194976e-05 -0.0025607571088985493 0.00085484883224513344 0.00031331461816239137 0.0017677019450423686 0.00031281202291316625 0.00011111198801463679
leaf_weight=28 35 30 33 29 20 20 28 36 32 34 20 20 29 25 24 22
leaf_count=28 35 30 33 29 20 20 28 36 32 34 20 20 29 25 24 22
internal_value=-1.22919e-05 0.000557333 -0.00245262 0.000993454 6.45406e-05 0.000576845 0.001289 0.00107176 0.000191773 0.000280415 -0.00292235 0.000346548 0.000534349 0.00155132 0.000137406 -7.47844e-05
internal_weight=465 377 88 200 177 83 117 64 147 54 53 93 49 53 44 54
internal_count=465 377 88 200 177 83 117 64 147 54 53 93 49 53 44 54
is_linear=0
shrinkage=0.0426353


Tree=20
num_leaves=18
num_cat=0
split_feature=79 56 56 48 2 67 56 50 50 79 55 48 28 31 58 56 27
split_gain=0.325851 0.044243 0.0169533 0.0118654 0.00739694 0.00690802 0.00346016 0.00343634 0.0031708 0.00315855 0.00204354 0.00136414 0.0013156 0.000944267 0.000614037 0.000659241 0.000499057
threshold=0.085727807347322632 0.045022276414376179 0.39484830309332725 0.3609406597106844 0.06766068281815095 0.12890089144391118 1.0000000180025095e-35 -0.067533665313238581 -0.0021669646616673055 -1.344739642861269 -0.33080014903822264 0.18373492468503666 70.01456389196305 0.54348933978720415 0.51886013812322684 -0.20548854253676502 56.878687300519914
decision_type=2 2 2 2 2 2 2 2 2 2 2 2 2 2 2 2 2
left_child=1 3 -2 6 -5 -3 9 11 -4 -1 -6 -7 14 16 15 -11 -9
right_child=2 5 8 4 10 7 -8 13 -10 12 -12 -13 -14 -15 -16 -17 -18
leaf_value=0.00083080756071949181 -0.0015219379614234976 -0.00073007247469193096 -0.003005936446822486 0.0010222362585217434 -1.8527750698145798e-05 0.00021805311805381966 0.00067095641331500885 -3.9888132035284685e-05 -0.0023651007197326461 0.0015480142174929051 0.00049401663490114892 0.00067575535573697069 0.0016155916551740099 -0.00023382593555360093 0.0010945001822713898 0.0012018421778406795 0.00020974566140653716
leaf_weight=23 34 20 32 39 26 29 20 37 25 20 31 20 31 30 22 20 24
leaf_count=23 34 20 32 39 26 29 20 37 25 20 31 20 31 30 22 20 24
internal_value=2.29902e-05 0.00055655 -0.00227542 0.000932703 0.000569792 1.11278e-05 0.00118888 0.000117014 -0.00272487 0.00127817 0.000260224 0.00040487 0.00138881 -3.79862e-05 0.00127542 0.00137493 5.83284e-05
internal_weight=483 392 91 232 96 160 136 140 57 116 57 49 93 91 62 40 61
internal_count=483 392 91 232 96 160 136 140 57 116 57 49 93 91 62 40 61
is_linear=0
shrinkage=0.0426353


Tree=21
num_leaves=18
num_cat=0
split_feature=71 56 57 59 48 50 56 50 56 41 69 37 58 48 48 55 40
split_gain=0.29887 0.0412425 0.0149677 0.010228 0.00791103 0.0063551 0.00550446 0.00297348 0.00221633 0.00220629 0.00212616 0.00155366 0.00104029 0.000893331 0.000650533 0.000617685 0.000347192
threshold=0.08963824155652883 0.059807989529448789 0.084954559366807153 -0.89315862336314245 0.3609406597106844 0.020578285543450318 -0.17695848271531525 -0.0021669646616673055 0.12461907727118231 -0.33080014903822264 -1.2420420408314139 0.027857764498873904 0.26450019862194185 -0.10832251612855849 -0.18008490599203694 -0.0649586592998182 -0.020589947398746467
decision_type=2 2 2 2 2 2 2 2 2 2 2 2 2 2 2 2 2
left_child=1 3 7 6 9 10 12 -2 -7 13 -3 -6 -1 -5 -12 -11 -16
right_child=2 5 -4 4 11 8 -8 -9 -10 15 14 -13 -14 -15 16 -17 -18
leaf_value=0.0013445758247457556 -0.0028777773166721661 0.0005829619890105075 -0.0014539797608259593 0.0013425333657217234 0.00045985676956300986 -3.2851130183899862e-05 0.0008292045105283834 -0.0022639377624164899 -0.00058688670235553778 0.00085333496238516686 -9.4589793455723635e-05 1.9397518963235159e-05 0.0017204908184179099 0.00095671610873523851 0.00031313216675478076 0.00052936197785323274 8.8008937385785979e-05
leaf_weight=32 32 20 32 20 37 21 37 26 35 23 24 24 23 24 20 20 33
leaf_count=32 32 20 32 20 37 21 37 26 35 23 24 24 23 24 20 20 33
internal_value=2.201e-05 0.000529541 -0.00219421 0.000878268 0.000658825 -1.74829e-05 0.00123129 -0.00260261 -0.000379123 0.000919837 0.000191299 0.000286561 0.00150178 0.00113209 8.95686e-05 0.00070265 0.000172961
internal_weight=483 393 90 240 148 153 92 58 56 87 97 61 55 44 77 43 53
internal_count=483 393 90 240 148 153 92 58 56 87 97 61 55 44 77 43 53
is_linear=0
shrinkage=0.0426353


Tree=22
num_leaves=19
num_cat=0
split_feature=79 46 62 48 67 2 31 57 50 50 78 46 31 57 93 79 35 93
split_gain=0.273966 0.0363687 0.0144478 0.0100689 0.00694294 0.00510406 0.00451362 0.00310985 0.00272534 0.00221432 0.002127 0.00142155 0.00126551 0.00114195 0.0014991 0.000877187 0.000624545 0.000633396
threshold=0.085727807347322632 -0.016088226735564006 0.49786875842870132 0.48825283238891876 0.12890089144391118 0.06766068281815095 0.51890027240966019 0.090756857180288475 -0.0021669646616673055 0.0098717071376997808 -0.5220866151667779 -0.4389769857958829 0.49408060545135751 0.11645054601010708 0.56184467462249044 -1.1046680256892538 0.24209309018171773 0.14393120836879145
decision_type=2 2 2 2 2 2 2 2 2 2 2 2 2 2 2 2 2 2
left_child=1 3 -2 7 -3 -5 10 -1 -4 -7 -6 -9 -12 -13 -15 -14 17 -8
right_child=2 4 8 5 6 9 16 11 -10 -11 12 13 15 14 -16 -17 -18 -19
leaf_value=0.00075054794118176356 -0.0013742153109810762 -0.00067232551564374253 -0.002755082267725461 0.00092635771561463314 4.1311725284968908e-05 0.00051450583262532194 -0.00014998369343141262 0.0015574286142881657 -0.0021674140272939812 -8.3796309797225317e-05 0.00077973827189538065 0.0014400416186660743 0.00017903929586265182 0.00090918560125165303 0.0013652147974568961 0.0005517552044358874 -0.00028286891164313997 0.00014205511100444517
leaf_weight=30 33 20 32 32 26 23 27 21 26 22 20 20 22 38 20 24 20 27
leaf_count=30 33 20 32 32 26 23 27 21 26 22 20 20 22 38 20 24 20 27
internal_value=2.10716e-05 0.000510311 -0.00208642 0.000900535 7.81285e-05 0.000514722 0.000168545 0.00113083 -0.00249164 0.000222003 0.000367933 0.00124606 0.000496602 0.00116223 0.00106644 0.0003735 -7.93439e-05 -3.96429e-06
internal_weight=483 392 91 206 186 77 166 129 58 45 92 99 66 78 58 46 74 54
internal_count=483 392 91 206 186 77 166 129 58 45 92 99 66 78 58 46 74 54
is_linear=0
shrinkage=0.0426353


Tree=23
num_leaves=19
num_cat=0
split_feature=79 56 62 7 67 66 55 79 50 50 27 47 49 65 31 47 83 40
split_gain=0.251102 0.0340486 0.0132421 0.0086654 0.0050752 0.00441416 0.00402756 0.0033248 0.00303405 0.0024979 0.00181514 0.00118844 0.000823569 0.000703176 0.000561003 0.000698387 0.00056006 0.000640335
threshold=0.085727807347322632 0.059807989529448789 0.49786875842870132 0.11661508258622949 0.12890089144391118 -0.33769848137298736 -0.35583483024783535 -1.1202963798829619 -0.067533665313238581 -0.0021669646616673055 43.738868970052323 0.043092398579631208 -0.64136077556476712 -0.43188336224196017 0.50488597009325764 0.035536207268959986 -0.45938346117485646 0.0024745252644713393
decision_type=2 2 2 2 2 2 2 2 2 2 2 2 2 2 2 2 2 2
left_child=1 3 -2 7 -3 -5 -7 14 11 -4 -8 -6 -9 -12 15 -1 -10 -18
right_child=2 4 9 5 8 6 10 12 16 -11 13 -13 -14 -15 -16 -17 17 -19
leaf_value=0.00079316942452690672 -0.0013156251791417279 -0.00064366068535856786 -0.0026376183920897439 0.0011302940527204413 0.00056115739660644957 -4.5674578329414316e-05 0.00091385533317965128 0.0015625933293702398 0.00011835396461426489 -0.0020750055586305138 0.00061179391529105759 0.00013149689906996869 0.0011986807878751067 0.00032224276237581095 0.00069620582667254268 0.0011257369569333191 -9.9405416512490992e-06 -0.0002834866503560121
leaf_weight=22 33 20 32 21 25 23 23 20 22 26 31 22 26 30 20 24 35 28
leaf_count=22 33 20 32 21 25 23 23 20 22 26 31 22 26 30 20 24 35 28
internal_value=2.01732e-05 0.000488554 -0.00199747 0.000804776 -1.07441e-05 0.000565135 0.000454215 0.00107865 8.51523e-05 -0.00238541 0.00059109 0.00036004 0.0013569 0.000469392 0.00088472 0.000966683 -6.68442e-05 -0.000131517
internal_weight=483 392 91 240 152 128 107 112 132 58 84 47 46 61 66 46 85 63
internal_count=483 392 91 240 152 128 107 112 132 58 84 47 46 61 66 46 85 63
is_linear=0
shrinkage=0.0426353


Tree=24
num_leaves=18
num_cat=0
split_feature=71 56 60 59 48 50 61 69 89 56 47 69 37 46 33 93 90
split_gain=0.230549 0.0316287 0.0119511 0.00831888 0.00564424 0.00495782 0.00444398 0.00243555 0.00218102 0.00176623 0.00174731 0.00172114 0.00141767 0.00104618 0.000541682 0.000867601 0.000435482
threshold=0.08963824155652883 0.059807989529448789 -0.019939284761861974 -0.84086334374168448 0.3609406597106844 0.020578285543450318 -0.44654173050022899 5.6451139147427716 -0.56561824711699138 0.12461907727118231 0.043808629136606256 -1.2420420408314139 0.027857764498873904 -0.30208774623881757 1.0000000180025095e-35 0.25823267932036947 -0.074432439699820621
decision_type=2 2 2 2 2 2 2 2 2 2 2 2 2 2 2 2 2
left_child=1 3 -2 6 8 11 10 -4 16 -7 13 -3 -6 -1 -13 -16 -5
right_child=2 5 7 4 12 9 -8 -9 -10 -11 -12 14 -14 -15 15 -17 -18
leaf_value=0.0016594999756441024 -0.0012966478761224332 0.00052282792011748807 -0.0025277977375767627 0.0007312647464848992 0.00041790164186116262 -2.4270159831038537e-05 0.00064397161503760593 -0.0019470083979542079 0.0010673822000256887 -0.00051885770508070959 0.00098613437321311411 0.0002577090855684801 -5.1333738192437454e-06 0.0012334397484830325 -0.00021662049442083139 0.00013539530579453242 0.00048088613848834479
leaf_weight=20 34 20 35 28 36 21 30 21 32 35 25 22 24 22 20 35 23
leaf_count=20 34 20 35 28 36 21 30 21 32 35 25 22 24 22 20 35 23
internal_value=1.93131e-05 0.000465075 -0.00192718 0.000770464 0.000563729 -1.3968e-05 0.00107524 -0.00231 0.00079147 -0.000333387 0.00126834 0.000170439 0.000248688 0.00143633 7.89094e-05 7.38956e-06 0.000618349
internal_weight=483 393 90 240 143 153 97 56 83 56 67 97 60 42 77 55 51
internal_count=483 393 90 240 143 153 97 56 83 56 67 97 60 42 77 55 51
is_linear=0
shrinkage=0.0426353


Tree=25
num_leaves=18
num_cat=0
split_feature=71 56 60 48 78 7 31 50 57 68 4 58 51 58 37 31 89
split_gain=0.208769 0.028564 0.0123237 0.00980371 0.00587402 0.00530312 0.00430744 0.00366655 0.00319408 0.00235248 0.00181823 0.00105262 0.000912762 0.000898166 0.000663072 0.00059136 0.000418223
threshold=0.08963824155652883 0.01616561785665353 -0.019939284761861974 0.35092721230408219 -0.56371836959148569 0.11661508258622949 0.51890027240966019 0.017334010911613924 0.084293322188176242 1.9772074364537606 4.0293034429962056 0.62922486917432885 -0.36854882847502413 -0.13411522984444293 0.015486296933159744 0.54612663964010788 -1.1773507395310523
decision_type=2 2 2 2 2 2 2 2 2 2 2 2 2 2 2 2 2
left_child=1 3 -2 8 -3 -5 13 -7 -1 -4 12 -12 -10 -6 -8 -16 -15
right_child=2 4 9 5 6 7 14 -9 10 -11 11 -13 -14 16 15 -17 -18
leaf_value=0.00051261486972182515 -0.0011875268305777153 -0.00046937669541473976 -0.0024484980366909774 0.00083836103424936076 0.00058527060612313848 0.00043017007792020811 0.00012334355025982077 -0.00029348423226515952 0.00073413256547401979 -0.0018826809509878961 0.0015331995502414323 0.0011251086619844316 0.0010727802315760877 0.00016725466994937482 -2.511159811168888e-05 -0.0003168797418117842 0.00042448709767632187
leaf_weight=20 33 33 34 35 27 35 22 20 23 22 20 27 39 27 28 23 20
leaf_count=20 33 33 34 35 27 35 22 20 23 22 20 27 39 27 28 23 20
internal_value=2.60881e-05 0.000442575 -0.00184108 0.000769619 4.46705e-05 0.000428099 0.000160069 0.000167023 0.00100789 -0.00222621 0.00109877 0.00129876 0.000947153 0.000389296 -7.22986e-05 -0.000156693 0.000276715
internal_weight=488 399 89 219 180 90 147 55 129 56 109 47 62 74 73 51 47
internal_count=488 399 89 219 180 90 147 55 129 56 109 47 62 74 73 51 47
is_linear=0
shrinkage=0.0426353


Tree=26
num_leaves=19
num_cat=0
split_feature=79 56 79 48 59 67 27 31 59 55 76 12 48 58 59 37 31 58
split_gain=0.19146 0.0257835 0.0118165 0.00898556 0.00502388 0.00450414 0.00417628 0.00373931 0.00292046 0.00261497 0.00248468 0.00128176 0.00121876 0.000915569 0.000825654 0.000614874 0.000654939 0.000435888
threshold=0.085727807347322632 0.01616561785665353 2.0909429176677614 0.35092721230408219 -0.80277730384824397 0.13658402326064148 73.389842865318926 0.51890027240966019 -0.61801780532534745 -0.18869132984566694 -0.17456907805283925 0.037696145833105855 -0.33028554765037627 -0.13411522984444293 0.42734850829813037 0.015486296933159744 0.54348933978720415 0.20268015410534143
decision_type=2 2 2 2 2 2 2 2 2 2 2 2 2 2 2 2 2 2
left_child=1 3 6 8 -5 -3 -2 13 11 -10 -6 -1 -4 -7 -11 -9 -17 -15
right_child=2 5 12 4 10 7 -8 15 9 14 -12 -13 -14 17 -16 16 -18 -19
leaf_value=0.0013807836539848092 -0.00090080847219641382 -0.00041139767599524544 -0.0020456002355323964 0.00080916151232154052 -6.9475759383437041e-05 0.00056411805705477655 -0.0017163833342781411 0.00012498582528754765 0.00042304062778790712 0.00078956359722595366 0.00052036826660047922 0.00099494512709558352 -0.0024962461224661112 0.00013179299601119682 0.0011723319353350848 -8.2742047967820439e-06 -0.00031179418390992077 0.00038965042895024274
leaf_weight=29 25 32 24 35 34 26 21 21 25 21 21 34 20 26 20 28 24 22
leaf_count=29 25 32 24 35 34 26 21 21 25 21 21 34 20 26 20 28 24 22
internal_value=2.49758e-05 0.000426562 -0.00175093 0.000736806 0.000409847 4.69901e-05 -0.00127314 0.000146775 0.000964917 0.00076672 0.000155737 0.00117255 -0.00225044 0.000360351 0.00097628 -6.97265e-05 -0.00014836 0.000249978
internal_weight=488 398 90 219 90 179 46 147 129 66 55 63 44 74 41 73 52 48
internal_count=488 398 90 219 90 179 46 147 129 66 55 63 44 74 41 73 52 48
is_linear=0
shrinkage=0.0426353


Tree=27
num_leaves=20
num_cat=0
split_feature=71 56 79 79 56 78 31 31 31 69 31 33 49 69 40 35 89 46 43
split_gain=0.17554 0.0239671 0.0104075 0.00734694 0.00602493 0.0049802 0.00361709 0.0033805 0.00293736 0.00242616 0.00227942 0.00108259 0.00095582 0.000804996 0.000784597 0.000591387 0.000449715 0.000398666 0.000350291
threshold=0.08963824155652883 0.01616561785665353 2.0909429176677614 -1.4095142966267613 -0.12635588031431913 -0.56371836959148569 0.51890027240966019 0.6313456859389398 0.39052488749860076 -0.94166335710982185 0.50076240851553078 0.31522332135125486 -0.82293666942126997 -1.2182457299127476 0.0049207242336084846 0.24209309018171773 -1.1773507395310523 -0.42637293310492452 0.0795165728454994
decision_type=2 2 2 2 2 2 2 2 2 2 2 2 2 2 2 2 2 2 2
left_child=1 3 7 8 10 -3 13 -2 -1 -6 12 -4 14 -7 -5 18 -15 -14 -8
right_child=2 5 11 4 9 6 15 -9 -10 -11 -12 -13 17 16 -16 -17 -18 -19 -20
leaf_value=0.00059451049188008259 -0.00090181219309026154 -0.00043198914581721624 -0.0019228229220786275 0.0014550647212336072 0.00010439159223874078 0.00058871194960699287 -7.6127937118292767e-05 -0.0016454847147897838 -0.00010509655815346801 0.00069385766609194211 0.00071737204250800523 -0.002347547798321989 0.00085004591138140265 0.00015782989110421411 0.0010774116804424905 -0.00026288829848242082 0.00040458512390965533 0.0011039124619470341 0.00014999800508233333
leaf_weight=20 25 33 20 20 22 20 33 20 24 30 38 24 22 29 20 20 25 23 20
leaf_count=20 25 33 20 20 22 20 33 20 24 30 38 24 22 29 20 20 25 23 20
internal_value=2.3911e-05 0.000405817 -0.00168823 0.000705392 0.000829217 4.13348e-05 0.000147591 -0.00123233 0.000212907 0.000444468 0.000991875 -0.00215449 0.00111459 0.000357648 0.00126624 -6.53428e-05 0.000272068 0.0009798 9.20261e-06
internal_weight=488 399 89 219 175 180 147 45 44 52 123 44 85 74 40 73 54 45 53
internal_count=488 399 89 219 175 180 147 45 44 52 123 44 85 74 40 73 54 45 53
is_linear=0
shrinkage=0.0426353


Tree=28
num_leaves=19
num_cat=0
split_feature=81 56 41 48 86 59 31 68 57 67 46 57 93 58 37 31 37 58
split_gain=0.160891 0.021967 0.00939994 0.00777762 0.00455276 0.00426314 0.00331305 0.00262419 0.0024341 0.00216797 0.00144733 0.00143335 0.00109961 0.000834907 0.00047797 0.000581953 0.000415892 0.000400295
threshold=0.08963824155652883 0.01616561785665353 0.23860780795276662 0.35092721230408219 -0.071605604141571785 -0.80277730384824397 0.51890027240966019 1.9772074364537606 0.084293322188176242 0.21837063785335167 -0.43777277238705253 0.11298662893007534 0.50608374306509119 -0.13411522984444293 0.015486296933159744 0.54348933978720415 0.019365425438794204 0.20268015410534143
decision_type=2 2 2 2 2 2 2 2 2 2 2 2 2 2 2 2 2 2
left_child=1 3 -2 8 -3 -5 13 -4 -1 -7 -10 -12 16 -6 -8 -16 -13 -15
right_child=2 4 7 5 6 9 14 -9 10 -11 11 12 -14 17 15 -17 -18 -19
leaf_value=0.00045518654703535744 -0.0011086426754816831 -0.00047085573566503665 -0.0022608485761943594 0.00073896908239758064 0.00052164466477442348 -6.5299695091246605e-05 9.8310043908088956e-05 -0.0016433409841156276 0.0012946074403584395 0.00049115332539847545 0.0011457702018804357 0.00078339342381163223 0.0010364851184549871 0.00011202972454237439 -6.5455798724253498e-06 -0.00028507078721035908 0.00051173240454833666 0.0003591353562111958
leaf_weight=20 38 27 29 35 27 35 23 22 20 20 28 21 20 26 30 25 20 22
leaf_count=20 38 27 29 35 27 35 23 22 20 20 28 21 20 26 30 25 20 22
internal_value=2.28915e-05 0.000388515 -0.00161625 0.000675318 3.95725e-05 0.000371128 0.000129648 -0.00199447 0.000887543 0.000137047 0.000966875 0.000893227 0.000777305 0.000331975 -6.48975e-05 -0.000133148 0.000650876 0.000225286
internal_weight=488 399 89 219 180 90 153 51 129 55 109 89 61 75 78 55 41 48
internal_count=488 399 89 219 180 90 153 51 129 55 109 89 61 75 78 55 41 48
is_linear=0
shrinkage=0.0426353


Tree=29
num_leaves=18
num_cat=0
split_feature=79 56 79 48 2 67 28 31 59 63 75 36 58 48 37 31 59
split_gain=0.14774 0.0197956 0.00922121 0.00712856 0.00399432 0.0034541 0.00343006 0.00288872 0.002295 0.00206566 0.00188228 0.00111038 0.00106992 0.00100261 0.000651023 0.000701226 0.000645553
threshold=0.085727807347322632 0.01616561785665353 2.0909429176677614 0.35092721230408219 0.06766068281815095 0.13658402326064148 74.025242633427709 0.51101081632764422 -0.61801780532534745 -0.18869132984566694 0.28693973602151579 0.22173695395975079 0.26450019862194185 -0.33028554765037627 0.015486296933159744 0.54348933978720415 0.42734850829813037
decision_type=2 2 2 2 2 2 2 2 2 2 2 2 2 2 2 2 2
left_child=1 3 6 8 -5 -3 -2 11 12 -10 -6 -7 -1 -4 -9 -16 -11
right_child=2 5 13 4 10 7 -8 14 9 16 -12 -13 -14 -15 15 -17 -18
leaf_value=0.00086083134675023351 -0.00076353533396665758 -0.00035932147135046643 -0.00179357329756957 0.00071135957775161223 -5.9819164410970099e-05 0.00020169757053683943 -0.0015005614624212409 0.0001588097036577985 0.00037815587832678666 0.00069502805873598514 0.00045867482579106818 0.00057599997220436497 0.0012122787746892863 -0.0022023079261639929 1.3254046776311916e-05 -0.0002796539839627034 0.0010375873443234744
leaf_weight=32 24 32 24 35 35 34 22 25 26 20 20 25 31 20 39 24 20
leaf_count=32 24 32 24 35 35 34 22 25 26 20 20 25 31 20 39 24 20
internal_value=2.19155e-05 0.000374683 -0.0015381 0.000646525 0.000355305 4.20943e-05 -0.00111603 0.000129477 0.000849702 0.000674005 0.000128724 0.0003603 0.00103377 -0.00197936 -2.52789e-05 -9.833e-05 0.000866308
internal_weight=488 398 90 219 90 179 46 147 129 66 55 59 63 44 88 63 40
internal_count=488 398 90 219 90 179 46 147 129 66 55 59 63 44 88 63 40
is_linear=0
shrinkage=0.0426353


Tree=30
num_leaves=18
num_cat=0
split_feature=27 56 57 56 67 79 59 50 47 93 47 31 65 47 53 45 43
split_gain=0.135108 0.0195073 0.00665083 0.00499829 0.00487005 0.00444979 0.00242386 0.00207 0.00190031 0.0013635 0.00125239 0.00123339 0.000936118 0.000777358 0.00060129 0.000575895 0.000604165
threshold=69.345340818310277 0.059807989529448789 0.066873152445010228 -0.12635588031431913 0.12600222380160561 2.0909429176677614 -0.61801780532534745 -0.067533665313238581 0.092870995682293775 0.28992936938751068 0.044049711257011903 0.50076240851553078 0.49130464736207186 0.04440436302474312 -0.052902751237654866 0.23909508942888949 0.063062587671158202
decision_type=2 2 2 2 2 2 2 2 2 2 2 2 2 2 2 2 2
left_child=1 2 -1 6 -3 -2 11 10 14 -8 -6 13 -7 -4 -5 16 -9
right_child=5 4 3 8 7 12 9 15 -10 -11 -12 -13 -14 -15 -16 -17 -18
leaf_value=5.868277706345074e-05 -0.0012436236271933451 -0.00054952608657013815 0.0011881316409432395 0.000116702242423408 0.000502347342825342 -0.0020815090595713509 0.00085406017502849747 -0.00015883050577766603 0.00071493291507595505 0.00040295906170744898 6.5265482780035682e-05 0.0007149255635002554 -0.0016784827297835338 0.0008696732673921418 0.00040124327065680265 -0.0002374881947526356 0.00012330731065442497
leaf_weight=38 36 27 38 27 26 22 21 22 24 29 22 25 20 22 27 22 37
leaf_count=38 36 27 38 27 26 22 21 22 24 29 22 25 20 22 27 22 37
internal_value=3.4059e-05 0.000345582 0.000578282 0.000670981 -2.88268e-05 -0.00159145 0.000827971 8.01568e-05 0.000399268 0.000592422 0.000302018 0.000966529 -0.00188959 0.00107136 0.000258973 -5.13166e-05 1.81034e-05
internal_weight=485 407 251 213 156 78 135 129 78 50 48 85 42 60 54 81 59
internal_count=485 407 251 213 156 78 135 129 78 50 48 85 42 60 54 81 59
is_linear=0
shrinkage=0.0426353


Tree=31
num_leaves=18
num_cat=0
split_feature=27 1 57 61 67 59 67 50 46 59 28 53 53 68 57 45 43
split_gain=0.123833 0.0168042 0.00570906 0.00525479 0.0042733 0.00410325 0.003701 0.00217799 0.00188186 0.00173844 0.00142407 0.00124826 0.00124918 0.000894027 0.000743029 0.000482211 0.000372832
threshold=69.345340818310277 0.24519767923165994 0.083014708099794957 -0.44654173050022899 0.12600222380160561 -0.15809084301518347 0.21909914041558892 -0.067533665313238581 -0.44716271959063608 -0.58464095023668861 73.31629256985812 -0.06402741996122098 0.062688097739068832 -0.56820914401062006 0.15971959626035415 0.23909508942888949 0.081045162781577654
decision_type=2 2 2 2 2 2 2 2 2 2 2 2 2 2 2 2 2
left_child=1 4 6 8 -1 10 -3 13 -4 14 -2 -5 -13 -6 -10 16 -9
right_child=5 2 3 11 7 -7 -8 15 9 -11 -12 12 -14 -15 -16 -17 -18
leaf_value=-0.00052609684765356646 -0.0009979272090664508 -0.00015719980772985445 0.0012003035713587195 0.00022077839269100106 8.050190732032111e-05 -0.0018753822543425937 0.0005070824853730361 -0.00013661379043300575 0.0010466219353125366 0.00049052685072188717 -0.0014835379213938443 0.00070737614799010033 0.00032282052296253772 0.00045141674215354142 0.00072944567356690289 -0.0002564048545430926 0.00010637606276688934
leaf_weight=27 21 31 22 37 21 34 30 22 29 29 23 34 28 27 25 21 24
leaf_count=27 21 31 22 37 21 34 30 22 29 29 23 34 28 27 25 21 24
internal_value=3.26069e-05 0.000330848 0.000531389 0.000639601 -4.34e-05 -0.0015236 0.000169496 6.99288e-05 0.000849716 0.000756789 -0.00125177 0.000416753 0.000533706 0.000289142 0.000899781 -8.71191e-05 -9.83648e-06
internal_weight=485 407 265 204 142 78 61 115 105 83 44 99 62 48 54 67 46
internal_count=485 407 265 204 142 78 61 115 105 83 44 99 62 48 54 67 46
is_linear=0
shrinkage=0.0426353


Tree=32
num_leaves=18
num_cat=0
split_feature=27 56 57 56 67 79 59 69 50 47 75 56 47 27 33 45 43
split_gain=0.113499 0.0164042 0.00572682 0.00424631 0.00409361 0.00392318 0.00200459 0.00176492 0.00176063 0.00148787 0.00118042 0.00108768 0.00100761 0.000793823 0.000789944 0.000503351 0.000460628
threshold=69.345340818310277 0.059807989529448789 0.066873152445010228 -0.12635588031431913 0.12771495769865737 2.0909429176677614 -0.61801780532534745 -1.0731755033693366 -0.067533665313238581 0.092870995682293775 0.43325894916314373 -0.20548854253676502 0.044049711257011903 52.498057018708884 0.31522332135125486 0.23909508942888949 0.063062587671158202
decision_type=2 2 2 2 2 2 2 2 2 2 2 2 2 2 2 2 2
left_child=1 2 -1 6 -3 -2 11 -5 12 -9 -8 13 -6 -4 -7 16 -10
right_child=5 4 3 7 8 14 10 9 15 -11 -12 -13 -14 -15 -16 -17 -18
leaf_value=4.7976820658779915e-05 -0.001132042276821086 -0.00048364733776922473 0.0012028802241440665 4.21405002028047e-05 0.00046229151951748224 -0.0015446556921336577 0.00037749584752769103 0.00032259794792247461 -0.00013752870628946261 0.0007765421357071511 0.00080035719740399953 0.0006954068926112864 6.5219180669817174e-05 0.00086570066538787789 -0.0019148811016700519 -0.00021755342017725892 0.00011247626427196676
leaf_weight=38 36 29 22 22 26 20 30 35 21 21 20 33 21 30 22 22 37
leaf_count=38 36 29 22 22 26 20 30 35 21 21 20 33 21 30 22 22 37
internal_value=3.12167e-05 0.000316742 0.000530133 0.000616151 -2.65977e-05 -0.00145864 0.000760851 0.00036571 7.77679e-05 0.000492827 0.00054664 0.000886857 0.000284876 0.00100835 -0.00173858 -4.39082e-05 2.19572e-05
internal_weight=485 407 251 213 156 78 135 78 127 56 50 85 47 52 42 80 58
internal_count=485 407 251 213 156 78 135 78 127 56 50 85 47 52 42 80 58
is_linear=0
shrinkage=0.0426353


Tree=33
num_leaves=19
num_cat=0
split_feature=27 56 57 56 79 69 57 69 31 47 79 33 65 46 68 37 0 69
split_gain=0.104027 0.0150352 0.0052489 0.00389194 0.00359578 0.00303928 0.00178906 0.00161763 0.00153029 0.0013637 0.0011544 0.000977655 0.000769173 0.000755403 0.0010243 0.000583236 0.000411448 0.00020009
threshold=69.345340818310277 0.059807989529448789 0.066873152445010228 -0.12635588031431913 2.0909429176677614 -0.56718779929496621 0.046621734395591689 -1.0731755033693366 0.50162668930615251 0.092870995682293775 -1.3331310011504438 1.0000000180025095e-35 0.49130464736207186 -0.44716271959063608 0.6727867536521992 0.021445929065218503 86068000.000000015 -0.95290334831090184
decision_type=2 2 2 2 2 2 2 2 2 2 2 2 2 2 2 2 2 2
left_child=1 2 -1 8 -2 6 -3 -5 10 -9 -4 -8 -6 -12 -15 16 -13 -17
right_child=4 5 3 7 12 -7 11 9 -10 -11 13 15 -14 14 -16 17 -18 -19
leaf_value=4.5931307075458978e-05 -0.0010837772394136284 0.00037432633573749458 0.00052965913978463182 4.0343826079176326e-05 -0.0018384227163971737 -0.00050260819370399532 0.00024439878333418376 0.00030884387282227084 0.00049906936193772891 0.00074343399508789787 0.0011043637623748407 0.00013869269571251418 -0.0014730972131564843 0.00065852856199192491 0.0010341038562485941 -0.0002897983485669795 -0.00012075427090726178 -0.00010959045671041245
leaf_weight=38 36 25 20 22 22 21 20 35 38 21 22 25 20 33 22 21 20 24
leaf_count=38 36 25 20 22 22 21 20 35 38 21 22 25 20 33 22 21 20 24
internal_value=2.98857e-05 0.000303238 0.00050753 0.000589882 -0.00139645 -2.54637e-05 4.87587e-05 0.000350118 0.000728411 0.000471815 0.000818257 -2.52339e-05 -0.00166446 0.000893217 0.000808759 -8.51523e-05 2.33829e-05 -0.000193687
internal_weight=485 407 251 213 78 156 135 78 135 56 97 110 42 77 55 90 45 45
internal_count=485 407 251 213 78 156 135 78 135 56 97 110 42 77 55 90 45 45
is_linear=0
shrinkage=0.0426353


Tree=34
num_leaves=18
num_cat=0
split_feature=27 56 57 56 67 59 59 50 77 59 28 93 56 68 27 45 43
split_gain=0.0953458 0.0137839 0.0047355 0.00373161 0.00341821 0.0033411 0.00178953 0.00159818 0.00157988 0.00137267 0.00131298 0.00101301 0.000946675 0.000701364 0.000664991 0.00049339 0.000523661
threshold=69.345340818310277 0.064437225082992725 0.066873152445010228 -0.12076332311975663 0.12600222380160561 -0.15809084301518347 -0.61801780532534745 -0.067533665313238581 0.20629703584679196 -0.014726793872234979 73.31629256985812 0.28992936938751068 -0.20548854253676502 -0.56820914401062006 52.498057018708884 0.23909508942888949 0.063062587671158202
decision_type=2 2 2 2 2 2 2 2 2 2 2 2 2 2 2 2 2
left_child=1 2 -1 6 -3 10 12 13 -5 -10 -2 -8 14 -6 -4 16 -9
right_child=5 4 3 8 7 -7 11 15 9 -11 -12 -13 -14 -15 -16 -17 -18
leaf_value=4.3973009376877903e-05 -0.00084788298199707263 -0.00046471881964083766 0.0011065769664941952 6.9406429003314961e-05 7.267365897264937e-05 -0.0016543480701683574 0.00072628986876042132 -0.00016589333247629678 0.00025946022485985734 0.00070260993405761379 -0.0013141682229114871 0.00034276964071751294 0.00063657540801762209 0.00040120021776796549 0.00079796883305794611 -0.0002318733210058136 0.00010488646916308775
leaf_weight=38 21 27 22 28 21 34 21 20 27 24 23 31 33 27 30 21 37
leaf_count=38 21 27 22 28 21 34 21 20 27 24 23 31 33 27 30 21 37
internal_value=2.86116e-05 0.000290309 0.000482878 0.000560093 -2.93808e-05 -0.00133691 0.000694662 6.39059e-05 0.000326727 0.000468001 -0.00109162 0.000497653 0.000815185 0.00025747 0.000928534 -5.52103e-05 9.87601e-06
internal_weight=485 407 254 216 153 78 137 126 79 51 44 52 85 48 52 78 57
internal_count=485 407 254 216 153 78 137 126 79 51 44 52 85 48 52 78 57
is_linear=0
shrinkage=0.0426353


Tree=35
num_leaves=21
num_cat=0
split_feature=81 52 35 57 50 46 33 68 36 57 69 58 58 33 58 53 66 78 69 27
split_gain=0.106175 0.0119903 0.00648309 0.00445364 0.00317866 0.00293297 0.00273494 0.00157939 0.00148762 0.00141728 0.00129483 0.00102372 0.000798708 0.00072894 0.000617178 0.000596035 0.000516451 0.000488772 0.000414137 0.000286842
threshold=0.08963824155652883 0.07380929782329701 0.26951267393749018 0.080837673006312297 0.046764253429854262 -0.45123091847357127 -0.48624999799756063 1.9856214198280786 0.22173695395975079 0.11144046680481169 -0.92051270672758834 -0.41728656602205066 0.51886013812322684 0.31976201777648433 -0.52281689660768393 -0.091820160278171928 -0.32826892971685345 -0.53374282323007305 -1.0231082222867844 56.114770850359612
decision_type=2 2 2 2 2 2 2 2 2 2 2 2 2 2 2 2 2 2 2 2
left_child=1 3 -2 6 8 -5 -1 13 17 -7 -10 15 16 -4 -6 -11 -13 -3 -19 -20
right_child=2 4 7 5 14 9 -8 -9 10 11 -12 12 -14 -15 -16 -17 -18 18 19 -21
leaf_value=0.00047592436004894196 -0.00078438480986258493 -0.0001107814049879154 -0.0014274553744239942 0.0011185733153609321 -0.00040689809439498358 0.00084364806218627209 -0.00016829009867340032 -0.0011671376679362204 0.00061655004906863544 0.00017997769639281616 0.00013139928432305743 0.00084182224657542869 0.00040615015193132004 -0.0017698231144072322 -8.6211631615922723e-05 0.00050156882489963003 0.00055230438270187474 1.6673442403147801e-05 0.00032079902846882536 9.5189048841207513e-05
leaf_weight=25 38 22 20 20 24 27 23 20 20 22 20 24 25 26 20 20 21 39 21 20
leaf_count=25 38 22 20 20 24 27 23 20 20 22 20 24 25 26 20 20 21 39 21 20
internal_value=-1.66336e-05 0.000303936 -0.00122802 0.00052717 5.54991e-05 0.000635828 0.000167238 -0.00148344 0.00015361 0.000566369 0.000373975 0.000499525 0.00059937 -0.00162097 -0.000261132 0.000333116 0.000706714 6.71925e-05 0.000116135 0.000210745
internal_weight=497 393 104 207 186 159 48 66 142 139 40 112 70 46 44 42 45 102 80 41
internal_count=497 393 104 207 186 159 48 66 142 139 40 112 70 46 44 42 45 102 80 41
is_linear=0
shrinkage=0.0426353


Tree=36
num_leaves=19
num_cat=0
split_feature=71 56 60 56 50 27 47 68 31 36 49 33 58 67 40 48 40 66
split_gain=0.0973143 0.0110461 0.00603583 0.00553846 0.00360336 0.00220055 0.00161106 0.00140836 0.00130307 0.000940832 0.000914683 0.000845569 0.000747696 0.000617709 0.000610499 0.000282349 0.000294949 0.000264217
threshold=0.08963824155652883 -0.12076332311975663 -0.019939284761861974 -0.44188486168220842 0.037341405222851697 45.429272005271436 0.092870995682293775 1.9856214198280786 0.50547780693466449 0.22173695395975079 -0.80360661070531358 0.31522332135125486 -0.36603056943180134 0.23860470762589167 0.0024745252644713393 -0.34284934406092843 -0.026315930891210065 -0.32826892971685345
decision_type=2 2 2 2 2 2 2 2 2 2 2 2 2 2 2 2 2 2
left_child=1 3 -2 5 6 -1 9 11 10 14 13 -4 -6 -5 15 -3 -17 -12
right_child=2 4 7 8 12 -7 -8 -9 -10 -11 17 -13 -14 -15 -16 16 -18 -19
leaf_value=0.00042100776575575654 -0.00073858385972739942 2.9468343197332481e-05 -0.0013344277461906401 0.00075992912658902204 -0.00036179193967936208 -0.00018915850527425658 0.00054326227899503831 -0.0011173763618693791 0.00043836198482114527 0.00034405155451881412 0.00075454727685035899 -0.0017001879625939324 -3.0090575042885445e-05 0.0010701624750206883 -7.8826900385378065e-05 0.00029313293396168245 9.7438116186486035e-05 0.0005581586534982888
leaf_weight=22 37 28 20 28 30 21 20 20 31 31 20 27 21 20 32 28 28 33
leaf_count=22 37 28 20 28 30 21 20 20 31 31 20 27 21 20 32 28 28 33
internal_value=-1.59244e-05 0.000290978 -0.00117566 0.00054326 8.84579e-05 0.00012302 0.000184248 -0.00141703 0.000680157 0.000135403 0.000754371 -0.00154455 -0.000225209 0.000889193 7.96435e-05 0.000140013 0.000195286 0.000632268
internal_weight=497 393 104 175 218 43 167 67 132 147 101 47 51 48 116 84 56 53
internal_count=497 393 104 175 218 43 167 67 132 147 101 47 51 48 116 84 56 53
is_linear=0
shrinkage=0.0426353


Tree=37
num_leaves=20
num_cat=0
split_feature=79 52 42 56 50 33 58 68 36 27 27 49 58 55 60 68 69 66 37
split_gain=0.0892299 0.0101195 0.00551195 0.00399827 0.00215105 0.00202875 0.00191594 0.00181326 0.00144914 0.00120558 0.00111085 0.000900717 0.000592857 0.000517916 0.000461209 0.000403761 0.0005505 0.000228238 9.19366e-05
threshold=0.085727807347322632 0.07380929782329701 0.3050897023111005 -0.44188486168220842 0.043082024786719179 -0.48624999799756063 -0.21266140326720909 1.9772074364537606 0.22173695395975079 70.954196144634054 60.079510688404319 -0.80360661070531358 -0.36603056943180134 -0.16739631648979239 -0.27504062107603205 -0.59279031568428875 -1.0231082222867844 -0.32826892971685345 0.029891148770382622
decision_type=2 2 2 2 2 2 2 2 2 2 2 2 2 2 2 2 2 2 2
left_child=1 3 9 5 8 -1 14 -4 15 -2 11 13 -6 -8 -5 -3 18 -13 -17
right_child=2 4 7 6 12 -7 10 -9 -10 -11 -12 17 -14 -15 -16 16 -18 -19 -20
leaf_value=0.00043182453932881103 -0.00055453044654926275 -7.295692998500556e-05 -0.0015857622491127728 0.00053160798445424482 -0.00035293729564525573 -0.00015531230143903804 0.00075241118379297306 -0.0011011321363468588 0.00035244965919383392 -0.00099599811607571837 0.00041251096016552596 0.00072237689415901164 -3.8632864897073115e-05 0.0010490682873698369 0.00027748101564384759 6.8649726584691203e-05 0.00024798656297907667 0.00052736107876300399 -6.0625119355025527e-05
leaf_weight=20 23 34 36 21 24 23 23 23 39 22 22 20 20 20 34 20 29 24 20
leaf_count=20 23 34 36 21 24 23 23 23 39 22 22 20 20 20 34 20 29 24 20
internal_value=-1.52455e-05 0.000278633 -0.00112577 0.000483714 5.03976e-05 0.000117775 0.000579661 -0.00139684 0.000131106 -0.000770359 0.000683177 0.000751621 -0.000210072 0.000890391 0.000374511 4.72968e-05 0.000106552 0.000616005 4.0123e-06
internal_weight=497 393 104 207 186 43 164 59 142 45 109 87 44 43 55 103 69 44 40
internal_count=497 393 104 207 186 43 164 59 142 45 109 87 44 43 55 103 69 44 40
is_linear=0
shrinkage=0.0426353


Tree=38
num_leaves=20
num_cat=0
split_feature=71 56 60 56 50 27 47 68 31 58 36 49 33 58 28 40 47 93 69
split_gain=0.0818393 0.00933705 0.00507156 0.00467372 0.00303691 0.00186282 0.00139925 0.00119992 0.00108656 0.00089222 0.00111306 0.000759055 0.000736958 0.000631735 0.000444882 0.000388483 0.000333333 0.000252768 0.000240273
threshold=0.08963824155652883 -0.12076332311975663 -0.019939284761861974 -0.44188486168220842 0.037341405222851697 45.429272005271436 0.092870995682293775 1.9856214198280786 0.50547780693466449 -0.64576759071286938 0.22173695395975079 -0.80360661070531358 0.31522332135125486 -0.36603056943180134 66.466794077198998 0.0044587355292752253 0.040884108527271271 0.16410608541053792 -0.99054635159457383
decision_type=2 2 2 2 2 2 2 2 2 2 2 2 2 2 2 2 2 2 2
left_child=1 3 -2 5 6 -1 9 12 11 15 16 14 -4 -6 -5 -3 -11 -18 -13
right_child=2 4 7 8 13 -7 -8 -9 -10 10 -12 18 -14 -15 -16 -17 17 -19 -20
leaf_value=0.00038692266940012961 -0.00067748564981143103 8.1450978061146627e-05 -0.0012209234516464362 0.0007006670136506818 -0.00033285073826646292 -0.0001744718689927914 0.00050317502597403566 -0.0010227895010377522 0.00040375612149226071 -2.8213888932305951e-05 0.00046588649891873151 0.0004813011303664576 -0.0015623861458622938 -2.7954521258075339e-05 0.00096231723458079931 -0.00015614018205110041 7.9818014672793607e-05 0.00026443102677499854 0.0006636722313431183
leaf_weight=22 37 29 20 27 30 21 20 20 31 20 22 24 27 21 21 22 26 28 29
leaf_count=22 37 29 20 27 30 21 20 20 31 20 22 24 27 21 21 22 26 28 29
internal_value=-1.45955e-05 0.000266849 -0.00107813 0.000498796 8.06536e-05 0.000112753 0.000168593 -0.00129938 0.000624552 0.000123072 0.000199631 0.000692321 -0.00141708 -0.000207305 0.000815139 -2.10393e-05 0.000120474 0.000175543 0.000581089
internal_weight=497 393 104 175 218 43 167 67 132 147 96 101 47 51 48 51 74 54 53
internal_count=497 393 104 175 218 43 167 67 132 147 96 101 47 51 48 51 74 54 53
is_linear=0
shrinkage=0.0426353


Tree=39
num_leaves=19
num_cat=0
split_feature=71 36 41 62 78 90 31 69 28 41 49 59 69 69 43 47 63 59
split_gain=0.0750096 0.00850727 0.00467014 0.00293228 0.0022462 0.00180633 0.00159739 0.00136557 0.00109671 0.000934834 0.000933797 0.000742752 0.000700964 0.000623927 0.000593509 0.000538492 0.000458737 0.000454398
threshold=0.08963824155652883 -0.036103448748551266 0.23860780795276662 -0.26868902144312845 -0.56371836959148569 0.17109129036632947 0.51220746014789575 5.6451139147427716 71.020946156511854 0.20120541434121084 -0.3615971054961083 -0.61801780532534745 -0.95156699347955609 -1.0577639109087602 -0.28732470250424141 0.040032126397327512 0.024851376454776145 0.038903276822066464
decision_type=2 2 2 2 2 2 2 2 2 2 2 2 2 2 2 2 2 2
left_child=1 3 8 -1 -3 10 9 17 -2 12 11 15 -6 -8 -12 -5 -15 -4
right_child=2 4 7 5 6 -7 13 -9 -10 -11 14 -13 -14 16 -16 -17 -18 -19
leaf_value=7.7304418220036853e-05 -0.00045653626676182179 -0.00030395557889197739 -0.00155596008479315 0.00093020470404262608 1.5164587863728268e-05 0.00016439736087250049 -0.00014307310280163427 -0.00098773119085000176 -0.00089276489305147217 0.00049713380539401556 0.0002734264564037129 0.00050666354178736613 0.00032916820804131878 0.00020488354096657153 0.00055207602163421968 0.00065287789699154067 -5.7391207075315947e-05 -0.0012720013611837151
leaf_weight=33 20 28 20 20 28 23 38 21 22 21 24 37 24 27 33 35 22 21
leaf_count=33 20 28 20 20 28 23 38 21 22 21 24 37 24 27 33 35 22 21
internal_value=-1.39732e-05 0.000255472 -0.00103216 0.000445436 4.83307e-05 0.000516065 0.000109981 -0.00126732 -0.000685037 0.000257047 0.00057035 0.000654363 0.000160089 -1.34199e-05 0.00043475 0.000753724 8.71275e-05 -0.00141052
internal_weight=497 393 104 205 188 172 160 62 42 73 149 92 52 87 57 55 49 41
internal_count=497 393 104 205 188 172 160 62 42 73 149 92 52 87 57 55 49 41
is_linear=0
shrinkage=0.0426353


Tree=40
num_leaves=19
num_cat=0
split_feature=79 36 57 41 89 88 68 90 31 58 48 48 53 77 90 55 40 63
split_gain=0.0605225 0.00763413 0.00362848 0.0033736 0.00212728 0.00135048 0.00132223 0.00111647 0.000999641 0.000773774 0.000539423 0.000537643 0.000404117 0.000513659 0.000335864 0.000216742 0.000247199 7.93465e-05
threshold=0.085727807347322632 -0.036103448748551266 0.067605823737712262 0.23860780795276662 -1.330300640380349 -0.30903678242256433 1.9772074364537606 0.15210330595052393 0.55332299970780785 0.42474635768344599 0.19401854303559909 0.18026126213652091 -0.32183881676301396 0.29523173212062087 -0.015044619952929966 -0.084886665273691556 0.0030286657191539511 0.2340183126138406
decision_type=2 2 2 2 2 2 2 2 2 2 2 2 2 2 2 2 2 2
left_child=1 2 -1 -2 10 -6 -5 11 9 15 -3 12 13 -4 -13 -7 17 -17
right_child=3 4 7 6 5 8 -8 -9 -10 -11 -12 14 -14 -15 -16 16 -18 -19
leaf_value=1.7450334878385158e-05 -0.00068021194175157788 0.00015619128837710342 0.00039161693456528731 -0.0013800961706704009 -0.00033185075685339058 -9.8039899135288916e-05 -0.0009614601186457109 0.00021717053184673233 -0.00021799782679138876 0.00031137782037776089 0.00046557814177375308 0.00055554172476751271 0.0007350784558071634 0.00066821865230980344 0.00033818730588506743 5.8884613222414207e-05 -4.5006108659049805e-05 0.0001762208347306009
leaf_weight=35 38 21 23 32 24 22 24 22 27 20 20 24 31 26 28 20 27 22
leaf_count=35 38 21 23 32 24 22 24 22 27 20 20 24 31 26 28 20 27 22
internal_value=-1.86745e-05 0.000214312 0.000409307 -0.000990278 3.27649e-05 -3.66685e-05 -0.00120068 0.000498366 1.46676e-05 7.12618e-05 0.000307112 0.000545231 0.000614604 0.000538385 0.000438505 1.84891e-05 5.56433e-05 0.000120346
internal_weight=486 392 189 94 203 162 56 154 138 111 41 132 80 49 52 91 69 42
internal_count=486 392 189 94 203 162 56 154 138 111 41 132 80 49 52 91 69 42
is_linear=0
shrinkage=0.0426353


Tree=41
num_leaves=19
num_cat=0
split_feature=79 56 59 48 2 50 78 40 48 59 28 31 67 90 49 56 68 49
split_gain=0.0554717 0.0071521 0.00317352 0.00303638 0.00202356 0.00194036 0.00167957 0.00160174 0.000867338 0.000767618 0.000810328 0.000747541 0.000653365 0.000603341 0.000441738 0.000402124 0.000357169 0.000238701
threshold=0.085727807347322632 0.059807989529448789 -1.2005598954037535 0.3609406597106844 0.06766068281815095 -0.060340452189306122 -0.035069627422696419 0.019784462685623571 -0.18778973498197413 -0.76822246740555533 63.06564567318194 0.44260556623773484 0.13020913018236829 -0.25834751468285377 -0.99530762464849587 0.12461907727118231 1.0067784902876524 -1.2654138093606966
decision_type=2 2 2 2 2 2 2 2 2 2 2 2 2 2 2 2 2 2
left_child=1 3 -2 9 -5 13 -4 -6 -8 10 -1 -11 -7 -3 -14 -16 -12 -13
right_child=2 5 6 4 7 12 8 -9 -10 11 16 17 14 -15 15 -17 -18 -19
leaf_value=0.00037515440676256861 -0.00047154149836383264 0.00033587077054049967 -0.00079247748279476281 0.0004231892890105815 0.0001965702196592366 -0.00034778303934891345 -0.0010665868356148104 -0.00026691827223326376 -0.0014290578359372646 0.00052672329007594698 0.00082385279151019801 0.00036680897178249545 8.729191930262937e-05 6.4741733374857081e-05 -1.3968687513140674e-05 -0.00024133165959184605 0.0005751894001731761 0.00015850537264278173
leaf_weight=21 20 25 25 34 33 20 28 23 21 38 21 20 22 37 26 31 21 20
leaf_count=21 20 25 25 34 33 20 28 23 21 38 21 20 22 37 26 31 21 20
internal_value=-1.78783e-05 0.000205175 -0.000948058 0.000357212 0.000163735 -1.29658e-05 -0.00107685 6.20887e-06 -0.00122193 0.000480709 0.000591399 0.000391305 -0.000130098 0.000174068 -7.49879e-05 -0.000137622 0.000699521 0.000262657
internal_weight=486 392 94 231 90 161 74 56 49 141 63 78 99 62 79 57 42 40
internal_count=486 392 94 231 90 161 74 56 49 141 63 78 99 62 79 57 42 40
is_linear=0
shrinkage=0.0426353


Tree=42
num_leaves=19
num_cat=0
split_feature=56 56 59 48 50 2 40 79 48 69 59 28 89 58 49 56 68 90
split_gain=0.050912 0.00664742 0.00300126 0.00284624 0.00188704 0.00185469 0.00146807 0.00136217 0.000794956 0.000737668 0.000715839 0.000679083 0.000613593 0.000553091 0.000347915 0.000401799 0.000327362 0.000255315
threshold=0.27070993510447905 0.055290369787819739 -1.2005598954037535 0.3609406597106844 -0.060340452189306122 0.06766068281815095 0.019784462685623571 1.6322511462332379 -0.18778973498197413 -0.71503612075068401 -0.76822246740555533 63.06564567318194 -0.56561824711699138 -0.57380797740629752 -0.99530762464849587 0.12461907727118231 1.0067784902876524 -0.066647643408468668
decision_type=2 2 2 2 2 2 2 2 2 2 2 2 2 2 2 2 2 2
left_child=1 3 -2 10 13 -5 -7 -4 -9 14 11 -1 17 -3 -6 -16 -13 -12
right_child=2 4 7 5 9 6 -8 8 -10 -11 12 16 -14 -15 15 -17 -18 -19
leaf_value=0.00036784930780724406 -0.00045143716413813078 1.087010057526949e-05 -0.00077778301621695355 0.00040514646664408112 8.3570197401565093e-05 0.00018818938171419808 -0.00025553813177785917 -0.0010211125323032211 -0.0013681294630653593 -0.0003303466143858139 0.00036705022933506424 0.00078872754764637435 0.00052832578755588353 0.00027576723455200261 -8.3360810754202679e-07 -0.00022726340422903987 0.00055066600115100356 0.00016606702493318146
leaf_weight=20 20 23 24 34 22 33 23 28 21 24 27 21 30 38 28 29 21 20
leaf_count=20 20 23 24 34 22 33 23 28 21 24 27 21 30 38 28 29 21 20
internal_value=-1.71161e-05 0.000195163 -0.000914166 0.000343553 -1.20402e-05 0.000156754 5.94415e-06 -0.00104094 -0.00116983 -0.000123337 0.000464502 0.000572327 0.000377681 0.000175888 -6.04485e-05 -0.000116035 0.000669697 0.000281525
internal_weight=486 393 93 229 164 90 56 73 49 103 139 62 77 61 79 57 42 47
internal_count=486 393 93 229 164 90 56 73 49 103 139 62 77 61 79 57 42 47
is_linear=0
shrinkage=0.0426353


Tree=43
num_leaves=20
num_cat=0
split_feature=79 42 56 59 89 86 67 48 50 48 67 59 68 90 67 37 47 56 30
split_gain=0.0466646 0.00603497 0.00297126 0.00267322 0.00179393 0.0014992 0.00135506 0.000856414 0.000724041 0.000614519 0.00057592 0.00056925 0.000587487 0.000483767 0.000305738 0.000300094 0.000274798 0.000259679 0.000125684
threshold=0.085727807347322632 -0.021165479510335868 -0.45888593629619906 -1.2005598954037535 -1.330300640380349 0.32827699419367323 0.2154196926241406 -0.18778973498197413 0.073852676182959112 0.24440479546275992 0.14460090458496655 -0.75528054393381361 0.064393527614010196 0.022730216978807536 0.13941411954964175 0.019365425438794204 0.042766744780271836 0.18094654925259032 0.0012096094196679659
decision_type=2 2 2 2 2 2 2 2 2 2 2 2 2 2 2 2 2 2 2
left_child=1 2 -1 -2 10 -5 8 -7 14 11 -3 16 -13 15 -6 -11 -4 18 -16
right_child=3 4 9 5 6 7 -8 -9 -10 13 -12 12 -14 -15 17 -17 -18 -19 -20
leaf_value=-5.8476994687143138e-05 -0.00043218997640349417 0.00012569272177706298 0.00070630230703399731 -0.00067240594195287285 -0.00019202776083378993 -0.0009743010780266702 0.0002156088517476735 -0.0013259052540420739 -0.00028605147357943544 0.0002943379601163086 0.00044537480112656532 0.00054345637815786103 0.00025093217852742249 0.00016931326678150724 -9.3038518188820242e-06 0.00052015347034590413 0.00049427223184193955 8.4515612538581367e-05 -0.00014444404819790305
leaf_weight=26 20 21 25 20 20 34 32 20 28 20 20 26 24 22 29 23 20 34 22
leaf_count=26 20 21 25 20 20 34 32 20 28 20 20 26 24 22 29 23 20 34 22
internal_value=-1.63863e-05 0.000188195 0.000364247 -0.000869535 2.92353e-05 -0.000987736 -3.34822e-05 -0.00110452 -9.34139e-05 0.00043294 0.000281635 0.000502055 0.000403045 0.000331926 -4.20439e-05 0.000415123 0.000612067 -6.75353e-06 -6.75996e-05
internal_weight=486 392 186 94 206 74 165 54 133 160 41 95 50 65 105 43 45 85 51
internal_count=486 392 186 94 206 74 165 54 133 160 41 95 50 65 105 43 45 85 51
is_linear=0
shrinkage=0.0426353


Tree=44
num_leaves=19
num_cat=0
split_feature=66 33 57 59 58 40 40 73 58 85 40 59 58 41 47 69 34 42
split_gain=0.0428535 0.00562903 0.00267479 0.00253089 0.00180355 0.00168513 0.00117935 0.00112461 0.00105903 0.000651152 0.000615208 0.000614284 0.000483725 0.000346855 0.000310274 0.00018341 0.000129126 9.10305e-05
threshold=0.37167932321226332 -0.0077792480767011696 0.083014708099794957 -1.2005598954037535 -0.40794955427087665 0.024248885058036376 -0.011486722969466033 -0.044686326508598405 -0.11274192145690044 0.45666512166914269 0.0024745252644713393 -0.60192867445046849 0.30518751241652514 -0.33993935842934192 0.042918893153942497 -0.62798401840996976 -0.0021434509465372456 0.27544196972016566
decision_type=2 2 2 2 2 2 2 2 2 2 2 2 2 2 2 2 2 2
left_child=1 2 5 -2 10 -1 -5 9 13 -6 -3 14 -8 -4 -10 -12 -9 -11
right_child=3 4 8 6 7 -7 12 16 11 17 15 -13 -14 -15 -16 -17 -18 -19
leaf_value=0.00025571816688439773 -0.00041376341735523689 -3.6663058271907726e-06 0.00041689927227584242 -0.00073785628442699785 0.00044356709027152009 -0.00023748856672617941 -0.0012153097588503906 3.290929061194436e-05 0.00066690834663383288 0.00020882977296663853 -0.00016521889963154863 0.00035902131922209218 -0.00093399643162972933 0.0002081412995227467 0.00046850362897812918 -0.00033321921005115881 -0.00011846232956015954 8.1734138628872705e-05
leaf_weight=34 20 35 23 28 20 20 25 20 38 21 27 31 20 39 23 21 21 20
leaf_count=34 20 35 23 28 20 20 25 20 38 21 27 31 20 39 23 21 21 20
internal_value=-1.56877e-05 0.000179068 0.000331243 -0.000838687 7.97347e-06 7.3049e-05 -0.000955105 0.000128058 0.000421779 0.000244122 -0.0001396 0.000513563 -0.00109028 0.000285584 0.0005921 -0.000238719 -4.46225e-05 0.000146832
internal_weight=486 393 208 93 185 54 73 102 154 61 83 92 45 62 61 48 41 41
internal_count=486 393 208 93 185 54 73 102 154 61 83 92 45 62 61 48 41 41
is_linear=0
shrinkage=0.0426353


Tree=45
num_leaves=19
num_cat=0
split_feature=27 56 48 50 76 50 49 56 68 56 70 48 67 27 75 37 33 28
split_gain=0.0433657 0.00516884 0.00206853 0.00180577 0.00180444 0.00139998 0.000843678 0.000721034 0.0006849 0.000638023 0.000499313 0.000426293 0.000370815 0.000356384 0.000268921 0.000210336 0.000125718 0.000125394
threshold=68.537471369742789 0.064437225082992725 0.3609406597106844 0.026360029079268894 0.47507064266538929 -0.067533665313238581 -0.51035823092978083 0.011991902358551954 1.0650433425036401 -0.10276768007469561 0.19423319524815694 0.18373492468503666 0.16833698416373319 48.828294464726419 0.46785458210360936 0.023669491348970621 -0.44262044154911057 66.092216791128791
decision_type=2 2 2 2 2 2 2 2 2 2 2 2 2 2 2 2 2 2
left_child=1 2 7 9 6 11 -2 8 13 16 -6 -3 -7 14 -1 -14 -4 -15
right_child=4 5 3 -5 10 12 -8 -9 -10 -11 -12 -13 15 17 -16 -17 -18 -19
leaf_value=0.00032701340229948959 -0.00047934981596440646 5.7080122955840268e-05 0.00045275799909803426 -0.0001482211571784841 -0.00093010862132661453 -0.00019739595474685211 -0.0008662736560292951 0.00020314543081872914 0.0002987925692608612 8.2814279288735487e-05 -0.0012185529024585928 0.0002966637060340754 3.4158247205403832e-05 0.00053884370729979881 0.00053869717411191064 -0.00012706390456823684 0.00030506282454283428 0.00068634881013392645
leaf_weight=20 21 27 20 25 24 38 20 23 33 20 20 27 38 20 24 24 22 22
leaf_count=20 21 27 20 25 24 38 20 23 33 20 20 27 38 20 24 24 22 22
internal_value=-4.09446e-07 0.000192934 0.000321377 0.00015767 -0.000871594 1.93842e-06 -0.000668093 0.000421676 0.000463913 0.000281013 -0.00106122 0.000176872 -9.25257e-05 0.000527274 0.000442477 -2.82503e-05 0.000375394 0.000616108
internal_weight=468 383 229 87 85 154 41 142 119 62 44 54 100 86 44 62 42 42
internal_count=468 383 229 87 85 154 41 142 119 62 44 54 100 86 44 62 42 42
is_linear=0
shrinkage=0.0426353


Tree=46
num_leaves=17
num_cat=0
split_feature=31 56 57 87 50 77 67 69 35 68 77 68 67 37 93 37
split_gain=0.0397467 0.00473748 0.00191194 0.00168454 0.00128314 0.00126067 0.00108025 0.000902831 0.000450282 0.000399557 0.000394613 0.000435321 0.000339869 0.000232734 0.000227103 0.000192783
threshold=0.5987791778625694 0.064437225082992725 0.056989723314809788 0.16598300343568337 -0.067533665313238581 0.10469266855982519 0.23860470762589167 -0.94705184141211518 -0.06402741996122098 -0.59279031568428875 0.23998372968650047 1.0650433425036401 0.16833698416373319 0.019744222739981405 0.45935874490672418 0.023669491348970621
decision_type=2 2 2 2 2 2 2 2 2 2 2 2 2 2 2 2
left_child=1 2 -1 -2 9 -5 7 8 -4 -3 11 14 -6 -12 -9 -14
right_child=3 4 6 5 12 -7 -8 10 -10 -11 13 -13 15 -15 -16 -17
leaf_value=-5.2373234794479989e-05 -0.00050308724819674619 1.8118727838336196e-05 0.00028212166375896064 -0.0010996782287893763 -0.00018897991006954298 -0.00071439305159960676 0.00059589874882228454 0.00044007125757164933 5.5506521933899502e-05 0.00025827926884562001 0.00039773906410727221 0.00029621572038332006 3.2701896857132604e-05 0.00020428554234629021 0.0006346015446376266 -0.00012164648833873222
leaf_weight=24 21 20 37 38 38 26 28 24 28 34 20 22 38 26 20 24
leaf_count=24 21 20 37 38 38 26 28 24 28 34 20 22 38 26 20 24
internal_value=-3.91989e-07 0.000184709 0.000307675 -0.000834433 1.85578e-06 -0.000943156 0.000349827 0.0003109 0.000184503 0.000169331 0.000384256 0.000451068 -8.85808e-05 0.000288396 0.000528494 -2.70459e-05
internal_weight=468 383 229 85 154 64 205 177 65 54 112 66 100 46 44 62
internal_count=468 383 229 85 154 64 205 177 65 54 112 66 100 46 44 62
is_linear=0
shrinkage=0.0426353


Tree=47
num_leaves=19
num_cat=0
split_feature=31 56 48 50 87 50 76 56 68 56 68 67 31 75 34 90 33 28
split_gain=0.0364298 0.00434212 0.00176182 0.00162801 0.00154396 0.00117782 0.00115547 0.000610198 0.000592875 0.00056566 0.000370787 0.000298934 0.000294097 0.000235386 0.000207628 0.000133664 0.000116982 0.000111153
threshold=0.5987791778625694 0.064437225082992725 0.3609406597106844 0.026360029079268894 0.16598300343568337 -0.065587172684368145 0.47071436639038494 0.011991902358551954 1.0650433425036401 -0.10276768007469561 -0.45531592373683766 0.16833698416373319 0.41656515362728452 0.46785458210360936 -0.0022715369219880053 -0.16760275801672117 -0.44262044154911057 66.092216791128791
decision_type=2 2 2 2 2 2 2 2 2 2 2 2 2 2 2 2 2 2
left_child=1 2 7 9 -2 10 -6 8 12 16 -3 -7 13 -1 -13 -16 -4 -14
right_child=4 5 3 -5 6 11 -8 -9 -10 -11 -12 14 17 -15 15 -17 -18 -19
leaf_value=0.00029987253293482823 -0.00048163794509554304 7.2776682092145578e-05 0.00042408389589594799 -0.00014697225686353382 -0.00068393466105993355 -0.0001809226854529826 -0.0010527930720705741 0.00018608809978670835 0.00027235006543928033 7.3967224656130875e-05 0.0002993884449383572 8.4069202742005324e-05 0.00049288241498055821 0.00049791849428370541 -6.238841615156055e-06 -0.00016211408258520453 0.00028161236215363226 0.00063175869456665414
leaf_weight=20 21 35 20 25 26 38 38 23 33 20 21 20 20 24 20 20 22 22
leaf_count=20 21 35 20 25 26 38 38 23 33 20 21 20 20 24 20 20 22 22
internal_value=-3.75277e-07 0.000176833 0.000294557 0.000143473 -0.000798857 1.77665e-06 -0.000902944 0.000387123 0.000425978 0.000260589 0.000157756 -8.73545e-05 0.000484928 0.000407898 -2.80946e-05 -8.41765e-05 0.000349456 0.000565627
internal_weight=468 383 229 87 85 154 64 142 119 62 56 98 86 44 60 40 42 42
internal_count=468 383 229 87 85 154 64 142 119 62 56 98 86 44 60 40 42 42
is_linear=0
shrinkage=0.0426353


end of trees

feature_importances:
ma_90=92
Price=59
skew_25=41
std_180=41
kurt_90=39
kurt_252=39
total_return_25=38
std_90=33
kurt_180=31
skew_180=30
skew_90=29
total_return_5=22
PE_Ratio=21
std_25=20
ma_5=17
std_5=16
ma_25=15
kurt_25=15
min_90=14
skew_252=14
Returns=13
lag_90=13
kurt_504=13
total_return_90=12
total_return_504=11
PB_Ratio=10
max_90=9
min_180=8
first_return_504=8
ROA=7
min_5=7
first_return_5=7
first_return_25=7
max_25=6
first_return_90=6
ma_180=6
lag_25=5
lag_252=5
ma_252=5
std_252=5
lag_5=4
max_5=4
min_25=4
first_return_252=4
ma_504=4
lag_180=3
first_return_180=3
skew_504=3
EarningsPerShareDiluted_log=2
MarketCapLog=2
Returns_Daily=2
total_return_180=2
min_252=2
std_504=2
WeightedAverageNumberOfDilutedSharesOutstanding=1
ROE=1
DebtToEquity=1
NetIncomeLoss_log=1
OperatingIncomeLoss_log=1
Assets_log=1
skew_5=1
last_return_5=1
max_180=1
lag_504=1

parameters:
[boosting: gbdt]
[objective: regression]
[metric: rmse]
[tree_learner: serial]
[device_type: cpu]
[data_sample_strategy: bagging]
[data: ]
[valid: ]
[num_iterations: 2000]
[learning_rate: 0.0426353]
[num_leaves: 64]
[num_threads: 4]
[seed: 42]
[deterministic: 0]
[force_col_wise: 0]
[force_row_wise: 0]
[histogram_pool_size: -1]
[max_depth: -1]
[min_data_in_leaf: 20]
[min_sum_hessian_in_leaf: 0.001]
[bagging_fraction: 0.8]
[pos_bagging_fraction: 1]
[neg_bagging_fraction: 1]
[bagging_freq: 5]
[bagging_seed: 400]
[bagging_by_query: 0]
[feature_fraction: 0.8]
[feature_fraction_bynode: 1]
[feature_fraction_seed: 30056]
[extra_trees: 0]
[extra_seed: 12879]
[early_stopping_round: 0]
[early_stopping_min_delta: 0]
[first_metric_only: 0]
[max_delta_step: 0]
[lambda_l1: 0]
[lambda_l2: 0]
[linear_lambda: 0]
[min_gain_to_split: 0]
[drop_rate: 0.1]
[max_drop: 50]
[skip_drop: 0.5]
[xgboost_dart_mode: 0]
[uniform_drop: 0]
[drop_seed: 17869]
[top_rate: 0.2]
[other_rate: 0.1]
[min_data_per_group: 100]
[max_cat_threshold: 32]
[cat_l2: 10]
[cat_smooth: 10]
[max_cat_to_onehot: 4]
[top_k: 20]
[monotone_constraints: ]
[monotone_constraints_method: basic]
[monotone_penalty: 0]
[feature_contri: ]
[forcedsplits_filename: ]
[refit_decay_rate: 0.9]
[cegb_tradeoff: 1]
[cegb_penalty_split: 0]
[cegb_penalty_feature_lazy: ]
[cegb_penalty_feature_coupled: ]
[path_smooth: 0]
[interaction_constraints: ]
[verbosity: -1]
[saved_feature_importance_type: 0]
[use_quantized_grad: 0]
[num_grad_quant_bins: 4]
[quant_train_renew_leaf: 0]
[stochastic_rounding: 1]
[linear_tree: 0]
[max_bin: 255]
[max_bin_by_feature: ]
[min_data_in_bin: 3]
[bin_construct_sample_cnt: 200000]
[data_random_seed: 175]
[is_enable_sparse: 1]
[enable_bundle: 1]
[use_missing: 1]
[zero_as_missing: 0]
[feature_pre_filter: 1]
[pre_partition: 0]
[two_round: 0]
[header: 0]
[label_column: ]
[weight_column: ]
[group_column: ]
[ignore_column: ]
[categorical_feature: ]
[forcedbins_filename: ]
[precise_float_parser: 0]
[parser_config_file: ]
[objective_seed: 16083]
[num_class: 1]
[is_unbalance: 0]
[scale_pos_weight: 1]
[sigmoid: 1]
[boost_from_average: 1]
[reg_sqrt: 0]
[alpha: 0.9]
[fair_c: 1]
[poisson_max_delta_step: 0.7]
[tweedie_variance_power: 1.5]
[lambdarank_truncation_level: 30]
[lambdarank_norm: 1]
[label_gain: ]
[lambdarank_position_bias_regularization: 0]
[eval_at: ]
[multi_error_top_k: 1]
[auc_mu_weights: ]
[num_machines: 1]
[local_listen_port: 12400]
[time_out: 120]
[machine_list_filename: ]
[machines: ]
[gpu_platform_id: -1]
[gpu_device_id: -1]
[gpu_use_dp: 0]
[num_gpu: 1]

end of parameters

pandas_categorical:[]
