tree
version=v4
num_class=1
num_tree_per_iteration=1
label_index=0
max_feature_idx=92
objective=regression
feature_names=WeightedAverageNumberOfDilutedSharesOutstanding ROE ROA AssetTurnover DebtToEquity NetProfitMargin OperatingMargin EarningsPerShareDiluted_log GrossProfit_log NetIncomeLoss_log OperatingIncomeLoss_log Revenues_log Assets_log Liabilities_log NoncurrentAssets_log WeightedAverageNumberOfDilutedSharesOutstanding_log Equity_log ROE_log ROA_log BookValuePerShare_log SalesPerShare_log AssetTurnover_log DebtToEquity_log NetProfitMargin_log OperatingMargin_log EarningsPerShareDilutedTTM_log SalesPerShareTTM_log PE_Ratio PB_Ratio PS_Ratio MarketCapLog CostsAndExpenses_log Returns lag_5 ma_5 std_5 skew_5 kurt_5 total_return_5 min_5 max_5 first_return_5 last_return_5 lag_25 ma_25 std_25 skew_25 kurt_25 total_return_25 min_25 max_25 first_return_25 last_return_25 lag_90 ma_90 std_90 skew_90 kurt_90 total_return_90 min_90 max_90 first_return_90 last_return_90 lag_180 ma_180 std_180 skew_180 kurt_180 total_return_180 min_180 max_180 first_return_180 last_return_180 lag_252 ma_252 std_252 skew_252 kurt_252 total_return_252 min_252 max_252 first_return_252 last_return_252 lag_504 ma_504 std_504 skew_504 kurt_504 total_return_504 min_504 max_504 first_return_504 last_return_504
feature_infos=[109041096:113986129] [-0.088263309501130399:0.10061978075855196] [-0.074451067372359403:0.085069475733054595] none [0.10874272062117366:0.25034534869399944] none none [0.026304238310573387:0.48820566674731325] none [0.050904671772225789:0.4902544813147075] [-0.12937468964176416:0.49780794224156522] none [-0.071631942378926394:0.22007948112529649] [-0.14602728898083492:0.87788473042709703] none [-0.0054655354048530119:0.024600433461652409] [-0.073933764944668967:0.1175842113170317] [-0.062490524165652206:0.39970746551945141] [-0.16917480935307064:0.41112415858131052] [-0.073153551318490537:0.11886566152911973] none none [-0.20875684188150181:0.76448953448921897] none none [-0.62168765058641806:0.21010383943658731] none [11.427869997048697:32.03124548350489] [3.0847468232357214:8.0866516103110282] none [-0.34303211534826439:0.2140456599249615] none [-0.24246088923311654:1.3032973879899494] [-0.24246088923311654:1.3032973879899494] [-0.18569997612373629:1.2773872055776276] [0.005958507282466761:0.17818117944523487] [-2.1055964078187497:2.1298891032668803] [-3.2789516738726192:4.653819816178971] [-0.92849988061868149:6.3869360278881384] [-0.24246088923311654:1.2328532426408683] [-0.13537700457286467:1.3032973879899494] [-0.24246088923311654:1.3032973879899494] [-0.24246088923311654:1.3032973879899494] [-0.18257932786423978:1.3032973879899494] [-0.15720570489372337:1.0991293744285278] [0.022316363202449868:0.22192465869432515] [-1.6751823933331422:2.5343923904603352] [-1.9511372884092137:8.1862867839433342] [-3.9301426223430846:27.478234360713191] [-0.24246088923311654:0.96203679284202515] [-0.066152001924887266:1.3032973879899494] [-0.18257932786423978:1.3032973879899494] [-0.24246088923311654:1.3032973879899494] [0.080932290664193357:1.3032973879899494] [-0.054607075822768962:0.90225197659336953] [0.10074694148369857:0.34661965527081423] [-0.94179335473167947:1.6728766331249141] [-1.6286612734145574:2.8440214390422547] [-4.9146368240492064:81.202677893403262] [-0.24246088923311654:0.67622630263471406] [0.27677366695575023:1.3032973879899494] [0.080932290664193357:1.3032973879899494] [-0.24246088923311654:1.3032973879899494] [0.080932290664193357:1.3032973879899494] [0.27027451087952314:0.85256234017649157] [0.12974216888956572:0.35541942083854544] [-1.0183638042836376:0.88450437335917653] [-1.5500318357686724:1.1195786925568338] [48.649411958314168:153.46122123176849] [-0.24246088923311654:0.63240377300110029] [0.80519953176354486:1.3032973879899494] [0.080932290664193357:1.3032973879899494] [-0.24246088923311654:1.3032973879899494] [0.080932290664193357:1.1631508589641504] [0.44285494294915773:0.78208521285409593] [0.18013645715391247:0.4197513968629174] [-0.85450247414984171:0.4414976896071815] [-1.2231017382958151:0.75332333217454084] [111.59944562318775:197.08547363923216] [-0.24246088923311654:0.4060486666512621] [0.82110322626260246:1.3032973879899494] [0.080932290664193357:1.1631508589641504] [-0.24246088923311654:1.3032973879899494] [-0.84864461784093215:0.82110322626260246] [0.1730571400972451:0.64150142901667084] [0.23151299168887987:0.39996436691776338] [-0.55263065607048201:0.0042481038033358228] [-0.87786751240602723:0.23880614911710185] [87.220798609011524:323.3167202244021] [-0.84864461784093215:0.080932290664193357] [0.82110322626260246:1.3032973879899494] [-0.84864461784093215:0.82110322626260246] [-0.24246088923311654:1.3032973879899494]
tree_sizes=1046 1179 1183 1169

Tree=0
num_leaves=11
num_cat=0
split_feature=32 64 84 65 67 45 67 78 67 86
split_gain=18.6592 1.94834 0.714981 0.632123 0.303339 0.265629 0.163863 0.141566 0.0755378 0.0718452
threshold=0.63050619310916167 0.62939258602788228 0.1743200682337922 0.27422637801432653 1.0000000180025095e-35 0.10207409985366554 -0.59629746961146379 189.87100155039926 -1.0067593711757017 -0.4385345948662725
decision_type=2 2 2 2 2 2 2 2 2 2
left_child=1 2 -1 4 6 9 -2 -3 -5 -4
right_child=3 7 5 8 -6 -7 -8 -9 -10 -11
leaf_value=0.19355983071658542 0.16566260760041576 0.17918264119419605 0.18768334518656868 0.15747899433595286 0.16924449554141702 0.18076887610127099 0.16136851062823618 0.17493245089299159 0.16044491318516038 0.18461584509247417
leaf_weight=23 30 29 35 27 21 20 35 28 37 23
leaf_count=23 30 29 35 27 21 20 35 28 37 23
internal_value=0.173172 0.183397 0.186954 0.162402 0.16479 0.185006 0.16335 0.177095 0.159194 0.186467
internal_weight=308 158 101 150 86 78 65 57 64 58
internal_count=308 158 101 150 86 78 65 57 64 58
is_linear=0
shrinkage=1


Tree=1
num_leaves=12
num_cat=0
split_feature=32 68 87 28 28 28 76 86 28 34 46
split_gain=17.102 1.78574 0.648094 0.57971 0.27321 0.240932 0.130212 0.114341 0.0755837 0.0734994 0.0667544
threshold=0.63050619310916167 113.29066548501881 -0.8106999370110719 6.4242177944067427 5.6271231235612111 4.4906287025780278 -0.46928918201780861 -0.15323808278350826 7.0356212442892279 0.69804238547968966 0.2189384726322238
decision_type=2 2 2 2 2 2 2 2 2 2 2
left_child=1 2 -1 4 -2 10 -3 -6 -5 -9 -4
right_child=3 6 5 8 7 -7 -8 9 -10 -11 -12
leaf_value=0.019655672282490232 -0.0047734921784120359 0.0058931577781131759 0.013887962750866087 -0.012722606803844226 -0.0070402525772076318 0.0074685161591023959 0.0018119430159657213 -0.0086866241536331015 -0.016192235447723542 -0.011879771339368576 0.010878331018322944
leaf_weight=22 26 27 37 25 20 21 30 20 21 38 21
leaf_count=22 26 27 37 25 20 21 30 20 21 38 21
internal_value=-1.02111e-05 0.00977871 0.0131838 -0.0103212 -0.00855846 0.0113815 0.00374515 -0.00982011 -0.0143066 -0.0107787 0.0127983
internal_weight=308 158 101 150 104 79 57 78 46 58 58
internal_count=308 158 101 150 104 79 57 78 46 58 58
is_linear=0
shrinkage=0.0426353


Tree=2
num_leaves=12
num_cat=0
split_feature=32 68 84 65 39 45 75 27 66 47 43
split_gain=15.6748 1.63672 0.604734 0.539648 0.24981 0.232743 0.120123 0.108389 0.0989156 0.0740173 0.0436783
threshold=0.63050619310916167 113.29066548501881 0.1743200682337922 0.27422637801432653 0.67271200019530564 0.10207409985366554 0.24017302748122041 25.811835464843785 0.090151003313747521 -0.52562283186796821 0.68631104035230706
decision_type=2 2 2 2 2 2 2 2 2 2 2
left_child=1 2 -1 4 -2 9 -3 -5 -6 -4 -10
right_child=3 6 5 7 8 -7 -8 -9 10 -11 -12
leaf_value=0.018697097685503459 -0.0039817764931590928 0.0017930080368748062 0.013388487608198571 -0.011090999097967598 -0.0067252422050683765 0.0068641724989989775 0.0057226451476704767 -0.014600151602508651 -0.011749489260392664 0.010249513055538883 -0.0089654840461467732
leaf_weight=23 24 31 36 32 21 20 26 32 20 22 21
leaf_count=23 24 31 36 32 21 20 26 32 20 22 21
internal_value=-9.77576e-06 0.00936179 0.0126217 -0.00988116 -0.00767509 0.0108302 0.00358547 -0.0128456 -0.00910476 0.0121978 -0.0103235
internal_weight=308 158 101 150 86 78 57 64 62 58 41
internal_count=308 158 101 150 86 78 57 64 62 58 41
is_linear=0
shrinkage=0.0426353


Tree=3
num_leaves=12
num_cat=0
split_feature=28 68 84 28 45 63 0 50 28 28 41
split_gain=14.4016 1.80449 0.554268 0.37891 0.21332 0.126958 0.117882 0.133214 0.0612514 0.0503289 0.0186509
threshold=5.156795503153627 113.29066548501881 0.1743200682337922 6.8155956357294292 0.10207409985366554 0.80306877087286732 111680828.00000001 1.075939453769496 4.2449076583012619 5.8678330301966506 0.49721047798764972
decision_type=2 2 2 2 2 2 2 2 2 2 2
left_child=1 2 -1 6 8 -3 7 -2 -4 -8 -7
right_child=3 5 4 -5 -6 10 9 -9 -10 -11 -12
leaf_value=0.017899940052006569 -0.005552084448435678 0.00059295827267574568 0.012721596050880617 -0.013902622431101878 0.006571515945816335 0.0053866759915252851 -0.0090267422312957785 -0.0095046518161864858 0.0098386838509436896 -0.011849935625454664 0.003545399077624879
leaf_weight=23 31 25 37 34 20 20 24 31 21 22 20
leaf_count=23 31 25 37 34 20 20 24 31 21 22 20
internal_value=-9.359e-06 0.0085175 0.0120836 -0.00997738 0.0103685 0.00297639 -0.00874166 -0.00752837 0.0116778 -0.010377 0.00446604
internal_weight=308 166 101 142 78 65 108 62 58 46 40
internal_count=308 166 101 142 78 65 108 62 58 46 40
is_linear=0
shrinkage=0.0426353


end of trees

feature_importances:
PB_Ratio=8
Returns=3
std_25=3
kurt_180=3
total_return_180=3
ma_504=3
std_180=2
skew_504=2
WeightedAverageNumberOfDilutedSharesOutstanding=1
PE_Ratio=1
ma_5=1
min_5=1
first_return_5=1
lag_25=1
skew_25=1
kurt_25=1
max_25=1
lag_180=1
ma_180=1
skew_180=1
std_252=1
skew_252=1
total_return_252=1
kurt_504=1

parameters:
[boosting: gbdt]
[objective: regression]
[metric: rmse]
[tree_learner: serial]
[device_type: cpu]
[data_sample_strategy: bagging]
[data: ]
[valid: ]
[num_iterations: 2000]
[learning_rate: 0.0426353]
[num_leaves: 64]
[num_threads: 4]
[seed: 42]
[deterministic: 0]
[force_col_wise: 0]
[force_row_wise: 0]
[histogram_pool_size: -1]
[max_depth: -1]
[min_data_in_leaf: 20]
[min_sum_hessian_in_leaf: 0.001]
[bagging_fraction: 0.8]
[pos_bagging_fraction: 1]
[neg_bagging_fraction: 1]
[bagging_freq: 5]
[bagging_seed: 400]
[bagging_by_query: 0]
[feature_fraction: 0.8]
[feature_fraction_bynode: 1]
[feature_fraction_seed: 30056]
[extra_trees: 0]
[extra_seed: 12879]
[early_stopping_round: 0]
[early_stopping_min_delta: 0]
[first_metric_only: 0]
[max_delta_step: 0]
[lambda_l1: 0]
[lambda_l2: 0]
[linear_lambda: 0]
[min_gain_to_split: 0]
[drop_rate: 0.1]
[max_drop: 50]
[skip_drop: 0.5]
[xgboost_dart_mode: 0]
[uniform_drop: 0]
[drop_seed: 17869]
[top_rate: 0.2]
[other_rate: 0.1]
[min_data_per_group: 100]
[max_cat_threshold: 32]
[cat_l2: 10]
[cat_smooth: 10]
[max_cat_to_onehot: 4]
[top_k: 20]
[monotone_constraints: ]
[monotone_constraints_method: basic]
[monotone_penalty: 0]
[feature_contri: ]
[forcedsplits_filename: ]
[refit_decay_rate: 0.9]
[cegb_tradeoff: 1]
[cegb_penalty_split: 0]
[cegb_penalty_feature_lazy: ]
[cegb_penalty_feature_coupled: ]
[path_smooth: 0]
[interaction_constraints: ]
[verbosity: -1]
[saved_feature_importance_type: 0]
[use_quantized_grad: 0]
[num_grad_quant_bins: 4]
[quant_train_renew_leaf: 0]
[stochastic_rounding: 1]
[linear_tree: 0]
[max_bin: 255]
[max_bin_by_feature: ]
[min_data_in_bin: 3]
[bin_construct_sample_cnt: 200000]
[data_random_seed: 175]
[is_enable_sparse: 1]
[enable_bundle: 1]
[use_missing: 1]
[zero_as_missing: 0]
[feature_pre_filter: 1]
[pre_partition: 0]
[two_round: 0]
[header: 0]
[label_column: ]
[weight_column: ]
[group_column: ]
[ignore_column: ]
[categorical_feature: ]
[forcedbins_filename: ]
[precise_float_parser: 0]
[parser_config_file: ]
[objective_seed: 16083]
[num_class: 1]
[is_unbalance: 0]
[scale_pos_weight: 1]
[sigmoid: 1]
[boost_from_average: 1]
[reg_sqrt: 0]
[alpha: 0.9]
[fair_c: 1]
[poisson_max_delta_step: 0.7]
[tweedie_variance_power: 1.5]
[lambdarank_truncation_level: 30]
[lambdarank_norm: 1]
[label_gain: ]
[lambdarank_position_bias_regularization: 0]
[eval_at: ]
[multi_error_top_k: 1]
[auc_mu_weights: ]
[num_machines: 1]
[local_listen_port: 12400]
[time_out: 120]
[machine_list_filename: ]
[machines: ]
[gpu_platform_id: -1]
[gpu_device_id: -1]
[gpu_use_dp: 0]
[num_gpu: 1]

end of parameters

pandas_categorical:[]
