tree
version=v4
num_class=1
num_tree_per_iteration=1
label_index=0
max_feature_idx=94
objective=regression
feature_names=WeightedAverageNumberOfDilutedSharesOutstanding ROE ROA AssetTurnover DebtToEquity NetProfitMargin OperatingMargin EarningsPerShareDiluted_log GrossProfit_log NetIncomeLoss_log OperatingIncomeLoss_log Revenues_log Assets_log Liabilities_log NoncurrentAssets_log WeightedAverageNumberOfDilutedSharesOutstanding_log Equity_log ROE_log ROA_log BookValuePerShare_log SalesPerShare_log AssetTurnover_log DebtToEquity_log NetProfitMargin_log OperatingMargin_log EarningsPerShareDilutedTTM_log SalesPerShareTTM_log PE_Ratio PB_Ratio PS_Ratio MarketCapLog Price CostsAndExpenses_log Returns Returns_Daily lag_5 ma_5 std_5 skew_5 kurt_5 total_return_5 min_5 max_5 first_return_5 last_return_5 lag_25 ma_25 std_25 skew_25 kurt_25 total_return_25 min_25 max_25 first_return_25 last_return_25 lag_90 ma_90 std_90 skew_90 kurt_90 total_return_90 min_90 max_90 first_return_90 last_return_90 lag_180 ma_180 std_180 skew_180 kurt_180 total_return_180 min_180 max_180 first_return_180 last_return_180 lag_252 ma_252 std_252 skew_252 kurt_252 total_return_252 min_252 max_252 first_return_252 last_return_252 lag_504 ma_504 std_504 skew_504 kurt_504 total_return_504 min_504 max_504 first_return_504 last_return_504
feature_infos=[23072955:23268468] [0.09231549267906608:0.18425151213192392] [0.078354194547219813:0.15662373005667246] none [0.11897677485438926:0.19431834765096753] none none [-0.73286208385265561:0.51740221753566296] none [-0.7328620838526555:0.51740221753566296] [-0.70831651630070025:0.49072865263678023] none [-0.11344081332528086:0.11428331964812487] [-0.14177765074295623:0.18829817682233704] none [-0.0036837148606847013:0] [-0.12044482317990089:0.11118901228748895] [-0.33306121721783033:0.31473061349330261] [-0.32060822558322732:0.30772660363868254] [-0.12007653804166268:0.11201029463528994] none none [-0.21357955479768762:0.11814935787748831] none none [-0.058386225724776981:0.17834548752565438] none [22.108188265497031:75.972050501174252] [10.92787076232119:28.103190325825665] none [-0.11430826590485306:0.14457940714102563] [0.12769443599290933:0.70469147349555328] [-0.26279332820987933:0.37449588822423008] [-0.38431763437452332:1.2682570474935242] [-0.10446083464449739:0.13250759550386212] [-0.38431763437452332:1.2682570474935242] [-0.36729276075050354:1.1620583445750747] [0.003059892082868759:0.083877044638726722] [-2.1850405733861762:2.085324344707383] [-3.3002007433579035:4.8108221995716418] [-0.16186320717952285:0.20877526736904686] [-0.38431763437452332:1.0661059499559553] [-0.34275868817839827:1.2682570474935242] [-0.38431763437452332:1.2682570474935242] [-0.38431763437452332:1.1071649734060076] [-0.36492341973724329:1.2682570474935242] [-0.34841217800754337:1.0237229660063614] [0.021213966418882523:0.13262944705246635] [-1.8029384128405952:1.9563706855373668] [-1.8292870291596095:6.0554985695991776] [-0.26214510399029967:0.4324440130942499] [-0.38431763437452332:0.85325092124863244] [-0.2937268337450169:1.2682570474935242] [-0.36492341973724329:1.2682570474935242] [-0.38431763437452332:1.0754547381187596] [-0.21643648775643923:1.2682570474935242] [-0.12830957404737012:0.90856711611771712] [0.045394294420094218:0.30907432528578782] [-1.2616789778740169:1.314001263033143] [-1.6025820989681807:2.0884828116430474] [-0.46102238656235284:1.0616673659586999] [-0.38431763437452332:0.77874365940686019] [0.099373838921860816:1.2682570474935242] [-0.21643648775643923:1.2682570474935242] [-0.38431763437452332:0.99397855327231022] [-0.21643648775643923:1.2682570474935242] [-0.083218904665536123:0.86292401782767203] [0.11805447762749553:0.41219921515042823] [-1.2820425602910956:1.0422572391786531] [-1.6336942704679493:1.5249537723219839] [-0.44733891137774906:1.1092877351208912] [-0.38431763437452332:0.51209363371470351] [0.21346281145632959:1.2682570474935242] [-0.21643648775643923:1.2682570474935242] [-0.38431763437452332:0.63591135374838148] [-0.21643648775643923:1.2682570474935242] [0.053564077653072861:0.66382525852964991] [0.20018295445130768:0.41994998316416521] [-1.0690180605400197:0.82006825265695515] [-1.7218191504180089:-0.067145707687429418] [-0.38431763437452282:1.2682570474935224] [-0.38431763437452332:-0.049207597575075666] [0.61034251559613339:1.2682570474935242] [-0.21643648775643923:1.2682570474935242] [-0.38431763437452332:0.63591135374838148] [0.44566852379705152:1.2682570474935242] [0.11278529658595368:0.45957766268145706] [0.25180559247564677:0.36662322400223918] [-0.097149827959156457:0.55072857198169023] [-1.26669729829335:-0.67270145949461102] [-0.15737626959916168:1.3348773120146769] [-0.38431763437452332:-0.21643648775643923] [0.63591135374838148:1.2682570474935242] [0.44566852379705152:1.2682570474935242] [-0.38431763437452332:0.21346281145632959]
tree_sizes=2423 2753 2668 2574 2757 2854 2669 2746 2571 2759 2837 2753 2764 2763 2762 2686 2944 2784 2591 2948 2860 2771 2963 3042 2872 2689 2887 2603 2597 2880 2600 2690 2694 2705 2703 2893 2889 2888 2994 2913 2900 2911 3009 3011 2822 2999 3019 3121 3126 2837 2844 3025 3109 2743 2732 2840 2838 2946 2924 2761 2829 2830 3121 2907 2846 2846 2846 2851 2764 2856 2933 3024 3115 3033 2850 2766 3044 3034 2943 2951 2753 2867 2767 3034 2962 2949 3035 3047 3044 2949 2768 2870 2949 2767 2758 2680 2679 3054 3061 2858 2964 2766 2927 2863 3142 3133 3131 2974 2774 2967 3064 2785 2964 2858 2965 2870 3045 2960 3047 2972 2955 2864 2952 2856 3043 2867 2858 2961 2862 2853 2873 2973 2871 2961 2786 2857 2968 2767 2960 3055 2965 2968 3050 3055 2963 2856 2865 2767 2872 3060 2772 2959 2685 2773 2776 2966 2869 2961 3051 2882 2773 3044 2947 2961 2869 3045 2961 3145 2974 3039 3052 2959 2968 2961 2875 3155 2967 2962 2858 3050 2960 2849 2955 3056 3067 2956 3064 2975 2972 2960 2772 2936 2971 2849 3040 2966 2871 2967 2943 2784 3057 2965 2774 2963 2671 2858 2945 2574 2860 3042 3061 3043 3051 3252 2858 2964 3055 2867 3143 3154 2864 2880 3044 2666 2882 3056 2779 2954 2860 2951 3133 3051 2974 2869 2972 2944 2766 2875 2962 2968 3062 2864 2766 2768 2764 2866 2974 3051 2955 2948 2859 2950 2871 3043 2941 2962 3074 3060 3050 2663 2871 2864 3057 3147 3042 3060 2774 2768 2783 2955 3043 2969 2865 2948 2964 2868 2935 2974 2792 2866 2770 2959 2778 2769 2787 2861 2590 2774 2666 2868 2955 3033 2956 2941 2870 3063 2934 2868 3242 3056 3066 2889 2878 3062 2766 2950 2946 2697 2866 3030 3053 3150 3049 3063 2966 2786 2970 2964 2863 2848 2780 3144 2965 2966 3066 2877 2947 3066 3137 2952 2875 3059 2689 3057 2690 2965 2861 2767 3052 3058 2958 2676 2875 2873 3063 2873 2779 2770 2778 3043 3061 3147 3067 3063 3052 2861 2957 2871 2757 2940 2743 2771 2864 2956 3043 3047 2955 3054 3056 2864 3068 3069 3158 2970 2979 2954 2778 2778 2953 2946 2964 2868 2868 3060 3061 3057 3058 3059 3059 3049 2961 3060 2966 3059 3234 2960 2943 2858 3229 2956 2879 3057 2979 2957 2675 3071 3166 3064 3064 3061 2962 2955 3046 3243 2969 2956 2957 2950 3128 2969 2768 2965 2872 2859 2973 3044 3035 3139 3051 2937 3057 3053 3050 3063 2860 3051 2858 3043 2876 2962 2964 2954 2870 2976 3070 2863 2966 3059 2864 3048 3017 2852 2775 2750 2937 2958 2954 3044 3050 3062 2963 3058 3159 3054 2955 2877 2972 2881 3251 3059 3045 2772 2953 2855 3059 3139 2958 2853 2768 2956 2952 3171 3155 2948 2879 3060 3148 3052 2884 2966 3055 2913 2934 2960 3047 2883 2874 2955 2873 2680 2946 3038 2935 2868 2929 2941 2859 2954 2944 2960 2876 2859 2860 3061 2967 3045 2965 2843 3147 3137 2975 3060 2956 3055 3051 2862 3055 2765 2691 2779 3048 2951 2951 3042 3053 2971 2865 2972 3057 2864 2864 3062

Tree=0
num_leaves=26
num_cat=0
split_feature=88 60 67 12 76 83 60 58 79 60 60 32 35 35 46 33 31 31 59 31 27 94 47 33 31
split_gain=4.4239 2.27781 1.21571 0.646584 0.257466 0.228754 0.241354 0.19937 0.153774 0.129775 0.108452 0.0711226 0.0675649 0.0225835 0.0222959 0.0198366 0.0157987 0.0145976 0.0109517 0.0108678 0.0103638 0.00939422 0.00618844 0.00471255 0.000944207
threshold=0.19232534655309447 0.019062122579863224 0.15345608252204648 0.088989151994778012 0.27353355595142576 0.78582205132378025 0.53627946972277762 -0.52018402775527839 -1.4710343926411724 0.010780093745856735 0.23103194984752476 0.070847828368567498 0.07104890202132845 0.80107057600390108 0.87042321604154727 0.52016914793685132 0.21730760341003927 0.1828988487397549 -0.98324648978916851 0.41985539875450112 48.542188132364096 -0.10881763554368674 0.056334821796831795 0.8908235622762698 0.16437564707295735
decision_type=10 10 10 10 8 8 10 10 8 8 10 10 10 10 10 10 2 2 10 2 8 10 8 10 2
left_child=1 3 -2 4 -1 15 8 -5 -7 19 21 16 -9 18 -14 -3 -10 -11 -13 20 -6 -4 -18 -8 -22
right_child=2 5 10 7 9 6 23 12 11 17 -12 13 14 -15 -16 -17 22 -19 -20 -21 24 -23 -24 -25 -26
leaf_value=-0.046409641505957749 -0.025925699606815737 -0.048122755902799172 -0.037300653545203677 -0.035334103535142519 -0.042118765315080291 -0.047989376291101352 -0.048647646675548127 -0.041861625395011856 -0.042778105660123113 -0.040013694357133867 -0.034520992431290774 -0.044685140210702336 -0.038221716790925848 -0.046745266165819886 -0.040047592973798583 -0.049590142140501108 -0.043741620352352142 -0.04127926673796483 -0.04584033342444245 -0.043655760180999661 -0.043291751653165109 -0.038447543386793452 -0.044638581171235883 -0.047912701671359428 -0.042924018161325843
leaf_weight=31 23 34 20 25 28 32 35 20 20 30 22 35 31 23 20 33 29 37 26 38 30 37 27 29 22
leaf_count=31 23 34 20 25 28 32 35 20 20 30 22 35 31 23 20 33 29 37 26 38 30 37 27 29 22
internal_value=-0.0427941 -0.044118 -0.0345522 -0.0415198 -0.0428137 -0.0466276 -0.0460472 -0.0386084 -0.0452914 -0.0422112 -0.0370637 -0.0447518 -0.0397614 -0.0456068 -0.0389377 -0.0488455 -0.0438067 -0.0407126 -0.0451775 -0.0430621 -0.0427801 -0.0380451 -0.0441741 -0.0483146 -0.0431362
internal_weight=737 635 102 312 216 323 256 96 192 185 79 160 71 84 51 67 76 67 61 118 80 57 56 64 52
internal_count=737 635 102 312 216 323 256 96 192 185 79 160 71 84 51 67 76 67 61 118 80 57 56 64 52
is_linear=0
shrinkage=1


Tree=1
num_leaves=29
num_cat=0
split_feature=88 60 67 12 70 90 78 27 60 67 47 64 67 60 55 45 48 41 94 59 48 33 27 36 10 50 60 60
split_gain=4.05471 2.08772 1.11426 0.592625 0.241855 0.235882 0.22381 0.144043 0.116138 0.0994961 0.0727237 0.0703988 0.0524424 0.0487203 0.0565258 0.0184836 0.0163434 0.0154862 0.00784803 0.00736678 0.00995461 0.00538266 0.00536291 0.00459282 0.00396961 0.0062482 0.00257562 0.00101239
threshold=0.19232534655309447 0.019062122579863224 0.15345608252204648 0.088989151994778012 0.029074251223607427 0.032458921246530707 0.42325962165332187 37.531025046298048 0.010780093745856735 0.22825915244493131 0.05972103740576884 0.43086584203541661 0.2920213800610702 0.55216951734263142 0.33959064645931741 -0.02956868707901349 -0.078390246166679931 0.32010833645963427 -0.10881763554368674 -1.4585774442404802 0.30584420316546596 0.8908235622762698 41.1785169763494 0.87327169324483955 -0.48705478215405495 0.11544534003020314 0.27723894858919912 -0.13839607256403938
decision_type=10 10 10 10 10 10 10 10 8 10 10 10 8 10 8 8 8 10 10 10 10 10 10 8 8 10 10 10
left_child=1 3 -2 5 15 8 11 12 19 -4 -9 13 -5 14 26 -3 -16 -8 -11 23 -21 -15 -13 -1 -10 -26 -6 -25
right_child=2 4 9 7 6 -7 17 10 24 18 -12 22 -14 21 16 -17 -18 -19 -20 20 -22 -23 -24 27 25 -27 -28 -29
leaf_value=-0.001205923830959351 0.016018605577947046 -0.0019627590085817166 0.007870025845112167 0.0035169046189461395 -0.0047684226879064675 -0.0034672748476878021 -0.0013477309798752969 0.0037732079704945009 0.0013764483305268667 0.0051286266456082733 0.0072542843773347326 -0.0058868189935998971 0.00077633518001077187 -0.0058271472709124266 -0.0038767108454442209 -0.00031799851497002767 -0.0024315121930086532 -0.0028122426088844753 0.0040852112172091943 0.00051455564441096858 -0.00069575471593896451 -0.0050309730395175882 -0.0067790814560969416 -0.00062719836961357708 0.0025197029265580061 0.0015173411062071106 -0.0054019086173877819 -0.00022264694776638348
leaf_weight=20 23 23 21 30 28 33 35 20 21 20 24 24 22 33 25 27 33 21 38 30 21 29 25 23 26 20 20 22
leaf_count=20 23 23 21 30 28 33 35 20 21 20 24 24 22 33 25 27 33 21 38 30 21 29 25 23 26 20 20 22
internal_value=-0.000130574 -0.00139802 0.00775989 0.00108936 -0.00380069 -0.000149407 -0.00429998 0.0038766 0.000448897 0.00535546 0.00567198 -0.00492012 0.00235743 -0.00450539 -0.00395011 -0.00107459 -0.00305444 -0.00189692 0.00444501 -0.000367383 1.61926e-05 -0.00545474 -0.00634205 -0.000668343 0.00186216 0.00208389 -0.00503238 -0.000429418
internal_weight=737 635 102 312 323 216 273 96 183 79 44 217 52 168 106 50 58 56 58 116 51 62 49 65 67 46 48 45
internal_count=737 635 102 312 323 216 273 96 183 79 44 217 52 168 106 50 58 56 58 116 51 62 49 65 67 46 48 45
is_linear=0
shrinkage=0.0426353


Tree=2
num_leaves=28
num_cat=0
split_feature=86 60 67 12 70 31 66 58 60 60 56 41 60 56 52 45 31 56 48 43 33 58 56 33 49 60 60
split_gain=3.70301 1.93391 1.00825 0.534643 0.221671 0.221393 0.209855 0.169652 0.092903 0.0895412 0.0647863 0.0578603 0.0463185 0.0488907 0.0188662 0.0169411 0.0128249 0.012405 0.0108406 0.010499 0.00816231 0.00727735 0.00710103 0.00493346 0.00312069 0.00207142 0.00119043
threshold=0.35187004890704032 0.019062122579863224 0.15345608252204648 0.088989151994778012 0.029074251223607427 0.44500540807272132 0.092953432014816859 -0.52018402775527839 0.010780093745856735 0.23103194984752476 0.27282098995465442 -0.056983418330081123 0.55216951734263142 -0.0065674690346123931 0.9737226031772247 -0.02956868707901349 0.1828988487397549 0.85978142973486804 -0.078390246166679931 0.32603485816642125 -0.09380438152776148 0.23222249511166848 0.43512543782728857 0.8908235622762698 -0.76225957708879266 0.27241484630344237 -0.10432493354933046
decision_type=8 10 10 10 10 2 8 10 8 10 10 10 10 8 10 8 2 8 8 10 10 10 10 10 8 10 10
left_child=2 3 -1 5 15 8 19 -5 17 20 12 -9 13 25 -13 -3 -10 21 -15 -6 -4 -2 -12 -14 -19 -8 -26
right_child=1 4 9 7 6 -7 10 11 16 -11 22 14 23 18 -16 -17 -18 24 -20 -21 -22 -23 -24 -25 26 -27 -28
leaf_value=0.015335647016504391 -0.00016704793041017908 -0.001879076117646411 0.0049040991935446181 0.0067317754218028927 -0.0012027694509630861 -0.0030181071411315239 -0.0045935397711345553 0.00070420475081261764 0.0024378511234093439 0.0074615697278495536 -0.0066063102767900273 0.0040686226422936593 -0.0055787045616501737 -0.0036814359096234636 0.0023890410649608741 -0.00030444054772125112 0.0012516108376382784 -0.0010327056738121967 -0.0025516198407489884 -0.0024206051551641651 0.0038350232754741343 0.00093414191108622468 -0.0055905171995959176 -0.0048164756955999602 -0.00057826285288972484 -0.0051868193335319343 -0.00014758868079415741
leaf_weight=23 24 23 21 25 31 39 23 20 30 22 22 31 33 26 20 27 37 20 38 22 34 20 29 29 28 20 20
leaf_count=23 24 23 21 25 31 39 23 20 30 22 22 31 33 26 20 27 37 20 38 22 34 20 29 29 28 20 20
internal_value=-0.000125007 -0.00132242 0.00750251 0.0010602 -0.00363865 -0.000107269 -0.00411665 0.00371132 0.000526936 0.00516275 -0.00469684 0.00264778 -0.00429492 -0.00375763 0.00340996 -0.00102877 0.00178276 -0.000224317 -0.00301061 -0.00170829 0.00424322 0.000333493 -0.0060287 -0.00522218 -0.000585254 -0.00486948 -0.000398815
internal_weight=737 637 100 314 323 218 273 96 179 77 220 71 169 107 51 50 67 112 64 53 55 44 51 62 68 43 48
internal_count=737 637 100 314 323 218 273 96 179 77 220 71 169 107 51 50 67 112 64 53 55 44 51 62 68 43 48
is_linear=0
shrinkage=0.0426353


Tree=3
num_leaves=27
num_cat=0
split_feature=88 60 66 16 70 76 66 58 60 31 35 60 66 55 46 48 74 48 31 43 31 56 44 80 90 60
split_gain=3.40842 1.7532 0.938267 0.49814 0.203172 0.201029 0.192342 0.155615 0.0995265 0.0600366 0.050942 0.0458229 0.0373951 0.0283377 0.0158834 0.0152802 0.015119 0.0139546 0.0117546 0.00962279 0.00836508 0.00844681 0.00803697 0.00574455 0.00520691 0.000681375
threshold=0.19232534655309447 0.019062122579863224 0.049532978687738392 0.075542607725918892 0.029074251223607427 0.27353355595142576 0.092953432014816859 -0.4756627608625093 0.010780093745856735 0.46845065025922633 0.07104890202132845 0.55216951734263142 0.13134835909179041 0.33959064645931741 0.87042321604154727 -0.9552558012222957 0.52016914793685132 -0.078390246166679931 0.1828988487397549 0.32603485816642125 0.41985539875450112 0.85978142973486804 -0.050735529073063446 0.89082356227626891 0.89709919623810497 -0.11517077600994151
decision_type=10 10 10 10 10 8 8 10 8 2 10 10 10 8 10 10 10 8 2 10 2 8 10 10 10 10
left_child=1 3 -2 5 15 -1 19 -5 20 11 -9 13 -4 -8 -12 -3 24 -15 -10 -6 21 -7 -14 -13 -11 -23
right_child=2 4 12 7 6 8 9 10 18 16 14 23 22 17 -16 -17 -18 -19 -20 -21 -22 25 -24 -25 -26 -27
leaf_value=-0.0033154898708134873 0.013762340474660099 -0.00029700173308198566 0.0061741941782015386 0.0062281573577796234 -0.001151488962768854 0.00046221024475680809 -0.0045366277368139611 0.0006437500515089513 0.0023339125306445357 -0.0052720262239511657 0.0038603257914849999 -0.005291246833411662 0.0045361843699689248 -0.0035544665066405828 0.0022871834436217534 -0.0017924561912330327 -0.0060921681796489444 -0.0022190546615359838 0.0011982479626928555 -0.0023174018226817679 -0.00087163301539718008 -0.00057665392430436471 0.0034959075084851229 -0.0043779560142424116 -0.00440802785703121 -0.00025776517746533162
leaf_weight=31 28 27 20 28 31 30 24 20 30 32 28 31 27 25 20 23 33 33 37 22 38 29 27 21 21 21
leaf_count=31 28 27 20 28 31 30 24 20 30 32 28 31 27 25 20 23 33 33 37 22 38 29 27 21 21 21
internal_value=-0.000119677 -0.00128173 0.00711467 0.000997682 -0.00348351 -0.000138053 -0.00394113 0.00355309 0.000394383 -0.00449659 0.00245159 -0.00393235 0.00459933 -0.00330451 0.00320485 -0.000984911 -0.00537576 -0.00279466 0.00170675 -0.00163545 -0.000350778 -0.000103372 0.00401605 -0.00492242 -0.00492969 -0.000442721
internal_weight=737 635 102 312 323 216 273 96 185 220 68 134 74 82 48 50 86 58 67 53 118 80 54 52 53 50
internal_count=737 635 102 312 323 216 273 96 185 220 68 134 74 82 48 50 86 58 67 53 118 80 54 52 53 50
is_linear=0
shrinkage=0.0426353


Tree=4
num_leaves=29
num_cat=0
split_feature=88 60 33 12 70 76 66 27 60 67 31 47 60 66 56 74 40 31 31 31 43 56 94 33 90 31 31 60
split_gain=3.12397 1.60689 0.872321 0.456569 0.186391 0.184363 0.171412 0.1171 0.0946272 0.0918756 0.0600727 0.0564989 0.0456716 0.0431005 0.0288607 0.0138573 0.0127464 0.0108466 0.0100753 0.00907104 0.00881974 0.0077419 0.00638114 0.00526515 0.00477237 0.00164706 0.0013741 0.000624512
threshold=0.19232534655309447 0.019062122579863224 -0.18756074422108329 0.088989151994778012 1.0000000180025095e-35 0.26777721067825327 0.092953432014816859 37.531025046298048 0.010780093745856735 0.22825915244493131 0.46845065025922633 0.05972103740576884 0.55216951734263142 0.64476823116506898 0.0053501014521555755 0.52016914793685132 -0.0012318266475045325 0.17449851343945624 0.21730760341003927 0.41985539875450112 0.32603485816642125 0.85978142973486804 -0.10881763554368674 0.8908235622762698 0.89709919623810497 0.43787280110813037 0.19227437838617892 -0.11517077600994151
decision_type=10 10 10 10 10 8 8 10 8 10 2 10 10 10 8 10 10 2 2 2 10 8 10 10 10 2 2 10
left_child=1 3 -2 5 18 -1 20 13 19 -4 12 -9 14 -5 -8 24 -16 -10 -3 21 -6 -7 -11 -14 -12 -21 -19 -23
right_child=2 4 9 7 6 8 10 11 17 22 15 -13 23 -15 16 -17 -18 26 -20 25 -22 27 -24 -25 -26 -27 -28 -29
leaf_value=-0.0033597664039631599 0.014554892256808623 -7.609162596902248e-05 0.0070839629545454783 0.00047922894706720358 -0.0011023948472121891 0.00044250375685563672 -0.0043048603995749363 0.003346766189420626 0.0024098284642193415 0.0045159392514667746 -0.0050472514898252186 0.0064150496402463238 -0.0050656526272733985 0.0030022607259786887 -0.0034290264210956253 -0.0058324266422182863 -0.0021455606117998642 0.0014750682378284173 -0.0013599578112259878 -0.00060198833244524421 -0.002218598592378817 -0.00055206808346537292 0.0035750767638664176 -0.0041913004475472304 -0.0042200899576338158 -0.0011426084574730311 0.0010028203048452413 -0.00024677527874909913
leaf_weight=28 21 20 23 20 31 30 26 20 22 20 32 24 31 32 22 33 39 24 25 20 22 29 38 21 21 21 21 21
leaf_count=28 21 20 23 20 31 30 26 20 22 20 32 24 31 32 22 33 39 24 25 20 22 29 38 21 21 21 21 21
internal_value=-0.000114575 -0.00122708 0.00681133 0.000955145 -0.00333499 -0.000132167 -0.00374706 0.0034016 0.000348539 0.00480374 -0.00426088 0.00502038 -0.00371291 0.00203186 -0.00311542 -0.00514656 -0.00260845 0.00163399 -0.000789351 -0.000363237 -0.00156572 -9.89643e-05 0.00389951 -0.00471255 -0.00471951 -0.000878891 0.00125469 -0.000423845
internal_weight=737 635 102 312 323 216 278 96 188 81 225 44 139 52 87 86 61 67 45 121 53 80 58 52 53 41 45 50
internal_count=737 635 102 312 323 216 278 96 188 81 225 44 139 52 87 86 61 67 45 121 53 80 58 52 53 41 45 50
is_linear=0
shrinkage=0.0426353


Tree=5
num_leaves=30
num_cat=0
split_feature=32 66 63 41 67 68 9 64 47 66 13 70 78 50 28 65 59 50 16 50 50 27 56 48 49 49 27 30 50
split_gain=3.12605 1.60229 0.857497 0.526754 0.141533 0.136876 0.100871 0.0585689 0.072797 0.0573884 0.0522991 0.0398762 0.0221137 0.0197389 0.0178741 0.0143949 0.0110728 0.00759626 0.00608659 0.00550522 0.00467854 0.00427723 0.00426516 0.00405911 0.00346825 0.00195648 0.000909045 0.000449987 0.000288771
threshold=-0.023325038751443768 0.068353653204307432 0.47051145363653502 0.74101585252051205 0.18462709646923886 -1.0471260484596672 0.45120934755529851 0.47732166046331209 0.049166572422713314 0.35697129379859743 1.0000000180025095e-35 1.0207066987643116 0.021989805294421485 -0.036446083208317805 14.446076110621531 0.20531750635599358 -0.91769211736989631 0.16073809966860908 0.069703390010161528 0.16754412982908715 0.11734116435597484 41.1785169763494 0.85522836753633713 -0.8193455112567315 -0.73098678014553753 -0.96462939601568454 45.403507209173078 -0.0041952063250530391 0.045321610975950125
decision_type=10 8 10 8 8 8 10 10 8 8 10 10 8 8 10 10 10 10 8 10 10 10 10 10 10 10 10 10 8
left_child=1 -1 4 10 15 -4 13 8 -6 -7 17 14 16 -5 -10 -2 -11 -3 23 -8 27 -9 -14 -16 -12 -25 -20 -15 -29
right_child=2 3 5 6 7 9 19 21 11 12 24 -13 22 20 18 -17 -18 -19 26 -21 -22 -23 -24 25 -26 -27 -28 28 -30
leaf_value=0.011721164793999771 -0.0023706146730553615 0.0043950190334254369 0.0028565204291348938 0.00064048880411330766 -0.0013899500891629178 0.0017968431516554707 -0.0003777490551279187 -0.0048310416181406232 -0.0032474456569769323 -0.00082720577074618987 0.0063431944549710321 -0.0023943351098298614 0.00031028997459590761 0.0021975138615188436 -0.0037435464810530021 -0.00089394299984586994 -0.0020611004863369769 0.003295078978891424 -0.0045821461005294646 -0.0012817720357116221 0.0012862678448094555 -0.0056359755002463154 -0.0004990318200890308 -0.0040929938295758703 0.0055674420822288484 -0.0046538935983292656 -0.0049397313535159727 0.0020683472120404381 0.0018392360262911593
leaf_weight=37 20 25 31 35 23 20 25 21 29 39 22 26 29 21 26 30 20 21 24 24 20 28 20 20 20 26 28 20 20
leaf_count=37 20 25 31 35 23 20 25 21 29 39 22 26 29 21 26 30 20 21 24 24 20 28 20 20 20 26 28 20 20
internal_value=-3.26011e-05 0.0034341 -0.00221813 0.00222216 -0.00355603 0.000314615 0.000801428 -0.00396866 -0.0036479 -0.000301003 0.00488604 -0.00393802 -0.000689493 0.00148657 -0.00420035 -0.00148461 -0.00124548 0.00389287 -0.0044232 -0.000820536 0.00185216 -0.005291 -2.00455e-05 -0.00416935 0.00597379 -0.00441002 -0.00477469 0.0020377 0.00195379
internal_weight=750 290 460 253 301 159 165 251 202 128 88 179 108 116 153 50 59 46 124 49 81 49 49 72 42 46 52 61 40
internal_count=750 290 460 253 301 159 165 251 202 128 88 179 108 116 153 50 59 46 124 49 81 49 49 72 42 46 52 61 40
is_linear=0
shrinkage=0.0426353


Tree=6
num_leaves=28
num_cat=0
split_feature=32 72 22 46 62 78 7 56 78 47 28 67 50 50 79 28 47 44 33 35 81 36 50 50 27 1 7
split_gain=2.86517 1.46857 0.688391 0.489457 0.181837 0.0996364 0.0878198 0.0787807 0.075062 0.0755531 0.0445997 0.0422164 0.0401712 0.0162146 0.0137906 0.0129432 0.0121006 0.0113714 0.00922814 0.00850346 0.00722609 0.00573269 0.00504579 0.00349904 0.00161255 0.000916201 0.000792274
threshold=-0.023325038751443768 0.53514950585543386 0.089004528474216763 0.88015712933512769 0.65564137698020397 0.45551616007509738 0.45131127877509508 0.44071720168991385 -0.039178511553273683 0.051719978665723546 12.288673848536058 0.23404334758397813 -0.021246486446474092 -0.036446083208317805 -1.3271152790956011 14.446076110621531 0.057156341356064629 0.5252012276147674 0.74243647213633224 0.32603485816642125 -0.20623295168540304 0.92827227221595843 0.16754412982908715 0.11734116435597484 45.403507209173078 0.18214405965596156 0.45131127877509508
decision_type=10 8 10 8 10 10 10 10 10 8 10 10 10 8 8 10 10 10 10 10 8 10 10 10 10 10 8
left_child=1 -1 4 11 5 8 13 10 9 -2 -4 16 14 -5 -11 -14 -3 25 24 -7 -12 -20 -8 26 -17 -10 -15
right_child=2 3 7 6 -6 19 22 -9 17 12 20 -13 15 23 -16 18 -18 -19 21 -21 -22 -23 -24 -25 -26 -27 -28
leaf_value=0.011221428992372984 -0.0011034769302981683 0.0045795735174975422 0.0016969499415788055 0.00061318133713109992 -9.090551150155495e-05 -0.00099875718449894961 -0.00036164357555665987 0.0027863838787466561 -0.0045024008500555513 -0.0034122445002789238 -0.0010137435605171959 0.0035449970478943875 -0.0030200552999927722 0.0016910193983039393 -0.0019762553796443842 -0.0043462743415965989 0.0059086164885000046 -0.0053752227502483494 -0.0033153120019321289 -0.002111668257682628 2.719763026998889e-05 -0.0042378226063902492 -0.0012271232346576328 0.0012314273658127742 -0.0048599010151212357 -0.0041237685343425631 0.002013143727436004
leaf_weight=37 27 20 24 35 35 24 25 30 26 20 27 38 21 23 31 20 33 32 24 26 22 25 24 20 25 21 35
leaf_count=37 27 20 24 35 35 24 25 30 26 20 27 38 21 23 31 20 33 32 24 26 22 25 24 20 25 21 35
internal_value=-3.12111e-05 0.00328769 -0.00212356 0.00212742 -0.00300948 -0.00332671 0.000721922 0.000947045 -0.00364827 -0.00319513 0.000191152 0.00462951 -0.00353534 0.00137561 -0.00253939 -0.00397702 0.00540709 -0.0047553 -0.00419081 -0.00157747 -0.000546382 -0.00378598 -0.000785552 0.00171772 -0.00463162 -0.00433322 0.0018854
internal_weight=750 290 460 253 357 322 162 103 272 193 73 91 166 113 51 115 53 79 94 50 49 49 49 78 45 47 58
internal_count=750 290 460 253 357 322 162 103 272 193 73 91 166 113 51 115 53 79 94 50 49 49 49 78 45 47 58
is_linear=0
shrinkage=0.0426353


Tree=7
num_leaves=29
num_cat=0
split_feature=32 66 55 46 81 67 9 73 74 58 60 70 57 79 46 28 9 31 57 31 33 60 49 60 77 70 45 28
split_gain=2.62606 1.34602 0.719683 0.44861 0.125273 0.113404 0.080491 0.0626255 0.0480059 0.042221 0.0341893 0.0333219 0.028197 0.0148689 0.0137004 0.012689 0.0112126 0.0074392 0.00671269 0.00668298 0.005415 0.00473103 0.00410352 0.00395149 0.00348204 0.00263429 0.00221133 0.00163833
threshold=-0.023325038751443768 0.068353653204307432 0.44094682889524706 0.88015712933512769 -0.20623295168540304 0.19106200697923523 0.45120934755529851 0.33959064645931741 0.44220202141549075 0.15654830500559772 0.17331586650724387 1.0207066987643116 0.28330734014156317 -1.168141544630491 0.31215914945217976 14.446076110621531 -0.4983326699975057 0.19227437838617892 0.11876921080484432 0.19286964925776015 0.14825831385495558 -0.16719046088563644 -0.94279253097316029 0.32714932346577597 0.23718506777814963 -0.22146729317717009 -0.14814566293822584 14.956066784005696
decision_type=10 8 10 8 8 8 10 10 10 10 10 10 10 10 10 10 8 2 10 2 10 10 10 8 10 10 10 10
left_child=1 -1 5 9 13 14 16 21 10 18 -7 15 -9 -4 -2 -12 23 -18 -3 -8 26 -6 -22 -5 -10 -11 -17 -15
right_child=2 3 4 6 7 8 19 12 24 25 11 -13 -14 27 -16 20 17 -19 -20 -21 22 -23 -24 -25 -26 -27 -28 -29
leaf_value=0.010742999668214815 -0.00089102953485387299 0.0057383696499560847 -0.002278426309366012 0.00033103405207146109 0.00039471097050038719 -0.0021400692235600195 -0.00033856236010103822 0.0028554618144838789 -0.0052661591423358526 0.0030844581601547519 -0.0029171650208488068 -0.0021842452760813631 0.00086843546122440825 -0.0005842904789095714 -0.0022681439908250299 -0.004572162288148481 0.0020739178413873081 0.0012009932077080177 0.0047495640957196071 -0.0013516308408234405 -0.0034967587196828918 -0.00043741054729359765 -0.0042623204574214618 0.0011590683338913352 -0.0045459910638777287 0.0037681637826381177 -0.0040438206244170658 -0.0011234746561630269
leaf_weight=37 29 26 20 20 27 33 29 34 23 21 20 24 21 20 24 36 36 35 24 20 35 23 20 22 26 20 24 21
leaf_count=37 29 26 20 20 27 33 29 34 23 21 20 24 21 20 24 36 36 35 24 20 35 23 20 22 26 20 24 21
internal_value=-2.98804e-05 0.00314752 -0.00203302 0.00203672 0.000211279 -0.00330021 0.000691142 0.001104 -0.00369289 0.00443213 -0.00338891 -0.0036481 0.00209678 -0.00132537 -0.00151463 -0.00390834 0.00131696 0.0016436 0.00526374 -0.00075206 -0.00408072 1.19351e-05 -0.00377514 0.000764766 -0.00488403 0.00341797 -0.00436083 -0.000860458
internal_weight=750 290 460 253 166 294 162 105 241 91 192 159 55 61 53 135 113 71 50 49 115 50 55 42 49 41 60 41
internal_count=750 290 460 253 166 294 162 105 241 91 192 159 55 61 53 135 113 71 50 49 115 50 55 42 49 41 60 41
is_linear=0
shrinkage=0.0426353


Tree=8
num_leaves=27
num_cat=0
split_feature=32 72 55 46 70 67 7 76 74 58 67 60 70 79 46 7 31 31 35 49 31 33 54 60 77 60
split_gain=2.40691 1.23374 0.659624 0.403599 0.114293 0.10394 0.0737738 0.0480457 0.0439997 0.0375173 0.0316942 0.0313361 0.0305411 0.0291353 0.0125571 0.0102769 0.00973011 0.00681838 0.00659734 0.00640094 0.00612526 0.00517232 0.00413432 0.00362172 0.00319145 0.00223583
threshold=-0.023325038751443768 0.56393247055360907 0.44094682889524706 0.88015712933512769 -0.10067070447804792 0.19106200697923523 0.45131127877509508 0.28087313105341194 0.44220202141549075 0.18616335192032477 0.26307005174860826 0.17331586650724387 1.0207066987643116 -1.0728414129314967 0.31215914945217976 -0.49789956104391747 0.31531778341899569 0.19227437838617892 0.84183126009551434 -0.73098678014553753 0.19286964925776015 -0.050735529073063446 -0.02956868707901349 0.32714932346577597 0.23718506777814963 0.34414090115678025
decision_type=10 8 10 8 10 8 10 10 10 10 10 10 10 8 10 8 2 2 10 10 2 10 10 8 10 10
left_child=1 -1 5 9 7 14 15 10 11 19 -4 -7 16 -6 -2 23 -13 -17 -15 -3 -8 -18 -23 -5 -10 -24
right_child=2 3 4 6 13 8 20 -9 24 -11 -12 12 -14 18 -16 17 21 -19 -20 -21 -22 22 25 -25 -26 -27
leaf_value=0.010174616519401675 -0.0008530401772997233 0.0055061416486247442 0.0029956180324508387 0.000316920290411765 -0.0019575152135117243 -0.0020488266494856052 -0.00032412764304410723 -0.00015014438761219384 -0.0050416346588954171 0.0031807873711791499 0.00087966879302605976 -0.00287375374931771 -0.0020911192002338146 -0.00064224575894564879 -0.0021714409216840561 0.0019854956318247322 -0.0044088602842162691 0.001149788436691784 0.0002993806821543988 0.0045552360780554205 -0.0012940035842717141 -0.0032950209012472379 -0.0036484733027272939 0.001109651059189487 -0.0043521711469373964 -0.0041664598818067838
leaf_weight=38 29 22 31 20 29 33 29 25 23 37 22 20 24 38 24 36 27 35 21 31 20 27 28 22 26 33
leaf_count=38 29 22 31 20 29 33 29 25 23 37 22 20 24 38 24 36 27 35 21 31 20 27 28 22 26 33
internal_value=-2.86065e-05 0.00301332 -0.00194634 0.00193344 0.000202271 -0.00315951 0.000661675 0.00139055 -0.00353545 0.00422263 0.0021173 -0.00324442 -0.00349256 -0.000850981 -0.00145005 0.00126081 -0.00374171 0.00157353 -0.000307091 0.00494995 -0.000719995 -0.00389265 -0.00373427 0.00073216 -0.0046758 -0.0039287
internal_weight=750 290 460 252 166 294 162 78 241 90 53 192 159 88 53 113 135 71 59 53 49 115 88 42 49 61
internal_count=750 290 460 252 166 294 162 78 241 90 53 192 159 88 53 113 135 71 59 53 49 115 88 42 49 61
is_linear=0
shrinkage=0.0426353


Tree=9
num_leaves=29
num_cat=0
split_feature=32 66 63 46 67 66 9 58 64 47 28 70 79 28 50 46 66 31 31 31 50 36 50 77 46 58 60 28
split_gain=2.20605 1.14119 0.608823 0.426384 0.0990331 0.0966338 0.0676172 0.0440911 0.0430671 0.0539091 0.0424172 0.0280163 0.0169705 0.0155766 0.0132688 0.0098752 0.00885159 0.00595536 0.00561409 0.00431835 0.00424371 0.00411987 0.00387887 0.00324927 0.0031234 0.00144468 0.00134414 0.0013634
threshold=-0.023325038751443768 0.049532978687738392 0.4766334348184052 0.88015712933512769 0.18462709646923886 0.64476823116506898 0.45120934755529851 0.15654830500559772 0.47732166046331209 0.049166572422713314 12.41061273753358 1.0207066987643116 -1.0635869390398254 14.446076110621531 -0.036446083208317805 0.31215914945217976 0.092953432014816859 0.39735536975625457 0.19286964925776015 0.18447932357229277 0.02242709078611552 0.13095311023129644 0.16073809966860908 0.23718506777814963 0.51338314605698943 0.24592189691062086 0.34895185819920921 17.52356665741765
decision_type=10 8 10 8 8 10 10 10 10 8 10 10 8 10 8 10 10 2 2 2 8 10 10 10 10 10 10 10
left_child=1 -1 4 7 15 10 14 16 9 -6 -4 13 -12 -11 -5 -2 -3 -14 -8 -16 -21 26 -9 -10 -23 -19 -15 -28
right_child=2 3 5 6 8 -7 18 22 23 11 12 -13 17 21 19 -17 -18 25 -20 20 -22 24 -24 -25 -26 -27 27 -29
leaf_value=0.010758496025543764 -0.00075678822220574869 0.005485270069254684 0.0015796031563636783 0.0005173514711617679 -0.0011056228389760574 0.0024677782676510791 -0.00031030835105559234 0.0035548644305568727 -0.004826682815329825 -0.0026594143075928584 -0.0014197421426907562 -0.0020018414391958016 0.00033282972113141043 -0.0036862852815646319 0.0019404561121298695 -0.0019798604305328454 0.0044224989218635226 -0.0006870202590219199 -0.0012388333176258882 0.0017222595373190476 0.00093096706074837952 -0.0032051123316220102 0.0027252242485278052 -0.0041310014806961934 -0.0038258861234146419 -0.00024111243663961076 -0.0043481490680342804 -0.0038678684442531039
leaf_weight=30 30 29 20 35 23 30 29 20 23 31 30 26 24 21 28 20 28 28 20 22 28 34 21 26 26 25 21 22
leaf_count=30 30 29 20 35 23 30 29 20 23 31 30 26 24 21 28 20 28 28 20 22 28 34 21 26 26 25 21 22
internal_value=-2.73868e-05 0.00288485 -0.00186336 0.00197635 -0.00297988 0.000291444 0.000633465 0.00419622 -0.00332254 -0.00304991 -0.000222651 -0.00329698 -0.000559521 -0.00351423 0.00120705 -0.00124602 0.00496321 -0.00022437 -0.000689298 0.00151653 0.00127914 -0.00372793 0.00312993 -0.00445755 -0.00347411 -0.000476686 -0.00396588 -0.00410242
internal_weight=750 290 460 260 303 157 162 98 253 204 127 181 107 155 113 50 57 77 49 78 50 124 41 49 60 53 64 43
internal_count=750 290 460 260 303 157 162 98 253 204 127 181 107 155 113 50 57 77 49 78 50 124 41 49 60 53 64 43
is_linear=0
shrinkage=0.0426353


Tree=10
num_leaves=30
num_cat=0
split_feature=87 70 61 13 58 64 79 61 28 7 60 66 66 53 33 7 58 50 60 60 27 45 31 70 33 90 90 77 50
split_gain=2.43888 1.14491 0.458535 0.253352 0.251109 0.0936288 0.0748112 0.0663621 0.0571144 0.0399021 0.0299918 0.0440466 0.0234458 0.0230546 0.0186495 0.0168003 0.00919721 0.0082198 0.00720927 0.00453951 0.00438359 0.00369166 0.00362348 0.0031672 0.00291657 0.00254441 0.00271777 0.0024155 0.00214119
threshold=0.28336785533852293 -0.04241709732493943 0.63182653420030177 0.11155777151645981 -0.4756627608625093 0.47417490204021945 -1.3271152790956011 0.65683207411218869 12.078128417711445 0.20489469971437557 0.53627946972277762 0.096004104251604425 0.64476823116506898 0.034167680127144044 0.38102298439012239 -0.49789956104391747 0.10920540327916199 0.13915688835763182 0.077375999863639758 0.20918581625073626 31.363256720928991 1.0133534174467689 0.18026965098514228 0.13160886371898398 0.91611087543535752 0.90794534446862729 1.1694241075274789 0.23718506777814963 -0.11274162965335369
decision_type=8 10 10 8 10 10 10 10 8 10 10 10 8 10 10 8 10 10 8 10 10 8 2 10 10 10 10 10 10
left_child=4 3 5 13 -1 6 10 -4 -5 12 11 19 16 20 25 18 -10 28 -14 -3 -2 -21 -11 -13 -12 -8 -27 -7 -17
right_child=1 2 7 8 -6 27 14 -9 9 22 24 23 15 -15 -16 17 -18 -19 -20 21 -22 -23 -24 -25 -26 26 -28 -29 -30
leaf_value=0.012979793356933439 0.0034693005361403147 -0.0012502686012085015 0.0001175066586108908 0.0024609355855125486 0.006608433085254134 -0.0046420057562998945 -0.0013426512935022325 0.0029789112131157714 -0.00050427314255776059 -0.00030148361135470272 -0.0038995946054622547 -0.0029227443398285547 1.599418737011365e-05 0.0045883095795215571 -0.002437019244535888 0.0015459712869451689 0.0006928104797790975 0.00083418820955415574 0.0010120975373508932 -0.0023607252217342201 0.0025873342711760323 -0.0015687055753087255 -0.0011033460821164988 -0.003565550068652485 -0.0033034517632839961 -0.00044123093517041786 -0.0011356853644626348 -0.0040523264988474427 0.0021247997792353005
leaf_weight=22 20 23 34 31 23 28 25 26 28 21 35 22 25 29 22 21 20 20 28 23 21 20 20 38 26 20 21 23 26
leaf_count=22 20 23 34 31 23 28 25 26 28 21 35 22 25 29 22 21 20 20 28 23 21 20 20 38 26 20 21 23 26
internal_value=0.000103791 -0.000518161 -0.00206783 0.00141142 0.00972332 -0.00269825 -0.00238709 0.00135745 0.000753167 0.000499861 -0.00286949 -0.0024938 0.000790888 0.0036683 -0.00136199 0.00110944 -5.4883e-06 0.00155812 0.000542237 -0.00173374 0.00301756 -0.00199234 -0.000692636 -0.00332985 -0.0036455 -0.00100364 -0.000796927 -0.00437607 0.00186617
internal_weight=741 696 386 310 45 326 275 60 240 209 187 126 168 70 88 120 48 67 53 66 41 43 41 60 61 66 41 51 47
internal_count=741 696 386 310 45 326 275 60 240 209 187 126 168 70 88 120 48 67 53 66 41 43 41 60 61 66 41 51 47
is_linear=0
shrinkage=0.0426353


Tree=11
num_leaves=29
num_cat=0
split_feature=86 70 56 13 58 64 79 61 28 9 60 66 88 53 67 60 36 31 48 27 31 70 48 33 58 60 31 75
split_gain=2.23534 1.04936 0.420269 0.232209 0.230153 0.0858152 0.068568 0.060824 0.052348 0.0365722 0.0275201 0.0418975 0.0221937 0.0211306 0.0188224 0.0246044 0.0171064 0.00745687 0.00672709 0.00401777 0.00332109 0.00290288 0.00273203 0.00234292 0.00223496 0.00207205 0.00203118 0.00102565
threshold=0.21231593120447564 -0.04241709732493943 0.84029797302388265 0.11155777151645981 -0.4756627608625093 0.47417490204021945 -1.3271152790956011 0.65683207411218869 12.078128417711445 0.20410751465085772 0.52063020349968403 0.096004104251604425 0.19232534655309447 0.034167680127144044 0.31998768126468863 0.14632171858731835 0.40490440948470535 0.17449851343945624 -0.097089574875618354 31.363256720928991 0.18026965098514228 0.13160886371898398 -0.28521759047789896 0.91611087543535752 -0.072371369490226337 -0.013817211929407656 0.19182357955624588 0.86464315929716873
decision_type=8 10 10 8 10 10 10 10 8 10 10 10 8 10 8 8 10 2 8 10 2 10 10 10 10 10 2 10
left_child=4 3 5 13 -1 6 10 -4 -5 12 11 18 -10 19 -14 25 22 -17 -3 -2 -11 -13 -8 -12 -7 -16 -19 -24
right_child=1 2 7 8 -6 24 16 -9 9 20 23 21 14 -15 15 17 -18 26 -20 -21 -22 -23 27 -25 -26 -27 -28 -29
leaf_value=0.0124263949306025 0.0033213856904880804 -0.0021656119796739028 0.00011249672669429262 0.0023560127580995807 0.0063266802070982529 -0.0039233975559092938 -0.0005628746186566025 0.0028519043265412326 -0.00031568160857856553 -0.00028862974342320873 -0.0036907265390244636 -0.0027981321093437238 0.0021570628777244486 0.0043926853533451955 -0.00039487002961435954 0.0018195495177626352 -0.0024000078724581838 0.0011756704110455598 -0.0012696883195176703 0.0024770223770287487 -0.0010563045330246833 -0.003413531620701338 -0.00098941407088457977 -0.0031626080804373459 -0.0044888579053193618 0.00021884958476035038 0.00064694115195401854 -0.0013891712650236038
leaf_weight=22 20 25 34 31 23 27 20 26 29 21 37 22 21 29 20 25 20 28 39 21 20 38 28 26 24 20 25 20
leaf_count=22 20 25 34 31 23 27 20 26 29 21 37 22 21 29 20 25 20 28 39 21 20 38 28 26 24 20 25 20
internal_value=9.93659e-05 -0.000496069 -0.00197966 0.00135125 0.00930876 -0.00258321 -0.00228531 0.00129957 0.000721055 0.00047855 -0.00274714 -0.00237848 0.000757168 0.0035119 0.000981 0.0007717 -0.00130392 0.00121258 -0.00161966 0.00288891 -0.000663105 -0.00318789 -0.000981537 -0.00347277 -0.0041895 -8.80102e-05 0.00092627 -0.00115598
internal_weight=741 696 386 310 45 326 275 60 240 209 187 124 168 70 139 118 88 78 64 41 41 60 68 63 51 40 53 48
internal_count=741 696 386 310 45 326 275 60 240 209 187 124 168 70 139 118 88 78 64 41 41 60 68 63 51 40 53 48
is_linear=0
shrinkage=0.0426353


Tree=12
num_leaves=29
num_cat=0
split_feature=86 70 56 13 58 64 79 61 7 59 67 60 66 53 60 54 93 48 60 48 70 80 60 77 40 7 70 40
split_gain=2.0488 0.961792 0.385196 0.212831 0.210946 0.0786537 0.0628458 0.055748 0.0477672 0.0350731 0.0305525 0.0252687 0.0370505 0.0193672 0.0161221 0.0158653 0.0101837 0.00529351 0.0036866 0.00332069 0.00266063 0.00246641 0.00224693 0.00205481 0.00129882 0.00112784 0.000946535 0.00054194
threshold=0.21231593120447564 -0.04241709732493943 0.84029797302388265 0.11155777151645981 -0.4756627608625093 0.47417490204021945 -1.3271152790956011 0.65683207411218869 0.20489469971437557 -1.3410950202696654 0.29954740732476798 0.53627946972277762 0.096004104251604425 0.034167680127144044 0.14632171858731835 0.38102298439012239 0.89802257995140922 -0.16374049937040688 0.037299957504800862 -0.12605060100307763 0.13160886371898398 0.91611087543535608 -0.013817211929407656 0.23718506777814963 -0.045502356864010905 -0.49789956104391747 0.4758601950390568 -0.018515398770337092
decision_type=8 10 10 8 10 10 10 10 10 8 8 10 10 10 8 10 8 8 10 10 10 10 10 10 10 8 10 10
left_child=4 3 5 13 -1 6 11 -4 9 -5 16 12 17 18 27 19 -11 -3 -2 -8 -14 -13 -10 -7 -16 -26 -19 -12
right_child=1 2 7 8 -6 23 15 -9 22 10 14 21 20 -15 24 -17 -18 26 -20 -21 -22 -23 -24 -25 25 -27 -28 -29
leaf_value=0.01189659107753099 0.003160282249979413 -0.0021101765487793779 0.00010770038830942914 -0.00049671268596515952 0.0060569401905201702 -0.0042561522568906798 -0.00055434343054932081 0.0027303124044359994 -0.00032681416418028805 0.0012604633075881514 -4.2230975855231421e-05 -0.0035759785546553543 -0.0026788327823435766 0.0042054017109151177 0.0014571547604737352 -0.0022398704714587801 0.0024729171439293414 -0.0015233512565303608 0.0023514654502021877 -0.0011694376302419625 -0.0032679945845003177 -0.0030277691248186511 -0.00095825389014848102 -0.0037122787787651906 0.00079956196821052007 0.0011951107432197625 -0.0011223060470243811 0.0002678766962114488
leaf_weight=22 21 23 34 26 23 28 27 26 21 20 20 35 22 29 20 22 34 20 20 39 38 26 20 23 20 38 23 21
leaf_count=22 21 23 34 26 23 28 27 26 21 20 20 35 22 29 20 22 34 20 20 39 38 26 20 23 20 38 23 21
internal_value=9.51294e-05 -0.000474919 -0.00189526 0.00129364 0.00891188 -0.00247307 -0.00218788 0.00124417 0.000690313 0.000963333 0.00118276 -0.00263002 -0.00228518 0.00336217 0.000801087 -0.00124832 0.00202386 -0.00158809 0.00276574 -0.000917808 -0.00305197 -0.00334232 -0.000634834 -0.00401088 0.00116088 0.00105871 -0.00130884 0.000116605
internal_weight=741 696 386 310 45 326 275 60 240 199 173 187 126 70 119 88 54 66 41 66 60 61 41 51 78 58 43 41
internal_count=741 696 386 310 45 326 275 60 240 199 173 187 126 70 119 88 54 66 41 66 60 61 41 51 78 58 43 41
is_linear=0
shrinkage=0.0426353


Tree=13
num_leaves=29
num_cat=0
split_feature=86 70 56 13 77 64 79 61 28 60 66 60 66 53 54 70 75 31 48 27 59 70 7 80 31 77 77 31
split_gain=1.87782 0.881527 0.353051 0.195069 0.191133 0.0720898 0.0576011 0.0510957 0.0448141 0.0308475 0.029209 0.0232565 0.035292 0.0177509 0.0145413 0.0109779 0.00687425 0.00669117 0.00573612 0.00338933 0.00305525 0.00243859 0.00238959 0.00199574 0.00190511 0.00190169 0.00131932 0.00117218
threshold=0.21231593120447564 -0.04241709732493943 0.84029797302388265 0.11155777151645981 0.26890564135585521 0.47417490204021945 -1.3271152790956011 0.65683207411218869 12.078128417711445 0.20709394215183616 0.61478535136780177 0.52063020349968403 0.096004104251604425 0.034167680127144044 0.38102298439012239 -0.12598003269733501 -0.12983652719604249 0.17449851343945624 -0.097089574875618354 31.363256720928991 -0.6031650869429489 0.13160886371898398 -0.20039982627087516 0.91611087543535608 0.19182357955624588 0.23581333035122073 0.35744659606674967 0.1828988487397549
decision_type=8 10 10 8 10 10 10 10 8 8 10 10 10 10 10 10 10 2 8 10 10 10 10 10 2 10 10 2
left_child=4 3 5 13 -1 6 11 -4 -5 10 15 12 18 19 20 16 22 -11 -3 -2 26 -14 -10 -13 -19 -7 -8 -24
right_child=1 2 7 8 -6 25 14 -9 9 17 -12 23 21 -15 -16 -17 -18 24 -20 -21 -22 -23 27 -25 -26 -27 -28 -29
leaf_value=0.0060466306783821143 0.0030450376512113518 -0.0019866817064537494 0.00010310854979138755 0.0021736194601167298 0.01163853059625458 -0.0041160115056914377 -0.00091573377312571683 0.0026139045555780551 8.3357935168667854e-05 0.0016878901617364372 0.0015417395374084308 -0.0033861007393941639 -0.0025646198974992713 0.004026103028540483 -0.0021443727874653771 -0.001132427412639516 0.00066895730593213095 0.0010780320819059994 -0.0011593746638152813 0.0022695160444430786 -0.0013186089955180425 -0.0031286624804930164 -0.00020042129975484985 -0.0028986791083725366 0.00056037001292215795 -0.0035944126066584261 -0.00045907101678005811 -0.00064054156975260339
leaf_weight=25 20 25 34 31 20 24 23 26 28 25 20 37 22 29 22 20 20 28 39 21 20 38 22 26 24 27 23 22
leaf_count=25 20 25 34 31 20 24 23 26 28 25 20 37 22 29 22 20 20 28 39 21 20 38 22 26 24 27 23 22
internal_value=9.10735e-05 -0.000454671 -0.00181446 0.00123848 0.00853192 -0.00236763 -0.0020946 0.00119112 0.000660881 0.000436504 4.08957e-05 -0.00251789 -0.00217898 0.00321882 -0.0011951 -0.000227112 -3.03045e-05 0.00111469 -0.00148254 0.00264782 -0.000878677 -0.00292185 -0.000224544 -0.00318494 0.000839111 -0.00383987 -0.000687402 -0.000420481
internal_weight=741 696 386 310 45 326 275 60 240 209 132 187 124 70 88 112 92 77 64 41 66 60 72 63 52 51 46 44
internal_count=741 696 386 310 45 326 275 60 240 209 132 187 124 70 88 112 92 77 64 41 66 60 72 63 52 51 46 44
is_linear=0
shrinkage=0.0426353


Tree=14
num_leaves=29
num_cat=0
split_feature=86 60 0 18 58 81 75 60 15 77 41 63 79 57 84 42 50 60 41 50 48 41 31 35 60 30 50 27
split_gain=1.72111 0.690386 0.252628 0.250247 0.178642 0.150788 0.0690075 0.0595536 0.0468045 0.04576 0.0316775 0.0294531 0.0221252 0.035416 0.0167291 0.015885 0.0118628 0.0109012 0.00614536 0.00349337 0.00548459 0.00349005 0.00247502 0.00188803 0.00180936 0.00130991 0.00102483 0.00042808
threshold=0.21231593120447564 0.080747596410268754 23137810.500000004 0.10035195034406122 -0.4756627608625093 -0.20623295168540304 0.78582205132378025 0.51899021618809227 -0.00011069852620186202 0.39313166585450204 0.78474741610368748 0.51626036953709165 -1.0509524007052591 0.24703974148608668 -0.14517525422878969 0.44515477234903778 0.12227577243175106 0.058266136364237338 0.83380756194820171 0.13915688835763182 -0.31828900086991774 0.4766334348184052 0.1828988487397549 0.80926319991435747 0.72983598020931029 0.0058683540742930735 -0.053062961218738963 63.605459402719973
decision_type=8 10 2 10 10 8 8 10 10 10 10 10 8 8 10 10 10 8 10 10 10 10 2 10 10 10 10 10
left_child=4 3 -3 5 -1 11 21 9 12 15 14 -2 -7 -14 -5 19 25 18 22 20 -8 -4 26 -17 -9 -15 -10 -26
right_child=1 2 6 10 -6 8 7 24 17 -11 -12 -13 13 16 -16 23 -18 -19 -20 -21 -22 -23 -24 -25 27 -27 -28 -29
leaf_value=0.010914837466824015 -0.0026985462351901269 0.002671362600789825 -0.0031721352157266722 0.0039421141461131867 0.0055409002295206842 5.319815480718298e-06 -4.9894386469131911e-05 -0.0027388105142822539 -0.0003825930613089664 -0.0028172582949621437 0.0014250792217973575 -0.00085684781168965472 0.0027066332542351273 0.0016501478177843867 0.0024574767746550854 -0.0015121937658399271 0.00037267737582960048 0.00076617618668211587 0.00045893077835885596 -0.0011482510223424871 -0.00092437910546409982 -0.0038358852536344891 -0.0007128031755501492 -0.0020980272169769322 -0.0033524397135120047 0.0011933859451011078 4.3851736961183543e-05 -0.0030768268409048162
leaf_weight=22 27 20 24 37 23 22 22 23 21 37 20 38 31 25 22 20 32 30 21 29 32 36 25 20 20 21 20 21
leaf_count=22 27 20 24 37 23 22 22 23 21 37 20 38 31 25 22 20 32 30 21 29 32 36 25 20 20 21 20 21
internal_value=8.71906e-05 -0.000435286 -0.0019601 0.000747224 0.00816816 0.00020603 -0.00228626 -0.0019423 0.000685115 -0.00150263 0.00289145 -0.00162186 0.00123865 0.00148758 0.00338852 -0.00110717 0.00100308 6.53447e-05 -0.000176321 -0.000770808 -0.000568108 -0.00357039 -0.000378447 -0.00180511 -0.00304148 0.00144163 -0.000174571 -0.00321127
internal_weight=741 696 304 392 45 313 284 224 248 160 79 65 131 109 59 123 78 117 87 83 54 60 66 40 64 46 41 41
internal_count=741 696 304 392 45 313 284 224 248 160 79 65 131 109 59 123 78 117 87 83 54 60 66 40 64 46 41 41
is_linear=0
shrinkage=0.0426353


Tree=15
num_leaves=28
num_cat=0
split_feature=86 60 36 1 77 56 60 33 77 66 60 63 66 50 33 31 31 41 31 31 50 59 28 33 31 63 60
split_gain=1.33202 0.598247 0.4064 0.206793 0.124159 0.0661785 0.0590062 0.0445739 0.0430546 0.0392056 0.0421112 0.0339029 0.020863 0.0120072 0.0116251 0.00606612 0.00513835 0.0046392 0.00358418 0.00380789 0.00330554 0.00632413 0.00265843 0.00222066 0.00205615 0.00154726 0.00126069
threshold=0.35782639940897093 0.070989958239891723 -0.21237681883119588 0.13699351198169443 0.21962828126789516 0.27282098995465442 0.34414090115678025 0.78582205132378025 0.39313166585450204 0.65873436255237905 0.070989958239891723 -0.022591785901727668 0.37422773358851352 0.021154016729546789 0.40063311689710934 0.18645195595369191 0.33539740211903274 -0.0078240135792279047 0.41762369222149254 0.16437564707295735 0.13459031332801141 -1.014421306245253 15.572997827602258 0.95997649344743696 0.37936109047241656 0.18058620609636619 -0.15785614972336875
decision_type=8 10 10 10 10 10 10 10 10 10 8 10 10 10 10 2 2 10 2 2 10 10 10 10 2 10 10
left_child=2 3 -1 4 9 6 8 -5 14 10 18 -4 -6 -8 20 -12 -15 -13 19 -2 21 -3 -10 -18 -21 -7 -26
right_child=1 5 11 7 12 25 13 -9 22 -11 15 17 -14 16 -16 -17 23 -19 -20 24 -22 -23 -24 -25 26 -27 -28
leaf_value=0.0097197246810789839 -0.00039388553621790099 0.00016960987585700388 0.0046593947177770816 0.0040415734783248343 -0.0026344529498303708 -0.0038202766141448882 -0.0017318394252989282 0.0014599121993275909 -0.0021107124275920042 0.002043401972907098 0.0015192014064229816 0.0029129280427484072 -0.00097906105592514194 -0.0022703422250669914 -0.0016044952260613724 0.00072716106678342139 -0.0032767018239873999 0.0021155435304122667 -0.00050993113315795898 0.00040055508156412484 -0.00098942719602077662 -0.00076704019656913551 -0.0027898856479835399 -0.0027374064517834205 0.00019576807049818943 -0.0033255061348416051 -0.00028294358826357546
leaf_weight=22 31 20 20 31 25 20 22 20 20 27 39 36 31 20 30 32 35 21 32 36 31 38 22 23 20 27 20
leaf_count=22 31 20 20 31 25 20 22 20 20 27 39 36 31 20 30 32 35 21 32 36 31 38 22 23 20 27 20
internal_value=1.23298e-06 -0.000698447 0.00460923 0.000523584 8.74603e-05 -0.00206331 -0.00179811 0.00302916 -0.00129288 0.000514085 0.000317458 0.00314909 -0.00171808 -0.00261152 -0.000878676 0.00116223 -0.00285964 0.00261915 -0.000114042 4.35534e-06 -0.000634018 -0.000444057 -0.00246647 -0.00306284 0.000166796 -0.00353605 -4.35878e-05
internal_weight=751 652 99 344 293 308 261 51 161 237 210 77 56 100 119 71 78 57 139 107 89 58 42 58 76 47 40
internal_count=751 652 99 344 293 308 261 51 161 237 210 77 56 100 119 71 78 57 139 107 89 58 42 58 76 47 40
is_linear=0
shrinkage=0.0426353


Tree=16
num_leaves=31
num_cat=0
split_feature=86 31 36 4 1 74 57 7 33 66 45 31 27 7 33 67 31 48 4 31 41 54 31 33 42 90 77 69 50 31
split_gain=1.22086 0.475725 0.372485 0.243127 0.139509 0.0631338 0.0505519 0.041608 0.0408541 0.0310736 0.0221372 0.0173895 0.0172034 0.0158959 0.00811205 0.00808112 0.00590095 0.00575238 0.00544112 0.00459388 0.00425204 0.00407624 0.00369094 0.00284205 0.00289018 0.0027436 0.00200912 0.00185115 0.00050886 0.000307398
threshold=0.35782639940897093 0.4237202017833111 -0.21237681883119588 0.17460159080636048 0.13699351198169443 0.47732166046331209 0.097596523308637884 0.12094529715422241 0.78582205132378025 0.10794561000706832 0.31435173061469562 0.44695975701579066 37.402147524549527 -0.045583236052089256 0.8441592405315882 0.22379119497973479 0.18777370694981568 0.020950304936074089 0.15085355225872421 0.20115462317793686 -0.0078240135792279047 0.80747436864928257 0.17767148449559381 0.13357399941652545 1.0133534174467689 0.73179083922610377 0.23718506777814963 -0.16903650328693545 -0.0030036192634980575 0.19415275303265014
decision_type=8 2 10 10 10 10 10 10 10 10 10 2 10 8 10 10 2 8 10 2 10 10 2 10 8 10 10 8 10 2
left_child=2 3 -1 4 7 6 11 10 -6 -4 13 21 25 17 19 18 -15 -2 -8 -9 -11 -3 -19 -13 -25 -5 -7 28 -20 -24
right_child=1 5 9 12 8 26 15 14 -10 20 -12 23 -14 16 -16 -17 -18 22 27 -21 -22 -23 29 24 -26 -27 -28 -29 -30 -31
leaf_value=0.0093053210104403154 -0.00031879146617174673 -0.0019655404164636669 0.0044607397602781287 -0.001902960392244414 0.0038692595793481878 -0.0035659898151707415 -0.0012891315185085048 -0.00024143455468993101 0.001397668345518922 0.0027887342802505525 0.0019821628452709144 -0.0029867180619414838 -0.0030936670601602202 0.0015923057924134129 0.0003449764911070896 -0.0017637676383343037 0.00066666639247715874 -6.2588197642719444e-06 -0.00062617217122361464 -0.00099483478821578626 0.0020253466077330712 -0.0011047454419972186 0.00078417802867337993 -0.0022169444040011713 -0.0028463185770772888 -0.0012129934449145641 -0.0030298596585668779 -0.00027976301917634686 -0.0009266664935029305 0.00056184822707679659
leaf_weight=22 22 20 20 22 31 27 34 31 20 36 26 26 20 31 23 22 21 20 20 28 21 20 26 36 21 20 24 20 21 20
leaf_count=22 22 20 20 22 31 27 34 31 20 36 26 26 20 31 23 22 21 20 20 28 21 20 26 36 21 20 24 20 21 20
internal_value=1.1804e-06 -0.000668669 0.00441271 0.000365322 0.000869163 -0.00195139 -0.0016619 0.00045153 0.00290001 0.00301482 0.000839667 -0.00226539 -0.00206449 0.000627489 -0.000334212 -0.00102745 0.00121849 0.000278261 -0.000856939 -0.00059898 0.00250749 -0.00153514 0.000477279 -0.00261732 -0.00244882 -0.0015744 -0.00331369 -0.000616044 -0.000780084 0.000687513
internal_weight=751 652 99 361 299 291 240 248 51 77 166 123 62 140 82 117 52 88 95 59 57 40 66 83 57 42 51 61 41 46
internal_count=751 652 99 361 299 291 240 248 51 77 166 123 62 140 82 117 52 88 95 59 57 40 66 83 57 42 51 61 41 46
is_linear=0
shrinkage=0.0426353


Tree=17
num_leaves=29
num_cat=0
split_feature=88 60 36 1 77 56 60 47 77 66 60 55 66 50 42 31 10 31 70 63 35 51 58 80 70 31 63 66
split_gain=1.11898 0.503084 0.3414 0.17363 0.104983 0.0560864 0.0497691 0.0377784 0.0371684 0.0329619 0.0353553 0.0284804 0.0178022 0.0101956 0.0101923 0.00519054 0.00496289 0.00441292 0.00335693 0.00464917 0.00325068 0.00221227 0.0019831 0.00196295 0.00170018 0.00330405 0.0012728 0.000269454
threshold=0.19232534655309447 0.070989958239891723 -0.21237681883119588 0.13699351198169443 0.21962828126789516 0.27282098995465442 0.34414090115678025 0.057156341356064629 0.39313166585450204 0.65873436255237905 0.070989958239891723 -0.010886044528105139 0.37422773358851352 0.021154016729546789 0.43201886665125794 0.18645195595369191 0.060006064070109298 0.33539740211903274 0.61089018582172516 0.85937893782036101 -0.0079369985721905803 -0.069164176891661364 -0.032343506262835338 0.95997649344743563 -0.20427248204099041 0.16437564707295735 0.18058620609636619 0.050493708117387091
decision_type=10 10 10 10 10 10 10 10 10 10 8 10 10 10 10 2 10 2 10 10 10 10 8 10 10 2 10 10
left_child=1 3 -2 4 9 6 8 -5 14 10 18 -4 -6 -8 16 -12 -3 -15 19 24 -13 -10 -18 -19 25 -1 -7 -24
right_child=2 5 11 7 12 26 13 -9 21 -11 15 20 -14 17 -16 -17 22 23 -20 -21 -22 -23 27 -25 -26 -27 -28 -29
leaf_value=-0.00037035634580895424 0.00890858525086018 -5.3826594417671168e-05 0.0042705545914825194 0.001444090340659518 -0.0024259068473402928 -0.0035053608821781872 -0.0015840514979448455 0.0037870566140751584 -0.0019495096647631275 0.0018754039914285416 0.0013971040051802958 0.0026751583231076981 -0.00089675961394520989 -0.0020771821923779689 -0.0015101109958290243 0.00066445152918511471 -0.00041276625987280943 -0.00301268012054926 -0.00054994545912357535 0.00047276630983476533 0.0020230316319744253 -0.0025690749942327991 -0.00083179686345144239 -0.0025056418709895763 -0.00049327949902449892 0.00023824048521201718 -0.0030566138105741969 -0.001038270287343841
leaf_weight=31 22 24 20 22 25 20 22 29 20 27 39 33 31 20 28 32 20 35 25 28 24 22 27 23 21 34 27 20
leaf_count=31 22 24 20 22 25 20 22 29 20 27 39 33 31 20 28 32 20 35 25 28 24 22 27 23 21 34 27 20
internal_value=1.13007e-06 -0.00064016 0.00422458 0.000480471 8.08439e-05 -0.00189177 -0.00164763 0.00277637 -0.00118363 0.000473141 0.00029285 0.00288629 -0.00157941 -0.00239466 -0.000798775 0.00106689 -0.000579902 -0.0026233 -0.000102525 -4.40599e-06 0.00240058 -0.00227404 -0.000768347 -0.00281161 -0.000159764 -5.20134e-05 -0.00324757 -0.000919658
internal_weight=751 652 99 344 293 308 261 51 161 237 210 77 56 100 119 71 91 78 139 114 57 42 67 58 86 65 47 47
internal_count=751 652 99 344 293 308 261 51 161 237 210 77 56 100 119 71 91 78 139 114 57 42 67 58 86 65 47 47
is_linear=0
shrinkage=0.0426353


Tree=18
num_leaves=27
num_cat=0
split_feature=86 60 33 1 77 75 60 79 46 66 60 66 66 42 59 10 31 36 60 70 55 77 63 58 31 33
split_gain=1.0256 0.4611 0.312916 0.15914 0.0962403 0.0524233 0.0502279 0.0422448 0.0346256 0.0303802 0.0326611 0.0231107 0.0158352 0.00686945 0.00496537 0.00558222 0.00477704 0.00457611 0.00347648 0.00302824 0.00436375 0.00272857 0.00171168 0.00145002 0.00269176 0.00109529
threshold=0.35782639940897093 0.070989958239891723 -0.21441815874758588 0.13699351198169443 0.22117879177258867 0.78582205132378025 0.4653614827018891 -1.4676223610827803 0.85332401728714558 0.65873436255237905 0.070989958239891723 0.11847587892955765 0.37422773358851352 0.43201886665125794 -0.90778342512188426 0.060006064070109298 0.1828988487397549 0.0047880884602521778 0.68123123760567716 0.61089018582172516 0.84491703788955053 0.23718506777814963 0.044835134674029949 0.23222249511166848 0.16437564707295735 0.95997649344743696
decision_type=8 10 10 10 10 8 10 8 10 10 8 10 10 10 10 10 2 10 10 10 10 10 8 8 2 10
left_child=2 3 -1 4 9 21 7 -7 -5 10 19 -4 -6 14 15 -9 -12 -13 -8 20 23 -3 -17 -2 -25 -20
right_child=1 5 11 8 12 6 18 13 -10 -11 16 17 -14 -15 -16 22 -18 -19 25 -21 -22 -23 -24 24 -26 -27
leaf_value=0.0084016721638012666 -0.00048518645015582031 -0.0032694605149003403 0.0038202032046875342 0.0036255941751498167 -0.0023224774800572139 -0.002466932739092282 -0.0021017873554539271 6.750610950404918e-05 0.0013825210499023182 0.0017954455025647742 0.0013662353752735194 0.0025369290615570752 -0.00086959063320146972 -0.0013544277653204204 -0.001086456845200852 -0.00040195049084829255 0.00066672646060265831 0.0017148190849512837 -0.0028564823288156024 -0.00052649833808783195 0.00042356366276486936 -0.002687482286824304 -0.00091465245403187325 -0.00035456607167616723 0.00019870759111053721 -0.002433174484474773
leaf_weight=23 20 27 24 29 25 34 35 26 22 27 36 32 30 30 30 20 35 20 25 25 31 32 29 31 33 20
leaf_count=23 20 27 24 29 25 34 35 26 22 27 36 32 30 30 30 20 35 20 25 25 31 32 29 31 33 20
internal_value=1.0819e-06 -0.000612866 0.00404446 0.000459986 7.73971e-05 -0.00181112 -0.00154036 -0.00112373 0.00265799 0.000448853 0.00027654 0.00272583 -0.00152999 -0.000785447 -0.000622881 -0.00043745 0.00102141 0.00222073 -0.00242048 -0.000101214 -8.76046e-06 -0.00295381 -0.000705386 -0.000168309 -6.92843e-05 -0.00266835
internal_weight=751 652 99 344 293 308 249 169 51 238 211 76 55 135 105 75 71 52 80 140 115 59 49 84 64 45
internal_count=751 652 99 344 293 308 249 169 51 238 211 76 55 135 105 75 71 52 80 140 115 59 49 84 64 45
is_linear=0
shrinkage=0.0426353


Tree=19
num_leaves=31
num_cat=0
split_feature=86 31 36 4 1 28 79 9 33 66 45 46 74 27 9 33 48 31 47 31 54 41 31 48 48 79 69 46 47 31
split_gain=0.940007 0.367511 0.28752 0.187477 0.107193 0.0489633 0.0381547 0.0326485 0.0318793 0.0240468 0.0169221 0.0154267 0.0176222 0.0135536 0.0122583 0.00656423 0.00473584 0.00473372 0.00378066 0.00377134 0.00341929 0.00336847 0.00302758 0.00232273 0.0022662 0.00240718 0.00183092 0.00193319 0.00115798 0.000233772
threshold=0.35782639940897093 0.4237202017833111 -0.21237681883119588 0.17460159080636048 0.13699351198169443 22.809464571462915 -1.3463039450370144 0.12093652984781722 0.78582205132378025 0.10794561000706832 0.31435173061469562 0.89731838517426843 0.40669514571676185 37.402147524549527 -0.045737042590989214 0.8441592405315882 0.020950304936074089 0.18777370694981568 0.050575070879183344 0.20115462317793686 0.52819115651118775 -0.0078240135792279047 0.17767148449559381 -0.011367211892427528 0.27680020707545888 -1.2955118884348942 -1.1311224184690249 0.11014774908282697 0.039428519822217512 0.19415275303265014
decision_type=8 2 10 10 10 10 8 10 10 10 10 8 10 10 8 10 8 2 10 2 10 10 2 10 10 10 10 10 10 2
left_child=2 3 -1 4 7 6 26 10 -6 -4 14 12 18 23 16 19 -2 -16 28 -9 -7 -11 -18 -5 25 -20 -3 -28 -8 -24
right_child=1 5 9 13 8 20 11 15 -10 21 -12 -13 -14 -15 17 -17 22 -19 24 -21 -22 -23 29 -25 -26 -27 27 -29 -30 -31
leaf_value=0.0081705562703005656 -0.00029167459505247671 -0.0025913812889287518 0.00391583574692688 -0.0010742962466244585 0.0034008661550905899 -0.0023855635826089579 -0.00070214359031809846 -0.00021180534480453607 0.001217564703926537 0.0024478923418986233 0.0017411446945416542 -0.0021442944017258368 -0.0020735758616714766 -0.0027251082265633835 0.0014105407425265442 0.00031337439370377661 -7.2948486061143752e-06 0.0005814876041497967 -0.0014219234248391225 -0.00089443315893456205 -0.0030774890220545965 0.001768433799294524 0.00070534381951977462 -0.0017091407880473412 -0.00058458149023163223 -0.00081754252264120612 -0.0023864214632396807 -0.0018188602362724723 -0.00029769294466276729 0.00051145919242261888
leaf_weight=22 22 24 20 22 31 20 22 31 20 36 26 22 21 20 31 23 20 21 23 28 37 21 26 20 22 25 24 20 31 20
leaf_count=22 22 24 20 22 31 20 22 31 20 36 26 22 21 20 31 23 20 21 23 28 37 21 26 20 22 25 24 20 31 20
internal_value=1.03577e-06 -0.000586737 0.00387202 0.000322076 0.000764511 -0.00171416 -0.00144121 0.00039843 0.00254467 0.00264387 0.000742248 -0.00109276 -0.000932113 -0.0018116 0.000556738 -0.000297591 0.000250061 0.00107573 -0.00073723 -0.000535764 -0.00283471 0.00219757 0.00043064 -0.0013766 -0.000942908 -0.00110714 -0.00229183 -0.00212844 -0.000465578 0.000621046
internal_weight=751 652 99 361 299 291 234 248 51 77 166 166 144 62 140 82 88 52 123 59 57 57 66 42 70 48 68 44 53 46
internal_count=751 652 99 361 299 291 234 248 51 77 166 166 144 62 140 82 88 52 123 59 57 57 66 42 70 48 68 44 53 46
is_linear=0
shrinkage=0.0426353


Tree=20
num_leaves=30
num_cat=0
split_feature=88 60 33 1 81 70 67 7 42 56 76 79 45 60 49 60 31 94 79 31 36 10 33 28 70 36 63 50 50
split_gain=0.857184 0.424298 0.277251 0.127951 0.0671475 0.0658322 0.0348686 0.0230972 0.0224084 0.0204282 0.0186255 0.015126 0.0136799 0.0131733 0.0188716 0.0101667 0.00866745 0.00534714 0.00372061 0.00304862 0.00293185 0.00233875 0.00188671 0.0016001 0.00146631 0.0014485 0.00143306 0.0010167 0.000330203
threshold=0.19232534655309447 0.032884734457199596 -0.21441815874758588 0.13699351198169443 -0.19116503617065464 1.0000000180025095e-35 0.18462709646923886 0.12094529715422241 0.85265917991662177 0.27282098995465442 0.22434364768317963 -1.3039424675509739 0.2889326159129319 0.53627946972277762 -0.40017483595954689 0.028114517499436376 0.20115462317793686 -0.10881763554368674 -1.6183244813025828 0.18777370694981568 0.84869779573316573 0.091062004127624871 0.8908235622762698 20.455619081385297 -0.23585783193610735 -0.13483703891689752 0.1904477875445362 0.02242709078611552 -0.17915680430580933
decision_type=10 10 10 10 8 10 8 10 10 10 10 10 10 10 8 8 2 10 8 2 10 10 10 10 10 10 10 10 10
left_child=1 3 -2 4 11 16 -7 12 -5 13 -4 -1 15 14 18 25 -3 -12 -8 28 27 -16 -15 -20 -19 -6 -11 -9 -17
right_child=2 5 10 8 7 6 9 20 -10 26 17 -13 -14 22 21 19 -18 24 23 -21 -22 -23 -24 -25 -26 -27 -28 -29 -30
leaf_value=-0.0021614435854517577 0.0075186640848258863 0.00036609269636743587 0.0033071448360168275 0.003151098430811133 -0.00023961239411406814 -0.0007424272509640534 -0.0024381250834555612 -0.0005175647521810029 0.0013473071783883426 -0.0030769851765130012 0.0024912324297848439 -0.00068378431368884421 0.0015368389131973277 -0.0025964833518802807 -0.0012768117840851884 0.00096979432447195219 -0.0007355673873962568 0.0013792846081439932 -0.0015521791610323911 0.00055534057254308529 0.0002444113546524671 -0.00066070907993020719 -0.0021427224013456803 -0.0020380695510221298 0.0018955612242360581 0.00024300919793939798 -0.0026399136520124009 -0.00012766215037080284 0.0012147911811509753
leaf_weight=20 24 21 25 31 20 39 28 31 21 25 20 34 31 36 21 20 34 20 22 37 20 24 31 28 20 26 30 20 20
leaf_count=20 24 21 25 31 20 39 28 31 21 25 20 34 31 36 21 20 34 20 22 37 20 24 31 28 20 26 30 20 20
internal_value=-3.44049e-05 -0.00060485 0.003472 0.00048096 0.000119069 -0.00166504 -0.0019265 0.000443101 0.00242264 -0.00211498 0.00232941 -0.00123107 0.000736411 -0.00190552 -0.00164351 0.000534677 -0.000314934 0.00192203 -0.00204463 0.000834277 -0.000193092 -0.000948224 -0.00238653 -0.00182428 0.00163742 3.31737e-05 -0.00283858 -0.000364662 0.00109229
internal_weight=779 670 109 331 279 339 284 225 52 245 85 54 154 190 123 123 55 60 78 77 71 45 67 50 40 46 55 51 40
internal_count=779 670 109 331 279 339 284 225 52 245 85 54 154 190 123 123 55 60 78 77 71 45 67 50 40 46 55 51 40
is_linear=0
shrinkage=0.0426353


Tree=21
num_leaves=29
num_cat=0
split_feature=88 70 33 55 36 1 66 31 83 7 68 33 33 31 46 56 35 7 65 33 31 50 41 66 31 67 46 30
split_gain=0.785649 0.359486 0.254114 0.167552 0.0981191 0.0402002 0.0370121 0.0222438 0.0170712 0.015517 0.0105071 0.00913503 0.00576994 0.00573866 0.0100601 0.00930247 0.00455137 0.0038535 0.00379664 0.00350828 0.00346564 0.00319888 0.00209442 0.00158566 0.00146542 0.0013863 0.000931939 0.000506711
threshold=0.19232534655309447 -0.090816262754760804 -0.21441815874758588 0.51158856600330505 0.11995541399336244 0.13699351198169443 0.096004104251604425 0.47190117913817214 0.36148145837003381 0.20489469971437557 -0.89391211245419788 0.4766334348184052 0.48906719444788899 0.28361755981023701 0.89731838517426843 0.027930917359325663 0.83263213283633164 -0.49789956104391747 0.50369572834385623 0.8908235622762698 0.18026965098514228 0.12227577243175106 0.24991173607752934 0.42641458383072911 0.1828988487397549 0.2113385474626002 0.55546127794525946 0.0058683540742930735
decision_type=10 10 10 10 10 10 8 2 10 10 10 10 8 2 8 8 10 8 10 10 2 10 10 8 2 10 8 10
left_child=1 4 -2 6 9 16 22 13 18 10 17 -6 25 -8 15 -15 23 20 -4 -16 -1 27 -3 -5 -11 -9 -14 -19
right_child=2 3 8 5 11 -7 7 12 -10 24 -12 -13 26 14 19 -17 -18 21 -20 -21 -22 -23 -24 -25 -26 -27 -28 -29
leaf_value=3.0754255150916004e-05 0.007198103185045223 -0.00040859404038980042 0.0022361886938606218 -0.00080228443059415832 0.0019514476612676975 0.0016329500764842805 -0.0011749849697698701 -0.0018986973115142655 0.0033193655360242583 -0.00018250123879253867 -0.00018850343951307233 0.0031852073021102155 -0.0026461231063056559 -0.0020026844874343596 -0.0024887204532663132 -0.0010116577939803775 0.00018348645249798313 0.00117355961197619 0.001583800600726185 -0.0018215662338540294 0.00071433984754020418 0.00048887778593669244 -0.00098423750131842861 -0.00034068025986537189 -0.00066793287551867729 -0.0023601029281382709 -0.0029897727658319828 0.00089856374315519679
leaf_weight=26 24 20 31 24 24 25 29 20 20 26 33 20 32 33 38 36 22 29 34 23 28 28 27 31 20 29 26 21
leaf_count=26 24 20 31 24 24 25 29 20 20 26 33 20 32 33 38 36 22 29 34 23 28 28 27 31 20 29 26 21
internal_value=-3.2938e-05 -0.000579062 0.00332397 -0.0013532 0.000680813 0.000147495 -0.00184225 -0.00203713 0.0022301 0.000298903 0.000491952 0.00251225 -0.0025124 -0.0017173 -0.00183827 -0.00148563 -0.000334795 0.000662066 0.00189494 -0.00223717 0.000385206 0.000853739 -0.000739283 -0.000542108 -0.000393558 -0.00217177 -0.00280017 0.00105806
internal_weight=779 670 109 415 255 102 313 266 85 211 165 44 107 159 130 69 77 132 65 61 54 78 47 55 46 49 58 50
internal_count=779 670 109 415 255 102 313 266 85 211 165 44 107 159 130 69 77 132 65 61 54 78 47 55 46 49 58 50
is_linear=0
shrinkage=0.0426353


Tree=22
num_leaves=31
num_cat=0
split_feature=86 70 63 13 58 2 78 7 31 70 78 60 68 76 49 60 70 44 31 31 49 41 31 37 27 42 69 35 31 46
split_gain=0.714798 0.473333 0.153475 0.097614 0.0732621 0.034445 0.0322252 0.0244113 0.0223679 0.0148395 0.014132 0.0121428 0.0128073 0.00746062 0.00592652 0.00630557 0.00464709 0.00460279 0.00427211 0.00273051 0.00272842 0.00241873 0.00173054 0.00167472 0.00146769 0.00128356 0.00106128 0.00104741 0.000970466 0.000925423
threshold=0.20677547627517082 -0.067873078911804774 0.51626036953709165 0.11155777151645981 -0.33843544455363678 0.11740748366861724 0.42325962165332187 0.20489469971437557 0.47190117913817214 -0.28949732147264312 -0.25368308011510754 0.4653614827018891 -0.10582755557707284 0.28087313105341194 -0.76225957708879266 0.077375999863639758 -0.22146729317717009 0.51077756717499023 0.43720526974773183 0.17449851343945624 -0.11947289107678775 0.24991173607752934 0.1828988487397549 0.034462498246750135 45.529733167390269 0.85569561771778713 -1.0929125670329904 -0.085559783673927844 0.19415275303265014 0.55546127794525946
decision_type=8 10 10 8 10 10 10 10 2 8 10 10 10 10 8 8 10 8 2 2 8 10 2 10 10 10 10 10 2 10
left_child=4 3 6 10 -1 18 8 9 11 -5 -2 12 20 14 -11 27 -12 26 25 -17 -3 -8 -9 24 -13 -4 -10 -16 -21 -19
right_child=1 2 5 7 -6 -7 21 22 17 13 16 23 -14 -15 15 19 -18 29 -20 28 -22 -23 -24 -25 -26 -27 -28 -29 -30 -31
leaf_value=0.0073442901243089779 0.0027155069169938011 -0.0011814295365073499 -0.00026222931681541293 0.0017214269011886221 0.0036949900778710191 0.0015633286712811504 -0.00039117349386851041 -0.00017472025600093216 -0.0023562540186063256 0.0013234016636966999 0.0012191349322590455 -0.001837429705345295 -0.0018812571639764061 -0.00012971829028284463 -4.4655354084102342e-05 0.001128198085791568 0.0020910644775917345 -0.0025615523504855064 -0.00075826211491218068 0.00072987203365447624 -0.00052441069529569407 -0.0010006363654871983 -0.00068242111376168833 -0.0016981575222363467 -0.0022929576891469838 0.00018862879638341615 -0.0019605418618913713 0.00036574276660242077 0.00037229153825508245 -0.0029236037957201667
leaf_weight=20 39 20 24 21 20 25 20 26 22 20 25 20 35 27 26 25 20 33 23 37 27 29 23 23 36 22 28 20 22 21
leaf_count=20 39 20 24 21 20 25 20 26 22 20 25 20 35 27 26 25 20 33 23 37 27 29 23 23 36 22 28 20 22 21
internal_value=-3.15337e-05 -0.000332003 -0.00130389 0.00086597 0.00551964 0.000207442 -0.00175632 0.000438994 -0.00194205 0.000649849 0.00212148 -0.00162723 -0.0012638 0.000522712 0.00064015 0.000535034 0.00160666 -0.00242942 -0.000283822 0.000754769 -0.000803993 -0.000751876 -0.000413029 -0.00200446 -0.00213027 -4.66015e-05 -0.00213466 0.000133779 0.000596537 -0.00270235
internal_weight=779 739 408 331 40 94 314 247 265 198 84 161 82 177 150 130 45 104 69 84 47 49 49 79 56 46 50 46 59 54
internal_count=779 739 408 331 40 94 314 247 265 198 84 161 82 177 150 130 45 104 69 84 47 49 49 79 56 46 50 46 59 54
is_linear=0
shrinkage=0.0426353


Tree=23
num_leaves=32
num_cat=0
split_feature=88 70 58 55 36 1 66 66 31 7 4 68 33 70 28 44 42 33 94 7 70 31 31 41 73 79 67 31 40 46 36
split_gain=0.660482 0.302231 0.214581 0.140736 0.0834694 0.0337981 0.0312076 0.0249044 0.0186863 0.0129233 0.0089284 0.00890857 0.007758 0.00647038 0.00546383 0.00482448 0.004038 0.00342992 0.00337599 0.0031695 0.00314828 0.00295839 0.00286584 0.00174288 0.00156305 0.00143892 0.00141655 0.00122092 0.000929043 0.000848194 0.000376677
threshold=0.19232534655309447 -0.090816262754760804 -0.31993513531307827 0.51158856600330505 0.11995541399336244 0.13699351198169443 0.096004104251604425 0.092953432014816859 0.47190117913817214 0.20489469971437557 0.17460159080636048 -0.89391211245419788 0.4766334348184052 1.0162213305599554 15.434335207938794 0.51077756717499023 0.85569561771778713 0.8908235622762698 -0.10881763554368674 -0.49789956104391747 -0.23107891374616868 0.18026965098514228 0.19227437838617892 0.24991173607752934 0.85814944101556012 -1.019807357814623 0.20853989441071077 0.1828988487397549 0.043746471068993965 0.55546127794525946 0.88023788289181704
decision_type=10 10 10 10 10 10 8 10 2 10 10 10 10 10 10 8 10 10 10 8 10 2 2 10 8 10 10 2 10 10 8
left_child=1 4 -2 6 9 16 23 -4 10 11 -8 19 -6 14 28 26 25 30 -9 21 -20 -1 -21 -3 -24 -5 -10 -11 -12 -17 -16
right_child=2 3 7 5 12 -7 8 18 15 27 13 -13 -14 -15 17 29 -18 -19 20 22 -22 -23 24 -25 -26 -27 -28 -29 -30 -31 -32
leaf_value=2.6266585665794554e-05 0.0069201486982136406 -0.00037449567743275602 0.003446148829494673 -0.00066771145270262254 0.0017966546139779225 0.0014966756225472493 -0.00081701483192725324 0.00220003302580763 -0.001731400729210778 -0.00016727099051673037 -0.0016438774732788267 -0.0001783563753543459 0.002933628246148995 -0.001001676794479563 -0.0021651992370084559 -0.0024523396660364209 0.00018058653456741038 -0.0016593731632607487 0.0011653526010228276 0.0010726653461975253 0.0018583456779587917 0.0006578465395447753 0.00082986657726938687 -0.00089961172818271305 0.00031952383261467214 -0.000214375123918886 -0.0021861293443973715 -0.00061036005960476622 -0.001263412940992687 -0.0027989549867705864 -0.0024157293383602189
leaf_weight=26 21 20 20 35 24 25 24 20 20 26 28 33 20 20 20 33 22 23 22 34 26 28 20 27 24 20 33 20 20 21 24
leaf_count=26 21 20 20 35 24 25 24 20 20 26 28 33 20 20 20 33 22 23 22 34 26 28 20 27 24 20 33 20 20 21 24
internal_value=-3.01893e-05 -0.000530924 0.00304772 -0.00124074 0.000624272 0.000134631 -0.00168895 0.00212362 -0.0018679 0.000272024 -0.00157475 0.000448202 0.00231346 -0.00170946 -0.00183256 -0.00230351 -0.000307591 -0.0020813 0.00173464 0.000604842 0.00154072 0.000353752 0.000778673 -0.000676158 0.000551498 -0.000502862 -0.00201453 -0.000359918 -0.00148535 -0.00258713 -0.00230185
internal_weight=779 670 109 415 255 102 313 88 266 211 159 165 44 135 115 107 77 67 68 132 48 54 78 47 44 55 53 46 48 54 44
internal_count=779 670 109 415 255 102 313 88 266 211 159 165 44 135 115 107 77 67 68 132 48 54 78 47 44 55 53 46 48 54 44
is_linear=0
shrinkage=0.0426353


Tree=24
num_leaves=30
num_cat=0
split_feature=4 28 18 7 58 10 81 56 58 28 67 46 49 45 57 48 60 65 57 60 38 33 31 50 50 47 56 31 76
split_gain=0.599475 0.334425 0.149501 0.0751639 0.0688569 0.0527821 0.0271544 0.0226579 0.0163523 0.0145308 0.013671 0.0142924 0.0113871 0.00863345 0.00757541 0.00573422 0.00749018 0.00417147 0.00412031 0.00278132 0.00271697 0.00237569 0.00229376 0.00146986 0.00141373 0.00134149 0.001104 0.000831387 0.000171053
threshold=0.12358280464312614 16.432398860777607 0.10035195034406122 -0.045583236052089256 -0.33843544455363678 0.13765278802048794 -0.20623295168540304 -0.0065674690346123931 -0.41178654751969379 16.251776859541845 0.19883866307164305 0.89731838517426843 -0.2612469044713589 0.4056055956535834 0.085194749031257191 0.090614487926333795 0.077375999863639758 0.4943522811463838 0.13746924646299083 0.0061179932870611591 0.39796194787083256 0.8908235622762698 0.17449851343945624 0.15854431607820516 -0.014390642952676539 0.057244170186065153 0.31744231000458839 0.19415275303265014 0.18305918470921984
decision_type=8 10 10 10 10 10 8 8 10 8 10 8 10 10 8 10 8 8 8 10 10 10 2 10 10 10 8 2 10
left_child=4 2 3 6 -1 10 -2 -7 -4 12 11 18 23 15 -9 16 26 -10 -3 -11 -19 -13 -18 -5 -16 -12 -8 -24 -27
right_child=1 5 8 9 -6 7 13 14 17 19 25 21 -14 -15 24 -17 22 20 -20 -21 -22 -23 27 -25 -26 28 -28 -29 -30
leaf_value=0.0067361210033163466 -0.00058518741036498367 -0.0014739138632398258 0.0026785207856035182 -0.0017682901911295382 0.0032795778702811237 -0.0019030620748861581 -0.00020988982771087927 0.00039194646489412781 0.0020136195145649288 -8.1100221185759859e-05 -0.002628675279951101 -0.0023034319473451146 -0.0003840983428445676 0.0015023936578806552 -0.00032205021232647037 0.0010876492634029021 0.0010343635139291063 0.0010680641857465779 -0.00072193759885222136 -0.00067072742147446707 0.0016910015550701074 -0.0017836552071426458 0.0006704848332296109 -0.0012994799906086048 -0.00076027284884492684 -0.0023234556239170789 0.00019640673781102461 0.00033951745143059951 -0.0021471220942725351
leaf_weight=20 38 27 29 31 22 21 20 20 20 33 26 33 20 20 23 31 25 35 26 26 20 31 37 20 32 20 31 22 20
leaf_count=20 38 27 29 31 22 21 20 20 20 33 26 33 20 20 23 31 25 35 26 26 20 31 37 20 32 20 31 22 20
internal_value=-2.89021e-05 -0.000311245 0.000397605 -1.99115e-05 0.00492555 -0.00147488 0.000453371 -0.000665221 0.00181877 -0.000835414 -0.00189962 -0.00162284 -0.00124632 0.00066555 -0.000318626 0.000564725 0.000444646 0.00148633 -0.00110502 -0.000340936 0.00129459 -0.00205167 0.0006921 -0.00158444 -0.000577016 -0.00239026 3.70748e-05 0.000547073 -0.00223529
internal_weight=779 737 458 354 42 279 224 96 104 130 183 117 71 186 75 166 135 75 53 59 55 64 84 51 55 66 51 59 40
internal_count=779 737 458 354 42 279 224 96 104 130 183 117 71 186 75 166 135 75 53 59 55 64 84 51 55 66 51 59 40
is_linear=0
shrinkage=0.0426353


Tree=25
num_leaves=28
num_cat=0
split_feature=86 60 77 1 70 31 66 33 31 66 15 77 60 48 50 31 31 31 70 90 65 77 70 27 36 63 60
split_gain=0.540183 0.278045 0.177969 0.080139 0.0412155 0.0341488 0.0332371 0.0224135 0.0165302 0.0162045 0.0132519 0.0114176 0.00734891 0.00974161 0.00590918 0.00485063 0.00444491 0.00383151 0.00345991 0.002292 0.00226787 0.00221372 0.00214701 0.00203516 0.00157011 0.00107874 0.000428206
threshold=0.35187004890704032 0.032884734457199596 0.26728815209697798 0.13699351198169443 1.0000000180025095e-35 0.38936361377681722 0.096004104251604425 0.78582205132378025 0.46845065025922633 0.10176222999147584 -0.00011069852620186202 0.24067842965745878 0.53627946972277762 0.53494833974052458 0.026719648502503801 0.16437564707295735 0.19415275303265014 0.20508573838642893 1.0072099047209717 1.1945218222881668 0.49757512810827254 0.23581333035122073 -0.12598003269733501 49.162946027327735 0.81725699376704519 0.07070897280667475 -0.24255659745363956
decision_type=8 10 10 10 10 2 8 10 2 10 10 10 10 8 8 2 2 2 10 10 10 10 10 10 10 10 10
left_child=2 3 9 5 17 10 19 -5 12 -1 14 22 13 18 -2 -12 -16 -3 -8 -6 -11 -10 -7 -14 -24 -23 -17
right_child=1 4 -4 7 6 11 8 -9 21 20 15 -13 23 -15 16 26 -18 -19 -20 -21 -22 25 24 -25 -26 -27 -28
leaf_value=0.0030264094749557057 0.0012779887074166423 0.00024363578563981652 0.0064642660310203059 0.0027471583322506454 -0.00023601425468964033 4.1455491335046937e-05 -0.0018082953459016143 0.00091821162915114584 -0.0024649211563913453 0.0018922084253253845 -0.00028688210140025914 -0.0013953969107081527 -0.0021742619069011464 -0.00050587393657590483 0.00089494860321274929 0.00052368893405424412 0.00014126641076530878 -0.00052344116895746242 -0.0011310978453811721 -0.00081311542049511399 0.001372210028908086 -0.0018008331571709832 -0.00064064761199109316 -0.0016404342587921677 -0.00016299842765488907 -0.0021742115557692328 0.00025141801485165452
leaf_weight=20 34 20 20 29 22 26 32 21 35 30 36 21 21 25 33 21 25 29 24 29 31 22 29 34 22 39 21
leaf_count=20 34 20 20 29 22 26 32 21 35 30 36 21 21 25 33 21 25 29 24 29 31 22 29 34 22 39 21
internal_value=-3.82335e-05 -0.000488972 0.00286256 0.000412031 -0.00135198 0.000119686 -0.00154965 0.001979 -0.00176628 0.00197325 0.000485095 -0.000514186 -0.00146392 -0.00120566 0.000831702 7.62755e-05 0.000570086 -0.000210349 -0.00151807 -0.00056417 0.00162795 -0.00219463 -0.000273856 -0.00184426 -0.000434603 -0.00203955 0.000387553
internal_weight=751 650 101 318 332 268 283 50 232 81 170 98 136 81 92 78 58 49 56 51 61 96 77 55 51 61 42
internal_count=751 650 101 318 332 268 283 50 232 81 170 98 136 81 92 78 58 49 56 51 61 96 77 55 51 61 42
is_linear=0
shrinkage=0.0426353


Tree=26
num_leaves=30
num_cat=0
split_feature=87 28 18 7 10 28 51 10 73 67 51 58 60 63 60 48 60 65 83 90 33 31 31 34 79 31 90 34 34
split_gain=0.496083 0.28154 0.115511 0.0500955 0.0467148 0.0216088 0.0155728 0.0153256 0.0124464 0.0117765 0.0124911 0.0115596 0.00768105 0.00756465 0.00648387 0.00522603 0.00474594 0.00432234 0.00376075 0.00230542 0.0017772 0.00147072 0.00139045 0.00134034 0.00120414 0.000715706 0.00046354 0.000277239 0.000118478
threshold=0.28014274000070155 16.432398860777607 0.10035195034406122 -0.045583236052089256 0.13765278802048794 14.408018491892763 1.0000000180025095e-35 1.0000000180025095e-35 0.33959064645931741 0.19984048050556455 0.65683207411218869 -0.41178654751969379 -0.02226308312946507 0.40063311689710934 -0.06548514107469762 0.0099366879194331421 -0.16361717926867808 0.59123045335775637 0.84491703788955053 1.1945218222881668 0.8908235622762698 0.17449851343945624 0.32496197380724873 -0.0013228957018312339 -1.1459948131460029 0.19415275303265014 -0.10647602964806399 1.0000000180025095e-35 -0.0039448675800079552
decision_type=8 10 10 10 10 10 10 10 10 10 8 10 8 10 10 10 10 8 8 8 10 2 2 10 10 2 10 10 10
left_child=-1 2 3 5 9 8 -6 13 12 10 18 -4 26 22 -8 -13 -10 -17 -3 -16 -12 -14 -5 -9 27 28 -2 -11 -23
right_child=1 4 11 7 6 -7 14 23 16 24 20 15 21 -15 19 17 -18 -19 -20 -21 -22 25 -24 -25 -26 -27 -28 -29 -30
leaf_value=0.004846871005284999 -0.00023284934917991264 -0.0014142572513297746 0.0025017938433715362 -0.0012099472980529773 -0.0016482300151344821 -0.00054811194582760395 0.00030567266397206835 6.3101023720813038e-05 0.0016635089386686005 -0.0019577399441517481 -0.0021503935679891791 0.0019386460044823169 0.00088448910957239187 -0.00045979242680668374 -0.00019521074362604117 0.0015321910399756233 0.00083117664455967688 0.00072712026297773436 -0.00068962044522577124 -0.00076903324308438034 -0.0016852789026758621 0.00052429042294451303 -0.0017011335246608702 -0.00035057754021405592 -0.002450568664517185 0.00028156942474830761 4.719486092633157e-05 -0.0021672761331457675 0.00066617807685115729
leaf_weight=36 22 23 24 20 20 36 22 24 20 22 28 24 24 20 20 27 33 22 30 35 32 23 22 35 22 20 21 24 20
leaf_count=36 22 23 24 20 20 36 22 24 20 22 28 24 24 20 20 27 33 22 30 35 32 23 22 35 22 20 21 24 20
internal_value=-3.66034e-05 -0.000282485 0.000392306 2.20624e-05 -0.00134322 0.000406743 -0.000588249 -0.000674178 0.000594584 -0.00174781 -0.00148103 0.00169007 0.000370075 -0.00114225 -0.00031293 0.0014232 0.00114526 0.00117073 -0.00100409 -0.000560371 -0.00190233 0.000600475 -0.00146724 -0.000182302 -0.00219114 0.00049228 -9.60836e-05 -0.00206706 0.000590285
internal_weight=751 715 437 340 278 219 97 121 183 181 113 97 130 62 77 73 53 49 53 55 60 87 42 59 68 63 43 46 43
internal_count=751 715 437 340 278 219 97 121 183 181 113 97 130 62 77 73 53 49 53 55 60 87 42 59 68 63 43 46 43
is_linear=0
shrinkage=0.0426353


Tree=27
num_leaves=27
num_cat=0
split_feature=87 70 63 13 66 0 70 66 7 46 27 53 81 53 50 50 79 41 33 41 70 50 50 35 57 40
split_gain=0.455273 0.284569 0.0973913 0.0735885 0.026292 0.0213614 0.0184057 0.0178162 0.0108459 0.00967269 0.0100622 0.0093082 0.00736076 0.00578626 0.00436308 0.00506561 0.00329483 0.00294827 0.00283657 0.00226683 0.00136735 0.00117979 0.000989551 0.000804503 0.000710172 0.000577776
threshold=0.26674375416384183 1.0000000180025095e-35 0.763521631865416 0.11155777151645981 0.096004104251604425 23265688.500000004 -0.26429656539752139 0.34034062912315444 0.20489469971437557 0.9048022748812431 37.402147524549527 0.056762650433614101 -0.20623295168540304 0.85375610146906389 -0.048247968028986614 0.12227577243175106 -1.3328476245892145 0.24991173607752934 -0.020238599183972531 0.4792268223208207 0.909478421047902 0.023008979880143377 0.0093428389183370913 -0.022591785901727668 0.089591650826959815 0.045806261275235897
decision_type=8 10 10 8 8 2 8 8 10 8 10 10 8 10 8 10 10 10 10 10 10 10 8 10 10 8
left_child=-1 3 4 11 17 -4 -5 19 12 13 -11 18 -8 16 23 22 -9 -3 -2 24 -12 -10 -16 -14 -6 -24
right_child=1 2 5 6 7 -7 8 9 21 10 20 -13 14 -15 15 -17 -18 -19 -20 -21 -22 -23 25 -25 -26 -27
leaf_value=0.0049408957100420901 0.0017781371779594284 -0.00012619243952573578 0.0016578856430870231 0.0013013764070176682 -0.0019249111415584209 -9.1211417201888099e-05 -0.00038098695166350547 -0.0013538000397549232 -0.000563814933882089 -0.0008433461935777436 -0.0016413237350832626 0.0023290902329090148 2.4751229787391234e-05 -0.00024944241354592797 0.0010391118524271791 0.00014467402332356312 -0.00066415027538962708 -0.00076873744829735195 0.0011133344209733797 -0.0021992177887370881 -0.0020339778512578057 -0.00017552285324428513 0.000530072883780298 0.00036037699306559252 -0.0016450716545655306 0.00084669967641157933
leaf_weight=32 20 25 22 29 34 30 23 34 25 28 38 32 37 20 24 29 20 27 28 39 28 33 20 20 32 22
leaf_count=32 20 25 22 29 34 30 23 34 25 28 38 32 37 20 24 29 20 27 28 39 28 33 20 20 32 22
internal_value=-3.50428e-05 -0.000256503 -0.00106437 0.000634044 -0.00133848 0.000648791 0.000288458 -0.00150584 0.000162387 -0.00123355 -0.00152059 0.00176584 0.00032985 -0.000868933 0.000437411 0.000614348 -0.00109837 -0.000459822 0.00139034 -0.00194151 -0.0018079 -0.00034289 0.00082072 0.000142515 -0.00178923 0.000695925
internal_weight=751 719 377 342 325 52 262 273 233 168 94 80 175 74 152 95 54 52 48 105 66 58 66 57 66 42
internal_count=751 719 377 342 325 52 262 273 233 168 94 80 175 74 152 95 54 52 48 105 66 58 66 57 66 42
is_linear=0
shrinkage=0.0426353


Tree=28
num_leaves=27
num_cat=0
split_feature=86 70 63 13 67 70 70 46 9 84 27 59 77 70 46 41 70 9 57 31 70 27 58 40 27 31
split_gain=0.417562 0.257831 0.0902733 0.0639158 0.0219515 0.0197014 0.0168697 0.0153089 0.00994076 0.00934305 0.00924602 0.00846668 0.0045754 0.00416551 0.00307043 0.00265696 0.00231848 0.00223225 0.00270411 0.00190653 0.00182887 0.00160214 0.0015611 0.00140743 0.00126596 0.00124379
threshold=0.20677547627517082 1.0000000180025095e-35 0.763521631865416 0.11155777151645981 0.20423509307901247 0.3087212787979437 -0.26429656539752139 0.9048022748812431 0.20410751465085772 -0.14278513106434679 34.501737674222959 -1.2631716135113866 0.26112161120812272 0.24156156562506284 0.40232782698141883 0.80747436864928257 -0.22146729317717009 -0.4983326699975057 0.19382394933995956 0.18026965098514228 0.909478421047902 49.162946027327735 -0.067052707860516467 0.012215999469665057 38.218628472877235 0.20115462317793686
decision_type=8 10 10 8 10 8 8 8 10 10 10 8 8 10 10 10 10 8 10 2 10 10 10 10 10 2
left_child=-1 3 4 9 7 -4 -5 12 11 -2 -9 -8 14 -6 -3 22 -11 19 23 -13 21 -12 -14 -19 -15 -10
right_child=1 2 5 6 13 -7 8 10 25 16 20 17 15 24 -16 -17 -18 18 -20 -21 -22 -23 -24 -25 -26 -27
leaf_value=0.004446804330868563 0.0022612580485881894 -0.00071185039251824066 0.0016708564572789802 0.0012458917594131357 -0.0014410516564961661 -3.4949469384570851e-05 -0.00026693814037247074 -0.00064239566158837147 -0.00016239048487351696 0.0010404809501785483 -0.0017730259721908577 -2.7066414903544558e-06 -0.0002262598606121366 -0.0018098156191239307 -0.0014417573866657217 -0.00097226883135936263 0.0016461337418546493 0.00096474533559430683 0.00024446336417484463 0.00051399642274563371 -0.0019472584846725797 -0.0012693147318598721 -0.00066481949002217538 0.00055175727535558582 -0.0021777371927853991 -0.0005632681221043477
leaf_weight=36 30 20 20 29 39 32 36 20 34 27 22 27 36 34 22 20 20 30 27 25 28 24 25 30 34 24
leaf_count=36 30 20 20 29 39 32 36 20 34 27 22 27 36 34 22 20 20 30 27 25 28 24 25 30 34 24
internal_value=-3.35487e-05 -0.000259133 -0.00102789 0.000593532 -0.00129255 0.00062113 0.00027616 -0.00104612 0.000155463 0.00167342 -0.00145576 0.000315787 -0.000733064 -0.00179232 -0.00109418 -0.000545818 0.00129821 0.000466708 0.0005988 0.000245708 -0.00167559 -0.00151022 -0.000405997 0.000758251 -0.00199378 -0.000328271
internal_weight=751 715 376 339 324 52 262 217 233 77 94 175 123 107 42 81 47 139 87 52 74 46 61 60 68 58
internal_count=751 715 376 339 324 52 262 217 233 77 94 175 123 107 42 81 47 139 87 52 74 46 61 60 68 58
is_linear=0
shrinkage=0.0426353


Tree=29
num_leaves=30
num_cat=0
split_feature=86 70 57 13 10 28 67 60 46 31 67 62 60 67 70 28 31 77 31 31 39 39 48 46 28 62 31 38 27
split_gain=0.385376 0.239827 0.0824013 0.0647436 0.0283719 0.0160322 0.0133556 0.0126512 0.0100591 0.00833151 0.00769133 0.0068682 0.00386111 0.00324321 0.00280545 0.00264555 0.00256166 0.00315131 0.00206766 0.00159481 0.00141061 0.0012226 0.00121327 0.00119587 0.00106159 0.00057181 0.000422073 0.000362258 0.000346044
threshold=0.18403685055446697 0.006719034453967882 0.057496594884954545 0.11155777151645981 0.13765278802048794 12.288673848536058 0.18237503453460788 0.20709394215183616 0.13526065376824406 0.46516548751713227 0.21035384653931774 0.84967058604396106 0.4653614827018891 0.20423509307901247 -0.30538152344379882 20.122755288201407 0.19657654963072632 0.38751303925385822 0.16437564707295735 0.1828988487397549 -0.76410103728738266 1.2632303162485565 0.19675107486631074 0.24655903458821218 24.846305767266141 0.61077918610912363 0.19227437838617892 0.13603648398175414 49.162946027327735
decision_type=8 10 8 8 10 8 8 8 8 2 10 10 10 8 10 8 2 8 2 2 10 10 10 10 10 10 2 10 10
left_child=-1 3 -3 10 6 14 -4 11 -6 12 -2 16 -8 -11 -5 22 18 25 -7 -9 28 -12 -10 -17 27 -18 -21 -15 -14
right_child=1 2 4 5 8 7 9 19 15 13 21 -13 20 24 -16 23 17 -19 -20 26 -22 -23 -24 -25 -26 -27 -28 -29 -30
leaf_value=0.0047026541831617068 0.0021704930988167967 0.0012929249268675595 -0.00063859655800560414 0.001364689476372908 -0.0014365253562193961 -0.00024973287404901439 -0.00093879714830439264 0.00077219458266897158 9.3496849057901027e-05 -0.0013476473771863251 0.0011497911670621992 0.00060126702737310525 -0.0017149227224862557 -0.0016853564676160746 0.00068721619971320435 -0.00040564608498405415 -4.4514681823698196e-05 -0.00082368832416234502 0.00026777905480464986 0.00051487462275145968 -0.0011925998974034366 0.0015747270538028313 -0.00035956906247307409 -0.00085203854675175168 -0.0021382483948741435 -0.00036691512777520355 0.00024764967952756281 -0.0019214630768356036 -0.0014769886039789799
leaf_weight=30 30 27 35 20 20 36 39 33 21 21 32 20 25 21 25 24 20 24 23 21 22 20 22 20 31 20 22 27 20
leaf_count=30 30 27 35 20 20 36 39 33 21 21 32 20 25 21 25 24 20 24 23 21 22 20 22 20 31 20 22 27 20
internal_value=-3.21183e-05 -0.000229127 -0.000976046 0.000580395 -0.00115209 0.000255356 -0.0014086 0.000104748 -0.000574335 -0.00153942 0.00162686 -0.000131491 -0.00127607 -0.00181858 0.000988315 -0.000376131 -0.000250639 -0.000437455 -4.79909e-05 0.000549251 -0.00147239 0.00131323 -0.000138304 -0.000608552 -0.00194377 -0.000205715 0.000378155 -0.00181817 -0.00160917
internal_weight=751 721 375 346 348 264 241 219 107 206 82 143 106 100 45 87 123 64 59 76 67 52 43 44 79 40 43 48 45
internal_count=751 721 375 346 348 264 241 219 107 206 82 143 106 100 45 87 123 64 59 76 67 52 43 44 79 40 43 48 45
is_linear=0
shrinkage=0.0426353


Tree=30
num_leaves=27
num_cat=0
split_feature=66 32 55 46 66 66 31 32 60 58 28 46 66 50 50 79 60 12 41 47 31 36 27 50 37 31
split_gain=0.388153 0.207336 0.102438 0.081379 0.0184595 0.0168972 0.013656 0.0128131 0.0111673 0.00950548 0.00819894 0.00518203 0.0043361 0.00374508 0.00381483 0.00354292 0.00330303 0.00210657 0.00187929 0.0018371 0.00136833 0.00121006 0.00133045 0.000880856 0.000598936 0.000415248
threshold=0.03053653796768795 -0.023325038751443768 0.4766334348184052 0.88278538128436679 0.096004104251604425 0.65873436255237905 0.45067256786953858 0.093264808591677309 0.32714932346577597 0.15654830500559772 12.327500222831413 0.8565689245027609 0.070832159517218427 0.1615235498499204 -0.048247968028986614 -1.019807357814623 0.51899021618809227 0.07308898033019888 0.24991173607752934 0.068886696137057404 0.18156324971255658 0.8599859196710552 36.957651780965158 0.12887604057249932 0.02172070780407858 0.54191387871081886
decision_type=8 10 10 8 8 10 2 10 8 10 10 10 10 10 10 8 10 8 10 8 2 10 8 10 10 2
left_child=-1 3 4 9 18 10 7 16 13 12 -4 -9 -2 14 -5 -12 -6 19 -3 25 -10 22 -17 -11 -19 -8
right_child=1 2 5 8 6 -7 17 11 20 23 15 -13 -14 -15 -16 21 -18 24 -20 -21 -22 -23 -24 -25 -26 -27
leaf_value=0.0054452172049105777 0.0024352947594692563 -0.000168034236343288 0.00074287773896453927 -0.00030000656335817414 -0.0010393217717390717 0.0010910517050496038 -0.0015379675593612161 0.00010176210875317363 0.00081134526880043297 0.0014236300105339441 -0.00055594130981752917 -0.00083660982147490653 0.0017041792545480011 -0.00050541549612586202 0.00037201693921498326 8.8370282958295679e-05 -0.0016381013393564274 -0.001975199404227902 -0.00068655260973525859 -0.0012357372195284867 0.00042616173632804974 0.00025808119684686114 -0.00038607165274608601 0.0010282729941277404 -0.001682926532578532 -0.0017711735128771696
leaf_weight=23 30 24 20 28 33 30 35 20 30 21 34 23 29 31 34 22 34 25 27 34 38 20 21 20 26 23
leaf_count=23 30 24 20 28 33 30 35 20 30 21 34 23 29 31 34 22 34 25 27 34 38 20 21 20 26 23
internal_value=-6.12854e-06 -0.000182225 -0.000735701 0.000774164 -0.00118252 0.000188336 -0.00133169 -0.000974544 0.000180839 0.00172942 -4.31298e-05 -0.000400158 0.00207593 -0.00012279 6.85225e-05 -0.000205193 -0.00134318 -0.00160641 -0.000442544 -0.00148458 0.000596096 -1.59005e-05 -0.000143334 0.00123077 -0.0018262 -0.00163045
internal_weight=735 712 451 261 304 147 253 110 161 100 117 43 59 93 62 97 67 143 51 92 68 63 43 41 51 58
internal_count=735 712 451 261 304 147 253 110 161 100 117 43 59 93 62 97 67 143 51 92 68 63 43 41 51 58
is_linear=0
shrinkage=0.0426353


Tree=31
num_leaves=28
num_cat=0
split_feature=66 70 63 13 0 10 9 31 67 77 67 70 70 28 50 50 67 31 33 65 36 45 50 45 28 28 33
split_gain=0.355761 0.209303 0.075803 0.0621068 0.0192143 0.0171766 0.0144657 0.0110562 0.0093623 0.00771725 0.00719769 0.00706824 0.0052426 0.00495798 0.00309614 0.00374724 0.00243376 0.00230755 0.0022962 0.00211537 0.00124012 0.00165525 0.00110194 0.000913074 0.000379763 0.000618961 0.000744548
threshold=0.03053653796768795 0.006719034453967882 0.763521631865416 0.11155777151645981 23265688.500000004 0.13765278802048794 0.20410751465085772 0.41617047971578774 0.1780090557246993 0.39313166585450204 0.23138563630864262 -0.31765325183328835 1.0162213305599554 15.434335207938794 -0.047493226186564312 0.12227577243175106 0.19848007869433096 0.20115462317793686 0.8485523875440707 0.52016914793685132 0.29130661814652409 0.84183126009551434 0.021154016729546789 0.11588946568702173 17.52356665741765 23.353705913088042 0.48906719444788899
decision_type=8 10 10 8 2 10 10 2 8 10 10 8 10 10 8 10 8 2 10 10 8 8 8 10 10 10 10
left_child=-1 3 5 10 -4 8 7 11 -3 20 19 -5 13 -10 23 22 -15 -8 24 -2 -7 -22 -16 -13 -18 26 -26
right_child=1 2 4 6 -6 9 17 -9 12 -11 -12 14 -14 16 15 -17 18 -19 -20 -21 21 -23 -24 -25 25 -27 -28
leaf_value=0.0052130586176150602 0.0022261447466258651 -0.00055029584142207428 0.0016051491624561405 0.0013293783844783749 -1.7626503023796841e-05 -0.0001284526957884792 -8.8565587422312944e-05 -0.00035291844296945053 -0.0010216777035466145 -0.001343161520665756 0.0011687176984132002 0.00010470859136907983 -0.00073791786153175375 -0.0011685785304323799 0.0010467956677207581 0.00018499804992358352 -0.0018843928825443487 -0.0006391047222777408 -0.0013036662590960517 0.0016529120940838974 -0.00076538272371716269 -0.0002646447144633191 0.00067289395042574628 0.00046226487363184942 -0.0013966019683567805 -0.0018344957503520802 -0.0017522916821606917
leaf_weight=23 25 27 21 20 36 22 31 27 37 20 38 37 20 23 23 24 25 25 28 22 24 24 38 20 20 32 23
leaf_count=23 25 27 21 20 36 22 31 27 37 20 38 37 20 23 23 24 25 25 28 22 24 24 38 20 20 32 23
internal_value=-5.86724e-06 -0.000174456 -0.000853882 0.000612031 0.000580238 -0.00110541 0.000267516 0.000445844 -0.00129722 -0.000604554 0.00160505 0.000578971 -0.00139418 -0.00146399 0.00047328 0.000636309 -0.00157237 -0.000334342 -0.00164493 0.00195782 -0.000393523 -0.000515014 0.000813873 0.000230167 -0.00174048 -0.00169251 -0.00158685
internal_weight=735 712 382 330 57 325 245 189 235 90 85 162 208 188 142 85 151 56 128 47 70 48 61 57 100 75 43
internal_count=735 712 382 330 57 325 245 189 235 90 85 162 208 188 142 85 151 56 128 47 70 48 61 57 100 75 43
is_linear=0
shrinkage=0.0426353


Tree=32
num_leaves=28
num_cat=0
split_feature=66 70 63 13 0 10 9 31 67 77 84 70 70 28 50 50 66 67 31 33 41 45 50 60 28 28 33
split_gain=0.326071 0.191836 0.0694771 0.0569238 0.0176108 0.0157431 0.0132585 0.0101335 0.00858098 0.00707322 0.00669482 0.00647837 0.00480509 0.00454422 0.00283776 0.00343452 0.00242329 0.00223065 0.00211498 0.00210458 0.00114945 0.00179891 0.00100998 0.000881318 0.00034807 0.000567307 0.000682413
threshold=0.03053653796768795 0.006719034453967882 0.763521631865416 0.11155777151645981 23265688.500000004 0.13765278802048794 0.20410751465085772 0.41617047971578774 0.1780090557246993 0.39313166585450204 -0.014710616446978929 -0.31765325183328835 1.0162213305599554 15.434335207938794 -0.047493226186564312 0.12227577243175106 0.070832159517218427 0.19848007869433096 0.20115462317793686 0.8485523875440707 0.24991173607752934 0.84183126009551434 0.021154016729546789 -0.10831183146942795 17.52356665741765 23.353705913088042 0.48906719444788899
decision_type=8 10 10 8 2 10 10 2 8 10 10 8 10 10 8 10 10 8 2 10 8 8 8 8 10 10 10
left_child=-1 3 5 10 -4 8 7 11 -3 20 16 -5 13 -10 23 22 -2 -15 -8 24 -7 -22 -16 -13 -19 26 -26
right_child=1 2 4 6 -6 9 18 -9 12 -11 -12 14 -14 17 15 -17 -18 19 -20 -21 21 -23 -24 -25 25 -27 -28
leaf_value=0.0049907979382510653 0.0021709854983285042 -0.0005268337900280639 0.0015367130350707834 0.0012726998435454542 -1.6874987717489278e-05 -0.0001449512778784735 -8.4789563710011278e-05 -0.00033787164527878099 -0.00097811811654851697 -0.0012858953659005119 0.0010108099398681055 1.6520836871520153e-05 -0.00070645646411493241 -0.0011187557795398291 0.0010021651695800047 0.00017711058872380055 0.0015916593840674563 -0.0018040511264490061 -0.00061185627871831419 -0.0012480840024784215 -0.00079370003525383256 -0.00025336149925693865 0.00064420488579449895 0.00035824062104868401 -0.0013370573673769216 -0.0017562814184770728 -0.0016775821113089154
leaf_weight=23 21 27 21 20 36 25 31 27 37 20 29 23 20 23 23 24 35 25 25 28 21 24 38 34 20 32 23
leaf_count=23 21 27 21 20 36 25 31 27 37 20 29 23 20 23 23 24 35 25 25 28 21 24 38 34 20 32 23
internal_value=-5.6171e-06 -0.000167018 -0.000817477 0.000585937 0.0005555 -0.00105828 0.00025611 0.000426835 -0.00124191 -0.000578779 0.00153661 0.000554286 -0.00133474 -0.00140157 0.000453101 0.000609179 0.00180891 -0.00150533 -0.000320087 -0.0015748 -0.000376745 -0.000505519 0.000779174 0.000220354 -0.00166628 -0.00162035 -0.0015192
internal_weight=735 712 382 330 57 325 245 189 235 90 85 162 208 188 142 85 56 151 56 128 70 45 61 57 100 75 43
internal_count=735 712 382 330 57 325 245 189 235 90 85 162 208 188 142 85 56 151 56 128 70 45 61 57 100 75 43
is_linear=0
shrinkage=0.0426353


Tree=33
num_leaves=28
num_cat=0
split_feature=87 70 63 13 0 10 9 31 66 79 70 28 57 70 94 50 50 28 31 54 28 43 42 50 33 47 83
split_gain=0.302415 0.180572 0.063679 0.0557038 0.0161411 0.0144293 0.0121521 0.00928786 0.00683848 0.00648294 0.00593773 0.00496155 0.00669581 0.00458275 0.00437149 0.00260094 0.0031479 0.00210742 0.00193847 0.00120161 0.00225637 0.00167951 0.00108428 0.000925692 0.000853439 0.000840887 0.000587142
threshold=0.2557592473757207 0.006719034453967882 0.763521631865416 0.11155777151645981 23265688.500000004 0.13765278802048794 0.20410751465085772 0.41617047971578774 0.11847587892955765 -1.4676223610827803 -0.31765325183328835 23.353705913088042 0.12889713052864427 0.99973114463048873 -0.10594966720355617 -0.047493226186564312 0.12227577243175106 15.434335207938794 0.20115462317793686 0.50369572834385623 20.371668851457585 0.079098339560618666 0.94270576956144814 0.021154016729546789 -0.08774253956084889 0.04706813147106205 0.49757512810827254
decision_type=8 10 10 8 2 10 10 2 10 8 8 10 10 10 10 8 10 10 2 10 10 10 8 8 10 10 10
left_child=-1 3 5 8 -4 11 7 10 -2 -7 -5 12 13 17 -10 24 23 -3 -8 20 21 -19 25 -17 -12 -11 -13
right_child=1 2 4 6 -6 9 18 -9 14 22 15 26 -14 -15 -16 16 -18 19 -20 -21 -22 -23 -24 -25 -26 -27 -28
