tree
version=v4
num_class=1
num_tree_per_iteration=1
label_index=0
max_feature_idx=94
objective=regression
feature_names=WeightedAverageNumberOfDilutedSharesOutstanding ROE ROA AssetTurnover DebtToEquity NetProfitMargin OperatingMargin EarningsPerShareDiluted_log GrossProfit_log NetIncomeLoss_log OperatingIncomeLoss_log Revenues_log Assets_log Liabilities_log NoncurrentAssets_log WeightedAverageNumberOfDilutedSharesOutstanding_log Equity_log ROE_log ROA_log BookValuePerShare_log SalesPerShare_log AssetTurnover_log DebtToEquity_log NetProfitMargin_log OperatingMargin_log EarningsPerShareDilutedTTM_log SalesPerShareTTM_log PE_Ratio PB_Ratio PS_Ratio MarketCapLog Price CostsAndExpenses_log Returns Returns_Daily lag_5 ma_5 std_5 skew_5 kurt_5 total_return_5 min_5 max_5 first_return_5 last_return_5 lag_25 ma_25 std_25 skew_25 kurt_25 total_return_25 min_25 max_25 first_return_25 last_return_25 lag_90 ma_90 std_90 skew_90 kurt_90 total_return_90 min_90 max_90 first_return_90 last_return_90 lag_180 ma_180 std_180 skew_180 kurt_180 total_return_180 min_180 max_180 first_return_180 last_return_180 lag_252 ma_252 std_252 skew_252 kurt_252 total_return_252 min_252 max_252 first_return_252 last_return_252 lag_504 ma_504 std_504 skew_504 kurt_504 total_return_504 min_504 max_504 first_return_504 last_return_504
feature_infos=none [0.10661604371360406:0.12085301938915137] [0.0460813323820774:0.051724328445618181] none [1.2495786334759498:1.4029959810010961] none none none none [-0.024011613609034324:0.14417521987333376] [-0.060249879447425075:0.20406197547334698] none [-0.0013342073979570222:0.028174078826336334] [-0.029621103861737268:0.041918715997417796] none none [-0.0063823980712921849:0.04348338325805743] [-0.034740832155055405:0.14141714089878055] [-0.052185692435370711:0.14311033805063891] none none none [-0.066671062469563613:0.036045714525174334] none none none none none none none none [0.4228143047377646:0.57805609216149989] [-0.14682230546542083:0.15689726851567848] [-0.20019695664489071:0.22872469190935904] [-0.030011168714867805:0.046630226876212259] [-0.20019695664489071:0.22872469190935904] [-0.18579929888543395:0.21741308327777475] [0.0021988652283636981:0.052589275823257474] [-2.0769520036026403:2.1214594574300931] [-3.3299762742714827:4.6230330372083275] [-0.048561838521045599:0.076020149689916217] [-0.20019695664489071:0.20608477689584459] [-0.16744726383603728:0.22872469190935904] [-0.20019695664489071:0.22872469190935904] [-0.20019695664489071:0.22872469190935904] [-0.20019695664489071:0.22872469190935904] [-0.16742678687961576:0.20411566075234863] [0.0097375239778043302:0.073091972863134763] [-1.4870901358007251:2.4722359606618309] [-1.8040837927724231:7.5947104676587252] [-0.099311936573693291:0.13422191689302623] [-0.20019695664489071:0.17201175541309385] [-0.12722231970745518:0.22872469190935904] [-0.20019695664489071:0.22872469190935904] [-0.20019695664489071:0.22872469190935904] [-0.20019695664489071:0.15128253504087555] [-0.11980673554526852:0.1620500225146041] [0.029231394640746367:0.087457892182512403] [-1.2228387378818795:0.80191229650091334] [-1.349430450400398:2.1750294005438584] [-0.1473121655288866:0.20863175837495454] [-0.20019695664489071:0.084726798697203842] [-0.044228375595396149:0.22872469190935904] [-0.20019695664489071:0.15128253504087555] [-0.20019695664489071:0.22872469190935904] [-0.20019695664489071:0.13956750349569244] [-0.085737358198262836:0.13012834894510125] [0.046888027539109256:0.085640368073720011] [-0.97884128494645384:0.58352485083983663] [-1.07493110591028:1.635087836263871] [-0.19253847215174585:0.23316684602231927] [-0.20019695664489071:0.027834137430762081] [0.046233244680614349:0.22872469190935904] [-0.20019695664489071:0.13956750349569244] [-0.20019695664489071:0.22872469190935904] [-0.20019695664489071:0.20075965532253182] [-0.056811133057700393:0.098931416351099671] [0.066801682387051836:0.090508108234977805] [-0.9092697269551735:0.39784313450650671] [-1.0418476576772029:0.82998435205710863] [-0.20019695664489115:0.22872469190935818] [-0.20019695664489071:-0.048067816372033854] [0.099622150070351273:0.22872469190935904] [-0.20019695664489071:0.20075965532253182] [-0.20019695664489071:0.22872469190935904] [-0.084572523618201001:0.41211136519180563] [0.0056777125259932851:0.045737169010447581] [0.086683777132465237:0.11752366855477069] [-0.32910964129459447:0.27865357873319807] [-0.87388327656199616:-0.43127924223829628] [-0.074586910981779705:0.24067605792425703] none [0.20075965532253182:0.41211136519180563] [-0.084572523618201001:0.41211136519180563] [-0.20019695664489071:0.22872469190935904]
tree_sizes=1005 960 962 962 963 1050 1055 1063 877 958 970 1064 1069 969 1062 1062 1055 1064 969 1063 973 1065 971 1160 1066 970 973 972 975 970 975 979 886 1071 1070 886 880 1073 974 1067 888 1065 978 981 977 975 974 880 975 1075 1067 975 979 978 982 1063 979 1069 1161 1163 887 979 1076 981 981 1157 1069 1157 1064 1074 1067 1066 979 1069 1078 1072 1069 979 983 977 980 885 980 1069 980 1073 1072 1071 1074 1069 983 982 891 982 983 983 1070 1069 1074 1075 981 980 1074 978 1075 888 886 889 886 891 986 888 1074 979 983 1076 1073 981 1073 1077 982 982 982 978 985 984 982 984 887 982 985 978 1076 1078 983 1162 1072 1168 1080 1069 979 893 1080 983 1073 1073 1072 983 1166 977 984 1076 1075 1075 988 1068 892 980 1073 980 1067 981 973 1164 1071 1076 984 1071 980 1067 1078 980 977 1083 981 1070 978 1073 1069 1072 981 1078 988 984 982 1077 1076 1082 1077 985 987 1077 979 985 986 982 1078 978 1171 982 981 1071 1075 1076 1074 982 985 978 1075 1074 980 1070 983 977 1072 1079 985 1073 1076

Tree=0
num_leaves=10
num_cat=0
split_feature=86 50 86 56 56 90 57 31 40
split_gain=0.0410852 0.00698508 0.00709928 0.00514146 0.00242597 0.00224209 0.00203464 0.00121845 0.000267631
threshold=0.0088443879177064443 0.082864776638481893 0.014916829143797994 -0.014054917607693718 0.1001124992024794 0.0096003963157548413 0.043269237182519467 0.51202646369130367 -0.0020482750751843783
decision_type=2 2 2 2 2 2 2 2 2
left_child=4 2 6 5 -1 -4 -2 -5 -8
right_child=1 -3 3 7 -6 -7 8 -9 -10
leaf_value=0.02402429125241028 0.025267151513946973 0.025033488488763161 0.026137839354715125 0.026675871185273804 0.024666340227927252 0.025542248666495397 0.025850255999667591 0.0262433004690629 0.025632331712635147
leaf_weight=23 28 20 20 20 20 27 20 29 21
leaf_count=23 28 20 20 20 20 27 20 29 21
internal_value=0.02551 0.025786 0.0258772 0.0261143 0.0243229 0.0257957 0.0255473 0.0264199 0.0257386
internal_weight=228 185 165 96 43 47 69 49 41
internal_count=228 185 165 96 43 47 69 49 41
is_linear=0
shrinkage=1


Tree=1
num_leaves=9
num_cat=0
split_feature=86 87 86 87 56 31 60 78
split_gain=0.0376566 0.00708641 0.00753445 0.0044778 0.00222352 0.00135352 0.00113963 0.000819945
threshold=0.0088443879177064443 0.11672506224495402 0.014916829143797994 0.11640579193054419 0.1001124992024794 0.50596889753416496 0.049440952999798123 -0.15584430235349869
decision_type=2 2 2 2 2 2 2 2
left_child=4 2 6 5 -1 -4 7 -2
right_child=1 -3 3 -5 -6 -7 -8 -9
leaf_value=-0.001423340563111072 -3.6543435157734369e-05 -0.00038931265461108404 0.0011218220200068919 0.00024096146471443302 -0.00080866556865331971 0.00069263594475460879 -0.00021851616588234601 0.00032034282704952835
leaf_weight=23 22 26 22 34 20 34 22 25
leaf_count=23 22 26 22 34 20 34 22 25
internal_value=-9.32533e-07 0.00026323 0.000369935 0.000626916 -0.00113745 0.000861245 3.47429e-05 0.00015329
internal_weight=228 185 159 90 43 56 69 47
internal_count=228 185 159 90 43 56 69 47
is_linear=0
shrinkage=0.0426353


Tree=2
num_leaves=9
num_cat=0
split_feature=86 87 86 57 42 57 31 34
split_gain=0.034514 0.00655716 0.00834239 0.00235608 0.00213039 0.00174743 0.00124057 0.000334385
threshold=0.0088443879177064443 0.11666691762857982 0.014916829143797994 0.06984909279161873 0.13822903259506908 0.043269237182519467 0.50596889753416496 0.0026574104157503068
decision_type=2 2 2 2 2 2 2 2
left_child=4 2 5 6 -1 -2 -4 -7
right_child=1 -3 3 -5 -6 7 -8 -9
leaf_value=-0.0013687936824811212 -0.0002263702747939219 -0.00026439000693205777 0.0010739927834443066 0.00031961930747872314 -0.00076712944812031968 0.00032939585986276483 0.00066310518138140684 8.5805305494670626e-05
leaf_weight=23 28 36 22 24 20 21 34 20
leaf_count=23 28 36 22 24 20 21 34 20
internal_value=-8.9277e-07 0.000252007 0.000376774 0.000673054 -0.00108895 3.32616e-05 0.000824525 0.000210571
internal_weight=228 185 149 80 43 69 56 41
internal_count=228 185 149 80 43 69 56 41
is_linear=0
shrinkage=0.0426353


Tree=3
num_leaves=9
num_cat=0
split_feature=86 87 86 57 56 57 31 34
split_gain=0.0316337 0.00604529 0.00636054 0.00371503 0.00196068 0.0016016 0.00113704 0.00030648
threshold=0.0088443879177064443 0.11672506224495402 0.014916829143797994 0.06984909279161873 0.1001124992024794 0.043269237182519467 0.50596889753416496 0.0026574104157503068
decision_type=2 2 2 2 2 2 2 2
left_child=4 2 5 6 -1 -2 -4 -7
right_child=1 -3 3 -5 -6 7 -8 -9
leaf_value=-0.0013109888143228606 -0.00021671890285365164 -0.00036144181365544559 0.0010282027303275953 0.00022438427974210342 -0.00073378535880052644 0.00031535195810325001 0.00063483345570286673 8.2146967496297957e-05
leaf_weight=23 28 26 22 34 20 21 34 20
leaf_count=23 28 26 22 34 20 21 34 20
internal_value=-8.54705e-07 0.000241263 0.000339818 0.000575932 -0.00104252 3.18435e-05 0.000789371 0.000201593
internal_weight=228 185 159 90 43 69 56 41
internal_count=228 185 159 90 43 69 56 41
is_linear=0
shrinkage=0.0426353


Tree=4
num_leaves=9
num_cat=0
split_feature=86 87 86 57 42 57 31 34
split_gain=0.0289938 0.00556252 0.00703307 0.0019496 0.00188002 0.00146794 0.00104215 0.000280903
threshold=0.0088443879177064443 0.11666691762857982 0.014916829143797994 0.06984909279161873 0.13822903259506908 0.043269237182519467 0.50596889753416496 0.0026574104157503068
decision_type=2 2 2 2 2 2 2 2
left_child=4 2 5 6 -1 -2 -4 -7
right_child=1 -3 3 -5 -6 7 -8 -9
leaf_value=-0.0012609600121035677 -0.00020747902167275912 -0.00024464548844468101 0.00098436492071015996 0.00029642552486001397 -0.00069575465120195069 0.000301906819744016 0.0006077671338091434 7.8644603272831458e-05
leaf_weight=23 28 36 22 24 20 21 34 20
leaf_count=23 28 36 22 24 20 21 34 20
internal_value=-8.18267e-07 0.000230976 0.000345892 0.000617929 -0.000998074 3.04858e-05 0.000755716 0.000192998
internal_weight=228 185 149 80 43 69 56 41
internal_count=228 185 149 80 43 69 56 41
is_linear=0
shrinkage=0.0426353


Tree=5
num_leaves=10
num_cat=0
split_feature=87 1 68 44 44 40 31 31 45
split_gain=0.0237371 0.0055077 0.00668389 0.00293805 0.00188292 0.00178314 0.00150358 0.000572835 0.000269966
threshold=0.091387299680070602 0.11195583852639711 0.12248323932401585 -0.035896650544124685 0.13005996304180303 0.01821536646481383 0.50739000280930624 0.5169134723605403 0.043038721411727245
decision_type=2 2 2 2 2 2 2 2 2
left_child=4 3 6 -2 -1 7 -3 8 -5
right_child=1 2 -4 5 -6 -7 -8 -9 -10
leaf_value=-0.0011780658601238945 0.00048586765437048674 0.001043922614376649 1.5159388394103314e-05 9.5375793586064034e-06 -0.00060003289358606248 -0.00044050868146703801 0.00058997110840129348 -0.00013676264194519225 0.00023106342783285537
leaf_weight=21 20 21 36 20 20 20 36 26 20
leaf_count=21 20 21 36 20 20 20 36 26 20
internal_value=3.80433e-05 0.000230505 0.000469969 2.04092e-05 -0.000896099 -8.7837e-05 0.000757216 1.90332e-05 0.000120301
internal_weight=240 199 93 106 41 86 57 66 40
internal_count=240 199 93 106 41 86 57 66 40
is_linear=0
shrinkage=0.0426353


Tree=6
num_leaves=10
num_cat=0
split_feature=86 1 67 67 44 86 44 31 49
split_gain=0.0217562 0.00504807 0.00462197 0.00276676 0.00269286 0.00181489 0.00172578 0.000747228 0.00045585
threshold=0.0088443879177064443 0.11195583852639711 0.074585884563514185 0.058134427131143147 -0.035896650544124685 0.034464668119155391 0.13005996304180303 0.5169134723605403 -0.27683055166263432
decision_type=2 2 2 2 2 2 2 2 2
left_child=6 4 3 -3 -2 7 -1 -6 -5
right_child=1 2 -4 8 5 -7 -8 -9 -10
leaf_value=-0.0011278386314403641 0.0004651525233842463 0.00065447529057194764 0.00095956827455037229 -3.5952837392560347e-05 0.00016289999863445021 -0.00043988960924059396 -0.00057445029180773434 -0.00012414760959055909 0.00023479049808882373
leaf_weight=21 20 23 24 26 34 20 20 32 20
leaf_count=21 20 23 24 26 34 20 20 32 20
internal_value=3.64214e-05 0.000220677 0.000449931 0.000272666 1.9539e-05 -8.4092e-05 -0.000857893 2.37254e-05 8.17617e-05
internal_weight=240 199 93 69 106 86 41 66 46
internal_count=240 199 93 69 106 86 41 66 46
is_linear=0
shrinkage=0.0426353


Tree=7
num_leaves=10
num_cat=0
split_feature=86 50 86 87 33 73 59 59 40
split_gain=0.0199406 0.00454142 0.00451856 0.00354805 0.00158176 0.00148286 0.000686731 0.000524855 0.000648797
threshold=0.0088443879177064443 0.082864776638481893 0.014916829143797994 0.11661050764581764 0.13005996304180303 -0.11278685125974604 -0.84735473793371696 -0.40433015673304584 0.0023980833357663428
decision_type=2 2 2 2 2 2 2 2 2
left_child=4 2 7 5 -1 -4 -7 8 -2
right_child=1 -3 3 -5 -6 6 -8 -9 -10
leaf_value=-0.0010797528379388615 0.00028154800342644523 -0.00036644754625776471 0.00093173932211088029 8.6854426393316738e-05 -0.00054995841093667056 0.00063559671397117829 0.00033181747679310173 -0.00014243119560689599 -4.7250557588367286e-05
leaf_weight=21 20 22 20 33 20 31 24 25 24
leaf_count=21 20 22 20 33 20 31 24 25 24
internal_value=3.48685e-05 0.000211268 0.000283075 0.00045526 -0.000821317 0.000617359 0.000503039 1.35676e-05 0.000102203
internal_weight=240 199 177 108 41 75 55 69 44
internal_count=240 199 177 108 41 75 55 69 44
is_linear=0
shrinkage=0.0426353


Tree=8
num_leaves=8
num_cat=0
split_feature=86 1 50 67 66 78 70
split_gain=0.0183096 0.00491912 0.00394879 0.00392986 0.00240537 0.00143101 0.000275151
threshold=0.0081847631989266419 0.11195583852639711 0.031167218284596097 0.074585884563514185 0.10199386792430658 0.073570037733876284 0.085356804763598734
decision_type=2 2 2 2 2 2 2
left_child=-1 2 5 4 -3 6 -2
right_child=1 3 -4 -5 -6 -7 -8
leaf_value=-0.00088325576808567959 -6.3392047103812826e-05 9.8587950704549258e-06 -0.00035841741313928101 0.00088426044787480278 0.00051379698886708865 0.00048389827792206874 0.00013484620842913139
leaf_weight=34 20 36 38 24 33 20 35
leaf_count=34 20 36 38 24 33 20 35
internal_value=3.33819e-05 0.000184672 -4.33734e-06 0.000414328 0.000250873 0.000175063 6.27596e-05
internal_weight=240 206 113 93 69 75 55
internal_count=240 206 113 93 69 75 55
is_linear=0
shrinkage=0.0426353


Tree=9
num_leaves=9
num_cat=0
split_feature=86 1 68 50 66 36 31 58
split_gain=0.0168036 0.0039492 0.00484124 0.0027819 0.00146368 0.00132688 0.00114783 0.00030285
threshold=0.0088443879177064443 0.11195583852639711 0.12248323932401585 0.03641885522492988 0.059661408593414865 0.0072579590729321304 0.50739000280930624 0.36194004505611405
decision_type=2 2 2 2 2 2 2 2
left_child=4 3 6 5 -1 -2 -3 -7
right_child=1 2 -4 -5 -6 7 -8 -9
leaf_value=-0.0010026037735971812 0.00045379570473400569 0.00089163199207145877 9.589828828700138e-06 -0.00032374730129055098 -0.00049296752203104477 -6.9740566824138644e-05 0.00049500324183700912 0.00013308639240678424
leaf_weight=21 20 21 36 31 20 23 36 32
leaf_count=21 20 21 36 31 20 23 36 32
internal_value=3.19586e-05 0.00019389 0.000396663 1.59857e-05 -0.000754001 0.000156409 0.00064113 4.82678e-05
internal_weight=240 199 93 106 41 75 57 55
internal_count=240 199 93 106 41 75 57 55
is_linear=0
shrinkage=0.0426353


Tree=10
num_leaves=9
num_cat=0
split_feature=87 69 56 60 42 52 78 90
split_gain=0.0214432 0.00416502 0.00286408 0.00261146 0.00258444 0.00141818 0.00108261 0.000620976
threshold=0.091727550032264724 -0.80645961580069558 0.14875435194014924 -0.018911340700011599 0.13822903259506908 0.08391195699478414 0.076158732496454773 0.011344685507899742
decision_type=2 2 2 2 2 2 2 2
left_child=4 -2 3 -3 -1 -5 7 -7
right_child=1 2 -4 5 -6 6 -8 -9
leaf_value=-0.0010477046482122918 0.0007212701769155692 0.00050597014258531997 0.00059761017561390151 -0.00024291426861923254 -0.0004177099276855963 0.00012426587948179845 0.00027048745265559646 -0.00015433949412894561
leaf_weight=29 25 21 21 34 20 26 34 33
leaf_count=29 25 21 21 34 20 26 34 33
internal_value=6.35599e-06 0.00020764 0.000131659 6.55444e-05 -0.000790564 -7.28191e-06 7.88633e-05 -3.15642e-05
internal_weight=243 194 169 148 49 127 93 59
internal_count=243 194 169 148 49 127 93 59
is_linear=0
shrinkage=0.0426353


Tree=11
num_leaves=10
num_cat=0
split_feature=87 69 47 56 60 52 77 50 90
split_gain=0.0196537 0.00381743 0.00284605 0.00262507 0.00239352 0.00129982 0.000997809 0.000563318 0.000546105
threshold=0.091727550032264724 -0.80645961580069558 0.028229264972335476 0.14875435194014924 -0.018911340700011599 0.08391195699478414 0.075271624419321823 0.028506034038029596 0.011344685507899742
decision_type=2 2 2 2 2 2 2 2 2
left_child=2 -2 -1 4 -3 -6 7 -7 -8
right_child=1 3 -4 -5 5 6 8 -9 -10
leaf_value=-0.0010266994587692978 0.0006905185708182285 0.00048439793715571351 -0.00036558784252613887 0.00057213087626343552 -0.00023255753497677091 0.00039625295660123929 0.00011048044463890125 7.6255473305674704e-05 -0.00016565451643302351
leaf_weight=29 25 21 20 21 34 20 23 20 30
leaf_count=29 25 21 20 21 34 20 23 20 30
internal_value=6.085e-06 0.000198787 -0.000756858 0.000126046 6.27499e-05 -6.97144e-06 7.55009e-05 0.000236254 -4.58224e-05
internal_weight=243 194 49 169 148 127 93 40 53
internal_count=243 194 49 169 148 127 93 40 53
is_linear=0
shrinkage=0.0426353


Tree=12
num_leaves=10
num_cat=0
split_feature=88 69 47 56 60 40 42 57 40
split_gain=0.0180136 0.00349886 0.00260854 0.002406 0.00219378 0.00147806 0.00112941 0.000521246 0.000231252
threshold=-0.13551081782841976 -0.80645961580069558 0.028229264972335476 0.14875435194014924 -0.018911340700011599 0.023425583762480707 0.034500184134126338 0.043269237182519467 0.0058408441792806133
decision_type=2 2 2 2 2 2 2 2 2
left_child=2 -2 -1 4 -3 6 -6 -8 -9
right_child=1 3 -4 -5 5 -7 7 8 -10
leaf_value=-0.00098292576675994628 0.00066107808781253735 0.00046374546896346566 -0.00035000087516213444 0.00054773786034049716 0.00032243894612492507 -0.00033345559933092096 -0.00016099202582676457 0.00013910141627356315 -3.9327309672679221e-05
leaf_weight=29 25 21 20 21 23 21 29 31 23
leaf_count=29 25 21 20 21 23 21 29 31 23
internal_value=5.82557e-06 0.000190312 -0.000724589 0.000120672 6.00745e-05 -6.67421e-06 5.80655e-05 -1.51946e-05 6.3104e-05
internal_weight=243 194 49 169 148 127 106 83 54
internal_count=243 194 49 169 148 127 106 83 54
is_linear=0
shrinkage=0.0426353


Tree=13
num_leaves=9
num_cat=0
split_feature=87 69 47 83 87 53 35 39
split_gain=0.0165103 0.00320687 0.00239085 0.00220715 0.00272608 0.00113084 0.000526541 0.000187115
threshold=0.091727550032264724 -0.80645961580069558 0.028229264972335476 -0.0018492747855323134 0.1166317375216487 0.045892345712592722 0.15873476609907652 -0.57586051065512089
decision_type=2 2 2 2 2 2 2 2
left_child=2 -2 -1 5 7 -3 -7 -5
right_child=1 3 -4 4 -6 6 -8 -9
leaf_value=-0.00094101837344311807 0.00063289278735618678 -0.0002448083744675524 -0.00033507847105718338 0.00041761061896748681 1.3014441435213508e-05 0.00017081861376594398 -9.944846856769227e-05 0.00059553555079627991
leaf_weight=29 25 30 20 21 38 38 20 22
leaf_count=29 25 30 20 21 38 38 20 22
internal_value=5.57719e-06 0.000182198 -0.000693696 0.000115527 0.000276125 -3.22967e-05 7.76231e-05 0.000508642
internal_weight=243 194 49 169 81 88 58 43
internal_count=243 194 49 169 81 88 58 43
is_linear=0
shrinkage=0.0426353


Tree=14
num_leaves=10
num_cat=0
split_feature=87 69 77 60 43 40 48 57 40
split_gain=0.0151346 0.00275551 0.00210875 0.00191211 0.00162582 0.00111472 0.000770127 0.000611373 0.000232132
threshold=0.091387299680070602 -0.80645961580069558 0.069301831975405501 -0.0068420771643466268 0.12144681433060087 0.023425583762480707 0.50123212548052487 0.043269237182519467 0.0023980833357663428
decision_type=2 2 2 2 2 2 2 2 2
left_child=4 -2 -3 -4 -1 6 7 -5 -9
right_child=1 2 3 5 -6 -7 -8 8 -10
leaf_value=-0.00090714043537813 0.00057887897845956598 0.00050757234526871149 0.00031694632669642086 -0.0002391145812266175 -0.0004027592529552436 -0.00031656705666228339 0.0002544935271274599 0.00013933413597177588 -4.4987603467720627e-05
leaf_weight=26 26 21 37 20 21 21 21 23 27
leaf_count=26 26 21 37 20 21 21 21 23 27
internal_value=5.3394e-06 0.000170108 0.00010759 5.12161e-05 -0.000681779 -3.65698e-05 2.8045e-05 -3.98896e-05 3.98004e-05
internal_weight=243 196 170 149 47 112 91 70 50
internal_count=243 196 170 149 47 112 91 70 50
is_linear=0
shrinkage=0.0426353


Tree=15
num_leaves=10
num_cat=0
split_feature=86 40 48 59 73 77 48 60 9
split_gain=0.0139557 0.00262598 0.0025566 0.00149905 0.000839106 0.000800908 0.000573342 0.000282524 0.000147838
threshold=0.0090927860198997748 0.023425583762480707 1.1159132197723129 -0.84735473793371696 0.021992210984049215 0.089362568063540884 0.44733406440070117 0.016274332218452817 0.088924974618444272
decision_type=2 2 2 2 2 2 2 2 2
left_child=5 2 3 4 8 -1 7 -5 -2
right_child=1 -3 -4 6 -6 -7 -8 -9 -10
leaf_value=-0.00087894187590812777 0.00012783060134537934 -0.00022049392115991613 0.00067254329398336679 6.3324721984018894e-05 0.00054506171172410175 -0.00051003522672481876 0.00020703173048171197 -0.00014002162707105003 0.00027960175370894864
leaf_weight=20 20 27 21 23 20 23 24 27 28
leaf_count=20 20 27 21 23 20 23 24 27 28
internal_value=1.19818e-05 0.000168955 0.000233465 0.000168531 0.00031304 -0.00068162 3.57385e-05 -4.64823e-05 0.000216364
internal_weight=233 190 163 142 68 43 74 50 48
internal_count=233 190 163 142 68 43 74 50 48
is_linear=0
shrinkage=0.0426353


Tree=16
num_leaves=10
num_cat=0
split_feature=87 40 48 58 66 76 77 69 50
split_gain=0.0126786 0.00242794 0.00232209 0.00144058 0.0010213 0.00096695 0.000406371 0.000504489 0.000305655
threshold=0.091727550032264724 0.023425583762480707 1.1159132197723129 0.24899170353877645 0.059661408593414865 -0.053225826438359956 0.075497181912504305 -0.28461722867608863 0.039974482728897857
decision_type=2 2 2 2 2 2 2 2 2
left_child=4 2 3 5 -1 -2 -5 -8 -7
right_child=1 -3 -4 6 -6 8 7 -9 -10
leaf_value=-0.00082786724529232371 3.728252890153652e-05 -0.00021109308993222693 0.00064386917177408902 0.00016765010663566244 -0.0004153396877180344 0.000468676377796853 -0.0002149186628485313 7.5016917735301925e-05 0.00026491207140208353
leaf_weight=24 20 27 21 22 20 32 20 24 23
leaf_count=24 20 27 21 22 20 32 20 24 23
internal_value=1.1471e-05 0.000163219 0.000225604 0.000163309 -0.000640355 0.00029115 1.80354e-05 -5.6772e-05 0.000383466
internal_weight=233 189 162 141 44 75 66 44 55
internal_count=233 189 162 141 44 75 66 44 55
is_linear=0
shrinkage=0.0426353


Tree=17
num_leaves=10
num_cat=0
split_feature=87 40 48 58 73 56 31 73 57
split_gain=0.0116442 0.00217285 0.00218126 0.00120741 0.000912957 0.000744526 0.000515581 0.000343939 0.000321411
threshold=0.091387299680070602 0.023425583762480707 1.1159132197723129 0.24899170353877645 -0.055152974638369566 0.098487819517855416 0.51378475573637361 0.026995731914602739 0.043799058619601844
decision_type=2 2 2 2 2 2 2 2 2
left_child=5 2 3 4 -2 -1 -5 -6 -8
right_child=1 -3 -4 6 7 -7 8 -9 -10
leaf_value=-0.00080291664160464364 1.7938130599278272e-05 -0.00020209305798891741 0.00061641757509857756 0.00016507154975474239 0.00027275086882223127 -0.00044349188016234152 -0.00019966348403830422 0.00048986447382787896 4.2049709859067845e-05
leaf_weight=22 20 27 21 26 36 20 20 21 20
leaf_count=22 20 27 21 26 36 20 20 21 20
internal_value=1.09819e-05 0.000152318 0.000210666 0.000151081 0.000265779 -0.000631762 1.72664e-05 0.00035274 -7.88069e-05
internal_weight=233 191 164 143 77 42 66 57 40
internal_count=233 191 164 143 77 42 66 57 40
is_linear=0
shrinkage=0.0426353


Tree=18
num_leaves=9
num_cat=0
split_feature=86 87 31 56 93 77 31 31
split_gain=0.0107679 0.00177428 0.00269051 0.0018481 0.000796298 0.000745848 0.000462808 6.01679e-05
threshold=0.0090927860198997748 0.11666691762857982 0.50868206892240686 0.14393869470493637 0.1738673258806808 0.089362568063540884 0.52234096233202099 0.51604565803812685
decision_type=2 2 2 2 2 2 2 2
left_child=5 2 4 6 -2 -1 7 -4
right_child=1 -3 3 -5 -6 -7 -8 -9
leaf_value=-0.00078916128299145658 0.00032509361762160153 -0.00010796783933910731 8.0171614530497197e-05 0.00032310536723497525 0.00067514890040832666 -0.0004331610751661977 -0.00021328579673199024 -2.0722382630822438e-05
leaf_weight=20 27 39 22 39 21 23 21 21
leaf_count=20 27 39 22 39 21 23 21 21
internal_value=1.05137e-05 0.000148398 0.000214612 9.17545e-05 0.000478243 -0.000598743 -4.92249e-05 3.08978e-05
internal_weight=233 190 151 103 48 43 64 43
internal_count=233 190 151 103 48 43 64 43
is_linear=0
shrinkage=0.0426353


Tree=19
num_leaves=10
num_cat=0
split_feature=87 40 48 58 73 56 31 73 57
split_gain=0.00978481 0.00191724 0.0018351 0.00105636 0.000770526 0.000690902 0.000440958 0.000314219 0.000273769
threshold=0.091387299680070602 0.023425583762480707 1.1159132197723129 0.24899170353877645 -0.055152974638369566 0.098487819517855416 0.51378475573637361 0.026995731914602739 0.043799058619601844
decision_type=2 2 2 2 2 2 2 2 2
left_child=5 2 3 4 -2 -1 -5 -6 -8
right_child=1 -3 -4 6 7 -7 8 -9 -10
leaf_value=-0.00074400677397875226 1.9377641467885334e-05 -0.00019328669305543599 0.00056660131879379173 0.0001513089923842238 0.00025050125780561142 -0.00039776746838497451 -0.00018577141619670725 0.00045802242871438435 3.7309237694778856e-05
leaf_weight=22 20 27 21 26 36 20 20 21 20
leaf_count=22 20 27 21 26 36 20 20 21 20
internal_value=1.00654e-05 0.000139627 0.000194436 0.000139782 0.000247066 -0.000579131 1.4618e-05 0.000326956 -7.42311e-05
internal_weight=233 191 164 143 77 42 66 57 40
internal_count=233 191 164 143 77 42 66 57 40
is_linear=0
shrinkage=0.0426353


Tree=20
num_leaves=9
num_cat=0
split_feature=86 40 48 66 50 78 59 77
split_gain=0.00881963 0.00205989 0.00200319 0.00143965 0.00122326 0.00081563 0.000571161 0.000327535
threshold=0.0088443879177064443 0.014054645478334066 1.0782401088811577 0.059661408593414865 0.05185877589061743 0.092954488288502501 -0.42351269207299641 0.075385034401170739
decision_type=2 2 2 2 2 2 2 2
left_child=3 2 5 -1 -3 6 7 -2
right_child=1 4 -4 -5 -6 -7 -8 -9
leaf_value=-0.00073581573687183743 0.00028573779047635803 7.6163184578352774e-05 0.00060918844257083912 -0.00026719630451825846 -0.00030336142006111196 0.00034411705861879532 -5.693536095069425e-05 7.7378886797088727e-05
leaf_weight=26 24 38 20 22 26 29 33 32
leaf_count=26 24 38 20 22 26 29 33 32
internal_value=-1.53838e-06 0.000121906 0.000214624 -0.000521032 -7.80187e-05 0.000147749 8.37636e-05 0.000166676
internal_weight=250 202 138 48 64 118 89 56
internal_count=250 202 138 48 64 118 89 56
is_linear=0
shrinkage=0.0426353


Tree=21
num_leaves=10
num_cat=0
split_feature=86 69 93 50 88 44 73 58 44
split_gain=0.00809071 0.00225083 0.0015704 0.00173236 0.00153315 0.000644702 0.000586108 0.000326878 0.000231145
threshold=0.0081847631989266419 -0.80645961580069558 0.08655442289726302 0.031167218284596097 0.078274635499493914 0.13378483929494162 0.036227145833098454 -0.10851181559342592 0.045892345712592722
decision_type=2 2 2 2 2 2 2 2 2
left_child=-1 -2 6 5 -5 8 7 -3 -4
right_child=1 2 3 4 -6 -7 -8 -9 -10
leaf_value=-0.00059282828562067424 0.00045438612406146036 6.2590881863786187e-06 0.00026973062523939648 -0.00054121529818277193 -3.0806994010631397e-05 -0.00012895838792444355 0.00038859527266206745 0.00022068606157482312 8.2610081264600948e-05
leaf_weight=36 28 24 20 20 23 20 21 28 30
leaf_count=36 28 24 20 20 23 20 21 28 30
internal_value=-1.47279e-06 9.80076e-05 4.43592e-05 -5.52134e-05 -0.000268206 7.5625e-05 0.000198492 0.00012172 0.000157458
internal_weight=250 214 186 113 43 70 73 52 50
internal_count=250 214 186 113 43 70 73 52 50
is_linear=0
shrinkage=0.0426353


Tree=22
num_leaves=9
num_cat=0
split_feature=86 40 48 50 31 31 50 78
split_gain=0.00741551 0.00242923 0.00175664 0.00109819 0.000773108 0.000917908 0.000365158 0.000207833
threshold=0.0081847631989266419 0.014054645478334066 1.0782401088811577 0.046943471157070725 0.54075930539873795 0.51202646369130367 0.0047292983517660354 0.021916433547139538
decision_type=2 2 2 2 2 2 2 2
left_child=-1 2 4 -3 5 6 -2 -7
right_child=1 3 -4 -5 -6 7 -8 -9
leaf_value=-0.00056755283663030434 0.00034984584690824698 4.7282805806281299e-05 0.00056477011801196525 -0.00029101476403342168 0.00037693966339737497 -9.8058222332793589e-05 0.00010959708707949116 6.4227156671497871e-05
leaf_weight=36 23 37 20 33 20 32 23 26
leaf_count=36 23 37 20 33 20 32 23 26
internal_value=-1.41e-06 9.3829e-05 0.000193982 -0.0001122 0.000134178 8.74926e-05 0.000229721 -2.53096e-05
internal_weight=250 214 144 70 124 104 46 58
internal_count=250 214 144 70 124 104 46 58
is_linear=0
shrinkage=0.0426353


Tree=23
num_leaves=11
num_cat=0
split_feature=86 40 78 76 59 77 58 38 57 57
split_gain=0.00686559 0.00162383 0.00149004 0.00126483 0.000899698 0.000570814 0.000492011 0.000294354 0.000290251 0.000150397
threshold=0.0088443879177064443 0.014054645478334066 0.087708703250367212 0.018530082872652082 -0.68635827343650435 0.073386699164852534 0.25300823725261373 -0.060702456686227903 0.043269237182519467 0.045496031246874076
decision_type=2 2 2 2 2 2 2 2 2 2
left_child=3 2 6 -1 7 -4 9 -3 -8 -2
right_child=1 4 5 -5 -6 -7 8 -9 -10 -11
leaf_value=-0.00066101791799754676 0.00029065828957902353 -6.7214716677747852e-05 0.00024635402545348422 -0.00022177052665818108 -0.00029868763278124771 0.00055711781720988113 -0.00011779369709807461 0.00015594625033038851 8.689732971425471e-05 0.00012729406638185476
leaf_weight=26 20 22 22 22 21 21 20 21 34 21
leaf_count=26 20 22 22 22 21 21 20 21 34 21
internal_value=-1.34988e-06 0.000107564 0.000189886 -0.000459696 -6.99421e-05 0.000398122 9.56313e-05 4.17709e-05 1.10858e-05 0.000206984
internal_weight=250 202 138 48 64 43 95 43 54 41
internal_count=250 202 138 48 64 43 95 43 54 41
is_linear=0
shrinkage=0.0426353


Tree=24
num_leaves=10
num_cat=0
split_feature=86 40 48 85 78 75 35 90 50
split_gain=0.00633428 0.00204435 0.00154059 0.00107453 0.000621876 0.000386362 0.000588436 0.000418164 0.000368816
threshold=0.0081847631989266419 0.014054645478334066 1.0782401088811577 0.13760701721042376 0.092954488288502501 -0.14379645526058296 0.13599772727267265 0.0037197525986849126 0.050457025314230693
decision_type=2 2 2 2 2 2 2 2 2
left_child=-1 2 4 8 5 -2 7 -7 -3
right_child=1 3 -4 -5 -6 6 -8 -9 -10
leaf_value=-0.00052453603137733035 -9.6654620824922097e-05 0.00012417122775686799 0.00052584526597001407 -0.00034901401993117181 0.00029541293243780112 0.00017408031785176746 0.00029960833004782353 -6.7552797943781518e-05 -0.00011239965033638218
leaf_weight=36 20 25 20 22 29 23 22 30 23
leaf_count=36 20 25 20 22 29 23 22 30 23
internal_value=-1.29233e-06 8.673e-05 0.000178607 -0.000102275 0.000122601 6.98479e-05 0.000114249 3.73069e-05 1.08143e-05
internal_weight=250 214 144 70 124 95 75 53 48
internal_count=250 214 144 70 124 95 75 53 48
is_linear=0
shrinkage=0.0426353


Tree=25
num_leaves=9
num_cat=0
split_feature=86 50 86 85 68 87 75 60
split_gain=0.00570619 0.00194416 0.00170619 0.00138753 0.000825252 0.000422799 0.000348129 0.000281162
threshold=0.0081847631989266419 0.039974482728897857 0.015706781891152464 0.12393538532169289 0.057354447617151715 0.1166317375216487 -0.14379645526058296 1.0000000180025095e-35
decision_type=2 2 2 2 2 2 2 2
left_child=-1 2 6 5 -4 -3 -2 -6
right_child=1 3 4 -5 7 -7 -8 -9
leaf_value=-0.00047457070261627203 -0.00010787961167652311 0.0001865406664058999 0.00050598521185696527 -0.00037927954760248126 0.00032859424027042978 -7.646071186784467e-05 0.00010334797788309421 0.0001100176494832516
leaf_weight=38 23 20 29 21 20 25 37 23
leaf_count=38 23 20 29 21 20 25 37 23
internal_value=3.97985e-06 9.58229e-05 0.000190292 -9.31148e-05 0.00033022 4.04288e-05 2.23774e-05 0.000211681
internal_weight=236 198 132 66 72 45 60 43
internal_count=236 198 132 66 72 45 60 43
is_linear=0
shrinkage=0.0426353


Tree=26
num_leaves=9
num_cat=0
split_feature=86 78 76 40 77 47 68 46
split_gain=0.00523 0.00147706 0.00146869 0.00128193 0.00053125 0.000433378 0.000359171 0.000175454
threshold=0.0081847631989266419 0.087708703250367212 -0.053173296175505654 0.01821536646481383 0.072390970282671815 0.031627104319379186 0.037364556054436303 0.093298642476728241
decision_type=2 2 2 2 2 2 2 2
left_child=-1 3 -3 4 -2 -6 -4 -7
right_child=1 2 6 -5 5 7 -8 -9
leaf_value=-0.00045433721740645576 0.00019780556426944425 -3.7993363636203912e-05 0.00052848483835385061 -0.00027245641054157087 -0.00016631020661382354 -6.6634508907573783e-07 0.00028607971164436741 0.00016236112079167172
leaf_weight=38 39 21 20 24 20 28 25 21
leaf_count=38 39 21 20 24 20 28 25 21
internal_value=3.81017e-06 9.17374e-05 0.000256422 9.39534e-06 7.20291e-05 9.37996e-07 0.000393815 6.92026e-05
internal_weight=236 198 66 132 108 69 45 49
internal_count=236 198 66 132 108 69 45 49
is_linear=0
shrinkage=0.0426353


Tree=27
num_leaves=9
num_cat=0
split_feature=87 50 87 43 46 77 50 83
split_gain=0.00465396 0.00132059 0.00143762 0.00106968 0.000981229 0.000929442 0.00038244 0.000182553
threshold=0.091387299680070602 0.039974482728897857 0.099055288332278821 0.12987607488274419 0.040915026301809002 0.072390970282671815 0.00098477485155975424 -0.14308018239622106
decision_type=2 2 2 2 2 2 2 2
left_child=3 2 7 -1 6 -3 -4 -2
right_child=1 5 4 -5 -6 -7 -8 -9
leaf_value=-0.00053873736494886894 -8.729475398369775e-05 9.1026643902243257e-05 0.00030256974783658946 -0.00013620014157441799 0.0005565684811164014 -0.00024294524128508948 7.0137035022926761e-05 7.4482541531046021e-05
leaf_weight=28 21 33 31 21 20 28 22 32
leaf_count=28 21 33 31 21 20 28 22 32
internal_value=3.64772e-06 0.000100565 0.000179399 -0.000366221 0.00030211 -6.22719e-05 0.000206088 1.03821e-05
internal_weight=236 187 126 49 73 61 53 53
internal_count=236 187 126 49 73 61 53 53
is_linear=0
shrinkage=0.0426353


Tree=28
num_leaves=9
num_cat=0
split_feature=86 40 48 31 41 47 85 39
split_gain=0.00443332 0.00128292 0.00121926 0.00063415 0.000799071 0.000333686 0.000133421 7.97451e-05
threshold=0.0081847631989266419 0.023425583762480707 1.046831153004653 0.54075930539873795 -0.015736202400807833 0.031627104319379186 0.15279910555726062 -0.076596562974077742
decision_type=2 2 2 2 2 2 2 2
left_child=-1 2 3 4 -2 -6 7 -7
right_child=1 -3 -4 -5 5 6 -8 -9
leaf_value=-0.00041832009350398929 0.00025295171089844049 -0.00017237483927526681 0.00041165161730587376 0.00026552651542436799 -0.00013856890617951916 2.1054386252292563e-05 -5.3991565464590386e-05 0.00013855147941038067
leaf_weight=38 25 30 24 28 29 21 20 21
leaf_count=38 25 30 24 28 29 21 20 21
internal_value=3.4922e-06 8.44461e-05 0.000130307 8.34162e-05 3.94585e-05 -1.91935e-05 3.66434e-05 7.98029e-05
internal_weight=236 198 168 144 116 91 62 42
internal_count=236 198 168 144 116 91 62 42
is_linear=0
shrinkage=0.0426353


Tree=29
num_leaves=9
num_cat=0
split_feature=87 50 87 43 46 77 90 83
split_gain=0.00393624 0.00117848 0.00122629 0.000952574 0.000864572 0.000820553 0.000339539 0.000161949
threshold=0.091387299680070602 0.039974482728897857 0.099055288332278821 0.12987607488274419 0.040915026301809002 0.072390970282671815 0.011671622430307421 -0.14308018239622106
decision_type=2 2 2 2 2 2 2 2
left_child=3 2 7 -1 6 -3 -4 -2
right_child=1 5 4 -5 -6 -7 -8 -9
leaf_value=-0.00049961113704521433 -8.115415899871204e-05 8.268808679021288e-05 0.00029604270056130753 -0.00011974677478310597 0.00051913337793973514 -0.00023111133370387236 8.0176802350511564e-05 7.122016234057936e-05
leaf_weight=28 21 33 27 21 20 28 26 32
leaf_count=28 21 33 27 21 20 28 26 32
internal_value=3.34331e-06 9.24749e-05 0.000166946 -0.000336812 0.00028028 -6.1351e-05 0.000190146 1.08454e-05
internal_weight=236 187 126 49 73 61 53 53
internal_count=236 187 126 49 73 61 53 53
is_linear=0
shrinkage=0.0426353


Tree=30
num_leaves=9
num_cat=0
split_feature=88 45 66 1 89 90 57 39
split_gain=0.00362695 0.00108379 0.000961548 0.000699964 0.000727818 0.000572242 0.000247377 0.000155139
threshold=-0.13551081782841976 -0.14370854218056259 0.059661408593414865 0.11055916034533529 -0.69090790079524866 0.020035720241180912 0.042259840638537209 -1.8075328359646259
decision_type=2 2 2 2 2 2 2 2
left_child=2 -2 -1 6 -5 -6 -3 -7
right_child=1 3 -4 4 5 7 -8 -9
leaf_value=-0.00052996765089450811 -0.00022548552859349513 -0.00012305325405243279 -0.00013334592935822763 0.00032735618875512947 0.00027106285030934364 -7.2406272039430449e-05 6.0592208355098798e-05 7.3646083046909308e-05
leaf_weight=25 20 24 20 35 24 20 30 39
leaf_count=25 20 24 20 35 24 20 30 39
internal_value=-9.1742e-06 7.1572e-05 -0.000353691 0.000106114 0.000164297 9.55371e-05 -2.1028e-05 2.41368e-05
internal_weight=237 192 45 172 118 83 54 59
internal_count=237 192 45 172 118 83 54 59
is_linear=0
shrinkage=0.0426353


Tree=31
num_leaves=9
num_cat=0
split_feature=86 1 68 60 33 52 85 34
split_gain=0.00347745 0.00103691 0.000876905 0.00072614 0.000443372 0.000435466 0.000246557 0.000109016
threshold=0.0084018529731604407 0.11195583852639711 0.092739909471897725 0.0032851879949375609 0.13934642880361722 0.092342013520013463 0.15394866997260198 -0.00022813737728248683
decision_type=2 2 2 2 2 2 2 2
left_child=-1 3 4 -2 -3 -5 -7 -4
right_child=1 2 7 5 -6 6 -8 -9
leaf_value=-0.00038848245651649745 0.00011931801652372439 0.00039126742472081255 8.7733194076926522e-05 -0.00028052346034364338 0.00014353241328958705 5.2896826813454795e-05 -0.00014036131686475054 -5.1352255937492308e-05
leaf_weight=37 38 29 20 20 24 24 24 21
leaf_count=37 38 29 20 20 24 24 24 21
internal_value=-8.78305e-06 6.14613e-05 0.000164551 -2.99579e-05 0.000279086 -0.000113377 -4.37322e-05 1.64943e-05
internal_weight=237 200 94 106 53 68 48 41
internal_count=237 200 94 106 53 68 48 41
is_linear=0
shrinkage=0.0426353


Tree=32
num_leaves=8
num_cat=0
split_feature=86 50 31 85 31 50 78
split_gain=0.00318724 0.00101734 0.000750592 0.000729627 0.000450126 0.000423881 0.000177697
threshold=0.0084018529731604407 0.050457025314230693 0.5089933347519574 0.078363804259512268 0.54075930539873795 -0.012720229868377604 0.017341415273677573
decision_type=2 2 2 2 2 2 2
left_child=-1 2 5 -3 6 -2 -4
right_child=1 3 4 -5 -6 -7 -8
leaf_value=-0.00037191937376412643 0.00038830393845587464 9.0631154752157059e-05 -7.0156458579104307e-05 -0.00020919119895385739 0.00022491912423860201 0.00014128298153418648 6.7925707236373331e-05
leaf_weight=37 23 25 36 36 20 28 32
leaf_count=37 23 25 36 36 20 28 32
internal_value=-8.40858e-06 5.88409e-05 0.000122542 -8.63132e-05 4.71179e-05 0.000252685 -5.17662e-06
internal_weight=237 200 139 61 88 51 68
internal_count=237 200 139 61 88 51 68
is_linear=0
shrinkage=0.0426353


Tree=33
num_leaves=10
num_cat=0
split_feature=86 50 85 31 31 58 50 48 34
split_gain=0.00292126 0.000947753 0.00117928 0.000611205 0.000381753 0.000359176 0.000357609 0.000156036 7.51746e-05
threshold=0.0084018529731604407 0.03641885522492988 0.12393538532169289 0.5089933347519574 0.54614814127700739 0.30530361479076934 -0.012720229868377604 1.0000000180025095e-35 -1.0000000180025095e-35
decision_type=2 2 2 2 2 2 2 2 2
left_child=-1 3 4 6 8 -5 -2 -7 -3
right_child=1 2 -4 5 -6 7 -8 -9 -10
leaf_value=-0.00035606247212542484 0.00037174846995540882 2.248394051529848e-05 -0.00033114277080731688 0.00017587288658461883 0.00019217012049402695 -9.4955699184640633e-05 0.00013879941989128534 6.6289993861726548e-05 -9.4413612599705086e-05
leaf_weight=37 23 20 21 27 20 24 25 20 20
leaf_count=37 23 20 21 27 20 24 25 20 20
internal_value=-8.05008e-06 5.63322e-05 -5.61628e-05 0.000132904 4.00801e-05 5.34568e-05 0.000250421 -2.16622e-05 -3.59648e-05
internal_weight=237 200 81 119 60 71 48 44 40
internal_count=237 200 81 119 60 71 48 44 40
is_linear=0
shrinkage=0.0426353


Tree=34
num_leaves=10
num_cat=0
split_feature=86 50 85 86 50 35 39 83 34
split_gain=0.00267747 0.00086866 0.00108086 0.000552428 0.000465944 0.000349895 0.000139528 0.000133703 6.89011e-05
threshold=0.0084018529731604407 0.03641885522492988 0.12393538532169289 0.013679450687328442 -0.012720229868377604 0.1046922333876336 -0.076596562974077742 -0.14308018239622106 -1.0000000180025095e-35
decision_type=2 2 2 2 2 2 2 2 2
left_child=-1 3 5 7 -5 8 -6 -2 -3
right_child=1 2 -4 4 6 -7 -8 -9 -10
leaf_value=-0.00034088162128602644 -5.8581873630918964e-05 2.1525329444207196e-05 -0.00031702438892438202 0.00038386040050576427 6.3152305349428435e-05 0.00018397687993109449 0.00021712941256010225 7.8907350133305834e-05 -9.0388256837950406e-05
leaf_weight=37 20 20 21 20 23 20 20 36 20
leaf_count=37 20 20 21 20 23 20 20 36 20
internal_value=-7.70686e-06 5.39305e-05 -5.37683e-05 0.000127238 0.000213846 3.83713e-05 0.00013477 2.98041e-05 -3.44315e-05
internal_weight=237 200 81 119 63 60 43 56 40
internal_count=237 200 81 119 63 60 43 56 40
is_linear=0
shrinkage=0.0426353


Tree=35
num_leaves=8
num_cat=0
split_feature=78 46 79 48 40 73 34
split_gain=0.00210505 0.000917138 0.000791793 0.000598531 0.000442492 0.000366778 8.9656e-05
threshold=-0.2473006956274941 0.12373698634886386 -0.87979424303965414 1.0782401088811577 -0.0015092001627798816 0.016034287693189344 -0.00049515823077958727
decision_type=2 2 2 2 2 2 2
left_child=1 -1 4 5 -2 6 -4
right_child=2 -3 3 -5 -6 -7 -8
leaf_value=-0.00036303721570595058 7.511445392071208e-05 -1.8371654720289733e-05 9.1929875212775619e-05 0.0003396295149751492 -0.00014194281212312278 0.0002231969921873047 -1.9877405711203185e-05
leaf_weight=36 31 23 22 22 38 25 32
leaf_count=36 31 23 22 22 38 25 32
internal_value=-9.25333e-06 -0.000228676 6.68993e-05 0.000142952 -4.44243e-05 8.81811e-05 2.56737e-05
internal_weight=229 59 170 101 69 79 54
internal_count=229 59 170 101 69 79 54
is_linear=0
shrinkage=0.0426353


Tree=36
num_leaves=8
num_cat=0
split_feature=78 46 79 60 48 65 47
split_gain=0.00192938 0.0008406 0.000725715 0.000637714 0.000548582 0.0003406 7.62545e-05
threshold=-0.2473006956274941 0.12373698634886386 -0.87979424303965414 0.0059975561016821942 1.0782401088811577 -0.0036804079499933016 0.03469643065556962
decision_type=2 2 2 2 2 2 2
left_child=1 -1 3 -2 5 6 -4
right_child=2 -3 4 -5 -6 -7 -8
leaf_value=-0.00034755899735655675 8.5220495863447986e-05 -1.758837447426724e-05 -6.0386428627448917e-05 -0.00017403843911078607 0.000325149293877548 0.00017637714366545518 5.5937684058021934e-05
leaf_weight=36 35 23 20 34 22 38 21
leaf_count=36 35 23 20 34 22 38 21
internal_value=-8.85881e-06 -0.000218926 6.4047e-05 -4.25303e-05 0.000136857 8.44214e-05 -8.05786e-07
internal_weight=229 59 170 69 101 79 41
internal_count=229 59 170 69 101 79 41
is_linear=0
shrinkage=0.0426353


Tree=37
num_leaves=10
num_cat=0
split_feature=78 56 69 89 60 45 50 78 36
split_gain=0.00176836 0.000729863 0.000671415 0.000672883 0.000474597 0.000539098 0.000221717 0.000142911 0.000120232
threshold=-0.2473006956274941 0.11196488652471261 -0.52713120273314884 -0.68391610002204095 0.0059975561016821942 0.0033793494130140351 0.020137065249893858 0.068663487281425781 0.080185040676385252
decision_type=2 2 2 2 2 2 2 2 2
left_child=1 -1 3 -2 7 -6 -5 -4 -7
right_child=2 -3 4 6 5 8 -8 -9 -10
leaf_value=-0.00031697825669785594 0.00037477335643901341 -1.8991431478475084e-07 2.0964195238254449e-05 0.00016220187254972721 -0.00026380776723082923 -6.5060317058783556e-05 -2.8252423772698634e-05 0.00017479937307606836 8.1004936186142781e-05
leaf_weight=39 20 20 21 25 20 21 20 23 20
leaf_count=39 20 20 21 25 20 21 20 23 20
internal_value=-8.48111e-06 -0.000209592 6.13163e-05 0.000169007 -5.34942e-06 -8.23332e-05 7.75555e-05 0.000101378 6.19103e-06
internal_weight=229 59 170 65 105 61 45 44 41
internal_count=229 59 170 65 105 61 45 44 41
is_linear=0
shrinkage=0.0426353


Tree=38
num_leaves=9
num_cat=0
split_feature=78 46 79 60 48 34 43 31
split_gain=0.00162079 0.000714226 0.000644328 0.000603155 0.00056548 0.000292276 0.00018959 0.000163046
threshold=-0.2473006956274941 0.12373698634886386 -0.94650516057049716 0.0032851879949375609 1.046831153004653 0.0055912113402631913 0.13174694683199509 0.51799640764143573
decision_type=2 2 2 2 2 2 2 2
left_child=1 -1 3 -2 5 6 7 -4
right_child=2 -3 4 -5 -6 -7 -8 -9
leaf_value=-0.00031922622008860385 7.4624101504918724e-05 -1.5068689900024326e-05 0.00011715331321226633 -0.00025649506500009746 0.00029162068877952113 -5.8667400400693381e-05 0.0001860085501345386 -4.2233029899344685e-05
leaf_weight=36 20 23 28 20 24 27 31 20
leaf_count=36 20 23 28 20 24 27 31 20
internal_value=-8.11952e-06 -0.000200656 5.87021e-05 -9.09355e-05 0.000104744 6.24328e-05 0.000103821 5.07423e-05
internal_weight=229 59 170 40 130 106 79 48
internal_count=229 59 170 40 130 106 79 48
is_linear=0
shrinkage=0.0426353


Tree=39
num_leaves=10
num_cat=0
split_feature=78 46 79 60 48 65 47 58 43
split_gain=0.00148553 0.000654622 0.000590557 0.00055282 0.000518289 0.000319667 0.000178446 5.1878e-05 4.70899e-05
threshold=-0.2473006956274941 0.12373698634886386 -0.94650516057049716 0.0032851879949375609 1.046831153004653 -0.0036804079499933016 0.032922214764950927 0.34358761640734248 0.13719085811764692
decision_type=2 2 2 2 2 2 2 2 2
left_child=1 -1 3 -2 5 6 -4 -8 -7
right_child=2 -3 4 -5 -6 8 7 -9 -10
leaf_value=-0.00030561590163338169 7.1442477631573247e-05 -1.4426231395035332e-05 -0.00010208098532608645 -0.00024555930516719074 0.00027918734047756256 0.00010812370235410204 5.8741909546116836e-06 9.9763593318671754e-05 0.00019851614185120104
leaf_weight=36 20 23 21 20 24 22 23 20 20
leaf_count=36 20 23 21 20 24 22 23 20 20
internal_value=-7.77334e-06 -0.000192101 5.61993e-05 -8.70584e-05 0.000100279 5.9771e-05 -2.08163e-07 4.95437e-05 0.000151168
internal_weight=229 59 170 40 130 106 64 43 42
internal_count=229 59 170 40 130 106 64 43 42
is_linear=0
shrinkage=0.0426353


Tree=40
num_leaves=8
num_cat=0
split_feature=87 50 75 77 68 68 60
split_gain=0.00163628 0.000768226 0.000597851 0.000549002 0.000279225 0.0007792 0.000121769
threshold=0.088972076293055744 0.039513859167343977 -0.14379645526058296 0.072535310151067886 -0.21212170075591763 0.016687033198679462 1.0000000180025095e-35
decision_type=2 2 2 2 2 2 2
left_child=-1 2 -2 -3 -4 -6 -7
right_child=1 3 4 -5 5 6 -8
leaf_value=-0.00032239747354259596 -7.3837827749757102e-05 5.3408103446734381e-05 4.9061241844459156e-05 -0.00018045731248724658 0.00037169154182273355 0.00017931872902733097 4.7441202984257768e-05
leaf_weight=24 28 36 38 37 28 20 35
leaf_count=24 28 36 38 37 28 20 35
internal_value=1.20296e-05 4.81839e-05 0.000103698 -6.51264e-05 0.000144781 0.000188605 9.53967e-05
internal_weight=246 222 149 73 121 83 55
internal_count=246 222 149 73 121 83 55
is_linear=0
shrinkage=0.0426353


Tree=41
num_leaves=10
num_cat=0
split_feature=87 89 69 78 68 68 57 38 42
split_gain=0.00149972 0.000594768 0.000977655 0.00052929 0.000300798 0.00029156 0.00020796 0.000203705 0.000112482
threshold=0.088972076293055744 -0.68391610002204095 -0.52713120273314884 -0.2473006956274941 0.44890692449584729 0.13904388231293993 0.041301533826891716 0.34320963354876582 0.12987607488274419
decision_type=2 2 2 2 2 2 2 2 2
left_child=-1 2 -2 -3 5 8 -4 -7 -5
right_child=1 3 6 4 -6 7 -8 -9 -10
leaf_value=-0.00030865195133747484 0.00030372618639173569 -0.00018953248194678059 -9.6280324130058046e-05 0.00014244494966913766 0.00016141587929577417 -0.00015201942392544451 8.6587322269439829e-05 2.6135324438658098e-05 4.4943282120539828e-06
leaf_weight=24 36 24 20 22 25 28 26 20 21
leaf_count=24 36 24 20 22 25 28 26 20 21
internal_value=1.15167e-05 4.61295e-05 0.000137315 -7.27893e-06 3.04287e-05 -5.55679e-06 7.07965e-06 -7.77883e-05 7.50737e-05
internal_weight=246 222 82 140 116 91 46 48 43
internal_count=246 222 82 140 116 91 46 48 43
is_linear=0
shrinkage=0.0426353


Tree=42
num_leaves=9
num_cat=0
split_feature=87 50 75 93 68 68 48 60
split_gain=0.00137457 0.000649747 0.000501427 0.000491558 0.000242793 0.00066926 0.000170681 0.000104533
threshold=0.088972076293055744 0.039513859167343977 -0.14379645526058296 0.13307363342407508 -0.21212170075591763 0.016687033198679462 0.16191930247583422 1.0000000180025095e-35
decision_type=2 2 2 2 2 2 2 2
left_child=-1 2 -2 6 -4 -6 -3 -7
right_child=1 3 4 -5 5 7 -8 -9
leaf_value=-0.00029549246655223121 -6.7372920810937853e-05 8.8890429634786418e-05 4.3584328828572452e-05 -0.00024014642247265097 0.00034338604155599795 0.00016507977830511328 -6.4377378604456268e-05 4.2891580262867297e-05
leaf_weight=24 28 25 38 20 28 20 28 35
leaf_count=24 28 25 38 20 28 20 28 35
internal_value=1.10257e-05 4.41628e-05 9.52173e-05 -6.00443e-05 0.000132841 0.000173706 7.91876e-06 8.73237e-05
internal_weight=246 222 149 73 121 83 53 55
internal_count=246 222 149 73 121 83 53 55
is_linear=0
shrinkage=0.0426353


Tree=43
num_leaves=9
num_cat=0
split_feature=87 50 77 75 79 89 46 90
split_gain=0.00125986 0.000595524 0.000467285 0.000459582 0.000218968 0.000359416 0.000186815 5.58755e-05
threshold=0.088972076293055744 0.039513859167343977 0.072535310151067886 -0.14379645526058296 -0.88386386486242607 -0.69090790079524866 0.025709919564477858 -0.0033721913457841228
decision_type=2 2 2 2 2 2 2 2
left_child=-1 3 -3 -2 7 -6 -7 -5
right_child=1 2 -4 4 5 6 -8 -9
leaf_value=-0.00028289404316891235 -6.4500452473242138e-05 5.1873330889947091e-05 -0.00016388631118847697 9.8062943068356098e-05 0.00027891733090128863 0.00018214282276058478 1.3773802723103364e-05 -1.5115018638928241e-06
leaf_weight=24 28 36 37 20 32 23 25 21
leaf_count=24 28 36 37 20 32 23 25 21
internal_value=1.05556e-05 4.22799e-05 -5.74843e-05 9.11576e-05 0.000127178 0.000168237 9.44506e-05 4.70614e-05
internal_weight=246 222 73 149 121 80 48 41
internal_count=246 222 73 149 121 80 48 41
is_linear=0
shrinkage=0.0426353


Tree=44
num_leaves=9
num_cat=0
split_feature=87 40 47 78 68 69 75 31
split_gain=0.00115472 0.000527593 0.000370904 0.000295982 0.000275464 0.000205223 0.000158865 0.000101362
threshold=0.088972076293055744 0.014178162357067486 0.037378770086598685 0.052068689927271733 0.051304352154651088 -0.86189254523460512 0.0065432734134797102 0.52586376196153262
decision_type=2 2 2 2 2 2 2 2
left_child=-1 2 5 -3 -4 -2 7 -7
right_child=1 3 4 -5 -6 6 -8 -9
leaf_value=-0.00027083275620339795 0.00014997080546309062 -0.00016303951592100082 0.00027278090526396218 1.998488887165861e-05 8.1664625365750066e-05 1.508073091830329e-05 0.00010699764930429759 -9.7322781428273259e-05
leaf_weight=24 22 29 26 36 29 35 20 25
leaf_count=24 22 29 26 36 29 35 20 25
internal_value=1.01056e-05 4.04773e-05 8.27684e-05 -6.16722e-05 0.000172011 3.46477e-05 2.93386e-06 -3.17541e-05
internal_weight=246 222 157 65 55 102 80 60
internal_count=246 222 157 65 55 102 80 60
is_linear=0
shrinkage=0.0426353


Tree=45
num_leaves=9
num_cat=0
split_feature=78 50 59 53 31 85 78 77
split_gain=0.00112923 0.000495377 0.000446265 0.00024642 0.000206083 0.000167315 0.000126601 8.80438e-05
threshold=-0.2473006956274941 -0.031587989596794409 -0.69667740299058234 0.007780190012742075 0.5089933347519574 0.023474237851156737 0.065386949809834907 0.077696687265138523
decision_type=2 2 2 2 2 2 2 2
left_child=2 -2 -1 6 -5 -6 -3 -7
right_child=1 3 -4 4 5 7 -8 -9
leaf_value=-0.00030086019431290731 0.000242127260162945 -0.00012149254947666272 -5.7695587584437732e-05 0.00017148028532529852 0.00012389888157059194 -6.8331196672548724e-05 1.2419017593464801e-05 4.4911964704944046e-05
leaf_weight=23 24 21 34 28 26 24 33 26
leaf_count=23 24 21 34 28 26 24 33 26
internal_value=9.78529e-06 6.1649e-05 -0.000155815 3.42346e-05 7.26017e-05 3.61728e-05 -3.96577e-05 -9.44475e-06
internal_weight=239 182 57 158 104 76 54 50
internal_count=239 182 57 158 104 76 54 50
is_linear=0
shrinkage=0.0426353


Tree=46
num_leaves=9
num_cat=0
split_feature=78 50 59 53 31 42 78 33
split_gain=0.00103499 0.000454036 0.000409023 0.000225856 0.000189876 0.000157318 0.000116035 0.000112936
threshold=-0.2473006956274941 -0.031587989596794409 -0.69667740299058234 0.007780190012742075 0.50739000280930624 0.11929819195397479 0.065386949809834907 0.14278953939931047
decision_type=2 2 2 2 2 2 2 2
left_child=2 -2 -1 6 -5 -6 -3 -7
right_child=1 3 -4 4 5 7 -8 -9
leaf_value=-0.00028803291515965072 0.0002318040805566033 -0.00011631267202105467 -5.5235717508106974e-05 0.0001719139167256983 -5.9744722650553109e-05 0.00012383685711474555 1.1889528510666737e-05 1.5105409673580426e-06
leaf_weight=23 24 21 34 25 22 34 33 23
leaf_count=23 24 21 34 25 22 34 33 23
internal_value=9.36809e-06 5.90206e-05 -0.000149171 3.2775e-05 6.95063e-05 3.70989e-05 -3.79669e-05 7.44771e-05
internal_weight=239 182 57 158 104 79 54 57
internal_count=239 182 57 158 104 79 54 57
is_linear=0
shrinkage=0.0426353


Tree=47
num_leaves=8
num_cat=0
split_feature=78 46 69 60 49 45 79
split_gain=0.000948619 0.000393195 0.00029642 0.00020827 0.000199089 0.00018936 0.000112188
threshold=-0.2473006956274941 0.12513387723117955 -0.80645961580069558 0.031489698966982553 -0.95760323012726756 0.01208300135341416 -0.84848578689712784
decision_type=2 2 2 2 2 2 2
left_child=1 -1 -2 4 -4 -5 -7
right_child=2 -3 3 5 -6 6 -8
leaf_value=-0.00022833681089798246 0.00017897967525493872 3.803441459030428e-06 1.6675779279471561e-05 -0.00011556842663308845 0.00015761407228503057 0.00010544133708335713 -1.9894724583872049e-05
leaf_weight=36 30 21 38 24 35 21 34
leaf_count=36 30 21 38 24 35 21 34
internal_value=8.96868e-06 -0.000142811 5.65042e-05 3.23314e-05 8.42489e-05 -1.5643e-05 2.79609e-05
internal_weight=239 57 182 152 73 79 55
internal_count=239 57 182 152 73 79 55
is_linear=0
shrinkage=0.0426353


Tree=48
num_leaves=9
num_cat=0
split_feature=86 31 93 60 76 31 59 42
split_gain=0.000813117 0.00030443 0.000517041 0.000295215 0.000184624 0.000126287 0.00011654 0.000106433
threshold=0.0085747870771857321 0.50596889753416496 0.1738673258806808 -0.0068420771643466268 0.078674780527189139 0.52427108569724468 -0.50167208296447929 0.10811841903291496
decision_type=2 2 2 2 2 2 2 2
left_child=6 2 3 -2 5 7 -1 -3
right_child=1 4 -4 -5 -6 -7 -8 -9
leaf_value=-0.00023959355608289988 0.00015834231367663304 -4.4355858073553114e-05 0.00029783567573648184 -4.4683861850439945e-05 9.6026680010557322e-05 -9.9473318609252819e-05 -9.4045382801801188e-05 6.3225442006879576e-05
leaf_weight=20 23 35 20 30 30 29 20 32
leaf_count=20 23 35 20 30 30 29 20 32
internal_value=8.5863e-06 4.38437e-05 0.000113124 4.34218e-05 3.70503e-06 -2.51455e-05 -0.000166819 7.02626e-06
internal_weight=239 199 73 53 126 96 40 67
internal_count=239 199 73 53 126 96 40 67
is_linear=0
shrinkage=0.0426353


Tree=49
num_leaves=10
num_cat=0
split_feature=78 50 59 40 58 73 45 88 89
split_gain=0.000798978 0.000373458 0.000359141 0.000193844 0.000184248 0.000112963 0.000108162 0.000181874 3.00131e-05
threshold=-0.2473006956274941 -0.031587989596794409 -0.69667740299058234 0.023425583762480707 0.24899170353877645 -0.063523147488972628 0.039236028633281371 -0.050701862832271453 -0.71955037788381271
decision_type=2 2 2 2 2 2 2 2 2
left_child=2 -2 -1 4 6 8 -3 -8 -6
right_child=1 3 -4 -5 5 -7 7 -9 -10
leaf_value=-0.00026119394021116154 0.00020854879154839895 3.5466665361768532e-05 -4.3053494052418079e-05 -9.6005985993327132e-05 6.8990562065236464e-05 -9.1919842231802935e-05 4.9877557636126481e-05 0.00022952551040156905 -3.1739110750775775e-06
leaf_weight=23 24 35 34 20 20 20 21 20 22
leaf_count=23 24 35 34 20 20 20 21 20 22
internal_value=8.22022e-06 5.18457e-05 -0.000131075 2.80427e-05 4.60207e-05 -8.52277e-06 9.05167e-05 0.000137511 3.11901e-05
internal_weight=239 182 57 158 138 62 76 41 42
internal_count=239 182 57 158 138 62 76 41 42
is_linear=0
shrinkage=0.0426353


Tree=50
num_leaves=10
num_cat=0
split_feature=86 40 85 47 79 1 37 48 89
split_gain=0.000804795 0.000517025 0.000420463 0.00041265 0.000262427 0.000151904 0.000150129 6.98189e-05 3.54984e-05
threshold=0.0067823888272585545 0.014054645478334066 0.13760701721042376 0.034110028455609398 -0.81903550654338764 0.11055916034533529 0.016891765634224308 -0.014455210549659698 -0.60929445791225101
decision_type=2 2 2 2 2 2 2 2 2
left_child=-1 3 6 5 7 -2 -3 -5 -7
right_child=1 2 -4 4 -6 8 -8 -9 -10
leaf_value=-0.00024061253203992077 -7.9918457035306481e-05 7.3061644615151063e-05 -0.0002207601365896576 2.0613282717760096e-05 0.00022932417996705153 5.6565551010680225e-06 -8.3034944770065896e-05 0.00012748865893191815 8.5985848012161886e-05
leaf_weight=24 31 24 24 25 31 20 21 20 20
leaf_count=24 31 24 24 25 31 20 21 20 20
internal_value=-6.39028e-06 1.96344e-05 -7.66449e-05 6.48267e-05 0.00013387 -9.07921e-06 2.1657e-07 6.81134e-05 4.58212e-05
internal_weight=240 216 69 147 76 71 45 45 40
internal_count=240 216 69 147 76 71 45 45 40
is_linear=0
shrinkage=0.0426353


Tree=51
num_leaves=9
num_cat=0
split_feature=86 50 93 45 69 86 60 87
split_gain=0.000737633 0.000538762 0.00068666 0.000286298 0.000173235 0.000129966 0.00012624 4.32904e-05
threshold=0.0067823888272585545 0.028506034038029596 0.13760701721042376 0.10951324055679469 -0.75023628040932555 0.021771889295942277 0.0090698469409734635 0.11668177595258961
decision_type=2 2 2 2 2 2 2 2
left_child=-1 3 5 4 -2 -3 -6 -7
right_child=1 2 -4 -5 6 7 -8 -9
leaf_value=-0.00023035393298183543 0.00021222277274971657 0.00010634624030021705 -0.00023910325178503795 -2.4341012266458218e-05 0.00014657863612574446 1.120539480209997e-05 2.2616367435651666e-05 -7.0922759800250856e-05
leaf_weight=24 26 20 27 35 28 28 32 20
leaf_count=24 26 20 27 35 28 28 32 20
internal_value=-6.11783e-06 1.87973e-05 -5.71954e-05 7.8461e-05 0.000120299 1.50327e-05 8.04654e-05 -2.30147e-05
internal_weight=240 216 95 121 86 68 60 48
internal_count=240 216 95 121 86 68 60 48
is_linear=0
shrinkage=0.0426353


Tree=52
num_leaves=9
num_cat=0
split_feature=87 34 38 83 89 67 4 73
split_gain=0.000677378 0.000423694 0.000282936 0.000244455 0.000230773 0.00043523 0.000195977 0.000114111
threshold=0.088563430904499377 0.0043791838333479436 0.41560710054682026 -0.006631235973836188 -0.68391610002204095 0.061479521171954037 1.2693725752485314 -0.047784230205228553
decision_type=2 2 2 2 2 2 2 2
left_child=-1 2 4 -3 6 -6 -2 -7
right_child=1 3 -4 -5 5 7 -8 -9
leaf_value=-0.00021135139930753558 5.7167616756871911e-06 -0.00014000430068898028 0.00015785096651126096 3.7737921395867164e-05 -0.00019325770932059964 -1.5972709464085522e-05 0.00018188756064872145 0.00011483642945404364
leaf_weight=26 22 39 38 22 20 27 24 22
leaf_count=26 22 39 38 22 20 27 24 22
internal_value=-5.85699e-06 1.91096e-05 5.69895e-05 -7.59005e-05 2.36613e-05 -2.56524e-05 9.7632e-05 4.27579e-05
internal_weight=240 214 153 61 115 69 46 49
internal_count=240 214 153 61 115 69 46 49
is_linear=0
shrinkage=0.0426353


Tree=53
num_leaves=9
num_cat=0
split_feature=78 65 70 46 70 48 73 31
split_gain=0.000667489 0.000588908 0.0002782 0.000269729 0.000298064 0.000154555 0.000220315 8.6185e-05
threshold=0.065386949809834907 0.032932673813682929 0.15462238900567651 0.041848154845241778 -0.010238345425254246 -0.26837975754586502 -0.065843533075579233 0.54761370342856253
decision_type=2 2 2 2 2 2 2 2
left_child=1 2 5 4 -2 -1 -7 -8
right_child=3 -3 -4 -5 -6 6 7 -9
leaf_value=0.00010743516934126383 0.0001428963437194596 -0.00025535073511593698 -0.00015141845269740566 0.00019730832561853511 -4.0430313647702764e-05 6.4232688481521554e-05 -0.00013726592796846977 -1.7428800497192587e-05
leaf_weight=22 28 24 25 27 38 32 24 20
leaf_count=22 28 24 25 27 38 32 24 20
internal_value=-5.60728e-06 -6.2162e-05 -2.44667e-05 8.37857e-05 3.73446e-05 7.91899e-06 -2.08883e-05 -8.27945e-05
internal_weight=240 147 123 93 66 98 76 44
internal_count=240 147 123 93 66 98 76 44
is_linear=0
shrinkage=0.0426353


Tree=54
num_leaves=9
num_cat=0
split_feature=78 65 70 83 58 47 75 77
split_gain=0.000611785 0.000539762 0.000254983 0.000247676 0.000307319 0.000142362 0.000181962 0.00017639
threshold=0.065386949809834907 0.032932673813682929 0.15462238900567651 1.0000000180025095e-35 -0.031897755144359871 0.03223027653613781 -0.073802197561364954 0.07568028190160403
decision_type=2 2 2 2 2 2 2 2
left_child=1 2 5 -2 -5 7 -7 -1
right_child=3 -3 -4 4 -6 6 -8 -9
leaf_value=4.4576094459942277e-05 -1.1441753725959565e-05 -0.00024446376672499393 -0.00014496267842511524 4.0554050532216715e-05 0.00023541774539847442 0.00016039429870954347 -2.1475109757849612e-05 -0.00010448272488001236
leaf_weight=27 34 24 25 31 28 20 20 31
leaf_count=27 34 24 25 31 28 20 20 31
internal_value=-5.36821e-06 -5.95117e-05 -2.34235e-05 8.02135e-05 0.000133032 7.58137e-06 6.94596e-05 -3.50933e-05
internal_weight=240 147 123 93 59 98 40 58
internal_count=240 147 123 93 59 98 40 58
is_linear=0
shrinkage=0.0426353


Tree=55
num_leaves=10
num_cat=0
split_feature=87 50 85 48 43 76 47 35 31
split_gain=0.000760326 0.000378864 0.000366799 0.000235907 0.000206124 0.000146197 0.00012529 8.42851e-05 6.20747e-05
threshold=0.088115953319472931 0.028506034038029596 0.13760701721042376 0.62195229711913469 0.13629254105997071 -0.050605972665955144 0.03223027653613781 0.12942460762230903 0.49008788498410949
decision_type=2 2 2 2 2 2 2 2 2
left_child=-1 3 4 6 8 -5 -2 -8 -3
right_child=1 2 -4 5 -6 -7 7 -9 -10
leaf_value=-0.00024228796838150294 -3.584423153400502e-05 2.5518064153205374e-05 -0.00016138761976757657 7.6375725094820219e-05 0.00013252903524815663 0.00023180842585998246 2.9201930080165063e-05 0.00013846548881327173 -7.1451761782625659e-05
leaf_weight=21 31 21 30 22 20 22 33 21 28
leaf_count=21 31 21 30 22 20 22 33 21 28
internal_value=3.19861e-06 2.58092e-05 -3.69275e-05 7.3956e-05 1.71857e-05 0.000154092 3.24737e-05 7.16933e-05 -2.98933e-05
internal_weight=249 228 99 129 69 44 85 54 49
internal_count=249 228 99 129 69 44 85 54 49
is_linear=0
shrinkage=0.0426353


Tree=56
num_leaves=9
num_cat=0
split_feature=86 40 57 78 57 48 93 90
split_gain=0.000696874 0.000268857 0.000268389 0.000218662 0.000194349 0.000151087 0.000105792 0.0001043
threshold=0.0067823888272585545 -0.0069588490759069444 0.044845134183192185 0.088780998756478227 0.047050424906722982 -0.014455210549659698 0.13487322542594521 0.03061763446222911
decision_type=2 2 2 2 2 2 2 2
left_child=-1 5 3 6 -4 -2 -3 -6
right_child=1 2 4 -5 7 -7 -8 -9
leaf_value=-0.00023195793733779999 4.0066957947375137e-05 4.8520620737942746e-05 -0.00016076562732400304 0.00014702004109865289 4.6266960854672907e-05 0.00017380666564252605 -6.1856793213016333e-05 -7.8165597883838176e-05
leaf_weight=21 34 38 25 27 25 28 27 24
leaf_count=21 34 38 25 27 25 28 27 24
internal_value=3.06224e-06 2.47088e-05 -3.58584e-06 4.50347e-05 -6.4033e-05 0.000100466 2.67154e-06 -1.46796e-05
internal_weight=249 228 166 92 74 62 65 49
internal_count=249 228 166 92 74 62 65 49
is_linear=0
shrinkage=0.0426353


Tree=57
num_leaves=10
num_cat=0
split_feature=86 50 85 48 73 76 47 57 38
split_gain=0.000638718 0.000337841 0.000320927 0.000203527 0.00015966 0.000132302 0.000115907 0.000128309 4.71197e-05
threshold=0.0067823888272585545 0.028506034038029596 0.13760701721042376 0.62195229711913469 0.016034287693189344 -0.050605972665955144 0.03223027653613781 0.044640613416153746 -0.14396444489605728
decision_type=2 2 2 2 2 2 2 2 2
left_child=-1 3 4 6 8 -5 -2 -8 -3
right_child=1 2 -4 5 -6 -7 7 -9 -10
leaf_value=-0.00022206832509178939 -3.5119411480811081e-05 -8.3263279716647975e-05 -0.00015200521376980406 6.9623460520808425e-05 9.8433676055791126e-05 0.00021748541650415889 0.00014757481488385642 1.3820111186718881e-05 6.2167770545760945e-06
leaf_weight=21 31 20 30 22 26 22 22 32 23
leaf_count=21 31 20 30 22 26 22 22 32 23
internal_value=2.93168e-06 2.36554e-05 -3.55875e-05 6.91208e-05 1.50289e-05 0.000143554 3.05904e-05 6.83128e-05 -3.54019e-05
internal_weight=249 228 99 129 69 44 85 54 43
internal_count=249 228 99 129 69 44 85 54 43
is_linear=0
shrinkage=0.0426353


Tree=58
num_leaves=11
num_cat=0
split_feature=86 50 47 41 75 77 40 46 50 48
split_gain=0.000585415 0.000314892 0.000243848 0.00025874 0.000230533 0.000179702 0.000108064 9.91393e-05 6.87114e-05 2.62961e-05
threshold=0.0067823888272585545 0.055769695222124778 0.03223027653613781 0.11988221296493033 0.017466683682179001 0.072535310151067886 -0.0052463706449696204 0.027182992218102324 -0.017904187880812206 -0.10912930209589657
decision_type=2 2 2 2 2 2 2 2 2 2
left_child=-1 2 7 4 6 -3 -4 -2 -9 -8
right_child=1 5 3 -5 -6 -7 9 8 -10 -11
leaf_value=-0.00021260036689088285 6.2299036300104572e-05 1.3690965641676874e-05 8.8283567493077604e-05 0.00022666110102882839 0.0001590849152146374 -0.00014991280122392606 -6.383704411710784e-05 1.076913638493788e-05 -9.3495313016666947e-05 4.47267719374173e-06
leaf_weight=21 21 23 22 20 28 26 20 20 27 21
leaf_count=21 21 23 22 20 28 26 20 20 27 21
internal_value=2.80668e-06 2.26468e-05 4.88621e-05 8.7811e-05 5.72945e-05 -7.31192e-05 1.20543e-05 -1.47163e-05 -4.91275e-05 -2.88491e-05
internal_weight=249 228 179 111 91 49 63 68 47 41
internal_count=249 228 179 111 91 49 63 68 47 41
is_linear=0
shrinkage=0.0426353


Tree=59
num_leaves=11
num_cat=0
split_feature=86 50 47 32 68 77 31 47 85 48
split_gain=0.000536561 0.000289965 0.000229472 0.000245773 0.000212909 0.000204288 0.000115234 0.000108413 9.36609e-05 5.44107e-05
threshold=0.0067823888272585545 0.059367426491480656 0.03223027653613781 -0.042361851507286351 -0.011228317147993102 0.072669384420504093 0.5282610236722981 0.027893269241233667 0.15394866997260198 -0.014455210549659698
decision_type=2 2 2 2 2 2 2 2 2 2
left_child=-1 2 6 8 -5 -3 7 -2 9 -4
right_child=1 5 3 4 -6 -7 -8 -9 -10 -11
leaf_value=-0.00020353607451939872 9.165200223930333e-05 1.2744674001215346e-05 1.9911752019608511e-05 0.00024251606170970787 5.8368272856884643e-05 -0.00017316615115595241 -8.2618190379913061e-05 -4.4074616971610613e-05 -3.4776298892017717e-05 0.00011585740812503782
leaf_weight=21 23 22 21 25 21 21 28 20 25 22
leaf_count=21 23 22 21 25 21 21 28 20 25 22
internal_value=2.68702e-06 2.16813e-05 4.48618e-05 8.23354e-05 0.000158449 -7.8049e-05 -1.53071e-05 2.85233e-05 3.08471e-05 6.90002e-05
internal_weight=249 228 185 114 46 43 71 43 68 43
internal_count=249 228 185 114 46 43 71 43 68 43
is_linear=0
shrinkage=0.0426353


Tree=60
num_leaves=8
num_cat=0
split_feature=78 34 89 39 77 59 43
split_gain=0.000497526 0.000389212 0.000333312 0.000238894 0.00016656 0.000132374 9.55916e-05
threshold=0.067487451250577035 0.0048002816459628058 -0.69090790079524866 -1.955764629732994 0.073119892936190409 -0.12023796585423752 0.12987607488274419
decision_type=2 2 2 2 2 2 2
left_child=1 3 -2 -1 -4 6 -5
right_child=2 -3 4 5 -6 -7 -8
leaf_value=-0.00010814930841208574 0.00021508411044460432 -0.00017015745343198057 -3.6005297451991232e-05 -5.118974100909374e-05 0.00010063886100504333 0.00012458252067305378 5.4911273416877507e-05
leaf_weight=32 24 36 34 33 31 20 29
leaf_count=32 24 36 34 33 31 20 29
internal_value=-5.60615e-07 -4.79442e-05 7.92994e-05 -9.35054e-06 2.91635e-05 2.92051e-05 -1.56185e-06
internal_weight=239 150 89 114 65 82 62
internal_count=239 150 89 114 65 82 62
is_linear=0
shrinkage=0.0426353


Tree=61
num_leaves=9
num_cat=0
split_feature=78 40 2 55 50 58 93 31
split_gain=0.000456006 0.000319349 0.000421298 0.000333164 0.000235896 0.0001123 7.55448e-05 2.72181e-05
threshold=0.067487451250577035 -0.010664303129495669 0.047758026080324124 0.01208300135341416 -0.019344130455479256 0.14039434189556016 0.10374212284381447 0.52427108569724468
decision_type=2 2 2 2 2 2 2 2
left_child=1 -1 3 -3 -2 -6 -4 -8
right_child=4 2 6 -5 5 -7 7 -9
leaf_value=7.5984747292187477e-05 0.00019350109150266973 -0.00030521908421846751 5.3620424723890604e-05 -8.3394168197853724e-05 8.5711378720837019e-05 -2.5979884850474227e-05 -9.1696319910599673e-06 -7.7176664201347318e-05
leaf_weight=31 23 20 24 32 36 30 23 20
leaf_count=31 23 20 24 32 36 30 23 20
internal_value=-5.36713e-07 -4.59001e-05 -7.76516e-05 -0.000168711 7.59184e-05 3.49426e-05 -6.97828e-06 -4.08008e-05
internal_weight=239 150 119 52 89 66 67 43
internal_count=239 150 119 52 89 66 67 43
is_linear=0
shrinkage=0.0426353


Tree=62
num_leaves=10
num_cat=0
split_feature=34 86 59 69 38 55 33 50 47
split_gain=0.000439764 0.000268887 0.00022189 0.000245139 0.000212604 7.64365e-05 8.35858e-05 3.06641e-05 2.76786e-05
threshold=0.0046683216139589683 0.0073933575505919962 -0.38009105344863853 -0.47184709331777491 0.75455014610992011 0.10085617836363768 0.007780190012742075 -0.011436468729368338 0.030645355998178605
decision_type=2 2 2 2 2 2 2 2 2
left_child=1 -1 3 -2 5 6 -3 -8 -9
right_child=2 4 -4 -5 -6 -7 7 8 -10
leaf_value=-0.00010736344700302744 -0.00025298966504439262 8.2663546965116189e-05 2.1656916908340219e-05 -5.5394921558333644e-05 0.00018493688193700812 0.00011241824733646162 4.5167425156490698e-05 -5.2581904080350179e-05 6.6766839203469651e-06
leaf_weight=21 21 30 21 25 20 20 20 23 38
leaf_count=21 21 30 21 25 20 20 20 23 38
internal_value=-5.1383e-07 3.55817e-05 -9.3177e-05 -0.000145601 5.54615e-05 3.56943e-05 2.18701e-05 -6.45942e-07 -1.56667e-05
internal_weight=239 172 67 46 151 131 111 81 61
internal_count=239 172 67 46 151 131 111 81 61
is_linear=0
shrinkage=0.0426353


Tree=63
num_leaves=9
num_cat=0
split_feature=78 89 40 2 68 77 67 73
split_gain=0.00040405 0.000295786 0.000280588 0.000374056 0.000315643 0.00014502 6.91091e-05 3.12105e-05
threshold=0.067487451250577035 -0.69090790079524866 -0.010664303129495669 0.047758026080324124 -0.10545464310933236 0.073119892936190409 0.059872195010373212 -0.086801967201790384
decision_type=2 2 2 2 2 2 2 2
left_child=2 -2 -1 4 -4 -3 -5 -8
right_child=1 5 3 6 -6 -7 7 -9
leaf_value=7.1055800741633065e-05 0.00019938908546174766 -3.6562595368496582e-05 -3.113227460428135e-05 5.3528962743820165e-05 -0.00024521365209233888 9.0940532766143058e-05 -1.7606972034446621e-06 -7.3577076016814497e-05
leaf_weight=31 24 34 21 23 31 31 22 22
leaf_count=31 24 34 21 23 31 31 22 22
internal_value=-4.91923e-07 7.1476e-05 -4.31929e-05 -7.29552e-05 -0.000158758 2.42466e-05 -6.36216e-06 -3.76689e-05
internal_weight=239 89 150 119 52 65 67 44
internal_count=239 89 150 119 52 65 67 44
is_linear=0
shrinkage=0.0426353


Tree=64
num_leaves=9
num_cat=0
split_feature=87 39 69 85 67 93 60 60
split_gain=0.000358706 0.000231089 0.000503754 0.000148484 0.000198618 0.000127824 7.45237e-05 4.17454e-05
threshold=0.088115953319472931 -0.57586051065512089 -0.78742717081115521 0.13056092443511327 0.076398432614383269 0.026530341801905326 0.0066679101613828081 0.026296022246862668
decision_type=2 2 2 2 2 2 2 2
left_child=-1 3 -3 7 -5 -4 -7 -2
right_child=1 2 5 4 -6 6 -8 -9
leaf_value=-0.00014997174193148865 5.0471660114704955e-05 0.00023914727020622742 8.7282443252427976e-05 -0.00018607314313676135 1.6623361220145557e-06 4.0331897541893181e-05 -6.3387380148229432e-05 -1.7206763214654471e-05
leaf_weight=26 30 23 28 20 21 20 34 37
leaf_count=26 30 23 28 20 21 20 34 37
internal_value=-4.70949e-07 1.7778e-05 6.28168e-05 -2.60098e-05 -8.99159e-05 1.33582e-05 -2.49728e-05 1.3097e-05
internal_weight=239 213 105 108 41 82 54 67
internal_count=239 213 105 108 41 82 54 67
is_linear=0
shrinkage=0.0426353


Tree=65
num_leaves=11
num_cat=0
split_feature=1 60 65 68 59 66 37 40 39 75
split_gain=0.000520112 0.000438374 0.000403526 0.000305944 0.000195839 0.000185774 0.000121557 6.56626e-05 5.84164e-05 7.2682e-05
threshold=0.11195583852639711 0.014894083609407137 0.01704728608490504 0.046977999845662546 -0.58947130438942941 0.11518250735587904 0.012979289707304319 0.010457922297884449 0.35801698485078154 0.017466683682179001
decision_type=2 2 2 2 2 2 2 2 2 2
left_child=1 8 4 5 -3 -2 -6 -5 9 -1
right_child=3 2 -4 7 6 -7 -8 -9 -10 -11
leaf_value=0.00012690831351340356 0.00022415639349578428 -0.00017418436976199983 -0.00027792243396786625 4.3607594216654375e-05 6.5179929572805389e-05 5.4023088088305416e-05 -6.9638408603663586e-05 -5.8317449621294133e-05 -1.9804981353209014e-05 1.1965165643499571e-05
leaf_weight=20 28 20 20 27 20 20 31 20 20 20
leaf_count=20 28 20 20 27 20 20 31 20 20 20
internal_value=-6.01875e-07 -4.97746e-05 -0.000108762 7.75568e-05 -6.1111e-05 0.000153268 -1.67685e-05 2.35235e-07 3.96895e-05 6.94367e-05
internal_weight=246 151 91 95 71 48 51 47 60 40
internal_count=246 151 91 95 71 48 51 47 60 40
is_linear=0
shrinkage=0.0426353


Tree=66
num_leaves=10
num_cat=0
split_feature=1 69 63 68 44 40 37 40 69
split_gain=0.000476707 0.000335267 0.00035992 0.000280412 0.000176538 0.000119772 0.000114297 6.01829e-05 2.9666e-05
threshold=0.11195583852639711 -0.47184709331777491 0.032324986198474882 0.046977999845662546 0.14096920321496573 -0.011767160666467163 0.012979289707304319 0.010457922297884449 -0.32701765598240057
decision_type=2 2 2 2 2 2 2 2 2
left_child=1 2 -1 4 -2 -3 -7 -5 -8
right_child=3 5 -4 7 -6 6 8 -9 -10
leaf_value=-0.00027403344388349129 0.00021884299791888976 8.9997287963084407e-05 -5.1573539787911806e-05 4.1748368439907538e-05 5.4019925650690218e-05 4.6823778704097178e-05 -0.00010256569766012126 -5.5831065424041199e-05 -3.2476295876941002e-05
leaf_weight=20 27 22 39 27 21 26 21 20 23
leaf_count=20 27 22 39 27 21 26 21 20 23
internal_value=-5.76215e-07 -4.76524e-05 -0.000126984 7.42501e-05 0.000146733 3.22309e-06 -2.40488e-05 2.25205e-07 -6.59281e-05
internal_weight=246 151 59 95 48 92 70 47 44
internal_count=246 151 59 95 48 92 70 47 44
is_linear=0
shrinkage=0.0426353


Tree=67
num_leaves=11
num_cat=0
split_feature=1 60 68 68 89 83 46 40 39 75
split_gain=0.000436924 0.000378944 0.000361598 0.000257011 0.000162519 0.000146655 9.5689e-05 5.51604e-05 5.31774e-05 6.53344e-05
threshold=0.11195583852639711 0.014894083609407137 0.027963893998674442 0.046977999845662546 -0.7496763401996932 -0.099874188770169361 0.10088322388077102 0.010457922297884449 0.35801698485078154 0.017466683682179001
decision_type=2 2 2 2 2 2 2 2 2 2
left_child=1 8 5 4 -2 -3 -7 -5 9 -1
right_child=3 2 -4 7 -6 6 -8 -9 -10 -11
leaf_value=0.00012042955108320867 4.7651716740464914e-05 3.7240892521623417e-05 -0.0002556318444845599 3.9968412783301241e-05 0.0002067805961815502 -4.4816547133136573e-05 -0.00016691986431889382 -5.3450689185870453e-05 -1.9205624285086076e-05 1.1451083993948838e-05
leaf_weight=20 20 22 21 27 28 28 20 20 20 20
leaf_count=20 20 22 21 27 28 28 20 20 20 20
internal_value=-5.51647e-07 -4.56207e-05 -0.000100464 7.10845e-05 0.000140477 -5.39137e-05 -9.56929e-05 2.15603e-07 3.75583e-05 6.59403e-05
internal_weight=246 151 91 95 48 70 48 47 60 40
internal_count=246 151 91 95 48 70 48 47 60 40
is_linear=0
shrinkage=0.0426353


Tree=68
num_leaves=10
num_cat=0
split_feature=1 60 65 68 59 33 37 48 88
split_gain=0.000400462 0.00034732 0.00033771 0.000235563 0.000172364 0.000154527 0.000108695 5.10888e-05 5.07075e-05
threshold=0.11195583852639711 0.014894083609407137 0.01704728608490504 0.046977999845662546 -0.58947130438942941 0.14096920321496573 0.012979289707304319 -0.014455210549659698 0.22341603367324939
decision_type=2 2 2 2 2 2 2 2 2
left_child=1 7 4 5 -3 -2 -6 -1 -5
right_child=3 2 -4 8 6 -7 -8 -9 -10
leaf_value=-3.3850305338709298e-06 0.00020195278039938588 -0.00015866883301202857 -0.00025093241921132005 -4.7001589448923848e-05 6.650293943579262e-05 4.774668718494324e-05 -6.0983274387137721e-05 7.5299077511884212e-05 4.1749454434367587e-05
leaf_weight=30 27 20 20 22 20 21 31 30 25
leaf_count=30 27 20 20 22 20 21 31 30 25
internal_value=-5.28128e-07 -4.36757e-05 -9.61807e-05 6.80538e-05 -5.25887e-05 0.000134488 -1.09887e-05 3.5957e-05 2.06413e-07
internal_weight=246 151 91 95 71 48 51 60 47
internal_count=246 151 91 95 71 48 51 60 47
is_linear=0
shrinkage=0.0426353


Tree=69
num_leaves=10
num_cat=0
split_feature=2 78 55 31 77 37 37 34 31
split_gain=0.000287834 0.000353508 0.000571971 0.000206404 0.000139404 0.000134337 7.34524e-05 6.71306e-05 5.77446e-05
threshold=0.047758026080324124 0.062329045552803684 0.014291410514448323 0.50302208370360668 0.068997422139168013 0.012979289707304319 0.016667521987196978 0.00043292101367415362 0.52153235696124967
decision_type=2 2 2 2 2 2 2 2 2
left_child=1 2 -1 -2 -5 -6 -7 -3 -8
right_child=3 7 -4 4 5 6 8 -9 -10
leaf_value=-0.00030109246282514635 0.00016159244344250972 9.6631104030005249e-05 -2.5104356462000927e-05 9.5350107564960736e-05 7.1066901466790064e-05 -0.00010766439600246127 3.4080225453959395e-05 -1.2512289394884023e-05 -6.2728898546972735e-05
leaf_weight=21 21 20 39 31 27 21 24 21 21
leaf_count=21 21 20 39 31 27 21 24 21 21
internal_value=-5.05611e-07 -5.57638e-05 -0.0001217 3.79846e-05 1.7051e-05 -9.04868e-06 -4.18232e-05 4.07284e-05 -1.10974e-05
internal_weight=246 101 60 145 124 93 66 41 45
internal_count=246 101 60 145 124 93 66 41 45
is_linear=0
shrinkage=0.0426353


Tree=70
num_leaves=10
num_cat=0
split_feature=40 1 67 42 85 37 68 39 39
split_gain=0.00026879 0.000289801 0.00026538 0.000213242 0.000100352 0.0001002 7.13386e-05 4.3313e-05 4.06191e-05
threshold=-0.010664303129495669 0.11195583852639711 0.061178654532544716 0.11528180989746775 0.15820940277057269 0.016891765634224308 0.046977999845662546 -0.67114318821962116 -1.4825145875735191
decision_type=2 2 2 2 2 2 2 2 2
left_child=5 2 3 -2 7 -1 -3 -4 -8
right_child=1 6 4 -5 -6 -7 8 -9 -10
leaf_value=1.7111297691818749e-05 -0.00024698947743331448 7.0818749993290141e-05 -2.6944685189784239e-05 -7.0326727684282518e-05 -8.9423368134574827e-05 0.00013665662662881308 -5.0577674330688599e-05 5.9746926657252925e-05 2.8855583766352126e-05
leaf_weight=26 23 37 20 27 25 25 22 22 25
leaf_count=26 23 37 20 27 25 25 22 22 25
internal_value=-1.17037e-05 -3.38838e-05 -7.72618e-05 -0.000151592 -2.17917e-05 7.57119e-05 2.65354e-05 1.84652e-05 -8.32594e-06
internal_weight=252 201 117 50 67 51 84 42 47
internal_count=252 201 117 50 67 51 84 42 47
is_linear=0
shrinkage=0.0426353


Tree=71
num_leaves=10
num_cat=0
split_feature=40 47 82 1 31 31 83 78 83
split_gain=0.00025369 0.000233852 0.00017909 0.000168711 0.000135152 0.000104065 8.64371e-05 3.50368e-05 4.66924e-05
threshold=0.03358320937389072 0.031627104319379186 0.18703371699051088 0.11055916034533529 0.53464866669808575 0.51456548297001559 -0.03537367919907506 0.067487451250577035 0.010929310279423144
decision_type=2 2 2 2 2 2 2 2 2
left_child=1 3 5 4 -1 7 -5 -3 -9
right_child=-2 2 -4 6 -6 -7 -8 8 -10
leaf_value=-2.355551078945453e-05 -0.00015690148408193023 3.6124358612044567e-06 0.0001532801117582088 7.7605902318568265e-05 -0.00016195056984799814 -4.3268161813583935e-05 -3.682127676258627e-05 1.5821346387320889e-05 9.9922535967352094e-05
leaf_weight=23 20 24 21 20 29 35 30 20 30
leaf_count=23 20 24 21 20 29 35 30 20 30
internal_value=-1.12047e-05 1.35532e-06 3.92715e-05 -4.69693e-05 -0.000100737 1.73066e-05 8.94959e-06 4.59568e-05 6.62821e-05
internal_weight=252 232 130 102 52 109 50 74 50
internal_count=252 232 130 102 52 109 50 74 50
is_linear=0
shrinkage=0.0426353


Tree=72
num_leaves=9
num_cat=0
split_feature=40 1 65 85 58 34 90 59
split_gain=0.000236395 0.000248519 0.000237789 0.000144968 9.56984e-05 4.86856e-05 4.69531e-05 3.43258e-05
threshold=-0.010664303129495669 0.11195583852639711 0.032932673813682929 0.15820940277057269 0.25300823725261373 0.0050749458703600757 0.0076758810465995071 -0.99886652590439329
decision_type=2 2 2 2 2 2 2 2
left_child=4 2 3 6 -1 7 -2 -3
right_child=1 5 -4 -5 -6 -7 -8 -9
leaf_value=0.00011816232275373719 5.1867553339241943e-05 8.0955416925325861e-05 -0.00018540952371556206 -0.00010727653225592759 -1.4597521771959641e-06 -2.5440886104691606e-05 -2.8068934754402686e-05 1.568008128928843e-05
leaf_weight=31 22 27 26 35 20 25 34 32
leaf_count=31 22 27 26 35 20 25 34 32
internal_value=-1.0727e-05 -3.15276e-05 -7.16973e-05 -3.92081e-05 7.12517e-05 2.44231e-05 3.33469e-06 4.55518e-05
internal_weight=252 201 117 91 51 84 56 59
internal_count=252 201 117 91 51 84 56 59
is_linear=0
shrinkage=0.0426353


Tree=73
num_leaves=10
num_cat=0
split_feature=50 47 41 4 31 31 83 40 37
split_gain=0.000237082 0.000188569 0.000182783 0.000165037 0.000119439 0.000114231 6.45226e-05 4.982e-05 5.35525e-05
threshold=0.084262767574709435 0.031627104319379186 0.1100387508123348 1.30083664384259 0.53464866669808575 0.51456548297001559 -0.03537367919907506 -0.0089991767605740094 0.017697171260072291
decision_type=2 2 2 2 2 2 2 2 2
left_child=1 3 5 4 -1 7 -5 -3 -9
right_child=-2 2 -4 6 -6 -7 -8 8 -10
leaf_value=-2.1048040634829746e-05 -0.00014742565955905729 9.0505956209109738e-05 0.00015283992788590124 7.3277264003931533e-05 -0.00015114907122041609 -5.6873308571898714e-05 -2.2233726268870075e-05 5.6122545081192519e-05 -3.5924914561498971e-05
leaf_weight=23 21 26 21 20 29 29 36 27 20
leaf_count=23 21 26 21 20 29 29 36 27 20
internal_value=-1.02697e-05 2.19905e-06 3.82949e-05 -3.89102e-05 -9.36044e-05 1.47122e-05 1.18773e-05 4.31502e-05 1.69534e-05
internal_weight=252 231 123 108 52 102 56 73 47
internal_count=252 231 123 108 52 102 56 73 47
is_linear=0
shrinkage=0.0426353


Tree=74
num_leaves=10
num_cat=0
split_feature=40 47 41 34 77 40 37 37 78
split_gain=0.000217999 0.000195546 0.000171181 0.000151115 9.46539e-05 9.44973e-05 8.4868e-05 7.68469e-05 2.90415e-05
threshold=0.03358320937389072 0.031627104319379186 0.1100387508123348 -0.00042037119922088225 0.088825746829401545 -0.0095691570264858014 0.008231566831606368 0.013105167380063122 0.062329045552803684
decision_type=2 2 2 2 2 2 2 2 2
left_child=1 3 5 6 -5 -3 -1 -7 -9
right_child=-2 2 -4 4 -6 7 -8 8 -10
leaf_value=-4.7270726704583207e-05 -0.0001448913835478662 8.4906961057308229e-05 0.00015122130040070412 -4.7790067652360346e-05 -0.0001660263355396755 5.740590895714509e-05 6.3911276928981528e-05 -7.0505135159107664e-05 -9.1726733762712617e-06
leaf_weight=24 20 27 20 32 20 24 26 23 36
leaf_count=24 20 27 20 32 20 24 26 23 36
internal_value=-9.83182e-06 1.81124e-06 3.64832e-05 -4.23786e-05 -9.32656e-05 1.56218e-05 1.05439e-05 -6.91678e-06 -3.30819e-05
internal_weight=252 232 130 102 52 110 50 83 59
internal_count=252 232 130 102 52 110 50 83 59
is_linear=0
shrinkage=0.0426353


Tree=75
num_leaves=10
num_cat=0
split_feature=34 39 40 93 68 73 36 86 89
split_gain=0.000337374 0.000169309 0.000158861 0.000164419 0.000126565 0.00011412 9.72217e-05 8.71209e-05 6.82666e-05
threshold=0.0043791838333479436 -1.4825145875735191 -0.0069588490759069444 0.065266044728766626 0.092739909471897725 -0.11278685125974604 0.11927049246038754 0.019805109815913866 -0.63941128426704175
decision_type=2 2 2 2 2 2 2 2 2
left_child=2 -2 4 -4 -1 -5 8 -3 -7
right_child=1 7 3 5 -6 6 -8 -9 -10
leaf_value=0.00016263283337587011 -0.00018007056470090586 -7.9244875955195574e-05 8.3621435547830378e-05 5.5883155178061143e-05 2.3074434865542477e-05 -0.00014458423423626286 1.8623058541566276e-05 3.5634053927852565e-05 -3.452124871933662e-05
leaf_weight=27 20 30 39 25 21 21 23 20 20
leaf_count=27 20 30 39 25 21 21 23 20 20
internal_value=3.94116e-06 -7.52297e-05 3.54296e-05 1.06246e-05 0.000101576 -2.13627e-05 -5.15369e-05 -3.32933e-05 -9.0895e-05
internal_weight=246 70 176 128 48 89 64 50 41
internal_count=246 70 176 128 48 89 64 50 41
is_linear=0
shrinkage=0.0426353


Tree=76
num_leaves=10
num_cat=0
split_feature=34 38 38 69 78 65 50 58 90
split_gain=0.000309219 0.000151323 0.000113543 0.000100973 9.61891e-05 0.000139442 0.000117688 5.67277e-05 5.19636e-05
threshold=0.0043791838333479436 0.75455014610992011 0.60663739769145797 -0.47184709331777491 0.067487451250577035 0.021024571893303381 0.032728747231861845 0.14039434189556016 0.026663470143383872
decision_type=2 2 2 2 2 2 2 2 2
left_child=1 4 3 -2 5 6 8 -6 -1
right_child=2 -3 -4 -5 7 -7 -8 -9 -10
leaf_value=0.00010551663536167511 -0.00016566583945116205 0.00012480928060120986 8.1845153636686682e-06 -4.1559230992647203e-05 9.8128048546709194e-05 -0.00010637687078579545 -5.1885357846702447e-05 1.0345179374673309e-05 1.3862893832469557e-05
leaf_weight=23 26 28 22 22 32 21 27 23 22
leaf_count=23 26 28 22 22 32 21 27 23 22
internal_value=3.77312e-06 3.3919e-05 -7.20222e-05 -0.000108784 1.67235e-05 -9.70917e-06 1.84856e-05 6.14188e-05 6.07081e-05
internal_weight=246 176 70 48 148 93 72 55 45
internal_count=246 176 70 48 148 93 72 55 45
is_linear=0
shrinkage=0.0426353


Tree=77
num_leaves=9
num_cat=0
split_feature=34 39 40 59 68 50 47 86
split_gain=0.000283414 0.00015056 0.0001415 0.00017342 0.000110583 0.000110094 9.5882e-05 7.85271e-05
threshold=0.0043791838333479436 -1.4825145875735191 -0.0069588490759069444 -1.1137065889531128 0.073718986694922328 0.0042708733989399771 0.031627104319379186 0.018490848103000893
decision_type=2 2 2 2 2 2 2 2
left_child=2 -2 4 -4 -1 -5 -7 -3
right_child=1 7 3 5 -6 6 -8 -9
leaf_value=0.0001569709839087667 -0.00016781711345115619 -7.6766960481907946e-05 0.00011509647105779716 4.3805854076947476e-05 2.7432229159225844e-05 -0.00010368466366299895 -1.1160922764247997e-06 3.0873187405945397e-05
leaf_weight=25 20 28 23 38 23 30 37 22
leaf_count=25 20 28 23 38 23 30 37 22
internal_value=3.61226e-06 -6.89515e-05 3.24729e-05 9.06255e-06 9.49003e-05 -1.41639e-05 -4.70423e-05 -2.94053e-05
internal_weight=246 70 176 128 48 105 67 50
internal_count=246 70 176 128 48 105 67 50
is_linear=0
shrinkage=0.0426353


Tree=78
num_leaves=9
num_cat=0
split_feature=34 39 40 59 68 50 47 86
split_gain=0.000259762 0.000137995 0.000129691 0.000158947 0.000101777 0.000100906 8.78804e-05 7.19738e-05
threshold=0.0043791838333479436 -1.4825145875735191 -0.0069588490759069444 -1.1137065889531128 0.092739909471897725 0.0042708733989399771 0.031627104319379186 0.018490848103000893
decision_type=2 2 2 2 2 2 2 2
left_child=2 -2 4 -4 -1 -5 -7 -3
right_child=1 7 3 5 -6 6 -8 -9
leaf_value=0.00014560655072334031 -0.00016066217436574382 -7.3493973553631682e-05 0.00011018929231183713 4.1938176670778312e-05 2.0458370541173553e-05 -9.9264032313961731e-05 -1.0685058384630024e-06 2.9556900080655875e-05
leaf_weight=27 20 28 23 38 21 30 37 22
leaf_count=27 20 28 23 38 21 30 37 22
internal_value=3.45825e-06 -6.60118e-05 3.10884e-05 8.67616e-06 9.08542e-05 -1.356e-05 -4.50367e-05 -2.81516e-05
internal_weight=246 70 176 128 48 105 67 50
internal_count=246 70 176 128 48 105 67 50
is_linear=0
shrinkage=0.0426353


Tree=79
num_leaves=9
num_cat=0
split_feature=34 38 57 93 73 40 31 66
split_gain=0.000238084 0.000127918 0.00010544 9.50116e-05 0.000138015 8.98697e-05 4.01689e-05 3.93511e-05
threshold=0.0043791838333479436 0.75455014610992011 0.044845134183192185 0.07661656668042037 0.018984571760869342 -0.0069588490759069444 0.51604565803812685 0.05837811550182833
decision_type=2 2 2 2 2 2 2 2
left_child=1 3 7 -1 5 -5 -7 -2
right_child=2 -3 -4 4 -6 6 -8 -9
leaf_value=7.1062505825994634e-05 2.0796187849011373e-05 0.00011332931250544238 -0.0001272841598638295 8.3489667986323183e-05 -0.00010468952058242054 3.0803552858695303e-05 -3.915483550834749e-05 -6.1741712587696915e-05
leaf_weight=39 21 28 28 26 21 25 37 21
leaf_count=39 21 28 28 26 21 25 37 21
internal_value=3.3108e-06 2.97629e-05 -6.31973e-05 1.3953e-05 -6.48063e-06 1.69556e-05 -1.09458e-05 -2.04728e-05
internal_weight=246 176 70 148 109 88 62 42
internal_count=246 176 70 148 109 88 62 42
is_linear=0
shrinkage=0.0426353


Tree=80
num_leaves=9
num_cat=0
split_feature=50 93 73 73 73 39 85 86
split_gain=0.000161504 0.000217578 0.000100614 6.15925e-05 5.29471e-05 4.79336e-05 3.75352e-05 3.66986e-05
threshold=0.032728747231861845 0.13760701721042376 -0.11278685125974604 0.026995731914602739 -0.020473332828203079 -1.3605606216724035 0.12962680877871571 0.030866244765819253
decision_type=2 2 2 2 2 2 2 2
left_child=2 5 -1 4 6 -2 -4 -7
right_child=1 -3 3 -5 -6 7 -8 -9
leaf_value=9.3514658599575456e-05 -5.8971061028837523e-05 -0.00013986173012658267 4.0841777961775238e-05 5.8669089898556085e-05 -6.6275999507007906e-05 -1.7299442808384759e-05 -2.9148226063349663e-05 5.9724437598411282e-05
leaf_weight=29 20 32 30 28 25 23 26 22
leaf_count=29 20 32 30 28 25 23 26 22
internal_value=-6.69697e-06 -4.88551e-05 2.29359e-05 4.15811e-06 -1.46852e-05 -4.05186e-06 8.34642e-06 2.03567e-05
internal_weight=235 97 138 109 81 65 56 45
internal_count=235 97 138 109 81 65 56 45
is_linear=0
shrinkage=0.0426353


Tree=81
num_leaves=8
num_cat=0
split_feature=50 93 48 63 52 90 48
split_gain=0.000148756 0.000199622 9.30185e-05 8.60157e-05 7.85126e-05 6.92067e-05 5.95634e-05
threshold=0.039124231540389139 0.13760701721042376 0.62195229711913469 0.010312144415833066 0.14477751985332724 0.021427864227356531 0.35278005819319025
decision_type=2 2 2 2 2 2 2
left_child=2 6 4 -4 -1 -6 -2
right_child=1 -3 3 -5 5 -7 -8
leaf_value=-5.5624643512472762e-05 2.4450836629847528e-05 -0.00014723608841120785 0.00010682893039878493 -5.2243680451334478e-06 8.4237693604328662e-05 -1.0334859092582273e-05 -6.6449771663807059e-05
leaf_weight=36 38 27 33 20 22 39 20
leaf_count=36 38 27 33 20 22 39 20
internal_value=-6.41144e-06 -5.14734e-05 1.91237e-05 6.45447e-05 -5.69399e-06 2.37733e-05 -6.8942e-06
internal_weight=235 85 150 53 97 61 58
internal_count=235 85 150 53 97 61 58
is_linear=0
shrinkage=0.0426353


Tree=82
num_leaves=9
num_cat=0
split_feature=40 37 33 73 93 37 31 35
split_gain=0.000216055 0.000145341 0.000111764 5.16357e-05 4.73315e-05 3.74811e-05 4.62528e-05 3.72836e-05
threshold=0.023925851392247649 0.0072985706790523316 0.048321255155289802 0.023805067327658132 0.13307363342407508 0.01339868154339737 0.53464866669808575 0.070267935915699367
decision_type=2 2 2 2 2 2 2 2
left_child=1 -1 4 5 -3 6 -4 -7
right_child=-2 2 3 -5 -6 7 -8 -9
leaf_value=-6.7680378174353895e-05 -0.00011729189258299115 4.4664480245447669e-05 6.7481546741415528e-05 5.8888101852579169e-05 0.00013120052591425053 1.3365565604302817e-05 -2.1171567652500008e-05 -5.9607230716967368e-05
leaf_weight=37 28 27 20 25 20 20 23 35
leaf_count=37 28 27 20 25 20 20 23 35
internal_value=-6.13808e-06 8.89721e-06 2.55641e-05 4.19468e-06 8.14883e-05 -9.75772e-06 2.00624e-05 -3.30717e-05
internal_weight=235 207 170 123 47 98 43 55
internal_count=235 207 170 123 47 98 43 55
is_linear=0
shrinkage=0.0426353


Tree=83
num_leaves=10
num_cat=0
split_feature=40 37 85 33 83 59 50 69 86
split_gain=0.000198025 0.00013325 0.000145166 9.90725e-05 5.1695e-05 7.67841e-05 7.03023e-05 4.76075e-05 4.18235e-05
threshold=0.023925851392247649 0.0080640982875908023 0.086117185934890886 0.048321255155289802 -0.093381838160814384 -0.74936568651912927 0.018927070973517555 -0.40793556831718397 0.031793686076447961
decision_type=2 2 2 2 2 2 2 2 2
left_child=1 2 -1 8 5 -5 -6 -8 -3
right_child=-2 3 -4 4 6 -7 7 -9 -10
leaf_value=2.3849896012714218e-05 -0.00011229111015758253 0.00012568055041487565 -0.00013485867050612124 -2.1767574948658873e-05 -6.6845271269926689e-05 8.9349964932625476e-05 6.0172891428538718e-05 -2.86162904474359e-05 4.296233942138517e-05
leaf_weight=20 28 20 22 20 30 26 23 21 25
leaf_count=20 28 20 22 20 30 26 23 21 25
internal_value=-5.87639e-06 8.51788e-06 -5.92832e-05 2.57763e-05 5.5452e-06 4.1038e-05 -1.65179e-05 1.77962e-05 7.9726e-05
internal_weight=235 207 42 165 120 46 74 44 45
internal_count=235 207 42 165 120 46 74 44 45
is_linear=0
shrinkage=0.0426353


Tree=84
num_leaves=9
num_cat=0
split_feature=50 70 65 34 33 31 49 77
split_gain=0.000134043 0.000130375 8.7941e-05 6.52982e-05 5.18161e-05 8.86143e-05 6.89511e-05 3.49603e-05
threshold=0.082864776638481893 0.15462238900567651 -0.11278685125974604 -0.0037013818139582698 0.10972189333225786 0.5169134723605403 -0.58049827287851918 0.075385034401170739
decision_type=2 2 2 2 2 2 2 2
left_child=1 2 -1 7 5 -5 -6 -4
right_child=-2 -3 3 4 6 -7 -8 -9
leaf_value=9.3681667659930611e-05 -0.00010841698792501503 -9.6424472004795733e-05 8.2176366745887613e-05 -1.388594449240836e-07 7.1308899259512587e-05 -0.00010616935308141401 -2.4290190499947664e-05 1.2611403114551166e-05
leaf_weight=23 21 21 24 38 24 23 32 29
leaf_count=23 21 21 24 38 24 23 32 29
internal_value=-5.62584e-06 4.46114e-06 1.54383e-05 4.85247e-06 -1.2932e-05 -4.01176e-05 1.66808e-05 4.41125e-05
internal_weight=235 214 193 170 117 61 56 53
internal_count=235 214 193 170 117 61 56 53
is_linear=0
shrinkage=0.0426353


Tree=85
num_leaves=10
num_cat=0
split_feature=1 68 89 34 41 79 44 63 46
split_gain=0.000156148 0.000133856 0.000132054 0.000123962 0.000101072 6.31794e-05 6.24544e-05 5.65537e-05 4.00526e-05
threshold=0.11195583852639711 0.046977999845662546 -0.75507135245655521 0.0038304930672659969 0.084857051379279722 -0.94650516057049716 0.021772350325029905 -0.0053116985328951769 0.10478605139476681
decision_type=2 2 2 2 2 2 2 2 2
left_child=3 2 -2 5 -5 -1 -3 -7 -9
right_child=1 6 -4 4 -6 7 -8 8 -10
leaf_value=-5.4308377922990851e-05 1.3609758875845459e-05 5.8762348118707428e-05 0.00015815281939606977 -3.1162644499018923e-05 -0.00015262775568946282 8.5289797315298856e-05 -3.5683639759386543e-05 4.1343545319993148e-05 -3.3715338174511511e-05
leaf_weight=25 20 20 27 33 20 20 35 24 28
leaf_count=25 20 20 27 33 20 20 35 24 28
internal_value=3.11119e-06 4.38102e-05 9.66451e-05 -2.45641e-05 -7.69985e-05 4.08559e-06 -1.33964e-06 2.43613e-05 9.27223e-07
internal_weight=252 102 47 150 53 97 55 72 52
internal_count=252 102 47 150 53 97 55 72 52
is_linear=0
shrinkage=0.0426353


Tree=86
num_leaves=10
num_cat=0
split_feature=34 39 59 38 63 77 93 68 57
split_gain=0.000144887 0.000114826 9.88341e-05 0.000107087 0.000113032 7.56309e-05 6.5229e-05 0.000108813 5.78731e-05
threshold=0.0043791838333479436 -1.1045304521926813 -1.1573000936178157 0.41560710054682026 -0.0053116985328951769 0.074855197002596283 0.07661656668042037 0.027963893998674442 0.041738534458811337
decision_type=2 2 2 2 2 2 2 2 2
left_child=2 -2 -1 6 -5 -3 -4 8 -8
right_child=1 5 3 4 -6 -7 7 -9 -10
leaf_value=0.00011395609720336457 -0.00010554900370361337 4.6622704667843142e-05 4.6608176168168573e-05 0.0001376494945960907 9.7932644695399467e-07 -6.3657232756059751e-05 -3.9493093021554892e-05 -8.6980617583632099e-05 5.5668301631440585e-05
leaf_weight=20 33 26 28 22 22 20 21 34 26
leaf_count=20 33 26 28 22 22 20 21 34 26
internal_value=2.97855e-06 -4.48617e-05 2.48247e-05 1.31735e-05 6.93144e-05 -1.32509e-06 -9.48891e-06 -2.88805e-05 1.31494e-05
internal_weight=252 79 173 153 44 46 109 81 47
internal_count=252 79 173 153 44 46 109 81 47
is_linear=0
shrinkage=0.0426353


Tree=87
num_leaves=10
num_cat=0
split_feature=1 68 89 34 69 58 73 53 60
split_gain=0.000133546 0.000121241 0.000129725 0.000105856 0.000109889 7.38095e-05 8.29736e-05 5.22638e-05 4.79837e-05
threshold=0.11195583852639711 0.037364556054436303 -0.75507135245655521 0.0038304930672659969 -0.47387925923313529 0.10908442228044747 -0.073354556166618443 0.036227145833098454 0.043263365839382451
decision_type=2 2 2 2 2 2 2 2 2
left_child=3 2 -2 5 -5 8 -7 -3 -1
right_child=1 7 -4 4 -6 6 -8 -9 -10
leaf_value=8.1557430275357382e-05 1.1870844787181593e-05 -4.2359527124391742e-05 0.00015755186953213507 -0.0001500556877868464 -2.3403293719718655e-05 1.8513925333221373e-05 -9.5015196524532702e-05 3.9304283795752681e-05 -1.9762609302549107e-06
leaf_weight=25 20 28 25 20 33 25 22 29 25
leaf_count=25 20 28 25 20 33 25 22 29 25
internal_value=2.85155e-06 4.04899e-05 9.28047e-05 -2.27425e-05 -7.11966e-05 3.7324e-06 -3.46274e-05 -8.11272e-07 3.97906e-05
internal_weight=252 102 45 150 53 97 47 57 50
internal_count=252 102 45 150 53 97 47 57 50
is_linear=0
shrinkage=0.0426353


Tree=88
num_leaves=10
num_cat=0
split_feature=34 39 59 38 63 47 37 40 73
split_gain=0.000127384 0.000103355 8.51187e-05 0.000108226 0.000100524 6.92873e-05 5.50597e-05 7.2119e-05 8.27176e-05
threshold=0.0043791838333479436 -1.1045304521926813 -1.1137065889531128 0.41560710054682026 -0.0053116985328951769 0.0333714960250453 0.0077100825006142367 -0.0027924694212328295 -0.0089318212439156146
decision_type=2 2 2 2 2 2 2 2 2
left_child=2 -2 -1 6 -5 -3 -4 -8 -9
right_child=1 5 3 4 -6 -7 7 8 -10
leaf_value=9.1269797690576946e-05 -9.9704113978181839e-05 -5.7915273653146364e-05 -7.5680920012988272e-05 0.00013032234653871462 1.4357064563103781e-06 4.7134673611841524e-05 6.022800862765664e-05 1.5894109779471179e-05 -9.2348675957990405e-05
leaf_weight=28 33 21 21 22 22 25 26 33 21
leaf_count=28 33 21 21 22 22 25 26 33 21
internal_value=2.72998e-06 -4.21277e-05 2.32141e-05 1.00723e-05 6.5879e-05 -8.22911e-07 -1.42395e-05 1.8889e-06 -2.62003e-05
internal_weight=252 79 173 145 44 46 101 80 54
internal_count=252 79 173 145 44 46 101 80 54
is_linear=0
shrinkage=0.0426353


Tree=89
num_leaves=10
num_cat=0
split_feature=1 68 89 65 85 85 57 44 93
split_gain=0.000118461 0.000110555 0.000113998 0.000100284 8.08436e-05 0.00012412 7.7265e-05 4.87958e-05 2.71229e-05
threshold=0.11195583852639711 0.037364556054436303 -0.75507135245655521 0.026995731914602739 0.15820940277057269 0.096926438593828781 0.044528339869039764 0.021772350325029905 0.18376711127329509
decision_type=2 2 2 2 2 2 2 2 2
left_child=3 2 -2 4 5 -1 -7 -3 -6
right_child=1 7 -4 -5 8 6 -8 -9 -10
leaf_value=-5.3558186441594244e-05 1.2149170975232995e-05 5.2278134339379563e-05 0.00014871427502996518 -8.9793586200636412e-05 -8.5542391182038979e-05 0.00011880651630843486 1.3342704378839988e-05 -3.0379381964794607e-05 -1.7018296918186627e-05
leaf_weight=26 20 20 25 31 21 23 28 37 21
leaf_count=26 20 20 25 31 21 23 28 37 21
internal_value=2.61358e-06 3.80624e-05 8.80187e-05 -2.14916e-05 -3.69867e-06 2.2255e-05 6.09048e-05 -1.37674e-06 -5.12803e-05
internal_weight=252 102 45 150 119 77 51 57 42
internal_count=252 102 45 150 119 77 51 57 42
is_linear=0
shrinkage=0.0426353


Tree=90
num_leaves=9
num_cat=0
split_feature=40 52 87 70 38 37 73 31
split_gain=0.000274148 0.000214614 0.000125194 8.32969e-05 6.11113e-05 4.90129e-05 3.35389e-05 3.33323e-05
threshold=-0.0089991767605740094 0.050837325180314523 0.088972076293055744 0.068921033788842331 -0.57637465107969466 0.012979289707304319 -0.047784230205228553 0.51604565803812685
decision_type=2 2 2 2 2 2 2 2
left_child=3 -2 -3 -1 -4 7 -7 -6
right_child=1 2 4 -5 5 6 -8 -9
leaf_value=4.8802045666934669e-05 -0.00014196182234901689 -9.9620338833632266e-05 -3.2470573464144714e-05 0.0001602983829250361 0.00010365210569834965 -2.8360843196851858e-05 4.2388243717488487e-05 3.3488169930066236e-05
leaf_weight=29 22 20 37 21 20 29 21 32
leaf_count=29 22 20 37 21 20 29 21 32
internal_value=7.25931e-06 -1.71526e-05 1.16567e-07 9.56305e-05 1.44672e-05 3.14936e-05 1.35377e-06 6.04743e-05
internal_weight=231 181 159 50 139 102 50 52
internal_count=231 181 159 50 139 102 50 52
is_linear=0
shrinkage=0.0426353


Tree=91
num_leaves=9
num_cat=0
split_feature=50 42 73 55 90 66 78 42
split_gain=0.000163117 0.000116983 0.000147821 0.000104995 8.74101e-05 8.31759e-05 0.000130281 6.06707e-05
threshold=0.082864776638481893 0.18203481939725691 -0.10444816968793623 -0.007122666728407211 0.0076758810465995071 0.059661408593414865 0.018750787745060241 0.16179190519484449
decision_type=2 2 2 2 2 2 2 2
left_child=1 2 3 -1 -4 6 -6 -7
right_child=-2 -3 4 -5 5 7 -8 -9
leaf_value=0.00014608110126001445 -0.00010347703092615653 0.00010713388235674934 4.3800844478450988e-05 1.8177935457819434e-05 -0.00015028936161783971 5.502840390022368e-05 -1.9273262258909054e-05 -4.5517606002246198e-05
leaf_weight=20 22 24 34 28 22 24 37 20
leaf_count=20 22 24 34 28 22 24 37 20
internal_value=6.9498e-06 1.85737e-05 7.08479e-06 7.14709e-05 -1.54739e-05 -3.50403e-05 -6.81267e-05 9.32567e-06
internal_weight=231 209 185 48 137 103 59 44
internal_count=231 209 185 48 137 103 59 44
is_linear=0
shrinkage=0.0426353


Tree=92
num_leaves=8
num_cat=0
split_feature=40 40 86 57 73 73 37
split_gain=0.000244771 0.000163839 0.000126345 6.99322e-05 5.56551e-05 6.35675e-05 3.80246e-05
threshold=0.023925851392247649 -0.0089991767605740094 0.0085747870771857321 0.044640613416153746 0.031332968725271068 -0.10444816968793623 0.011760222697638581
decision_type=2 2 2 2 2 2 2
left_child=1 3 -3 -1 5 -4 -7
right_child=-2 2 4 -5 -6 6 -8
leaf_value=0.00014430752599259707 -0.00011398248014259141 -7.6075186359134402e-05 5.4284436530285122e-05 4.3138511572942861e-05 8.5319635211188405e-05 1.7384559324729034e-05 -4.6490324799088765e-05
leaf_weight=23 27 31 35 27 20 32 36
leaf_count=23 27 31 35 27 20 32 36
internal_value=6.6535e-06 2.262e-05 8.48516e-07 8.96763e-05 2.02358e-05 7.59815e-06 -1.64316e-05
internal_weight=231 204 154 50 123 103 68
internal_count=231 204 154 50 123 103 68
is_linear=0
shrinkage=0.0426353


Tree=93
num_leaves=9
num_cat=0
split_feature=40 40 86 70 69 89 57 37
