tree
version=v4
num_class=1
num_tree_per_iteration=1
label_index=0
max_feature_idx=92
objective=regression
feature_names=WeightedAverageNumberOfDilutedSharesOutstanding ROE ROA AssetTurnover DebtToEquity NetProfitMargin OperatingMargin EarningsPerShareDiluted_log GrossProfit_log NetIncomeLoss_log OperatingIncomeLoss_log Revenues_log Assets_log Liabilities_log NoncurrentAssets_log WeightedAverageNumberOfDilutedSharesOutstanding_log Equity_log ROE_log ROA_log BookValuePerShare_log SalesPerShare_log AssetTurnover_log DebtToEquity_log NetProfitMargin_log OperatingMargin_log EarningsPerShareDilutedTTM_log SalesPerShareTTM_log PE_Ratio PB_Ratio PS_Ratio MarketCapLog CostsAndExpenses_log Returns lag_5 ma_5 std_5 skew_5 kurt_5 total_return_5 min_5 max_5 first_return_5 last_return_5 lag_25 ma_25 std_25 skew_25 kurt_25 total_return_25 min_25 max_25 first_return_25 last_return_25 lag_90 ma_90 std_90 skew_90 kurt_90 total_return_90 min_90 max_90 first_return_90 last_return_90 lag_180 ma_180 std_180 skew_180 kurt_180 total_return_180 min_180 max_180 first_return_180 last_return_180 lag_252 ma_252 std_252 skew_252 kurt_252 total_return_252 min_252 max_252 first_return_252 last_return_252 lag_504 ma_504 std_504 skew_504 kurt_504 total_return_504 min_504 max_504 first_return_504 last_return_504
feature_infos=[586300000:587500000] [-0.034684112006235349:0.064459940328709484] [-0.0074311635266613007:0.013091254672946298] [0.1576737132000679:0.1851041410473421] [3.3357417659754152:4.1112058580690567] [-0.047130009028404751:0.07206020333406167] none [-1.1188882294144764:1.8959912255948674] none [-1.1202517885144472:1.8959912255948672] none [-0.053486133891418985:0.10388188986728282] [-0.011870593062835116:0.063433508132278341] [-0.019514922588511539:0.072499084413246095] none [-0.0013635590999708628:0.0010224949766100139] [-0.085577156417278269:0.072735132962251134] [-1.0533160187434181:1.823256092632616] [-1.1588235541617244:1.8967753876810769] [-0.085918220540639051:0.072735132962251134] [-0.052122574791448127:0.10285939489067283] [-0.0920578995386961:0.070671451137750127] [-0.092250055550762627:0.1394348541842754] [-1.0667656546230282:1.8434381813719791] none [-0.94248679206073149:0.71277349510934462] [-0.007941465685835215:0.070866473746468525] [28.073811055667697:115.17256919976917] [3.5935468367209427:5.4070901761902537] [1.1727973637719926:1.6737438598916234] [-0.14061767431746369:0.084970145016051157] none [-0.012911162565172394:0.36373027337778241] [-0.012911162565172394:0.36373027337778241] [0.031540744067941558:0.34366753478329298] [0.0020026288210667916:0.06955320624161733] [-2.2316023365971591:2.1783486494423014] [-3.2014449328030747:4.9839607436984323] [0.15770372033970778:1.7183376739164649] [-0.012911162565172394:0.33196997522942501] [0.051959080289889131:0.36373027337778241] [-0.012911162565172394:0.36373027337778241] [-0.012911162565172394:0.36373027337778241] [-0.012911162565172394:0.36373027337778241] [0.056962641260167562:0.32873105413971088] [0.016420338821616191:0.079320968480523585] [-2.3388305649096184:2.0416884374322066] [-1.8442414265273388:9.1670045183210362] [1.4240660315041891:8.2182763534927723] [-0.012911162565172394:0.29805505526665382] [0.10391079771295419:0.36373027337778241] [-0.012911162565172394:0.36373027337778241] [-0.012911162565172394:0.36373027337778241] [-0.0082278597293548219:0.36373027337778241] [0.099647366085662589:0.30142761851157174] [0.033895121632893065:0.077790780938093565] [-0.840342339281825:0.87942645730730462] [-1.2962462038561167:1.3144222285797345] [8.9682629477096327:27.128485666041456] [-0.012911162565172394:0.2222287943238756] [0.18958100053010501:0.36373027337778241] [-0.0082278597293548219:0.36373027337778241] [-0.012911162565172394:0.36373027337778241] [-0.044645797076506233:0.36373027337778241] [0.11244551157935789:0.26972672687438332] [0.050170173210312592:0.082292798247280433] [-0.68876003273974185:0.22648243838434234] [-1.1629353081031242:0.16439858738854551] [20.24019208428442:48.550810837388994] [-0.044645797076506233:0.15305668202950629] [0.26778325843162204:0.36373027337778241] [-0.044645797076506233:0.36373027337778241] [-0.012911162565172394:0.36373027337778241] [-0.044645797076506233:0.40197550683042499] [0.12305399868071014:0.24916228986971151] [0.056509418783534354:0.09243103062533832] [-0.6375659063253527:0.23854239220370765] [-1.0461850900343861:0.37434522038461998] [31.009607667538955:62.788897047167296] [-0.044645797076506233:0.10536656295345365] [0.28209337475257884:0.40052479395179341] [-0.044645797076506233:0.40052479395179341] [-0.012911162565172394:0.36373027337778241] [-0.046403981242263789:0.41952873932819529] [0.17593188081084168:0.19920704912813866] [0.078843929639457994:0.11066640246503144] [-0.34208424103577306:0.0068458875964249842] [-0.88848997604349:-0.57563301760601748] [88.669667928664211:100.40035276058188] [-0.046403981242263789:-0.012911162565172394] [0.36373027337778241:0.41952873932819529] [-0.046403981242263789:0.41952873932819529] [-0.012911162565172394:0.36373027337778241]
tree_sizes=1129 1192 1199 1281 1196 1291 1371 1288 1291

Tree=0
num_leaves=12
num_cat=0
split_feature=85 74 49 64 27 85 57 32 28 29 81
split_gain=7.76106 0.930529 0.533422 0.177348 0.088632 0.0788807 0.0234131 0.0163273 0.0128905 0.00612529 0.00391559
threshold=0.098404593772504587 0.18039658047824042 0.049471473892711691 0.24471943378665623 90.110155241571817 0.10117865344643874 -0.5343325226850707 0.22883557192920753 4.8839150846728154 1.4240016274411682 0.31334919774384196
decision_type=2 2 2 2 2 2 2 2 2 2 2
left_child=2 5 6 8 9 7 -1 -2 -3 -4 -11
right_child=1 3 4 -5 -6 -7 -8 -9 -10 10 -12
leaf_value=0.34092811734840051 0.32119530247354244 0.3270879950787603 0.33775610680685003 0.33019662161678176 0.33403415107238954 0.32300773230863727 0.34275831033677179 0.31954587759418002 0.3256810112707974 0.33659619031066829 0.33737163812420107
leaf_weight=24 20 20 23 36 21 35 27 24 29 29 20
leaf_count=24 20 20 23 36 21 35 27 24 29 29 20
internal_value=0.33117 0.324828 0.338393 0.327925 0.336471 0.321497 0.341897 0.320296 0.326255 0.337182 0.336913
internal_weight=308 164 144 85 93 79 51 44 49 72 49
internal_count=308 164 144 85 93 79 51 44 49 72 49
is_linear=0
shrinkage=1


Tree=1
num_leaves=12
num_cat=0
split_feature=25 74 49 64 65 27 74 57 28 55 48
split_gain=7.08368 0.89239 0.470579 0.179217 0.0932614 0.0675686 0.0285873 0.0214592 0.0118148 0.00539023 0.00241578
threshold=0.088285425278535543 0.18039658047824042 0.049471473892711691 0.24471943378665623 0.065832046326339141 89.622770664755663 0.127145859002051 -0.5343325226850707 4.8839150846728154 0.063283688328247809 5.285060706187827
decision_type=2 2 2 2 2 2 2 2 2 2 2
left_child=1 4 7 8 -1 9 -6 -2 -3 -4 -11
right_child=2 3 5 -5 6 -7 -8 -9 -10 10 -12
leaf_value=-0.01050475453291936 0.0096584735816989901 -0.0035915703848645873 0.0066779868302789249 -0.00048729768001732845 -0.008735689254454981 0.0033490638057327676 -0.0065085137518507254 0.011410636105416714 -0.0049385667767661576 0.0056129562482937221 0.006222047381704841
leaf_weight=37 24 20 21 38 20 21 22 27 29 29 20
leaf_count=37 24 20 21 38 20 21 22 27 29 29 20
internal_value=0.000316659 -0.00566352 0.00730757 -0.00268468 -0.00894401 0.00547016 -0.00756907 0.0105861 -0.00438877 0.00610649 0.00586156
internal_weight=308 166 142 87 79 91 42 51 49 70 49
internal_count=308 166 142 87 79 91 42 51 49 70 49
is_linear=0
shrinkage=0.0426353


Tree=2
num_leaves=12
num_cat=0
split_feature=85 78 49 64 65 49 78 56 28 76 79
split_gain=6.52244 0.781084 0.447725 0.148532 0.0854785 0.0599843 0.0262016 0.0198844 0.0108288 0.00791013 0.00429478
threshold=0.098404593772504587 45.459938280516589 0.049471473892711691 0.24471943378665623 0.065832046326339141 0.16926098406750822 32.040756468516854 0.076391395145565325 4.8839150846728154 -0.05087208599877819 0.034227245400749041
decision_type=2 2 2 2 2 2 2 2 2 2 2
left_child=2 4 7 8 -2 9 -6 -1 -3 10 -4
right_child=1 3 5 -5 6 -7 -8 -9 -10 -11 -12
leaf_value=0.0091681882508665123 -0.010056880687398729 -0.0034384424168214262 0.006535568916922199 -0.00059470509550327158 -0.0083632402768435889 0.0032749028017660408 -0.0062310210288161021 0.010867998710106228 -0.0047280092583120341 0.0050679664056477473 0.0057349669071985335
leaf_weight=22 37 20 21 36 20 23 22 29 29 20 29
leaf_count=22 37 20 21 36 20 23 22 29 29 20 29
internal_value=0.000303159 -0.00551062 0.00692441 -0.00267401 -0.00856268 0.0051639 -0.00724636 0.0101347 -0.00420166 0.00578458 0.00607122
internal_weight=308 164 144 85 79 93 42 51 49 70 50
internal_count=308 164 144 85 79 93 42 51 49 70 50
is_linear=0
shrinkage=0.0426353


Tree=3
num_leaves=13
num_cat=0
split_feature=85 78 49 65 65 27 64 78 57 41 47 36
split_gain=5.97812 0.7159 0.410361 0.136569 0.0783451 0.0703768 0.0376541 0.024015 0.0191836 0.00439648 0.003795 0.00341569
threshold=0.098404593772504587 45.459938280516589 0.049471473892711691 0.072312953541331645 0.065832046326339141 90.110155241571817 0.25664680535017098 32.040756468516854 -0.5343325226850707 0.31050452733826989 -0.73798218721779585 0.065431054940097488
decision_type=2 2 2 2 2 2 2 2 2 2 2 2
left_child=2 4 8 6 -2 10 -3 -6 -1 -5 -4 -12
right_child=1 3 5 9 7 -7 -8 -9 -10 -11 11 -13
leaf_value=0.0088255956856323516 -0.0096281020585659953 -0.0020475144400658426 0.0052310808625617633 -0.0047051108202746253 -0.0080066704545729526 0.00277204030409157 0.0004819648169378264 -0.0059653592352890443 0.010482251700451724 -0.0038316961598416125 0.0054600237173268399 0.0062479921525573513
leaf_weight=24 37 23 32 22 20 21 20 22 27 20 20 20
leaf_count=24 37 23 32 22 20 21 20 22 27 20 20 20
internal_value=0.000290233 -0.00527568 0.00662919 -0.00256 -0.00819761 0.00494374 -0.000871012 -0.00693741 0.00970265 -0.0042892 0.00557715 0.00585401
internal_weight=308 164 144 85 79 93 43 42 51 42 72 40
internal_count=308 164 144 85 79 93 43 42 51 42 72 40
is_linear=0
shrinkage=0.0426353


Tree=4
num_leaves=12
num_cat=0
split_feature=85 74 49 64 65 67 74 44 41 29 44
split_gain=5.47923 0.656157 0.376115 0.125183 0.0718069 0.0602743 0.0220109 0.0179804 0.00688046 0.00621966 0.00583852
threshold=0.098404593772504587 0.18039658047824042 0.049471473892711691 0.24471943378665623 0.065832046326339141 -0.99449886006682642 0.127145859002051 0.083575168858849067 0.29688119605457536 1.4396117551278811 0.20773097821972278
decision_type=2 2 2 2 2 2 2 2 2 2 2
left_child=2 4 7 8 -2 -4 -6 -1 -3 -7 -11
right_child=1 3 5 -5 6 9 -8 -9 -10 10 -12
leaf_value=0.010208092666280078 -0.0092176045832160734 -0.004368936588769458 0.00265928504624619 -0.00054196714467243882 -0.007665303541251979 0.0058147671774419459 -0.005711024262344923 0.0085917100455611631 -0.0033582860007118653 0.0045192537040988807 0.0054799193261644329
leaf_weight=22 37 24 20 36 20 27 22 29 25 23 23
leaf_count=22 37 24 20 36 20 27 22 29 25 23 23
internal_value=0.000277859 -0.00505075 0.00634655 -0.00245085 -0.0078481 0.00473296 -0.00664163 0.00928897 -0.0038533 0.00530109 0.00499959
internal_weight=308 164 144 85 79 93 42 51 49 73 46
internal_count=308 164 144 85 79 93 42 51 49 73 46
is_linear=0
shrinkage=0.0426353


Tree=5
num_leaves=13
num_cat=0
split_feature=85 74 60 65 65 27 64 75 56 28 41 39
split_gain=5.10597 0.654662 0.375341 0.132688 0.0961534 0.0731938 0.0330801 0.0255834 0.0220874 0.00828452 0.0035167 0.00345918
threshold=0.098438094076507762 0.18039658047824042 0.29332301602796712 0.072312953541331645 0.065832046326339141 90.577517419800429 0.25797333458875837 0.078497066204241434 0.13727230383243291 4.4583142407565246 0.30154559745794896 0.19835474110092713
decision_type=2 2 2 2 2 2 2 2 2 2 2 2
left_child=2 4 8 6 -2 9 -3 -6 -1 -4 -5 -11
right_child=1 3 5 10 7 -7 -8 -9 -10 11 -12 -13
leaf_value=0.0081607824704160014 -0.0090407271294021749 -0.0016430567820453325 0.0057993419107816762 -0.0042819348342120729 -0.0071962259558828309 0.0021906582670675541 0.00066332107440231311 -0.0052259104981388317 0.0099169092431092912 0.0044045885654994182 -0.0035279397059530928 0.0051284667127094053
leaf_weight=30 38 26 20 22 23 21 20 25 23 24 23 24
leaf_count=30 38 26 20 22 23 21 20 25 23 24 23 24
internal_value=6.01553e-05 -0.00477122 0.00608237 -0.00225053 -0.00743847 0.00439083 -0.000640284 -0.00617002 0.00892288 0.0050703 -0.00389656 0.00476653
internal_weight=319 177 142 91 86 89 46 48 53 68 45 48
internal_count=319 177 142 91 86 89 46 48 53 68 45 48
is_linear=0
shrinkage=0.0426353


Tree=6
num_leaves=14
num_cat=0
split_feature=85 78 49 64 27 27 43 44 44 34 29 27 44
split_gain=4.67986 0.600029 0.344607 0.1157 0.0768255 0.0683192 0.0410449 0.0265039 0.0187311 0.014297 0.0094817 0.00859636 0.00420729
threshold=0.098438094076507762 45.459938280516589 0.049471473892711691 0.24471943378665623 30.237540807442848 90.577517419800429 0.23701183803636697 0.25590691575233387 0.083575168858849067 0.22407409737191294 1.4413891745783716 85.324226549017013 0.20773097821972278
decision_type=2 2 2 2 2 2 2 2 2 2 2 2 2
left_child=2 4 8 11 -2 10 9 -5 -1 -6 -4 -3 -12
right_child=1 3 5 7 6 -7 -8 -9 -10 -11 12 -13 -14
leaf_value=0.0093954009099159862 -0.0048794089323286717 -0.0028465463988008974 0.0055814039818785624 -0.0015336224181823593 -0.0077102426131149138 0.0020972587743005528 -0.0062385755124910241 0.00063504018336316994 0.0077770231638589499 -0.0092396177094432284 0.004095308535376721 -0.0039876799308848562 0.0049115764372836745
leaf_weight=26 21 20 23 21 20 21 20 20 26 25 22 30 24
leaf_count=26 21 20 23 21 20 21 20 20 26 25 22 30 24
internal_value=5.75906e-05 -0.0045678 0.00582304 -0.00215458 -0.00712133 0.00422655 -0.00784564 -0.000475738 0.00858621 -0.0085599 0.00487459 -0.00353123 0.00452119
internal_weight=319 177 142 91 86 90 65 41 52 45 69 50 46
internal_count=319 177 142 91 86 90 65 41 52 45 69 50 46
is_linear=0
shrinkage=0.0426353


Tree=7
num_leaves=13
num_cat=0
split_feature=85 78 60 65 65 67 64 29 56 77 41 29
split_gain=4.28932 0.549955 0.31587 0.112243 0.0816082 0.0620743 0.0275509 0.0228371 0.0188775 0.00825099 0.00317191 0.00307738
threshold=0.098438094076507762 45.459938280516589 0.29332301602796712 0.072312953541331645 0.065832046326339141 -1.0027040935523706 0.25797333458875837 1.3700070617479454 0.13727230383243291 -0.76480457168746352 0.30154559745794896 1.4413891745783716
decision_type=2 2 2 2 2 2 2 2 2 2 2 2
left_child=2 4 8 6 -2 -4 -3 -6 -1 -7 -5 -11
right_child=1 3 5 10 7 9 -8 -9 -10 11 -12 -13
leaf_value=0.0074760092259951857 -0.0082938116307813437 -0.0014968531873171455 0.0019316080420106988 -0.00394262595824611 -0.0045946412054556829 0.0039477781123062857 0.0006079650178626414 -0.0064692867798286082 0.0090995223976464892 0.0053320829875019987 -0.0032265467334465872 0.0046381568417725684
leaf_weight=30 38 26 20 22 21 22 20 27 23 21 23 26
leaf_count=30 38 26 20 22 21 22 20 27 23 21 23 26
internal_value=5.51352e-05 -0.00437305 0.00557478 -0.00206272 -0.00681771 0.00402302 -0.000581715 -0.00564913 0.00818055 0.00462923 -0.00357663 0.00494821
internal_weight=319 177 142 91 86 89 46 48 53 69 45 47
internal_count=319 177 142 91 86 89 46 48 53 69 45 47
is_linear=0
shrinkage=0.0426353


Tree=8
num_leaves=13
num_cat=0
split_feature=85 78 49 65 65 27 66 75 44 29 44 41
split_gain=3.93136 0.504059 0.290146 0.102876 0.0747978 0.0582344 0.0254926 0.022547 0.01599 0.00777978 0.00382364 0.0029072
threshold=0.098438094076507762 45.459938280516589 0.049471473892711691 0.072312953541331645 0.065832046326339141 90.577517419800429 -0.18611391375131939 0.078497066204241434 0.083575168858849067 1.4413891745783716 0.20773097821972278 0.30154559745794896
decision_type=2 2 2 2 2 2 2 2 2 2 2 2
left_child=2 4 8 6 -2 9 -3 -6 -1 -4 -11 -5
right_child=1 3 5 11 7 -7 -8 -9 -10 10 -12 -13
leaf_value=0.0086201749508044174 -0.0079402021359944747 0.00053819858802012688 0.0051107213676299893 -0.0037745307052126902 -0.0063716612947659788 0.0019063100417162351 -0.0014768071592753326 -0.0045219629189352231 0.0071248958050606085 0.0037443611224035863 0.0045225238771520442 -0.0030889817727543941
leaf_weight=26 38 21 23 22 23 21 25 25 26 22 24 23
leaf_count=26 38 21 23 22 23 21 25 25 26 22 24 23
internal_value=5.27844e-05 -0.00418661 0.00533709 -0.00197477 -0.00652703 0.00387217 -0.000556913 -0.00540828 0.00787254 0.00447048 0.00415036 -0.00342414
internal_weight=319 177 142 91 86 90 46 48 52 69 46 45
internal_count=319 177 142 91 86 90 46 48 52 69 46 45
is_linear=0
shrinkage=0.0426353


end of trees

feature_importances:
std_180=11
std_504=9
PE_Ratio=8
min_25=8
ma_180=8
ma_25=7
total_return_252=7
PS_Ratio=6
ma_252=6
first_return_5=5
PB_Ratio=4
skew_90=3
kurt_90=3
max_90=2
kurt_180=2
std_252=2
EarningsPerShareDilutedTTM_log=1
Returns=1
ma_5=1
skew_5=1
min_5=1
lag_25=1
kurt_25=1
total_return_25=1
std_90=1
skew_180=1
skew_252=1
kurt_252=1
min_252=1
first_return_252=1

parameters:
[boosting: gbdt]
[objective: regression]
[metric: rmse]
[tree_learner: serial]
[device_type: cpu]
[data_sample_strategy: bagging]
[data: ]
[valid: ]
[num_iterations: 2000]
[learning_rate: 0.0426353]
[num_leaves: 64]
[num_threads: 4]
[seed: 42]
[deterministic: 0]
[force_col_wise: 0]
[force_row_wise: 0]
[histogram_pool_size: -1]
[max_depth: -1]
[min_data_in_leaf: 20]
[min_sum_hessian_in_leaf: 0.001]
[bagging_fraction: 0.8]
[pos_bagging_fraction: 1]
[neg_bagging_fraction: 1]
[bagging_freq: 5]
[bagging_seed: 400]
[bagging_by_query: 0]
[feature_fraction: 0.8]
[feature_fraction_bynode: 1]
[feature_fraction_seed: 30056]
[extra_trees: 0]
[extra_seed: 12879]
[early_stopping_round: 0]
[early_stopping_min_delta: 0]
[first_metric_only: 0]
[max_delta_step: 0]
[lambda_l1: 0]
[lambda_l2: 0]
[linear_lambda: 0]
[min_gain_to_split: 0]
[drop_rate: 0.1]
[max_drop: 50]
[skip_drop: 0.5]
[xgboost_dart_mode: 0]
[uniform_drop: 0]
[drop_seed: 17869]
[top_rate: 0.2]
[other_rate: 0.1]
[min_data_per_group: 100]
[max_cat_threshold: 32]
[cat_l2: 10]
[cat_smooth: 10]
[max_cat_to_onehot: 4]
[top_k: 20]
[monotone_constraints: ]
[monotone_constraints_method: basic]
[monotone_penalty: 0]
[feature_contri: ]
[forcedsplits_filename: ]
[refit_decay_rate: 0.9]
[cegb_tradeoff: 1]
[cegb_penalty_split: 0]
[cegb_penalty_feature_lazy: ]
[cegb_penalty_feature_coupled: ]
[path_smooth: 0]
[interaction_constraints: ]
[verbosity: -1]
[saved_feature_importance_type: 0]
[use_quantized_grad: 0]
[num_grad_quant_bins: 4]
[quant_train_renew_leaf: 0]
[stochastic_rounding: 1]
[linear_tree: 0]
[max_bin: 255]
[max_bin_by_feature: ]
[min_data_in_bin: 3]
[bin_construct_sample_cnt: 200000]
[data_random_seed: 175]
[is_enable_sparse: 1]
[enable_bundle: 1]
[use_missing: 1]
[zero_as_missing: 0]
[feature_pre_filter: 1]
[pre_partition: 0]
[two_round: 0]
[header: 0]
[label_column: ]
[weight_column: ]
[group_column: ]
[ignore_column: ]
[categorical_feature: ]
[forcedbins_filename: ]
[precise_float_parser: 0]
[parser_config_file: ]
[objective_seed: 16083]
[num_class: 1]
[is_unbalance: 0]
[scale_pos_weight: 1]
[sigmoid: 1]
[boost_from_average: 1]
[reg_sqrt: 0]
[alpha: 0.9]
[fair_c: 1]
[poisson_max_delta_step: 0.7]
[tweedie_variance_power: 1.5]
[lambdarank_truncation_level: 30]
[lambdarank_norm: 1]
[label_gain: ]
[lambdarank_position_bias_regularization: 0]
[eval_at: ]
[multi_error_top_k: 1]
[auc_mu_weights: ]
[num_machines: 1]
[local_listen_port: 12400]
[time_out: 120]
[machine_list_filename: ]
[machines: ]
[gpu_platform_id: -1]
[gpu_device_id: -1]
[gpu_use_dp: 0]
[num_gpu: 1]

end of parameters

pandas_categorical:[]
