tree
version=v4
num_class=1
num_tree_per_iteration=1
label_index=0
max_feature_idx=94
objective=regression
feature_names=WeightedAverageNumberOfDilutedSharesOutstanding ROE ROA AssetTurnover DebtToEquity NetProfitMargin OperatingMargin EarningsPerShareDiluted_log GrossProfit_log NetIncomeLoss_log OperatingIncomeLoss_log Revenues_log Assets_log Liabilities_log NoncurrentAssets_log WeightedAverageNumberOfDilutedSharesOutstanding_log Equity_log ROE_log ROA_log BookValuePerShare_log SalesPerShare_log AssetTurnover_log DebtToEquity_log NetProfitMargin_log OperatingMargin_log EarningsPerShareDilutedTTM_log SalesPerShareTTM_log PE_Ratio PB_Ratio PS_Ratio MarketCapLog Price CostsAndExpenses_log Returns Returns_Daily lag_5 ma_5 std_5 skew_5 kurt_5 total_return_5 min_5 max_5 first_return_5 last_return_5 lag_25 ma_25 std_25 skew_25 kurt_25 total_return_25 min_25 max_25 first_return_25 last_return_25 lag_90 ma_90 std_90 skew_90 kurt_90 total_return_90 min_90 max_90 first_return_90 last_return_90 lag_180 ma_180 std_180 skew_180 kurt_180 total_return_180 min_180 max_180 first_return_180 last_return_180 lag_252 ma_252 std_252 skew_252 kurt_252 total_return_252 min_252 max_252 first_return_252 last_return_252 lag_504 ma_504 std_504 skew_504 kurt_504 total_return_504 min_504 max_504 first_return_504 last_return_504
feature_infos=[587000000:587500000] [0.0083986410579174626:0.064459940328709484] [0.0016431819204970062:0.013091254672946298] [0.16921993215419692:0.1851041410473421] [3.7489144798942799:4.1112058580690567] [0.0097103331716248565:0.07206020333406167] none [-0.61233858135013075:1.8959912255948674] none [-0.61250892459217432:1.8959912255948672] none [0.01339861734662099:0.10388188986728282] [-0.00078416208620951319:0.063433508132278341] [-0.019514922588511539:0.064429931799521167] none [-0.00017034324204383459:0.0010224949766100139] [-0.057625647799028283:0.072735132962251134] [-0.67219806250525849:1.823256092632616] [-0.67594243272445276:1.8967753876810769] [-0.058648142775638387:0.072735132962251134] [0.012547191156403192:0.10285939489067283] [-0.018720814285486741:0.070671451137750127] [-0.092250055550762627:0.11423711020188822] [-0.67254207054555293:1.8434381813719791] none [-0.17260009871740514:0.71277349510934462] [0.019192888355647562:0.070866473746468525] [28.971532889557697:115.17256919976917] [3.9232128349416007:5.4307701671927289] [1.1727973637719926:1.6737438598916234] [-0.14061779301359389:0.084970207714760992] [0.3989473300710934:0.53404560380489241] none [-0.010492974062172464:0.30198255222076459] [-0.11467544556131525:0.068646128709445864] [-0.010492974062172464:0.30198255222076459] [0.025702263663227441:0.28517592992360052] [0.0015808866646712368:0.055589225544291722] [-2.2309345970472134:2.1636808954892079] [-3.2087226846714354:4.9815565708092295] [-0.11198506576447999:0.087447021123826449] [-0.010492974062172464:0.26956659954614837] [0.042368870314458337:0.30198255222076459] [-0.010492974062172464:0.30198255222076459] [-0.010492974062172464:0.30198255222076459] [-0.010492974062172464:0.30198255222076459] [0.046173475672249865:0.27302925031887776] [0.013268978719581985:0.047472221478554517] [-2.3833999650542625:2.0777025833401241] [-1.8438268268932581:9.329543499916511] [-0.11556210070440388:0.13333901729613901] [-0.010492974062172464:0.24769126482423631] [0.084145881829980382:0.30198255222076459] [-0.010492974062172464:0.30198255222076459] [-0.010492974062172464:0.30198255222076459] [-0.0067805536521640935:0.30198255222076459] [0.081121366207473747:0.25099046449423013] [0.028063586783998618:0.061738520412919384] [-0.8483399071378368:0.83329875424895206] [-1.2977372076488785:1.187937367891684] [-0.18705849289150739:0.26070710877141823] [-0.010492974062172464:0.18607222178138541] [0.15318078996764481:0.30198255222076459] [-0.0067805536521640935:0.30198255222076459] [-0.010492974062172464:0.30198255222076459] [0.028279211681231663:0.30198255222076459] [0.12527589636312678:0.22272100582304288] [0.042621600716807359:0.068206240191553788] [-0.69208038695505802:0.23339997117187986] [-1.1705377509393313:0.12725026042051885] [-0.065564656690981882:0.23323114152362995] [-0.010492974062172464:0.12565356533501471] [0.23595310899262587:0.30198255222076459] [0.028279211681231663:0.30198255222076459] [-0.010492974062172464:0.30198255222076459] [-0.011412573885086668:0.30198255222076459] [0.14596256626712989:0.20606593857602531] [0.047191981493457137:0.076965591907593986] [-0.60797693481025783:0.077152768159379131] [-1.0547437489406064:0.33410313375841921] [-0.01049297406217195:0.30198255222076448] [-0.010492974062172464:0.08609911226370455] [0.27934135811941241:0.30198255222076459] [-0.0020090661207771377:0.30198255222076459] [-0.010492974062172464:0.30198255222076459] [-0.038038860133818055:0.36146303756644954] [0.14865277364482174:0.16674673396724182] [0.064829069146591228:0.086762617402404152] [-0.35360407372486213:0.01268375909486639] [-0.88452219987667946:-0.4895681005564062] [0.16081221793292011:0.49119253330885937] [-0.038038860133818055:-0.010492974062172464] [0.30198255222076459:0.36146303756644954] [-0.038038860133818055:0.36146303756644954] [-0.010492974062172464:0.30198255222076459]
tree_sizes=907 934 941 944 948 945 947 953 955 952 948 949 951 1043 953 954 952 946 955 958 956 959 1051 959 958 953 955 953 963 964 966 1058 1061 968 967 874 871 967 970 970 971 1064 1068 1062 1065 1065 970 976 974 972 976 1062 974 971 1064 1066 974 1066 1156 1065 976 975 980 978 1056 974 1068 973 1066 975 1074 981 976 1068 978 1064 971 1162 975 968 978 979 975 1063 971 977 975 1067 1070 982 885 974 968 885 977 978 981 970 1070 1074 1072 1067 1069 1062 1068 976 976 884 1067 979 1074 1073 1075 1061 1068 979 1077 980 989 983 978 1074 977 977 886 982 976 982 973 1067 981 1071 1161 1075 1071 1075 985 1161 1068 1074 1073 976 977 984 1158 1065 1064 1065 1065 974 1073 1163 974 1066 1161 983 1074 1069 1077 1160 1070 976 1074 885 1072 1072 1074 1158 974 1070 974 1066 975 1067 1069 978 971 979 1074 1065 1066 979 982 1067 889 1072 1072 1074 1069 982 1065 1066 1070 1070 979 1166 1071 1078 1072 1072 974 977 1071 1074 1071 1069 972 972 1071 968 979 984 977 980 977 1069 1066 1077 1073 1069 1072 1072 979 1069 980 1069 981 1067 895 979 1071 1080 973 1072 974 979 1066 979 1066 1064 1062 979 972 975 975 1069 1074 1071 1073 983 979 981 983 981 985 971 978 972 1071 1073 983 976 1067 984 980 1070 1065 1074 976 1065 980 1064 978 984 1068 1152 888 968 1077 1072 971 1067 976 1066 1068 1164 979 1080 1168 1074 1076 1074 980 976 988 1152 1070 1072 1067 977 982 885 980 891 981 978 986 1078 1070 1080 1063 977 1072 1069 1070 980 982 1070 981 980 1071 882 1070 983 1070 975 1069 981 1063 1069 1064 1065 1069 1079 1071 1163 1072 982 975 890 1070 1068 1073 1072 978 883 1074 978 1066 970 979 1066 1069 1161 980 1068 979 972 1080 1076 888 977 978 980 888 982 976 980 971 1165 975 1076 1076 981 1072 1071 980 975 971 1075 1074 979 979 977 1071 972 1065 970 886 1071 979 981 979 980 980 1168 1171 1071 982 1073 886 978 1070 886 1069 1077 1074 1076 1069 988 975 974 981 1076 968 985 1068 1066 972 972 889 982 981 981 977 1070 978 1078 1079 888 976 982 1067 974 979 1064 1072 1069 1069 979 1072 1076 978 1068 1065 1066 978 1069 1060 883 885 978 976 977 977 1077 1072 1071 1160 1167 1063 1072 978 1073 1073 980 981 983 976 976 1072 983 884 974 980 880 977 973 974 1069 982 979 974 983 980 1069 980 978 980 979 1074 979 1070 981 981 1071 979 1068 979 977 1066 1068 1065 1071 1065 980 978 1069 980 974 976 975 982 1070 885 1068 1069 978 978 1070 1069 1066 1068 1064 1066 978 979 983 1066 980 975 1069 1060 973 1064 1073 1158 983 1169 1075 1068 1072 1071 1066 1069 1070 1076 982 1070 981 979 974 1075 1167 984 973 976 985 1072 971 1069 1158 979 1067 1161 982 890 982 1067 1072 978 970 1074 894 979 1071 980 980 1077 1073 1078 1168 1077 1076 1162 1071 980 978 981 975 986 980 1070 1078 983 1080 1070 1075 984 1080 976 979 976 978 975 978 1074 889 1083 1070 1078 976 979 1072 974 887 978 887 981 885 1161 1066 1073 1074 1069 1067 979 1070 1062 1074 885 977 975 977 975 1065 1064 1066 1064 1071 973 1072 896 1071 1071 979 886 1069 1064 982 1159 1159 1063 977 1158 1074 1067 976 978 1067 979 1072 1160 1069 1157 976 1068 976 890 1076 1165 1072 1071 1078 985 979 1075 1164 1067 969 976 976 978 982 1066 1072 1069 1067 1067 974 1075 1077 1077 1074 1073 887 976 978 975 1071 1070 986 977 969 978 1159 1076 978 978 988 1063 1073 1072 1065 1065 980 984 1073 1070 1078 982 981 983 1070 1079 1070 1073 1161 1068 1065 979 1068 1068 977 976 1068 1076 1066 982 1073 1069 1071 1074 982 1080 1072 974 1067 978 1069 981 1067 988 1073

Tree=0
num_leaves=9
num_cat=0
split_feature=62 51 52 76 77 85 27 37
split_gain=0.765806 0.0893932 0.0480081 0.0115553 0.00880431 0.0079214 0.00261842 0.000817207
threshold=0.2800893879451905 0.039890119518824395 0.2800893879451905 0.19051425606986827 0.073698237528574753 0.082660393688098868 87.500794941830364 0.010789127319646426
decision_type=2 2 2 2 2 2 2 2
left_child=1 4 3 -2 -1 -3 -7 -4
right_child=2 5 7 -5 -6 6 -8 -9
leaf_value=0.08922251485109077 0.083775661553851466 0.088180850565907617 0.082273256243386439 0.085163269429629901 0.090393749835099513 0.087568161220497376 0.086986515939547482 0.082625402056574912
leaf_weight=20 24 30 23 20 28 34 24 25
leaf_count=20 24 30 23 20 28 34 24 25
internal_value=0.0863934 0.0884257 0.0833891 0.0844064 0.0899057 0.0876184 0.0873275 0.0824567
internal_weight=228 136 92 44 48 88 58 48
internal_count=228 136 92 44 48 88 58 48
is_linear=0
shrinkage=1


Tree=1
num_leaves=9
num_cat=0
split_feature=62 51 52 76 72 85 27 37
split_gain=0.701898 0.081933 0.0440016 0.010591 0.00742636 0.00726034 0.0023999 0.000749009
threshold=0.2800893879451905 0.039890119518824395 0.2800893879451905 0.19051425606986827 0.2800893879451905 0.082660393688098868 87.500794941830364 0.010789127319646426
decision_type=2 2 2 2 2 2 2 2
left_child=1 4 3 -2 -1 -3 -7 -4
right_child=2 5 7 -5 -6 6 -8 -9
leaf_value=0.0039427283947241548 -0.0023741885566913217 0.0018431836882561224 -0.0038125383515884245 -0.0010457418653297054 0.0028670455493473058 0.0012566165657685153 0.000699769908271681 -0.003475406354751603
leaf_weight=28 24 30 23 20 20 34 24 25
leaf_count=28 24 30 23 20 20 34 24 25
internal_value=0.000131945 0.00207759 -0.00274423 -0.00177035 0.00349453 0.00130472 0.0010262 -0.00363695
internal_weight=228 136 92 44 48 88 58 48
internal_count=228 136 92 44 48 88 58 48
is_linear=0
shrinkage=0.0426353


Tree=2
num_leaves=9
num_cat=0
split_feature=87 62 69 66 77 81 58 40
split_gain=0.644209 0.0894852 0.0235994 0.016542 0.00808385 0.00631697 0.00239684 0.00127951
threshold=0.08305292199415254 0.22550232176434551 -1.0096993892778821 0.20292223395566941 0.074238837031881819 0.028552326808395864 0.21890777258292318 0.012587027092974077
decision_type=2 2 2 2 2 2 2 2
left_child=1 4 -3 7 -1 6 -4 -2
right_child=3 2 5 -5 -6 -7 -8 -9
leaf_value=0.0027233155848628769 -0.0032793997934972259 -9.2607003941657862e-05 0.0021296134681625936 -0.0022183841330057521 0.0038580080084231242 0.0010277787463350994 0.0014847199860207529 -0.0037211882835545638
leaf_weight=21 26 24 20 31 25 37 22 22
leaf_count=21 26 24 20 31 25 37 22 22
internal_value=0.000126319 0.00177652 0.00107827 -0.00298608 0.00334 0.00143397 0.00179181 -0.00348189
internal_weight=228 149 103 79 46 79 42 48
internal_count=228 149 103 79 46 79 42 48
is_linear=0
shrinkage=0.0426353


Tree=3
num_leaves=9
num_cat=0
split_feature=56 51 52 76 77 85 27 40
split_gain=0.590589 0.0690406 0.0367716 0.00882869 0.00682367 0.00602671 0.0020055 0.00117963
threshold=0.20099170939625388 0.039890119518824395 0.2800893879451905 0.19051425606986827 0.073698237528574753 0.082660393688098868 87.500794941830364 0.0050085087011293742
decision_type=2 2 2 2 2 2 2 2
left_child=1 4 3 -2 -1 -3 -7 -4
right_child=2 5 7 -5 -6 6 -8 -9
leaf_value=0.0026048586315710809 -0.0021783826969599368 0.001686778779373963 -0.0030833506059502356 -0.00096548633215810288 0.0036359692712310291 0.0011530657819608964 0.00064402827249861671 -0.0035120663423477026
leaf_weight=20 24 30 20 20 28 34 24 28
leaf_count=20 24 30 20 20 28 34 24 28
internal_value=0.000120933 0.00190565 -0.00251735 -0.00162707 0.00320634 0.00119618 0.00094243 -0.00333343
internal_weight=228 136 92 44 48 88 58 48
internal_count=228 136 92 44 48 88 58 48
is_linear=0
shrinkage=0.0426353


Tree=4
num_leaves=9
num_cat=0
split_feature=87 51 69 52 77 55 59 40
split_gain=0.542567 0.0807136 0.0182617 0.0136728 0.00630967 0.00534012 0.00117621 0.00109606
threshold=0.08305292199415254 0.039890119518824395 -1.0096993892778821 0.2800893879451905 0.074238837031881819 0.10305946748216473 -0.080771116128938183 0.012587027092974077
decision_type=2 2 2 2 2 2 2 2
left_child=1 4 -3 -2 -1 -4 -7 -5
right_child=3 2 5 7 -6 6 -8 -9
leaf_value=0.0025600024140838094 -0.0020426033445492577 -8.0755254147967342e-05 0.0017938220436952361 -0.0030039036630830542 0.0035384998936788615 0.00079787240451832176 0.0012031242948001165 -0.0034127959777980029
leaf_weight=23 31 24 24 26 25 23 30 22
leaf_count=23 31 24 24 26 25 23 30 22
internal_value=0.000115777 0.00163021 0.000946123 -0.00274055 0.00306964 0.00126619 0.00102726 -0.00319131
internal_weight=228 149 101 79 48 77 53 48
internal_count=228 149 101 79 48 77 53 48
is_linear=0
shrinkage=0.0426353


Tree=5
num_leaves=9
num_cat=0
split_feature=56 51 66 66 77 56 70 63
split_gain=0.519277 0.0565748 0.0356354 0.0103551 0.00609798 0.00489887 0.00267918 0.00159734
threshold=0.19770451020169952 0.039890119518824395 0.21838829324968073 0.20292223395566941 0.074238837031881819 0.12645214807089802 0.07846860338159653 0.19808249860120888
decision_type=2 2 2 2 2 2 2 2
left_child=1 4 3 7 -1 -3 -7 -2
right_child=2 5 -4 -5 -6 6 -8 -9
leaf_value=0.0023897493361197644 -0.002819292972447577 0.001514727054237187 -0.00067928669189536335 -0.0020195002777591603 0.0033427872648614017 0.0010712822857160856 0.00045878667256081366 -0.0032994799023407543
leaf_weight=23 34 30 21 31 26 34 21 20
leaf_count=23 34 30 21 31 26 34 21 20
internal_value=-2.22436e-05 0.00174162 -0.00225203 -0.00264059 0.00289544 0.00107647 0.00083742 -0.00299714
internal_weight=240 134 106 85 49 85 55 54
internal_count=240 134 106 85 49 85 55 54
is_linear=0
shrinkage=0.0426353


Tree=6
num_leaves=9
num_cat=0
split_feature=56 62 66 77 66 70 70 63
split_gain=0.475942 0.0496804 0.0326615 0.0104386 0.00949094 0.00424984 0.0024761 0.00146403
threshold=0.19770451020169952 0.20873691149246501 0.21838829324968073 0.060755311502951069 0.20292223395566941 0.074214215465586389 0.067559451172364712 0.19808249860120888
decision_type=2 2 2 2 2 2 2 2
left_child=1 -1 4 6 7 -5 -3 -2
right_child=2 3 -4 5 -6 -7 -8 -9
leaf_value=0.003103557377988972 -0.002699091386101019 0.0010725864176700753 -0.0006503250790987873 0.0021393086983306502 -0.0019333982267589695 0.0013126369375903672 0.00049959260492536087 -0.0031588054292304981
leaf_weight=33 34 29 21 20 31 26 26 20
leaf_count=33 34 29 21 20 31 26 26 20
internal_value=-2.12952e-05 0.00166736 -0.00215601 0.00119811 -0.00252801 0.00167206 0.000801717 -0.00286936
internal_weight=240 134 106 101 85 46 55 54
internal_count=240 134 106 101 85 46 55 54
is_linear=0
shrinkage=0.0426353


Tree=7
num_leaves=9
num_cat=0
split_feature=56 51 67 89 59 75 40 70
split_gain=0.436223 0.047613 0.0299358 0.00881812 0.00522745 0.00413609 0.00150503 0.0013895
threshold=0.19770451020169952 0.039890119518824395 0.04660193595957015 -0.66800096698907885 -0.51774199161764889 0.2132281148223196 -0.00052444588821581601 0.081481037823710814
decision_type=2 2 2 2 2 2 2 2
left_child=1 4 -2 6 -1 7 -4 -3
right_child=2 5 3 -5 -6 -7 -8 -9
leaf_value=0.0021462810937649718 -0.00062259823182022678 0.00094810671046644717 -0.0024677914571993565 -0.0018322355339056406 0.0030361462394842002 0.0013887735207164834 -0.0029230477923298608 0.0005136543791827851
leaf_weight=21 21 32 22 30 28 30 33 23
leaf_count=21 21 32 22 30 28 30 33 23
internal_value=-2.03873e-05 0.00159627 -0.00206409 -0.00242022 0.00265478 0.000986078 -0.00274095 0.000766427
internal_weight=240 134 106 85 49 85 55 55
internal_count=240 134 106 85 49 85 55 55
is_linear=0
shrinkage=0.0426353


Tree=8
num_leaves=9
num_cat=0
split_feature=62 51 66 89 58 77 70 40
split_gain=0.399819 0.0436396 0.0274382 0.00844556 0.00502157 0.00384902 0.00213799 0.00137943
threshold=0.2800893879451905 0.039890119518824395 0.21888274362318225 -0.66800096698907885 0.05452236853280925 0.061430287913312759 0.067559451172364712 -0.00052444588821581601
decision_type=2 2 2 2 2 2 2 2
left_child=1 4 3 7 -1 6 -3 -2
right_child=2 5 -4 -5 -6 -7 -8 -9
leaf_value=0.0020218609229958836 -0.0023625763022800325 0.00098384201450591943 -0.00055366539231300593 -0.0017441078297974434 0.0029000209565337677 0.0013325052338627142 0.00045140550219001867 -0.0027984226220915103
leaf_weight=20 22 29 20 31 29 30 26 33
leaf_count=20 22 29 20 31 29 30 26 33
internal_value=-1.9518e-05 0.00152822 -0.00197609 -0.00230688 0.00254159 0.000944037 0.000732145 -0.00262408
internal_weight=240 134 106 86 49 85 55 55
internal_count=240 134 106 86 49 85 55 55
is_linear=0
shrinkage=0.0426353


Tree=9
num_leaves=9
num_cat=0
split_feature=62 62 67 77 89 70 70 40
split_gain=0.366453 0.0393539 0.0251711 0.00788365 0.00740014 0.00318001 0.00198503 0.00126432
threshold=0.2800893879451905 0.20873691149246501 0.04660193595957015 0.060755311502951069 -0.66800096698907885 0.074214215465586389 0.07846860338159653 -0.00052444588821581601
decision_type=2 2 2 2 2 2 2 2
left_child=1 -1 -2 6 7 -5 -3 -4
right_child=2 3 4 5 -6 -7 -8 -9
leaf_value=0.0027413079602666901 -0.00057003092801766945 0.00090222898354875387 -0.0022618470497079235 0.0018614810434812016 -0.001679756918526871 0.0011463897090306526 0.00037501609054291528 -0.0026791109136459742
leaf_weight=33 21 34 22 20 30 26 21 33
leaf_count=33 21 34 22 20 30 26 21 33
internal_value=-1.86859e-05 0.00146306 -0.00189184 0.00104541 -0.0022184 0.0014573 0.00070093 -0.00251221
internal_weight=240 134 106 101 85 46 55 55
internal_count=240 134 106 101 85 46 55 55
is_linear=0
shrinkage=0.0426353


Tree=10
num_leaves=9
num_cat=0
split_feature=87 51 27 66 83 59 63 27
split_gain=0.334017 0.0521256 0.0144564 0.00796129 0.00604606 0.00350867 0.00213194 0.000710458
threshold=0.083191217132513151 0.039890119518824395 90.801179451536754 0.20292223395566941 0.21746020017532439 -0.57231033222472927 0.19808249860120888 87.500794941830364
decision_type=2 2 2 2 2 2 2 2
left_child=1 4 5 6 -1 -3 -2 -7
right_child=3 2 -4 -5 -6 7 -8 -9
leaf_value=0.00169622335151182 -0.0022235709751745811 0.0013508025216799938 -0.00029704343133768137 -0.0015730634664195622 0.0026532312444092548 0.00081906001701137347 -0.0027452986240503498 0.00051005650550491651
leaf_weight=20 35 21 25 29 30 38 24 21
leaf_count=20 35 21 25 29 30 38 24 21
internal_value=-5.36352e-05 0.0011374 0.000597869 -0.00215149 0.00227043 0.000877529 -0.0024358 0.000709076
internal_weight=243 155 105 88 50 80 59 59
internal_count=243 155 105 88 50 80 59 59
is_linear=0
shrinkage=0.0426353


Tree=11
num_leaves=9
num_cat=0
split_feature=87 51 27 89 83 59 63 27
split_gain=0.306142 0.0477756 0.01325 0.00741647 0.0055415 0.00321586 0.00181844 0.000651168
threshold=0.083191217132513151 0.039890119518824395 90.801179451536754 -0.66800096698907885 0.21746020017532439 -0.57231033222472927 0.19808249860120888 87.500794941830364
decision_type=2 2 2 2 2 2 2 2
left_child=1 4 5 6 -1 -3 -2 -7
right_child=3 2 -4 -5 -6 7 -8 -9
leaf_value=0.0016239043018224167 -0.002128768253202165 0.0012932106212282456 -0.00028437888170009082 -0.0014867999432783465 0.0025401099217481483 0.00078413910428111228 -0.0026048604573108616 0.00048831008092999355
leaf_weight=20 35 21 25 28 30 38 25 21
leaf_count=20 35 21 25 28 30 38 25 21
internal_value=-5.13484e-05 0.00108891 0.000572379 -0.00205976 0.00217363 0.000840115 -0.00232714 0.000678844
internal_weight=243 155 105 88 50 80 60 59
internal_count=243 155 105 88 50 80 60 59
is_linear=0
shrinkage=0.0426353


Tree=12
num_leaves=9
num_cat=0
split_feature=87 51 27 66 58 55 63 59
split_gain=0.280593 0.0437886 0.0121442 0.00670879 0.0052345 0.00327599 0.00179843 0.000622952
threshold=0.083191217132513151 0.039890119518824395 90.801179451536754 0.20292223395566941 0.05452236853280925 0.10305946748216473 0.19808249860120888 -0.035223138382448872
decision_type=2 2 2 2 2 2 2 2
left_child=1 4 5 6 -1 -3 -2 -7
right_child=3 2 -4 -5 -6 7 -8 -9
leaf_value=0.0016083035215599508 -0.0020380074942483641 0.0012472917380055388 -0.00027225429231956595 -0.00144096140884726 0.0024835827045184993 0.00051886909484161149 -0.0025171927354407536 0.00080257353253099066
leaf_weight=23 35 22 25 29 27 34 24 24
leaf_count=23 35 22 25 29 27 34 24 24
internal_value=-4.91592e-05 0.00104248 0.000547975 -0.00197194 0.00208095 0.000804297 -0.00223293 0.000636264
internal_weight=243 155 105 88 50 80 59 58
internal_count=243 155 105 88 50 80 59 58
is_linear=0
shrinkage=0.0426353


Tree=13
num_leaves=10
num_cat=0
split_feature=87 51 27 89 83 55 51 50 27
split_gain=0.257177 0.0401343 0.0111308 0.00624804 0.00480202 0.0030026 0.00112038 0.000914546 0.000495999
threshold=0.083191217132513151 0.039890119518824395 90.801179451536754 -0.66800096698907885 0.21746020017532439 0.10305946748216473 0.18868037827040268 0.008816087062874638 87.500794941830364
decision_type=2 2 2 2 2 2 2 2 2
left_child=1 4 5 6 -1 -3 7 -2 -7
right_child=3 2 -4 -5 -6 8 -8 -9 -10
leaf_value=0.0014805003298712868 -0.0017991422545790372 0.0011941130351304024 -0.00026064663683237385 -0.0013619738702511813 0.0023333865550525575 0.00070306686141983175 -0.0023938334532033539 -0.0022068721167874759 0.0004436406648360306
leaf_weight=20 20 22 25 28 30 37 20 20 21
leaf_count=20 20 22 25 28 30 37 20 20 21
internal_value=-4.70633e-05 0.000998038 0.000524612 -0.00188787 0.00199223 0.000770005 -0.00213328 -0.00200301 0.000609137
internal_weight=243 155 105 88 50 80 60 40 58
internal_count=243 155 105 88 50 80 60 40 58
is_linear=0
shrinkage=0.0426353


Tree=14
num_leaves=9
num_cat=0
split_feature=87 51 27 89 58 55 63 59
split_gain=0.235715 0.036785 0.0102019 0.00572662 0.00453973 0.00275203 0.00155644 0.000552314
threshold=0.083191217132513151 0.039890119518824395 90.801179451536754 -0.66800096698907885 0.05452236853280925 0.10305946748216473 0.19808249860120888 -0.035223138382448872
decision_type=2 2 2 2 2 2 2 2
left_child=1 4 5 6 -1 -3 -2 -7
right_child=3 2 -4 -5 -6 7 -8 -9
leaf_value=0.0014671252762363492 -0.001858803897810799 0.0011432015910398268 -0.00024953387391261564 -0.001303905609846023 0.0022822499171027272 0.00047262711352589229 -0.0022992650355995103 0.00073976261045998566
leaf_weight=23 35 22 25 28 27 34 25 24
leaf_count=23 35 22 25 28 27 34 25 24
internal_value=-4.50567e-05 0.000955486 0.000502245 -0.00180738 0.00190729 0.000737176 -0.00204233 0.000583166
internal_weight=243 155 105 88 50 80 60 58
internal_count=243 155 105 88 50 80 60 58
is_linear=0
shrinkage=0.0426353


Tree=15
num_leaves=9
num_cat=0
split_feature=56 62 89 66 77 68 60 63
split_gain=0.212409 0.0238802 0.0168167 0.00527125 0.0037479 0.00260165 0.00110655 0.00102388
threshold=0.19770451020169952 0.20873691149246501 -0.66800096698907885 0.2197682309817002 0.060755311502951069 -0.10151115955717534 1.0000000180025095e-35 0.19808249860120888
decision_type=2 2 2 2 2 2 2 2
left_child=1 -1 7 -4 6 -6 -3 -2
right_child=2 4 3 -5 5 -7 -8 -9
leaf_value=0.002146843000881294 -0.0018064266919683618 0.00070763020846527466 -0.0012576234042019133 -0.00038276464925747478 0.0014341482632752262 0.00080637330641158815 0.00028580451986980916 -0.0021818174873902666
leaf_weight=32 28 26 31 21 20 30 20 25
leaf_count=32 28 26 31 21 20 30 20 25
internal_value=-2.77346e-05 0.00113818 -0.00144905 -0.000904315 0.000801965 0.00105748 0.000524228 -0.0019835
internal_weight=233 128 105 52 96 50 46 53
internal_count=233 128 105 52 96 50 46 53
is_linear=0
shrinkage=0.0426353


Tree=16
num_leaves=9
num_cat=0
split_feature=56 51 66 58 46 83 63 70
split_gain=0.194683 0.0212823 0.0154196 0.00385449 0.00264379 0.00168672 0.00148737 0.00130616
threshold=0.19770451020169952 0.039890119518824395 0.2129336504528723 0.033199263605385075 0.20989536078461926 0.26179506186888918 0.19808249860120888 0.067559451172364712
decision_type=2 2 2 2 2 2 2 2
left_child=1 3 4 -1 -2 7 -6 -3
right_child=2 5 -4 -5 6 -7 -8 -9
leaf_value=0.0013323691481510794 -0.0013655750534787561 0.00077592930222508661 -0.00065658657798038417 0.0021017425056938221 -0.0017294090737814238 0.00099505424449437287 -0.0022108086865295631 0.00036996880848158336
leaf_weight=20 22 25 35 29 28 20 20 34
leaf_count=20 22 25 35 29 28 20 20 34
internal_value=-2.65521e-05 0.00108966 -0.00138726 0.00178771 -0.0017526 0.000656687 -0.00192999 0.000541986
internal_weight=233 128 105 49 70 79 48 59
internal_count=233 128 105 49 70 79 48 59
is_linear=0
shrinkage=0.0426353


Tree=17
num_leaves=9
num_cat=0
split_feature=56 62 66 89 86 83 41 70
split_gain=0.178436 0.0202745 0.0143916 0.00441 0.00330641 0.00180402 0.000952311 0.000801888
threshold=0.19770451020169952 0.20873691149246501 0.21888274362318225 -0.66800096698907885 0.150853080993158 0.26179506186888918 0.20217469528562984 0.067559451172364712
decision_type=2 2 2 2 2 2 2 2
left_child=1 -1 3 6 -3 7 -2 -6
right_child=2 4 -4 -5 5 -7 -8 -9
leaf_value=0.0019725949203177073 -0.0016347460862796029 0.0012211595033613152 -0.00035859727823388975 -0.001172026322458062 0.00067415877481433379 0.00095262977777053155 -0.0019962628765195323 0.00034621466127391455
leaf_weight=32 26 20 22 30 23 20 27 33
leaf_count=32 26 20 22 30 23 20 27 33
internal_value=-2.542e-05 0.0010432 -0.00132812 -0.0015851 0.000733401 0.000605044 -0.00181892 0.000480906
internal_weight=233 128 105 83 96 76 53 56
internal_count=233 128 105 83 96 76 53 56
is_linear=0
shrinkage=0.0426353


Tree=18
num_leaves=9
num_cat=0
split_feature=56 62 66 68 36 93 83 70
split_gain=0.163545 0.0185825 0.0131906 0.00410293 0.00304993 0.00178087 0.00170436 0.000663993
threshold=0.19770451020169952 0.20873691149246501 0.21888274362318225 -0.18018133772224038 0.080730935074561166 0.23744380831489068 0.26179506186888918 0.067559451172364712
decision_type=2 2 2 2 2 2 2 2
left_child=1 -1 3 5 -3 -2 7 -6
right_child=2 4 -4 -5 6 -7 -8 -9
leaf_value=0.0018884925975025787 -0.0014227032449935194 0.0011562829888938444 -0.00034330834456704077 -0.0010973919010719133 0.00063384179739980765 -0.0019220675972792768 0.00091201408590117739 0.00033145368906434058
leaf_weight=32 21 21 22 28 22 34 20 33
leaf_count=32 21 21 22 28 22 34 20 33
internal_value=-2.43362e-05 0.000998722 -0.00127149 -0.00151752 0.000702132 -0.0017314 0.00057497 0.000452409
internal_weight=233 128 105 83 96 55 75 55
internal_count=233 128 105 83 96 55 75 55
is_linear=0
shrinkage=0.0426353


Tree=19
num_leaves=9
num_cat=0
split_feature=56 62 66 89 77 68 70 63
split_gain=0.149897 0.0170318 0.0120898 0.00376152 0.00285819 0.00204983 0.000931213 0.000905618
threshold=0.19770451020169952 0.20873691149246501 0.21888274362318225 -0.66800096698907885 0.060755311502951069 -0.10151115955717534 0.067559451172364712 0.20647856701176376
decision_type=2 2 2 2 2 2 2 2
left_child=1 -1 3 7 6 -6 -3 -2
right_child=2 4 -4 -5 5 -7 -8 -9
leaf_value=0.0018079760908511601 -0.0015202909090559704 0.00061331806437495975 -0.00032867127278206196 -0.0010713229395263397 0.0012296759480942955 0.00067244094642498055 0.00022929595495223241 -0.001877965454048108
leaf_weight=32 31 24 22 30 20 30 22 22
leaf_count=32 31 24 22 30 20 30 22 22
internal_value=-2.32987e-05 0.000956142 -0.00121728 -0.00145282 0.000672197 0.000895335 0.000429655 -0.00166876
internal_weight=233 128 105 83 96 50 46 53
internal_count=233 128 105 83 96 50 46 53
is_linear=0
shrinkage=0.0426353


Tree=20
num_leaves=9
num_cat=0
split_feature=62 62 88 36 68 93 83 69
split_gain=0.141972 0.0180423 0.0125432 0.00338758 0.00191553 0.00147235 0.00136963 0.000791838
threshold=0.2800893879451905 0.20873691149246501 -0.17735345290994389 0.078983918360800195 -0.18018133772224038 0.23744380831489068 0.25533791710672166 -0.84555350183443678
decision_type=2 2 2 2 2 2 2 2
left_child=1 -1 -2 -3 5 -4 7 -5
right_child=2 3 4 6 -6 -7 -8 -9
leaf_value=0.0017438100435113037 -0.00044259408931681478 0.0010841614418658021 -0.0012989351198713179 0.00019883692448334893 -0.001082576546601232 -0.0017356379477606924 0.00079649307057839676 0.00051009482692810834
leaf_weight=34 32 22 23 24 20 36 20 39
leaf_count=34 32 22 23 24 20 36 20 39
internal_value=-1.77451e-05 0.000890192 -0.00115471 0.000613783 -0.00144316 -0.0015654 0.000489104 0.00039152
internal_weight=250 139 111 105 79 59 83 63
internal_count=250 139 111 105 79 59 83 63
is_linear=0
shrinkage=0.0426353


Tree=21
num_leaves=9
num_cat=0
split_feature=56 62 66 77 68 93 69 68
split_gain=0.130124 0.0165366 0.0115761 0.00330128 0.00263096 0.00130208 0.00127027 0.00114464
threshold=0.19770451020169952 0.20873691149246501 0.21838829324968073 0.061044230305065762 -0.18018133772224038 0.23744380831489068 -0.82052155989735254 -0.040059650890335023
decision_type=2 2 2 2 2 2 2 2
left_child=1 -1 4 6 5 -2 -3 -5
right_child=2 3 -4 7 -6 -7 -8 -9
leaf_value=0.0016694621362275635 -0.0012435545697954734 9.1555432737559761e-05 -0.0002979320646368241 0.0010369989323752401 -0.00098199892312657191 -0.0016520617979559535 0.0005153409354289436 0.00062409193951467462
leaf_weight=34 23 20 25 26 26 37 36 23
leaf_count=34 23 20 25 26 26 37 36 23
internal_value=-1.69885e-05 0.000852239 -0.00110548 0.000587614 -0.00134023 -0.00149547 0.000363989 0.000843185
internal_weight=250 139 111 105 86 60 56 49
internal_count=250 139 111 105 86 60 56 49
is_linear=0
shrinkage=0.0426353


Tree=22
num_leaves=10
num_cat=0
split_feature=56 62 67 51 68 77 83 59 51
split_gain=0.119271 0.0147041 0.0115421 0.00275824 0.0024114 0.00120825 0.000977681 0.000902895 0.000499929
threshold=0.19499948910872741 0.20873691149246501 0.04660193595957015 0.039890119518824395 -0.18018133772224038 0.066460152030270045 0.25533791710672166 -0.080771116128938183 0.06262313388710089
decision_type=2 2 2 2 2 2 2 2 2
left_child=1 -1 -2 -3 5 -4 7 8 -5
right_child=2 3 4 6 -6 -7 -8 -9 -10
leaf_value=0.0015982840244151376 -0.00027262952279451252 0.0010251804686909913 -0.0012700082719441373 0.00041202715670712788 -0.00094013107429031064 -0.0016580866314870955 0.00072712374413120293 0.00060531192247791326 0.0001141815281415184
leaf_weight=34 27 20 35 21 26 25 20 22 20
leaf_count=34 27 20 35 21 26 25 20 22 20
internal_value=-1.62642e-05 0.000829495 -0.00104165 0.00057572 -0.00128309 -0.00143171 0.000467416 0.000384969 0.000266737
internal_weight=250 137 113 103 86 60 83 63 41
internal_count=250 137 113 103 86 60 83 63 41
is_linear=0
shrinkage=0.0426353


Tree=23
num_leaves=9
num_cat=0
split_feature=56 51 88 69 56 68 93 69
split_gain=0.109339 0.0127445 0.00975141 0.00250579 0.00149275 0.00144522 0.00120501 0.00106764
threshold=0.19770451020169952 0.039890119518824395 -0.17735345290994389 -0.63230882837248792 0.12645214807089802 -0.18018133772224038 0.23744380831489068 -0.82052155989735254
decision_type=2 2 2 2 2 2 2 2
left_child=1 3 -2 -1 -3 6 -4 -6
right_child=2 4 5 -5 7 -7 -8 -9
leaf_value=0.001543252569369697 -0.00038546019113592492 0.00070295736649200638 -0.0011327910371425538 0.00093490253441057324 8.4432950296072702e-05 -0.00095446987172576395 -0.0015278628090050035 0.00047295027598955595
leaf_weight=32 32 31 23 20 20 20 36 36
leaf_count=32 32 31 23 20 20 20 36 36
internal_value=-1.55708e-05 0.000781214 -0.00101335 0.00130927 0.000465592 -0.00126768 -0.00137385 0.000334194
internal_weight=250 139 111 52 87 79 59 56
internal_count=250 139 111 52 87 79 59 56
is_linear=0
shrinkage=0.0426353


Tree=24
num_leaves=9
num_cat=0
split_feature=62 62 66 36 89 90 69 41
split_gain=0.100214 0.0128113 0.0090331 0.00258365 0.00201208 0.00111317 0.000804834 0.000654
threshold=0.2800893879451905 0.20873691149246501 0.21888274362318225 0.078983918360800195 -0.66800096698907885 0.41814011235761545 -0.82052155989735254 0.20217469528562984
decision_type=2 2 2 2 2 2 2 2
left_child=1 -1 4 -3 7 6 -5 -2
right_child=2 3 -4 5 -6 -7 -8 -9
leaf_value=0.0014672138091055243 -0.001154077197396651 0.00092577756446839674 -0.00023785557807994769 8.0833123666345871e-05 -0.00086649961195291007 0.00063096938588345778 0.00041815979597046432 -0.0014370178692405789
leaf_weight=34 27 22 24 20 27 27 36 33
leaf_count=34 27 22 24 20 27 27 36 33
internal_value=-1.49069e-05 0.000747906 -0.000970141 0.000514988 -0.00117215 0.000406103 0.000297686 -0.00130969
internal_weight=250 139 111 105 87 83 56 60
internal_count=250 139 111 105 87 83 56 60
is_linear=0
shrinkage=0.0426353


Tree=25
num_leaves=9
num_cat=0
split_feature=56 51 66 68 46 55 65 87
split_gain=0.09117 0.0116537 0.00764947 0.00207946 0.00198013 0.00139682 0.0012647 0.00029892
threshold=0.19499948910872741 0.039890119518824395 0.22040142929336809 -0.18018133772224038 0.067968658612560087 0.10305946748216473 0.14872606980968803 0.075873977323470357
decision_type=2 2 2 2 2 2 2 2
left_child=1 4 3 6 -1 -3 -2 -7
right_child=2 5 -4 -5 -6 7 -8 -9
leaf_value=0.0015225078795360583 -0.0010646329560699747 0.00069873567161284934 -0.00019645200213477067 -0.00083375622953435263 0.00099107925003749458 0.00020111757249651155 -0.0014812463254231223 0.00040299047703554235
leaf_weight=26 27 25 21 32 25 24 26 30
leaf_count=26 27 25 21 32 25 24 26 30
internal_value=2.898e-06 0.000759593 -0.000925124 -0.00110515 0.001262 0.000435252 -0.00126901 0.000313269
internal_weight=236 130 106 85 51 79 53 54
internal_count=236 130 106 85 51 79 53 54
is_linear=0
shrinkage=0.0426353


Tree=26
num_leaves=9
num_cat=0
split_feature=56 51 66 68 46 55 65 63
split_gain=0.0835616 0.0106812 0.0070111 0.00190593 0.00181488 0.00128025 0.00115916 0.000280844
threshold=0.19499948910872741 0.039890119518824395 0.22040142929336809 -0.18018133772224038 0.067968658612560087 0.10305946748216473 0.14872606980968803 0.17617508513608307
decision_type=2 2 2 2 2 2 2 2
left_child=1 4 3 6 -1 -3 -2 -7
right_child=2 5 -4 -5 -6 7 -8 -9
leaf_value=0.0014575952462347024 -0.001019241965888997 0.00066894483601626087 -0.00018807621100816867 -0.00079820876541290722 0.0009488242245128248 0.00017802707484806065 -0.0014180928794818414 0.00037747651753754007
leaf_weight=26 27 25 21 32 25 21 26 33
leaf_count=26 27 25 21 32 25 21 26 33
internal_value=2.77444e-06 0.000727208 -0.000885681 -0.00105803 0.0012082 0.000416695 -0.0012149 0.000299913
internal_weight=236 130 106 85 51 79 53 54
internal_count=236 130 106 85 51 79 53 54
is_linear=0
shrinkage=0.0426353


Tree=27
num_leaves=9
num_cat=0
split_feature=62 51 67 68 59 55 73 35
split_gain=0.0765129 0.0102126 0.005824 0.00183061 0.00170174 0.00128268 0.000964165 0.000282233
threshold=0.2800893879451905 0.039890119518824395 0.04660193595957015 -0.18018133772224038 -0.60658036267104987 0.10305946748216473 0.16182457086656413 0.13220120403108684
decision_type=2 2 2 2 2 2 2 2
left_child=1 4 -2 6 -1 -3 -4 -7
right_child=2 5 3 -5 -6 7 -8 -9
leaf_value=0.0008500682400367002 -0.00020834926242582595 0.00064042413573637549 -0.0010288935863279052 -0.00076417686161246137 0.0013545035321748077 0.00036224156168615881 -0.0014062547792597641 0.000170321636964848
leaf_weight=20 20 25 32 32 31 30 20 26
leaf_count=20 20 25 32 32 31 30 20 26
internal_value=2.65615e-06 0.00068407 -0.000862215 -0.0010179 0.00115669 0.000386496 -0.00117403 0.000273136
internal_weight=236 132 104 84 51 81 52 56
internal_count=236 132 104 84 51 81 52 56
is_linear=0
shrinkage=0.0426353


Tree=28
num_leaves=9
num_cat=0
split_feature=62 51 66 68 46 55 65 68
split_gain=0.0701276 0.00936034 0.00533797 0.00167784 0.00163821 0.00117563 0.000912988 0.000253715
threshold=0.2800893879451905 0.039890119518824395 0.21838829324968073 -0.18018133772224038 0.067968658612560087 0.10305946748216473 0.14872606980968803 -0.18018133772224038
decision_type=2 2 2 2 2 2 2 2
left_child=1 4 3 6 -1 -3 -2 -7
right_child=2 5 -4 -5 -6 7 -8 -9
leaf_value=0.0013443179112066067 -0.00094532816884603454 0.00061311942818178795 -0.0001994662261295994 -0.00073159589394813549 0.00086094432160853265 0.00034008291570449656 -0.0013026262770781548 0.00015670093518594346
leaf_weight=26 26 25 20 32 25 32 26 24
leaf_count=26 26 25 20 32 25 32 26 24
internal_value=2.54291e-06 0.000654904 -0.000825454 -0.000974499 0.00110737 0.000370018 -0.00112398 0.000261491
internal_weight=236 132 104 84 51 81 52 56
internal_count=236 132 104 84 51 81 52 56
is_linear=0
shrinkage=0.0426353


Tree=29
num_leaves=9
num_cat=0
split_feature=56 62 66 70 68 65 83 70
split_gain=0.0644091 0.00820637 0.00539478 0.00255269 0.00147236 0.000914112 0.000885533 0.000279859
threshold=0.19499948910872741 0.20873691149246501 0.22040142929336809 0.009567597440023003 -0.18018133772224038 0.14872606980968803 0.25938280858618412 0.064498572651897526
decision_type=2 2 2 2 2 2 2 2
left_child=1 -1 4 -3 5 -2 7 -5
right_child=2 3 -4 6 -6 -7 -8 -9
leaf_value=0.0012076578854524627 -0.00089289632730084085 0.00086543110769494948 -0.0001656539798543377 0.00035558954480098217 -0.00070040406427514257 -0.0012470883642786386 0.00056760055791746855 0.00016043320993314896
leaf_weight=34 27 20 21 22 32 26 20 34
leaf_count=34 27 20 21 22 32 26 20 34
internal_value=2.43449e-06 0.000638452 -0.000777586 0.000436858 -0.00092877 -0.00106665 0.000324075 0.000237102
internal_weight=236 130 106 96 85 53 76 56
internal_count=236 130 106 96 85 53 76 56
is_linear=0
shrinkage=0.0426353


Tree=30
num_leaves=9
num_cat=0
split_feature=56 41 66 67 51 86 55 37
split_gain=0.0543579 0.0084512 0.00425387 0.00342421 0.00112643 0.000776581 0.000743396 0.000727841
threshold=0.19770451020169952 0.051075607418970027 0.21838829324968073 0.065486234263909246 0.15306034679328243 0.15919994372622018 0.17352068352671568 0.011705976391144127
decision_type=2 2 2 2 2 2 2 2
left_child=1 -1 4 5 -2 6 -3 -6
right_child=2 3 -4 -5 7 -7 -8 -9
leaf_value=0.0012991560683258945 -0.00064553610024449179 -2.2609985594980822e-05 -0.00023355172039821412 0.00090511273815770035 -0.001143433665080009 0.00043486594419014479 0.0003087436104592882 -0.00083868106532856317
leaf_weight=23 24 20 23 20 29 38 32 28
leaf_count=23 24 20 23 20 29 38 32 28
internal_value=-1.50711e-05 0.000555905 -0.000745262 0.000400498 -0.000890562 0.000288361 0.0001813 -0.000993731
internal_weight=237 133 104 110 81 90 52 57
internal_count=237 133 104 110 81 90 52 57
is_linear=0
shrinkage=0.0426353


Tree=31
num_leaves=10
num_cat=0
split_feature=87 41 66 67 83 46 78 40 46
split_gain=0.049847 0.00756312 0.00431148 0.00303698 0.00116403 0.00106241 0.000775303 0.000668847 0.000354015
threshold=0.081683556010875569 0.051075607418970027 0.2197682309817002 0.065486234263909246 0.11678477968232694 0.16953336245093495 -0.30794149753683225 0.012587027092974077 0.17762872684318856
decision_type=2 2 2 2 2 2 2 2 2
left_child=1 -1 4 5 7 6 -3 -2 -7
right_child=2 3 -4 -5 -6 8 -8 -9 -10
leaf_value=0.0012437660989975913 -0.00084626028401920338 0.0002940752881318879 -0.00018526880361336776 0.00086652296550170202 -0.00066251265161713382 0.00057360992178881508 -5.3486580019136821e-05 -0.0011715611598572236 0.0003199333080179247
leaf_weight=23 27 28 23 20 36 20 20 20 20
leaf_count=23 27 28 23 20 36 20 20 20 20
internal_value=-1.44286e-05 0.000541773 -0.00070181 0.000392275 -0.000844948 0.000284491 0.000149258 -0.000984686 0.000446772
internal_weight=237 131 106 108 83 88 48 47 40
internal_count=237 131 106 108 83 88 48 47 40
is_linear=0
shrinkage=0.0426353


Tree=32
num_leaves=10
num_cat=0
split_feature=56 41 66 67 83 46 37 78 46
split_gain=0.0456872 0.00693196 0.00395168 0.00278354 0.00106688 0.000973751 0.000769718 0.000710602 0.000324471
threshold=0.19499948910872741 0.051075607418970027 0.2197682309817002 0.065486234263909246 0.11678477968232694 0.16953336245093495 0.012463325176959557 -0.30794149753683225 0.17762872684318856
decision_type=2 2 2 2 2 2 2 2 2
left_child=1 -1 4 5 6 7 -2 -3 -7
right_child=2 3 -4 -5 -6 8 -8 -9 -10
leaf_value=0.0011907377171876759 -0.0011189535061533458 0.00028153729044334841 -0.00017736979887445761 0.00082957845792177426 -0.00063426619510443844 0.00054915386145676023 -0.00077379776032887625 -5.1206162773397379e-05 0.00030629283703503861
leaf_weight=23 23 28 23 20 36 20 24 20 20
leaf_count=23 23 28 23 20 36 20 24 20 20
internal_value=-1.38134e-05 0.000518675 -0.000671888 0.00037555 -0.000808924 0.000272362 -0.000942704 0.000142894 0.000427723
internal_weight=237 131 106 108 83 88 47 48 40
internal_count=237 131 106 108 83 88 47 48 40
is_linear=0
shrinkage=0.0426353


Tree=33
num_leaves=9
num_cat=0
split_feature=87 62 67 31 51 63 83 79
split_gain=0.0418744 0.0054534 0.00362215 0.00182991 0.000899672 0.000650497 0.000645642 0.000586923
threshold=0.081683556010875569 0.20873691149246501 0.046901045860124786 0.43587844204884568 0.15306034679328243 0.2132281148223196 0.25533791710672166 -0.61439644547828032
decision_type=2 2 2 2 2 2 2 2
left_child=1 -1 -2 -3 -4 -6 7 -5
right_child=2 3 4 6 5 -7 -8 -9
leaf_value=0.0010364474507517409 -0.00019462853840636219 0.00072291373531159389 -0.0005627248324928608 5.6654723189329517e-05 -0.00076801105632462886 -0.0010698075119764882 0.00048057913794511613 0.00031692229167831282
leaf_weight=27 25 20 24 28 37 20 20 36
leaf_count=27 25 20 24 28 37 20 20 36
internal_value=-1.32245e-05 0.000496561 -0.000643242 0.000356398 -0.000781703 -0.000873905 0.000269132 0.000203055
internal_weight=237 131 106 104 81 57 84 64
internal_count=237 131 106 104 81 57 84 64
is_linear=0
shrinkage=0.0426353


Tree=34
num_leaves=9
num_cat=0
split_feature=62 41 66 67 83 37 57 55
split_gain=0.0383896 0.00615881 0.00301202 0.00249121 0.000932117 0.00068405 0.000525549 0.000794178
threshold=0.2800893879451905 0.051075607418970027 0.2197682309817002 0.065486234263909246 0.11678477968232694 0.012463325176959557 0.056650947385263828 0.16902483826712081
decision_type=2 2 2 2 2 2 2 2
left_child=1 -1 4 6 5 -2 7 -3
right_child=2 3 -4 -5 -6 -7 -8 -9
leaf_value=0.0011016655420877936 -0.0010329076957800646 -5.513101062233685e-05 -0.00017014307125980531 0.00076492190219516689 -0.00057845590777223397 -0.00070752608093445086 0.0003775679342990133 0.00027679086037262488
leaf_weight=23 23 20 21 20 36 24 32 38
leaf_count=23 23 20 21 20 36 24 32 38
internal_value=-1.26606e-05 0.000467176 -0.000626297 0.000334509 -0.00074171 -0.000866755 0.000238862 0.000162335
internal_weight=237 133 104 110 83 47 90 58
internal_count=237 133 104 110 83 47 90 58
is_linear=0
shrinkage=0.0426353


Tree=35
num_leaves=8
num_cat=0
split_feature=87 62 27 83 90 55 42
split_gain=0.0351726 0.00555508 0.00137393 0.00107639 0.000796629 0.000403939 0.000288713
threshold=0.083191217132513151 0.20873691149246501 87.500794941830364 0.12382193800906847 0.25048645953109416 0.18970380086107602 0.18616118963098618
decision_type=2 2 2 2 2 2 2
left_child=1 -1 4 5 -3 -2 -6
right_child=3 2 -4 -5 6 -7 -8
leaf_value=0.00090696781853720032 -0.00073269146091383991 0.00060038843316105432 5.8573207645271836e-05 -0.00052258363996522368 0.00022148319100598793 -0.00098549309935046735 0.0004207255059136378
leaf_weight=31 27 20 39 33 39 20 20
leaf_count=31 27 20 39 33 39 20 20
internal_value=1.18895e-05 0.000399064 0.000265631 -0.000709222 0.00036785 -0.000840267 0.000289023
internal_weight=229 149 118 80 79 47 59
internal_count=229 149 118 80 79 47 59
is_linear=0
shrinkage=0.0426353


Tree=36
num_leaves=8
num_cat=0
split_feature=62 62 66 49 39 44 53
split_gain=0.030594 0.00433409 0.00287444 0.00101577 0.000773989 0.000530638 0.000327191
threshold=0.2800893879451905 0.20873691149246501 0.2129336504528723 0.69250711795723208 -0.56110223443757612 0.22576226376456446 0.13646983899950604
decision_type=2 2 2 2 2 2 2
left_child=1 -1 5 6 -5 -2 -3
right_child=2 3 -4 4 -6 -7 -8
leaf_value=0.00086829893060010022 -0.0006253656049340098 0.0003018558548885533 -0.00023692154898519318 0.00028894903098579947 0.00064173752332061219 -0.0008719842847744767 9.2028403748774641e-05
leaf_weight=31 35 22 31 26 20 29 35
leaf_count=31 35 22 31 26 20 29 35
internal_value=1.13826e-05 0.000426317 -0.000573894 0.000293294 0.000442335 -0.000737115 0.000173014
internal_weight=229 134 95 103 46 64 57
internal_count=229 134 95 103 46 64 57
is_linear=0
shrinkage=0.0426353


Tree=37
num_leaves=9
num_cat=0
split_feature=87 62 49 83 37 40 48 53
split_gain=0.029707 0.00464737 0.00136644 0.000913913 0.000664379 0.000560486 0.000455784 0.00023711
threshold=0.083191217132513151 0.20873691149246501 0.67051855331515253 0.12382193800906847 0.021198857495715387 0.012587027092974077 0.16238775951274528 0.17010111924492158
decision_type=2 2 2 2 2 2 2 2
left_child=1 -1 6 5 -4 -2 7 -3
right_child=3 2 4 -5 -6 -7 -8 -9
leaf_value=0.00083127871170391224 -0.00064585456551572091 0.00028801276989248292 0.00028582398670819301 -0.00047984600569730968 0.00060756338988569283 -0.00094364040369680064 -2.6084094417116184e-05 9.2748968643920635e-05
leaf_weight=31 27 26 28 33 20 20 24 20
leaf_count=31 27 26 28 33 20 20 24 20
internal_value=1.08973e-05 0.00036672 0.000244675 -0.000651822 0.000419882 -0.000772572 0.000124533 0.000203115
internal_weight=229 149 118 80 48 47 70 46
internal_count=229 149 118 80 48 47 70 46
is_linear=0
shrinkage=0.0426353


Tree=38
num_leaves=9
num_cat=0
split_feature=87 62 49 83 39 57 40 49
split_gain=0.0272279 0.00425954 0.00125516 0.000837644 0.000687142 0.000589236 0.000513711 0.000283327
threshold=0.083191217132513151 0.20873691149246501 0.69250711795723208 0.12382193800906847 -0.56110223443757612 0.046293675228394442 0.012587027092974077 -1.0738432280225763
decision_type=2 2 2 2 2 2 2 2
left_child=1 -1 5 6 -4 -3 -2 -7
right_child=3 2 4 -5 -6 7 -8 -9
leaf_value=0.00079583687001288125 -0.00061831833404480709 -5.6328417113833511e-05 0.00025863983913651273 -0.00045938760765864423 0.00058654293510398124 9.3521360297477483e-05 -0.00090340796033778407 0.00030141255723233664
leaf_weight=31 27 23 26 33 21 22 20 26
leaf_count=31 27 23 26 33 21 22 20 26
internal_value=1.04327e-05 0.000351085 0.000234243 -0.000624032 0.00040515 0.000121108 -0.000739633 0.000206129
internal_weight=229 149 118 80 47 71 47 48
internal_count=229 149 118 80 47 71 47 48
is_linear=0
shrinkage=0.0426353


Tree=39
num_leaves=9
num_cat=0
split_feature=87 62 49 83 37 57 40 49
split_gain=0.0249557 0.00390407 0.00115042 0.000770029 0.000599354 0.000540891 0.000305999 0.000262649
threshold=0.083191217132513151 0.20873691149246501 0.69250711795723208 0.11678477968232694 0.019433444932305515 0.046492694163784161 0.012382266638736672 -1.0738432280225763
decision_type=2 2 2 2 2 2 2 2
left_child=1 -1 5 6 -4 -3 -2 -7
right_child=3 2 4 -5 -6 7 -8 -9
leaf_value=0.0007619060820890746 -0.00061464008860243578 -4.3682035344433875e-05 0.00025104475227431523 -0.00044744008877572485 0.00055728619619732373 9.1539871142100397e-05 -0.00083838374566716717 0.00029607001095411072
leaf_weight=31 25 25 26 35 21 21 20 25
leaf_count=31 25 25 26 35 21 21 20 25
internal_value=9.98785e-06 0.000336116 0.000224256 -0.000597426 0.000387876 0.000115944 -0.000714082 0.000202698
internal_weight=229 149 118 80 47 71 45 46
internal_count=229 149 118 80 47 71 45 46
is_linear=0
shrinkage=0.0426353


Tree=40
num_leaves=9
num_cat=0
split_feature=87 45 40 46 40 69 33 59
split_gain=0.0234946 0.00372143 0.00113551 0.0010786 0.000998212 0.000945597 0.000613695 0.000360813
threshold=0.083191217132513151 0.10305946748216473 0.007346477681980758 0.067968658612560087 -0.0081615961414101164 -0.50270849353712121 0.16611668078900502 -0.58751687518362627
decision_type=2 2 2 2 2 2 2 2
left_child=1 3 6 -1 -2 -6 -3 -4
right_child=4 2 7 -5 5 -7 -8 -9
leaf_value=0.00084205970042281917 -0.00028995301621974898 0.00042633677246585287 0.00012975861893913717 0.0004566586975380516 -0.00046594336147520824 -0.00079386867116744018 0.00016016591663591792 -0.00011467656824579438
leaf_weight=22 20 32 23 33 31 33 31 21
leaf_count=22 20 32 23 33 31 33 31 21
internal_value=2.57652e-05 0.000325798 0.000179291 0.000610819 -0.000552869 -0.00063503 0.000295364 1.30964e-05
internal_weight=246 162 107 55 84 64 63 44
internal_count=246 162 107 55 84 64 63 44
is_linear=0
shrinkage=0.0426353


Tree=41
num_leaves=10
num_cat=0
split_feature=87 45 50 83 37 46 40 31 40
split_gain=0.0215339 0.00341086 0.00107716 0.00165986 0.00101322 0.000988587 0.000958297 0.000408978 0.000386004
threshold=0.083191217132513151 0.10305946748216473 -0.020075458194390508 0.25938280858618412 0.010789127319646426 0.067968658612560087 0.0022498673098223067 0.46988083428303828 -0.010936690643623263
decision_type=2 2 2 2 2 2 2 2 2
left_child=1 5 8 7 -2 -1 -6 -4 -3
right_child=4 2 3 -5 6 -7 -8 -9 -10
leaf_value=0.00080615818342200714 -0.00070450207848637124 0.00044879401530904372 3.6893892937442399e-05 0.00036808860869860642 -0.00019527257983677863 0.00043718889267497309 -0.0005743471913989246 -0.00022919399809834417 0.00019518111465858216
leaf_weight=22 35 24 21 21 22 33 27 21 20
leaf_count=22 35 24 21 21 22 33 27 21 20
internal_value=2.46667e-05 0.000311907 0.000171647 5.85962e-05 -0.000529297 0.000584777 -0.00040415 -9.61501e-05 0.000333515
internal_weight=246 162 107 63 84 55 49 42 44
internal_count=246 162 107 63 84 55 49 42 44
is_linear=0
shrinkage=0.0426353


Tree=42
num_leaves=10
num_cat=0
split_feature=56 67 41 56 37 40 83 40 86
split_gain=0.0186086 0.00255239 0.00252144 0.00150293 0.000853906 0.000787672 0.000556007 0.000691592 0.000674447
threshold=0.19499948910872741 0.045390710705086879 0.051075607418970027 0.091589349133918516 0.010789127319646426 0.0022498673098223067 0.26179506186888918 -0.0064245342231923352 0.15687637864843401
decision_type=2 2 2 2 2 2 2 2 2
left_child=2 -2 -1 -4 -3 -6 7 -5 -9
right_child=1 4 3 6 5 -7 -8 8 -10
leaf_value=0.00073197922145110204 2.2036904518024527e-06 -0.00067446539543570042 0.00058632035795299286 0.00031758937991681259 -0.00020170552933278504 -0.00054985970696248333 0.00038749646363130683 0.00017079883247521921 -0.00014883530347589919
leaf_weight=25 22 35 21 25 21 27 20 30 20
leaf_count=25 22 35 21 25 21 27 20 30 20
internal_value=2.3615e-05 -0.000406094 0.000343611 0.000259911 -0.000514317 -0.000397542 0.000187757 0.000134493 4.29452e-05
internal_weight=246 105 141 116 83 48 95 75 50
internal_count=246 105 141 116 83 48 95 75 50
is_linear=0
shrinkage=0.0426353


Tree=43
num_leaves=10
num_cat=0
split_feature=56 40 41 83 56 77 46 79 88
split_gain=0.0170557 0.002382 0.00231102 0.00191063 0.00138639 0.000652133 0.000559338 0.000348519 0.00027844
threshold=0.19499948910872741 -0.01964571655774169 0.051075607418970027 0.12382193800906847 0.09443420383957167 0.060698884742078817 0.17038025021453126 -0.63493942681276938 -0.10812577196688675
decision_type=2 2 2 2 2 2 2 2 2
left_child=2 -2 -1 8 -4 -5 7 -6 -3
right_child=1 3 4 5 6 -7 -8 -9 -10
leaf_value=0.00070077104809647634 2.9859813303986752e-05 -0.00058588707151779581 0.00053741359559443883 -0.00045895406212844244 -4.4124288863472265e-05 -0.00012256944360517839 0.00030171868648611673 0.00017495230551585101 -0.00080340280772124551
leaf_weight=25 20 23 24 20 22 22 37 33 20
leaf_count=25 20 23 24 20 22 22 37 33 20
internal_value=2.26082e-05 -0.00038878 0.000328961 -0.000487283 0.000248829 -0.000282753 0.000173547 8.73217e-05 -0.000687057
internal_weight=246 105 141 85 116 42 92 55 43
internal_count=246 105 141 85 116 42 92 55 43
is_linear=0
shrinkage=0.0426353


Tree=44
num_leaves=10
num_cat=0
split_feature=87 53 46 42 40 40 60 50 58
split_gain=0.0166382 0.00268831 0.000974038 0.000902192 0.000840211 0.000734974 0.000717626 0.000288363 0.000260739
threshold=0.083191217132513151 0.13646983899950604 0.067968658612560087 0.1337709631418787 0.007346477681980758 -0.0081615961414101164 0.062331128787523914 -0.023630471404207102 -0.17285948553226746
decision_type=2 2 2 2 2 2 2 2 2
left_child=1 2 -1 -4 7 -2 -7 -3 -8
right_child=5 4 3 -5 -6 6 8 -9 -10
leaf_value=0.00069058404709607514 -0.00023969230844772429 0.00033586125054009108 0.0001574365961641043 0.00051235844719026168 -5.3948057184137395e-05 -0.00074755194872480125 -0.00054332774308997586 0.00013263982233263627 -0.00033575218444944739
leaf_weight=23 20 22 23 30 34 20 22 30 22
leaf_count=23 20 22 23 30 34 20 22 30 22
internal_value=2.16443e-05 0.00027413 0.000458885 0.000358336 0.000110859 -0.000465293 -0.000535794 0.000218618 -0.00043954
internal_weight=246 162 76 53 86 84 64 52 44
internal_count=246 162 76 53 86 84 64 52 44
is_linear=0
shrinkage=0.0426353


Tree=45
num_leaves=10
num_cat=0
split_feature=56 51 88 59 68 49 37 42 68
split_gain=0.0147489 0.00185935 0.00174836 0.000776974 0.000538254 0.000534458 0.000448165 0.000508516 0.000377416
threshold=0.19499948910872741 0.039890119518824395 -0.18918538449447825 -0.5312560765751283 -0.18018133772224038 -0.44565401909339664 0.0098384955538409879 0.19967296497462941 -0.18911388438672325
decision_type=2 2 2 2 2 2 2 2 2
left_child=1 3 -2 -1 5 -4 -3 8 -8
right_child=2 6 4 -5 -6 -7 7 -9 -10
leaf_value=0.00035402941961473045 -0.00010228035586083565 0.00033903456187130062 -0.00041014002944957952 0.00070480965643440058 -0.00032613199244570663 -0.00069323461253804355 0.0001656071075294514 0.00028984125516667966 -9.6319816659910118e-05
leaf_weight=24 31 25 22 22 26 27 20 22 20
leaf_count=24 31 25 22 22 26 27 20 22 20
internal_value=3.5569e-06 0.000302561 -0.000371609 0.000521794 -0.000482931 -0.000566131 0.000186645 0.000125198 3.46436e-05
internal_weight=239 133 106 46 75 49 87 62 40
internal_count=239 133 106 46 75 49 87 62 40
is_linear=0
shrinkage=0.0426353


Tree=46
num_leaves=9
num_cat=0
split_feature=56 41 88 56 46 87 88 28
split_gain=0.013518 0.00199569 0.00160246 0.000991423 0.000433359 0.000426202 0.000390599 0.000297784
threshold=0.19499948910872741 0.051075607418970027 -0.18918538449447825 0.095912116160413716 0.16990574354084026 0.075873977323470357 -0.10526893702518772 4.9246851125186382
decision_type=2 2 2 2 2 2 2 2
left_child=1 -1 -2 -3 5 -5 7 -4
right_child=2 3 6 4 -6 -7 -8 -9
leaf_value=0.00062470086491032636 -9.79195944126679e-05 0.00047088154899450348 -0.00030048272828549536 -9.0460379116862386e-05 0.00025425800180008216 0.0001653754743759664 -0.00061336021415709166 -0.00050264011423154301
leaf_weight=26 31 21 27 20 37 29 22 26
leaf_count=26 31 21 27 20 37 29 22 26
internal_value=3.40524e-06 0.000289661 -0.000355765 0.00020825 0.000144119 6.09527e-05 -0.000462341 -0.000399654
internal_weight=239 133 106 107 86 49 75 53
internal_count=239 133 106 107 86 49 75 53
is_linear=0
shrinkage=0.0426353


Tree=47
num_leaves=9
num_cat=0
split_feature=56 41 88 56 68 90 46 87
split_gain=0.0123899 0.00182915 0.00146873 0.000908686 0.000478798 0.000488937 0.000397194 0.000390634
threshold=0.19499948910872741 0.051075607418970027 -0.18918538449447825 0.095912116160413716 -0.18018133772224038 0.29108966578443263 0.16990574354084026 0.075873977323470357
decision_type=2 2 2 2 2 2 2 2
left_child=1 -1 -2 -3 5 -4 7 -5
right_child=2 3 4 6 -6 -7 -8 -9
leaf_value=0.00059806653848066031 -9.3744760244662378e-05 0.00045080535497402612 -0.00067029924626199405 -8.6603568124997131e-05 -0.00029474341335078034 -0.00039952899874043005 0.00024341762944968449 0.00015832463246186922
leaf_weight=26 31 21 22 20 26 27 37 29
leaf_count=26 31 21 22 20 26 27 37 29
internal_value=3.26006e-06 0.000277312 -0.000340597 0.000199371 -0.000442629 -0.000521099 0.000137974 5.83539e-05
internal_weight=239 133 106 107 75 49 86 49
internal_count=239 133 106 107 75 49 86 49
is_linear=0
shrinkage=0.0426353


Tree=48
num_leaves=9
num_cat=0
split_feature=56 41 88 56 68 49 46 87
split_gain=0.0113559 0.0016765 0.00134616 0.000832854 0.000438841 0.000484752 0.000364047 0.000358034
threshold=0.19499948910872741 0.051075607418970027 -0.18918538449447825 0.095912116160413716 -0.18018133772224038 -0.44565401909339664 0.16990574354084026 0.075873977323470357
decision_type=2 2 2 2 2 2 2 2
left_child=1 -1 -2 -3 5 -4 7 -5
right_child=2 3 4 6 -6 -7 -8 -9
leaf_value=0.00057256775977420607 -8.9747918249321489e-05 0.0004315851090697798 -0.00035032207620670671 -8.2911196809803961e-05 -0.00028217692097893616 -0.00061993094782320098 0.00023303943061964461 0.00015157440806675497
leaf_weight=26 31 21 22 20 26 27 37 29
leaf_count=26 31 21 22 20 26 27 37 29
internal_value=3.12107e-06 0.000265488 -0.000326076 0.000190871 -0.000423758 -0.000498882 0.000132092 5.5866e-05
internal_weight=239 133 106 107 75 49 86 49
internal_count=239 133 106 107 75 49 86 49
is_linear=0
shrinkage=0.0426353


Tree=49
num_leaves=9
num_cat=0
split_feature=56 41 67 56 37 93 75 70
split_gain=0.0104083 0.00153659 0.00109554 0.00076335 0.000624411 0.000480084 0.000338504 0.000507093
threshold=0.19499948910872741 0.051075607418970027 0.045390710705086879 0.095912116160413716 0.012463325176959557 0.23214523875070492 0.25938280858618412 0.064498572651897526
decision_type=2 2 2 2 2 2 2 2
left_child=1 -1 -2 -3 5 -4 7 -5
right_child=2 3 4 6 -6 -7 -8 -9
leaf_value=0.00054815613160755347 -5.8817141550092647e-05 0.00041318433118272592 -0.00035853411201233445 0.00019454737182837418 -0.00025333413068380912 -0.00063426815635226057 0.00028011951715428793 -4.1920030578297752e-05
leaf_weight=26 24 21 24 34 36 22 20 32
leaf_count=26 24 21 24 34 36 22 20 32
internal_value=2.988e-06 0.000254169 -0.000312173 0.000182733 -0.000386326 -0.000490407 0.00012646 7.98965e-05
internal_weight=239 133 106 107 82 46 86 66
internal_count=239 133 106 107 82 46 86 66
is_linear=0
shrinkage=0.0426353


Tree=50
num_leaves=9
num_cat=0
split_feature=56 41 89 60 56 63 70 37
split_gain=0.0106086 0.00199285 0.00131779 0.000874506 0.000571575 0.000428928 0.00026721 0.000327349
threshold=0.19499948910872741 0.051075607418970027 -0.66800096698907885 0.089744245391938995 0.095912116160413716 0.20647856701176376 0.064498572651897526 0.009874294304819984
decision_type=2 2 2 2 2 2 2 2
left_child=1 -1 5 -4 -3 -2 -6 -8
right_child=2 4 3 -5 6 -7 7 -9
leaf_value=0.00055316816726414442 -0.00038411815099097561 0.00035594426198327976 3.1222464857559103e-05 -0.00033274322513044893 0.00019829609721956968 -0.00063367713941014166 0.00017857202087859369 -3.8063001493147665e-05
leaf_weight=29 31 21 21 28 36 21 21 32
leaf_count=29 31 21 21 28 36 21 21 32
internal_value=-2.86941e-06 0.000238758 -0.000335406 -0.000176758 0.000155868 -0.000484902 0.000108659 4.77735e-05
internal_weight=240 139 101 49 110 52 89 53
internal_count=240 139 101 49 110 52 89 53
is_linear=0
shrinkage=0.0426353


Tree=51
num_leaves=10
num_cat=0
split_feature=87 36 75 63 70 45 50 79 90
split_gain=0.0100755 0.00169968 0.00134917 0.000608826 0.000388202 0.000383528 0.000352535 0.0003474 0.000321172
threshold=0.082317200799998699 0.080730935074561166 0.14706269082528156 0.20647856701176376 0.15128817269585701 0.11415145004300141 -0.023630471404207102 -0.75850384377822033 0.42419661798178371
decision_type=2 2 2 2 2 2 2 2 2
left_child=1 7 3 -2 -4 -3 -7 -1 -8
right_child=2 5 4 -5 -6 6 8 -9 -10
leaf_value=0.00058378439189788617 -0.00035253177787130242 0.00026274823230978842 -1.5526159543080678e-05 -0.0006347539273665921 -0.00028116920758889345 0.00019824932891592196 -9.6312439770832742e-05 0.00033549854027226859 0.00013291131907373251
leaf_weight=20 33 29 20 24 20 28 25 21 20
leaf_count=20 33 29 20 24 20 28 25 21 20
internal_value=-2.74707e-06 0.000224771 -0.00033816 -0.000471362 -0.000148348 0.000131579 7.94712e-05 0.000456614 5.56479e-06
internal_weight=240 143 97 57 40 102 73 41 45
internal_count=240 143 97 57 40 102 73 41 45
is_linear=0
shrinkage=0.0426353


Tree=52
num_leaves=9
num_cat=0
split_feature=87 41 83 63 56 66 50 90
split_gain=0.00923469 0.00172413 0.00140611 0.000560424 0.000500547 0.000353188 0.000297162 0.000232504
threshold=0.082317200799998699 0.051075607418970027 0.14356673351878663 0.20647856701176376 0.095912116160413716 0.2129336504528723 -0.023630471404207102 0.42419661798178371
decision_type=2 2 2 2 2 2 2 2
left_child=1 -1 3 -2 -3 -4 -6 -8
right_child=2 4 5 -5 6 -7 7 -9
leaf_value=0.00050870908316418971 -0.00035021356647596188 0.00032852612629607488 -0.00026765531069185554 -0.00062612566656711417 0.00018975551647510092 -2.0100646687549106e-05 -3.1546199784998751e-05 0.00015068258754718819
leaf_weight=29 32 21 20 23 38 22 35 20
leaf_count=29 32 21 20 23 38 22 35 20
internal_value=-2.62995e-06 0.000215188 -0.000323743 -0.000465595 0.00014052 -0.000137984 9.80671e-05 3.47188e-05
internal_weight=240 143 97 55 114 42 93 55
internal_count=240 143 97 55 114 42 93 55
is_linear=0
shrinkage=0.0426353


Tree=53
num_leaves=9
num_cat=0
split_feature=87 41 75 63 56 70 50 53
split_gain=0.00846403 0.00158024 0.00114786 0.000519865 0.000458775 0.000351389 0.000272363 0.000229928
threshold=0.082317200799998699 0.051075607418970027 0.14706269082528156 0.20647856701176376 0.095912116160413716 0.15128817269585701 -0.023630471404207102 0.13646983899950604
decision_type=2 2 2 2 2 2 2 2
left_child=1 -1 3 -2 -3 -4 -6 -8
right_child=2 4 5 -5 6 -7 7 -9
leaf_value=0.00048702009141185775 -0.0003229964859847979 0.00031451930316935299 -8.4934639085102425e-06 -0.00058378588294683335 0.00018166522396895194 -0.0002612275382766033 0.00014415961142355871 -3.527149377913706e-05
leaf_weight=29 33 21 20 24 38 20 21 34
leaf_count=29 33 21 20 24 38 20 21 34
internal_value=-2.51782e-06 0.000206013 -0.00030994 -0.000432803 0.000134529 -0.000134861 9.3886e-05 3.32386e-05
internal_weight=240 143 97 57 114 40 93 55
internal_count=240 143 97 57 114 40 93 55
is_linear=0
shrinkage=0.0426353


Tree=54
num_leaves=10
num_cat=0
split_feature=87 41 83 63 45 77 79 51 43
split_gain=0.00775768 0.00144837 0.00120458 0.000477544 0.000430663 0.000366567 0.00032093 0.000260431 0.000252378
threshold=0.082317200799998699 0.051075607418970027 0.14356673351878663 0.20647856701176376 0.072052354261747859 0.060698884742078817 -0.75300793362535123 0.13622071364160371 0.12277537483741828
decision_type=2 2 2 2 2 2 2 2 2
left_child=1 -1 3 -2 -3 -4 -6 8 -8
right_child=2 4 5 -5 6 -7 7 -9 -10
leaf_value=0.00046625582803756701 -0.00032151102490376863 0.00029825394555315049 -0.00024488796925553553 -0.00057620502476405614 -4.9654477839944902e-05 7.3117292167520322e-06 0.00010640756282150342 9.0165823859198153e-06 0.00030470712143202869
leaf_weight=29 32 22 22 23 23 20 28 21 20
leaf_count=29 32 22 22 23 23 20 28 21 20
internal_value=-2.41047e-06 0.00019723 -0.000296725 -0.000428019 0.000128793 -0.000124793 8.82701e-05 0.000134245 0.000189032
internal_weight=240 143 97 55 114 42 92 69 48
internal_count=240 143 97 55 114 42 92 69 48
is_linear=0
shrinkage=0.0426353


Tree=55
num_leaves=10
num_cat=0
split_feature=87 53 40 40 40 79 93 34 53
split_gain=0.0066987 0.00148029 0.00081558 0.000634504 0.000596888 0.000542935 0.000507285 0.000168945 0.000145926
threshold=0.08305292199415254 0.13646983899950604 -0.0059402507930903237 -0.010936690643623263 0.007346477681980758 -0.75300793362535123 0.051264875366526429 0.0040337385750703466 0.17818718927917601
decision_type=2 2 2 2 2 2 2 2 2
left_child=1 2 -1 -2 8 -5 -4 -7 -3
right_child=3 4 6 5 -6 7 -8 -9 -10
leaf_value=0.00052337795312211563 -8.2592088974789055e-05 5.8170789142686859e-05 0.00035977735313288142 -0.00053027956594753844 -0.00010701494105180811 -0.00020396062357691923 0.00010678218845840553 -0.00036520017077483962 0.00020845558640020232
leaf_weight=21 20 24 25 22 32 27 34 21 23
leaf_count=21 20 24 25 22 32 27 34 21 23
internal_value=-4.50073e-07 0.000165925 0.0002952 -0.000294379 3.50139e-05 -0.00035489 0.000213984 -0.000274503 0.000131714
internal_weight=249 159 80 90 79 70 59 48 47
internal_count=249 159 80 90 79 70 59 48 47
is_linear=0
shrinkage=0.0426353


Tree=56
num_leaves=9
num_cat=0
split_feature=87 53 40 30 40 60 40 42
split_gain=0.00613967 0.00135676 0.000747518 0.000586538 0.000547076 0.000480761 0.000268306 0.000138007
threshold=0.08305292199415254 0.13646983899950604 -0.0059402507930903237 0.0059855473014361468 0.007346477681980758 -0.046215370197159197 -0.0059402507930903237 0.18616118963098618
decision_type=2 2 2 2 2 2 2 2
left_child=1 2 -1 6 7 -4 -2 -3
right_child=3 4 5 -5 -6 -7 -8 -9
leaf_value=0.00050106355608792955 -7.4582345723331133e-05 4.8218025341076702e-05 3.490852853243708e-05 -0.00042836132230612617 -0.0001024523185524295 0.00029201500373602572 -0.000267508869731914 0.00019463374175729295
leaf_weight=21 20 22 20 32 32 39 38 25
leaf_count=21 20 22 20 32 32 39 38 25
internal_value=-4.30883e-07 0.000158851 0.000282614 -0.000281828 3.35211e-05 0.00020486 -0.000200982 0.000126099
internal_weight=249 159 80 90 79 59 58 47
internal_count=249 159 80 90 79 59 58 47
is_linear=0
shrinkage=0.0426353


Tree=57
num_leaves=10
num_cat=0
split_feature=87 53 50 40 40 79 65 93 30
split_gain=0.0056273 0.00124353 0.000688937 0.000685135 0.00054865 0.000497055 0.000465711 0.000440524 0.000142867
threshold=0.08305292199415254 0.13646983899950604 0.009291063848788873 -0.0059402507930903237 -0.010936690643623263 -0.75300793362535123 0.21302189867833052 0.051264875366526429 0.0042085486577993847
decision_type=2 2 2 2 2 2 2 2 2
left_child=1 3 6 -1 -2 -6 -3 -5 -7
right_child=4 2 -4 7 5 8 -8 -9 -10
leaf_value=0.000479700548309445 -7.2874206559832871e-05 0.00027181310473626229 -0.00014263747465011412 0.00033198796393111636 -0.0004938960898480851 -0.00018150382355654649 1.3552793114851624e-05 9.6227464384946484e-05 -0.00032912830153132756
leaf_weight=21 20 22 27 25 22 26 30 34 22
leaf_count=21 20 22 27 25 22 26 30 34 22
internal_value=-4.12512e-07 0.000152078 3.20919e-05 0.000270564 -0.000269812 -0.000326081 0.000122817 0.000196126 -0.000249165
internal_weight=249 159 79 80 90 70 52 59 48
internal_count=249 159 79 80 90 70 52 59 48
is_linear=0
shrinkage=0.0426353


Tree=58
num_leaves=11
num_cat=0
split_feature=54 53 45 40 88 39 60 73 42 89
split_gain=0.00517021 0.00131841 0.00108377 0.000688641 0.000473477 0.000410466 0.000358512 0.000322325 0.000268694 0.000199023
threshold=0.18625063784984822 0.16301778121999674 0.13220120403108684 -0.0024687990172333235 -0.10526893702518772 -1.306137182373365 -0.0082010267586882703 0.15554995694725457 0.19470835682336698 -0.60863654295742908
decision_type=2 2 2 2 2 2 2 2 2 2
left_child=2 -2 3 -1 8 -3 -5 -7 9 -4
right_child=1 5 4 6 -6 7 -8 -9 -10 -11
leaf_value=0.00047658846638545165 2.8037356083258084e-05 -0.00019153242333297933 0.00012196054728703194 5.1292994398564491e-05 -0.00012860300004359057 -0.00030795590828555175 0.00029811111034116176 -0.00052911426667354134 0.00023869612875655625 -5.0547881435419515e-05
leaf_weight=22 23 22 31 20 20 25 23 23 20 20
leaf_count=22 23 22 31 20 20 25 23 23 20 20
internal_value=-3.94925e-07 -0.000252015 0.000149609 0.000282575 5.46339e-05 -0.000344032 0.000183312 -0.000413928 0.00010625 5.43102e-05
internal_weight=249 93 156 65 91 70 43 48 71 51
internal_count=249 93 156 65 91 70 43 48 71 51
is_linear=0
shrinkage=0.0426353


Tree=59
num_leaves=10
num_cat=0
split_feature=87 70 85 47 77 40 49 69 35
split_gain=0.00477076 0.00108921 0.000843713 0.000603426 0.000534111 0.000493752 0.000453585 0.000451941 9.84212e-05
threshold=0.08305292199415254 0.06909486950066443 0.11858858024249533 0.028744235478097655 0.06087829133974039 -0.010936690643623263 -0.76630820864463678 -0.43865469547727309 0.25032159125582715
decision_type=2 2 2 2 2 2 2 2 2
left_child=1 2 3 -1 -3 -2 -6 8 -7
right_child=5 4 -4 -5 6 7 -8 -9 -10
leaf_value=0.0002329812603140392 -6.1603344633384506e-05 -0.00010661861413356722 6.2230557230066159e-05 0.00052898214009010726 -1.6090081888103019e-05 -0.00018026936044162706 0.00024886868760220056 -0.00047309781567374297 -0.00030077540705299443
leaf_weight=31 20 32 28 21 23 28 24 20 22
leaf_count=31 20 32 28 21 23 28 24 20 22
internal_value=-3.78087e-07 0.000140028 0.000250919 0.00035252 2.77339e-05 -0.000248429 0.000119208 -0.000301808 -0.000233292
internal_weight=249 159 80 52 79 90 47 70 50
internal_count=249 159 80 52 79 90 47 70 50
is_linear=0
shrinkage=0.0426353


Tree=60
num_leaves=9
num_cat=0
split_feature=56 41 40 37 50 75 38 50
split_gain=0.00412457 0.000940712 0.000887296 0.000955546 0.000541395 0.000501521 0.00041943 0.0002112
threshold=0.19499948910872741 0.051075607418970027 0.01899283118431434 0.010789127319646426 0.012506045647788757 0.2132281148223196 -0.042116178093821857 -0.023630471404207102
decision_type=2 2 2 2 2 2 2 2
left_child=1 -1 3 -2 -5 7 -7 -3
right_child=2 5 -4 4 -6 6 -8 -9
leaf_value=0.00039031601258355164 -0.00031670667515964855 0.00010270209545546827 -0.00040857235823610626 0.00013366560101228257 -0.00015633216569080696 0.00010238758200035395 0.00035644306481052041 -5.3918529282929152e-05
leaf_weight=27 28 34 26 25 22 27 21 29
leaf_count=27 28 34 26 25 22 27 21 29
internal_value=1.30887e-05 0.000164613 -0.000193944 -0.000119539 -2.07803e-06 0.000109712 0.000213537 3.06069e-05
internal_weight=239 138 101 75 47 111 48 63
internal_count=239 138 101 75 47 111 48 63
is_linear=0
shrinkage=0.0426353


Tree=61
num_leaves=9
num_cat=0
split_feature=56 41 40 37 56 56 30 46
split_gain=0.00378036 0.000862207 0.000813248 0.000875803 0.000471344 0.000457105 0.000350308 0.000234507
threshold=0.19499948910872741 0.051075607418970027 0.01899283118431434 0.010789127319646426 0.09443420383957167 0.2211061871015986 0.0087125119863881648 0.16703106895010225
decision_type=2 2 2 2 2 2 2 2
left_child=1 -1 3 -2 -3 -5 7 -6
right_child=2 4 -4 5 6 -7 -8 -9
leaf_value=0.00037367475061793196 -0.00030320377130597047 0.00027688619871031822 -0.00039115273243524236 0.00015249891645958006 4.4597606519228911e-05 -0.0001164252517521411 -8.2885178300929553e-05 0.00020990228223636827
leaf_weight=27 28 23 26 20 39 27 23 26
leaf_count=27 28 23 26 20 39 27 23 26
internal_value=1.25307e-05 0.000157594 -0.000185675 -0.000114443 0.000105034 -1.98944e-06 6.01183e-05 0.000110719
internal_weight=239 138 101 75 111 47 88 65
internal_count=239 138 101 75 111 47 88 65
is_linear=0
shrinkage=0.0426353


Tree=62
num_leaves=9
num_cat=0
split_feature=87 41 44 49 75 38 50 35
split_gain=0.00346488 0.000790253 0.000747622 0.000486361 0.000442139 0.000381082 0.000197744 0.000193365
threshold=0.081683556010875569 0.051075607418970027 0.18625063784984822 -0.11504668607664402 0.2132281148223196 -0.042116178093821857 -0.023630471404207102 0.23636397490576594
decision_type=2 2 2 2 2 2 2 2
left_child=1 -1 -2 7 6 -6 -3 -4
right_child=2 4 3 -5 5 -7 -8 -9
leaf_value=0.00035774300107747101 -1.1245897686776482e-05 9.6042497241570835e-05 -0.00026704350233304892 -0.00043521105582413646 9.2094434605003952e-05 0.00033425772540943784 -5.5506689842778306e-05 -9.5748210981800029e-05
leaf_weight=27 33 34 25 20 27 21 29 23
leaf_count=27 33 34 25 20 27 21 29 23
internal_value=1.19964e-05 0.000150875 -0.000177759 -0.000258566 0.000100556 0.000198041 2.62818e-05 -0.000184965
internal_weight=239 138 101 68 111 48 63 48
internal_count=239 138 101 68 111 48 63 48
is_linear=0
shrinkage=0.0426353


Tree=63
num_leaves=9
num_cat=0
split_feature=87 41 83 34 75 49 88 50
split_gain=0.00317572 0.000724304 0.000705155 0.000614472 0.000405241 0.000352717 0.000259751 0.000181242
threshold=0.081683556010875569 0.051075607418970027 0.14356673351878663 -0.0025186036144048199 0.2132281148223196 -0.76630820864463678 -0.18918538449447825 -0.023630471404207102
decision_type=2 2 2 2 2 2 2 2
left_child=1 -1 3 -2 7 -6 -4 -3
right_child=2 4 6 -5 5 -7 -8 -9
leaf_value=0.00034249050746720496 -7.3091984621742546e-05 9.194769122100233e-05 6.9370741254657842e-05 -0.00036376149528849288 5.8548094093783989e-05 0.00029152452047173172 -0.00014268668464502028 -5.3140142608609806e-05
leaf_weight=27 20 34 21 39 21 27 21 29
leaf_count=27 20 34 21 39 21 27 21 29
internal_value=1.14849e-05 0.000144443 -0.00017018 -0.000265229 9.62687e-05 0.000189597 -3.6658e-05 2.51612e-05
internal_weight=239 138 101 59 111 48 42 63
internal_count=239 138 101 59 111 48 42 63
is_linear=0
shrinkage=0.0426353


Tree=64
num_leaves=10
num_cat=0
split_feature=70 51 27 77 79 70 28 49 79
split_gain=0.00292959 0.00117786 0.000993793 0.00070771 0.000617556 0.000385608 0.000379284 0.000377019 0.0001433
threshold=0.07846860338159653 0.16264089830528361 40.996143967430754 0.06087829133974039 -0.75850384377822033 0.1171252381178781 4.7172827477821695 -0.76630820864463678 -0.51232037423505783
decision_type=2 2 2 2 2 2 2 2 2
left_child=2 3 -1 6 -4 -3 -2 -5 -6
right_child=1 5 4 7 8 -7 -8 -9 -10
leaf_value=0.00046429457012232811 -5.9724667751795763e-06 -0.00039933145041703402 0.00026543998216715275 -3.4155387048415691e-05 -6.6157074131243838e-05 -0.0001715412776830507 -0.00025928997707790345 0.00021206777953173769 9.3305930136900635e-05
leaf_weight=20 21 22 32 20 20 35 22 26 21
leaf_count=20 21 22 32 20 20 35 22 26 21
internal_value=1.09953e-05 -0.00010814 0.000198024 -1.12264e-05 0.000125073 -0.00025946 -0.000135577 0.000105014 1.55191e-05
internal_weight=239 146 93 89 73 57 43 46 41
internal_count=239 146 93 89 73 57 43 46 41
is_linear=0
shrinkage=0.0426353


Tree=65
num_leaves=9
num_cat=0
split_feature=87 36 33 40 37 57 36 78
split_gain=0.00346356 0.00075471 0.0004894 0.000432223 0.000392472 0.000278183 0.000217319 0.000274274
threshold=0.08305292199415254 0.065911235518071071 0.24627832806195118 0.01899283118431434 0.010789127319646426 0.040580088690356293 0.17582155207712991 -0.30751198135737273
decision_type=2 2 2 2 2 2 2 2
left_child=1 -1 4 5 -2 -3 7 -7
right_child=2 3 -4 -5 -6 6 -8 -9
leaf_value=0.00036401352410307371 -0.00025070237496900599 0.00023274866674970071 -0.00032325506114880921 -6.3298340501044613e-05 -2.5244010857248488e-05 0.00013816690984858244 0.00018978248563196421 -6.3953039420714146e-05
leaf_weight=21 25 32 37 27 32 23 23 26
leaf_count=21 25 32 37 27 32 23 23 26
internal_value=9.24546e-07 0.000126732 -0.000202509 8.86943e-05 -0.000124129 0.000128154 8.16675e-05 3.09196e-05
internal_weight=246 152 94 131 57 104 72 49
internal_count=246 152 94 131 57 104 72 49
is_linear=0
shrinkage=0.0426353


Tree=66
num_leaves=10
num_cat=0
split_feature=87 30 69 33 37 38 93 93 87
split_gain=0.00317452 0.00102189 0.000635861 0.000448558 0.000359719 0.000317225 0.000311232 0.000143182 4.74941e-05
threshold=0.08305292199415254 -0.0038855325007550886 -0.99729266788400761 0.24627832806195118 0.010789127319646426 -0.63104447222273896 0.094847469641731477 0.058718377733021514 0.075999354736925359
decision_type=2 2 2 2 2 2 2 2 2
left_child=1 6 -3 4 -2 -4 -1 -7 -9
right_child=3 2 5 -5 -6 7 -8 8 -10
leaf_value=0.00038818307578235306 -0.00024001359770107062 -0.00016336055884642777 -3.5371164672584681e-05 -0.00030947297175453072 -2.4167724674881989e-05 0.00024400392311834263 0.00017086349129461772 5.7830603661703409e-05 0.00015074644918401184
leaf_weight=25 25 21 23 37 32 20 23 20 20
leaf_count=25 25 21 23 37 32 20 23 20 20
internal_value=8.85126e-07 0.000121329 4.62261e-05 -0.000193875 -0.000118837 9.9254e-05 0.000284051 0.00015086 0.000104289
internal_weight=246 152 104 94 57 83 48 60 40
internal_count=246 152 104 94 57 83 48 60 40
is_linear=0
shrinkage=0.0426353


Tree=67
num_leaves=9
num_cat=0
split_feature=87 30 69 33 37 29 47 50
split_gain=0.0029096 0.000936613 0.000582796 0.000411125 0.000329699 0.000294674 0.000262224 0.00024719
threshold=0.08305292199415254 -0.0038855325007550886 -0.99729266788400761 0.24627832806195118 0.010789127319646426 1.4374891130689462 0.037690465505148242 0.028360327258041659
decision_type=2 2 2 2 2 2 2 2
left_child=1 5 -3 4 -2 -1 7 -4
right_child=3 2 6 -5 -6 -7 -8 -9
leaf_value=0.00039172232686968583 -0.00022978053032383306 -0.00015639562760574709 6.8523281440229704e-05 -0.00029627848371572614 -2.3137326231278288e-05 0.00017877627572931144 -2.3797197861792921e-05 0.00024512761662969195
leaf_weight=21 25 21 34 37 32 27 24 25
leaf_count=21 25 21 34 37 32 27 24 25
internal_value=8.47389e-07 0.000116156 4.42552e-05 -0.000185609 -0.00011377 0.00027194 9.50223e-05 0.000143356
internal_weight=246 152 104 94 57 48 83 59
internal_count=246 152 104 94 57 48 83 59
is_linear=0
shrinkage=0.0426353


Tree=68
num_leaves=10
num_cat=0
split_feature=51 27 47 93 40 73 52 30 65
split_gain=0.0027132 0.00079187 0.000493643 0.00052624 0.000487985 0.000399107 0.000377368 0.000333026 5.524e-05
threshold=0.15000033688146006 92.403552836771652 0.037690465505148242 0.094847469641731477 -0.0071058280565453663 0.16852242589338531 0.2064393378417558 -1.0000000180025095e-35 0.14637045152906827
decision_type=2 2 2 2 2 2 2 2 2
left_child=1 2 3 7 -2 8 -5 -1 -6
right_child=4 -3 -4 6 5 -7 -8 -9 -10
leaf_value=0.00042137990151276048 -3.1196306252857747e-05 -7.2499202474716286e-05 3.6641470876796978e-06 -1.4155705054981596e-05 -0.00023267945254524565 -0.00041428131504302022 0.00023431400844940722 0.00019971173611806696 -0.00013367286492711676
leaf_weight=22 24 36 30 25 20 20 20 28 21
leaf_count=22 24 36 30 25 20 20 20 28 21
internal_value=8.11261e-07 0.000103693 0.000154437 0.000202049 -0.000194059 -0.000258137 9.62753e-05 0.000297246 -0.000181969
internal_weight=246 161 125 95 85 61 45 50 41
internal_count=246 161 125 95 85 61 45 50 41
is_linear=0
shrinkage=0.0426353


Tree=69
num_leaves=9
num_cat=0
split_feature=51 30 35 30 29 76 33 75
split_gain=0.00248678 0.000749071 0.000494501 0.000452712 0.000357694 0.000290671 0.000248343 9.15832e-05
threshold=0.15000033688146006 -0.0036146890990249821 0.17990686823140004 -0.0068938575363151865 1.4221311139767066 0.17893561728161891 0.24627832806195118 0.15725051316356406
decision_type=2 2 2 2 2 2 2 2
left_child=1 4 5 -2 -1 -3 -5 -7
right_child=3 2 -4 6 -6 7 -8 -9
leaf_value=0.00037282578523202076 -1.9279522788476022e-05 0.00018746363129123924 -0.00012316747148679357 -0.00017062190610700641 0.00014432292599771528 8.9557505604215786e-05 -0.00034167578767138737 -2.8226734420129689e-05
leaf_weight=20 22 32 27 36 33 21 27 28
leaf_count=20 22 32 27 36 33 21 27 28
internal_value=7.76672e-07 9.92723e-05 3.48488e-05 -0.000185786 0.00023055 8.75209e-05 -0.000243931 2.22522e-05
internal_weight=246 161 108 85 53 81 63 49
internal_count=246 161 108 85 53 81 63 49
is_linear=0
shrinkage=0.0426353


Tree=70
num_leaves=10
num_cat=0
split_feature=56 41 30 83 63 38 40 40 46
split_gain=0.00249333 0.000565973 0.000446368 0.000384568 0.000344399 0.000285671 0.000240205 0.000239161 9.08327e-05
threshold=0.19499948910872741 0.051075607418970027 -0.0037493922797416754 0.13940130420308131 0.19808249860120888 0.21478268200064032 1.0000000180025095e-35 0.0042697201243734407 0.1203406903263292
decision_type=2 2 2 2 2 2 2 2 2
left_child=1 -1 -2 4 -4 6 -3 -7 -8
right_child=2 5 3 -5 -6 7 8 -9 -10
leaf_value=0.00029366214329483334 -2.7564890182526459e-05 0.00013172214841270324 -0.00016848535351452379 -8.9845261605478238e-05 -0.00039936190508054365 6.7537273779511297e-05 2.150741234115431e-05 0.00027124755893522597 -0.00010545006569912656
leaf_weight=28 39 23 24 32 23 22 21 20 20
leaf_count=28 39 23 24 32 23 22 21 20 20
internal_value=-2.67253e-06 0.000123176 -0.000145585 -0.000203848 -0.000281467 7.81418e-05 2.14416e-05 0.000164542 -4.04231e-05
internal_weight=252 134 118 79 47 106 64 42 41
internal_count=252 134 118 79 47 106 64 42 41
is_linear=0
shrinkage=0.0426353


Tree=71
num_leaves=9
num_cat=0
split_feature=56 41 33 56 57 57 43 30
split_gain=0.00228525 0.000518741 0.000427962 0.000425273 0.000283976 0.000212761 0.000146974 0.000120567
threshold=0.19499948910872741 0.051075607418970027 0.18625063784984822 0.21946534200703069 0.040012385724476206 0.056650947385263828 0.098069226499900783 1.0000000180025095e-35
decision_type=2 2 2 2 2 2 2 2
left_child=1 -1 -2 -4 -3 6 -6 -5
right_child=2 4 3 7 5 -7 -8 -9
leaf_value=0.00028114175522182621 -1.9242086839166439e-05 0.00019417863078626066 -0.00035938559950251023 -6.7346183380948314e-05 7.0253494030646612e-05 0.000125886473356797 -7.8957196096628149e-05 -0.00018931062304155407
leaf_weight=28 37 27 21 26 20 29 30 34
leaf_count=28 37 27 21 26 20 29 30 34
internal_value=-2.55858e-06 0.000117924 -0.000139378 -0.000194255 7.48102e-05 3.40134e-05 -1.92729e-05 -0.000136459
internal_weight=252 134 118 81 106 79 50 60
internal_count=252 134 118 81 106 79 50 60
is_linear=0
shrinkage=0.0426353


Tree=72
num_leaves=9
num_cat=0
split_feature=87 46 33 62 79 65 39 37
split_gain=0.00209454 0.000478938 0.000392248 0.00033232 0.000291408 0.000339021 0.000199168 0.000147147
threshold=0.081683556010875569 0.067968658612560087 0.18625063784984822 0.29030699196546156 -0.38602058641381587 0.19093364066625976 -1.2702975817253777 0.010913314823881927
decision_type=2 2 2 2 2 2 2 2
left_child=1 -1 -2 -4 5 -3 -7 -5
right_child=2 4 3 7 -6 6 -8 -9
leaf_value=0.0002854595946966661 -1.8421694317077352e-05 0.00015508682716422961 -0.00031157596546213236 -0.00020585435474223325 0.00019400148118546567 7.1023141550908148e-05 -9.5621115173889887e-05 -6.5236363393952757e-05
leaf_weight=24 37 28 26 24 28 22 32 31
leaf_count=24 37 28 26 24 28 22 32 31
internal_value=-2.4495e-06 0.000112897 -0.000133436 -0.000185973 7.52464e-05 3.46959e-05 -2.7729e-05 -0.000126597
internal_weight=252 134 118 81 110 82 54 55
internal_count=252 134 118 81 110 82 54 55
is_linear=0
shrinkage=0.0426353


Tree=73
num_leaves=10
num_cat=0
split_feature=56 41 40 62 38 70 40 56 49
split_gain=0.00191975 0.000450516 0.00038821 0.00062402 0.000258689 0.000216412 0.000213627 0.00017429 4.81266e-05
threshold=0.19499948910872741 0.051075607418970027 -0.018941011730914527 0.29030699196546156 0.21478268200064032 0.083163614385526954 0.0042697201243734407 0.22174766422405653 -0.60622036167650684
decision_type=2 2 2 2 2 2 2 2 2
left_child=1 -1 -2 -4 5 -3 -6 -5 -9
right_child=2 4 3 7 6 -7 -8 8 -10
leaf_value=0.00026018915233917244 3.8456248832209739e-05 8.0921358622225266e-05 -0.00035769885882586057 -2.8446410544930989e-06 5.8442552038515019e-05 -7.7830001233854712e-05 0.00025097152198960541 -0.00019205747703987785 -0.00010947248796768108
leaf_weight=28 21 37 23 22 22 27 20 23 29
leaf_count=28 21 37 23 22 22 27 20 23 29
internal_value=-2.34506e-06 0.000108083 -0.000127747 -0.000163729 6.79042e-05 1.39481e-05 0.000150123 -0.000103441 -0.000146
internal_weight=252 134 118 97 106 64 42 74 52
internal_count=252 134 118 97 106 64 42 74 52
is_linear=0
shrinkage=0.0426353


Tree=74
num_leaves=9
num_cat=0
split_feature=56 46 34 40 38 83 63 39
split_gain=0.00175954 0.000408693 0.000381275 0.000375146 0.000335058 0.000333099 0.000258247 0.000196599
threshold=0.19499948910872741 0.067968658612560087 -0.0044876475318709952 -0.017821583343042333 0.21478268200064032 0.13940130420308131 0.19808249860120888 -1.2702975817253777
decision_type=2 2 2 2 2 2 2 2
left_child=1 -1 -2 -3 7 6 -4 -5
right_child=2 3 5 4 -6 -7 -8 -9
leaf_value=0.00026288172755919368 3.3383080204262801e-06 0.00023078640738803763 -0.00014071996526738738 5.1467286247385238e-05 0.0001332028677901982 -6.7761231584691667e-05 -0.00033263818631680336 -0.00011168307377876784
leaf_weight=24 32 21 25 25 35 35 26 29
leaf_count=24 32 21 25 25 35 35 26 29
internal_value=-2.24508e-06 0.000103475 -0.0001223 6.86953e-05 3.04491e-05 -0.000169049 -0.000238561 -3.61505e-05
internal_weight=252 134 118 110 89 86 51 54
internal_count=252 134 118 110 89 86 51 54
is_linear=0
shrinkage=0.0426353


Tree=75
num_leaves=10
num_cat=0
split_feature=51 40 47 41 50 49 60 57 46
split_gain=0.00147157 0.000612217 0.00048041 0.000421078 0.000366762 0.000260881 0.000193938 0.000184525 0.000184679
threshold=0.15000033688146006 0.012587027092974077 0.021906908105935787 0.054397714569024848 0.006832307205295274 1.3488050159919915 0.089744245391938995 0.043597719296488535 0.17083924473079226
decision_type=2 2 2 2 2 2 2 2 2
left_child=1 3 -2 -1 -4 6 -3 -5 -9
right_child=2 5 4 7 -6 -7 -8 8 -10
leaf_value=0.00031619696833198619 -0.00028410947431686519 7.9717613191398752e-06 6.2879153185178903e-05 0.00021223783890325732 -0.00015890726746774125 9.2355313562280706e-05 -0.00017753869978525547 8.7523204418872962e-07 0.00015851666355212501
leaf_weight=21 28 20 23 20 33 23 21 35 22
leaf_count=21 28 20 23 20 33 23 21 35 22
internal_value=4.90001e-06 7.99888e-05 -0.000139914 0.000146968 -6.78164e-05 -2.25735e-05 -8.70458e-05 0.000100815 6.17193e-05
internal_weight=246 162 84 98 56 64 41 77 57
internal_count=246 162 84 98 56 64 41 77 57
is_linear=0
shrinkage=0.0426353


Tree=76
num_leaves=9
num_cat=0
split_feature=33 41 47 65 69 67 30 77
split_gain=0.00134983 0.000487236 0.000415963 0.000388669 0.00028875 0.000252853 0.000243739 9.61711e-05
threshold=0.18625063784984822 0.054397714569024848 0.023398870717310328 0.1752875472677311 -0.78490524749955748 0.062672508249685802 -0.0037493922797416754 0.06107988520559083
decision_type=2 2 2 2 2 2 2 2
left_child=1 -1 -2 -4 6 -6 -3 -8
right_child=2 4 3 -5 5 -7 7 -9
leaf_value=0.00023185334539386809 -0.00027060263394761434 0.00020591874740185552 -0.0001670685017661624 4.3478823805794061e-05 4.2548445832979502e-05 -0.0001399746414249953 -2.7872923410486581e-05 0.00010434550275597387
leaf_weight=31 26 26 34 30 37 22 20 20
leaf_count=31 26 26 34 30 37 22 20 20
internal_value=4.6911e-06 8.0549e-05 -0.000126796 -6.83744e-05 4.30255e-05 -2.5511e-05 0.000104293 3.82363e-05
internal_weight=246 156 90 64 125 59 66 40
internal_count=246 156 90 64 125 59 66 40
is_linear=0
shrinkage=0.0426353


Tree=77
num_leaves=11
num_cat=0
split_feature=87 30 89 40 30 42 38 38 79 49
split_gain=0.00124835 0.000420024 0.000403474 0.000341673 0.000310073 0.000304751 0.000152294 0.00012426 0.000104753 6.70237e-05
threshold=0.08305292199415254 -0.0038855325007550886 -0.57791350858666812 -0.0064245342231923352 -0.0068938575363151865 0.26915188222600822 -0.63104447222273896 0.75341311779980225 -0.28943457961738889 0.9208258705957405
decision_type=2 2 2 2 2 2 2 2 2 2
left_child=1 3 6 -1 -2 8 -3 9 -6 -8
right_child=4 2 -4 -5 5 -7 7 -9 -10 -11
leaf_value=0.00031677591506524758 4.9370525499856815e-06 -2.5493203674599394e-05 -0.00014219834189606542 8.9274324776807091e-05 -3.9840053746650432e-05 -0.00029416610328124115 9.5076100945437362e-05 2.0739394473361083e-05 -0.0001732559986072875 0.00020413253228399001
leaf_weight=20 26 22 20 30 23 23 21 21 20 20
leaf_count=20 26 22 20 30 23 23 21 21 20 20
internal_value=4.49109e-06 7.87254e-05 2.99034e-05 0.000180275 -0.000119771 -0.000168898 7.08801e-05 0.000105077 -0.000101894 0.000148274
internal_weight=246 154 104 50 92 66 84 62 43 41
internal_count=246 154 104 50 92 66 84 62 43 41
is_linear=0
shrinkage=0.0426353


Tree=78
num_leaves=9
num_cat=0
split_feature=51 41 34 70 51 57 33 53
split_gain=0.00116231 0.000449306 0.000372109 0.000262448 0.000311989 0.000265962 0.000216452 7.33355e-05
threshold=0.15000033688146006 0.054397714569024848 -0.0053638045800827655 0.15935282803186415 0.12622842190918049 0.040580088690356293 0.24627832806195118 0.13646983899950604
decision_type=2 2 2 2 2 2 2 2
left_child=1 -1 -2 4 5 -3 -4 -7
right_child=2 3 6 -5 -6 7 -8 -9
leaf_value=0.00021699468196351187 5.9818699078394872e-06 0.00015394637934843176 -0.00011272539519375706 -0.00010567533394609195 0.0002019240564293917 2.6372912316012227e-05 -0.00028015926156465745 -6.355289518375471e-05
leaf_weight=31 27 22 32 20 23 34 25 32
leaf_count=31 27 22 32 20 23 34 25 32
internal_value=4.29961e-06 7.10333e-05 -0.000124401 3.64928e-05 6.21086e-05 2.5566e-05 -0.000186161 -1.72275e-05
internal_weight=246 162 84 131 111 88 57 66
internal_count=246 162 84 131 111 88 57 66
is_linear=0
shrinkage=0.0426353


Tree=79
num_leaves=9
num_cat=0
split_feature=33 88 76 41 55 68 53 47
split_gain=0.00107268 0.000418162 0.000456665 0.000442215 0.000392041 0.000372629 0.000157148 0.000155873
threshold=0.18625063784984822 -0.15656685685918229 0.17041852441214353 0.054397714569024848 0.2132281148223196 -0.18750537435406595 0.18609723922070467 0.033526888996849726
decision_type=2 2 2 2 2 2 2 2
left_child=1 3 7 -1 5 -2 -5 -3
right_child=4 2 -4 6 -6 -7 -8 -9
leaf_value=0.00029900181368115611 -0.00014106189501334921 0.00016750465853253223 -0.00011210869153080989 1.311383209972122e-05 -0.00023289649854333925 7.7158281851306802e-05 0.00016020158931324505 6.3433926280361785e-06
leaf_weight=23 33 24 35 31 32 25 23 20
leaf_count=23 33 24 35 31 32 25 23 20
internal_value=4.1163e-06 7.17396e-05 2.82501e-06 0.000142444 -0.000113097 -4.70015e-05 7.57623e-05 9.42495e-05
internal_weight=246 156 79 77 90 58 54 44
internal_count=246 156 79 77 90 58 54 44
is_linear=0
shrinkage=0.0426353


Tree=80
num_leaves=9
num_cat=0
split_feature=51 55 40 73 60 78 59 87
split_gain=0.00107033 0.00045661 0.000387648 0.000499263 0.000348257 0.000271122 0.000171712 0.000210623
threshold=0.15000033688146006 0.10305946748216473 -0.0064245342231923352 0.16378104339863414 0.088270531696238747 -0.46253509026554435 -0.59441760069804983 0.076273894619523067
decision_type=2 2 2 2 2 2 2 2
left_child=1 -1 -2 -4 5 -3 -7 -8
right_child=2 4 3 -5 -6 6 7 -9
leaf_value=0.00023754113766481606 1.0054440637356185e-05 0.00019288536227284633 -9.5541794208656589e-05 -0.00036147017524829875 -8.9988210233081574e-05 -7.1911335389112895e-05 2.1529797176919996e-06 0.00017145664647507698
leaf_weight=22 23 24 33 21 34 22 34 22
leaf_count=22 23 24 33 21 34 22 34 22
internal_value=-6.18616e-06 5.73339e-05 -0.000136526 -0.000198958 2.81827e-05 6.7573e-05 2.90154e-05 6.86651e-05
internal_weight=235 158 77 54 136 102 78 56
internal_count=235 158 77 54 136 102 78 56
is_linear=0
shrinkage=0.0426353


Tree=81
num_leaves=9
num_cat=0
split_feature=51 55 47 60 78 28 60 78
split_gain=0.000981004 0.000418505 0.000329446 0.000319194 0.000248496 0.000234005 0.000162863 0.000201622
threshold=0.15000033688146006 0.10305946748216473 0.021863342595259006 0.088270531696238747 -0.46253509026554435 4.9246851125186382 -0.057106920823363772 -0.27933484677557291
decision_type=2 2 2 2 2 2 2 2
left_child=1 -1 -2 4 -3 -4 -6 -8
right_child=2 3 5 -5 6 -7 7 -9
leaf_value=0.00022741349064405106 -0.00025789374597354333 0.00018466162954903424 2.4435473061173288e-05 -8.6151532204620457e-05 -5.6893136347702469e-05 -0.00015658666040526965 0.00016993316715036233 -1.2313502322195608e-06
leaf_weight=22 25 24 25 34 27 27 22 29
leaf_count=22 25 24 25 34 27 27 22 29
internal_value=-5.92241e-06 5.48894e-05 -0.000130705 2.69811e-05 6.4692e-05 -6.95568e-05 2.77783e-05 7.26043e-05
internal_weight=235 158 77 136 102 52 78 51
internal_count=235 158 77 136 102 52 78 51
is_linear=0
shrinkage=0.0426353


Tree=82
num_leaves=9
num_cat=0
split_feature=33 55 85 40 49 67 59 77
split_gain=0.000849796 0.000361372 0.00030683 0.00036126 0.000285952 0.000195227 0.000157762 0.000106812
threshold=0.18625063784984822 0.19165155285745675 0.030468712619933322 -0.0071058280565453663 0.094938044584903306 0.061971735807259579 -0.85278942593146889 0.060526503244418488
decision_type=2 2 2 2 2 2 2 2
left_child=2 6 -1 4 -4 7 -2 -5
right_child=1 -3 3 5 -6 -7 -8 -9
leaf_value=0.00020649470288264498 -0.00011857757986540436 -0.00020884713305902196 1.3756305961274323e-05 -1.6563168398513711e-05 0.00023418693290835061 -0.0001074574438921305 3.9937450337386719e-05 0.00010632427480277493
leaf_weight=21 21 39 20 36 23 30 25 20
leaf_count=21 21 39 20 36 23 30 25 20
internal_value=-5.66991e-06 -0.000113373 5.5362e-05 3.0759e-05 0.000131661 -1.9692e-05 -3.24281e-05 2.73252e-05
internal_weight=235 85 150 129 43 86 46 56
internal_count=235 85 150 129 43 86 46 56
is_linear=0
shrinkage=0.0426353


Tree=83
num_leaves=10
num_cat=0
split_feature=51 27 47 58 60 73 28 70 79
split_gain=0.00085805 0.000365923 0.000310455 0.000307291 0.000277358 0.000279952 0.000206482 0.000113214 0.000111759
threshold=0.15000033688146006 40.996143967430754 0.021863342595259006 0.21890777258292318 0.088270531696238747 0.26179506186888918 4.9246851125186382 0.057006583798607582 -0.26409430275722096
decision_type=2 2 2 2 2 2 2 2 2
left_child=1 3 -2 -1 5 7 -4 -3 -9
right_child=2 4 6 -5 -6 -7 -8 8 -10
leaf_value=0.00026923255736817066 -0.00024559773385270746 0.00017287024971067015 2.5522279719883151e-05 3.8322583128829542e-05 -0.00012781791926038736 -7.9070200555448225e-05 -0.00014452128586120132 8.0079352475860656e-07 0.00013091378664206781
leaf_weight=22 25 20 25 20 21 25 27 30 20
leaf_count=22 25 20 25 20 21 25 27 30 20
internal_value=-5.42817e-06 5.14452e-05 -0.000122129 0.000159275 1.24032e-05 4.33995e-05 -6.27696e-05 8.71386e-05 5.2846e-05
internal_weight=235 158 77 42 116 95 52 70 50
internal_count=235 158 77 42 116 95 52 70 50
is_linear=0
shrinkage=0.0426353


Tree=84
num_leaves=9
num_cat=0
split_feature=51 40 40 73 72 78 47 90
split_gain=0.000786443 0.00036833 0.000323 0.000435301 0.00025433 0.000331273 0.000184674 0.000178514
threshold=0.15000033688146006 0.01899283118431434 -0.0064245342231923352 0.16378104339863414 0.29574230267362289 -0.30751198135737273 0.031175506394315402 0.39349070790681834
decision_type=2 2 2 2 2 2 2 2
left_child=1 4 -2 -4 7 6 -6 -1
right_child=2 -3 3 -5 5 -7 -8 -9
leaf_value=0.0002636497948778876 1.6878491802194303e-05 -6.4458745377533741e-05 -7.7346388417064328e-05 -0.00032565687909161072 2.6829297791990797e-05 -0.00010342959083258461 0.00018148449555748547 8.5669202818818444e-05
leaf_weight=20 23 39 33 21 32 21 25 21
leaf_count=20 23 39 33 21 32 21 25 21
internal_value=-5.19674e-06 4.92518e-05 -0.000116922 -0.000173912 8.65183e-05 4.13286e-05 9.46605e-05 0.000172489
internal_weight=235 158 77 54 119 78 57 41
internal_count=235 158 77 54 119 78 57 41
is_linear=0
shrinkage=0.0426353


Tree=85
num_leaves=9
num_cat=0
split_feature=45 40 40 45 27 30 58 50
split_gain=0.000785806 0.000413326 0.000403804 0.000347843 0.000315313 0.000263393 0.000244002 7.70233e-05
threshold=0.13220120403108684 0.020219413570668799 -0.00052444588821581601 0.24143306121335253 41.336839141882244 0.006900957983272101 -0.22981295112469366 0.03668049143949114
decision_type=2 2 2 2 2 2 2 2
left_child=1 4 6 5 -1 7 -2 -4
right_child=2 -3 3 -5 -6 -7 -8 -9
leaf_value=0.00027198343272027872 -5.7166892905398201e-05 -6.038821270873112e-05 7.2480421471618576e-05 -0.00021437241704488691 7.8064308543115011e-05 -0.0001532526436038458 0.00010709009389290398 -4.3125221459054021e-05
leaf_weight=27 31 20 22 35 35 27 35 20
leaf_count=27 31 20 22 35 35 27 35 20
internal_value=-2.57033e-07 0.000108147 -5.2546e-05 -0.000104892 0.000162513 -4.93588e-05 2.99391e-05 1.74301e-05
internal_weight=252 82 170 104 62 69 66 42
internal_count=252 82 170 104 62 69 66 42
is_linear=0
shrinkage=0.0426353


Tree=86
num_leaves=9
num_cat=0
split_feature=51 40 49 40 56 76 88 65
split_gain=0.000719343 0.000531596 0.00035115 0.000328158 0.000242547 0.000239467 0.000158019 9.18967e-05
threshold=0.15000033688146006 0.010658228192744791 0.9208258705957405 -0.00052444588821581601 0.2257369479682417 0.18141820515957818 -0.18918538449447825 0.21108750240898402
decision_type=2 2 2 2 2 2 2 2
left_child=1 2 7 -2 -5 -3 -7 -1
right_child=3 5 -4 4 -6 6 -8 -9
leaf_value=0.00011448050511710295 -6.5275847655843118e-06 5.8998886330235883e-05 0.00024665295930921191 -0.00029138925289910603 -9.3899399776901243e-05 -5.7342545258012741e-06 -0.00016513917671758527 1.5352767270156381e-05
leaf_weight=34 35 30 27 20 26 20 26 34
leaf_count=34 35 30 27 20 26 20 26 34
internal_value=-2.46075e-07 4.93311e-05 0.000116568 -0.000104909 -0.000179765 -3.4715e-05 -9.58327e-05 6.49166e-05
internal_weight=252 171 95 81 46 76 46 68
internal_count=252 171 95 81 46 76 46 68
is_linear=0
shrinkage=0.0426353


Tree=87
num_leaves=10
num_cat=0
split_feature=45 33 30 62 79 42 57 90 36
split_gain=0.000675566 0.000336288 0.000288235 0.000239971 0.00023975 0.000212126 0.000175309 0.000114572 9.14775e-05
threshold=0.13220120403108684 0.18625063784984822 -0.0015072865303232938 0.29030699196546156 -0.19431179296551013 0.1337709631418787 0.056802449056967387 0.28780563706551837 0.22676251899028385
decision_type=2 2 2 2 2 2 2 2 2
left_child=2 4 -1 -3 6 -4 7 -2 -5
right_child=1 3 5 8 -6 -7 -8 -9 -10
leaf_value=0.00020019571916820008 -4.8115166680647103e-06 -0.0002117159205585554 -3.8400216460150482e-05 -0.00012324266179394478 0.00013532602026694699 0.00013952712517091836 7.1646725666469024e-05 -0.0001411758201893667 -1.1769760664693509e-05
leaf_weight=32 21 28 29 23 21 21 21 24 32
leaf_count=32 21 28 29 23 21 21 21 24 32
internal_value=-2.35583e-07 -4.87182e-05 0.000100277 -0.000110112 9.85248e-06 3.63293e-05 -3.00709e-05 -7.75391e-05 -5.83857e-05
internal_weight=252 170 82 83 87 50 66 45 55
internal_count=252 170 82 83 87 50 66 45 55
is_linear=0
shrinkage=0.0426353


Tree=88
num_leaves=10
num_cat=0
split_feature=90 40 93 85 34 56 51 50 29
split_gain=0.000638181 0.000495008 0.00045565 0.000364272 0.000274387 0.000221157 0.000112691 0.000146831 4.94847e-05
threshold=0.2423337797095545 0.020219413570668799 0.041097068840314901 0.20898902399697675 0.0068224950374732923 0.2318369667425553 0.12622842190918049 0.009291063848788873 1.4409204613260107
decision_type=2 2 2 2 2 2 2 2 2
left_child=-1 2 -2 -3 5 6 8 -8 -4
right_child=1 3 4 -5 -6 -7 7 -9 -10
leaf_value=0.00021915290731814631 0.00017753136683260591 -4.7721248157062939e-05 4.2997829899300711e-05 -0.00027967114117731463 -0.00012034940975343265 -8.6394702724202843e-05 0.0001823178913437534 2.8659416637058361e-05 -4.9664585933796569e-05
leaf_weight=22 26 32 22 20 35 29 20 26 20
leaf_count=22 26 32 22 20 35 29 20 26 20
internal_value=-2.25539e-07 -2.12096e-05 1.25972e-05 -0.000136933 -1.56152e-05 1.57155e-05 4.93655e-05 9.54674e-05 -1.12713e-06
internal_weight=252 230 178 52 152 117 88 46 42
internal_count=252 230 178 52 152 117 88 46 42
is_linear=0
shrinkage=0.0426353


Tree=89
num_leaves=9
num_cat=0
split_feature=90 40 93 90 34 61 50 86
split_gain=0.000584923 0.000453698 0.000417625 0.000345514 0.000251488 0.000212058 9.45995e-05 0.000104372
threshold=0.2423337797095545 0.020219413570668799 0.041097068840314901 0.35954600370347856 0.0068224950374732923 0.14782192883569548 0.009291063848788873 0.16442038366220588
decision_type=2 2 2 2 2 2 2 2
left_child=-1 2 -2 -3 5 6 -4 -8
right_child=1 3 4 -5 -6 -7 7 -9
leaf_value=0.00020980924746843649 0.00016996225462677684 -0.00024099539534370927 9.7105484103895425e-05 -2.1193747819180019e-05 -0.00011521827299697979 -9.7944641488464842e-05 5.9659438199936602e-05 -5.7958789939830971e-05
leaf_weight=22 26 26 37 26 35 24 32 24
leaf_count=22 26 26 37 26 35 24 32 24
internal_value=-2.15923e-07 -2.03053e-05 1.20601e-05 -0.000131095 -1.49495e-05 1.50455e-05 4.42042e-05 9.25163e-06
internal_weight=252 230 178 52 152 117 93 56
internal_count=252 230 178 52 152 117 93 56
is_linear=0
shrinkage=0.0426353


Tree=90
num_leaves=8
num_cat=0
split_feature=51 73 70 30 27 79 47
split_gain=0.000452594 0.000315078 0.000255526 0.000209023 0.000130575 0.000133958 0.000110344
threshold=0.15000033688146006 0.16936334218642182 0.15403184264265304 0.0087125119863881648 41.446578915592831 -0.38602058641381587 0.028977893728680915
decision_type=2 2 2 2 2 2 2
left_child=2 6 3 4 -1 -6 -2
right_child=1 -3 -4 -5 5 -7 -8
leaf_value=0.00016707757827994792 1.2100651600470664e-05 -0.00022168557776382696 -9.0683880090917948e-05 -2.9675582431006188e-05 8.2569395542832773e-06 0.00013384990819841004 -0.00011152098911422082
leaf_weight=30 35 23 24 34 38 26 21
leaf_count=30 35 23 24 34 38 26 21
internal_value=-6.04494e-06 -8.88251e-05 3.6979e-05 6.09158e-05 9.36829e-05 5.92791e-05 -3.42575e-05
internal_weight=231 79 152 128 94 64 56
internal_count=231 79 152 128 94 64 56
is_linear=0
shrinkage=0.0426353


Tree=91
num_leaves=9
num_cat=0
split_feature=40 29 87 51 46 46 70 47
split_gain=0.000515043 0.000431703 0.000238947 0.000208555 0.000194838 0.000179105 0.000157426 9.61067e-05
threshold=0.020828323419079631 1.4450979372193904 0.077613001909045506 0.15000033688146006 0.18511011469490737 0.1744756750690627 0.1171252381178781 0.030858478264094793
decision_type=2 2 2 2 2 2 2 2
left_child=1 2 7 5 -2 -3 -5 -1
right_child=4 3 -4 6 -6 -7 -8 -9
leaf_value=-8.4912063026506512e-06 -5.7495258111366533e-05 -5.2106960053522425e-05 0.00023525080663749375 -0.00016199840710798144 -0.00023172933114986628 9.3911111525787075e-05 -1.9379473863011745e-05 0.00012209997149685087
leaf_weight=20 28 26 21 24 20 37 34 21
leaf_count=20 28 26 21 24 20 37 34 21
internal_value=-5.78721e-06 2.68175e-05 0.000118299 -2.00573e-05 -0.000130093 3.36497e-05 -7.83942e-05 5.8397e-05
internal_weight=231 183 62 121 48 63 58 41
internal_count=231 183 62 121 48 63 58 41
is_linear=0
shrinkage=0.0426353


Tree=92
num_leaves=9
num_cat=0
split_feature=51 73 30 77 63 55 47 39
split_gain=0.000383315 0.000285684 0.000196788 0.000210259 0.000120708 0.000110862 9.89e-05 5.87112e-05
