tree
version=v4
num_class=1
num_tree_per_iteration=1
label_index=0
max_feature_idx=92
objective=regression
feature_names=WeightedAverageNumberOfDilutedSharesOutstanding ROE ROA AssetTurnover DebtToEquity NetProfitMargin OperatingMargin EarningsPerShareDiluted_log GrossProfit_log NetIncomeLoss_log OperatingIncomeLoss_log Revenues_log Assets_log Liabilities_log NoncurrentAssets_log WeightedAverageNumberOfDilutedSharesOutstanding_log Equity_log ROE_log ROA_log BookValuePerShare_log SalesPerShare_log AssetTurnover_log DebtToEquity_log NetProfitMargin_log OperatingMargin_log EarningsPerShareDilutedTTM_log SalesPerShareTTM_log PE_Ratio PB_Ratio PS_Ratio MarketCapLog CostsAndExpenses_log Returns lag_5 ma_5 std_5 skew_5 kurt_5 total_return_5 min_5 max_5 first_return_5 last_return_5 lag_25 ma_25 std_25 skew_25 kurt_25 total_return_25 min_25 max_25 first_return_25 last_return_25 lag_90 ma_90 std_90 skew_90 kurt_90 total_return_90 min_90 max_90 first_return_90 last_return_90 lag_180 ma_180 std_180 skew_180 kurt_180 total_return_180 min_180 max_180 first_return_180 last_return_180 lag_252 ma_252 std_252 skew_252 kurt_252 total_return_252 min_252 max_252 first_return_252 last_return_252 lag_504 ma_504 std_504 skew_504 kurt_504 total_return_504 min_504 max_504 first_return_504 last_return_504
feature_infos=none [0.059016846175089753:0.12085301938915137] [0.026409125174557273:0.051724328445618181] none [1.0924345519547918:1.4070681734915311] none none none none [-0.2620724782474565:0.38035125566227423] [-0.26883264193624457:0.20406197547334698] none [-0.026573199271776232:0.06722989750608728] [-0.044875806153003919:0.10245319423701718] none none [-0.037818095164317077:0.04348338325805743] [-0.28886094059116607:0.34058366936196632] [-0.32930237575354382:0.38646240300867135] none none none [-0.084643392453311914:0.10002271399663019] none none none none none none none none [-0.16433278885725869:0.27003673111901122] [-0.25070829562041136:0.50276074644984992] [-0.25070829562041136:0.50276074644984992] [-0.23313211098202924:0.42163472831923193] [0.0021486531322156559:0.12044332983298903] [-2.1351473945608994:2.1207274567697656] [-3.3284266256154793:4.6549027746302984] [-1.1656605549101462:2.1081736415961596] [-0.25070829562041136:0.40469643979225051] [-0.21454727017299835:0.50276074644984992] [-0.25070829562041136:0.50276074644984992] [-0.25070829562041136:0.50276074644984992] [-0.25070829562041136:0.50276074644984992] [-0.20998119437853513:0.3862598605247024] [0.012353885646544853:0.15127258552593548] [-1.8125656122222169:2.4517340636634963] [-1.8013224320513201:7.5069697613663076] [-5.2495298594633786:9.6564965131175597] [-0.25070829562041136:0.34725033670240751] [-0.1602785543300457:0.50276074644984992] [-0.25070829562041136:0.50276074644984992] [-0.25070829562041136:0.50276074644984992] [-0.25070829562041136:0.50276074644984992] [-0.1513948748074995:0.32369099189027906] [0.031858434018836819:0.16469407342976328] [-1.7119233539652225:1.2999277355602721] [-1.5835063375181753:3.4754149691272609] [-13.625538732674954:29.132189270125117] [-0.25070829562041136:0.20615073552667731] [-0.056370524688858448:0.50276074644984992] [-0.25070829562041136:0.50276074644984992] [-0.25070829562041136:0.50276074644984992] [-0.25070829562041136:0.50276074644984992] [-0.10833476423219665:0.27806555658786686] [0.034668236160977153:0.13462674563050048] [-1.0951052556547014:1.413500554622876] [-1.2216959472320492:5.3780392733340836] [-19.500257561795397:50.051800185816035] [-0.25070829562041136:0.13488834114453288] [0.058378182191953232:0.50276074644984992] [-0.25070829562041136:0.50276074644984992] [-0.25070829562041136:0.50276074644984992] [-0.25070829562041136:0.50276074644984992] [-0.07179207895452254:0.26874251267352828] [0.057814272037180613:0.11934836023966744] [-0.97089071986268538:1.3453991606948967] [-1.0549713409881278:5.6748005346138415] [-18.091603896539681:67.72311319372912] [-0.25070829562041136:0.13488834114453288] [0.12466440940955008:0.50276074644984992] [-0.25070829562041136:0.50276074644984992] [-0.25070829562041136:0.50276074644984992] [-0.12851792156447958:0.50276074644984992] [0.0072543934985178377:0.19440795696312671] [0.088272973721263887:0.14723502185784149] [-0.32480871775157488:0.56685470708374064] [-0.84053944966954652:1.0532613321305995] [3.65621432325299:97.981610309415856] [-0.25070829562041136:-0.12851792156447958] [0.25150514770163174:0.50276074644984992] [-0.12851792156447958:0.50276074644984992] [-0.25070829562041136:0.50276074644984992]
tree_sizes=2771 2974 2877 2900 2725 2986 3002 3072 2907 2995 2993 2916 2743 3008 2923

Tree=0
num_leaves=31
num_cat=0
split_feature=84 54 65 18 76 77 85 64 63 54 54 53 32 39 57 32 77 84 87 91 51 77 84 85 51 57 84 83 32 83
split_gain=7.97795 1.55043 1.17491 0.438016 0.294417 0.286275 0.135524 0.133401 0.130281 0.125843 0.0684384 0.0549105 0.048711 0.0468658 0.0450183 0.0372202 0.0863878 0.0345339 0.0273835 0.0258607 0.022793 0.0221863 0.0212098 0.0136237 0.0134629 0.00937864 0.00916232 0.0069628 0.00566466 0.00469439
threshold=0.12018947672650605 0.16115953999231453 0.068899001744798571 -0.042393228101505954 0.52530922190026141 0.79031322007354843 0.10353903539952559 0.18341845415494443 0.04779110046396106 -0.11979953934060267 0.22196433164529786 0.12640781984892258 -0.12261121073054722 0.0067166654922143918 -0.13322171257841695 0.12669562284881838 -0.76139750507220927 0.10143464743201429 -0.6042804689167226 0.11458217958682727 0.053992498816571553 -0.72490954424404264 0.0074722880309528927 0.094392674449674099 0.15793793641893675 -0.50416132657527424 0.011343231759322803 0.2325368668068187 0.15012272596439785 0.11276141990493344
decision_type=10 2 2 2 2 2 10 2 2 2 2 2 2 2 2 2 2 10 10 8 2 2 10 10 2 2 10 10 2 10
left_child=2 6 4 7 22 15 13 9 -3 -4 27 -8 -11 -2 -13 16 18 21 25 -17 -18 28 -1 -15 -6 29 -21 -10 -14 -5
right_child=1 8 3 5 24 -7 11 -9 10 12 -12 14 17 23 -16 19 20 -19 -20 26 -22 -23 -24 -25 -26 -27 -28 -29 -30 -31
leaf_value=0.097554433050854317 0.096014418320207642 0.079209364954591244 0.10454918070185017 0.10299080543230306 0.090576583547992806 0.11119086555659197 0.088354521474992717 0.10475602911789776 0.085075188626188639 0.10129920525790663 0.082032006982922998 0.09017622899449286 0.099290390165997847 0.092518080248041257 0.094068484163736171 0.10465094610424042 0.10744948974069171 0.096869625991094457 0.10551170044253598 0.10130656250190431 0.10489681904624235 0.1011192201883627 0.10017587779544777 0.094471186118675582 0.092751727640638312 0.10223385654505768 0.10288732603392244 0.086394234249098409 0.098005538933653824 0.10417856209975118
leaf_weight=25 35 21 20 25 20 22 23 26 34 37 28 23 30 36 20 23 34 26 20 22 20 20 20 20 21 32 33 25 21 23
leaf_count=25 35 21 20 25 20 22 23 26 34 37 28 23 30 36 20 23 34 26 20 22 20 20 20 20 21 32 33 25 21 23
internal_value=0.0974575 0.0889844 0.101775 0.103045 0.0953686 0.10465 0.0927908 0.100781 0.083451 0.10011 0.0844748 0.0907209 0.099447 0.0942921 0.0919866 0.104029 0.10457 0.0987404 0.103526 0.102962 0.106504 0.0994255 0.0987195 0.0932156 0.0916907 0.10303 0.102255 0.0856341 0.0987613 0.10356
internal_weight=785 265 520 434 86 254 157 180 108 154 87 66 134 91 43 232 154 97 100 78 54 71 45 56 41 80 55 59 51 48
internal_count=785 265 520 434 86 254 157 180 108 154 87 66 134 91 43 232 154 97 100 78 54 71 45 56 41 80 55 59 51 48
is_linear=0
shrinkage=1


Tree=1
num_leaves=32
num_cat=0
split_feature=84 54 65 18 76 77 71 70 64 61 53 54 57 32 32 84 56 76 65 66 43 57 77 66 67 51 32 35 57 76 54
split_gain=7.04932 1.36996 1.03815 0.387031 0.260147 0.252952 0.128791 0.12509 0.117924 0.117359 0.0601731 0.0601032 0.0408312 0.0389435 0.0338931 0.0346967 0.0336743 0.0415067 0.0397488 0.0358686 0.0289567 0.0213695 0.0159886 0.0142066 0.012412 0.0118958 0.00882925 0.00790247 0.00316092 0.0022714 0.00098997
threshold=0.12018947672650605 0.16115953999231453 0.068899001744798571 -0.042393228101505954 0.52530922190026141 0.79031322007354843 0.04779110046396106 0.28840850293674475 0.1847895926200466 -0.06523311591413615 0.12640781984892258 0.22196433164529786 -0.13322171257841695 0.0050669327584209594 -0.12261121073054722 0.10143464743201429 0.091392949854624636 0.087549995519382709 0.093748909729387084 0.46634642349721578 0.1584882245328052 0.18282592911849704 -0.72490954424404264 0.29227058169662246 -0.2946709930800977 0.15793793641893675 0.14576889695069337 0.012137884042470815 -0.28830627739080678 0.15726621954826903 0.067303109551439047
decision_type=10 2 2 2 2 2 2 2 2 2 2 2 2 2 2 10 2 2 2 2 2 2 2 2 2 2 2 2 2 2 2
left_child=2 7 4 8 20 16 -3 13 9 -4 -9 27 -12 -2 -11 22 18 24 19 23 -1 -15 26 -5 28 -6 -16 -8 -18 -23 -26
right_child=1 6 3 5 25 -7 11 10 -10 14 12 -13 -14 21 15 -17 17 -19 -20 -21 -22 29 -24 -25 30 -27 -28 -29 -30 -31 -32
leaf_value=0.0027482433344370549 -0.00096506869609584104 -0.017327864820306949 0.0066289000958204263 0.006363930030060666 -0.0065332226268947123 0.012844202504916625 -0.012044409215450285 -0.0092222383059561257 0.0069740635156631467 0.0035128781420644371 -0.0069215731602162121 -0.01452807734409968 -0.0032508359395433217 -0.0022276817830160405 0.0020651606126921252 -0.00061776261040134926 0.0036950057669757649 0.0071402566213356819 0.0093267658576369292 0.0084158690815622147 -0.00030258040176704524 -0.0049780707322061059 0.0033768558427691459 0.0044912303924560543 0.0052582172155380249 -0.0044885871007240242 0.00056026794919744128 -0.010594111571186466 0.0046399074196815486 -0.0041344447020027373 0.0058480508838381082
leaf_weight=21 24 22 21 35 20 22 21 20 24 32 24 27 20 22 32 26 26 38 20 22 24 20 20 25 20 21 25 38 25 27 21
leaf_count=21 24 22 21 35 20 22 21 20 24 32 24 27 20 22 32 26 26 38 20 22 24 20 20 25 20 21 25 38 25 27 21
internal_value=-6.52038e-05 -0.00802989 0.00399372 0.00518712 -0.00202876 0.00669546 -0.0132313 -0.00445186 0.00305869 0.00245632 -0.00649343 -0.0121833 -0.00525306 -0.0030469 0.00180725 0.00127735 0.00611239 0.00547208 0.00692846 0.00634351 0.00112114 -0.00377102 0.00191726 0.00558364 0.00478306 -0.00548597 0.00140512 -0.0111103 0.00415819 -0.00449343 0.00556033
internal_weight=785 265 520 434 86 254 108 157 180 156 64 86 44 93 135 103 232 130 102 82 45 69 77 60 92 41 57 59 51 47 41
internal_count=785 265 520 434 86 254 108 157 180 156 64 86 44 93 135 103 232 130 102 82 45 69 77 60 92 41 57 59 51 47 41
is_linear=0
shrinkage=0.06


Tree=2
num_leaves=31
num_cat=0
split_feature=84 70 76 85 56 45 12 77 76 83 34 71 22 56 32 32 85 85 32 85 35 63 77 77 83 61 57 43 34 46
split_gain=6.22878 0.99996 0.844038 0.337686 0.283218 0.281123 0.269971 0.140448 0.11012 0.102847 0.0613533 0.0443973 0.0435065 0.0484233 0.0397938 0.0346784 0.0276904 0.0272391 0.0236844 0.018598 0.0141808 0.011761 0.0103542 0.00789565 0.0065173 0.00596165 0.0042172 0.00153447 0.0012798 0.000888744
threshold=0.12018947672650605 0.3838001073300833 0.50180026294500435 0.11599401757936011 -0.15004159920828083 0.026866779682701018 0.029065594939550844 0.619049486220284 0.65953626865229131 0.25348831752034146 0.0064840172289041178 0.053992498816571553 -0.0579017676374073 0.091392949854624636 -0.096859980438228854 0.15012272596439785 0.14574779774890853 0.10344723740791738 0.13827107201137848 0.09452997775755663 0.022448012684465019 0.04779110046396106 -0.78437118697900665 -0.855808292148314 0.21712975851563662 -0.06977800297201249 -0.59845380713220531 0.026334542623744225 0.14272980914617797 0.044065245976357532
decision_type=10 2 2 8 2 2 2 2 2 10 2 2 2 2 2 2 10 10 2 10 2 2 2 2 10 2 2 2 2 2
left_child=2 10 3 14 7 11 12 16 -4 24 -2 -3 -6 23 -1 22 20 19 -16 29 25 26 -8 -14 -7 -5 28 -28 -15 -12
right_child=1 5 8 4 6 9 15 -9 -10 -11 17 -13 13 21 18 -17 -18 -19 -20 -21 -22 -23 -24 -25 -26 -27 27 -29 -30 -31
leaf_value=0.0033261387592012229 -0.0011825296011838046 -0.016198484727314541 -0.00061920979525893923 0.0074858236759901041 0.0081222952263695861 -0.011146638429164885 0.0016746662126055785 0.011927657499909402 -0.0062049572914838792 -0.0063508396982573543 -0.0040943599052049896 -0.012776618966689477 0.0061932487830519672 0.0056981044369084485 -0.00061313073383644217 -0.0002466732052978062 0.0050088872946798804 -0.0061701314784586422 0.0017498790179021084 -0.0021706597230929351 0.0086327396400950173 0.0036122660560067741 0.0033134633497051568 0.007792683642357588 -0.0097766083896160122 0.0060383792327983032 0.00417611110616814 0.0048931518409933358 0.0050627410322427752 -0.0046469943411648271
leaf_weight=22 33 21 24 20 21 25 35 24 27 39 22 39 25 21 37 28 24 20 26 21 22 32 23 20 25 21 22 21 25 20
leaf_count=22 33 21 24 20 21 25 35 24 27 39 22 39 25 21 37 28 24 20 26 21 22 32 23 20 25 21 22 21 25 20
internal_value=-6.12917e-05 -0.0075481 0.0037541 0.00455123 0.0053087 -0.0108001 0.00426967 0.00786414 -0.00357637 -0.00866027 -0.00337091 -0.0139743 0.00554922 0.00522372 0.00112925 0.0014874 0.00674317 -0.00424099 0.00036208 -0.00362857 0.00740385 0.00459878 0.00232453 0.00690411 -0.0104616 0.00674445 0.00495348 0.00452629 0.0053528 -0.00435752
internal_weight=785 265 520 469 384 149 273 111 51 89 116 60 187 166 85 86 87 83 63 63 63 121 58 45 50 41 89 43 46 42
internal_count=785 265 520 469 384 149 273 111 51 89 116 60 187 166 85 86 87 83 63 63 63 121 58 45 50 41 89 43 46 42
is_linear=0
shrinkage=0.06


Tree=3
num_leaves=31
num_cat=0
split_feature=84 54 65 18 76 77 71 34 64 61 70 54 44 32 86 56 76 65 66 85 84 77 66 51 67 35 32 86 65 36
split_gain=5.50375 1.07382 0.818711 0.305399 0.206418 0.197228 0.102093 0.0991355 0.0938931 0.0933515 0.0793569 0.0489015 0.0350577 0.0285167 0.0275548 0.0270754 0.0332704 0.0311979 0.0282436 0.0174732 0.0151412 0.014892 0.0111646 0.0102165 0.00986324 0.00654945 0.004435 0.00214725 0.00109575 0.000909678
threshold=0.12018947672650605 0.16115953999231453 0.068899001744798571 -0.042393228101505954 0.52530922190026141 0.79031322007354843 0.04779110046396106 0.0064840172289041178 0.18341845415494443 -0.06523311591413615 0.28840850293674475 0.22196433164529786 0.22972661880895445 -0.12261121073054722 0.007656325166112055 0.091392949854624636 0.087549995519382709 0.093748909729387084 0.46634642349721578 0.09452997775755663 0.0074722880309528927 -0.72490954424404264 0.29227058169662246 0.15793793641893675 -0.2946709930800977 0.012137884042470815 0.15012272596439785 -0.054408771900210755 0.084557087882783558 -0.24752033635226403
decision_type=10 2 2 2 2 2 2 2 2 2 2 2 2 2 10 2 2 2 2 10 10 2 2 2 2 2 2 10 2 2
left_child=2 7 4 8 20 15 -3 -2 9 -4 19 25 -12 -11 21 17 24 18 22 28 -1 26 -5 -6 27 -8 -15 -17 -9 -26
right_child=1 6 3 5 23 -7 11 10 -10 13 12 -13 -14 14 -16 16 -18 -19 -20 -21 -22 -23 -24 -25 29 -27 -28 -29 -30 -31
leaf_value=2.0527275279164311e-06 -0.0011125248791317322 -0.015347576168450441 0.0058525298961571281 0.0056446176362223927 -0.0058694751989096395 0.011357890922914851 -0.010649706593581608 -0.0037896016027246199 0.0060330257765375652 0.0031087383051635695 -0.0075690300720078606 -0.012882191671265496 -0.0044200108442455522 0.0014834358486788051 -0.00082461662061343133 0.0039782976046685249 0.006333019360899925 0.0082701445296406734 0.0074661178277297445 -0.0020926099620759489 0.002216943374136463 0.0029912439244799316 0.0039844811350107194 -0.0039746486555252755 0.0046396864631346292 -0.0093293898356588256 0.00039695324544611918 0.0031808876311406492 -0.0044025343656539911 0.0052050950825214383
leaf_weight=25 35 22 21 35 20 22 21 21 26 32 35 27 20 38 22 31 38 20 22 25 20 20 25 21 21 38 21 20 21 20
leaf_count=25 35 22 21 35 20 22 21 21 26 32 35 27 20 38 22 31 38 20 22 25 20 20 25 21 21 38 21 20 21 20
internal_value=-5.76142e-05 -0.00709521 0.00352885 0.00458864 -0.00181938 0.0059285 -0.0117002 -0.00392742 0.00269795 0.00213489 -0.00473497 -0.0107672 -0.00642393 0.00154789 0.00105337 0.00541365 0.0048395 0.0061454 0.00562717 -0.00334851 0.000986449 0.00157635 0.00495289 -0.00489895 0.00422261 -0.00979933 0.00109672 0.00366559 -0.00409607 0.0049155
internal_weight=785 265 520 434 86 254 108 157 180 154 122 86 55 133 101 232 130 102 82 67 45 79 60 41 92 59 59 51 42 41
internal_count=785 265 520 434 86 254 108 157 180 154 122 86 55 133 101 232 130 102 82 67 45 79 60 41 92 59 59 51 42 41
is_linear=0
shrinkage=0.06


Tree=4
num_leaves=29
num_cat=0
split_feature=84 54 65 77 18 73 70 64 61 63 53 54 32 77 84 57 39 32 85 87 77 51 85 85 57 35 32 56
split_gain=4.86311 0.948831 0.72568 0.266558 0.180495 0.096202 0.0877783 0.0846783 0.0834575 0.0830437 0.0476519 0.0429807 0.0345035 0.0613364 0.0329666 0.0312315 0.0302084 0.025379 0.0264458 0.0180628 0.0162736 0.0149341 0.00931494 0.00920522 0.00618702 0.00583898 0.00465115 0.00202435
threshold=0.12018947672650605 0.16115953999231453 0.067995866938211261 0.79031322007354843 -0.042393228101505954 0.16376824340559018 0.28840850293674475 0.18341845415494443 -0.06523311591413615 0.04779110046396106 0.12640781984892258 0.22196433164529786 0.12669562284881838 -0.76139750507220927 0.011343231759322803 -0.13322171257841695 0.0067166654922143918 -0.12261121073054722 0.11150171351909353 -0.60515229081201982 -0.70298169720627568 0.053992498816571553 0.09452997775755663 0.12344697639800437 -0.50416132657527424 0.017608050047176325 0.14576889695069337 -0.029641627982503953
decision_type=10 2 2 2 2 2 2 2 2 2 2 2 2 2 10 2 2 2 8 10 2 2 10 10 2 2 2 2
left_child=2 6 5 4 7 -1 16 8 -4 -3 -8 25 13 19 -14 -12 -2 -10 -19 24 26 -15 -18 -16 27 -11 -20 -6
right_child=1 9 3 -5 12 -7 10 -9 17 11 15 -13 14 21 23 -17 22 18 20 -21 -22 -23 -24 -25 -26 -27 -28 -29
leaf_value=3.5115091532871531e-05 -0.0011228168336341955 -0.014384665531771524 0.0055013781892401829 0.010676417486234144 0.0042116455240175125 -0.0042630323025054841 -0.0078303296361118546 0.0056710442700065094 0.0029222139209741727 -0.0097739276289939871 -0.0057574249431490898 -0.012116680549723761 0.0022416438058448524 0.0079234553128480906 0.0042433344512372408 -0.0025470696268603205 -0.0039065244009620264 -0.0005141774437652202 0.0015560308644067375 0.0061242076689782344 0.0030588246511761099 0.0058572031259536738 -0.0023067880121525374 0.0058161288286958414 0.0035702431050594896 -0.0085660125911235802 0.00045607651473255826 0.0050215151041746141
leaf_weight=37 35 21 21 22 20 38 20 26 32 34 24 28 26 34 37 20 38 30 31 23 20 20 20 21 32 25 25 25
leaf_count=37 35 21 21 22 20 38 20 26 32 34 24 28 26 34 37 20 38 30 31 23 20 20 20 21 32 25 25 25
internal_value=-5.41573e-05 -0.0066695 0.00331712 0.0042373 0.00390241 -0.00214261 -0.00369177 0.00249663 0.00197755 -0.0109982 -0.00540197 -0.0101808 0.00499513 0.00552868 0.00401696 -0.00429817 -0.00251486 0.00144131 0.000994246 0.00464875 0.00158968 0.00715818 -0.00335489 0.00481279 0.00420803 -0.0092621 0.00106498 0.00466157
internal_weight=785 265 520 445 423 75 157 185 159 108 64 87 238 154 84 44 93 138 106 100 76 54 58 58 77 59 56 45
internal_count=785 265 520 445 423 75 157 185 159 108 64 87 238 154 84 44 93 138 106 100 76 54 58 58 77 59 56 45
is_linear=0
shrinkage=0.06


Tree=5
num_leaves=32
num_cat=0
split_feature=88 54 76 85 49 77 71 12 38 88 76 54 32 67 85 32 32 38 85 46 33 77 32 85 64 73 67 85 45 37 33
split_gain=4.02044 0.943107 0.7373 0.216982 0.13617 0.106655 0.0951547 0.0832089 0.081885 0.0545801 0.0544226 0.0475585 0.0383725 0.0311433 0.0307182 0.0289992 0.0276513 0.0211444 0.0205547 0.0190177 0.0151653 0.0144749 0.010475 0.00905033 0.00805835 0.00694461 0.00473706 0.00462542 0.00389022 0.00310113 0.000934138
threshold=60.57549627015905 0.1592098496168142 0.50180026294500435 0.11561523374150413 0.058986825608210884 -0.67767388029675713 0.056044694204866914 0.029065594939550844 0.041675173364096992 37.683046809703932 0.68597120358601948 0.22458421147660093 0.067182650100121838 -0.79363237437778489 0.10355782734808114 0.14576889695069337 -0.10362009315582961 0.82554006564902915 0.10663392099772746 1.0391764743115641 -0.031093232971996992 -0.045858121264623998 -0.016889841298966281 0.09452997775755663 0.11350241964126437 0.1508296538200867 0.31834320968923696 0.14626628713670134 0.04335390906456605 0.065446299759654422 0.077660737298216306
decision_type=10 2 2 8 2 2 2 2 2 10 2 2 2 2 10 2 2 2 10 2 2 2 2 10 2 2 2 8 2 2 2
left_child=2 8 3 16 5 9 -3 21 24 13 -4 25 20 19 23 -9 -1 29 -16 -5 -7 -6 -15 -10 -2 26 -8 28 -24 -18 -30
right_child=1 6 10 4 7 12 11 15 14 -11 -12 -13 -14 22 18 -17 17 -19 -20 -21 -22 -23 27 -25 -26 -27 -28 -29 30 -31 -32
leaf_value=0.0028374060670929872 6.6959094372577956e-05 -0.013402763009071349 -0.0016407538088969887 0.0045589860007166864 0.004981124380955825 0.0070931089997291561 -0.0086908548474311821 0.0026206711185503603 -0.003688903252283732 0.0018937868364797585 -0.0055696512386202808 -0.011812375060149601 0.0051464879035949705 0.0053691105384911812 -0.0063624053416044815 7.5919158606618442e-05 -0.00074377550080848432 0.0019825165363727137 -0.0039000300575907413 0.006963982363713199 0.0093097602277994167 0.0030376771160147407 0.0034750817537955612 -0.0022506241106228638 -0.0016158756943020437 -0.0092975041900689778 -0.0073849669620394704 0.0030759204179048537 0.0046679187995883132 0.00022413162091238932 0.0041224950850009918
leaf_weight=22 20 27 22 20 37 25 20 28 36 29 30 21 25 21 23 38 26 21 26 29 20 22 23 28 21 26 20 20 26 22 20
leaf_count=22 20 27 22 20 37 25 20 28 36 29 30 21 25 21 23 38 26 21 26 29 20 22 23 28 21 26 20 20 26 22 20
internal_value=-0.000172828 -0.00615423 0.00287473 0.00361877 0.00424451 0.00503199 -0.0102911 0.00261915 -0.00309187 0.00428759 -0.00390743 -0.00932542 0.00703122 0.0047242 -0.00392526 0.00115551 0.000985148 0.000394574 -0.00505584 0.00598235 0.00807829 0.00425645 0.00416375 -0.00305966 -0.000794981 -0.00853411 -0.00803791 0.00387934 0.00411221 -0.000300151 0.00443078
internal_weight=794 268 526 474 383 258 114 125 154 188 52 87 70 159 113 66 91 69 49 49 45 59 110 64 41 66 40 89 69 48 46
internal_count=794 268 526 474 383 258 114 125 154 188 52 87 70 159 113 66 91 69 49 49 45 59 110 64 41 66 40 89 69 48 46
is_linear=0
shrinkage=0.06


Tree=6
num_leaves=32
num_cat=0
split_feature=84 54 76 85 66 56 71 39 9 76 54 70 46 56 85 45 31 66 85 92 64 46 56 32 73 63 64 66 87 61 91
split_gain=3.55343 0.841949 0.655138 0.181306 0.164352 0.0850489 0.0842 0.0801195 0.0559283 0.0480878 0.0429425 0.0357577 0.0303936 0.0274315 0.0252466 0.0230668 0.0224212 0.0193336 0.0117569 0.0110651 0.0109392 0.00956174 0.00917162 0.00641695 0.00613625 0.00598175 0.00567699 0.00418567 0.00340849 0.00211834 0.00124792
threshold=0.11962263821768303 0.1592098496168142 0.50180026294500435 0.11561523374150413 0.61299936991578552 -0.18713441606189907 0.053992498816571553 -0.016248190206716823 -0.063036685714726023 0.68597120358601948 0.22458421147660093 0.28840850293674475 -0.25344831879294522 0.091392949854624636 0.10648175695903721 0.034948551359173192 0.048604853233205923 -0.12363152529934454 0.09452997775755663 -0.047211782158956057 -0.079300582125753208 0.24120192500063961 0.032017021744651222 0.067182650100121838 0.1508296538200867 0.053992498816571553 0.11350241964126437 0.39890218725809207 -0.73678702857153011 0.065573727723127487 0.14461144990041935
decision_type=10 2 2 8 2 2 2 2 2 2 2 2 2 2 10 2 2 2 10 10 2 2 2 2 2 2 2 2 10 2 10
left_child=2 7 3 15 5 12 -3 26 22 -4 24 18 -5 19 -13 29 25 -17 -9 -10 -14 -6 -7 -22 27 28 -2 -8 -15 -1 -30
right_child=1 6 9 4 21 8 10 11 13 -11 -12 14 20 16 -16 17 -18 -19 -20 -21 23 -23 -24 -25 -26 -27 -28 -29 30 -31 -32
leaf_value=-0.00052221063338220124 -9.1143426993353806e-05 -0.012673559016906298 -0.0015423085289247949 0.0076352284070370455 0.0016609533336013555 0.0029966285688802601 -0.0081694035753607751 -0.0034675690655906993 0.0064550168998539449 -0.0052354721873998636 -0.011082994450222362 -0.0065387341167245589 0.0041060511097311967 0.0031872643757125604 -0.0038070586651306726 0.00073530518467752979 0.0057424653321504595 0.0031234202793110968 -0.0017531503958161919 0.0047133576047831563 0.0064115215837955474 -6.9945697000043262e-05 0.0014284259525673656 0.0050013619980641775 -0.0087396538716096143 0.0028027287365070407 -0.0014255009336920921 -0.0069418689161539074 0.0043297982549872884 0.0003510599511209875 0.0037940315705011873
leaf_weight=20 22 26 22 28 20 25 20 36 24 30 22 21 20 23 29 26 20 23 24 29 26 27 29 21 26 28 24 20 29 20 34
leaf_count=20 22 26 22 28 20 25 20 36 24 30 22 21 20 23 29 26 20 23 24 29 26 27 29 21 26 28 24 20 29 20 34
internal_value=-0.000162458 -0.00575422 0.00271879 0.00342297 0.00398984 0.00445469 -0.00967364 -0.00289002 0.00385536 -0.00367298 -0.0087873 -0.00376933 0.00597511 0.00434653 -0.00495436 0.000983523 0.00388951 0.00185626 -0.0027818 0.00550203 0.00528133 0.000666607 0.00215445 0.00578145 -0.00802207 0.00356443 -0.00078733 -0.00755564 0.00381242 -8.55753e-05 0.00404065
internal_weight=794 270 524 472 383 336 114 156 241 52 88 110 95 187 50 89 134 49 60 53 67 47 54 47 66 114 46 40 86 40 63
internal_count=794 270 524 472 383 336 114 156 241 52 88 110 95 187 50 89 134 49 60 53 67 47 54 47 66 114 46 40 86 40 63
is_linear=0
shrinkage=0.06


Tree=7
num_leaves=33
num_cat=0
split_feature=84 54 76 85 66 74 39 43 87 76 92 85 47 31 42 49 54 92 34 76 47 57 39 77 47 81 85 37 47 42 76 47
split_gain=3.13981 0.743946 0.57888 0.160202 0.145222 0.0764861 0.0707936 0.0638842 0.0452327 0.0424904 0.0396549 0.0247603 0.0225891 0.0257963 0.0209395 0.0205802 0.0188362 0.0171717 0.0165028 0.013994 0.0111243 0.0103089 0.00967401 0.00872327 0.0086385 0.00723949 0.00616364 0.00344372 0.00337512 0.0025488 0.00171808 0.000757528
threshold=0.11962263821768303 0.1592098496168142 0.50180026294500435 0.11561523374150413 0.61299936991578552 0.23039425446571002 -0.016248190206716823 0.16885320109175042 -0.44897774257568451 0.68597120358601948 -0.17521616294203443 0.10355782734808114 0.21524443292883608 0.048604853233205923 -0.10362009315582961 0.045209284989686967 0.21821566734186756 0.25187197850126436 0.16510801312980586 0.034644706046418901 -0.68315257122992168 -0.75611836746254169 0.13006904277654144 0.7703959034398441 0.10546101212885141 0.14861479367229402 0.09452997775755663 0.065446299759654422 -1.0031309899700178 0.017737144052004841 0.055041796763782881 -0.41140798352512853
decision_type=10 2 2 8 2 2 2 2 10 2 8 10 2 2 2 2 2 8 2 2 2 2 2 2 2 2 10 2 2 2 2 2
left_child=2 6 3 14 5 8 20 23 10 -4 -5 26 17 19 -1 -13 25 21 27 -14 -2 28 -19 -3 -6 -9 -8 -16 -12 -23 -31 -30
right_child=1 7 9 4 24 -7 11 16 -10 -11 12 15 13 -15 18 -17 -18 22 -20 -21 -22 29 -24 -25 -26 -27 -28 -29 31 30 -32 -33
leaf_value=0.0025305873663588 -0.0018039382392307745 -0.011817597235952104 -0.0014497700379103083 0.0067175310552120204 0.001531714689252632 0.0070785792917013165 -0.0032595149303476013 -0.0067253243095344965 0.0016913249255158006 -0.004921343795955181 0.0038444891385734079 -0.0056162522028067275 0.0052535599395632741 0.006450566723942756 -0.00069441757487276421 -0.0030962369609624147 -0.0095732447952032087 0.0035863332883657316 0.0017908205158476318 0.0031755457173234646 7.8254510791829e-05 0.0039801330012934552 0.0019385763050201509 -0.010088193863630295 -0.0001044349294478217 -0.0081422757446765887 -0.0020471655356679827 0.00035281376098282634 0.0050564876496791838 0.0035334554081782698 0.0027993899668482215 0.0045610696077346803
leaf_weight=22 20 21 22 20 21 30 36 27 30 30 20 28 20 24 26 20 20 23 21 28 26 21 29 21 26 25 26 20 20 24 22 25
leaf_count=22 20 21 22 20 21 30 36 27 30 30 20 28 20 24 26 20 20 23 21 28 26 21 29 21 26 25 26 20 20 24 22 25
internal_value=-0.000152711 -0.00540896 0.00255566 0.00321759 0.00375045 0.00418741 -0.00271662 -0.00909322 0.00390397 -0.0034526 0.00414447 -0.00354317 0.00394345 0.00484445 0.000924512 -0.00456625 -0.00800841 0.00359089 0.000397144 0.00404138 -0.00074009 0.00395469 0.00266739 -0.0109529 0.000626611 -0.00740655 -0.00275111 -0.0002391 0.00449302 0.00343242 0.00318238 0.00478126
internal_weight=794 270 524 472 383 336 156 114 306 52 276 110 256 72 89 48 72 184 67 48 46 132 52 42 47 52 62 46 65 67 46 45
internal_count=794 270 524 472 383 336 156 114 306 52 276 110 256 72 89 48 72 184 67 48 46 132 52 42 47 52 62 46 65 67 46 45
is_linear=0
shrinkage=0.06


Tree=8
num_leaves=31
num_cat=0
split_feature=84 54 76 85 56 12 39 63 76 54 70 77 53 39 45 56 63 47 67 54 47 57 76 77 92 73 34 77 76 85
split_gain=2.77433 0.657425 0.511498 0.141555 0.110733 0.126956 0.0659338 0.062244 0.0375445 0.0340138 0.031759 0.0263353 0.0261102 0.0214609 0.0187849 0.018374 0.0181485 0.0135935 0.0116223 0.0104393 0.0098294 0.0096149 0.00854444 0.00695552 0.00690866 0.00369224 0.00283562 0.00267183 0.00163056 0.00154985
threshold=0.11962263821768303 0.16115953999231453 0.50180026294500435 0.11561523374150413 -0.15004159920828083 0.029065594939550844 -0.016248190206716823 0.039719000042478907 0.68597120358601948 0.22458421147660093 0.28840850293674475 -0.31035793885308122 0.12640781984892258 0.13006904277654144 0.034948551359173192 0.091392949854624636 -0.15754314016304552 0.49972133741828489 -0.15561883224850911 -0.12248875935986295 -0.68315257122992168 0.18282592911849704 0.075337786996426556 -0.78437118697900665 -0.047211782158956057 0.1508296538200867 0.099503940282689621 -0.045858121264623998 0.15726621954826903 0.11028385688392732
decision_type=10 2 2 8 2 2 2 2 2 2 2 2 2 2 2 2 2 2 2 2 2 2 2 2 10 2 2 2 2 10
left_child=2 6 3 14 11 15 20 -3 -4 25 21 17 -12 23 29 24 -17 19 -16 -5 -2 -8 26 -7 -6 -9 -18 -28 -23 -1
right_child=1 7 8 4 5 13 10 9 -10 -11 12 -13 -14 -15 18 16 22 -19 -20 -21 -22 28 -24 -25 -26 -27 27 -29 -30 -31
leaf_value=-0.00046921929751988497 -0.0016957019472029059 -0.011407077273596886 -0.0013627838091501458 0.0051386304731879913 0.005638021197170019 0.0012086560790194197 -0.0013707049540244043 -0.0068022020082724724 -0.0046260631978511805 -0.0098278150893747803 -0.0061711219791322942 0.0067059557219701152 -0.0034237212171270089 -0.00010324749850189766 0.0025257324076329284 0.0048771454542875289 0.0021444863263009621 0.005721187204695664 0.00067414105181460801 0.0034637247607413979 7.3559256360078082e-05 -0.003365002602338791 0.0038322081024179588 0.0026323965857071537 0.0041667243232950566 -0.0077301154629542271 0.0034593203121965582 0.002588786508888006 -0.0025988422036170955 0.00027773890073876827
leaf_weight=20 20 23 22 21 20 30 20 38 30 24 20 28 33 37 26 25 22 26 23 37 26 20 37 21 27 26 22 30 20 20
leaf_count=20 20 23 22 21 20 30 20 38 30 24 20 28 33 37 26 25 22 26 23 37 26 20 37 21 27 26 22 30 20 20
internal_value=-0.000143548 -0.00508443 0.00240232 0.00302454 0.00352542 0.00286956 -0.00261068 -0.0086279 -0.00324544 -0.00790153 -0.00339023 0.00511238 -0.00446048 0.000996817 0.000869041 0.00377011 0.00341667 0.00458119 0.00165662 0.00407016 -0.000695685 -0.00244485 0.00308774 0.0017949 0.00479281 -0.00717917 0.0027155 0.00295709 -0.00298192 -9.57402e-05
internal_weight=794 270 524 472 383 271 159 111 52 88 113 112 53 88 89 183 136 84 49 58 46 60 111 51 47 64 74 52 40 40
internal_count=794 270 524 472 383 271 159 111 52 88 113 112 53 88 89 183 136 84 49 58 46 60 111 51 47 64 74 52 40 40
is_linear=0
shrinkage=0.06


Tree=9
num_leaves=32
num_cat=0
split_feature=84 58 76 85 66 74 71 39 85 85 58 51 70 43 85 32 76 58 56 47 85 57 66 40 77 67 73 51 57 63 47
split_gain=2.4514 0.581017 0.452074 0.123419 0.111949 0.0611911 0.0601238 0.0552485 0.0374988 0.0364578 0.0310086 0.0296516 0.0253851 0.0231175 0.0200256 0.0176692 0.0162296 0.0134871 0.0120823 0.00868526 0.00853563 0.00785208 0.00593855 0.00499592 0.0048604 0.00473756 0.00473377 0.00390048 0.00376651 0.00285666 0.00181764
threshold=0.11962263821768303 14.328886465513278 0.54417117437491114 0.11561523374150413 0.61299936991578552 0.23039425446571002 0.053992498816571553 -0.016248190206716823 0.13296250022531844 0.14585428029257444 20.212579032894084 0.15292688870760898 0.28840850293674475 0.0094860869787753207 0.10648175695903721 -0.10362009315582961 0.13192752037727326 11.467040626082186 0.12474061433551206 -0.68315257122992168 0.09452997775755663 -0.68624128918133398 0.41655193449635436 0.16801809022019631 -0.045858121264623998 -0.88744093815282399 0.1508296538200867 -0.1261540727974875 -0.39777714467341935 0.041421939585543396 -0.058131082615942214
decision_type=10 2 2 8 2 2 2 2 10 10 2 2 2 2 10 2 2 2 2 2 10 2 2 2 2 2 2 2 2 2 2
left_child=2 7 3 15 5 8 -3 19 13 25 26 -4 20 27 -14 -1 18 29 23 -2 -9 -6 -11 -15 30 -10 28 -5 -8 -17 -20
right_child=1 6 11 4 21 -7 10 12 9 22 -12 -13 14 16 -16 17 -18 -19 24 -21 -22 -23 -24 -25 -26 -27 -28 -29 -30 -31 -32
leaf_value=0.0022922357848636403 -0.0015939598318655045 -0.010570270293034039 -0.0049575170888565478 0.0010870884884414927 -0.00031058218271937219 0.0062643222734332085 -0.0056441385447978968 -0.0028824748223026594 0.004940122713645299 0.0027292272529654926 -0.0092370980436151679 -0.0019749855911359191 -0.0055397574656776017 0.0037017344848977191 -0.0031068780335822494 0.00029763097775035671 0.0016652007477823644 0.0016374490465968848 0.0031407982423096088 6.9145688679642396e-05 -0.0014216850687625991 0.0012493159887918199 0.0039133993685245509 0.004919780225239017 0.0024357891342891699 0.0060987030901014806 -0.0072663085162639612 0.0022578753121197223 -0.0068085888549685473 -0.00064324695169209285 0.0038507459387183188
leaf_weight=22 20 26 20 21 21 30 20 36 27 31 22 30 21 27 29 21 20 20 37 26 24 26 30 22 29 24 26 20 20 26 20
leaf_count=22 20 26 20 21 21 30 20 36 27 31 22 30 21 27 29 21 20 20 37 26 24 26 30 22 29 24 26 20 20 26 20
internal_value=-0.000134935 -0.00477936 0.00225818 0.00283057 0.00329606 0.00367759 -0.00803528 -0.00240003 0.00342563 0.00430143 -0.0072863 -0.003168 -0.00313022 0.00292518 -0.00412869 0.000816899 0.00326031 0.00033246 0.00349662 -0.000653944 -0.00229816 0.00055234 0.00331161 0.00424861 0.00306817 0.00548534 -0.00663604 0.0016582 -0.00622636 -0.000222855 0.0033899
internal_weight=794 270 524 474 385 338 114 156 308 112 88 50 110 196 50 89 155 67 135 46 60 47 61 49 86 51 66 41 40 47 57
internal_count=794 270 524 474 385 338 114 156 308 112 88 50 110 196 50 89 155 67 135 46 60 47 61 49 86 51 66 41 40 47 57
is_linear=0
shrinkage=0.06


Tree=10
num_leaves=32
num_cat=0
split_feature=88 54 49 18 66 74 50 57 64 39 32 77 70 61 43 32 60 46 57 43 47 32 40 57 32 85 85 87 56 39 44
split_gain=2.2158 0.444368 0.216473 0.22174 0.138647 0.0567311 0.0472188 0.0438431 0.039945 0.0323154 0.0208372 0.0413454 0.0176456 0.0134089 0.0121835 0.0112967 0.016788 0.0137764 0.00907911 0.00769241 0.0069173 0.00638306 0.012537 0.00570324 0.00533952 0.00452742 0.00443453 0.00434997 0.00334254 0.00191967 0.00101167
threshold=60.289809661712248 0.14578420610466999 0.28628481133243616 -0.042393228101505954 -0.53413258717198964 -0.01755765755480897 0.25006694940300195 0.9108674375053184 0.18228793286706027 -0.0020356504173449307 0.12669562284881838 -0.76139750507220927 0.28840850293674475 0.21079154887277329 0.16885320109175042 -0.14857743727369424 0.21018985604351151 -0.15006413918382264 0.18282592911849704 0.05990192307904408 -0.74439794059313291 0.14780207254584452 0.26307010332844166 -0.50416132657527424 -0.10362009315582961 0.10959475271664244 0.12455332663696612 -0.75280768151527178 -0.078701558888998727 0.11483677638174068 0.071644985713662776
decision_type=10 2 2 2 2 2 2 2 2 2 2 2 2 2 2 2 2 2 2 2 2 2 2 2 2 8 8 10 2 2 2
left_child=2 9 3 4 -1 -6 14 10 15 20 11 23 18 26 -3 -7 24 -18 -11 27 -2 -8 -23 28 -17 -26 -12 -13 -5 -27 -20
right_child=1 6 -4 7 5 8 21 -9 -10 12 13 19 -14 -15 -16 16 17 -19 30 -21 -22 22 -24 -25 25 29 -28 -29 -30 -31 -32
leaf_value=-0.0035106651526875796 -0.0017370414505289359 -0.0094000093958207537 -0.0037681278074160217 0.0028841357119381425 0.0047548655904829503 0.0023633473260062077 -0.0053243957200775974 0.006504093490540981 0.0035448523559090165 -0.001149910326115787 0.0030446025278223184 0.0062029364705085748 -0.003846096656174938 0.0019245369828251356 -0.007488191894122532 0.0011494332276284695 0.0029711731472052633 0.00098662729119121861 -0.0030173371955752371 0.004291427823901176 -0.00030378295781297818 -0.0075325736014739313 -0.0055291200395334843 0.002420667804711099 -0.00063503582181874657 0.00076264074837256756 0.004148381263017655 0.0049803131036460398 0.0038524575734680353 1.3680713044860484e-05 -0.0024138467274606224
leaf_weight=20 22 28 20 21 20 21 23 20 27 20 38 22 38 34 21 25 20 34 20 25 27 23 22 28 20 28 20 20 33 22 20
leaf_count=20 22 28 20 21 20 21 23 20 27 20 38 22 38 34 21 25 20 34 20 25 27 23 22 28 20 28 20 20 33 22 20
internal_value=7.23013e-05 -0.00440149 0.00235238 0.00259818 0.00126955 0.00171013 -0.00716071 0.00380464 0.00140102 -0.00220538 0.00358062 0.00401901 -0.00283442 0.00287062 -0.00858066 0.00106052 0.000876905 0.00172164 -0.0021937 0.00512472 -0.000947287 -0.00613751 -0.00655311 0.00311557 0.000396737 0.000127917 0.00342522 0.00562073 0.00347589 0.000433098 -0.00271559
internal_weight=782 264 518 498 237 217 117 261 197 147 241 149 98 92 49 170 149 54 60 67 49 68 45 82 95 70 58 42 54 50 40
internal_count=782 264 518 498 237 217 117 261 197 147 241 149 98 92 49 170 149 54 60 67 49 68 45 82 95 70 58 42 54 50 40
is_linear=0
shrinkage=0.06


Tree=11
num_leaves=31
num_cat=0
split_feature=88 54 65 18 76 77 64 45 64 39 53 88 85 86 45 63 32 54 71 85 56 71 64 92 56 51 32 64 47 75
split_gain=1.95788 0.392643 0.271904 0.113263 0.0969136 0.0491117 0.0478748 0.0418492 0.0387886 0.0285539 0.0164417 0.0160973 0.0222675 0.0134321 0.0133142 0.0129068 0.0108423 0.00817218 0.00780972 0.00713337 0.00703456 0.00653684 0.00607046 0.00405081 0.0082029 0.00379292 0.0054604 0.00468855 0.00323574 0.00210747
threshold=60.289809661712248 0.14578420610466999 0.068899001744798571 -0.042393228101505954 0.52530922190026141 0.37639022652646664 -0.052030447216892574 0.029389423094446265 0.18341845415494443 -0.0020356504173449307 0.095850333171788593 9.6068350015661057 0.14615262647850383 0.48091658186573077 0.037762179353442747 0.13347693919078649 -0.14857743727369424 0.12131168988699313 0.22098820321034746 0.09452997775755663 -0.089937269412955767 -0.15659402654701929 0.13330188311022714 -0.090117287883357058 -0.040815182270413787 0.048142234990493658 0.13695612606632793 0.13418630790858446 -0.2747207499542676 0.092447384696770621
decision_type=10 2 2 2 2 2 2 2 2 2 2 10 10 10 2 2 2 2 2 10 2 2 2 10 2 2 2 2 2 2
left_child=2 9 4 6 14 11 -4 15 16 18 -11 25 21 19 -1 -3 -8 23 -2 -12 -9 -13 -19 24 -18 -5 -27 -28 -23 -14
right_child=1 7 3 5 -6 -7 8 20 -10 10 13 12 29 -15 -16 -17 17 22 -20 -21 -22 28 -24 -25 -26 26 27 -29 -30 -31
leaf_value=2.5698752659890386e-05 -0.00026139699420409985 -0.008747069430537522 0.0043950174163494785 0.002027779501778158 -0.0032103487128719082 0.0057383534227098739 0.0022215464551533972 -0.0064566097822454241 0.003530348391830921 -0.0041991329155862331 -0.002572958819568157 0.0053393746806042527 0.0024665764828638078 -0.0036116628712043164 0.0020681904839293564 -0.0068040728196501728 0.001662072356790304 0.0021767210033722217 -0.0018025757531868291 -0.001229310808306433 -0.0051899708229068081 0.004622454277493737 0.000716127899941057 -8.4717234931304115e-05 -1.6860765595497054e-05 0.0035428589843213556 0.0031216175984591244 0.0018224336702842264 0.0036500820703804491 0.0032558149205786841
leaf_weight=27 29 32 21 22 37 35 21 27 25 20 25 21 29 20 20 20 20 20 20 33 38 22 21 36 22 30 20 20 28 21
leaf_count=27 29 32 21 22 37 35 21 27 25 20 25 21 29 20 20 20 20 20 20 33 38 22 21 36 22 30 20 20 28 21
internal_value=6.79632e-05 -0.0041374 0.00221124 0.00281601 -0.000913396 0.00365543 0.00169678 -0.00673107 0.00135336 -0.00207306 -0.00266436 0.00331316 0.00376798 -0.00227083 0.000894844 -0.00799976 0.000964616 0.000742805 -0.00089045 -0.00180847 -0.00571611 0.00445103 0.00142861 0.000382317 0.000782631 0.00271498 0.00293095 0.00247203 0.00407793 0.00279806
internal_weight=782 264 518 434 84 248 186 117 165 147 98 213 121 78 47 52 140 119 49 58 65 71 41 78 42 92 70 40 50 50
internal_count=782 264 518 434 84 248 186 117 165 147 98 213 121 78 47 52 140 119 49 58 65 71 41 78 42 92 70 40 50 50
is_linear=0
shrinkage=0.06


Tree=12
num_leaves=29
num_cat=0
split_feature=84 54 76 85 66 54 35 84 43 92 86 92 53 46 44 45 46 61 4 32 43 78 32 47 73 47 75 91
split_gain=1.72998 0.347018 0.237151 0.0809763 0.0709758 0.0730735 0.0480384 0.0450198 0.0406727 0.0313288 0.0280496 0.023235 0.0173557 0.0170357 0.0121399 0.00986266 0.00822902 0.00760386 0.00654978 0.0174358 0.00582259 0.00463207 0.00392156 0.0027953 0.00247539 0.00232598 0.00268173 0.00307392
threshold=0.11962263821768303 0.1592098496168142 0.50180026294500435 0.11599401757936011 0.61299936991578552 0.20014786038428672 0.01902643656904596 0.074767950019253834 0.19304674089603099 -0.017545763681558323 0.51621869485963856 -0.18314989357422409 0.085814594187145973 1.1068262225361538 0.044186884469335351 0.034948551359173192 0.28241126962346719 0.051515504318507786 1.2200200967940813 0.13596020591775898 0.14238890898403375 26.718549909977543 -0.040671820857685732 -0.30857006465017606 0.071377876021556777 -0.14535508663782556 0.10492669450826568 0.13561111179683696
decision_type=10 2 2 8 2 2 2 10 2 10 10 8 2 2 2 2 2 2 2 2 2 2 2 2 2 2 2 10
left_child=2 9 3 15 5 7 -4 11 20 -2 12 -5 -11 18 -14 -1 -6 -17 19 -13 -3 22 -20 -10 -16 26 27 -24
right_child=1 8 6 4 16 -7 -8 -9 23 10 -12 13 14 -15 24 17 -18 -19 21 -21 -22 -23 25 -25 -26 -27 -28 -29
leaf_value=8.3672262224258456e-05 -0.00025919296261337068 -0.0086986414023808075 -0.0037343629234685345 0.0050942314378917214 0.0013582116760080681 0.0060102227047599596 0.0001769525776617229 0.00089664246735943328 -0.0052624296377363957 -0.0036750669458082744 -0.0045131617465189525 0.0031241294473875313 -0.00079812279031161342 0.0041280981210561896 -0.0027873827743210961 0.00053441948922617092 -0.00034235088753380947 0.0020694641854900578 0.0034307679678163218 0.00098476155137177551 -0.0073018783466382454 0.0037687320067462593 0.0026366001321002841 -0.0060895410645753142 -0.0019756787439416112 0.003178309580683708 0.0029477877000516108 0.0017152857534926045
leaf_weight=38 27 21 26 20 20 29 20 37 38 21 21 32 31 39 21 21 21 26 31 24 22 22 32 24 38 25 33 22
leaf_count=38 27 21 26 20 20 29 20 37 38 21 21 32 31 39 21 21 21 26 31 24 22 22 32 24 38 25 33 22
internal_value=6.38854e-05 -0.00388916 0.00207856 0.00247934 0.00284765 0.00312736 -0.00203379 0.00286363 -0.00656604 -0.00212141 -0.00250231 0.00312355 -0.00212188 0.00297196 -0.00175947 0.000802452 0.000487192 0.00138359 0.00276794 0.00220726 -0.00798402 0.00295823 0.00283354 -0.0055826 -0.00226459 0.00266823 0.00252166 0.00226125
internal_weight=782 264 518 472 387 346 46 317 105 159 132 280 111 260 90 85 41 47 221 56 43 165 143 62 59 112 87 54
internal_count=782 264 518 472 387 346 46 317 105 159 132 280 111 260 90 85 41 47 221 56 43 165 143 62 59 112 87 54
is_linear=0
shrinkage=0.06


Tree=13
num_leaves=32
num_cat=0
split_feature=84 54 65 18 76 78 78 50 64 43 32 84 85 70 46 56 32 54 61 87 71 39 40 75 64 91 32 91 44 91 87
split_gain=1.52861 0.308333 0.214796 0.0897249 0.0764513 0.0398666 0.0378209 0.0334799 0.0299377 0.0241608 0.0155458 0.0141371 0.0181582 0.0131373 0.0113155 0.00937792 0.00931026 0.00677501 0.00654854 0.00771403 0.00573322 0.00500429 0.0121186 0.00466783 0.00459717 0.00419469 0.00592388 0.00358124 0.00277239 0.00232174 0.00050524
threshold=0.11962263821768303 0.14578420610466999 0.068899001744798571 -0.042393228101505954 0.52530922190026141 58.05935212535892 -4.4245297038118609 0.25006694940300195 0.18341845415494443 0.014613434916207547 -0.023233774999336331 0.019061180558662908 0.14615262647850383 0.28840850293674475 0.11909106710824266 0.03656452044208542 -0.14857743727369424 0.12131168988699313 0.11186113393338669 -0.23010763891308997 -0.15659402654701929 0.14331496971401811 0.26307010332844166 0.10337537718372929 0.13330188311022714 0.12653586309870726 -0.083594635270401771 0.2284577410011798 0.034823027922136214 0.11276141990493344 -0.66036860345733872
decision_type=10 2 2 2 2 2 2 2 2 2 2 10 10 2 2 2 2 2 2 10 2 2 2 2 2 8 2 8 2 10 10
left_child=2 9 4 6 14 11 -4 15 16 13 -11 27 20 -2 -1 -3 -8 25 -12 -20 -13 -9 -23 -21 -19 -18 -27 30 -22 -14 -5
right_child=1 7 3 5 -6 -7 8 21 -10 10 18 12 29 -15 -16 -17 17 24 19 23 28 22 -24 -25 -26 26 -28 -29 -30 -31 -32
leaf_value=0.001775132440538569 -0.0020151639982525791 -0.0061503447778522968 0.0039601035062223674 0.0024720725488777346 -0.0028634354621927078 0.0049995419010519975 0.0020244159663395426 -0.00439569799345918 0.0031118035331368444 0.00011377770644945225 -0.0026586560737341643 0.0047794674975531444 0.0027886705212295053 -0.0041638454329222443 -9.0627457760274413e-05 -0.0078391845524311068 -0.0003123638315708376 0.0019318110225722193 -0.00047098247533930193 -0.0025456537026911975 0.0040631233900785442 -0.0065148596039840152 -0.0045212972488092341 -0.0013045313328620977 0.00066075703328741437 0.0014470533983549103 0.00014569480960798341 0.0018818587119175069 0.0031688475866730398 0.0019540923200547697 0.0028498433366417881
leaf_weight=22 21 20 20 26 37 39 21 24 25 21 20 21 30 20 25 29 25 20 21 20 24 21 23 24 21 20 34 37 26 20 25
leaf_count=22 21 20 20 26 37 39 21 24 25 21 20 21 30 20 25 29 25 20 21 20 24 21 23 24 21 20 34 37 26 20 25
internal_value=6.00523e-05 -0.00365581 0.00195385 0.00249137 -0.000823332 0.00323849 0.0014952 -0.0059542 0.00119823 -0.00182647 -0.00134808 0.00290988 0.00333071 -0.0030633 0.000782707 -0.00714986 0.000858939 0.000654981 -0.00170924 -0.00141711 0.00394752 -0.00509263 -0.00547277 -0.00186868 0.00128078 0.000330197 0.000627679 0.00233124 0.0035981 0.00245484 0.00265725
internal_weight=782 264 518 434 84 248 186 117 166 147 106 209 121 41 47 49 141 120 85 65 71 68 44 44 41 79 54 88 50 50 51
internal_count=782 264 518 434 84 248 186 117 166 147 106 209 121 41 47 49 141 120 85 65 71 68 44 44 41 79 54 88 50 50 51
is_linear=0
shrinkage=0.06


Tree=14
num_leaves=31
num_cat=0
split_feature=84 54 76 18 32 54 74 71 64 43 54 32 70 81 45 85 84 47 66 55 45 56 83 85 32 75 41 77 87 57
split_gain=1.35068 0.272443 0.189811 0.0776973 0.0799846 0.0373304 0.0368141 0.0303681 0.0259708 0.0213485 0.0203297 0.0137363 0.0116081 0.011284 0.0154342 0.0112076 0.0149186 0.00910423 0.011438 0.00655527 0.00650529 0.00606662 0.00393027 0.00356906 0.00310109 0.00435391 0.00286229 0.00163106 0.00150099 0.000964295
threshold=0.11962263821768303 0.14578420610466999 0.65953626865229131 -0.042393228101505954 0.26651403661799716 0.19859468519159687 -0.01755765755480897 0.062643153724264031 0.18228793286706027 0.014613434916207547 0.21956196576686779 -0.023233774999336331 0.28840850293674475 0.25716348152548052 0.036165746876146133 0.14620589196466663 0.025273336998189785 -0.83800136761774235 -0.30125397889461819 0.075396713134448998 0.043992654803416402 -0.0064350540232485333 0.2325368668068187 0.11443729985775546 0.12409220743795406 0.092447384696770621 0.16793408333082027 -0.8901988042768092 -0.73342363864937454 -0.7412240032034062
decision_type=10 2 2 2 2 2 2 2 2 2 2 2 2 2 2 8 10 2 2 2 2 2 10 8 2 2 2 2 10 2
left_child=2 9 3 6 5 15 -1 -3 13 12 21 -11 -2 14 23 16 26 -13 -19 -18 -16 22 -9 29 25 -17 28 -25 -5 -8
right_child=1 7 -4 4 -6 -7 8 10 -10 11 -12 17 -14 -15 20 24 19 18 -20 -21 -22 -23 -24 27 -26 -27 -28 -29 -30 -31
leaf_value=0.0037224973216652868 -0.001894254156255296 -0.0076056645878336653 -0.0032637378171086313 0.0019098300061634055 -0.00077620379759797025 0.0048382360025032147 -0.00019302914093714205 -0.0055589192911334653 0.002757148125933276 0.00010695104038209787 -0.0065616340591357304 -0.0023139540808325685 -0.0039140147008001804 -0.00042206106358207759 0.0023478416089088685 0.0017816894167018205 0.0042844579167462685 3.4391737310215835e-05 -0.0018442849518864283 0.0030112331826239827 0.00095989142765756695 -0.003846615314483643 -0.0044236066990665027 0.000379210676823277 0.0015052566588856279 0.0029390224054455755 0.0029861180924556472 0.0010456563533919577 0.0025639882697058576 0.00038910571206361054
leaf_weight=20 21 22 25 23 21 37 21 23 27 21 26 37 20 25 31 22 37 20 28 24 20 25 21 20 20 25 33 39 28 20
leaf_count=20 21 22 25 23 21 37 21 23 27 21 26 37 20 25 31 22 37 20 28 24 20 25 21 20 20 25 33 39 28 20
internal_value=5.64492e-05 -0.00343646 0.00183662 0.00209526 0.0027798 0.00307971 0.00126644 -0.00559695 0.00102446 -0.00171689 -0.00513178 -0.00126719 -0.0028795 0.000758652 0.000954134 0.00277279 0.00306934 -0.00160669 -0.0010615 0.00378352 0.00180355 -0.00459299 -0.00501707 0.000520933 0.00213101 0.00239729 0.00255071 0.000819743 0.00226898 9.09391e-05
internal_weight=782 264 518 493 270 249 223 117 203 147 95 106 41 176 151 212 145 85 48 61 51 69 44 100 67 47 84 59 51 41
internal_count=782 264 518 493 270 249 223 117 203 147 95 106 41 176 151 212 145 85 48 61 51 69 44 100 67 47 84 59 51 41
is_linear=0
shrinkage=0.06


end of trees

feature_importances:
std_504=36
Returns=34
ma_90=29
skew_252=26
kurt_252=23
ma_504=21
skew_90=16
kurt_90=16
ma_180=15
kurt_25=14
skew_180=13
min_5=12
lag_25=10
max_180=10
first_return_180=10
std_25=9
std_180=9
ROA_log=8
skew_25=8
first_return_25=8
first_return_90=8
lag_180=8
kurt_504=8
last_return_504=7
lag_90=6
kurt_180=6
lag_252=6
first_return_504=6
ma_5=5
std_5=5
lag_504=5
total_return_504=5
ma_25=4
ma_252=4
std_252=4
skew_504=4
Assets_log=3
max_5=3
min_25=3
total_return_90=3
total_return_252=3
CostsAndExpenses_log=2
lag_5=2
kurt_5=2
total_return_5=2
last_return_5=2
max_25=2
first_return_252=2
DebtToEquity=1
NetIncomeLoss_log=1
DebtToEquity_log=1
skew_5=1
first_return_5=1
std_90=1
max_90=1

parameters:
[boosting: gbdt]
[objective: regression]
[metric: rmse]
[tree_learner: serial]
[device_type: cpu]
[data_sample_strategy: bagging]
[data: ]
[valid: ]
[num_iterations: 2000]
[learning_rate: 0.06]
[num_leaves: 64]
[num_threads: 4]
[seed: 42]
[deterministic: 0]
[force_col_wise: 0]
[force_row_wise: 0]
[histogram_pool_size: -1]
[max_depth: -1]
[min_data_in_leaf: 20]
[min_sum_hessian_in_leaf: 0.001]
[bagging_fraction: 0.8]
[pos_bagging_fraction: 1]
[neg_bagging_fraction: 1]
[bagging_freq: 5]
[bagging_seed: 400]
[bagging_by_query: 0]
[feature_fraction: 0.8]
[feature_fraction_bynode: 1]
[feature_fraction_seed: 30056]
[extra_trees: 0]
[extra_seed: 12879]
[early_stopping_round: 0]
[early_stopping_min_delta: 0]
[first_metric_only: 0]
[max_delta_step: 0]
[lambda_l1: 0]
[lambda_l2: 0]
[linear_lambda: 0]
[min_gain_to_split: 0]
[drop_rate: 0.1]
[max_drop: 50]
[skip_drop: 0.5]
[xgboost_dart_mode: 0]
[uniform_drop: 0]
[drop_seed: 17869]
[top_rate: 0.2]
[other_rate: 0.1]
[min_data_per_group: 100]
[max_cat_threshold: 32]
[cat_l2: 10]
[cat_smooth: 10]
[max_cat_to_onehot: 4]
[top_k: 20]
[monotone_constraints: ]
[monotone_constraints_method: basic]
[monotone_penalty: 0]
[feature_contri: ]
[forcedsplits_filename: ]
[refit_decay_rate: 0.9]
[cegb_tradeoff: 1]
[cegb_penalty_split: 0]
[cegb_penalty_feature_lazy: ]
[cegb_penalty_feature_coupled: ]
[path_smooth: 0]
[interaction_constraints: ]
[verbosity: -1]
[saved_feature_importance_type: 0]
[use_quantized_grad: 0]
[num_grad_quant_bins: 4]
[quant_train_renew_leaf: 0]
[stochastic_rounding: 1]
[linear_tree: 0]
[max_bin: 255]
[max_bin_by_feature: ]
[min_data_in_bin: 3]
[bin_construct_sample_cnt: 200000]
[data_random_seed: 175]
[is_enable_sparse: 1]
[enable_bundle: 1]
[use_missing: 1]
[zero_as_missing: 0]
[feature_pre_filter: 1]
[pre_partition: 0]
[two_round: 0]
[header: 0]
[label_column: ]
[weight_column: ]
[group_column: ]
[ignore_column: ]
[categorical_feature: ]
[forcedbins_filename: ]
[precise_float_parser: 0]
[parser_config_file: ]
[objective_seed: 16083]
[num_class: 1]
[is_unbalance: 0]
[scale_pos_weight: 1]
[sigmoid: 1]
[boost_from_average: 1]
[reg_sqrt: 0]
[alpha: 0.9]
[fair_c: 1]
[poisson_max_delta_step: 0.7]
[tweedie_variance_power: 1.5]
[lambdarank_truncation_level: 30]
[lambdarank_norm: 1]
[label_gain: ]
[lambdarank_position_bias_regularization: 0]
[eval_at: ]
[multi_error_top_k: 1]
[auc_mu_weights: ]
[num_machines: 1]
[local_listen_port: 12400]
[time_out: 120]
[machine_list_filename: ]
[machines: ]
[gpu_platform_id: -1]
[gpu_device_id: -1]
[gpu_use_dp: 0]
[num_gpu: 1]

end of parameters

pandas_categorical:[]
