tree
version=v4
num_class=1
num_tree_per_iteration=1
label_index=0
max_feature_idx=94
objective=regression
feature_names=WeightedAverageNumberOfDilutedSharesOutstanding ROE ROA AssetTurnover DebtToEquity NetProfitMargin OperatingMargin EarningsPerShareDiluted_log GrossProfit_log NetIncomeLoss_log OperatingIncomeLoss_log Revenues_log Assets_log Liabilities_log NoncurrentAssets_log WeightedAverageNumberOfDilutedSharesOutstanding_log Equity_log ROE_log ROA_log BookValuePerShare_log SalesPerShare_log AssetTurnover_log DebtToEquity_log NetProfitMargin_log OperatingMargin_log EarningsPerShareDilutedTTM_log SalesPerShareTTM_log PE_Ratio PB_Ratio PS_Ratio MarketCapLog Price CostsAndExpenses_log Returns Returns_Daily lag_5 ma_5 std_5 skew_5 kurt_5 total_return_5 min_5 max_5 first_return_5 last_return_5 lag_25 ma_25 std_25 skew_25 kurt_25 total_return_25 min_25 max_25 first_return_25 last_return_25 lag_90 ma_90 std_90 skew_90 kurt_90 total_return_90 min_90 max_90 first_return_90 last_return_90 lag_180 ma_180 std_180 skew_180 kurt_180 total_return_180 min_180 max_180 first_return_180 last_return_180 lag_252 ma_252 std_252 skew_252 kurt_252 total_return_252 min_252 max_252 first_return_252 last_return_252 lag_504 ma_504 std_504 skew_504 kurt_504 total_return_504 min_504 max_504 first_return_504 last_return_504
feature_infos=[24900000000:25380000000] [0.02750408787891493:0.27785961220502031] [0.015088784616800074:0.17069882544138287] [0.14648784825133374:0.33463839846347049] [0.62777694273260187:0.89648227083235754] [0.097852028639618144:0.51009933774834437] [0.074433174224343673:0.5748896247240618] [-0.89844005198550259:1.1045846754991355] [-0.62225345925025244:0.71084675765934613] [-0.90278530867434803:1.1081926168753347] [-1.3200175230372693:1.1561167831483008] [-0.21210432233734527:0.63023877240930792] [-0.071203427789163581:0.22716196361762778] [-0.054558560481847623:0.37563399019172811] none [-0.006804108699540061:0.0036079413761990835] [-0.11082124500635301:0.19028342554610253] [-0.80428234739377147:0.993459360295597] [-0.8636318320468036:0.99969936155271344] [-0.10725193723123257:0.19228623014107318] [-0.20775906564849989:0.6266308310331089] [-0.17295084570980127:0.52174551708668648] [-0.24484198602795018:0.25660887264667998] [-0.69910640383135048:0.71205433350277081] [-1.1079132006999239:0.71706169770934147] [-0.30612854079048013:0.76909884510081783] [-0.054723751994066469:0.31902756553839123] [36.733210826388373:247.9123704281308] [11.875305281340774:48.194974476128181] [9.5555008906446446:46.021882060162447] [-0.099517742078714236:0.21808776444046329] [0.060459965374402659:0.24686747059014991] none [-0.7566527593364103:1.3130230164838128] [-0.095932022680594156:0.20022065555729598] [-0.7566527593364103:1.3130230164838128] [-0.7016950241786174:1.291622418610237] [0.0022894684762349736:0.12285629941442328] [-2.2013757686477207:2.2053262974500583] [-3.2375869177689403:4.8913075712632237] [-0.24069923120966613:0.24205278588798501] [-0.7566527593364103:1.2659128502337555] [-0.66670250350111937:1.3130230164838128] [-0.7566527593364103:1.3130230164838128] [-0.7566527593364103:1.3130230164838128] [-0.7566527593364103:1.3130230164838128] [-0.63924719461845603:1.1886090366069753] [0.031649829891559386:0.22288319454838507] [-1.7084827207958175:1.3072903099085902] [-1.7187481736142114:4.5387044031316179] [-0.43022472677259693:0.41879828464336277] [-0.7566527593364103:1.0673226659210122] [-0.55441522071610838:1.3130230164838128] [-0.7566527593364103:1.3130230164838128] [-0.7566527593364103:1.3130230164838128] [-0.7566527593364103:1.0400564595414836] [-0.56936422536618381:1.0621288240984175] [0.073660907533105349:0.35930762886833312] [-0.79818311941887987:1.4844948350838154] [-1.616436893391872:2.8308870735547198] [-0.58661117413663733:0.81512037722782749] [-0.7566527593364103:0.75934703962666161] [-0.38682529559846046:1.3130230164838128] [-0.7566527593364103:1.0400564595414836] [-0.7566527593364103:1.3130230164838128] [-0.7566527593364103:0.97490571729629194] [-0.36734188125530032:0.85010627136639261] [0.10431938848153077:0.55304268647760224] [-1.0379130408007653:0.60023137676528937] [-1.5321339497616051:0.24858034672741586] [-0.81190294075170732:1.2457989713270958] [-0.7566527593364103:0.45587467835707612] [0.037994754512454668:1.3130230164838128] [-0.7566527593364103:0.97490571729629194] [-0.7566527593364103:1.3130230164838128] [-0.7566527593364103:1.1990610159182016] [-0.23001499123854346:0.81158136733755204] [0.11840115401928851:0.65251412410329457] [-1.0910796612097116:0.76565317609342254] [-1.4835345681768959:0.8006838589559826] [-0.75665275933641074:1.3130230164838139] [-0.7566527593364103:0.45587467835707612] [0.32658946469521616:1.3130230164838128] [-0.7566527593364103:1.1990610159182016] [-0.7566527593364103:1.3130230164838128] [-0.55251187879663644:1.1990610159182016] [0.17828462491795788:0.73102172157002432] [0.18714211569394135:0.5856850257783881] [-1.2750666968720687:0.17477075444456106] [-1.2641504463262399:1.8977027507264115] [-0.21821422704736942:1.7645926627829358] [-0.7566527593364103:0.34091082886056606] [0.87636365098959013:1.3130230164838128] [-0.55251187879663644:1.1990610159182016] [-0.7566527593364103:1.3130230164838128]
tree_sizes=1673 1832 1834 1735 1733 1834 1735 1748 1744 1658 1754 1744 1575 1661 1745 1582 1749 1761 1670 1840 1656 1758 1843 1672

Tree=0
num_leaves=18
num_cat=0
split_feature=71 73 27 56 41 56 69 28 73 89 78 60 44 60 29 85 47
split_gain=6.05606 0.977418 0.186715 0.0866883 0.0520758 0.0419067 0.0314814 0.0272206 0.0142622 0.0138493 0.0129916 0.00970137 0.00480364 0.0045254 0.00272169 0.0013002 0.000436962
threshold=0.05385381207381406 0.15777489974033607 73.308764236589013 0.94140651724382363 0.36346722726423553 -0.01550238670421141 -1.0386813413882408 27.823148205238542 0.36071722840276793 -1.1643479020796723 0.35465284169539019 0.44131372515270245 -0.093123337716375973 0.37367416302186646 22.900759450696139 1.0219701789632742 0.067796335670933086
decision_type=2 2 2 2 2 2 2 2 2 2 2 2 2 2 2 2 2
left_child=1 3 4 6 -2 8 9 -4 -3 10 11 -1 -7 -9 -6 16 -10
right_child=2 5 7 -5 14 12 -8 13 15 -11 -12 -13 -14 -15 -16 -17 -18
leaf_value=0.062320314658723661 0.053399441202338721 0.059478955346263788 0.049502398103627492 0.064482558566690315 0.051285116338249809 0.057300850911489801 0.063253252029280602 0.048339877118429124 0.057931782186759435 0.060970803288749167 0.06283943234524611 0.061022882359111956 0.056471411692538026 0.047432895941537337 0.050660780177067252 0.05846948420198763 0.058191840613073392
leaf_weight=20 22 20 36 39 22 30 37 20 24 27 27 22 22 20 30 20 23
leaf_count=20 22 20 36 39 22 30 37 20 24 27 27 22 22 20 30 20 23
internal_value=0.0571725 0.0605663 0.0501362 0.062715 0.0516606 0.0579075 0.0621967 0.0486519 0.0584798 0.0617894 0.0621098 0.0616407 0.0569499 0.0478864 0.0509249 0.0581816 0.058059
internal_weight=461 311 150 172 74 139 133 76 87 96 69 42 52 40 52 67 47
internal_count=461 311 150 172 74 139 133 76 87 96 69 42 52 40 52 67 47
is_linear=0
shrinkage=1


Tree=1
num_leaves=19
num_cat=0
split_feature=71 89 70 45 79 56 28 42 56 50 76 52 47 52 33 60 40 48
split_gain=5.55066 0.89585 0.170098 0.0796356 0.0494392 0.0384094 0.037238 0.0368146 0.0129411 0.0107755 0.0113772 0.00823045 0.00579033 0.00501915 0.00440276 0.00414775 0.00128857 0.000942922
threshold=0.05385381207381406 -1.0687969643604689 0.39809788967506116 1.0084752825445451 -0.64667780038434253 -0.01550238670421141 27.823148205238542 0.54437028095776019 -0.52235949032922957 0.033973177086912824 -0.14785986464980652 1.2879015698659344 0.10972626967487052 0.6291281532875429 -0.093123337716375973 0.37367416302186646 0.0016028823141486502 0.09689820433072717
decision_type=2 2 2 2 2 2 2 2 2 2 2 2 2 2 2 2 2 2
left_child=1 3 7 4 9 8 13 -2 -3 -1 -11 -5 -6 -4 -7 -8 -10 -9
right_child=2 5 6 11 12 14 15 17 16 10 -12 -13 -14 -15 -16 -17 -18 -19
leaf_value=0.0050313696052721769 -0.0033742962166309668 0.0023556861367292473 -0.0073130866549364357 0.0065208495928508522 0.0055195691733363481 0.00030514152976788487 -0.0082737781381315885 -0.0053717662174464212 0.0013599898218818326 0.0044786691745896242 0.0032271438201361691 0.0076919315628561141 0.0064379318871181576 -0.0064351387392206048 -0.000488934271576357 -0.0091420901623445287 0.00097881453480484987 -0.0057857732414430376
leaf_weight=24 21 21 29 24 24 30 20 20 28 31 23 20 26 20 22 20 38 20
leaf_count=24 21 21 29 24 24 30 20 20 28 31 23 20 26 20 22 20 38 20
internal_value=0.000182304 0.00343136 -0.00655407 0.00548844 0.00495056 0.000885912 -0.00774269 -0.00481985 0.00143384 0.00427969 0.00394561 0.00705316 0.00599712 -0.00695474 -3.08136e-05 -0.00870793 0.00114053 -0.00557877
internal_weight=461 311 150 172 128 139 89 61 87 78 54 44 50 49 52 40 66 40
internal_count=461 311 150 172 128 139 89 61 87 78 54 44 50 49 52 40 66 40
is_linear=0
shrinkage=0.0426353


Tree=2
num_leaves=19
num_cat=0
split_feature=71 89 70 75 79 56 28 70 60 65 77 68 46 33 60 75 70 39
split_gain=5.08744 0.821089 0.155903 0.0735009 0.040131 0.0352041 0.0341304 0.0338668 0.0137712 0.0119815 0.00742682 0.00523646 0.00460974 0.00403534 0.0038016 0.00128501 0.000818614 0.000245959
threshold=0.05385381207381406 -1.0687969643604689 0.39809788967506116 -0.526877819072049 -0.64667780038434253 -0.01550238670421141 27.823148205238542 0.12226746213286373 0.44131372515270245 0.42720655458262874 0.41308906765790471 0.36074124233175769 0.5465725300159624 -0.093123337716375973 0.37367416302186646 0.52267844719527856 0.29492339989621025 1.0000000180025095e-35
decision_type=2 2 2 2 2 2 2 2 2 2 2 2 2 2 2 2 2 2
left_child=1 3 7 -1 8 9 12 -2 -5 -3 -10 -6 -4 -7 -8 -11 -9 -17
right_child=2 5 6 4 11 13 14 16 10 15 -12 -13 -14 -15 -16 17 -18 -19
leaf_value=0.0069094888742551024 -0.0032278807730569082 0.002232734445262449 -0.0070163527846629431 0.0050090211545689434 0.0052686893855747674 0.00029213171102610719 -0.0079210226587175681 -0.005149379882906719 0.0042858202489173833 0.0013659743556340147 0.0033087154797483563 0.0061441325634144714 -0.0061807162437762615 -0.00046808838032133841 -0.0087523135403402008 0.0010571600225357679 -0.0055351328730322965 0.00085775676364012671
leaf_weight=38 21 22 28 27 23 30 20 20 31 20 26 27 21 22 20 22 20 23
leaf_count=38 21 22 28 27 23 30 20 20 31 20 26 27 21 22 20 22 20 23
internal_value=0.000174531 0.00328506 -0.00627464 0.00525443 0.00478509 0.000848141 -0.00741258 -0.00461436 0.00421584 0.00137271 0.00384012 0.00574143 -0.00665822 -2.94999e-05 -0.00833667 0.00108162 -0.00534226 0.000955243
internal_weight=461 311 150 172 134 139 89 61 84 87 57 50 49 52 40 65 40 45
internal_count=461 311 150 172 134 139 89 61 84 87 57 50 49 52 40 65 40 45
is_linear=0
shrinkage=0.0426353


Tree=3
num_leaves=18
num_cat=0
split_feature=71 29 27 45 79 44 56 28 60 76 65 52 47 44 60 29 40
split_gain=4.66288 0.752946 0.144328 0.0711684 0.0447746 0.0402378 0.0291656 0.020799 0.00897403 0.0086951 0.00707822 0.00705675 0.00569257 0.00369858 0.00348435 0.00243048 0.00127544
threshold=0.05385381207381406 18.645623608245192 73.308764236589013 1.0084752825445451 -0.66580606104758977 0.36071722840276793 -0.01550238670421141 27.823148205238542 0.44131372515270245 -0.14785986464980652 0.441055855297875 1.2879015698659344 0.10972626967487052 -0.093123337716375973 0.37367416302186646 22.900759450696139 0.0016028823141486502
decision_type=2 2 2 2 2 2 2 2 2 2 2 2 2 2 2 2 2
left_child=1 6 5 4 8 -2 10 -4 -3 -10 -1 -5 -6 -8 -9 -7 -12
right_child=2 3 7 11 12 15 13 14 9 -11 16 -13 -14 -15 -16 -17 -18
leaf_value=0.0019566638626256857 -0.003087423785681592 0.0045880103585610489 -0.0065686397015191824 0.0059850242313750652 0.0050040233982049992 -0.0049629184909243933 0.00027967657597658606 -0.0075833076537970105 0.004110173731198534 0.0030568388236507159 0.0012535830998122424 0.0070693947989368166 0.0058968638007430305 -0.00044813128418185052 -0.0083791561534577123 -0.0055454628647705392 0.00086991093208407626
leaf_weight=20 21 22 36 24 25 23 30 20 28 29 28 20 27 22 20 30 36
leaf_count=20 21 22 36 24 25 23 30 20 28 29 28 20 27 22 20 30 36
internal_value=0.00016709 0.003145 -0.00600711 0.00499436 0.00449607 -0.00466685 0.000765307 -0.00731211 0.00385657 0.00357427 0.00125655 0.00647792 0.00546761 -2.82421e-05 -0.00798123 -0.00529266 0.00103777
internal_weight=461 311 150 175 131 74 136 76 79 57 84 44 52 52 40 53 64
internal_count=461 311 150 175 131 74 136 76 79 57 84 44 52 52 40 53 64
is_linear=0
shrinkage=0.0426353


Tree=4
num_leaves=18
num_cat=0
split_feature=71 29 27 45 79 36 62 28 50 76 52 57 86 33 60 29 90
split_gain=4.27375 0.690111 0.132283 0.0652292 0.041038 0.0370318 0.0267317 0.0190633 0.010245 0.00874718 0.00646784 0.00643034 0.00517686 0.00338992 0.00319357 0.00255227 0.00120171
threshold=0.05385381207381406 18.645623608245192 73.308764236589013 1.0084752825445451 -0.66580606104758977 0.39401361659818485 0.33861898569976184 27.823148205238542 0.033973177086912824 -0.14785986464980652 1.2879015698659344 0.156403262098746 0.18985208977585299 -0.093123337716375973 0.37367416302186646 22.777440145410676 0.035247463172281737
decision_type=2 2 2 2 2 2 2 2 2 2 2 2 2 2 2 2 2
left_child=1 6 5 4 8 -2 11 -4 -3 -10 -5 -1 -6 -8 -9 -7 -13
right_child=2 3 7 10 12 15 13 14 9 -11 -12 16 -14 -15 -16 -17 -18
leaf_value=0.0018702805493533048 -0.0029006809333546012 0.0044271486286877092 -0.0062885834489484005 0.0057298507181232855 0.005628347463463146 -0.0046948120422925649 0.00026775246261888673 -0.0072599901834278944 0.003880529320703771 0.0028035696267032723 0.0067679887472043903 0.0011974091939678097 0.0047750111678430364 -0.00042902505311574355 -0.0080219077182433311 -0.0052913576137830331 0.00082627836314174623
leaf_weight=20 20 24 36 24 28 22 30 20 29 26 20 29 24 22 20 32 35
leaf_count=20 20 24 36 24 28 22 30 20 29 26 20 29 24 22 20 32 35
internal_value=0.000159966 0.00301091 -0.005751 0.00478143 0.00430438 -0.00446788 0.000732678 -0.00700035 0.00369215 0.00337142 0.00620173 0.00120298 0.0052345 -2.7038e-05 -0.00764095 -0.00504832 0.000994447
internal_weight=461 311 150 175 131 74 136 76 79 55 44 84 52 52 40 54 64
internal_count=461 311 150 175 131 74 136 76 79 55 44 84 52 52 40 54 64
is_linear=0
shrinkage=0.0426353


Tree=5
num_leaves=19
num_cat=0
split_feature=71 89 27 75 90 42 69 28 55 89 47 59 28 54 70 57 55 49
split_gain=4.12339 0.631687 0.125776 0.0644355 0.0382046 0.0339883 0.0211808 0.0202366 0.0121143 0.0112331 0.00670501 0.00648954 0.00478207 0.00427085 0.00380459 0.00207242 0.00122663 0.000600231
threshold=0.05385381207381406 -1.0687969643604689 72.624875222641933 -0.526877819072049 1.0647129170995184 -0.10290065932394941 -1.0631454333578176 27.473586502660908 -0.27121087461279919 -1.1643479020796723 0.090779477348526164 -0.88076970765232121 31.075447774743569 -0.067553975065894431 0.40695505718366326 0.19076340185888083 0.65439475881796783 -0.51058536360570417
decision_type=2 2 2 2 2 2 2 2 2 2 2 2 2 2 2 2 2 2
left_child=1 3 4 11 -2 8 9 16 -3 10 -5 -1 -9 -7 -6 -10 -4 -17
right_child=2 5 7 6 14 13 -8 12 15 -11 -12 -13 -14 -15 -16 17 -18 -19
leaf_value=0.0066642818039429836 -0.0026584003168903273 0.0020868759972444998 -0.0061599049809362757 0.0044991484956460499 -0.0045694771298779918 0.0001365296951956803 0.0050935272015275625 -0.0067607284994774105 0.0012331865977671559 0.003140091582783007 0.0035934122219685016 0.0055911720373715513 -0.0076334529985486489 -0.00072431631259708084 -0.0052927508680522149 0.00058217007925083866 -0.0056877050784211536 0.00088798282971164406
leaf_weight=20 20 21 20 39 39 22 33 21 26 29 24 21 25 20 20 20 20 28
leaf_count=20 20 21 20 39 39 22 33 21 26 29 24 21 25 20 20 20 20 28
internal_value=-7.37756e-05 0.00287944 -0.00549695 0.00464794 -0.00426877 0.00073658 0.00416686 -0.00662516 0.0011831 0.00383447 0.00415411 0.00611464 -0.00723504 -0.000273397 -0.00481465 0.000926619 -0.00592381 0.000760561
internal_weight=468 303 165 166 79 137 125 86 95 92 63 41 46 42 59 74 40 48
internal_count=468 303 165 166 79 137 125 86 95 92 63 41 46 42 59 74 40 48
is_linear=0
shrinkage=0.0426353


Tree=6
num_leaves=18
num_cat=0
split_feature=71 73 70 75 79 28 90 90 63 85 46 46 28 55 48 90 48
split_gain=3.77928 0.578971 0.111801 0.0590582 0.0320689 0.0318363 0.0313529 0.024592 0.0117377 0.0101421 0.00667365 0.00467476 0.004383 0.0041346 0.00334135 0.00185166 0.00117796
threshold=0.05385381207381406 0.15777489974033607 0.39809788967506116 -0.526877819072049 -0.50981880489716469 27.473586502660908 0.45273417532427046 1.0647129170995184 -0.29570840914012947 0.56524608903019413 0.54979031862809358 1.1476439849692361 31.075447774743569 -0.18059403566321866 0.087187839273271173 0.23229896774161407 0.41968211614236633
decision_type=2 2 2 2 2 2 2 2 2 2 2 2 2 2 2 2 2
left_child=1 3 7 11 9 10 8 -2 -3 -5 -4 -1 -7 -6 -11 16 -10
right_child=2 6 5 4 13 12 -8 -9 15 14 -12 -13 -14 -15 -16 -17 -18
leaf_value=0.0054096544841392459 -0.002545058502465673 0.0020274342656721365 -0.0058518230752481427 0.0041852205589863684 0.0045512280139840587 -0.0064724824166927999 -0.00033588041979243052 -0.004392089815367187 0.0011277908696435534 0.0028621193680619795 -0.004956911175724118 0.0063204409060091445 -0.0073079980959430352 0.0054181629110311704 0.0035150846006617078 0.00051666283371271419 0.00072533849384246742
leaf_weight=21 20 20 33 28 20 21 38 38 39 28 28 20 25 20 29 20 20
leaf_count=21 20 20 33 28 20 21 38 38 39 28 28 20 25 20 29 20 20
internal_value=-7.06301e-05 0.00275667 -0.00526258 0.00444977 0.00398921 -0.00607968 0.000705176 -0.00375518 0.00110477 0.00352074 -0.00544104 0.00585394 -0.00692657 0.0049847 0.00319433 0.000871188 0.000991366
internal_weight=468 303 165 166 125 107 137 58 99 85 61 41 46 40 57 79 59
internal_count=468 303 165 166 125 107 137 58 99 85 61 41 46 40 57 79 59
is_linear=0
shrinkage=0.0426353


Tree=7
num_leaves=18
num_cat=0
split_feature=67 73 70 60 28 79 46 63 93 62 36 28 55 89 79 57 37
split_gain=3.46588 0.469995 0.164341 0.052512 0.0445135 0.0247539 0.0212706 0.020953 0.0130389 0.0107536 0.0100451 0.00430194 0.00378956 0.00362752 0.00189416 0.00123256 0.000363641
threshold=0.22229929254636119 0.13711028806119821 0.21938781150429473 0.12434697796676213 27.283681763637656 -0.50981880489716469 0.36506711050416801 -0.3181482402096581 0.5580933347017859 0.80226247019060393 -0.19586049449153184 31.075447774743569 -0.18059403566321866 -1.1628011893625627 -0.66007924120827033 0.19076340185888083 0.035549573691082532
decision_type=2 2 2 2 2 2 2 2 2 2 2 2 2 2 2 2 2
left_child=2 3 6 -2 9 8 -1 -3 -5 -4 15 -6 -7 -10 -11 -9 -17
right_child=1 7 4 5 11 12 -8 10 13 14 -12 -13 -14 -15 -16 16 -18
leaf_value=-0.0015091030292152079 0.0057563533706741681 0.0020890447434576145 -0.0055958409979621326 0.0041630081802953829 -0.0061789534917409501 0.0043571848958197075 -0.0034102480593356161 0.0011361918872064929 0.0033631338351434652 -0.0043741780024456889 2.3150925564853676e-05 -0.0069964189554426364 0.0051871578140928135 0.0026504332205766219 -0.0048862269920750242 0.00063864089331138341 0.00087519767533674614
leaf_weight=20 35 21 32 33 22 20 23 26 34 29 35 25 20 21 24 21 27
leaf_count=20 35 21 32 33 22 20 23 26 34 29 35 25 20 21 24 21 27
internal_value=-6.76188e-05 0.00276794 -0.00481516 0.00429291 -0.00556087 0.00389275 -0.00252599 0.000855869 0.00349301 -0.00497868 0.000618285 -0.00661378 0.00477217 0.00309101 -0.00460605 0.000899767 0.000771704
internal_weight=468 293 175 163 132 128 43 130 88 85 109 47 40 55 53 74 48
internal_count=468 293 175 163 132 128 43 130 88 85 109 47 40 55 53 74 48
is_linear=0
shrinkage=0.0426353


Tree=8
num_leaves=18
num_cat=0
split_feature=67 29 70 75 28 79 62 62 93 62 46 28 35 78 79 38 40
split_gain=3.17665 0.429708 0.150723 0.0518314 0.0437167 0.0282054 0.0136031 0.0110084 0.0106649 0.00610674 0.00424414 0.00394293 0.00393814 0.00300218 0.00217421 0.00138108 0.00116078
threshold=0.22229929254636119 19.347160674711834 0.18119859573655536 -0.526877819072049 27.283681763637656 -0.56315002131096004 0.33861898569976184 0.80226247019060393 0.5580933347017859 -0.025578541820285263 1.1476439849692361 31.075447774743569 0.64455352062623306 0.26727352835901602 -0.66007924120827033 0.17399199261451856 0.0016028823141486502
decision_type=2 2 2 2 2 2 2 2 2 2 2 2 2 2 2 2 2
left_child=2 6 -1 10 7 8 9 -4 -5 -2 -3 -6 -7 -10 -9 -8 -11
right_child=1 3 4 5 11 12 15 14 13 16 -12 -13 -14 -15 -16 -17 -18
leaf_value=-0.0022733012330372719 0.0017062123084724615 0.0049530101870898114 -0.0053572604667159419 0.0038774457521635699 -0.0059155113917628227 0.0041248652503561222 -9.3213393699338962e-05 -0.0041445720950056084 0.0032045231610585024 0.0010719596557231298 0.0058208343225356982 -0.0066981240468881468 0.0049608199923609651 0.0025877287298256245 -0.0046779008709778554 0.00039017080069410766 0.0006975144245394342
leaf_weight=39 21 21 32 28 22 20 22 33 26 27 20 25 21 32 24 21 34
leaf_count=39 21 21 32 28 22 20 22 33 26 27 20 25 21 32 24 21 34
internal_value=-6.47358e-05 0.00264993 -0.00460986 0.00405832 -0.00527991 0.00363282 0.000757054 -0.00472441 0.00319411 0.00107913 0.00537634 -0.00633179 0.00455304 0.00286422 -0.00436913 0.000142858 0.000863252
internal_weight=468 293 175 168 136 127 125 89 86 82 41 47 41 58 57 43 61
internal_count=468 293 175 168 136 127 125 89 86 82 41 47 41 58 57 43 61
is_linear=0
shrinkage=0.0426353


Tree=9
num_leaves=17
num_cat=0
split_feature=71 73 27 60 70 90 79 70 63 50 55 76 70 61 90 37
split_gain=2.91503 0.444754 0.0882753 0.0449172 0.0273279 0.0254015 0.0209635 0.0143418 0.0120257 0.010926 0.0031836 0.00309029 0.00254189 0.00164181 0.00154037 0.00128359
threshold=0.05385381207381406 0.13711028806119821 72.624875222641933 0.12434697796676213 0.08784692077119291 0.45273417532427046 -0.50981880489716469 0.53729855940093285 -0.3181482402096581 0.033973177086912824 -0.18059403566321866 -0.14310247383826039 0.40695505718366326 0.41503012839047854 0.20057934323692175 0.036139288933703419
decision_type=2 2 2 2 2 2 2 2 2 2 2 2 2 2 2 2
left_child=1 3 4 -1 -2 8 9 13 -3 -5 -8 -11 -6 -4 15 -10
right_child=2 5 7 6 12 -7 10 -9 14 11 -12 -13 -14 -15 -16 -17
leaf_value=0.0052884117608641085 -0.0022308896799286518 0.0019182842044182917 -0.0053582125892175925 0.0037679389018988449 -0.0038541534036273736 -0.00028234454415788202 0.0039937676043375198 -0.0061713858849371667 0.00063912526136811762 0.0031059829841881821 0.0047544952873047244 0.0024466779505229724 -0.0044453429051913114 -0.0048485490840632743 0.00050295203842470545 0.0010630754334617946
leaf_weight=35 20 21 20 36 39 38 20 39 21 28 20 24 20 27 26 34
leaf_count=35 20 21 20 36 39 38 20 39 21 28 20 24 20 27 26 34
internal_value=-6.19758e-05 0.00242109 -0.00462179 0.00393493 -0.00359287 0.000658556 0.00356483 -0.00556697 0.00100909 0.00319697 0.00437413 0.00280169 -0.00405456 -0.00506543 0.00077337 0.000901204
internal_weight=468 303 165 163 79 140 128 86 102 88 40 52 59 47 81 55
internal_count=468 303 165 163 79 140 128 86 102 88 40 52 59 47 81 55
is_linear=0
shrinkage=0.0426353


Tree=10
num_leaves=18
num_cat=0
split_feature=81 29 70 60 29 79 46 66 85 46 49 56 78 28 60 60 59
split_gain=2.71629 0.388411 0.0927823 0.0496581 0.0248585 0.0222937 0.0217106 0.0172519 0.00957747 0.00536175 0.0043104 0.00428691 0.00316667 0.00194082 0.00181374 0.000994008 0.000418068
threshold=0.05385381207381406 19.347160674711834 0.39449132158984307 0.14631032995417087 26.837062099036391 -0.50981880489716469 0.51388089052168495 0.31836339694852639 0.55800548399103345 0.54979031862809358 -0.87285890444031455 -0.48875782890095126 -0.812642990764331 31.404133086387706 -0.13644510189187994 -0.28427067924340771 -1.0815730117499165
decision_type=2 2 2 2 2 2 2 2 2 2 2 2 2 2 2 2 2
left_child=1 7 6 -3 9 8 -2 11 -5 -4 -10 -1 -9 -6 -8 -13 -17
right_child=2 3 4 5 13 -7 14 12 10 -11 -12 15 -14 -15 -16 16 -18
leaf_value=0.0014720137847045332 -0.0019405785154290197 0.0050684462076143605 -0.00494300210086573 0.0034655103556875447 -0.0055932585192194142 0.0041309507113481648 -0.0033439418041276495 0.00022885149341354708 0.0022952139240031495 -0.004152814546601079 0.0030005370246362355 0.0009995458381466594 -0.00045469172730818337 -0.0061519090140706948 -0.0038990939893594483 0.00077444627184611824 0.00051160302502053622
leaf_weight=20 20 34 37 37 20 38 20 28 36 27 28 21 22 26 23 22 22
leaf_count=20 20 34 37 37 20 38 20 28 36 27 28 21 22 26 23 22 22
internal_value=-0.000130776 0.00227045 -0.00440579 0.00360792 -0.00515302 0.00325067 -0.0031011 0.000556507 0.00291947 -0.00460964 0.00260379 0.000926163 -7.19075e-05 -0.00590902 -0.00364088 0.000758208 0.000643025
internal_weight=481 308 173 173 110 139 63 135 101 64 64 85 50 46 43 65 44
internal_count=481 308 173 173 110 139 63 135 101 64 64 85 50 46 43 65 44
is_linear=0
shrinkage=0.0426353


Tree=11
num_leaves=18
num_cat=0
split_feature=71 29 29 75 29 79 29 63 50 76 52 47 55 57 60 29 50
split_gain=2.48961 0.355997 0.0842417 0.0456413 0.0221744 0.021977 0.0209605 0.0158347 0.00777532 0.00499453 0.00485864 0.00428222 0.00421755 0.00291684 0.0018352 0.00177886 0.00137918
threshold=0.05385381207381406 19.347160674711834 23.471813030499462 -0.526877819072049 26.837062099036391 -0.66580606104758977 18.645623608245192 0.32661004031741248 0.038472278105381716 -0.14785986464980652 0.6291281532875429 0.10648731551645386 -0.242240029248151 0.27086375767651932 0.051384455146174048 30.726813794832278 0.0046263687825046614
decision_type=2 2 2 2 2 2 2 2 2 2 2 2 2 2 2 2 2
left_child=1 7 6 -3 10 8 -2 12 -5 -10 -4 -7 -1 -9 -8 -6 -14
right_child=2 3 4 5 15 11 14 13 9 -11 -12 -13 16 -15 -16 -17 -18
leaf_value=0.0014283442333348207 -0.0018567802598858467 0.0047593651653085878 -0.0047423629460083307 0.0031857104898715487 -0.0053547880445837274 0.003430741286348155 -0.0032112166528491938 -0.00034637862751851799 0.0027923554322903258 0.0019541816934958156 -0.0039774971993209651 0.0042158796708243428 0.00089118119632357188 0.00031340629194065298 -0.0037591560431628314 -0.0058896205382592097 0.00049457784747542583
leaf_weight=20 20 38 36 32 20 28 20 29 24 28 26 23 37 21 25 26 28
leaf_count=20 20 38 36 32 20 28 20 29 24 28 26 23 37 21 25 26 28
internal_value=-0.0001252 0.00217365 -0.00421795 0.00345409 -0.00494783 0.00308668 -0.00300521 0.00053278 0.00266281 0.00234103 -0.00442161 0.00378482 0.000886927 -6.9269e-05 -0.00351563 -0.00565708 0.000720337
internal_weight=481 308 173 173 108 135 65 135 84 52 62 51 85 50 45 46 65
internal_count=481 308 173 173 108 135 65 135 84 52 62 51 85 50 45 46 65
is_linear=0
shrinkage=0.0426353


Tree=12
num_leaves=16
num_cat=0
split_feature=71 29 28 60 28 79 28 66 93 56 76 56 68 70 39
split_gain=2.28184 0.326288 0.0783192 0.0425822 0.0225373 0.0190651 0.0164304 0.0145278 0.00832976 0.0037244 0.00329761 0.00306952 0.00276166 0.00208303 0.000902665
threshold=0.05385381207381406 19.347160674711834 24.694711663353534 0.14631032995417087 20.293114723952112 -0.50981880489716469 29.984011136953864 0.31836339694852639 0.5580933347017859 -0.48875782890095126 -0.14785986464980652 0.60693014560511394 -0.49316377243861559 0.29492339989621025 1.0000000180025095e-35
decision_type=2 2 2 2 2 2 2 2 2 2 2 2 2 2 2
left_child=1 7 4 -3 -2 8 11 9 -5 -1 -10 -4 -9 -6 -11
right_child=2 3 6 5 13 -7 -8 12 10 14 -12 -13 -14 -15 -16
leaf_value=0.001358062682240086 -0.0018540090068764926 0.0046593006648270657 -0.0046576341331012166 0.003157920470488853 -0.0031339835558456489 0.0037900563169202721 -0.0055561848959857253 0.00022584480160907128 0.0027052798065025077 0.00085912807035105139 0.0020804714898824783 -0.0040460867595283031 -0.00040991672483804074 -0.0036854048186420476 0.00054102381202711511
leaf_weight=20 22 34 37 39 20 38 36 27 28 31 34 25 23 33 34
leaf_count=20 22 34 37 39 20 38 36 27 28 31 34 25 23 33 34
internal_value=-0.000119862 0.00208097 -0.00403811 0.00330683 -0.00300115 0.00297601 -0.00483171 0.000510065 0.00266973 0.000849283 0.00236264 -0.00441104 -6.66055e-05 -0.00347732 0.000692735
internal_weight=481 308 173 173 75 139 98 135 101 85 62 62 50 53 65
internal_count=481 308 173 173 75 139 98 135 101 85 62 62 50 53 65
is_linear=0
shrinkage=0.0426353


Tree=13
num_leaves=17
num_cat=0
split_feature=81 29 27 83 46 79 63 29 85 49 55 60 57 61 50 61
split_gain=2.09141 0.299058 0.0740473 0.039542 0.0229722 0.0166516 0.0133406 0.0118752 0.00741428 0.00455966 0.0036984 0.00293356 0.0025426 0.00193639 0.00122026 0.0010564
threshold=0.05385381207381406 19.347160674711834 72.624875222641933 -0.55470708147611603 0.50666510676029086 -0.50981880489716469 0.32661004031741248 29.488088412940613 0.55800548399103345 -0.87285890444031455 -0.242240029248151 -0.13644510189187994 0.27086375767651932 0.36346722726423553 0.0046263687825046614 0.41503012839047854
decision_type=2 2 2 2 2 2 2 2 2 2 2 2 2 2 2 2
left_child=1 6 4 -3 -2 8 10 13 -5 -10 -1 -6 -8 -4 -12 -13
right_child=2 3 7 5 11 -7 12 -9 9 -11 14 15 -14 -15 -16 -17
leaf_value=0.0013203806758509242 -0.0016967431532867703 0.0045453948669666108 -0.0046451257712140448 0.0030700116584527642 -0.0029240101235077057 0.0036284658865810729 -0.00032300926432352376 -0.0053644307142526951 0.0019916890835410136 0.0026970987599491915 0.00081808017440675466 -0.0037756114429563638 0.00029299665095164882 -0.0041355146718341992 0.00044502504139075247 -0.0033560563751019465
leaf_weight=20 20 31 23 37 20 38 29 33 36 31 37 20 21 33 28 24
leaf_count=20 20 31 23 37 20 38 29 33 36 31 37 20 21 33 28 24
internal_value=-0.000114752 0.00199225 -0.00386595 0.00316584 -0.00295801 0.00286467 0.000488318 -0.00472288 0.00258559 0.00231807 0.00081338 -0.00335215 -6.42868e-05 -0.00434482 0.00065738 -0.00354676
internal_weight=481 308 173 173 84 142 135 89 104 67 85 64 50 56 65 44
internal_count=481 308 173 173 84 142 135 89 104 67 85 64 50 56 65 44
is_linear=0
shrinkage=0.0426353


Tree=14
num_leaves=18
num_cat=0
split_feature=71 29 70 60 44 79 29 76 93 46 47 55 78 78 70 40 60
split_gain=1.91688 0.274101 0.0662023 0.0365292 0.0176672 0.0162331 0.0153378 0.0122335 0.00771807 0.00397876 0.00360329 0.00338865 0.00264943 0.00239942 0.00131827 0.0012715 0.00108506
threshold=0.05385381207381406 19.347160674711834 0.39449132158984307 0.14631032995417087 0.60138659782693771 -0.66580606104758977 18.645623608245192 0.39357007210018702 0.5580933347017859 0.54979031862809358 0.10648731551645386 -0.242240029248151 0.26727352835901602 -0.812642990764331 0.26756537840036571 -0.0070658512053037919 -0.22425303139444194
decision_type=2 2 2 2 2 2 2 2 2 2 2 2 2 2 2 2 2
left_child=1 7 6 -3 9 8 -2 11 -5 -4 -7 -1 -10 -9 -8 -6 -13
right_child=2 3 4 5 15 10 14 13 12 -11 -12 16 -14 -15 -16 -17 -18
leaf_value=0.0012640858003545633 -0.0016236120067601517 0.004283526662987854 -0.0041639014084549619 0.0028535790192743132 -0.0047283163706857805 0.00300488221837994 -0.0028111190068965861 0.00020012031056537943 0.002383200462735643 -0.0034869984936685642 0.0037250960058315442 0.00079072979148911697 0.0017704486992752111 -0.00039487988334300172 -0.0032833830602535057 -0.0051844056880702479 0.00044130082091872503
leaf_weight=20 20 34 38 36 20 28 21 28 23 27 23 35 29 22 22 25 30
leaf_count=20 20 34 38 36 20 28 21 28 23 27 23 35 29 22 22 25 30
internal_value=-0.000109859 0.00190731 -0.00370112 0.00303086 -0.00433231 0.00272446 -0.00259905 0.000467498 0.0023737 -0.00388273 0.00332968 0.00077878 0.00204147 -6.16798e-05 -0.00305274 -0.0049817 0.000629455
internal_weight=481 308 173 173 110 139 63 135 88 65 51 85 52 50 43 45 65
internal_count=481 308 173 173 110 139 63 135 88 65 51 85 52 50 43 45 65
is_linear=0
shrinkage=0.0426353


Tree=15
num_leaves=16
num_cat=0
split_feature=81 65 76 75 27 58 66 35 29 90 55 79 77 60 31
split_gain=1.71079 0.22763 0.0806462 0.0271805 0.0243205 0.0158315 0.0100322 0.00675685 0.00573653 0.00481122 0.00313498 0.00271415 0.00120574 0.000988687 0.000269414
threshold=1.0000000180025095e-35 0.13920608579335259 0.62106123088425491 -0.526877819072049 74.401677383202497 -0.079439610165387323 -0.26877102751136306 0.8655669382595218 29.970133170334119 0.38205973172329294 -0.18059403566321866 -0.66007924120827033 0.15338695668317689 -0.23007252395708147 0.12011221337402143
decision_type=2 2 2 2 2 2 2 2 2 2 2 2 2 2 2
left_child=1 3 -2 -1 11 7 -3 -5 12 13 -7 14 -6 -8 -4
right_child=2 6 4 5 8 10 9 -9 -10 -11 -12 -13 -14 -15 -16
leaf_value=0.0040033025154281587 -0.0016321235735608239 0.0014766457675317595 -0.0029233233308685533 0.0025955098135934341 -0.0042996133429643009 0.0028777526488682416 0.00081068463613091898 0.0016930032484378792 -0.0049131139775414959 1.7880559849026864e-05 0.0034799516717687424 -0.0036074827275326361 -0.0038628467350371658 0.00048903625090269704 -0.0031446223694692513
leaf_weight=39 38 20 20 38 27 30 32 25 25 34 33 24 20 38 20
leaf_count=39 38 20 20 38 27 30 32 25 25 34 33 24 20 38 20
internal_value=-2.85381e-05 0.00198242 -0.00336858 0.00301972 -0.00385377 0.00271528 0.000602146 0.00223737 -0.00439131 0.000433973 0.00319319 -0.00324904 -0.00411376 0.000636076 -0.00303397
internal_weight=463 289 174 165 136 126 124 63 72 104 63 64 47 70 40
internal_count=463 289 174 165 136 126 124 63 72 104 63 64 47 70 40
is_linear=0
shrinkage=0.0426353


Tree=16
num_leaves=18
num_cat=0
split_feature=71 29 70 83 27 79 56 47 28 46 28 79 93 55 56 93 33
split_gain=1.56802 0.208726 0.0747394 0.0267169 0.0216366 0.0162032 0.00653741 0.00476176 0.00642091 0.00416572 0.00402778 0.00365946 0.00358946 0.00329702 0.00274944 0.00083617 0.000232639
threshold=1.0000000180025095e-35 18.645623608245192 0.15954718891410077 -0.51680579795093495 78.553417725121079 -0.50981880489716469 -0.01550238670421141 0.065225372456174616 40.13123473775449 1.1373361172659506 30.902839703653061 -0.66007924120827033 0.69926949826499907 -0.18059403566321866 -0.50184336400763241 1.0169703694590182 -0.58669952654160851
decision_type=2 2 2 2 2 2 2 2 2 2 2 2 2 2 2 2 2
left_child=1 6 -2 9 11 7 14 -5 12 -3 -6 -4 -9 -7 -1 16 -16
right_child=2 3 4 5 10 13 -8 8 -10 -11 -12 -13 -14 -15 15 -17 -18
leaf_value=0.0011786634384929303 -0.0015809522349197191 0.0033850154140083891 -0.0029206158928209531 0.0027914251970917697 -0.0040031100854093721 0.0028528712172416456 6.7037705678766319e-05 0.0027089440108230018 0.0014783563618717072 0.0042552071560505835 -0.0047036416666983811 -0.0035257724146863017 0.0019355686267031899 0.003609231817864259 0.0005910667160278747 0.0008204785830125752 0.00038542523089695445
leaf_weight=20 39 20 39 21 37 20 38 24 23 20 25 34 20 22 20 21 20
leaf_count=20 39 20 39 21 37 20 38 24 23 20 25 34 20 22 20 21 20
internal_value=-2.73214e-05 0.0018979 -0.00322496 0.00285655 -0.0036999 0.00256007 0.000528408 0.00223123 0.00205565 0.00382011 -0.00428558 -0.00320247 0.00235741 0.00324906 0.000744854 0.000602621 0.000488246
internal_weight=463 289 174 170 135 130 119 88 67 40 62 73 44 42 81 61 40
internal_count=463 289 174 170 135 130 119 88 67 40 62 73 44 42 81 61 40
is_linear=0
shrinkage=0.0426353


Tree=17
num_leaves=18
num_cat=0
split_feature=71 65 27 63 27 58 66 29 29 42 55 79 43 77 40 42 45
split_gain=1.43717 0.191334 0.0682141 0.0234102 0.0203889 0.0137572 0.00847658 0.00604756 0.0047984 0.00408397 0.00304551 0.00220885 0.00217994 0.00107034 0.000839511 0.000262662 0.000226624
threshold=1.0000000180025095e-35 0.13920608579335259 57.577019340528913 0.8232386928485661 74.401677383202497 -0.079439610165387323 -0.26877102751136306 33.623626661833264 29.970133170334119 -0.11061937099927648 -0.18059403566321866 -0.66007924120827033 0.34207676854855967 0.15338695668317689 0.0024597148882595479 -0.55194826367211147 0.56731737138424754
decision_type=2 2 2 2 2 2 2 2 2 2 2 2 2 2 2 2 2
left_child=1 3 -2 5 11 7 -3 12 13 14 -7 16 -1 -6 -8 -16 -4
right_child=2 6 4 -5 8 10 9 -9 -10 -11 -12 -13 -14 -15 15 -17 -18
leaf_value=0.0020748913764066816 -0.0014904470798215619 0.0013553680046802248 -0.0028874593134033911 0.0038677624619683744 -0.0039471313789172131 0.0026411711014988071 0.00073782550132993655 0.0015422725927746138 -0.0045031003126091672 -3.8205137621678894e-06 0.0032158190159418793 -0.0033033538828536372 0.0026697073752304915 -0.0035356195767404842 0.00055409539680359671 0.00033558706659048333 -0.0026844934817121628
leaf_weight=21 38 20 20 29 27 30 32 23 25 32 38 24 24 20 20 20 20
leaf_count=21 38 20 20 29 27 30 32 23 25 32 38 24 24 20 20 20 20
internal_value=-2.61566e-05 0.00181698 -0.00308747 0.002768 -0.00353369 0.00253349 0.000551526 0.00210468 -0.00402587 0.00039694 0.0029623 -0.00297999 0.00239213 -0.00377202 0.000575056 0.000444841 -0.00278598
internal_weight=463 289 174 165 136 136 124 68 72 104 68 64 45 47 72 40 40
internal_count=463 289 174 165 136 136 124 68 72 104 68 64 45 47 72 40 40
is_linear=0
shrinkage=0.0426353


Tree=18
num_leaves=17
num_cat=0
split_feature=71 89 76 63 28 79 50 62 62 70 93 55 28 60 79 50
split_gain=1.31723 0.175483 0.0629647 0.0226164 0.0182132 0.0115037 0.00720533 0.00566605 0.00550961 0.00462795 0.00277696 0.00233084 0.00158685 0.00106476 0.00100568 0.000109417
threshold=1.0000000180025095e-35 -1.044229405780295 0.62106123088425491 0.8232386928485661 27.473586502660908 -0.48673757172889515 0.0046263687825046614 0.80226247019060393 0.33861898569976184 0.92966982751052796 0.72156886964779154 -0.242240029248151 31.159355429022522 -0.23007252395708147 -0.66007924120827033 0.0063524715750672466
decision_type=2 2 2 2 2 2 2 2 2 2 2 2 2 2 2 2
left_child=1 3 -2 5 7 6 -1 -4 11 10 -8 -3 -6 -13 15 -9
right_child=2 8 4 -5 12 -7 9 14 -10 -11 -12 13 -14 -15 -16 -17
leaf_value=0.0028611330000345757 -0.0014214915014485183 0.0010570482790886941 -0.0035056238651495308 0.0037028590412468915 -0.0038155109004828548 0.0030182919224259856 0.0025393658490050707 -0.0026018195530979837 6.0252340440758278e-05 0.0015433633013068693 0.0019157687308457218 0.00072092662919965862 -0.0043230024437243128 0.00035863248196917096 -0.0030426138645156492 -0.0027428498985486772
leaf_weight=21 38 22 31 29 21 39 25 20 38 29 27 30 24 29 20 20
leaf_count=21 38 22 31 29 21 39 25 20 38 29 27 30 24 29 20 20
internal_value=-2.50414e-05 0.00173952 -0.00295583 0.00261851 -0.00338454 0.00239549 0.00215737 -0.00303758 0.000483805 0.00197491 0.00221558 0.000682509 -0.00408617 0.00054285 -0.00279576 -0.00267233
internal_weight=463 289 174 170 136 141 102 91 119 81 52 81 45 59 60 40
internal_count=463 289 174 170 136 141 102 91 119 81 52 81 45 59 60 40
is_linear=0
shrinkage=0.0426353


Tree=19
num_leaves=19
num_cat=0
split_feature=67 0 27 60 36 58 60 41 55 29 69 55 78 70 75 77 70 93
split_gain=1.20831 0.19164 0.0322693 0.0213451 0.0112622 0.0109524 0.00901274 0.00618618 0.00446965 0.00402347 0.00367124 0.0022683 0.00169295 0.00152767 0.00102899 0.000917322 0.000903373 0.000381326
threshold=0.1810851937524984 25120000000.000004 74.401677383202497 0.10577405597448809 -0.14817570574562153 -0.34485438845589361 -0.21711959686598223 0.79006510038269262 -0.18059403566321866 29.970133170334119 -1.066961904351964 -0.22781945569892709 0.49454168342555621 -0.29242177242362549 0.50828673032447147 0.15338695668317689 0.39449132158984307 0.8895951339918341
decision_type=2 2 2 2 2 2 2 2 2 2 2 2 2 2 2 2 2 2
left_child=2 3 6 -2 11 7 -1 -5 12 15 -10 -3 -7 -6 -13 -4 -8 -16
right_child=1 4 9 5 13 8 16 -9 10 -11 -12 14 -14 -15 17 -17 -18 -19
leaf_value=-0.0017482326300255529 0.0035548831537619099 0.00097967109310467815 -0.0036203249052084363 0.0022021328418573732 5.6252004100326111e-06 0.0020040103922357392 -0.0025919807392267694 0.0012390004473752541 0.0024758467626153973 -0.0041276618993343565 0.0032140883837545433 0.00074021244155031928 0.00253513702430505 -0.00051503178206724657 0.00050376951627283215 -0.0032393618729469444 -0.0029129623012893176 0.00026544676076483418
leaf_weight=23 29 22 27 27 21 24 37 22 25 25 24 20 20 20 23 20 28 26
leaf_count=23 29 22 27 27 21 24 37 22 25 25 24 20 20 20 23 20 28 26
internal_value=-2.39737e-05 0.00155876 -0.00302127 0.00250082 0.000338355 0.00228556 -0.00247359 0.00176971 0.00255735 -0.00369066 0.00283743 0.000602696 0.00224543 -0.000248354 0.000482501 -0.00345821 -0.00273025 0.000377313
internal_weight=463 303 160 171 132 142 88 49 93 72 49 91 44 41 69 47 65 49
internal_count=463 303 160 171 132 142 88 49 93 72 49 91 44 41 69 47 65 49
is_linear=0
shrinkage=0.0426353


Tree=20
num_leaves=17
num_cat=0
split_feature=67 73 27 83 90 79 70 42 55 28 75 68 79 29 75 58
split_gain=1.09503 0.174055 0.0299725 0.0222644 0.00982407 0.00909237 0.00809979 0.00423748 0.00368214 0.00285005 0.00224037 0.00192301 0.00143284 0.00107447 0.000889974 0.000623592
threshold=0.1810851937524984 0.13711028806119821 74.401677383202497 -0.51680579795093495 0.4586380887031426 -0.66580606104758977 0.1328646804000411 0.70584841544338695 -0.27121087461279919 41.23593086255655 0.11817239226883858 0.19814582099562558 -0.66007924120827033 14.486141539763768 0.49970758019562683 0.0997226187097566
decision_type=2 2 2 2 2 2 2 2 2 2 2 2 2 2 2 2
left_child=2 3 6 -2 8 9 -1 -4 -3 11 -7 -5 -8 14 -10 -16
right_child=1 4 7 5 -6 10 12 -9 13 -11 -12 -13 -14 -15 15 -17
leaf_value=-0.0017175095456002107 0.0032801140801500296 0.0010997950297823604 -0.0032446152681419572 0.0022109067996928223 -0.00021904878135966179 0.0027953544315794956 -0.0024560759083238153 -0.0039129201918980533 0.00077901151092173344 0.001406316272757695 0.0022211785787690668 0.001735767893737363 -0.0028652671383503558 0.00018442644707155844 0.00029249000227487247 0.00059674827637218807
leaf_weight=24 38 20 35 32 38 30 35 34 20 21 21 30 28 20 25 24
leaf_count=24 38 20 35 32 38 30 35 34 20 21 21 30 28 20 25 24
internal_value=1.69858e-05 0.00144852 -0.00291033 0.00236921 0.000371259 0.0021109 -0.00238403 -0.00357392 0.000577054 0.0018356 0.00255893 0.001981 -0.00263794 0.000459584 0.00053934 0.000441514
internal_weight=475 319 156 172 147 134 87 69 109 83 51 62 63 89 69 49
internal_count=475 319 156 172 147 134 87 69 109 83 51 62 63 89 69 49
is_linear=0
shrinkage=0.0426353


Tree=21
num_leaves=18
num_cat=0
split_feature=76 0 27 83 79 41 60 42 47 41 85 83 57 79 44 65 59
split_gain=1.00365 0.159309 0.0274712 0.0217929 0.00937301 0.00847112 0.00745864 0.00388385 0.00374894 0.00350444 0.00331917 0.00206882 0.00146452 0.00137485 0.0013739 0.00128169 0.000407963
threshold=0.57301913854201569 25120000000.000004 74.401677383202497 -0.51680579795093495 -0.66580606104758977 -0.21296069898597583 -0.21711959686598223 0.70584841544338695 0.065989173845662705 0.79006510038269262 0.69819705207115856 0.094219189972030618 0.19076340185888083 -0.66007924120827033 -0.05878225705428685 0.56933659705770101 -0.8690141302839226
decision_type=2 2 2 2 2 2 2 2 2 2 2 2 2 2 2 2 2
left_child=1 3 6 -1 8 12 -2 -4 -5 10 -10 -6 15 -8 -7 -3 -14
right_child=2 5 7 4 11 14 13 -9 9 -11 -12 -13 16 -15 -16 -17 -18
leaf_value=0.0031402653094648831 -0.0016238679333394148 0.00094415174132797585 -0.0031062799508094997 0.0022228388149118142 0.0026863432033085509 5.3042396231063156e-05 -0.0023447621554018774 -0.0037460914687854532 0.0021813943063292381 0.0011430072842140142 0.001447428536225395 0.0021380583874875095 0.00047419354456266453 -0.0027431054692177177 -0.00044071693923492466 0.00047256772624425795 0.00023891413355755218
leaf_weight=38 23 22 35 21 29 20 36 34 21 23 24 22 37 28 21 20 21
leaf_count=38 23 22 35 21 29 20 36 34 21 23 24 22 37 28 21 20 21
internal_value=1.62616e-05 0.00138677 -0.00278625 0.00223476 0.00198898 0.000316247 -0.00228238 -0.00342155 0.0017249 0.00157113 0.00178995 0.00244983 0.000527851 -0.00251904 -0.000199859 0.000719588 0.000389006
internal_weight=475 319 156 178 140 141 87 69 89 68 45 51 100 64 41 42 58
internal_count=475 319 156 178 140 141 87 69 89 68 45 51 100 64 41 42 58
is_linear=0
shrinkage=0.0426353


Tree=22
num_leaves=19
num_cat=0
split_feature=67 0 27 83 79 41 70 28 47 41 85 78 70 57 79 65 57 59
split_gain=0.91989 0.146014 0.0251787 0.0199743 0.00859081 0.00776418 0.00687065 0.00359084 0.00343608 0.00321198 0.00304218 0.00190204 0.0014264 0.0013423 0.00119063 0.00117473 0.000483565 0.000373918
threshold=0.1810851937524984 25120000000.000004 74.401677383202497 -0.51680579795093495 -0.66580606104758977 -0.21296069898597583 0.1328646804000411 29.984011136953864 0.065989173845662705 0.79006510038269262 0.69819705207115856 0.56794820097205423 -0.29242177242362549 0.19076340185888083 -0.66007924120827033 0.56933659705770101 0.093065642827361669 -0.8690141302839226
decision_type=2 2 2 2 2 2 2 2 2 2 2 2 2 2 2 2 2 2
left_child=2 3 6 -2 8 13 -1 16 -5 10 -10 -6 -7 15 -8 -3 -4 -15
right_child=1 5 7 4 11 12 14 -9 9 -11 -12 -13 -14 17 -16 -17 -18 -19
leaf_value=-0.0015712068103725181 0.003006378947393288 0.0009038975344201561 -0.0028655437652117376 0.0021280673512502203 0.0020798501350401668 5.4078536255724315e-05 -0.0022531468500926384 -0.0036368924951316905 0.0020883898043600091 0.0010942747751075039 0.0013857169226560882 0.002600695174854993 -0.00044902471510579973 0.00045397613598565284 -0.0026261522296452079 0.00045241963316084501 -0.0031620251082309105 0.00022872794371500606
leaf_weight=24 38 22 20 21 25 21 35 29 21 23 24 26 20 37 28 20 20 21
leaf_count=24 38 22 20 21 25 21 35 29 21 23 24 26 20 37 28 20 20 21
internal_value=1.55683e-05 0.00132764 -0.00266745 0.00213948 0.00190418 0.000302764 -0.00218507 -0.00327567 0.00165136 0.00150414 0.00171363 0.00234538 -0.000191338 0.000505345 -0.00241893 0.000688908 -0.00301378 0.000372421
internal_weight=475 319 156 178 140 141 87 69 89 68 45 51 41 100 63 42 40 58
internal_count=475 319 156 178 140 141 87 69 89 68 45 51 41 100 63 42 40 58
is_linear=0
shrinkage=0.0426353


Tree=23
num_leaves=17
num_cat=0
split_feature=67 73 27 83 51 79 60 29 55 47 41 60 40 79 59 57
split_gain=0.843123 0.134298 0.0230775 0.0171059 0.00777186 0.00696169 0.00633304 0.00330919 0.00293651 0.00279193 0.00356383 0.00188815 0.00131514 0.00114192 0.000831107 0.000546841
threshold=0.1810851937524984 0.13711028806119821 74.401677383202497 -0.51680579795093495 -0.3073018535156255 -0.66580606104758977 -0.21711959686598223 30.355434327269027 -0.27121087461279919 0.065989173845662705 0.79006510038269262 0.60593509218732355 0.035238936375925366 -0.66007924120827033 -0.94652132568642611 0.093065642827361669
decision_type=2 2 2 2 2 2 2 2 2 2 2 2 2 2 2 2
left_child=2 3 6 -2 8 9 -1 15 -3 -5 -11 -7 14 -8 -10 -4
right_child=1 4 7 5 -6 11 13 -9 12 10 -12 -13 -14 -15 -16 -17
leaf_value=-0.0014851165646268482 0.0028782009719687351 0.00096629399865786551 -0.0027433703336544129 0.0020373364566933592 -0.00022979165571201981 0.0024624289268600935 -0.002151151615179028 -0.0035157225318015479 0.00071703523725500111 0.0017167767497213097 0.0010476199840569916 0.001935317105985512 0.00018073865063355273 -0.0025141853255868248 0.00038893311804171643 -0.0030481989888536468
leaf_weight=23 38 20 20 21 35 30 36 26 23 39 23 21 33 28 36 23
leaf_count=23 38 20 20 21 35 30 36 26 23 39 23 21 33 28 36 23
internal_value=1.49045e-05 0.00127104 -0.00255372 0.00207977 0.000324768 0.00185334 -0.00209191 -0.00313601 0.000498068 0.00161245 0.00146854 0.00224538 0.00039628 -0.00230998 0.000516837 -0.00290642
internal_weight=475 319 156 172 147 134 87 69 112 83 62 51 92 64 59 43
internal_count=475 319 156 172 147 134 87 69 112 83 62 51 92 64 59 43
is_linear=0
shrinkage=0.0426353


end of trees

feature_importances:
kurt_252=29
PS_Ratio=25
total_return_90=25
PB_Ratio=23
total_return_180=22
lag_90=16
PE_Ratio=15
min_180=14
ma_90=11
ma_25=10
std_25=10
lag_252=10
ma_252=10
std_90=9
total_return_504=9
total_return_25=8
first_return_504=8
min_5=7
max_90=7
first_return_90=7
first_return_180=7
skew_252=7
first_return_252=7
kurt_504=7
total_return_5=6
max_5=6
lag_180=6
std_180=6
lag_504=6
last_return_5=5
max_25=5
kurt_90=5
Returns=4
lag_25=4
skew_90=4
ma_180=4
std_252=4
WeightedAverageNumberOfDilutedSharesOutstanding=3
ma_5=3
skew_25=3
kurt_25=3
min_90=3
skew_180=3
kurt_180=3
min_252=3
lag_5=2
std_5=2
kurt_5=2
Price=1
skew_5=1
first_return_5=1
min_25=1
last_return_25=1
ma_504=1

parameters:
[boosting: gbdt]
[objective: regression]
[metric: rmse]
[tree_learner: serial]
[device_type: cpu]
[data_sample_strategy: bagging]
[data: ]
[valid: ]
[num_iterations: 2000]
[learning_rate: 0.0426353]
[num_leaves: 64]
[num_threads: 4]
[seed: 42]
[deterministic: 0]
[force_col_wise: 0]
[force_row_wise: 0]
[histogram_pool_size: -1]
[max_depth: -1]
[min_data_in_leaf: 20]
[min_sum_hessian_in_leaf: 0.001]
[bagging_fraction: 0.8]
[pos_bagging_fraction: 1]
[neg_bagging_fraction: 1]
[bagging_freq: 5]
[bagging_seed: 400]
[bagging_by_query: 0]
[feature_fraction: 0.8]
[feature_fraction_bynode: 1]
[feature_fraction_seed: 30056]
[extra_trees: 0]
[extra_seed: 12879]
[early_stopping_round: 0]
[early_stopping_min_delta: 0]
[first_metric_only: 0]
[max_delta_step: 0]
[lambda_l1: 0]
[lambda_l2: 0]
[linear_lambda: 0]
[min_gain_to_split: 0]
[drop_rate: 0.1]
[max_drop: 50]
[skip_drop: 0.5]
[xgboost_dart_mode: 0]
[uniform_drop: 0]
[drop_seed: 17869]
[top_rate: 0.2]
[other_rate: 0.1]
[min_data_per_group: 100]
[max_cat_threshold: 32]
[cat_l2: 10]
[cat_smooth: 10]
[max_cat_to_onehot: 4]
[top_k: 20]
[monotone_constraints: ]
[monotone_constraints_method: basic]
[monotone_penalty: 0]
[feature_contri: ]
[forcedsplits_filename: ]
[refit_decay_rate: 0.9]
[cegb_tradeoff: 1]
[cegb_penalty_split: 0]
[cegb_penalty_feature_lazy: ]
[cegb_penalty_feature_coupled: ]
[path_smooth: 0]
[interaction_constraints: ]
[verbosity: -1]
[saved_feature_importance_type: 0]
[use_quantized_grad: 0]
[num_grad_quant_bins: 4]
[quant_train_renew_leaf: 0]
[stochastic_rounding: 1]
[linear_tree: 0]
[max_bin: 255]
[max_bin_by_feature: ]
[min_data_in_bin: 3]
[bin_construct_sample_cnt: 200000]
[data_random_seed: 175]
[is_enable_sparse: 1]
[enable_bundle: 1]
[use_missing: 1]
[zero_as_missing: 0]
[feature_pre_filter: 1]
[pre_partition: 0]
[two_round: 0]
[header: 0]
[label_column: ]
[weight_column: ]
[group_column: ]
[ignore_column: ]
[categorical_feature: ]
[forcedbins_filename: ]
[precise_float_parser: 0]
[parser_config_file: ]
[objective_seed: 16083]
[num_class: 1]
[is_unbalance: 0]
[scale_pos_weight: 1]
[sigmoid: 1]
[boost_from_average: 1]
[reg_sqrt: 0]
[alpha: 0.9]
[fair_c: 1]
[poisson_max_delta_step: 0.7]
[tweedie_variance_power: 1.5]
[lambdarank_truncation_level: 30]
[lambdarank_norm: 1]
[label_gain: ]
[lambdarank_position_bias_regularization: 0]
[eval_at: ]
[multi_error_top_k: 1]
[auc_mu_weights: ]
[num_machines: 1]
[local_listen_port: 12400]
[time_out: 120]
[machine_list_filename: ]
[machines: ]
[gpu_platform_id: -1]
[gpu_device_id: -1]
[gpu_use_dp: 0]
[num_gpu: 1]

end of parameters

pandas_categorical:[]
