tree
version=v4
num_class=1
num_tree_per_iteration=1
label_index=0
max_feature_idx=92
objective=regression
feature_names=WeightedAverageNumberOfDilutedSharesOutstanding ROE ROA AssetTurnover DebtToEquity NetProfitMargin OperatingMargin EarningsPerShareDiluted_log GrossProfit_log NetIncomeLoss_log OperatingIncomeLoss_log Revenues_log Assets_log Liabilities_log NoncurrentAssets_log WeightedAverageNumberOfDilutedSharesOutstanding_log Equity_log ROE_log ROA_log BookValuePerShare_log SalesPerShare_log AssetTurnover_log DebtToEquity_log NetProfitMargin_log OperatingMargin_log EarningsPerShareDilutedTTM_log SalesPerShareTTM_log PE_Ratio PB_Ratio PS_Ratio MarketCapLog CostsAndExpenses_log Returns lag_5 ma_5 std_5 skew_5 kurt_5 total_return_5 min_5 max_5 first_return_5 last_return_5 lag_25 ma_25 std_25 skew_25 kurt_25 total_return_25 min_25 max_25 first_return_25 last_return_25 lag_90 ma_90 std_90 skew_90 kurt_90 total_return_90 min_90 max_90 first_return_90 last_return_90 lag_180 ma_180 std_180 skew_180 kurt_180 total_return_180 min_180 max_180 first_return_180 last_return_180 lag_252 ma_252 std_252 skew_252 kurt_252 total_return_252 min_252 max_252 first_return_252 last_return_252 lag_504 ma_504 std_504 skew_504 kurt_504 total_return_504 min_504 max_504 first_return_504 last_return_504
feature_infos=[317860000:1278608000] [0.047684442824148861:0.090058818123969236] [0.033394367103482106:0.063035152116255697] none [0.36288386613875584:0.47072614530996393] none none [-1.3203580513097881:0.2242859715669073] [-0.15796158791326248:0.14967190576564432] [-0.63296762731443679:0.22150790047665123] [-0.26157850465048588:0.26642344356195125] none [-0.047548953946229516:0.14515031451449223] [-0.072243695586454076:0.29196001210886557] none [-0.011690366816839614:1.3850484188793644] [-0.036132269754537712:0.10809779268037496] [-0.61699796462861345:0.1354539958383767] [-0.61526346356211703:0.14156975709520853] [-1.3561473704106211:0.10900113510856133] none none [-0.11383963605614285:0.20590610747059088] none none [-0.3795732040520316:0.15183123682174518] none [3.7032901417134245:39.768675224765666] [1.0969443332531694:11.534324259789877] none [-0.17104675076951664:1.3850484188793644] none [-0.64907153840900078:0.72190063038357466] [-0.64907153840900078:0.72190063038357466] [-0.58545965672404776:0.70182241595358996] [0.0031342476505407794:0.13490434367964763] [-2.2049449099513772:2.2145379555087357] [-3.3133371676529872:4.9244829818369809] [-2.9272982836202388:3.5091120797679496] [-0.64907153840900078:0.69042465441336121] [-0.52631943771364731:0.72190063038357466] [-0.64907153840900078:0.72190063038357466] [-0.64907153840900078:0.72190063038357466] [-0.64907153840900078:0.72190063038357466] [-0.50412852389443186:0.63525441574548724] [0.017791454951933083:0.19478304377199876] [-3.163832023699146:2.2247507261172457] [-1.8406478988288797:12.341740871472258] [-12.603213097360797:15.881360393637182] [-0.64907153840900078:0.55283515738711486] [-0.41438799193881876:0.72190063038357466] [-0.64907153840900078:0.72190063038357466] [-0.64907153840900078:0.72190063038357466] [-0.64907153840900078:0.72190063038357466] [-0.29920260678157395:0.59458250895666509] [0.049137119606121979:0.23242736365550165] [-3.2615460051981171:1.9224295868407937] [-1.8601398968031069:13.942642606704386] [-26.928234610341654:53.512425806099856] [-0.64907153840900078:0.43494519453091496] [-0.014119878461932883:0.72190063038357466] [-0.64907153840900078:0.72190063038357466] [-0.64907153840900078:0.72190063038357466] [-0.64907153840900078:0.72190063038357466] [-0.20611521101772551:0.5572438145078823] [0.071760585805870566:0.23716987488726493] [-1.944229709322026:0.78725619263611413] [-1.6710087657747321:7.212877977081062] [-37.100737983190591:100.30388661141882] [-0.64907153840900078:0.39166586467474385] [0.12954493234840059:0.72190063038357466] [-0.64907153840900078:0.72190063038357466] [-0.64907153840900078:0.72190063038357466] [-0.64907153840900078:0.72190063038357466] [-0.17710528845782245:0.52791404972880274] [0.084432303545183107:0.28614187218323928] [-1.6980962680055449:0.47399691003588007] [-1.6353509577383529:5.4955509876701942] [-44.630532691371258:133.0343405316583] [-0.64907153840900078:0.35343373314505389] [0.13319852739571059:0.72190063038357466] [-0.64907153840900078:0.72190063038357466] [-0.64907153840900078:0.72190063038357466] [-0.64907153840900078:0.71059317363842245] [-0.074969985067610406:0.40323267101144467] [0.16307979176515514:0.34812469154611503] [-1.0118872237432104:0.2013015067509159] [-1.1825307450739508:0.50031380547681237] [-37.784872474075648:203.22926618976811] [-0.64907153840900078:-0.0080684262746153687] [0.38564179913325425:0.72190063038357466] [-0.64907153840900078:0.71059317363842245] [-0.19104803589320468:0.72190063038357466]
tree_sizes=2706 2571

Tree=0
num_leaves=31
num_cat=0
split_feature=85 83 50 0 79 27 67 92 63 85 80 76 65 67 76 85 27 57 28 86 56 28 81 81 56 50 28 61 46 67
split_gain=26.58 3.72722 2.03649 1.17347 0.976776 0.53569 0.489059 0.451383 0.408505 0.311267 0.209365 0.206157 0.196943 0.181122 0.16044 0.141684 0.130233 0.098081 0.0952359 0.128181 0.090112 0.0881787 0.0686083 0.0568966 0.0382479 0.028381 0.0271665 0.0207913 0.0195904 0.0133601
threshold=0.25754268445776757 0.22244039673213389 0.61563008657985707 318486000.00000006 -0.088367772679792664 32.054644934627227 1.643696847303638 0.15631724135069319 -0.33212857777227572 0.32239352327690557 0.61212341065971887 0.13515058017067369 0.13032649051375708 -0.5605755686744186 -0.67121085228665434 0.28889497686842963 34.169693374297005 -0.60633820518165404 1.4342391730624489 0.017545813877650581 -0.048983794485776042 7.9959429539770488 0.5369587369256642 0.19832466277924599 -0.29135372102246454 0.60554906236166117 10.422696161610434 0.047443467692433426 0.099695597891175547 -1.0817093526650357
decision_type=10 10 2 2 2 2 2 8 2 10 2 2 2 2 2 10 2 2 2 10 2 2 2 2 2 2 2 2 2 2
left_child=1 3 6 8 5 21 9 22 -1 13 -7 -4 28 25 20 -15 17 -12 -10 24 -14 -3 -5 -23 -20 -2 -18 -22 -9 -16
right_child=2 4 11 7 -6 10 -8 12 18 -11 16 -13 14 15 29 -17 26 -19 19 -21 27 23 -24 -25 -26 -27 -28 -29 -30 -31
leaf_value=0.4481110871464295 0.42856688832832746 0.45077240856865131 0.40328164417637757 0.43871734798987505 0.43891880138830441 0.4433853581093955 0.41265162111414838 0.43173113539224733 0.44331675474022281 0.41600190522649971 0.44903222564407108 0.4108075221713039 0.43647615678329615 0.42453688839705617 0.43925563222715769 0.41915005142769091 0.44802344129304728 0.4543571033437388 0.43612290454397007 0.44278928914475102 0.43320990640511642 0.4571627229365493 0.44362763309400771 0.45325681118263178 0.43961295954351093 0.42544394887579851 0.44496805468729012 0.43060137835892498 0.42907547504982224 0.43711296895627177
leaf_weight=37 22 21 20 21 33 31 20 20 37 21 33 38 24 39 22 32 22 20 26 28 22 29 20 25 20 20 20 22 20 20
leaf_count=37 22 21 20 21 33 31 20 20 37 21 33 38 24 39 22 32 22 20 26 28 22 29 20 25 20 20 20 22 20 20
internal_value=0.435946 0.442661 0.417795 0.438641 0.448486 0.450057 0.421404 0.435534 0.442651 0.42271 0.447667 0.408212 0.434009 0.423957 0.43532 0.422109 0.449064 0.451042 0.440831 0.439589 0.433519 0.454071 0.441113 0.455354 0.43764 0.42708 0.446568 0.431906 0.430403 0.438235
internal_weight=785 573 212 339 234 201 154 191 148 134 126 58 150 113 110 71 95 53 111 74 68 75 41 54 46 42 42 44 40 42
internal_count=785 573 212 339 234 201 154 191 148 134 126 58 150 113 110 71 95 53 111 74 68 75 41 54 46 42 42 44 40 42
is_linear=0
shrinkage=1


Tree=1
num_leaves=28
num_cat=0
split_feature=59 91 50 0 77 27 67 92 71 54 84 27 74 64 65 27 56 55 73 51 41 91 43 56 86 47 54
split_gain=21.8047 3.96935 1.6062 1.4679 0.899585 0.636256 0.62854 0.537789 0.360107 0.308056 0.233813 0.179971 0.179658 0.151624 0.15086 0.131979 0.122651 0.120858 0.0669531 0.0657116 0.0554396 0.054549 0.0454517 0.035768 0.0351074 0.028074 0.0275431
threshold=0.28710630205723148 0.23056752896578703 0.6292683381694214 318486000.00000006 -1.1522304984312337 32.054644934627227 -0.53709388906932332 0.15631724135069319 -0.28685665529221432 0.38186653647602314 0.2560565254023523 13.26756966389793 0.15240107159442517 0.4400395940817729 0.13032649051375708 35.536137670555895 0.010296002179769078 0.14527538441727214 0.5369587369256642 0.12233236616720715 0.42267418397199435 -0.015909577901362566 -0.17919059763101536 -0.43779398452758062 -0.28831779678717484 -1.0775796437556742 -0.1119687073716341
decision_type=2 10 2 2 2 2 2 8 2 2 10 2 2 2 2 2 2 2 2 2 2 10 2 2 10 2 2
left_child=1 3 6 8 25 24 13 18 -1 14 21 -4 -7 -2 -9 20 22 26 -5 -18 -14 -8 -16 -19 -6 -3 -10
right_child=2 4 11 7 5 12 10 9 17 -11 -12 -13 15 -15 16 -17 19 23 -20 -21 -22 -23 -24 -25 -26 -27 -28
leaf_value=0.011310648041275831 -0.0057579632905813364 0.00205450058542192 -0.021720825348581583 0.0024405381872202271 0.016725231826305389 0.0071214653825154529 -0.018262048363685605 -0.0052159645126334253 0.004961511816713028 -0.008841254188894079 -0.012813943154536761 -0.02871004780133565 0.01210939034819603 -0.012177509450250201 -0.00080414511146955194 0.0082871519791131668 -0.0040174312846591835 0.00065277588786557313 0.0073500310052186249 -2.7139055891893804e-05 0.01550875174422418 -0.022233145505189896 0.0028420350965461692 0.0040021242717788981 0.019487251397725697 0.0052335969116538766 0.0074558060506687441
leaf_weight=39 26 20 21 20 30 32 33 35 30 26 26 36 39 27 20 22 39 24 20 24 31 20 32 22 37 20 34
leaf_count=39 26 20 21 20 30 32 33 35 30 26 26 36 39 27 20 22 39 24 20 24 31 20 32 22 37 20 34
internal_value=3.97447e-05 0.00567093 -0.0177178 0.00177557 0.0118259 0.0135394 -0.0140831 -0.00138467 0.00635685 -0.00281193 -0.0174743 -0.0261351 0.0109939 -0.0090283 -0.00176685 0.0123408 -0.000717121 0.00460051 0.00489528 -0.00249732 0.0136148 -0.0197606 0.00143966 0.00225464 0.0182505 0.00364405 0.00628661
internal_weight=785 596 189 365 231 191 132 216 149 176 79 57 124 53 150 92 115 110 40 63 70 53 52 46 67 40 64
internal_count=785 596 189 365 231 191 132 216 149 176 79 57 124 53 150 92 115 110 40 63 70 53 52 46 67 40 64
is_linear=0
shrinkage=0.06


end of trees

feature_importances:
PE_Ratio=5
skew_90=4
kurt_180=4
PB_Ratio=3
max_25=3
std_504=3
WeightedAverageNumberOfDilutedSharesOutstanding=2
ma_90=2
std_180=2
skew_252=2
first_return_252=2
skew_504=2
first_return_504=2
last_return_504=2
first_return_5=1
lag_25=1
skew_25=1
kurt_25=1
first_return_25=1
std_90=1
kurt_90=1
min_90=1
first_return_90=1
lag_180=1
ma_180=1
first_return_180=1
lag_252=1
ma_252=1
kurt_252=1
min_252=1
max_252=1
lag_504=1
ma_504=1

parameters:
[boosting: gbdt]
[objective: regression]
[metric: rmse]
[tree_learner: serial]
[device_type: cpu]
[data_sample_strategy: bagging]
[data: ]
[valid: ]
[num_iterations: 2000]
[learning_rate: 0.06]
[num_leaves: 64]
[num_threads: 4]
[seed: 42]
[deterministic: 0]
[force_col_wise: 0]
[force_row_wise: 0]
[histogram_pool_size: -1]
[max_depth: -1]
[min_data_in_leaf: 20]
[min_sum_hessian_in_leaf: 0.001]
[bagging_fraction: 0.8]
[pos_bagging_fraction: 1]
[neg_bagging_fraction: 1]
[bagging_freq: 5]
[bagging_seed: 400]
[bagging_by_query: 0]
[feature_fraction: 0.8]
[feature_fraction_bynode: 1]
[feature_fraction_seed: 30056]
[extra_trees: 0]
[extra_seed: 12879]
[early_stopping_round: 0]
[early_stopping_min_delta: 0]
[first_metric_only: 0]
[max_delta_step: 0]
[lambda_l1: 0]
[lambda_l2: 0]
[linear_lambda: 0]
[min_gain_to_split: 0]
[drop_rate: 0.1]
[max_drop: 50]
[skip_drop: 0.5]
[xgboost_dart_mode: 0]
[uniform_drop: 0]
[drop_seed: 17869]
[top_rate: 0.2]
[other_rate: 0.1]
[min_data_per_group: 100]
[max_cat_threshold: 32]
[cat_l2: 10]
[cat_smooth: 10]
[max_cat_to_onehot: 4]
[top_k: 20]
[monotone_constraints: ]
[monotone_constraints_method: basic]
[monotone_penalty: 0]
[feature_contri: ]
[forcedsplits_filename: ]
[refit_decay_rate: 0.9]
[cegb_tradeoff: 1]
[cegb_penalty_split: 0]
[cegb_penalty_feature_lazy: ]
[cegb_penalty_feature_coupled: ]
[path_smooth: 0]
[interaction_constraints: ]
[verbosity: -1]
[saved_feature_importance_type: 0]
[use_quantized_grad: 0]
[num_grad_quant_bins: 4]
[quant_train_renew_leaf: 0]
[stochastic_rounding: 1]
[linear_tree: 0]
[max_bin: 255]
[max_bin_by_feature: ]
[min_data_in_bin: 3]
[bin_construct_sample_cnt: 200000]
[data_random_seed: 175]
[is_enable_sparse: 1]
[enable_bundle: 1]
[use_missing: 1]
[zero_as_missing: 0]
[feature_pre_filter: 1]
[pre_partition: 0]
[two_round: 0]
[header: 0]
[label_column: ]
[weight_column: ]
[group_column: ]
[ignore_column: ]
[categorical_feature: ]
[forcedbins_filename: ]
[precise_float_parser: 0]
[parser_config_file: ]
[objective_seed: 16083]
[num_class: 1]
[is_unbalance: 0]
[scale_pos_weight: 1]
[sigmoid: 1]
[boost_from_average: 1]
[reg_sqrt: 0]
[alpha: 0.9]
[fair_c: 1]
[poisson_max_delta_step: 0.7]
[tweedie_variance_power: 1.5]
[lambdarank_truncation_level: 30]
[lambdarank_norm: 1]
[label_gain: ]
[lambdarank_position_bias_regularization: 0]
[eval_at: ]
[multi_error_top_k: 1]
[auc_mu_weights: ]
[num_machines: 1]
[local_listen_port: 12400]
[time_out: 120]
[machine_list_filename: ]
[machines: ]
[gpu_platform_id: -1]
[gpu_device_id: -1]
[gpu_use_dp: 0]
[num_gpu: 1]

end of parameters

pandas_categorical:[]
