tree
version=v4
num_class=1
num_tree_per_iteration=1
label_index=0
max_feature_idx=92
objective=regression
feature_names=WeightedAverageNumberOfDilutedSharesOutstanding ROE ROA AssetTurnover DebtToEquity NetProfitMargin OperatingMargin EarningsPerShareDiluted_log GrossProfit_log NetIncomeLoss_log OperatingIncomeLoss_log Revenues_log Assets_log Liabilities_log NoncurrentAssets_log WeightedAverageNumberOfDilutedSharesOutstanding_log Equity_log ROE_log ROA_log BookValuePerShare_log SalesPerShare_log AssetTurnover_log DebtToEquity_log NetProfitMargin_log OperatingMargin_log EarningsPerShareDilutedTTM_log SalesPerShareTTM_log PE_Ratio PB_Ratio PS_Ratio MarketCapLog CostsAndExpenses_log Returns lag_5 ma_5 std_5 skew_5 kurt_5 total_return_5 min_5 max_5 first_return_5 last_return_5 lag_25 ma_25 std_25 skew_25 kurt_25 total_return_25 min_25 max_25 first_return_25 last_return_25 lag_90 ma_90 std_90 skew_90 kurt_90 total_return_90 min_90 max_90 first_return_90 last_return_90 lag_180 ma_180 std_180 skew_180 kurt_180 total_return_180 min_180 max_180 first_return_180 last_return_180 lag_252 ma_252 std_252 skew_252 kurt_252 total_return_252 min_252 max_252 first_return_252 last_return_252 lag_504 ma_504 std_504 skew_504 kurt_504 total_return_504 min_504 max_504 first_return_504 last_return_504
feature_infos=[28105690:28560000] [0.022995228708803862:0.055176892436970083] [0.020211547258103039:0.048989492310598154] none [0.1229318489958478:0.14865310470779219] none none [-0.68454648744666513:0.4958480395046303] [-0.32180615129523887:0.35610348813957238] [-0.68469982542075913:0.49549235748060655] [-0.6368734149720604:0.48046134686231606] none [-0.10298030854272709:0.055303263914203475] [-0.099931474692310229:0.10522464974147809] none [-0.00046581117111712915:0.0042705819566186609] [-0.11119291133199705:0.055741893863257626] [-0.57350691408876198:0.45543740336438066] [-0.58171951687803192:0.44930495365385648] [-0.11103957335790324:0.054430588231052041] none none [-0.15567336855556793:0.069955019359905793] none none [-0.023253665370589156:0.23668584766670028] none [13.328690086473447:30.352200310109186] [1.5995150771262803:3.5432082416512394] none [-0.14047293886641099:0.18423800461849624] none [-0.34904159937503881:0.86764233610925601] [-0.34904159937503881:0.86764233610925601] [-0.34400217329026667:0.77574167640455727] [0.0025302252183775483:0.14004670835151661] [-2.2215444709332988:2.1817337137418447] [-3.3115935712811306:4.9469178976276069] [-1.7200108664513334:3.8787083820227863] [-0.34904159937503881:0.71988278224983471] [-0.34141528674112009:0.86764233610925601] [-0.34904159937503881:0.86764233610925601] [-0.34904159937503881:0.86764233610925601] [-0.34904159937503881:0.86764233610925601] [-0.31985361354673619:0.69803752413052711] [0.018135055306281348:0.12652424892687297] [-3.0022554433658679:2.8234544636672569] [-1.7846796379697287:11.830137737363629] [-7.9963403386684053:17.450938103263177] [-0.34904159937503881:0.63085367898652611] [-0.27530944231275362:0.86764233610925601] [-0.34904159937503881:0.86764233610925601] [-0.34904159937503881:0.86764233610925601] [-0.34904159937503881:0.86764233610925601] [-0.25235695009858256:0.66609146389234375] [0.042611559942386232:0.20816392665641703] [-1.8277595169536365:1.2859404612538097] [-1.769480476728257:4.233356058742749] [-22.712125508872429:59.948231750310939] [-0.34904159937503881:0.55803198847345947] [-0.12049370867234993:0.86764233610925601] [-0.34904159937503881:0.86764233610925601] [-0.34904159937503881:0.86764233610925601] [-0.34904159937503881:0.86764233610925601] [-0.21015649086636862:0.53835555508519306] [0.07041600547470081:0.23106848741768005] [-0.67279819478987524:1.4372307897372314] [-1.6199062364256327:2.834001250522538] [-37.828168355946353:96.903999915334751] [-0.34904159937503881:0.28983373674005963] [-0.041690291466871081:0.86764233610925601] [-0.34904159937503881:0.86764233610925601] [-0.34904159937503881:0.86764233610925601] [-0.34904159937503881:0.86764233610925601] [-0.14559722788107995:0.44537387968825393] [0.11042469970813118:0.28811122616047347] [-0.51992050123059119:1.0874500019281221] [-1.4882858796430534:1.6918203996865062] [-36.690501426032149:112.23421768143999] [-0.34904159937503881:0.11534040960198995] [0.1497988717601999:0.86764233610925601] [-0.34904159937503881:0.86764233610925601] [-0.34904159937503881:0.86764233610925601] [-0.14381752822501123:0.86764233610925601] [0.084537231893039855:0.29703632780211253] [0.12482554275583364:0.33815705323720285] [-0.10844358245988218:1.1782863735522819] [-1.355990316729129:2.0574462513355347] [42.606764874092086:149.70630921226473] [-0.34904159937503881:-0.14381752822501123] [0.38242833237307117:0.86764233610925601] [-0.14381752822501123:0.86764233610925601] [-0.34904159937503881:0.86764233610925601]
tree_sizes=2616 3004 2816 2925

Tree=0
num_leaves=30
num_cat=0
split_feature=85 64 76 50 44 28 84 60 67 49 27 85 27 27 47 28 64 44 44 61 28 81 67 32 27 30 57 46 47
split_gain=70.5462 12.9814 6.98945 3.91182 1.41549 1.3339 2.07013 0.828009 0.568366 0.483498 0.315411 0.243562 0.20478 0.140497 0.115103 0.101741 0.0789582 0.051429 0.051317 0.0480806 0.0444052 0.0422032 0.0271383 0.0458229 0.0258032 0.0204437 0.0178764 0.0133978 0.016387
threshold=0.2214236987793208 0.44435012343327679 -0.10707934635661855 0.45524447365386511 0.585846626857914 2.0149180260983588 0.11899933076314136 -0.039494818580347056 -0.64557185285209384 0.25078255926414234 21.412977095342182 0.21843360241488194 15.77479437953148 18.681648289456703 -0.36224736062618695 2.5599950838909238 0.14185128707418052 0.43911147572432224 0.1121301503077979 0.13520524696418509 3.1574723580899509 0.16568619570694462 -0.90763895861155575 -0.14301871616883763 18.974952994346484 -0.014636407393175449 -0.26998267041008089 -0.021563236968221742 -0.78304825874332817
decision_type=8 2 2 2 2 2 8 2 2 2 2 10 2 2 2 2 2 2 2 2 2 2 2 2 2 2 2 2 2
left_child=3 2 10 8 -3 12 13 -8 15 16 22 14 25 19 20 -1 18 -15 27 -7 -5 -13 23 -2 -20 -4 -16 28 -9
right_child=1 4 5 11 -6 6 7 9 -10 -11 -12 21 -14 17 26 -17 -18 -19 24 -21 -22 -23 -24 -25 -26 -27 -28 -29 -30
leaf_value=0.34718351036451123 0.35456982575734952 0.41126566264038777 0.37979739131038881 0.3287555566728661 0.39051710324765598 0.3796955485046456 0.37341812282806136 0.36489149903511503 0.3344290000177893 0.35454551852034277 0.34567581773622513 0.32160831505065657 0.3721658918162733 0.37550947964196896 0.3220043789744923 0.34163951459761727 0.36785900363331531 0.37167507734549599 0.36646597254281738 0.37592580046844187 0.32510568347578739 0.31787641707068182 0.35557707366692909 0.35086214691405987 0.36406796915196021 0.37756057985838276 0.32437222535778215 0.36210893314949755 0.36249173889101755
leaf_weight=22 30 20 24 30 29 21 35 20 39 20 22 24 27 20 24 26 21 34 30 29 20 20 23 20 35 38 22 39 21
leaf_count=22 30 20 24 30 29 21 35 20 39 20 22 24 27 20 24 26 21 34 30 29 20 20 23 20 35 38 22 39 21
internal_value=0.358018 0.36949 0.366651 0.329818 0.398986 0.370019 0.368237 0.364952 0.339809 0.363359 0.351973 0.323609 0.376527 0.375217 0.325303 0.344181 0.36442 0.373095 0.363923 0.377509 0.327296 0.319912 0.353871 0.353087 0.365175 0.378426 0.323137 0.362905 0.363662
internal_weight=785 558 509 227 49 414 325 221 87 186 95 140 89 104 96 48 166 54 145 50 50 44 73 50 65 62 46 80 41
internal_count=785 558 509 227 49 414 325 221 87 186 95 140 89 104 96 48 166 54 145 50 50 44 73 50 65 62 46 80 41
is_linear=0
shrinkage=1


Tree=1
num_leaves=33
num_cat=0
split_feature=89 64 76 50 10 44 74 76 54 67 77 69 45 28 76 44 74 30 51 49 27 41 28 37 47 54 77 30 67 55 41 44
split_gain=62.13 11.357 5.90704 3.87294 1.28877 1.25072 0.988562 0.648566 0.738772 0.610882 0.365252 0.265542 0.237074 0.121711 0.108854 0.0946155 0.0942188 0.0903123 0.0801438 0.0729148 0.0299558 0.0251281 0.0321425 0.0221768 0.0207241 0.0197373 0.019283 0.0143775 0.0118457 0.0110247 0.0235553 0.00620568
threshold=-0.15929794612875312 0.44435012343327679 -0.10707934635661855 0.45524447365386511 0.12782584062489633 0.585846626857914 -0.12164191357610891 0.83445260456466863 0.14627726680815337 -0.67754103251572551 -0.77867192100423865 -0.16702587644503789 0.039013826611489492 2.5455228731124908 0.63420290215118025 0.46419366227082703 0.11092247138551527 -0.0026729234330104441 0.1220995021531603 0.49908982046492761 19.142005684989194 0.30686047806627786 2.0149180260983588 0.51578958356035443 -0.46630808770686905 0.35164432647922444 -0.059845778326534309 1.0000000180025095e-35 -0.45422576982375623 0.081286265970980709 0.1816550450956303 -0.23894941586707066
decision_type=10 2 2 2 2 2 2 2 2 2 2 2 2 2 2 2 2 2 2 2 2 2 2 2 2 2 2 2 2 2 2 2
left_child=1 2 10 9 7 -3 26 8 16 13 23 21 -5 -2 -10 -14 18 24 -4 28 -19 22 31 27 -13 -11 -6 -1 -17 -18 -31 -8
right_child=3 5 4 12 6 -7 11 -9 14 25 -12 17 15 -15 -16 19 29 20 -20 -21 -22 -23 -24 -25 -26 -27 -28 -29 -30 30 -32 -33
leaf_value=-0.0018267675888325487 -0.0092156977057456964 0.04996169650554657 0.010210134356186307 -0.036971876844763753 0.0041837988356128331 0.030458051007369469 0.019528033822774887 -0.0028444477014709264 0.018722408205270769 -0.020692532122135159 -0.012921230837702751 0.014508093189109455 -0.028016011582480536 -0.015079028056218073 0.012537379775728498 -0.034192737936973569 0.0059040129650384182 0.013186787321017338 0.0053431206090109682 -0.029423028516769409 0.010330705951899289 0.020059830844402313 0.016234259521588683 -0.0053046999566934323 0.017112404473803262 -0.023326208676610671 0.0068185447876167021 -0.0039200222885443104 -0.032447447393621716 0.0030660193496280246 0.0057827589400112631 0.018051262327602929
leaf_weight=21 25 20 29 32 20 29 20 20 20 20 20 22 27 26 21 28 20 39 21 25 20 20 32 22 22 21 20 27 28 27 20 21
leaf_count=21 25 20 29 32 20 29 20 20 20 20 20 22 27 26 21 28 20 39 21 25 20 20 32 22 22 21 20 27 28 27 20 21
internal_value=-9.09637e-05 0.0108423 0.00816123 -0.0261516 0.0111898 0.0384187 0.0140971 0.00733518 0.00862374 -0.0165886 -0.00577034 0.0158514 -0.032436 -0.0122048 0.0155545 -0.031092 0.00619502 0.0137529 0.00816599 -0.0321173 0.0122186 0.0181756 0.0176594 -0.00372723 0.0158102 -0.0220415 0.00550117 -0.00300422 -0.0333201 0.00472415 0.00422208 0.0187716
internal_weight=785 553 504 232 414 49 236 178 158 92 90 196 140 51 41 108 117 103 50 81 59 93 73 70 44 41 40 48 56 67 47 41
internal_count=785 553 504 232 414 49 236 178 158 92 90 196 140 51 41 108 117 103 50 81 59 93 73 70 44 41 40 48 56 67 47 41
is_linear=0
shrinkage=0.06


Tree=2
num_leaves=31
num_cat=0
split_feature=85 64 76 50 10 44 78 76 54 67 77 90 45 27 78 76 28 70 85 27 34 49 28 85 37 67 30 57 41 77
split_gain=55.0987 10.1385 5.47044 3.04916 1.15353 1.05969 0.880382 0.573073 0.652936 0.443292 0.318736 0.232155 0.209478 0.100343 0.0904788 0.0842714 0.0787117 0.0761972 0.0715568 0.0696566 0.0577281 0.0557668 0.0300369 0.0297359 0.0205994 0.0180036 0.011456 0.0113437 0.0218863 0.00560568
threshold=0.2214236987793208 0.45155533094084149 -0.10707934635661855 0.45524447365386511 0.12782584062489633 0.585846626857914 -30.653762221179445 0.83445260456466863 0.15145453732438893 -0.64557185285209384 -0.77867192100423865 0.69338249753869874 0.039013826611489492 16.33103833835867 27.952462789149845 0.11031762220025576 2.5858367597926173 0.363824982268591 0.26288179370562076 18.681648289456703 0.37597820866557141 0.49908982046492761 2.0149180260983588 0.32717528505768484 0.51578958356035443 -0.45422576982375623 0.0055329048659720709 -0.059480010114068164 0.1816550450956303 -0.90590788042396631
decision_type=8 2 2 2 2 2 2 2 2 2 2 10 2 2 2 2 2 2 10 2 2 2 2 10 2 2 2 2 2 2
left_child=3 2 10 9 7 -3 23 8 14 16 24 13 -5 -8 17 -14 -1 -4 -15 20 22 25 29 -6 26 -17 -2 28 -16 -13
right_child=1 5 4 12 6 -7 11 -9 -10 -11 -12 19 15 18 27 21 -18 -19 -20 -21 -22 -23 -24 -25 -26 -27 -28 -29 -30 -31
leaf_value=-0.0098964642733335492 -0.002155815773675668 0.04696399533748627 0.0059604231943376357 -0.034753564484417437 0.0068070204220712187 0.028881094029971532 0.015863761050360543 -0.002673780880810227 0.0148438187287404 -0.0209381247483767 -0.01214595703035593 0.018330006429127282 -0.025815081170627047 0.0090841304318558785 0.0028170685604628587 -0.032141173481941225 -0.014755837321281433 0.010681406646966934 0.013447998277842998 0.013595220511374266 0.020140058219432832 -0.027657646822929382 0.015287398744273831 0.0035351825647812803 -0.0050707156164571639 -0.030086661226609177 -0.0039715052937919441 0.005637508068233728 0.0054357936456799509 0.016926440879702565
leaf_weight=24 29 20 32 32 20 28 21 20 39 39 20 21 21 31 27 28 24 20 24 23 20 25 37 20 24 34 22 20 20 20
leaf_count=24 29 20 32 32 20 28 21 20 39 39 20 21 21 31 27 28 24 20 24 23 20 25 37 20 24 34 22 20 20 20
internal_value=-8.55058e-05 0.0100532 0.00757204 -0.025008 0.0105452 0.0364156 0.0132866 0.00689507 0.00810631 -0.0161867 -0.00541587 0.0149344 -0.0304898 0.0123355 0.00589822 -0.0292265 -0.0123262 0.00777619 0.0109884 0.0165668 0.0172642 -0.0300499 0.0165268 0.0051711 -0.00362119 -0.0310145 -0.00293905 0.0044407 0.00393142 0.0176453
internal_weight=785 558 510 227 415 48 237 178 158 87 95 197 140 76 119 108 48 52 55 121 98 87 78 40 75 62 51 67 47 41
internal_count=785 558 510 227 415 48 237 178 158 87 95 197 140 76 119 108 48 52 55 121 98 87 78 40 75 62 51 67 47 41
is_linear=0
shrinkage=0.06


Tree=3
num_leaves=32
num_cat=0
split_feature=85 64 76 44 10 44 74 76 54 67 77 90 45 74 28 76 28 44 70 49 87 77 85 81 37 54 65 30 46 67 61
split_gain=48.6852 8.95837 4.83368 2.69298 1.01926 0.936346 0.777906 0.506367 0.576934 0.403216 0.281635 0.207574 0.181172 0.0799471 0.0721678 0.0968672 0.0699368 0.069233 0.0673279 0.0573395 0.0352671 0.0370105 0.0262746 0.0188872 0.0182016 0.0158759 0.0134914 0.0101895 0.00918226 0.00895302 0.00889208
threshold=0.2214236987793208 0.45155533094084149 -0.10707934635661855 0.32817403900593473 0.12782584062489633 0.585846626857914 -0.12164191357610891 0.83445260456466863 0.15145453732438893 -0.64557185285209384 -0.77867192100423865 0.7229454720334173 0.039013826611489492 0.11092247138551527 1.9509766458706295 -0.070477618022465369 2.5599950838909238 0.46419366227082703 0.363824982268591 0.49908982046492761 -1.0895662698100999 -0.89552850109040649 0.32717528505768484 -0.13875922849601921 0.51578958356035443 0.3567980711247053 0.15093693823525964 1.0000000180025095e-35 0.21478949411830997 -0.45422576982375623 0.029985325260182643
decision_type=8 2 2 2 2 2 2 2 2 2 2 10 2 2 2 2 2 2 2 2 10 2 10 2 2 2 2 2 2 2 2
left_child=3 2 10 9 7 -3 22 8 13 16 24 14 -5 18 -8 -16 -1 -14 -4 29 21 -13 -6 -22 27 -11 -17 -2 30 -19 -15
right_child=1 5 4 12 6 -7 11 -9 -10 25 -12 20 17 28 15 26 -18 19 -20 -21 23 -23 -24 -25 -26 -27 -28 -29 -30 -31 -32
leaf_value=-0.0090968139605088656 -0.0018269656768635561 0.04414615595340729 0.0056027978088241072 -0.032668350767344236 0.0063985993377864364 0.027148228436708451 0.014911935882908955 -0.0025133540192618965 0.013953189781078925 -0.018547875031828882 -0.011417199678719044 0.018106900155544281 -0.02482889902133208 0.0054543371032923461 0.013817287802696228 0.0080165222925799237 -0.013693308681249619 -0.030212703134332379 0.010040522217750548 -0.025998187923431396 0.013447465431690215 0.01504633980989456 0.0033230716510734056 0.015736147032843695 -0.0047664726665243504 -0.02093854781985283 0.010193967819213867 -0.0035313591773488691 0.0031696798841849986 -0.028695400868143352 0.0037637250566123323
leaf_weight=22 23 20 32 32 20 28 21 20 39 20 20 33 26 24 25 21 26 28 20 25 25 25 20 27 24 20 20 28 22 28 21
leaf_count=22 23 20 32 32 20 28 21 20 39 20 20 33 26 24 25 21 26 28 20 25 25 25 20 27 24 20 20 28 22 28 21
internal_value=-8.03754e-05 0.00945002 0.00711772 -0.0235075 0.00991247 0.0342307 0.0124894 0.00648136 0.00761993 -0.0152941 -0.00509092 0.0140384 -0.0287073 0.00554433 0.0118484 0.0108736 -0.0115866 -0.0275227 0.00730961 -0.0283874 0.0157704 0.0167877 0.00486084 0.0146358 -0.00340391 -0.0197432 0.00907869 -0.00276271 0.00417426 -0.0294541 0.00466538
internal_weight=785 558 510 227 415 48 237 178 158 88 95 197 139 119 87 66 48 107 52 81 110 58 40 52 75 40 41 51 67 56 45
internal_count=785 558 510 227 415 48 237 178 158 88 95 197 139 119 87 66 48 107 52 81 110 58 40 52 75 40 41 51 67 56 45
is_linear=0
shrinkage=0.06


end of trees

feature_importances:
ma_25=10
skew_252=10
PB_Ratio=9
kurt_180=8
PE_Ratio=7
std_504=7
kurt_252=6
MarketCapLog=5
ma_90=5
ma_180=5
min_25=4
ma_252=4
OperatingIncomeLoss_log=3
kurt_5=3
first_return_5=3
std_25=3
kurt_25=3
max_25=3
skew_25=2
kurt_90=2
first_return_90=2
max_180=2
total_return_252=2
first_return_252=2
max_504=2
Returns=1
ma_5=1
first_return_25=1
std_90=1
max_90=1
std_180=1
min_180=1
ma_504=1
kurt_504=1
min_504=1

parameters:
[boosting: gbdt]
[objective: regression]
[metric: rmse]
[tree_learner: serial]
[device_type: cpu]
[data_sample_strategy: bagging]
[data: ]
[valid: ]
[num_iterations: 2000]
[learning_rate: 0.06]
[num_leaves: 64]
[num_threads: 4]
[seed: 42]
[deterministic: 0]
[force_col_wise: 0]
[force_row_wise: 0]
[histogram_pool_size: -1]
[max_depth: -1]
[min_data_in_leaf: 20]
[min_sum_hessian_in_leaf: 0.001]
[bagging_fraction: 0.8]
[pos_bagging_fraction: 1]
[neg_bagging_fraction: 1]
[bagging_freq: 5]
[bagging_seed: 400]
[bagging_by_query: 0]
[feature_fraction: 0.8]
[feature_fraction_bynode: 1]
[feature_fraction_seed: 30056]
[extra_trees: 0]
[extra_seed: 12879]
[early_stopping_round: 0]
[early_stopping_min_delta: 0]
[first_metric_only: 0]
[max_delta_step: 0]
[lambda_l1: 0]
[lambda_l2: 0]
[linear_lambda: 0]
[min_gain_to_split: 0]
[drop_rate: 0.1]
[max_drop: 50]
[skip_drop: 0.5]
[xgboost_dart_mode: 0]
[uniform_drop: 0]
[drop_seed: 17869]
[top_rate: 0.2]
[other_rate: 0.1]
[min_data_per_group: 100]
[max_cat_threshold: 32]
[cat_l2: 10]
[cat_smooth: 10]
[max_cat_to_onehot: 4]
[top_k: 20]
[monotone_constraints: ]
[monotone_constraints_method: basic]
[monotone_penalty: 0]
[feature_contri: ]
[forcedsplits_filename: ]
[refit_decay_rate: 0.9]
[cegb_tradeoff: 1]
[cegb_penalty_split: 0]
[cegb_penalty_feature_lazy: ]
[cegb_penalty_feature_coupled: ]
[path_smooth: 0]
[interaction_constraints: ]
[verbosity: -1]
[saved_feature_importance_type: 0]
[use_quantized_grad: 0]
[num_grad_quant_bins: 4]
[quant_train_renew_leaf: 0]
[stochastic_rounding: 1]
[linear_tree: 0]
[max_bin: 255]
[max_bin_by_feature: ]
[min_data_in_bin: 3]
[bin_construct_sample_cnt: 200000]
[data_random_seed: 175]
[is_enable_sparse: 1]
[enable_bundle: 1]
[use_missing: 1]
[zero_as_missing: 0]
[feature_pre_filter: 1]
[pre_partition: 0]
[two_round: 0]
[header: 0]
[label_column: ]
[weight_column: ]
[group_column: ]
[ignore_column: ]
[categorical_feature: ]
[forcedbins_filename: ]
[precise_float_parser: 0]
[parser_config_file: ]
[objective_seed: 16083]
[num_class: 1]
[is_unbalance: 0]
[scale_pos_weight: 1]
[sigmoid: 1]
[boost_from_average: 1]
[reg_sqrt: 0]
[alpha: 0.9]
[fair_c: 1]
[poisson_max_delta_step: 0.7]
[tweedie_variance_power: 1.5]
[lambdarank_truncation_level: 30]
[lambdarank_norm: 1]
[label_gain: ]
[lambdarank_position_bias_regularization: 0]
[eval_at: ]
[multi_error_top_k: 1]
[auc_mu_weights: ]
[num_machines: 1]
[local_listen_port: 12400]
[time_out: 120]
[machine_list_filename: ]
[machines: ]
[gpu_platform_id: -1]
[gpu_device_id: -1]
[gpu_use_dp: 0]
[num_gpu: 1]

end of parameters

pandas_categorical:[]
