tree
version=v4
num_class=1
num_tree_per_iteration=1
label_index=0
max_feature_idx=92
objective=regression
feature_names=WeightedAverageNumberOfDilutedSharesOutstanding ROE ROA AssetTurnover DebtToEquity NetProfitMargin OperatingMargin EarningsPerShareDiluted_log GrossProfit_log NetIncomeLoss_log OperatingIncomeLoss_log Revenues_log Assets_log Liabilities_log NoncurrentAssets_log WeightedAverageNumberOfDilutedSharesOutstanding_log Equity_log ROE_log ROA_log BookValuePerShare_log SalesPerShare_log AssetTurnover_log DebtToEquity_log NetProfitMargin_log OperatingMargin_log EarningsPerShareDilutedTTM_log SalesPerShareTTM_log PE_Ratio PB_Ratio PS_Ratio MarketCapLog CostsAndExpenses_log Returns lag_5 ma_5 std_5 skew_5 kurt_5 total_return_5 min_5 max_5 first_return_5 last_return_5 lag_25 ma_25 std_25 skew_25 kurt_25 total_return_25 min_25 max_25 first_return_25 last_return_25 lag_90 ma_90 std_90 skew_90 kurt_90 total_return_90 min_90 max_90 first_return_90 last_return_90 lag_180 ma_180 std_180 skew_180 kurt_180 total_return_180 min_180 max_180 first_return_180 last_return_180 lag_252 ma_252 std_252 skew_252 kurt_252 total_return_252 min_252 max_252 first_return_252 last_return_252 lag_504 ma_504 std_504 skew_504 kurt_504 total_return_504 min_504 max_504 first_return_504 last_return_504
feature_infos=[106020936:113986129] [-0.088263309501130399:0.27670596839877898] [-0.074451067372359403:0.24785492031356934] [0.16765805793659139:0.52467016378819609] [0.10391769427543086:0.28239514350549255] [0.12742465710843531:1.4783358662505119] [0.096011910939356848:0.44810023767661816] [-1.3308487395745661:1.4919612278108112] none [-1.3322064480418707:1.488734772542363] [-0.54769041620880532:0.49780794224156522] [0.64619350291190247:1.1189406060982368] [-0.071631942378926394:0.2856487259266991] [-0.30703720765602266:0.87788473042709703] none [-0.0096149087492309066:0.024600433461652409] [-0.073933764944668967:0.34252955335724011] [-1.4117641927115012:1.1462052191851229] [-1.4275588576653859:1.2030860466156639] [-0.073153551318490537:0.34575600862568823] [0.65580841166113324:1.1202983145655416] [0.49585683052688861:1.0235881964747218] [-0.44555014511137025:0.76448953448921897] [-2.4511470541401077:-1.1879055373033518] [-1.4250325089318006:-1.193883919120708] [-0.62168765058641806:1.2796650797499955] none [4.4218208672910322:45.045933447496239] [2.0173181918333509:8.0866516103110282] none [-0.34303211534826439:0.2140456599249615] none [-0.84864461784093215:1.3032973879899494] [-0.84864461784093215:1.3032973879899494] [-0.74544022842575008:1.2773872055776276] [0.0045613209013296721:0.4122351126923538] [-2.2002153052114695:2.1507343529611513] [-3.2789516738726192:4.8644405601999949] [-3.7272011421287505:6.3869360278881384] [-0.84864461784093215:1.2328532426408683] [-0.68826519640238992:1.3032973879899494] [-0.84864461784093215:1.3032973879899494] [-0.84864461784093215:1.3032973879899494] [-0.84864461784093215:1.3032973879899494] [-0.63625267599533852:1.0991293744285278] [0.022316363202449868:0.37848261858917498] [-2.1950405790312293:2.5343923904603352] [-1.9511372884092137:8.1862867839433342] [-15.906316899883464:27.478234360713191] [-0.84864461784093215:0.96203679284202515] [-0.47482629701426193:1.3032973879899494] [-0.84864461784093215:1.3032973879899494] [-0.84864461784093215:1.3032973879899494] [-0.84864461784093215:1.3032973879899494] [-0.45527482273779835:0.90225197659336953] [0.091942229224276542:0.40263596462554818] [-2.480578644652403:1.6728766331249141] [-1.6286612734145574:7.5330545843973695] [-40.974734046401849:81.202677893403262] [-0.84864461784093215:0.67622630263471406] [-0.18046288846454323:1.3032973879899494] [-0.84864461784093215:1.3032973879899494] [-0.84864461784093215:1.3032973879899494] [-0.84864461784093215:1.3032973879899494] [-0.25386339962167637:0.85256234017649157] [0.12174587102377546:0.40315299163006479] [-2.2491658098206679:0.88450437335917653] [-1.5500318357686724:7.2375593644414993] [-45.695411931901745:153.46122123176849] [-0.84864461784093215:0.63240377300110029] [0.21921427685532352:1.3032973879899494] [-0.84864461784093215:1.3032973879899494] [-0.84864461784093215:1.3032973879899494] [-0.84864461784093215:1.1631508589641504] [-0.18261680884617226:0.78208521285409593] [0.18013645715391247:0.44345682125262853] [-1.1035628354525213:0.4414976896071815] [-1.376252624296842:1.0079032967680861] [-46.019435829235412:197.08547363923216] [-0.84864461784093215:0.4060486666512621] [0.35437349483454628:1.3032973879899494] [-0.84864461784093215:1.1631508589641504] [-0.84864461784093215:1.3032973879899494] [-0.84864461784093215:0.85987667385147337] [0.084620686344643897:0.64150142901667084] [0.23151299168887987:0.4289076491689558] [-0.55263065607048201:0.0042481038033358228] [-1.172781328402541:0.23880614911710185] [42.648825917700528:323.3167202244021] [-0.84864461784093215:0.080932290664193357] [0.73271274343834703:1.3032973879899494] [-0.84864461784093215:0.85987667385147337] [-0.27563378130783378:1.3032973879899494]
tree_sizes=2451 2635 2633 2723

Tree=0
num_leaves=28
num_cat=0
split_feature=28 90 75 28 64 71 7 92 54 74 77 55 34 71 71 46 54 28 55 51 54 71 54 54 47 87 57
split_gain=60.6254 11.1758 5.91344 3.87953 3.16583 1.15917 0.920094 0.753721 0.753045 0.583003 0.569109 0.550334 0.431902 0.31944 0.252842 0.246748 0.243851 0.229051 0.176804 0.168833 0.165778 0.15783 0.125996 0.104807 0.0437887 0.0437766 0.0339827
threshold=4.4848304806295118 0.82689194647232278 0.28372832253814767 4.9552404357745869 0.47426412028470755 0.19880708418589763 -0.1347292930126264 0.61396501147695914 0.52674903411384644 -0.086880047911506053 -0.80913987338832671 0.15999736619777108 0.11420806592542014 0.55810821523668708 0.39916747804166802 0.13214346113606254 0.15875356448068387 2.7558188231657428 0.16134771324722183 0.67867407063031571 0.45616054500901221 0.36281723518479786 0.58545114006968224 -0.24057657996869461 -0.44917400175705641 -0.91637651550483834 -0.73016437304855464
decision_type=2 8 2 2 2 2 10 8 2 2 2 2 2 2 2 2 2 2 2 2 2 2 2 2 2 10 2
left_child=1 4 12 7 6 9 18 -2 15 17 23 21 -3 -12 -13 -6 -9 -4 -1 25 -16 -5 -10 -7 -22 -14 -15
right_child=3 2 5 11 8 10 -8 16 22 -11 13 14 19 26 20 -17 -18 -19 -20 -21 24 -23 -24 -25 -26 -27 -28
leaf_value=0.40008623264976934 0.36687959078075721 0.36915133681252804 0.38503527188468012 0.34078085443602857 0.38425579099937279 0.38468509198453882 0.40851597882306662 0.35786807864067843 0.39430031875994659 0.39132537043319998 0.36906656850332148 0.3491832359641574 0.35648658525401483 0.37529363758796208 0.34659647759369694 0.37494374123567153 0.35001801885818867 0.37770711453519834 0.39292749444206743 0.36489705565939062 0.34255767212536786 0.33523691351910967 0.38826505999537619 0.37901715294745419 0.33927670882370925 0.36003592191262451 0.37842083440449692
leaf_weight=23 23 28 34 36 21 24 39 29 20 36 33 31 22 29 29 20 28 28 27 21 32 38 33 23 27 29 22
leaf_count=23 23 28 34 36 21 24 39 29 20 36 33 31 22 29 29 20 28 28 27 21 32 38 33 23 27 29 22
internal_value=0.369437 0.381612 0.375001 0.346602 0.393498 0.380317 0.401608 0.357711 0.385819 0.385252 0.376624 0.341997 0.362828 0.373666 0.344523 0.379713 0.354012 0.381726 0.396221 0.360369 0.342882 0.337934 0.390543 0.381911 0.341056 0.358505 0.376643
internal_weight=785 512 329 273 183 229 89 80 94 98 131 193 100 84 119 41 57 62 50 72 88 74 53 47 59 51 51
internal_count=785 512 329 273 183 229 89 80 94 98 131 193 100 84 119 41 57 62 50 72 88 74 53 47 59 51 51
is_linear=0
shrinkage=1


Tree=1
num_leaves=29
num_cat=0
split_feature=28 90 28 28 66 91 66 7 54 92 68 65 84 55 71 66 46 63 54 55 85 63 54 66 85 45 86 28
split_gain=53.5686 9.87495 3.74105 3.42796 2.79813 1.65356 1.16937 0.85293 0.677965 0.669994 0.645677 0.612346 0.546249 0.489581 0.261792 0.255437 0.218026 0.201032 0.185645 0.156224 0.14691 0.143542 0.106745 0.0785539 0.0681923 0.0545089 0.0371787 0.0286541
threshold=4.4848304806295118 0.82689194647232278 3.2758536719458373 4.9552404357745869 -0.38045466600714711 0.58533025509234049 0.085929723120927212 -0.1347292930126264 0.52674903411384644 0.6048971365635597 -42.515263643988163 0.30919842710020934 0.099890579023356504 0.16494688439233735 0.39916747804166802 0.2455815273304644 0.13214346113606254 0.84534204510510291 0.15875356448068387 0.16134771324722183 0.37246236054971621 0.43545291160156013 0.58545114006968224 -0.11389311484401564 0.38685616010335044 0.071890892594570308 -0.20901033140244241 5.7232605131471548
decision_type=2 8 2 2 2 10 2 10 2 8 2 2 10 2 2 2 2 2 2 2 10 2 2 2 8 2 10 2
left_child=1 4 6 9 8 11 10 19 16 -2 -3 17 23 21 -15 26 -1 24 -11 -6 27 -5 -10 -12 -4 -7 -8 -16
right_child=3 2 5 13 7 25 15 -9 22 18 12 -13 -14 14 20 -17 -18 -19 -20 -21 -22 -23 -24 -25 -26 -27 -28 -29
leaf_value=0.014110969730785914 -0.0016371846225644862 0.01489526242017746 -0.0079145384293336125 -0.026707766697956964 0.028991584726001905 0.0068844351598194662 0.013528807684779166 0.03728319761000181 0.023552825868129731 -0.010693479465513394 0.0066537192171381319 0.0028896201526125271 -0.0020217008071227206 -0.018077437302895957 -0.02502340643636642 0.023529854331697735 0.0053576429206877944 -0.0032418169246687151 -0.017425709307193754 0.022262371116214329 -0.020864865088462827 -0.031855596762437086 0.018028653886388326 0.011447153091430663 -0.012155386869396481 0.011261191025376319 0.017187268406152725 -0.027603162911630445
leaf_weight=21 21 33 39 39 23 21 20 38 20 29 32 27 27 28 31 21 20 28 30 27 25 39 34 20 21 20 20 31
leaf_count=21 21 33 39 39 23 21 20 38 20 29 32 27 27 28 31 21 20 28 30 27 25 39 34 20 21 20 20 31
internal_value=0.000181022 0.0116261 0.0054115 -0.0212837 0.0227987 -0.00132618 0.0114871 0.0305074 0.015658 -0.0108408 0.00784661 -0.00501462 0.00490223 -0.0256124 -0.0231236 0.0181713 0.00984105 -0.00743978 -0.0141166 0.0253578 -0.0247476 -0.0292817 0.0200746 0.00849735 -0.00939884 0.00901944 0.015358 -0.0263133
internal_weight=785 512 329 273 183 156 173 88 95 80 112 115 79 193 115 61 41 88 59 50 87 78 54 52 60 41 40 62
internal_count=785 512 329 273 183 156 173 88 95 80 112 115 79 193 115 61 41 88 59 50 87 78 54 52 60 41 40 62
is_linear=0
shrinkage=0.06


Tree=2
num_leaves=29
num_cat=0
split_feature=28 90 75 28 64 27 10 57 92 55 55 34 43 77 77 71 64 41 28 77 60 71 87 65 74 84 28 45
split_gain=47.3332 8.7255 4.65005 3.02894 2.47401 0.920282 0.719362 0.617083 0.595351 0.587256 0.432593 0.356189 0.340332 0.331531 0.260789 0.231319 0.193211 0.191503 0.158756 0.144522 0.13531 0.126834 0.121534 0.0994681 0.0591728 0.0555592 0.0369869 0.0234762
threshold=4.4848304806295118 0.82689194647232278 0.28372832253814767 4.9552404357745869 0.47426412028470755 8.3356994677764522 -0.10875424604696217 -0.69866917970751385 0.61396501147695914 0.16177009764713324 0.16494688439233735 0.097123021323988604 0.1468890077273616 -0.85567316394456394 -0.62057697262946998 0.39916747804166802 0.34917754320617461 0.21684260316148599 2.5431424455785208 -1.0978500283380284 1.045934754142255 0.36281723518479786 -0.91637651550483834 0.13868063178942319 0.75712239008772453 0.5779140158752164 5.8678330301966506 0.085578886751606312
decision_type=2 8 2 2 2 2 10 2 8 2 2 2 2 2 2 2 2 2 2 2 2 2 10 2 2 8 2 2
left_child=1 4 11 8 6 7 19 13 -2 23 21 -3 25 -4 18 -12 -10 -11 27 -1 -17 -5 -13 -6 -24 -7 -22 -9
right_child=3 2 5 10 9 12 -8 14 16 17 15 22 -14 -15 -16 20 -18 -19 -20 -21 26 -23 24 -25 -26 -27 -28 -29
leaf_value=0.027627074207578386 -0.0020420525628951905 0.00084435504112068723 0.011606002263724803 -0.025105300637391897 0.021899190057407723 0.0096054528329683388 0.034708175796728864 0.014868426957856054 -0.010279089423917954 0.013252367675304412 -0.016992791156683649 -0.011433694396506657 -0.00096500484129557237 0.0012830433369215046 0.021181820375578746 -0.019916438501456687 -0.01729262706178885 0.0050487257838249203 0.010853030065956868 0.02109132747197973 -0.023420792735856153 -0.029944260533039384 -0.0044886445296288 0.016623991554783234 -0.0084784787893295282 0.0057639397841624234 -0.026451132071429285 0.017679163724184033
leaf_weight=21 23 23 24 39 22 23 39 23 31 21 28 22 26 21 21 29 26 20 38 29 29 39 32 31 23 33 29 20
leaf_count=21 23 23 24 39 22 23 39 23 31 21 28 22 26 21 21 29 26 20 38 29 29 39 32 31 23 33 29 20
internal_value=0.000170161 0.0109285 0.00508681 -0.0200067 0.0214308 0.00980054 0.0286004 0.0126413 -0.0101903 0.0146426 -0.0240756 -0.00570763 0.00470787 0.00678862 0.0152234 -0.0217362 -0.0134782 0.00925059 0.0136787 0.0238363 -0.0232628 -0.0275248 -0.00766471 0.0188137 -0.00615712 0.0073417 -0.024936 0.0161757
internal_weight=785 512 329 273 183 229 89 147 80 94 193 100 82 45 102 115 57 41 81 50 87 78 77 53 55 56 58 43
internal_count=785 512 329 273 183 229 89 147 80 94 193 100 82 45 102 115 57 41 81 50 87 78 77 53 55 56 58 43
is_linear=0
shrinkage=0.06


Tree=3
num_leaves=30
num_cat=0
split_feature=28 90 75 28 66 66 0 54 92 64 55 67 71 34 66 71 46 86 54 75 46 63 87 74 74 83 92 28 45
split_gain=41.8236 7.70986 4.10879 2.67637 2.19074 1.12256 0.701528 0.538337 0.526987 0.435272 0.382573 0.328102 0.325869 0.314728 0.192918 0.186844 0.181903 0.16223 0.147288 0.131167 0.130631 0.110932 0.107387 0.0914461 0.0522851 0.0422699 0.0338081 0.028608 0.0263606
threshold=4.4848304806295118 0.82689194647232278 0.28372832253814767 4.9552404357745869 -0.36810207366590042 0.085929723120927212 107819390.50000001 0.53086610836016079 0.6048971365635597 -0.23619590913326757 0.16177009764713324 -1.1203153825850014 0.55810821523668708 0.097123021323988604 0.2455815273304644 0.43084214672092275 0.13214346113606254 -0.20418851612510922 0.15875356448068387 0.24051634862540211 0.186554469721563 0.43545291160156013 -0.91637651550483834 0.44919180047627666 0.75712239008772453 0.74077534374622001 0.0094752070527377875 5.8678330301966506 0.1354348047854517
decision_type=2 8 2 2 2 2 2 2 8 2 2 2 2 2 2 2 2 10 2 2 2 2 10 2 2 8 8 2 2
left_child=1 4 13 8 7 9 -6 16 -2 -4 21 25 17 -3 26 -12 -1 -13 -10 -17 -8 -5 -15 -9 -24 -11 -7 -21 -14
right_child=3 2 5 10 6 14 20 23 18 11 15 12 28 22 -16 19 -18 -19 -20 27 -22 -23 24 -25 -26 -27 -28 -29 -30
leaf_value=0.012565669688311489 -0.0014164303835215314 0.00079369380280537452 0.012812729626893997 -0.023643304737838537 0.03330417887584583 0.015246009349822998 0.025015914275728419 0.015964255613439223 -0.0094351254763274349 0.0074507249625665791 -0.016587339900434015 -0.0049955751146189865 0.0049641826028085272 -0.010747672786766832 0.020249721718871072 -0.0182975182056427 0.004659428201965056 0.0026465862868353725 -0.015431665629148482 -0.022446968351539812 0.018802213370800017 -0.028258784162370782 -0.004219325927551836 0.021077262103557586 -0.0079697701334953304 0.011062274806201458 0.011873007027999214 -0.025128011910811713 0.0079425893649458876
leaf_weight=22 21 23 32 37 37 20 29 34 29 28 32 20 23 22 23 25 20 20 30 38 21 38 32 20 23 20 23 23 20
leaf_count=22 21 23 32 37 37 20 29 34 29 28 32 20 23 22 23 25 20 20 30 38 21 38 32 20 23 20 23 23 20
internal_value=0.000159951 0.0102728 0.0047816 -0.0188063 0.0201449 0.00921251 0.0270409 0.0138955 -0.00957892 0.00653939 -0.0226311 0.00500698 0.00272347 -0.00536517 0.0158143 -0.0205014 0.00880079 -0.00117449 -0.0124842 -0.0219578 0.0224062 -0.0259818 -0.00720483 0.017858 -0.00578769 0.00895554 0.0134418 -0.0234579 0.00634949
internal_weight=785 512 329 273 183 229 87 96 80 163 193 131 83 100 66 118 42 40 59 86 50 75 77 54 55 48 43 61 43
internal_count=785 512 329 273 183 229 87 96 80 163 193 131 83 100 66 118 42 40 59 86 50 75 77 54 55 48 43 61 43
is_linear=0
shrinkage=0.06


end of trees

feature_importances:
PB_Ratio=14
ma_90=10
first_return_180=9
std_90=7
skew_180=7
last_return_504=5
skew_25=4
ma_180=4
ma_252=4
std_252=4
kurt_252=4
max_504=4
ma_5=3
std_25=3
lag_180=3
kurt_504=3
EarningsPerShareDiluted_log=2
kurt_90=2
std_180=2
ma_504=2
std_504=2
skew_504=2
WeightedAverageNumberOfDilutedSharesOutstanding=1
OperatingIncomeLoss_log=1
PE_Ratio=1
first_return_5=1
lag_25=1
kurt_25=1
first_return_25=1
max_90=1
kurt_180=1
total_return_180=1
lag_504=1
first_return_504=1

parameters:
[boosting: gbdt]
[objective: regression]
[metric: rmse]
[tree_learner: serial]
[device_type: cpu]
[data_sample_strategy: bagging]
[data: ]
[valid: ]
[num_iterations: 2000]
[learning_rate: 0.06]
[num_leaves: 64]
[num_threads: 4]
[seed: 42]
[deterministic: 0]
[force_col_wise: 0]
[force_row_wise: 0]
[histogram_pool_size: -1]
[max_depth: -1]
[min_data_in_leaf: 20]
[min_sum_hessian_in_leaf: 0.001]
[bagging_fraction: 0.8]
[pos_bagging_fraction: 1]
[neg_bagging_fraction: 1]
[bagging_freq: 5]
[bagging_seed: 400]
[bagging_by_query: 0]
[feature_fraction: 0.8]
[feature_fraction_bynode: 1]
[feature_fraction_seed: 30056]
[extra_trees: 0]
[extra_seed: 12879]
[early_stopping_round: 0]
[early_stopping_min_delta: 0]
[first_metric_only: 0]
[max_delta_step: 0]
[lambda_l1: 0]
[lambda_l2: 0]
[linear_lambda: 0]
[min_gain_to_split: 0]
[drop_rate: 0.1]
[max_drop: 50]
[skip_drop: 0.5]
[xgboost_dart_mode: 0]
[uniform_drop: 0]
[drop_seed: 17869]
[top_rate: 0.2]
[other_rate: 0.1]
[min_data_per_group: 100]
[max_cat_threshold: 32]
[cat_l2: 10]
[cat_smooth: 10]
[max_cat_to_onehot: 4]
[top_k: 20]
[monotone_constraints: ]
[monotone_constraints_method: basic]
[monotone_penalty: 0]
[feature_contri: ]
[forcedsplits_filename: ]
[refit_decay_rate: 0.9]
[cegb_tradeoff: 1]
[cegb_penalty_split: 0]
[cegb_penalty_feature_lazy: ]
[cegb_penalty_feature_coupled: ]
[path_smooth: 0]
[interaction_constraints: ]
[verbosity: -1]
[saved_feature_importance_type: 0]
[use_quantized_grad: 0]
[num_grad_quant_bins: 4]
[quant_train_renew_leaf: 0]
[stochastic_rounding: 1]
[linear_tree: 0]
[max_bin: 255]
[max_bin_by_feature: ]
[min_data_in_bin: 3]
[bin_construct_sample_cnt: 200000]
[data_random_seed: 175]
[is_enable_sparse: 1]
[enable_bundle: 1]
[use_missing: 1]
[zero_as_missing: 0]
[feature_pre_filter: 1]
[pre_partition: 0]
[two_round: 0]
[header: 0]
[label_column: ]
[weight_column: ]
[group_column: ]
[ignore_column: ]
[categorical_feature: ]
[forcedbins_filename: ]
[precise_float_parser: 0]
[parser_config_file: ]
[objective_seed: 16083]
[num_class: 1]
[is_unbalance: 0]
[scale_pos_weight: 1]
[sigmoid: 1]
[boost_from_average: 1]
[reg_sqrt: 0]
[alpha: 0.9]
[fair_c: 1]
[poisson_max_delta_step: 0.7]
[tweedie_variance_power: 1.5]
[lambdarank_truncation_level: 30]
[lambdarank_norm: 1]
[label_gain: ]
[lambdarank_position_bias_regularization: 0]
[eval_at: ]
[multi_error_top_k: 1]
[auc_mu_weights: ]
[num_machines: 1]
[local_listen_port: 12400]
[time_out: 120]
[machine_list_filename: ]
[machines: ]
[gpu_platform_id: -1]
[gpu_device_id: -1]
[gpu_use_dp: 0]
[num_gpu: 1]

end of parameters

pandas_categorical:[]
