tree
version=v4
num_class=1
num_tree_per_iteration=1
label_index=0
max_feature_idx=92
objective=regression
feature_names=WeightedAverageNumberOfDilutedSharesOutstanding ROE ROA AssetTurnover DebtToEquity NetProfitMargin OperatingMargin EarningsPerShareDiluted_log GrossProfit_log NetIncomeLoss_log OperatingIncomeLoss_log Revenues_log Assets_log Liabilities_log NoncurrentAssets_log WeightedAverageNumberOfDilutedSharesOutstanding_log Equity_log ROE_log ROA_log BookValuePerShare_log SalesPerShare_log AssetTurnover_log DebtToEquity_log NetProfitMargin_log OperatingMargin_log EarningsPerShareDilutedTTM_log SalesPerShareTTM_log PE_Ratio PB_Ratio PS_Ratio MarketCapLog CostsAndExpenses_log Returns lag_5 ma_5 std_5 skew_5 kurt_5 total_return_5 min_5 max_5 first_return_5 last_return_5 lag_25 ma_25 std_25 skew_25 kurt_25 total_return_25 min_25 max_25 first_return_25 last_return_25 lag_90 ma_90 std_90 skew_90 kurt_90 total_return_90 min_90 max_90 first_return_90 last_return_90 lag_180 ma_180 std_180 skew_180 kurt_180 total_return_180 min_180 max_180 first_return_180 last_return_180 lag_252 ma_252 std_252 skew_252 kurt_252 total_return_252 min_252 max_252 first_return_252 last_return_252 lag_504 ma_504 std_504 skew_504 kurt_504 total_return_504 min_504 max_504 first_return_504 last_return_504
feature_infos=[1262312000:1278608000] [0.065554393660563953:0.087413985779255063] [0.044572807704284054:0.063035152116255697] none [0.38674981886356846:0.47072614530996393] none none [0.024521908551756535:0.18860167658042745] [0.045651182949618077:0.14967190576564432] [0.021734095273144318:0.18769833415224102] [0.03284836344385255:0.26642344356195125] none [-0.047548953946229516:0.10732884912762299] [-0.072243695586454076:0.15839217828719368] none [-0.0050557430033016755:0.0036144845664179918] [-0.036132269754537712:0.10809779268037496] [-0.065125026831757707:0.13015307290351652] [-0.085594753854478511:0.14156975709520853] [-0.031076526751236129:0.10900113510856133] none none [-0.11383963605614285:0.071533056182291374] none none [-0.3795732040520316:0.15183123682174518] none [13.145542894471433:39.768675224765666] [6.959234642467611:10.971544145475837] none [-0.17104675076951664:0.17964213154080225] none [-0.19104803589320468:0.63737093363667818] [-0.19104803589320468:0.63737093363667818] [-0.18162658712160246:0.62279735924073676] [0.0031342476505407794:0.10570464614678569] [-2.2049449099513772:2.0632589277200726] [-3.3133371676529872:4.8941801205338651] [-0.90813293560801234:3.113986796203684] [-0.19104803589320468:0.6090228247066114] [-0.16111112519542681:0.63737093363667818] [-0.19104803589320468:0.63737093363667818] [-0.19104803589320468:0.63737093363667818] [-0.19104803589320468:0.63737093363667818] [-0.12823573804197244:0.53026940215904861] [0.022254768422005772:0.12167361991973616] [-2.0265579906863374:1.3513673600565739] [-1.8406478988288797:5.0264947994233866] [-3.2058934510493113:13.256735053976215] [-0.19104803589320468:0.45223877621018577] [-0.025178446360632063:0.63737093363667818] [-0.19104803589320468:0.63737093363667818] [-0.19104803589320468:0.63737093363667818] [-0.19104803589320468:0.66411193883662167] [-0.0092849779782892446:0.49402869718475528] [0.074673276796201574:0.21069262194675548] [-0.88019855578198425:1.0294893742649085] [-1.5462407301814609:0.71085083198062038] [-0.83564801804603195:44.462582746627973] [-0.19104803589320468:0.30664816265425143] [0.13548182092084871:0.63737093363667818] [-0.19104803589320468:0.62590652491219645] [-0.19104803589320468:0.63737093363667818] [-0.19104803589320468:0.72190063038357466] [0.090598950868046937:0.5432229519196029] [0.091428324934356167:0.21745873597501358] [-1.1522780528964791:0.53846451206873081] [-1.2278025506147601:0.97626461463953429] [16.307811156248448:97.780131345528517] [-0.19104803589320468:0.22789968980202982] [0.33971177746806652:0.72190063038357466] [-0.19104803589320468:0.72190063038357466] [-0.19104803589320468:0.63737093363667818] [-0.08307724058574277:0.72190063038357466] [0.12302966135273294:0.52530515285002199] [0.089600586555099185:0.22376140316579343] [-1.4432200302266502:0.47399691003588007] [-1.2518581656480312:1.9612854949461154] [31.003474660888699:132.37689851820554] [-0.19104803589320468:0.22789968980202982] [0.34390146149772216:0.72190063038357466] [-0.08307724058574277:0.72190063038357466] [-0.19104803589320468:0.63737093363667818] [-0.28944675797106129:0.71059317363842245] [0.30187444528296709:0.40323267101144467] [0.16307979176515514:0.2632708940318903] [-1.0118872237432104:-0.21515504789016415] [-1.0653522372811979:0.50031380547681237] [152.14472042261542:203.22926618976811] [-0.28944675797106129:-0.0080684262746153687] none [-0.28944675797106129:0.71059317363842245] [-0.19104803589320468:0.63737093363667818]
tree_sizes=1130 1110 1200 1195 1113 1295 1291 1200 1204 1286 1206 1113 1295 1200 1297 1383 1387 1301 1382 1385 1121 1116 1211 1207 1124 1122 1126 1115 1122 1213 1209 1207 1124 1209 1122 1220 1308 1304 1219 1310 1221 1409 1316 1405 1408 1229 1404 1322 1316 1226 1224 1140 1318 1228 1236 1328 1230 1325 1331 1324 1334 1147 1232 1229 1236 1321 1317 1319 1324 1324 1150 1334 1336 1233 1156 1337 1332 1329 1330 1227 1239 1237 1423 1241 1246 1332 1331 1323 1332 1242 1329 1148 1328 1432 1060 1328 1329 1238 1234 1419 1333 1515 1424 1332 1435 1153 1241 1151 1150 1156 1341 1427 1340 1338 1245 1247 1335 1245 1338 1335 1246 1343 1249 1250 1248 1239 1426 1333 1335 1422 1240 1337 1246 1148 1243 1243 1249 1337 1343 1343 1433 1351 1352 1261 1243 1326 1425 1430 1438 1248 1345 1344 1252 1431 1345 1253 1243 1339 1255 1255 1163 1254 1342 1259 1250 1345 1432 1349 1348 1252 1439 1342 1245 1158 1443 1426 1448 1349 1439 1263 1340 1250 1256 1432 1348 1436 1445 1437 1345 1346 1257 1256 1249 1260 1262 1254 1251 1428 1254 1256 1253 1259 1254 1347 1347 1446 1341 1350 1351 1349 1346 1435 1341 1526 1341 1256 1254 1261 1343 1348 1158 1253 1346 1246 1441 1248 1344 1347 1263 1451 1350 1253 1258 1253 1254 1254 1434 1256 1250 1342 1438 1438 1439 1441 1345 1261 1348 1353 1167 1258 1355 1168 1349 1354 1258 1338 1347 1348 1352 1345 1342 1436 1252 1437 1444 1529 1257 1347 1256 1354 1257 1260 1343 1155 1254 1354 1347 1258 1258 1260 1346 1348 1348 1351 1352 1346 1440 1260 1252 1261 1251 1250 1349 1262 1435 1263 1253 1347 1170 1256 1252 1256 1255 1438 1336 1255 1259 1353 1352 1353 1347 1337 1250 1437 1350 1256 1255 1259 1260 1167 1166 1162 1352 1337 1158 1158 1252 1259 1343 1248 1262 1266 1357 1257 1255 1352 1359 1261 1264 1445 1435 1345 1264 1439 1253 1353 1255 1355 1349 1435 1163 1252 1262 1346 1173 1165 1350 1253 1166 1347 1256 1348 1346 1255 1254 1165 1434 1438 1258 1350 1348 1439 1342 1247 1250 1346 1261 1349 1245 1344 1351 1261 1257 1440 1435 1164 1351 1256 1259 1254 1253 1349 1261 1262 1163 1350 1445 1258 1445 1352 1359 1441 1350 1343 1359 1355 1347 1348 1262 1258 1335 1428 1342 1441 1343 1431 1164 1354 1349 1339 1342 1254 1439 1345 1441 1340 1258 1451 1353 1351 1438 1253 1442 1348 1433 1257 1164 1351 1348 1256 1255 1349 1442 1349 1352 1349 1429 1246 1349 1434 1248 1253 1350 1346 1348 1165 1353 1244 1256 1262 1347 1260 1259 1167 1251 1352 1347 1347 1440 1346 1352 1435 1252 1341 1342 1256 1256 1258 1343 1258 1249 1335 1348 1256 1249 1165 1344 1252 1347 1247 1355 1267 1358 1263 1262 1165 1355 1352 1256 1348 1345 1352 1254 1443 1351 1344 1256 1248 1347 1353 1250 1149 1351 1244 1350 1345 1255 1346 1347 1349 1343 1348 1438 1253 1351 1169 1253 1162 1346 1343 1163 1158 1349 1340 1354 1346 1344 1263 1349 1442 1443 1349 1348 1353 1436 1446 1354 1353 1354 1348 1252 1253 1256 1357 1349 1435 1342 1440 1438 1337 1256 1256 1257 1351 1258 1259 1432 1259 1427 1252 1261 1249 1258 1259 1340 1159 1251 1338 1256 1442 1437 1441 1442 1350 1437 1343 1259 1259 1432 1345 1349 1353 1255 1341 1163 1168 1345 1253 1252 1252 1253 1442 1258 1359 1342 1353 1356 1350 1266 1263 1345 1259 1341 1256 1350 1254 1345 1248 1255 1255 1346 1359 1259 1171 1252 1263 1257 1265 1347 1254 1344 1345 1350 1347 1445 1258 1351 1262 1255 1440 1253 1167 1438 1359 1345 1444 1260 1255 1257 1340 1351 1358 1259 1251 1266 1253 1349 1352 1246 1263 1254 1262 1351 1352 1256 1248 1251 1344 1254 1350 1342 1250 1257 1344 1164 1255 1263 1346 1349 1170 1346 1339 1256 1249 1345 1437 1342 1436 1348 1255 1256 1349 1253 1346 1346 1265 1261 1169 1255 1354 1245 1348 1254 1350 1348 1262 1261 1256 1352 1259 1251 1261 1252 1250 1341 1254 1432 1353 1346 1527 1250 1343 1346 1349 1256 1162 1260 1163 1351 1253 1257 1349 1345 1354 1352 1161 1263 1266 1439 1261 1337 1263 1345 1432 1347 1253 1249 1164 1251 1255 1343 1256 1346 1256 1168 1256 1353 1356 1256 1347 1349 1250 1439 1433 1439 1257 1357 1262 1349 1445 1259 1261 1350 1350 1258 1163 1345 1245 1253 1348 1163 1253 1359 1350 1260 1351 1356 1260 1448 1262 1350 1264 1449 1443 1350 1256 1259 1352 1162 1348 1248 1165 1262 1264 1259 1441 1344 1258 1255 1444 1256 1265 1261 1353 1271 1354 1252 1257 1158 1255 1267 1166 1269 1267 1262 1437 1161 1246 1159 1255 1440 1435 1262 1245 1253 1442 1531 1355 1257 1338 1264 1345 1355 1265 1260 1352 1249 1260 1258 1259 1351 1249 1342 1256 1351 1341 1437 1250 1441 1253 1348 1261 1159 1353 1345 1346 1258 1257 1343 1262 1255 1342 1344 1340 1256 1347 1259 1164 1346 1257 1161 1257 1257 1257 1263 1351 1342 1256 1350 1446 1349 1257 1358 1345 1347 1252 1255 1252 1153 1258 1347 1344 1256 1255 1352 1448 1353 1253 1355 1356 1445 1350 1358 1260 1348 1353 1444 1346 1354 1350 1439 1438 1347 1348 1536 1353 1445 1357 1253 1252 1258 1255 1165 1350 1339 1344 1351 1347 1344 1252 1260 1255 1259 1441 1352 1164 1250 1356 1256 1256 1343 1352 1434 1440 1252 1447 1348 1344 1356 1348 1257 1441 1354 1351 1355 1347 1347 1351 1344 1350 1258 1443 1353 1354 1353 1259 1348 1349 1353 1452 1428 1438 1249 1344 1346 1353 1353 1439 1263 1355 1262 1350 1259 1259 1263 1253 1345 1258 1259 1250 1264 1351 1343 1356 1342 1351 1258 1347 1442 1262 1351 1357 1354 1346 1354 1346 1446 1355 1350 1259 1439 1352 1355 1254 1252 1261 1256 1259 1265 1256 1352 1256 1260 1259 1349 1446 1443 1260 1358 1536 1170 1256 1356 1261 1445 1346 1350 1345 1260 1260 1360 1265 1268 1259 1266 1353 1254 1256 1353 1358 1161 1252 1347 1439 1344 1351 1437 1352 1350 1347 1355 1348 1255 1447 1445 1252 1170 1255 1251 1267 1446 1352 1350 1442 1352 1353 1262 1349 1261 1439 1351 1260 1438 1251 1259 1251 1261 1257 1258 1253 1354 1257 1264 1171 1261 1348 1450 1353 1345 1442 1349 1170 1349 1263 1268 1262 1257 1261 1442 1255 1446 1353 1534 1260 1443 1443 1351 1351 1439 1350 1354 1256 1353 1359 1354 1442 1447 1440 1449 1440 1436 1533 1437 1436 1350 1252 1259 1161 1257 1250 1258 1438 1344 1343 1355 1261 1351 1250 1250 1255 1443 1350 1364 1339 1353 1258 1441 1265 1351 1345 1256 1447 1261 1347 1446 1261 1449 1356 1355 1444 1350 1435 1353 1257 1443 1442 1258 1167 1349 1338 1344 1256 1252 1162 1259 1434 1349 1252 1349 1253 1161 1256 1350 1255 1352 1256 1261 1177 1164 1438 1256 1441 1442 1251 1257 1342 1349 1537 1441 1267 1356 1443 1359 1359 1352 1357 1250 1348 1344 1354 1437 1351 1265 1440 1348 1259 1441 1445 1433 1354 1359 1358 1445 1266 1359 1260 1169 1256 1262 1256 1358 1350 1343 1354 1351 1261 1353 1257 1352 1350 1257 1254 1253 1254 1259

Tree=0
num_leaves=12
num_cat=0
split_feature=79 28 32 44 53 44 43 66 75 57 53
split_gain=3.39927 0.638185 0.291356 0.257559 0.23444 0.130761 0.129915 0.0757559 0.0720987 0.0487602 0.0189506
threshold=-0.13349739940861191 9.1562624730399964 0.15981100217108088 0.39827496352785158 0.45978870286956253 0.25570808374354487 0.48114907041767768 -0.29281849889516681 0.21587094504531076 -1.4698012016817688 0.21534086129420235
decision_type=2 2 2 2 2 2 2 2 2 2 2
left_child=1 5 9 7 -4 8 -5 -3 -1 -2 -11
right_child=2 3 4 6 -6 -7 -8 -9 -10 10 -12
leaf_value=0.59352142358322468 0.58801861433456792 0.58750932434177761 0.58478539885469816 0.59538812078744541 0.57888599356206016 0.59882650217490996 0.59160319402863792 0.59079867728315993 0.59701400722671694 0.58451063918202995 0.58630510932717927
leaf_weight=22 20 20 25 34 24 32 32 35 21 20 23
leaf_count=22 20 20 25 34 24 32 32 35 21 20 23
internal_value=0.590287 0.593673 0.584362 0.591757 0.581896 0.596763 0.593553 0.589603 0.595227 0.586279 0.58547
internal_weight=308 196 112 121 49 75 66 55 43 63 43
internal_count=308 196 112 121 49 75 66 55 43 63 43
is_linear=0
shrinkage=1


Tree=1
num_leaves=11
num_cat=0
split_feature=79 27 32 53 78 27 57 81 46 28
split_gain=3.11559 0.692435 0.267041 0.214875 0.204431 0.180485 0.0707958 0.0458599 0.0451475 0.0134386
threshold=-0.13349739940861191 31.507266211917781 0.15981100217108088 0.45978870286956253 37.460556807911097 35.428705330884078 -0.61336786837445845 0.20574282346178677 -0.0088791762199883651 9.2758658601080715
decision_type=2 2 2 2 2 2 2 2 2 2
left_child=1 7 8 -4 -3 6 9 -1 -2 -6
right_child=2 4 3 -5 5 -7 -8 -9 -10 -11
leaf_value=0.0087425958843062555 -0.0025677301417082426 -0.0013680030583989847 -0.0050521254455138248 -0.010700007116171684 0.0034773438529962482 -9.2141214040840957e-05 0.0052534996584516543 0.0063217145940800386 -0.0048576398771913972 0.0019945937795012424
leaf_weight=25 34 29 25 24 20 31 33 33 29 25
leaf_count=25 34 29 25 24 20 31 33 33 29 25
internal_value=0.000214781 0.00345628 -0.00545784 -0.00781843 0.0018134 0.00265982 0.00375355 0.0073652 -0.00362182 0.00265359
internal_weight=308 196 112 49 138 109 78 58 63 45
internal_count=308 196 112 49 138 109 78 58 63 45
is_linear=0
shrinkage=0.0426353


Tree=2
num_leaves=12
num_cat=0
split_feature=79 28 32 44 53 44 51 56 76 57 47
split_gain=2.85558 0.536254 0.244756 0.220596 0.196943 0.111226 0.0770161 0.0627429 0.0602309 0.0441147 0.0182537
threshold=-0.13349739940861191 9.1562624730399964 0.15981100217108088 0.39827496352785158 0.45978870286956253 0.25570808374354487 0.4615463427990209 -0.036700556990163301 -0.045719848436648065 -1.4698012016817688 -1.2440649778069541
decision_type=2 2 2 2 2 2 2 2 2 2 2
left_child=1 5 9 8 -4 7 -5 -1 -3 -2 -11
right_child=2 3 4 6 -6 -7 -8 -9 -10 10 -12
leaf_value=0.0031339822592231464 -0.0018131121737140011 -0.0020445474343649215 -0.0048367261559668622 0.0047162336874532708 -0.010243808508526816 0.0080448142365337379 0.001802042365761337 0.0063920898440790125 0.00080040039345834278 -0.0051788521831407242 -0.0034176869696413621
leaf_weight=22 20 24 25 32 24 32 34 21 31 20 23
leaf_count=22 20 24 25 32 24 32 34 21 31 20 23
internal_value=0.000205624 0.00330892 -0.00522514 0.00155316 -0.00748509 0.00614154 0.00321498 0.00472515 -0.000441031 -0.0034674 -0.00423683
internal_weight=308 196 112 121 49 75 66 43 55 63 43
internal_count=308 196 112 121 49 75 66 43 55 63 43
is_linear=0
shrinkage=0.0426353


Tree=3
num_leaves=12
num_cat=0
split_feature=79 27 52 80 53 27 57 57 81 47 52
split_gain=2.61728 0.585527 0.22433 0.18517 0.181555 0.145033 0.0610492 0.0404332 0.0393037 0.0167303 0.0119929
threshold=-0.13349739940861191 31.507266211917781 0.15981100217108088 0.61514255002343377 0.47137820804174196 35.428705330884078 -0.61336786837445845 -1.4698012016817688 0.20574282346178677 -1.2440649778069541 0.33418483056326315
decision_type=2 2 2 2 2 2 2 2 2 2 2
left_child=1 8 7 -3 -4 6 10 -2 -1 -9 -5
right_child=2 3 4 5 -6 -7 -8 9 -10 -11 -12
leaf_value=0.0080375053777051227 -0.0017358094500313347 -0.0011287177330571495 -0.00482332778006283 0.0030945479921785221 -0.010041016590299467 -0.00016059315705747767 0.0048577900258979494 -0.0049580500729482762 0.0057963411374202922 -0.0032719726977943142 0.0016993940568076889
leaf_weight=25 20 33 27 24 22 27 33 20 33 23 21
leaf_count=25 20 33 27 24 22 27 33 20 33 23 21
internal_value=0.000196857 0.00316784 -0.00500236 0.0016571 -0.00716596 0.00253264 0.00346492 -0.00331956 0.00676236 -0.00405619 0.00244348
internal_weight=308 196 112 138 49 105 78 63 58 43 45
internal_count=308 196 112 138 49 105 78 63 58 43 45
is_linear=0
shrinkage=0.0426353


Tree=4
num_leaves=11
num_cat=0
split_feature=79 27 42 80 53 27 57 46 81 28
split_gain=2.39886 0.536663 0.205609 0.169717 0.166567 0.133602 0.0742094 0.0403918 0.0360237 0.0108286
threshold=-0.13349739940861191 31.507266211917781 0.15981100217108088 0.61514255002343377 0.45978870286956253 34.994885284834986 -0.61336786837445845 -0.0088791762199883651 0.20574282346178677 9.2758658601080715
decision_type=2 2 2 2 2 2 2 2 2 2
left_child=1 8 7 -3 -4 6 9 -2 -1 -5
right_child=2 3 4 5 -6 -7 -8 -9 -10 -11
leaf_value=0.0076948234711376158 -0.0021810098744369111 -0.0010805944516055783 -0.0044248663893709742 0.0030950562900986752 -0.0093974962966039896 0.00017824129944921739 0.0051701266898981505 -0.0043469582271166872 0.0055492121079365672 0.0017517889614991557
leaf_weight=25 34 33 25 20 24 33 28 29 33 24
leaf_count=25 34 33 25 20 24 33 28 29 33 24
internal_value=0.000188464 0.00303278 -0.00478909 0.00158645 -0.00686044 0.00242466 0.00345427 -0.00317803 0.00647404 0.00236237
internal_weight=308 196 112 138 49 105 72 63 58 44
internal_count=308 196 112 138 49 105 72 63 58 44
is_linear=0
shrinkage=0.0426353


Tree=5
num_leaves=13
num_cat=0
split_feature=79 27 42 53 67 46 61 27 57 30 81 56
split_gain=2.14727 0.485402 0.313258 0.150932 0.136469 0.0777887 0.065342 0.0583279 0.0497412 0.0237007 0.0228604 0.021168
threshold=-0.13349739940861191 32.416901747272604 0.15981100217108088 0.47137820804174196 -0.86098363645343057 -0.23407318766646085 0.072670492092165265 34.550393244699713 -0.93445568300679549 0.0032720230359425699 0.20574282346178677 -0.11466557646558741
decision_type=2 2 2 2 2 2 2 2 2 2 2 2
left_child=1 8 5 -4 6 -2 -3 11 -1 -7 -10 -6
right_child=2 4 3 -5 7 9 -8 -9 10 -11 -12 -13
leaf_value=0.0040102713022176295 -0.00045612755448245818 -0.0022166951209451218 -0.0044859763690803913 -0.0091108446372337188 0.0040480769835676859 -0.0027604243462478091 0.00083607819814088204 0.00042361379053439721 0.0072634793355706682 -0.0046075337832533194 0.0053178320218986129 0.0022831594457744281
leaf_weight=27 20 25 23 29 21 28 26 23 23 23 21 30
leaf_count=27 20 25 23 29 21 28 26 23 23 23 21 30
internal_value=-0.000135422 0.00263561 -0.00455105 -0.00706523 0.00103655 -0.00270969 -0.000660379 0.00220605 0.00545087 -0.00359343 0.00633487 0.00300989
internal_weight=319 196 123 52 125 71 51 74 71 51 44 51
internal_count=319 196 123 52 125 71 51 74 71 51 44 51
is_linear=0
shrinkage=0.0426353


Tree=6
num_leaves=13
num_cat=0
split_feature=80 32 77 87 53 75 46 40 91 30 74 75
split_gain=1.92765 0.308596 0.195971 0.245537 0.143897 0.139635 0.0890197 0.0488843 0.0343152 0.0204208 0.0179107 0.0093031
threshold=0.71036676311662694 0.12480750997049478 -0.97241872847822297 -1.0424211062844448 0.45978870286956253 0.18775960820074583 -0.26558493201881611 0.49139414181112934 0.46638224944990797 0.0032720230359425699 0.23208427980676574 0.19685769806393333
decision_type=2 2 2 2 2 2 2 2 2 2 2 2
left_child=2 6 10 8 -3 -5 -2 11 -4 -8 -1 -7
right_child=1 4 3 5 -6 7 9 -9 -10 -11 -12 -13
leaf_value=0.0060615385210998889 9.4820680998535073e-05 -0.0041794181729701311 0.0055932197293869206 -0.0019299622375451915 -0.0084496231235556742 0.001757877115939087 -0.0025364499760102016 1.1689165266797895e-05 0.0033301948657624221 -0.004333907198040418 0.0042787748306499854 0.0029097700972687932
leaf_weight=20 20 26 21 28 32 25 27 24 29 20 21 26
leaf_count=20 20 26 21 28 32 25 27 24 29 20 21 26
internal_value=-0.000129648 -0.00425855 0.00253073 0.00182925 -0.00653539 0.000639248 -0.00228755 0.00159842 0.00428067 -0.00330133 0.00514842 0.00234512
internal_weight=319 125 194 153 58 103 67 75 50 47 41 51
internal_count=319 125 194 153 58 103 67 75 50 47 41 51
is_linear=0
shrinkage=0.0426353


Tree=7
num_leaves=12
num_cat=0
split_feature=79 28 42 81 53 66 73 46 42 81 30
split_gain=1.80488 0.367696 0.263264 0.147374 0.128144 0.100002 0.0686607 0.0654732 0.054151 0.0209209 0.0200188
threshold=-0.13349739940861191 9.1562624730399964 0.15981100217108088 0.28932879009086365 0.47137820804174196 -0.27819891058119994 0.50643374589842283 -0.23407318766646085 0.48428764184874629 0.20574282346178677 0.0032720230359425699
decision_type=2 2 2 2 2 2 2 2 2 2 2
left_child=1 6 7 8 -4 -5 9 -2 -3 -1 -9
right_child=2 3 4 5 -6 -7 -8 10 -10 -11 -12
leaf_value=0.006900730674799886 -0.00041689909825446276 0.0011316486497982836 -0.0041006928686110715 -0.0028687931562088472 -0.0083621479536917197 0.00081484667813865356 0.0029232052634130326 -0.002529586778774265 0.0035071981137766114 0.0050813972805022617 -0.004227171479649133
leaf_weight=20 20 33 23 21 29 37 21 28 37 27 23
leaf_count=20 20 33 23 21 29 37 21 28 37 27 23
internal_value=-0.000124121 0.0024164 -0.00417244 0.00107043 -0.00647727 -0.000518885 0.00494999 -0.00248439 0.0023873 0.00585558 -0.00329516
internal_weight=319 196 123 128 52 58 68 71 70 47 51
internal_count=319 196 123 128 52 58 68 71 70 47 51
is_linear=0
shrinkage=0.0426353


Tree=8
num_leaves=12
num_cat=0
split_feature=79 27 32 53 67 46 53 46 28 32 40
split_gain=1.65426 0.383462 0.24182 0.121502 0.109349 0.0568057 0.0521392 0.0497744 0.0432375 0.0203978 0.0175765
threshold=-0.13349739940861191 32.416901747272604 0.12480750997049478 0.45978870286956253 -0.86098363645343057 -0.22686536075325023 0.079704960128144361 0.26271327566935937 8.6412113051428019 0.45613993807295145 0.09354170283414534
decision_type=2 2 2 2 2 2 2 2 2 2 2
left_child=1 8 5 -4 6 -2 -3 9 -1 -6 -7
right_child=2 4 3 -5 7 10 -8 -9 -10 -11 -12
leaf_value=0.0057686643405742933 -0.00031818857700190623 -0.001963626684937967 -0.0038309233130193001 -0.0077547888511351254 0.0019788173946874541 -0.002187507580959962 0.00076334253900912821 0.00052169054220563228 0.0036540938681124974 0.0037812555084211761 -0.0038731536512181942
leaf_weight=39 20 26 26 32 25 22 25 28 32 21 23
leaf_count=39 20 26 26 32 25 22 25 28 32 21 23
internal_value=-0.000118829 0.00231338 -0.00399454 -0.00599581 0.000892107 -0.00220879 -0.000626877 0.00193897 0.00481562 0.00280167 -0.00304906
internal_weight=319 196 123 58 125 65 51 74 71 46 45
internal_count=319 196 123 58 125 65 51 74 71 46 45
is_linear=0
shrinkage=0.0426353


Tree=9
num_leaves=13
num_cat=0
split_feature=74 28 32 61 81 76 81 39 47 73 39 39
split_gain=1.49247 0.317126 0.153149 0.143686 0.141042 0.0787136 0.0668399 0.0531747 0.0477157 0.0271358 0.0182126 0.0163102
threshold=0.30364342289466412 9.1188182794226034 0.12480750997049478 0.45877948010272684 0.28932879009086365 -0.034801206916451367 0.51572963388482751 0.47219156133650259 -0.9505403969081182 0.52706100740440387 0.4360249260165982 0.2428513624431495
decision_type=2 2 2 2 2 2 2 2 2 2 2 2
left_child=1 6 8 -4 7 -6 11 10 -2 -7 -3 -1
right_child=2 4 3 -5 5 9 -8 -9 -10 -11 -12 -13
leaf_value=0.0045093889538868467 -0.0033051783001623162 0.0022013914484553675 -0.0032919356501436201 -0.0074670984511175957 -0.002692293986030539 0.0015884499332788665 0.00244485638284042 0.0038999074426311676 -0.00074790724001567814 -0.00055421401569233743 0.00050307957619775295 0.0060825957492338153
leaf_weight=23 36 24 29 31 21 21 21 23 21 22 22 25
leaf_count=23 36 24 29 31 21 21 21 23 21 22 22 25
internal_value=-0.000113763 0.00210569 -0.00394563 -0.0054491 0.000888914 -0.00055271 0.00445106 0.00222607 -0.00236303 0.000492203 0.00138916 0.00532877
internal_weight=319 202 117 60 133 64 69 69 57 43 46 48
internal_count=319 202 117 60 133 64 69 69 57 43 46 48
is_linear=0
shrinkage=0.0426353


Tree=10
num_leaves=12
num_cat=0
split_feature=79 27 42 66 77 46 73 55 27 27 65
split_gain=1.43311 0.262851 0.181181 0.102935 0.0745917 0.050599 0.0481532 0.0319898 0.0428364 0.029459 0.0120904
threshold=-0.13349739940861191 32.044552331557746 0.17388814785784168 -0.24180588604480913 -0.90424228217027369 -0.1368647933868628 0.047443467692433426 0.12465231928334337 35.536137670555895 29.78320058900086 0.1856284954842142
decision_type=2 2 2 2 2 2 2 2 2 2 2
left_child=1 9 5 -4 -3 -2 -6 8 -8 -1 -7
right_child=2 4 3 -5 6 10 7 -9 -10 -11 -12
leaf_value=0.0053939162020496135 -0.00046152508405055857 0.0031349501961301387 -0.0069473202435936486 -0.0030925928993825813 0.0024806883457696703 -0.0023125609929954966 0.0016446142127784877 -0.0012004279691012621 -0.00073776142247247061 0.0035479163881519046 -0.0037106086037863345
leaf_weight=33 21 27 34 20 20 23 34 23 23 30 22
leaf_count=33 21 27 34 20 20 23 34 23 23 30 22
internal_value=-4.04593e-05 0.00226333 -0.00368813 -0.00551964 0.00114642 -0.00218961 0.000609523 0.000141732 0.000683305 0.00451487 -0.00299605
internal_weight=310 190 120 54 127 66 100 80 57 63 45
internal_count=310 190 120 54 127 66 100 80 57 63 45
is_linear=0
shrinkage=0.0426353


Tree=11
num_leaves=11
num_cat=0
split_feature=79 27 32 60 77 67 65 27 27 57
split_gain=1.31351 0.240915 0.166061 0.0955236 0.0683668 0.0527287 0.0475619 0.0363831 0.0270006 0.0158241
threshold=-0.13349739940861191 32.044552331557746 0.17388814785784168 0.4773577461551608 -0.90424228217027369 -0.8386221645428058 0.18461034760222575 33.854912718531416 29.78320058900086 -1.055154381787003
decision_type=2 2 2 2 2 2 2 2 2 2
left_child=1 8 6 -4 -3 9 -2 -7 -1 -6
right_child=2 4 3 -5 5 7 -8 -9 -10 -11
leaf_value=0.0051639447108796461 -0.0010829849116701254 0.0030012905281811306 -0.0033529783250127415 -0.0069492543508480184 -0.0014066668482915579 0.0027062077322985022 -0.0033890503384262942 0.00051020341175786834 0.0033966497779631 0.00021714231746072511
leaf_weight=33 37 27 25 29 20 24 29 32 30 24
leaf_count=33 37 27 25 29 20 24 29 32 30 24
internal_value=-3.87344e-05 0.00216683 -0.00353088 -0.00528431 0.00109755 0.000583536 -0.00209626 0.00145135 0.00432238 -0.000520953
internal_weight=310 190 120 54 127 100 66 56 63 44
internal_count=310 190 120 54 127 100 66 56 63 44
is_linear=0
shrinkage=0.0426353


Tree=12
num_leaves=13
num_cat=0
split_feature=79 28 42 49 66 46 67 46 65 44 57 71
split_gain=1.2039 0.185095 0.152203 0.114994 0.0877764 0.0455331 0.0454996 0.0488878 0.0209435 0.0147736 0.0108989 0.0102262
threshold=-0.13349739940861191 8.6579895276470467 0.17388814785784168 0.3744786698032283 -0.24180588604480913 -0.1368647933868628 -0.83423680910682563 0.26271327566935937 0.14604402914310141 0.39289378748262438 -1.3639136838012618 0.26805530705962993
decision_type=2 2 2 2 2 2 2 2 2 2 2 2
left_child=1 11 5 6 -4 -2 8 9 -3 -8 -7 -1
right_child=2 3 4 -5 -6 10 7 -9 -10 -11 -12 -13
leaf_value=0.0053331039460356054 -0.00036758295187844063 0.00050540481615399908 -0.0063773833963933725 0.0036541419039693933 -0.002817783710967945 -0.0020625532801287695 0.0016321619918540581 -0.00012487396139995545 -0.0012241207551099116 0.0032332358985337813 -0.0033925548460751421 0.0039696946495696691
leaf_weight=20 21 35 34 32 20 21 22 21 20 20 24 20
leaf_count=20 21 35 34 32 20 21 22 21 20 20 24 20
internal_value=-3.70829e-05 0.00207445 -0.00338034 0.00138726 -0.00505901 -0.00200688 0.000772514 0.00155476 -0.000123514 0.00239458 -0.00277189 0.0046514
internal_weight=310 190 120 150 54 66 118 63 55 42 45 40
internal_count=310 190 120 150 54 66 118 63 55 42 45 40
is_linear=0
shrinkage=0.0426353


Tree=13
num_leaves=12
num_cat=0
split_feature=79 27 52 66 77 67 47 27 86 52 57
split_gain=1.10343 0.204355 0.139501 0.0814859 0.0588979 0.0447303 0.0438111 0.0328809 0.0249314 0.02163 0.0134118
threshold=-0.13349739940861191 32.044552331557746 0.17388814785784168 -0.31913599409674259 -0.90424228217027369 -0.8386221645428058 -1.1420161554644219 33.854912718531416 -0.26781094065022498 0.066810870008789811 -1.055154381787003
decision_type=2 2 2 2 2 2 2 2 2 2 2
left_child=1 8 6 -4 -3 10 -2 -7 9 -1 -6
right_child=2 4 3 -5 5 7 -8 -9 -10 -11 -12
leaf_value=0.004353439742862359 -0.0031620886623008738 0.0027681859360865128 -0.0063810682809557848 -0.0030595327464988074 -0.0013085885991294792 0.0025163231051011201 -0.0009488209688717109 0.00042868507544454394 0.0051291168613238581 0.00239430084106518 0.00018633626800810353
leaf_weight=20 29 27 29 25 20 24 37 32 22 21 24
leaf_count=20 29 27 29 25 20 24 37 32 22 21 24
internal_value=-3.55018e-05 0.001986 -0.00323622 -0.00484332 0.00100119 0.0005241 -0.00192132 0.00132339 0.00397126 0.00334998 -0.000493175
internal_weight=310 190 120 54 127 100 66 56 63 41 44
internal_count=310 190 120 54 127 100 66 56 63 41 44
is_linear=0
shrinkage=0.0426353


Tree=14
num_leaves=13
num_cat=0
split_feature=79 27 32 66 77 67 28 27 86 44 32 64
split_gain=1.01134 0.187301 0.12786 0.0748492 0.0539827 0.0411091 0.0347683 0.0341646 0.0228508 0.022117 0.0198249 0.0143033
threshold=-0.13349739940861191 32.044552331557746 0.17388814785784168 -0.24180588604480913 -0.90424228217027369 -0.83423680910682563 7.9141471733526716 33.854912718531416 -0.26781094065022498 0.050389926418597679 0.066810870008789811 0.11518334567705661
decision_type=2 2 2 2 2 2 2 2 2 2 2 2
left_child=1 8 6 -4 -3 11 -2 -7 10 -8 -1 -6
right_child=2 4 3 -5 5 7 9 -9 -10 -11 -12 -13
leaf_value=0.0041678293029968425 -0.0005862272254461646 0.0026501633489810017 -0.0058542482390708701 -0.0025672022899689449 0.00031696186645865931 0.0025929794817483526 -0.0015888362014790007 0.00041040794157554377 0.0049104352097418865 -0.0035699087804788384 0.0022922189666096534 -0.0011866637644718974
leaf_weight=20 25 27 34 20 23 22 20 32 22 21 21 23
leaf_count=20 25 27 34 20 23 22 20 32 22 21 21 23
internal_value=-3.39882e-05 0.00190133 -0.00309824 -0.00463682 0.000958503 0.000501755 -0.0018394 0.0012996 0.00380195 -0.00260353 0.00320715 -0.000434851
internal_weight=310 190 120 54 127 100 66 54 63 41 41 46
internal_count=310 190 120 54 127 100 66 54 63 41 41 46
is_linear=0
shrinkage=0.0426353


Tree=15
num_leaves=14
num_cat=0
split_feature=78 27 32 45 78 27 32 71 77 81 77 32 67
split_gain=0.920281 0.249195 0.112345 0.0948791 0.0826226 0.0933576 0.0409589 0.0311398 0.0254039 0.0208923 0.0106362 0.00874911 0.00689325
threshold=78.19459275879457 32.044552331557746 0.15981100217108088 0.044525087804189407 34.265923342208218 34.994885284834986 0.47547040372684868 0.50811555928086471 -0.72336913748419562 0.1945820079786216 -0.97241872847822297 0.066810870008789811 -0.82508312181522825
decision_type=2 2 2 2 2 2 2 2 2 2 2 2 2
left_child=1 9 7 -4 -3 6 12 -2 -7 -1 -11 -9 -6
right_child=2 4 3 -5 5 8 -8 11 -10 10 -12 -13 -14
leaf_value=0.0045785339629199288 -0.00049063885418771595 -0.0018473406283709944 -0.0021351589240525006 -0.0057601368780077333 0.00083078552634128426 -0.0013073115967959293 0.0037396412457982231 -0.00184031386774265 0.000583015688093098 0.0038015910072948045 0.0024277705968763236 -0.0030569622201825899 0.0018927327149471343
leaf_weight=30 22 21 21 35 20 24 20 21 28 20 21 22 25
leaf_count=30 22 21 21 35 20 24 20 21 28 20 21 22 25
internal_value=-4.20735e-05 0.00167107 -0.00300113 -0.00440077 0.000615085 0.00105706 0.00213426 -0.00179529 -0.000289443 0.00372354 0.00309793 -0.00246279 0.00142076
internal_weight=330 209 121 56 138 117 65 65 52 71 41 43 45
internal_count=330 209 121 56 138 117 65 65 52 71 41 43 45
is_linear=0
shrinkage=0.0426353


Tree=16
num_leaves=14
num_cat=0
split_feature=74 28 44 32 66 66 46 81 46 28 51 46 30
split_gain=0.843481 0.186107 0.121354 0.102969 0.0893536 0.0870574 0.0549552 0.044436 0.0343666 0.023125 0.0185288 0.0170631 0.00685813
threshold=0.31029600301108956 9.0862545340610552 0.40817520729873258 0.15981100217108088 -0.31913599409674259 -0.24180588604480913 -0.21886405889016899 0.1945820079786216 -0.23407318766646085 8.4329015351499272 0.48473091376645161 1.0000000180025095e-35 0.0032720230359425699
decision_type=2 2 2 2 2 2 2 2 2 2 2 2 2
left_child=1 7 4 8 -3 -5 10 -1 -2 -9 -4 -6 -10
right_child=3 2 6 5 11 -7 -8 9 12 -11 -12 -13 -14
leaf_value=0.0050487400554141771 -0.00024822070295629523 -0.0028736835060415773 0.0019684169929782215 -0.0055653717335850186 -0.00046461596318308422 -0.0021233318909271849 0.0036314424947725883 0.0035317059697064297 -0.0018575429546774866 0.0017476854664098438 0.0001331761647403273 0.0011099962203053584 -0.0029104833301666381
leaf_weight=20 20 21 20 34 22 22 24 28 23 25 20 29 22
leaf_count=20 20 21 20 34 22 22 24 28 23 25 20 29 22
internal_value=-4.02797e-05 0.00159982 0.000667702 -0.00287318 -0.000533042 -0.00421314 0.00201854 0.00333637 -0.00171875 0.00269019 0.0010508 0.000430752 -0.00237231
internal_weight=330 209 136 121 72 56 64 73 65 53 40 51 45
internal_count=330 209 136 121 72 56 64 73 65 53 40 51 45
is_linear=0
shrinkage=0.0426353


Tree=17
num_leaves=13
num_cat=0
split_feature=74 28 44 42 66 45 43 81 46 28 46 42
split_gain=0.77309 0.170576 0.111226 0.094376 0.0818968 0.0799634 0.0657978 0.0407277 0.0314986 0.0211952 0.0156391 0.00565929
threshold=0.31029600301108956 9.0862545340610552 0.40817520729873258 0.15981100217108088 -0.31913599409674259 0.044525087804189407 0.48114907041767768 0.1945820079786216 -0.23407318766646085 8.4329015351499272 1.0000000180025095e-35 0.066810870008789811
decision_type=2 2 2 2 2 2 2 2 2 2 2 2
left_child=1 7 4 8 -3 -5 -4 -1 -2 -9 -6 -10
right_child=3 2 6 5 10 -7 -8 9 11 -11 -12 -13
leaf_value=0.0048334852717017126 -0.00023763770396576422 -0.0027511630440050423 0.0033878167690909919 -0.0019535966812453029 -0.00044480690607711992 -0.0052814628271257115 0.00064835498579861068 0.0033811304438497165 -0.0017822953078911511 0.0016731722864884392 0.0010626711366145596 -0.0027387880735304602
leaf_weight=20 20 21 30 21 22 35 34 28 22 25 29 23
leaf_count=20 20 21 30 21 22 35 34 28 22 25 29 23
internal_value=-3.85624e-05 0.00153161 0.000639234 -0.00275068 -0.000510315 -0.00403351 0.00193248 0.00319412 -0.00164547 0.00257549 0.000412386 -0.00227117
internal_weight=330 209 136 121 72 56 64 73 65 53 51 45
internal_count=330 209 136 121 72 56 64 73 65 53 51 45
is_linear=0
shrinkage=0.0426353


Tree=18
num_leaves=14
num_cat=0
split_feature=74 27 32 66 74 27 32 44 77 81 35 74 67
split_gain=0.708573 0.193284 0.0865001 0.073412 0.0664038 0.0762841 0.0329835 0.028221 0.020848 0.0165975 0.00933963 0.00898314 0.0064465
threshold=0.31029600301108956 32.044552331557746 0.15981100217108088 -0.31913599409674259 0.13597588627860405 34.994885284834986 0.47547040372684868 0.14994934622736136 -0.72336913748419562 0.1945820079786216 0.022207881251568751 0.20769664012369968 -0.82508312181522825
decision_type=2 2 2 2 2 2 2 2 2 2 2 2 2
left_child=1 9 7 -4 -3 6 12 10 -7 -1 -2 -11 -6
right_child=2 4 3 -5 5 8 -8 -9 -10 11 -12 -13 -14
leaf_value=0.0040359852733388513 -0.00148083987855744 -0.0016712397919635244 -0.0053510484888437976 -0.0022617033671185503 0.000695451918776375 -0.0012067198274128925 0.003346897006475297 -0.00024274179332487819 0.00050573383972202604 0.0021004266307896513 -0.0027169465383968553 0.0033629841866583189 0.0017224104398847208
leaf_weight=30 20 21 29 27 20 24 20 20 28 21 25 20 25
leaf_count=30 20 21 29 27 20 24 20 20 28 21 25 20 25
internal_value=-3.69182e-05 0.00146631 -0.0026334 -0.00386154 0.000536308 0.000932534 0.00190627 -0.00157531 -0.000284629 0.00327392 -0.00216757 0.00271631 0.00126598
internal_weight=330 209 121 56 138 117 65 65 52 71 45 41 45
internal_count=330 209 121 56 138 117 65 65 52 71 45 41 45
is_linear=0
shrinkage=0.0426353


Tree=19
num_leaves=14
num_cat=0
split_feature=74 28 44 32 66 45 43 81 43 28 28 45 46
split_gain=0.649441 0.144854 0.0953724 0.0802112 0.0717077 0.0607091 0.051825 0.0349895 0.0216759 0.0184815 0.0179586 0.0175014 0.0132925
threshold=0.31029600301108956 9.0862545340610552 0.39827496352785158 0.10427579448699724 -0.31913599409674259 0.044525087804189407 0.49076891384574356 0.1945820079786216 0.24234985995101274 8.4329015351499272 9.6232951777498723 0.08554291233869589 1.0000000180025095e-35
decision_type=2 2 2 2 2 2 2 2 2 2 2 2 2
left_child=1 7 4 8 -3 -5 10 -1 -2 -9 -4 -7 -6
right_child=3 2 6 5 12 11 -8 9 -10 -11 -12 -13 -14
leaf_value=0.0044553322907067297 -0.0020097110473347737 -0.0026824664420095844 0.0036048249777238914 -0.001812628296750977 -0.00043095331427645851 -0.0035878808101580326 0.00028394264841308389 0.003114740116742184 -0.00028199818932896569 0.0015198607813179698 0.0017980430504329799 -0.0053305077774933041 0.00098086308356985221
leaf_weight=20 33 20 20 24 22 20 27 28 22 25 20 22 27
leaf_count=20 33 20 20 24 22 20 27 28 22 25 20 22 27
internal_value=-3.53442e-05 0.00140379 0.000581447 -0.00252113 -0.000531116 -0.00352321 0.00172722 0.00293583 -0.00131863 0.00236244 0.00270143 -0.00450069 0.000346986
internal_weight=330 209 136 121 69 66 67 73 55 53 40 42 49
internal_count=330 209 136 121 69 66 67 73 55 53 40 42 49
is_linear=0
shrinkage=0.0426353


Tree=20
num_leaves=11
num_cat=0
split_feature=71 81 32 28 32 57 51 71 44 51
split_gain=0.546695 0.126699 0.104464 0.0667375 0.0652158 0.0572013 0.0471251 0.0203143 0.0168404 0.00798125
threshold=0.48535532272437182 0.26805530705962993 0.21242020491456939 9.6102007735772972 0.031500133827918532 -1.055154381787003 0.32156255146507917 0.036724457433501577 1.0000000180025095e-35 0.20613986898459929
decision_type=2 2 2 2 2 2 2 2 2 2
left_child=1 3 8 7 -2 9 -4 -1 -3 -6
right_child=4 2 6 -5 5 -7 -8 -9 -10 -11
leaf_value=0.0022509361043604641 -0.00084797228474583531 0.0022767682583474474 -0.0025688966729743605 0.00093652306575811052 -0.0027371635495602423 -0.0046491743974889279 0.00010523450008416158 0.0038820610641816175 0.0008221614555656802 -0.0016300574171399696
leaf_weight=23 30 23 25 38 29 30 23 35 39 20
leaf_count=23 30 23 25 38 29 30 23 35 39 20
internal_value=-9.852e-05 0.00119349 0.000205709 0.00232533 -0.00254031 -0.00318296 -0.00128754 0.00323524 0.00136177 -0.00228528
internal_weight=315 206 110 96 109 79 48 58 62 49
internal_count=315 206 110 96 109 79 48 58 62 49
is_linear=0
shrinkage=0.0426353


Tree=21
num_leaves=11
num_cat=0
split_feature=71 27 81 76 32 57 81 27 27 43
split_gain=0.501072 0.120605 0.0669641 0.0832151 0.0597733 0.0524276 0.0407033 0.0266388 0.0172263 0.00731519
threshold=0.48535532272437182 32.416901747272604 0.28932879009086365 -0.040312306838021443 0.031500133827918532 -1.055154381787003 0.1945820079786216 34.330441248457269 29.78320058900086 0.1990903941753899
decision_type=2 2 2 2 2 2 2 2 2 2
left_child=1 6 7 -4 -2 9 -1 -3 -8 -6
right_child=4 2 3 -5 5 -7 8 -9 -10 -11
leaf_value=0.0034655561293958173 -0.00081181869555732957 0.0023559019299706236 -0.0026789878915323933 0.00052779263909133553 -0.0026204636407370255 -0.0044509551556873436 0.0023183608705677613 0.00048534825276625609 0.00077859436531684282 -0.0015605593641012199
leaf_weight=35 30 25 24 38 29 30 28 31 25 20
leaf_count=35 30 25 24 38 29 30 28 31 25 20
internal_value=-9.43196e-05 0.00114261 0.000251727 -0.000713542 -0.002432 -0.00304726 0.0023372 0.00132042 0.00159206 -0.00218785
internal_weight=315 206 118 62 109 79 88 56 53 49
internal_count=315 206 118 62 109 79 88 56 53 49
is_linear=0
shrinkage=0.0426353


Tree=22
num_leaves=12
num_cat=0
split_feature=79 27 32 53 53 27 47 56 57 57 73
split_gain=0.459453 0.111375 0.0670733 0.0524593 0.0457566 0.0407888 0.0325433 0.0272941 0.0256766 0.0229891 0.0229474
threshold=-0.13349739940861191 32.416901747272604 0.10427579448699724 0.036724457433501577 0.48922447138837222 34.330441248457269 -0.9505403969081182 -0.13466463043429516 -0.93445568300679549 -0.92209384097082048 0.21387408370480607
decision_type=2 2 2 2 2 2 2 2 2 2 2
left_child=1 8 6 -3 -4 9 -2 -7 -1 -5 -10
right_child=2 3 4 5 -6 7 -8 -9 10 -11 -12
leaf_value=0.0013557843404555627 -0.0019068777169737531 -0.0013101321242614077 -0.0021470140697463307 0.00077155358185306087 -0.0044681895458510675 -0.0012347509701265201 0.00015763174256107007 0.00089785271331430214 0.0039105815913596693 0.0026578510258574964 0.0021014725924360794
leaf_weight=25 35 26 38 23 26 20 23 24 26 24 25
leaf_count=25 35 26 38 23 26 20 23 24 26 24 25
internal_value=-9.02982e-05 0.0012043 -0.00213832 0.000378839 -0.00308999 0.000861402 -0.00108819 -7.15126e-05 0.00247509 0.00173477 0.00302376
internal_weight=315 193 122 117 64 91 58 44 76 47 51
internal_count=315 193 122 117 64 91 58 44 76 47 51
is_linear=0
shrinkage=0.0426353


Tree=23
num_leaves=12
num_cat=0
split_feature=71 81 52 28 52 56 57 63 56 43 47
split_gain=0.422533 0.100091 0.0863185 0.0523125 0.0508769 0.047048 0.0450421 0.0195844 0.0147255 0.006614 0.0040461
threshold=0.48535532272437182 0.26805530705962993 0.21242020491456939 9.6102007735772972 0.027175337268367562 -0.15370231472596999 -1.055154381787003 0.044258517230916693 -0.076180082182236694 0.1990903941753899 -0.74884396187112323
decision_type=2 2 2 2 2 2 2 2 2 2 2
left_child=1 3 8 7 -2 -4 9 -1 10 -6 -3
right_child=4 2 5 -5 6 -7 -8 -9 -10 -11 -12
leaf_value=0.001858798454976911 -0.00070321740796130191 0.00033001587314719118 -0.0023631141932584573 0.00082581385452021414 -0.0024044567042284747 0.00032761230632666945 -0.0040937524844128406 0.0034734417781635617 0.0021745079716050486 -0.0014035095255710956 0.0011679045049051812
leaf_weight=22 29 20 27 38 30 21 30 36 20 20 22
leaf_count=22 29 20 27 38 30 21 30 36 20 20 22
internal_value=-8.64483e-05 0.00104941 0.000171456 0.0020554 -0.00223312 -0.00118592 -0.00278771 0.00286099 0.00122233 -0.00200408 0.00076891
internal_weight=315 206 110 96 109 48 80 58 62 50 42
internal_count=315 206 110 96 109 48 80 58 62 50 42
is_linear=0
shrinkage=0.0426353


Tree=24
num_leaves=11
num_cat=0
split_feature=79 27 53 32 27 53 57 47 56 39
split_gain=0.387358 0.0931382 0.0580063 0.0566159 0.0415172 0.0389214 0.03349 0.0286483 0.0239869 0.0198486
threshold=-0.13349739940861191 32.044552331557746 0.036724457433501577 0.10427579448699724 34.330441248457269 0.48922447138837222 -0.59729545423181518 -0.9505403969081182 -0.11821523584790085 0.2428513624431495
decision_type=2 2 2 2 2 2 2 2 2 2
left_child=1 9 -3 7 6 -5 -4 -2 -6 -1
right_child=3 2 4 5 8 -7 -8 -9 -10 -11
leaf_value=0.0015363933788049985 -0.0017665796583645329 -0.0013169161850892174 0.00090744009467427984 -0.0019678922111815099 -0.00098482802064672487 -0.0041086884506216781 0.0030728926978553341 0.00017044393732576238 0.0010144020850437539 0.0030482757798763033
leaf_weight=27 35 27 37 38 24 26 20 23 20 38
leaf_count=27 35 27 37 38 24 26 20 23 20 38
internal_value=-8.27626e-05 0.00110594 0.000438504 -0.00196324 0.000907775 -0.00283759 0.00166725 -0.00099845 -7.60871e-05 0.00242026
internal_weight=315 193 128 122 101 64 57 58 44 65
internal_count=315 193 128 122 101 64 57 58 44 65
is_linear=0
shrinkage=0.0426353


Tree=25
num_leaves=11
num_cat=0
split_feature=71 27 53 57 44 76 55 27 47 71
split_gain=0.369438 0.0833648 0.0580341 0.0411519 0.0283185 0.0240052 0.0238313 0.0182279 0.0168823 0.00492116
threshold=0.46503697746769196 32.978389175782688 0.48922447138837222 -0.91389318677978248 0.39827496352785158 -0.045719848436648065 0.13345246671062058 30.710700684101713 -0.74633989251013644 0.56995098934079913
decision_type=2 2 2 2 2 2 2 2 2 2
left_child=1 3 6 7 5 -3 9 -1 -5 -2
right_child=2 4 -4 8 -6 -7 -8 -9 -10 -11
leaf_value=0.001995344445511818 -0.0013308662377976897 -0.0014902084716110222 -0.0032243666900296968 0.0019547262579717901 0.0011443687146564839 0.00035375747901622654 -0.00011767973625889384 0.00027534179882078656 0.0034506161156686865 -0.0022136727173550654
leaf_weight=21 24 21 39 24 39 33 25 24 32 22
leaf_count=21 24 21 39 24 39 33 25 24 32 22
internal_value=7.07885e-05 0.00118997 -0.00190304 0.00203806 0.000268925 -0.00036334 -0.00117723 0.00107801 0.00280952 -0.00175308
internal_weight=304 194 110 101 93 54 71 45 56 46
internal_count=304 194 110 101 93 54 71 45 56 46
is_linear=0
shrinkage=0.0426353


Tree=26
num_leaves=11
num_cat=0
split_feature=63 27 53 81 65 77 48 76 30 81
split_gain=0.332698 0.0717976 0.0554405 0.0432775 0.0262362 0.0261699 0.0260461 0.0218991 0.0143723 0.00407822
threshold=0.46686937036838211 32.978389175782688 0.48922447138837222 0.29363140241596836 0.16565158183161774 -0.73698730731657092 9.9568740881962903 -0.045719848436648065 0.00042329223192147267 0.55881725119534387
decision_type=2 2 2 2 2 2 2 2 2 2
left_child=1 3 4 8 -2 -5 7 -3 -1 -6
right_child=2 6 -4 5 9 -7 -8 -9 -10 -11
leaf_value=0.0034024099356363665 0.00014024813827061652 -0.0014266729328588198 -0.0031433974760692088 0.0018906292124019094 -0.0011925773117620803 -6.6456138199514429e-05 0.0010955781478652531 0.00033454673563066632 0.0019959673720261221 -0.0019839647553840695
leaf_weight=28 21 21 38 27 20 23 39 33 25 29
leaf_count=28 21 21 38 27 20 23 39 33 25 29
internal_value=6.77704e-05 0.00111476 -0.00183232 0.00189015 -0.00112059 0.00099037 0.000255994 -0.000350372 0.00273899 -0.00166095
internal_weight=304 196 108 103 70 50 93 54 53 49
internal_count=304 196 108 103 70 50 93 54 53 49
is_linear=0
shrinkage=0.0426353


Tree=27
num_leaves=11
num_cat=0
split_feature=63 27 73 53 75 65 56 74 27 45
split_gain=0.304933 0.0669576 0.061283 0.0508139 0.0380134 0.0240467 0.0199145 0.015176 0.0118074 0.00369181
threshold=0.46686937036838211 33.854912718531416 0.27464857941507032 0.48922447138837222 0.19370576316985641 0.16565158183161774 -0.12451627094104975 0.1848817739323306 31.303672876292143 0.040363518092905538
decision_type=2 2 2 2 2 2 2 2 2 2
left_child=1 2 7 5 -4 -2 -3 -1 -6 -7
right_child=3 6 4 -5 8 9 -8 -9 -10 -11
leaf_value=0.003383468505125276 0.000134268605937271 -0.00069535371837433724 -0.00077696913528294551 -0.0030093776855898125 0.0021619415801522059 -0.0011801552900606415 0.00075465421990035606 0.0020033315751305041 0.00083132810988049304 -0.0019241913317362828
leaf_weight=28 21 36 20 38 22 22 33 30 27 27
leaf_count=28 21 36 20 38 22 22 33 30 27 27
internal_value=6.4881e-05 0.00106723 0.00164808 -0.0017542 0.000789409 -0.00107281 -1.87166e-06 0.0026696 0.00142875 -0.00159013
internal_weight=304 196 127 108 69 70 69 58 49 49
internal_count=304 196 127 108 69 70 69 58 49 49
is_linear=0
shrinkage=0.0426353


Tree=28
num_leaves=11
num_cat=0
split_feature=71 27 73 53 56 65 56 74 27 71
split_gain=0.285891 0.0647568 0.0515308 0.0444301 0.0300671 0.0220522 0.0182525 0.0139095 0.00921457 0.00368599
threshold=0.46503697746769196 33.854912718531416 0.27464857941507032 0.48922447138837222 -0.2961136215441596 0.16565158183161774 -0.12451627094104975 0.1848817739323306 31.303672876292143 0.57932624269911248
decision_type=2 2 2 2 2 2 2 2 2 2
left_child=1 2 7 5 -4 -2 -3 -1 -6 -7
right_child=3 6 4 -5 8 9 -8 -9 -10 -11
leaf_value=0.0032392132071247053 0.00012024721234402934 -0.00066570705126667968 -0.00031422658155630964 -0.0028303731629456927 0.0021941468887001756 -0.0012272408699776328 0.00072247927310020634 0.0019179188545223142 0.0009154295832832889 -0.0019744743795534346
leaf_weight=28 21 36 26 39 20 30 33 30 21 20
leaf_count=28 21 36 26 39 20 30 33 30 21 20
internal_value=6.21148e-05 0.00104664 0.00162538 -0.00167424 0.000819956 -0.00103918 -1.79185e-06 0.00255579 0.00153919 -0.00152613
internal_weight=304 194 125 110 67 71 69 58 41 50
internal_count=304 194 125 110 67 71 69 58 41 50
is_linear=0
shrinkage=0.0426353


Tree=29
num_leaves=12
num_cat=0
split_feature=71 27 53 44 76 51 81 65 47 33 47
split_gain=0.262033 0.0595231 0.0407223 0.0406232 0.0316178 0.029865 0.0231255 0.0202119 0.0106663 0.00576393 0.00346652
threshold=0.46503697746769196 31.623763143838804 0.48922447138837222 0.39827496352785158 -0.045719848436648065 0.48986184649697839 0.20574282346178677 0.16565158183161774 -0.73257573392034414 0.17388814785784168 -1.0071135075433426
decision_type=2 2 2 2 2 2 2 2 2 2 2
left_child=1 6 7 4 -3 8 -1 -2 -5 -6 -9
right_child=2 3 -4 5 9 -7 -8 10 -10 -11 -12
leaf_value=0.0031278201805031956 0.00011512042953582543 -0.0014352772226516224 -0.0027096992512938363 0.0012806360024208087 0.00092973811754810227 4.8763084990946437e-05 0.0014373245242693183 -0.001816069861438274 0.0026730738144119569 -4.7233751114196183e-05 -0.0011060641548212636
leaf_weight=24 21 25 39 20 23 23 38 25 20 21 25
leaf_count=24 21 25 39 20 23 23 38 25 20 21 25
internal_value=5.94665e-05 0.00100202 -0.00160286 0.000490196 -0.000224491 0.00127295 0.00209171 -0.000994871 0.00197685 0.000463456 -0.00146107
internal_weight=304 194 110 132 69 63 62 71 40 44 50
internal_count=304 194 110 132 69 63 62 71 40 44 50
is_linear=0
shrinkage=0.0426353


Tree=30
num_leaves=12
num_cat=0
split_feature=79 27 45 78 32 71 40 27 67 67 32
split_gain=0.281333 0.0679637 0.0474255 0.0455984 0.0406129 0.0234834 0.0181113 0.0136744 0.0156765 0.0127457 0.0116342
threshold=-0.13349739940861191 29.78320058900086 0.08980594420046345 37.460556807911097 0.019464354504742206 0.29363140241596836 0.51897300652394074 35.536137670555895 -0.82707444724480805 -0.56298479407868574 0.1990903941753899
decision_type=2 2 2 2 2 2 2 2 2 2 2
left_child=1 5 4 -3 -2 -1 7 8 -5 10 -6
right_child=2 3 -4 6 9 -7 -8 -9 -10 -11 -12
leaf_value=0.00364266987123201 0.00042886852287444844 -0.00076094629951031214 -0.0032530857948980738 0.00035710984610186098 -0.00047461097721539512 0.0016013212973396505 0.0019154609001996695 -0.00026249403903275912 0.0016242893859524737 -0.002454803240943975 -0.0017743276831029911
leaf_weight=20 23 33 24 35 21 21 31 20 36 23 31
leaf_count=20 23 33 24 35 21 21 31 20 36 23 31
internal_value=5.29278e-05 0.00105343 -0.00155444 0.000645106 -0.00113844 0.0025971 0.00102543 0.000722235 0.000999623 -0.00161909 -0.00124944
internal_weight=318 196 122 155 98 41 122 91 71 75 52
internal_count=318 196 122 155 98 41 122 91 71 75 52
is_linear=0
shrinkage=0.0426353


Tree=31
num_leaves=12
num_cat=0
split_feature=71 28 50 86 67 32 45 86 65 55 0
split_gain=0.258815 0.054855 0.0457405 0.0404506 0.0412819 0.0317648 0.027878 0.0260309 0.0206329 0.0101227 0.00761559
threshold=0.45444476472403972 8.6963151713952929 0.27933918299080357 -0.2687319831790328 -0.89914052946937151 0.019464354504742206 0.087585124210605866 -0.29287777589090175 0.19788277509882377 0.10519525511683803 1268752000.0000002
decision_type=2 2 2 2 2 2 2 2 2 2 2
left_child=1 7 5 4 -3 -2 -4 -1 10 -6 -5
right_child=2 3 6 8 9 -7 -8 -9 -10 -11 -12
leaf_value=0.0014190374225026932 0.0002471939120393421 -0.0018074219482530345 -0.001677586033431814 0.0024824752305084652 0.0011092848310529473 -0.0017685607835298365 -0.0036040105659534607 0.0033193332421102982 0.00035170011849644024 -3.4347384945974526e-05 0.0013199865572892807
leaf_weight=38 30 20 36 20 24 27 22 20 26 34 21
leaf_count=38 30 20 36 20 24 27 22 20 26 34 21
internal_value=5.06712e-05 0.000966158 -0.00156536 0.000522897 -0.000137095 -0.000707637 -0.0024083 0.00207431 0.00129125 0.00043888 0.00188705
internal_weight=318 203 115 145 78 57 58 58 67 58 41
internal_count=318 203 115 145 78 57 58 58 67 58 41
is_linear=0
shrinkage=0.0426353


Tree=32
num_leaves=11
num_cat=0
split_feature=79 27 45 74 42 71 40 57 27 67
split_gain=0.237821 0.0576033 0.0400427 0.0390757 0.0343124 0.0204855 0.0155141 0.0144256 0.0120219 0.0150786
threshold=-0.13349739940861191 29.78320058900086 0.08980594420046345 0.14865300320599642 0.019464354504742206 0.29363140241596836 0.51897300652394074 -1.2949765073565083 34.905476294267963 -0.82707444724480805
decision_type=2 2 2 2 2 2 2 2 2 2
left_child=1 5 4 -3 -2 -1 8 -6 9 -5
right_child=2 3 -4 6 7 -7 -8 -9 -10 -11
leaf_value=0.0033660974065259155 0.00039352759288913109 -0.00070912809830386999 -0.002990179085888969 0.00031944697804441854 -0.00092078011107042895 0.0014594940470727719 0.0017682977544017688 -0.002104321438051521 -0.00020392303094646355 0.001580115812320983
leaf_weight=20 23 33 24 35 39 21 31 36 22 34
leaf_count=20 23 33 24 35 39 21 31 36 22 34
internal_value=4.85108e-05 0.000968396 -0.00142934 0.000592479 -0.00104709 0.00238954 0.000944553 -0.00148888 0.000663937 0.000940646
internal_weight=318 196 122 155 98 41 122 75 91 69
internal_count=318 196 122 155 98 41 122 75 91 69
is_linear=0
shrinkage=0.0426353


Tree=33
num_leaves=12
num_cat=0
split_feature=79 27 45 42 74 67 27 57 46 57 54
split_gain=0.217975 0.0528007 0.036701 0.0314489 0.0310042 0.0136125 0.0133493 0.0132217 0.0116281 0.0188761 0.00550578
threshold=-0.13349739940861191 32.044552331557746 0.08980594420046345 0.019464354504742206 0.14865300320599642 -0.82707444724480805 34.189066175396562 -1.2949765073565083 0.3812535350815644 -0.21174068136402471 0.38425908040505857
decision_type=2 2 2 2 2 2 2 2 2 2 2
left_child=1 8 3 -2 -3 10 -7 -5 9 -1 -6
right_child=2 4 -4 7 5 6 -8 -9 -10 -11 -12
leaf_value=0.00062131848882073664 0.00037674939705494297 -0.00075773931148237592 -0.0028626917545858093 -0.00088152233161689381 -0.0002385965896740319 0.0018787812137123949 0.0004365819130896446 -0.002014602982804278 0.0025517999871988765 0.0023137558008276072 0.00073881494629767777
leaf_weight=25 23 32 24 39 22 28 20 36 26 23 20
leaf_count=25 23 32 24 39 22 28 20 36 26 23 20
internal_value=4.64425e-05 0.000927108 -0.0013684 -0.00100245 0.000382107 0.000787385 0.00127786 -0.0014254 0.00182562 0.00143228 0.000226837
internal_weight=318 196 122 98 122 90 48 75 74 48 42
internal_count=318 196 122 98 122 90 48 75 74 48 42
is_linear=0
shrinkage=0.0426353


Tree=34
num_leaves=11
num_cat=0
split_feature=79 27 32 74 77 77 61 53 27 63
split_gain=0.199784 0.0496291 0.0331422 0.0324985 0.0269731 0.0147953 0.0154261 0.0142637 0.0109277 0.0108681
threshold=-0.13349739940861191 29.78320058900086 0.097343387768371092 0.14865300320599642 -1.2002189172940414 -0.51623566205734328 0.24775770338233608 0.48922447138837222 34.550393244699713 0.31093200839985913
decision_type=2 2 2 2 2 2 2 2 2 2
left_child=1 9 4 -3 -2 6 -5 -4 -8 -1
right_child=2 3 7 5 -6 -7 8 -9 -10 -11
leaf_value=0.0029179930085311803 -0.0018211319153774272 -0.0006483694539559156 -0.0014357303899558934 -0.00012945365395434399 0.00012224225643822349 0.0016819452195015864 0.0014388805344790077 -0.0027173807471302016 0.0002076463420008545 0.0015292752716923683
leaf_weight=20 20 33 38 34 37 30 38 27 20 21
leaf_count=20 20 33 38 34 37 30 38 27 20 21
internal_value=4.44624e-05 0.00088758 -0.00131005 0.000538652 -0.000559643 0.000859732 0.000591619 -0.00196811 0.00101432 0.0022067
internal_weight=318 196 122 155 57 122 92 65 58 41
internal_count=318 196 122 155 57 122 92 65 58 41
is_linear=0
shrinkage=0.0426353


Tree=35
num_leaves=12
num_cat=0
split_feature=79 27 57 32 81 87 46 77 46 77 40
split_gain=0.183553 0.0470923 0.0370729 0.0344126 0.0211862 0.0198546 0.0181542 0.0149203 0.0117844 0.0092373 0.00852573
threshold=-0.13349739940861191 33.854912718531416 -1.0660011911482548 0.15981100217108088 0.20574282346178677 0.33644416301631175 -0.22686536075325023 -0.80742574926005761 -0.43215294393663006 -0.51623566205734328 0.09354170283414534
decision_type=2 2 2 2 2 2 2 2 2 2 2
left_child=1 2 -1 6 -4 -5 -2 -6 -3 -10 -8
right_child=3 8 4 5 7 -7 10 -9 9 -11 -12
leaf_value=6.9348293406676668e-05 0.00041404696999577841 0.00078986995433046406 0.0024879923595795971 -0.0027834110240819235 0.0020395273160682412 -0.0011611752589743597 -0.00044268952910556618 0.00055778244445331242 -0.0010398367514612606 0.00010974523766721517 -0.0015627727461248883
leaf_weight=33 20 20 39 32 21 24 21 30 24 27 30
leaf_count=33 20 20 39 32 21 24 21 30 24 27 30
internal_value=-3.78439e-05 0.000787052 0.00129174 -0.00129792 0.00173995 -0.00208817 -0.00067463 0.00116791 -8.72614e-05 -0.000431235 -0.00110156
internal_weight=321 194 123 127 90 56 71 51 71 51 51
internal_count=321 194 123 127 90 56 71 51 71 51 51
is_linear=0
shrinkage=0.0426353


Tree=36
num_leaves=13
num_cat=0
split_feature=71 27 57 27 40 44 87 71 56 37 71 43
split_gain=0.174922 0.0454517 0.0352677 0.0357686 0.0274904 0.0207617 0.0176312 0.0133853 0.0116097 0.0115777 0.00787287 0.0061012
threshold=0.45444476472403972 30.438195204158344 -1.055154381787003 35.031618301985979 0.09354170283414534 0.42739728088585877 -0.17687739297602337 0.29363140241596836 -0.13309117499483505 0.62560369220499668 0.10427579448699724 0.17848275131161548
decision_type=2 2 2 2 2 2 2 2 2 2 2 2
left_child=1 7 -3 5 -2 10 -6 -1 -5 11 -4 -8
right_child=4 2 3 8 6 -7 9 -9 -10 -11 -12 -13
leaf_value=0.0026339340646975005 -0.00023091274234438865 -0.00091812432266235114 0.0011308577666506508 -0.0010268923958856617 -0.0027850166468189161 0.0019807002622288694 -0.0014862417584812278 0.0012286010280571349 0.00040842395999061444 -0.0021249590013479786 -2.5764794721846439e-05 -0.00048109302690453614
leaf_weight=22 31 31 23 21 21 36 21 28 20 24 20 23
leaf_count=22 31 31 23 21 21 36 21 28 20 24 20 23
internal_value=-3.62304e-05 0.000732781 0.000363851 0.000695028 -0.00132432 0.00122531 -0.00170518 0.00184695 -0.000326738 -0.00137169 0.000592894 -0.000960823
internal_weight=321 201 151 120 120 79 89 50 41 68 43 44
internal_count=321 201 151 120 120 79 89 50 41 68 43 44
is_linear=0
shrinkage=0.0426353


Tree=37
num_leaves=13
num_cat=0
split_feature=71 27 57 27 40 45 44 71 45 37 71 43
split_gain=0.160325 0.0416586 0.0323245 0.0327836 0.0251962 0.028444 0.019029 0.0122683 0.0112325 0.00832243 0.00721586 0.00376283
threshold=0.45444476472403972 30.438195204158344 -1.055154381787003 35.031618301985979 0.09354170283414534 0.087191263133935049 0.42739728088585877 0.29363140241596836 0.055424891371181138 0.62560369220499668 0.10427579448699724 0.17848275131161548
decision_type=2 2 2 2 2 2 2 2 2 2 2 2
left_child=1 7 -3 6 -2 9 10 -1 -5 11 -4 -6
right_child=4 2 3 8 5 -7 -8 -9 -10 -11 -12 -13
leaf_value=0.0025216353652981224 -0.00022106769047886297 -0.00087897976009184082 0.001082643248020667 0.00041031348948363184 -0.0012438454108491183 -0.0029626102061310108 0.0018962524316606531 0.0011762192038350103 -0.0010014941306017455 -0.0018989905924983238 -2.466628942355227e-05 -0.0004718954338839952
leaf_weight=22 31 31 23 20 24 22 36 28 21 21 20 22
leaf_count=22 31 31 23 20 24 22 36 28 21 21 20 22
internal_value=-3.46857e-05 0.000701538 0.000348338 0.000665395 -0.00126786 -0.00163247 0.00117307 0.0017682 -0.000312807 -0.00119571 0.000567616 -0.000874652
internal_weight=321 201 151 120 120 89 79 50 41 67 43 46
internal_count=321 201 151 120 120 89 79 50 41 67 43 46
is_linear=0
shrinkage=0.0426353


Tree=38
num_leaves=12
num_cat=0
split_feature=71 27 67 44 44 87 63 46 67 42 42
split_gain=0.146945 0.0382171 0.0264274 0.0243871 0.0233882 0.0270999 0.0201751 0.0108514 0.0120577 0.00877815 0.00753451
threshold=0.45444476472403972 32.416901747272604 -0.84592324509950878 0.42739728088585877 0.085987175623581019 -0.079322757971966792 0.16164305137839544 0.34037112318081658 -0.89060226621842165 0.019464354504742206 0.28607169533043869
decision_type=2 2 2 2 2 2 2 2 2 2 2
left_child=1 7 6 -4 9 -6 -3 8 -1 -2 -7
right_child=4 2 3 -5 5 10 -8 -9 -10 -11 -12
leaf_value=0.00042358155451966339 0.0001419839565621242 0.00010339168197647949 0.00018017393116638214 0.0020113417523078543 -0.002946784292268842 -0.00070575624083763768 -0.0015773440282270364 0.0019942088917151322 0.0017057110037924463 -0.0010151774918197973 -0.0017661656506848939
leaf_weight=30 22 37 39 20 22 29 20 31 24 26 21
leaf_count=30 22 37 39 20 22 29 20 31 24 26 21
internal_value=-3.32069e-05 0.000671628 0.000168381 0.000800909 -0.00121381 -0.0016998 -0.00048634 0.00135841 0.000993417 -0.000484812 -0.00115113
internal_weight=321 201 116 59 120 72 57 85 54 48 50
internal_count=321 201 116 59 120 72 57 85 54 48 50
is_linear=0
shrinkage=0.0426353


Tree=39
num_leaves=13
num_cat=0
split_feature=71 27 75 27 40 45 67 55 71 56 30 65
split_gain=0.134682 0.0355356 0.0278384 0.0236763 0.0215822 0.0212968 0.0172495 0.0127025 0.0109066 0.0100698 0.00764085 0.00215
threshold=0.45444476472403972 30.438195204158344 0.16087403460392183 35.031618301985979 0.070579501558204014 0.08554291233869589 -0.82508312181522825 0.10989321139205128 0.29363140241596836 -0.13466463043429516 0.0027165202927071012 0.18630397906760784
decision_type=2 2 2 2 2 2 2 2 2 2 2 2
left_child=1 8 -3 6 -2 10 7 -4 -1 -5 11 -6
right_child=4 2 3 9 5 -7 -8 -9 -10 -11 -12 -13
leaf_value=0.0023385430486348702 -4.7454160388276916e-05 -0.0010488852035418952 0.0010125691325594253 -0.00093457208024671937 -0.00037000029520864046 -0.0024684366754456478 0.0017281990955804359 -0.0003287874426646193 0.0010699900526288536 0.00040217269527692876 -0.0016100473341593708 -0.00098767065429701951
leaf_weight=22 25 23 33 21 20 27 33 21 28 20 27 21
leaf_count=22 25 23 33 21 20 27 33 21 28 20 27 21
internal_value=-3.17911e-05 0.000642993 0.000316781 0.000562174 -0.00116205 -0.00145537 0.000960239 0.00049093 0.00162815 -0.000282501 -0.00105312 -0.000686368
internal_weight=321 201 151 128 120 95 87 54 50 41 68 41
internal_count=321 201 151 128 120 95 87 54 50 41 68 41
is_linear=0
shrinkage=0.0426353


Tree=40
num_leaves=12
num_cat=0
split_feature=74 27 57 87 45 84 56 46 55 47 76
split_gain=0.104466 0.0520443 0.0276297 0.0148814 0.0130628 0.0126085 0.0124114 0.0119957 0.0115288 0.00506936 0.00378457
threshold=0.39383954155279433 33.854912718531416 -1.0660011911482548 -1.0282098209452528 0.069613885375197124 0.32391813965954258 -0.12965168920042955 -0.26133896804228096 0.11344679148150638 -0.9739371015108006 -0.018745536133345935
decision_type=2 2 2 2 2 2 2 2 2 2 2
left_child=1 2 3 -1 9 8 7 -3 -4 -2 -9
right_child=4 6 5 -5 -6 -7 -8 10 -10 -11 -12
leaf_value=-0.00064290434777106945 -0.00030568390102491614 0.00021871847275519414 0.001369741260804384 0.00080062105097395548 -0.0019226893732698033 0.00085425989471341643 0.000337887588212626 -0.0014358061923795439 0.0026635576571998627 -0.0011709666916833552 -0.00062544918530906761
leaf_weight=21 20 20 31 34 33 36 38 22 21 32 20
leaf_count=21 20 20 31 34 33 36 38 22 21 32 20
internal_value=2.72994e-05 0.000477315 0.000999092 0.000249457 -0.00125922 0.00146761 -0.000268826 -0.000640683 0.00189224 -0.000838166 -0.00104992
internal_weight=328 243 143 55 85 88 100 62 52 52 42
internal_count=328 243 143 55 85 88 100 62 52 52 42
is_linear=0
shrinkage=0.0426353


Tree=41
num_leaves=14
num_cat=0
split_feature=74 27 77 77 45 45 56 46 57 42 45 27 28
split_gain=0.0957484 0.047701 0.0254989 0.0270007 0.0121019 0.0115212 0.0114102 0.00982704 0.00548443 0.00463613 0.00530716 0.00357524 0.00250609
threshold=0.39383954155279433 33.854912718531416 -0.47496787326358536 -0.66826662209929999 0.083246848855965686 0.059343204751149757 -0.12451627094104975 -0.26133896804228096 -1.1661307942852013 0.094504797542131522 0.040363518092905538 35.806641504980725 8.6963151713952929
decision_type=2 2 2 2 2 2 2 2 2 2 2 2 2
left_child=1 2 3 5 9 -1 7 -3 -7 -2 -11 -9 -10
right_child=4 6 -4 -5 -6 8 -8 11 12 10 -12 -13 -14
leaf_value=0.0019595065643358985 -0.00038322624399562142 0.00015705596316805716 0.0023287433772362868 -0.00030013219781958015 -0.0021226558118029233 0.0002434644154371729 0.00034986850853167064 -0.00058831006030946433 0.0014479654553861973 -0.00073027425023201604 -0.0016583682754552269 -0.0013660520095137606 0.00081315362931221491
leaf_weight=22 20 21 21 34 20 20 36 22 20 24 21 21 26
leaf_count=22 20 21 21 34 20 20 36 22 20 24 21 21 26
internal_value=2.61354e-05 0.000456965 0.000956495 0.000720289 -0.00120553 0.00111454 -0.000257365 -0.000598933 0.000832888 -0.000923336 -0.00116338 -0.000968138 0.00108916
internal_weight=328 243 143 122 85 88 100 64 66 65 45 43 46
internal_count=328 243 143 122 85 88 100 64 66 65 45 43 46
is_linear=0
shrinkage=0.0426353


Tree=42
num_leaves=13
num_cat=0
split_feature=78 27 77 77 45 45 46 27 61 63 40 77
split_gain=0.0877579 0.0437202 0.0233709 0.0247474 0.0111812 0.0105597 0.00852689 0.00749656 0.00415769 0.00394918 0.00371594 0.00181274
threshold=99.247564471304159 33.854912718531416 -0.47496787326358536 -0.66826662209929999 0.068905563841679993 0.059343204751149757 -0.43897951210996766 36.116041614601059 0.23917652897368558 0.1945820079786216 0.14065927661392616 -1.0333975978905239
decision_type=2 2 2 2 2 2 2 2 2 2 2 2
left_child=1 2 3 5 10 -1 -3 9 -7 -8 -2 -10
right_child=4 6 -4 -5 -6 8 7 -9 11 -11 -12 -13
leaf_value=0.0018759623397966736 -0.00031988763861913987 0.00051721366559992217 0.002229456604478187 -0.00028733595128817448 -0.0017530245343842063 0.00031881429536412048 0.00020653077178247006 -0.0010781037897595735 0.00077516792509294918 -0.00051710292987384727 -0.0010593546575402863 0.0013230535431586819
leaf_weight=22 21 21 21 34 34 22 26 24 23 29 30 21
leaf_count=22 21 21 21 34 34 22 26 24 23 29 30 21
internal_value=2.50211e-05 0.000437482 0.000915715 0.000689579 -0.00115413 0.00106702 -0.000246392 -0.000449376 0.000797377 -0.000175022 -0.000754868 0.00103666
internal_weight=328 243 143 122 85 88 100 79 66 55 51 44
internal_count=328 243 143 122 85 88 100 79 66 55 51 44
is_linear=0
shrinkage=0.0426353


Tree=43
num_leaves=14
num_cat=0
split_feature=74 27 57 87 45 67 85 56 85 46 32 45 27
split_gain=0.0804343 0.0400716 0.0226029 0.0125446 0.0104562 0.0103926 0.0135734 0.0100699 0.00855365 0.00849233 0.00409645 0.00476403 0.00299403
threshold=0.39383954155279433 33.854912718531416 -1.0660011911482548 -1.0282098209452528 0.083246848855965686 -0.89474438230498365 0.22445398303238059 -0.12451627094104975 0.23047101846846918 -0.26133896804228096 0.094504797542131522 0.040363518092905538 35.806641504980725
decision_type=2 2 2 2 2 2 2 2 2 2 2 2 2
left_child=1 2 3 -1 10 6 -4 9 -7 -3 -2 -12 -11
right_child=4 7 5 -5 -6 8 -8 -9 -10 12 11 -13 -14
leaf_value=-0.00062065708823764543 -0.00033491804592789644 0.00014600938325509056 0.0015463370113898605 0.00070469396299092533 -0.0019574148221958108 0.0010802796787000215 1.1673435897827692e-05 0.00033456876238670827 0.002253076361275105 -0.00055239944019385627 -0.00065791373272137813 -0.0015372358090286306 -0.0012641225332328508
leaf_weight=21 20 21 22 34 20 20 20 36 26 22 24 21 21
leaf_count=21 20 21 22 34 20 20 20 36 26 22 24 21 21
internal_value=2.39544e-05 0.00041883 0.000876673 0.000198651 -0.00110492 0.00130044 0.000815545 -0.000235887 0.00174316 -0.000556768 -0.000842619 -0.00106826 -0.000899985
internal_weight=328 243 143 55 85 88 42 100 46 64 65 45 43
internal_count=328 243 143 55 85 88 42 100 46 64 65 45 43
is_linear=0
shrinkage=0.0426353


Tree=44
num_leaves=14
num_cat=0
split_feature=74 27 57 85 71 67 85 53 75 44 76 43 51
split_gain=0.0737218 0.0367275 0.0207166 0.00988374 0.00958201 0.00952533 0.0124407 0.00942718 0.00792768 0.00699969 0.00610389 0.00329887 0.00152081
threshold=0.39383954155279433 33.854912718531416 -1.0660011911482548 0.22983764560538925 0.56995098934079913 -0.89474438230498365 0.22445398303238059 0.48922447138837222 0.18245539765817173 0.40394454886646869 -0.040312306838021443 0.15981100217108088 0.083844869672099032
decision_type=2 2 2 2 2 2 2 2 2 2 2 2 2
left_child=1 2 3 -1 7 6 -4 -2 -7 10 -3 -6 -12
right_child=4 9 5 -5 11 8 -8 -9 -10 -11 12 -13 -14
leaf_value=0.00062222740877490058 -0.00088342021174379827 -0.0010101880814753265 0.0014804084101323952 -0.00056589943403400093 -0.00095753296852438144 0.0021818280080271452 1.1175738161428895e-05 -0.0021924836831398579 0.0010581494582927356 0.00026027702787195252 -0.00042384159483235465 -0.0002228943809805463 0.00010194305975909456
leaf_weight=35 20 25 22 20 25 25 20 20 21 35 20 20 20
leaf_count=35 20 25 22 20 25 25 20 20 21 35 20 20 20
internal_value=2.29331e-05 0.000400973 0.000839296 0.000190181 -0.00105782 0.00124499 0.000780774 -0.00153795 0.00166884 -0.00022583 -0.00048758 -0.000631027 -0.000160949
internal_weight=328 243 143 55 85 88 42 40 46 100 65 45 40
internal_count=328 243 143 55 85 88 42 40 46 100 65 45 40
is_linear=0
shrinkage=0.0426353


Tree=45
num_leaves=12
num_cat=0
split_feature=78 27 75 27 30 67 44 40 66 56 61
split_gain=0.0720354 0.03334 0.0215392 0.0192812 0.0146071 0.00750951 0.00856694 0.00743992 0.00647007 0.00496448 0.00451179
threshold=77.359640754761529 29.591143090467671 0.15073329811620936 34.994885284834986 0.0027165202927071012 -0.82707444724480805 0.42739728088585877 0.19659520620126097 -0.069459966264426132 -0.12838998934272405 0.43603866663258833
decision_type=2 2 2 2 2 2 2 2 2 2 2
left_child=1 -1 -3 5 10 8 -7 -6 -4 -5 -2
right_child=4 2 3 9 7 6 -8 -9 -10 -11 -12
leaf_value=0.0017157868693195636 -2.6741848074671697e-05 -0.0010771882645701912 0.00085120853684357036 -0.00060001424085866879 -0.00093199361866906833 0.0006630912901415064 0.0017523545810078664 -0.0019124376650427684 -8.280976883213786e-05 0.00025627120223500356 -0.00083612716921827382
leaf_weight=33 31 20 26 32 34 35 21 24 28 20 21
leaf_count=33 31 20 26 32 34 35 21 24 28 20 21
internal_value=1.49188e-05 0.000468942 0.000242866 0.000405836 -0.00087249 0.00072564 0.00107157 -0.00133769 0.000366903 -0.000270674 -0.000353609
internal_weight=325 215 182 162 110 110 56 58 54 52 52
internal_count=325 215 182 162 110 110 56 58 54 52 52
is_linear=0
shrinkage=0.0426353


Tree=46
num_leaves=14
num_cat=0
split_feature=74 28 75 27 46 67 32 64 44 61 45 64 35
split_gain=0.0660238 0.0306119 0.0196873 0.0169387 0.0132184 0.00794369 0.00665198 0.00659919 0.00650808 0.00542748 0.00450648 0.00439444 0.00268979
threshold=0.30698270140778383 8.6412113051428019 0.16087403460392183 34.994885284834986 -0.45905270166403284 -0.82707444724480805 0.18735642804916888 0.21267351450961142 0.42739728088585877 0.47973445936276121 0.05777989408807075 0.11188990755127991 0.022207881251568751
decision_type=2 2 2 2 2 2 2 2 2 2 2 2 2
left_child=1 11 -3 5 -2 7 12 -4 -7 -8 -5 -1 -6
right_child=4 2 3 10 6 8 9 -9 -10 -11 -12 -13 -14
leaf_value=0.001949287052218317 0.00015615367261499665 -0.00081208545757680494 -0.00015923415978273719 0.00019453029039110059 -0.00038895323749388598 0.00069210644600835943 -0.00096878259454945964 0.00086306237060202904 0.001677642352230871 -0.0019620562354971125 -0.0006247563531325452 0.001066230135525738 -0.0010163868353570864
leaf_weight=20 20 29 24 23 23 29 20 22 21 20 26 21 27
leaf_count=20 20 29 24 23 23 29 20 22 21 20 26 21 27
internal_value=1.42827e-05 0.000448949 0.000201996 0.000404813 -0.000835292 0.000734035 -0.00105561 0.00032969 0.00110603 -0.00146542 -0.000240193 0.00149699 -0.000727767
internal_weight=325 215 174 145 110 96 90 46 50 40 49 41 50
internal_count=325 215 174 145 110 96 90 46 50 40 49 41 50
is_linear=0
shrinkage=0.0426353


Tree=47
num_leaves=13
num_cat=0
split_feature=74 27 75 27 46 67 44 32 66 77 61 81
split_gain=0.060514 0.0283745 0.018633 0.0162107 0.0121153 0.00636862 0.00713953 0.00609685 0.00567099 0.00501911 0.00497454 0.00240154
threshold=0.30698270140778383 29.591143090467671 0.15073329811620936 34.994885284834986 -0.45905270166403284 -0.82707444724480805 0.42739728088585877 0.18735642804916888 -0.069459966264426132 -0.72336913748419562 0.47973445936276121 0.51303194941988195
decision_type=2 2 2 2 2 2 2 2 2 2 2 2
left_child=1 -1 -3 5 -2 8 -7 11 -4 -5 -9 -6
right_child=4 2 3 9 7 6 -8 10 -10 -11 -12 -13
leaf_value=0.0015800612278496374 0.00014949599963566632 -0.001006529165438527 0.00078910777348887098 -0.00071783111229568462 -0.00033484962424000866 0.00061172982791641542 0.0016061154929714848 -0.00092747819689556758 -8.533264169621624e-05 0.00012554633892010862 -0.0018784033065374866 -0.00093799819341186584
leaf_weight=33 20 20 26 23 20 35 21 20 28 29 20 30
leaf_count=33 20 20 26 23 20 35 21 20 28 29 20 30
internal_value=1.36738e-05 0.000429808 0.000221245 0.000372822 -0.000799679 0.000666059 0.000984624 -0.00101061 0.000335694 -0.000247486 -0.00140294 -0.000696739
internal_weight=325 215 182 162 110 110 56 90 54 52 40 50
internal_count=325 215 182 162 110 110 56 90 54 52 40 50
is_linear=0
shrinkage=0.0426353


Tree=48
num_leaves=13
num_cat=0
split_feature=74 28 75 27 30 67 40 64 48 64 45 61
split_gain=0.0554639 0.026149 0.0170189 0.0141844 0.0126549 0.0067106 0.00585864 0.00559643 0.00544094 0.00412868 0.00380218 0.00371354
threshold=0.30698270140778383 8.6412113051428019 0.16087403460392183 34.994885284834986 0.0027165202927071012 -0.82707444724480805 0.19659520620126097 0.21267351450961142 10.684932022146469 0.11188990755127991 0.05777989408807075 0.43603866663258833
decision_type=2 2 2 2 2 2 2 2 2 2 2 2
left_child=1 9 -3 5 11 7 -6 -4 -7 -1 -5 -2
right_child=4 2 3 10 6 8 -8 -9 -10 -11 -12 -13
leaf_value=0.0018185270035222458 1.3924656477885859e-05 -0.00075961751687915848 -0.00014880696556309012 0.00018088371911075956 -0.00083857103599177334 0.00063651692995430058 -0.0017086067106854505 0.00079262152887334505 0.0015376382090118994 0.00096258793882083899 -0.00057166363817560929 -0.00072037779188135283
leaf_weight=20 31 29 24 23 34 29 24 22 21 21 26 21
leaf_count=20 31 29 24 23 34 29 24 22 21 21 26 21
internal_value=1.30908e-05 0.000411483 0.000183241 0.000371812 -0.000765584 0.00067308 -0.00119859 0.000301441 0.00101499 0.00138012 -0.000218427 -0.000282621
internal_weight=325 215 174 145 110 96 58 46 50 41 49 52
internal_count=325 215 174 145 110 96 58 46 50 41 49 52
is_linear=0
shrinkage=0.0426353


Tree=49
num_leaves=12
num_cat=0
split_feature=74 28 75 28 30 43 44 40 64 32 47
split_gain=0.0508353 0.0239668 0.0155987 0.01173 0.0115988 0.00725204 0.0114783 0.00536972 0.00378413 0.00353448 0.00216016
threshold=0.30698270140778383 8.6412113051428019 0.16087403460392183 10.458635430247522 0.0027165202927071012 0.4585662537512431 0.43391308091873926 0.19659520620126097 0.11188990755127991 0.21534086129420235 -0.99411119554090943
decision_type=2 2 2 2 2 2 2 2 2 2 2
left_child=1 8 -3 5 9 6 10 -6 -1 -2 -4
right_child=4 2 3 -5 7 -7 -8 -9 -10 -11 -12
leaf_value=0.0017409934749426715 3.0439464507251871e-05 -0.00072723095855556504 6.3603911026790716e-05 -0.00041098613439207766 -0.00080281826398997643 7.4017429772620777e-05 0.0014391659948465485 -0.0016357596694334265 0.00092154765817357444 -0.00068103968718642184 0.00064287332534972955
leaf_weight=20 30 29 22 29 34 39 30 24 21 22 25
leaf_count=20 30 29 22 29 34 39 30 24 21 22 25
internal_value=1.25326e-05 0.000393939 0.000175428 0.00035596 -0.000732943 0.000547696 0.000787612 -0.00114748 0.00132128 -0.000270571 0.000371726
internal_weight=325 215 174 145 110 116 77 58 41 52 47
internal_count=325 215 174 145 110 116 77 58 41 52 47
is_linear=0
shrinkage=0.0426353


Tree=50
num_leaves=12
num_cat=0
split_feature=63 27 55 67 28 43 78 53 46 44 63
split_gain=0.067498 0.0154536 0.0142221 0.0191216 0.0112346 0.0107377 0.0103228 0.0095827 0.00896526 0.00680646 0.00248123
threshold=0.43738753549925063 29.78320058900086 0.08359011995519143 -0.91990484435541775 9.6787318473169108 0.044258517230916693 44.688034717091121 0.49786298812485702 -0.20126128897034676 0.10852361472606291 0.044258517230916693
decision_type=2 2 2 2 2 2 2 2 2 2 2
left_child=1 -1 -3 -4 6 -2 -5 8 -7 -10 -6
right_child=5 2 3 4 10 7 -8 -9 9 -11 -12
leaf_value=0.001229797244149976 5.6005653941409969e-06 0.0012434382600577253 -0.00092297587926887291 0.0012330171526361124 -0.00049531751026824704 -9.0697826100447654e-05 0.0001744697331026809 -0.0016060826028341183 -0.00055150316552370418 -0.0016638248569443394 0.00013332387540045698
leaf_weight=39 24 24 26 34 21 26 33 32 20 20 25
leaf_count=39 24 24 26 34 21 26 33 32 20 20 25
internal_value=-1.08215e-05 0.00046742 0.00028501 0.000119526 0.000359394 -0.000802663 0.000711643 -0.00100061 -0.000707041 -0.00110766 -0.000153665
internal_weight=324 202 163 139 113 122 67 98 66 40 46
internal_count=324 202 163 139 113 122 67 98 66 40 46
is_linear=0
shrinkage=0.0426353


Tree=51
num_leaves=11
num_cat=0
split_feature=63 27 56 55 27 43 57 61 46 35
split_gain=0.0618651 0.0141639 0.0160324 0.0104376 0.0113437 0.00984162 0.00979288 0.00954444 0.00771892 0.00360967
threshold=0.43738753549925063 29.78320058900086 -0.39987756177178951 0.08359011995519143 35.428705330884078 0.044258517230916693 -1.1718132023500287 0.48745054520149372 -0.20126128897034676 0.03085098046966436
decision_type=2 2 2 2 2 2 2 2 2 2
left_child=1 -1 -3 -4 6 -2 -5 8 -7 -8
right_child=5 2 3 4 -6 7 9 -9 -10 -11
leaf_value=0.0011773644329161794 5.3617873416152955e-06 -0.00085779091754785311 0.001285240366141903 -0.00032716248609083499 -0.00045960210771372328 -0.00011081757604710058 0.0004537286543017034 -0.0015622114616798432 -0.0010486080146861602 0.0010584269408963013
leaf_weight=39 24 20 22 20 29 27 38 32 39 34
leaf_count=39 24 20 22 20 29 27 38 32 39 34
internal_value=-1.03602e-05 0.000447491 0.000272859 0.000430991 0.000275674 -0.000768442 0.000507445 -0.000957944 -0.000664966 0.000739281
internal_weight=324 202 163 143 121 122 92 98 66 72
internal_count=324 202 163 143 121 122 92 98 66 72
is_linear=0
shrinkage=0.0426353


Tree=52
num_leaves=13
num_cat=0
split_feature=71 47 66 45 65 27 43 69 53 30 40 83
split_gain=0.054279 0.0183033 0.021119 0.0129062 0.012678 0.0101191 0.00616771 0.00676907 0.00562855 0.00561411 0.00376631 0.00285372
threshold=0.50811555928086471 -0.83183541240872527 -0.29281849889516681 0.09135975373148951 0.20603782619385078 33.854912718531416 0.19659520620126097 -0.11105656554225427 0.55044934014934721 -0.0060966380902833404 0.1301229833026826 0.39550005709595398
decision_type=2 2 2 2 2 2 2 2 2 2 2 2
left_child=1 2 -1 8 5 6 -3 -8 10 -4 -2 -11
right_child=3 4 9 -5 -6 -7 7 -9 -10 11 -12 -13
leaf_value=-0.0012756317869598902 8.2198449665583633e-05 0.00065051873861098151 0.00077116440591571301 -0.0017848349224412216 -0.00013957605306276304 0.00028587740814479181 0.0019067122657803459 0.00086340701169624115 -0.0011876811960719125 -0.00041378428438857708 -0.00064003617000363711 0.00030645266768771385
leaf_weight=22 21 28 24 21 29 37 26 20 21 20 35 20
leaf_count=22 21 28 24 21 29 37 26 20 21 20 35 20
internal_value=-9.91846e-06 0.000353471 -0.000136077 -0.000847938 0.000654192 0.000861573 0.00114942 0.0014531 -0.000592421 0.000255646 -0.000369198 -5.36658e-05
internal_weight=324 226 86 98 140 111 74 46 77 64 56 40
internal_count=324 226 86 98 140 111 74 46 77 64 56 40
is_linear=0
shrinkage=0.0426353


Tree=53
num_leaves=12
num_cat=0
split_feature=63 27 56 55 28 74 43 61 46 28 54
split_gain=0.0520373 0.0121265 0.014171 0.00910916 0.0114048 0.00940822 0.00869149 0.00818271 0.00693627 0.0027159 0.0026268
threshold=0.43738753549925063 29.78320058900086 -0.39987756177178951 0.08359011995519143 9.6293327006292415 0.18726753850140368 0.044258517230916693 0.48745054520149372 -0.20126128897034676 10.458635430247522 0.3875639215980396
decision_type=2 2 2 2 2 2 2 2 2 2 2
left_child=1 -1 -3 -4 5 -5 -2 8 -8 10 -6
right_child=6 2 3 4 9 -7 7 -9 -10 -11 -12
leaf_value=0.0010857573728120544 2.2423579152871123e-05 -0.00081415622331977176 0.001195537824656722 0.0011691679992154853 -0.00029748678988831227 9.9016788448487016e-05 -8.6267489991319511e-05 -0.0014423493567707426 -0.00097524477101406163 -0.0005507418468614308 0.00039352182937303068
leaf_weight=39 24 20 22 32 20 28 27 32 39 21 20
leaf_count=39 24 20 22 32 20 28 27 32 39 21 20
internal_value=-9.49558e-06 0.000410417 0.000248832 0.000397502 0.000252405 0.000669764 -0.000704761 -0.000882846 -0.000611572 -0.000158113 4.80175e-05
internal_weight=324 202 163 143 121 60 122 98 66 61 40
internal_count=324 202 163 143 121 60 122 98 66 61 40
is_linear=0
shrinkage=0.0426353


Tree=54
num_leaves=12
num_cat=0
split_feature=63 27 56 44 87 55 28 74 36 73 61
split_gain=0.0476946 0.0111145 0.0129884 0.00859823 0.00944599 0.00834898 0.010453 0.00862308 0.00339168 0.00289031 0.00209684
threshold=0.43738753549925063 29.78320058900086 -0.39987756177178951 0.081936603814541945 -0.079322757971966792 0.08359011995519143 9.6293327006292415 0.18726753850140368 -0.14426438425343055 0.54475166985235079 0.31685852399048814
decision_type=2 2 2 2 2 2 2 2 2 2 2
left_child=1 -1 -3 10 -5 -4 7 -7 -8 -6 -2
right_child=3 2 5 4 9 6 8 -9 -10 -11 -12
leaf_value=0.0010394657285487904 -0.00052408751863386818 -0.00077944440119943382 0.0011445656759502556 -0.0017035556340858446 -0.00090095619531779824 0.0011193201125555617 -0.00057465685018449192 9.4795175040546147e-05 8.7404739798263941e-05 -0.00024759432478802944 3.999044116389818e-05
leaf_weight=39 23 20 22 22 32 32 22 28 39 20 25
leaf_count=39 23 20 22 22 32 32 22 28 39 20 25
internal_value=-9.09073e-06 0.000392919 0.000238223 -0.000674713 -0.000962983 0.000380554 0.000241643 0.000641208 -0.000151372 -0.000649663 -0.000230297
internal_weight=324 202 163 122 74 143 121 60 61 52 48
internal_count=324 202 163 122 74 143 121 60 61 52 48
is_linear=0
shrinkage=0.0426353


Tree=55
num_leaves=13
num_cat=0
split_feature=81 76 84 30 43 30 27 46 35 67 45 47
split_gain=0.0334389 0.0367303 0.0276301 0.0125555 0.00941726 0.00884948 0.00651967 0.0055568 0.00402225 0.00381334 0.00377473 0.00374027
threshold=0.28932879009086365 -0.040312306838021443 0.34391229438717036 0.0027165202927071012 0.17848275131161548 -0.00085117537099345581 34.330441248457269 -0.089215583627947556 0.029062125882978438 -0.89060226621842165 0.062621646118501129 -0.9739371015108006
decision_type=2 2 2 2 2 2 2 2 2 2 2 2
left_child=5 2 -2 4 -4 8 10 -5 -1 -7 -3 -12
right_child=1 6 3 7 -6 9 -8 -9 -10 -11 11 -13
leaf_value=0.00068459527734082855 -0.0018710755158627261 0.001140043222033083 -0.00063496548646219272 -0.0003269503854337696 0.00051998247885173625 -0.00015946288590121821 -9.9662723200747479e-05 -0.0012071734273735777 0.0014925652771946582 0.00057479768745487226 0.00083495238081518334 1.0394090835981116e-05
leaf_weight=21 29 20 21 22 33 20 31 32 24 36 20 20
leaf_count=21 29 20 21 22 33 20 31 32 24 36 20 20
internal_value=2.45024e-05 -0.00026158 -0.000702617 -0.000388864 7.0836e-05 0.000670312 0.000402398 -0.000848564 0.00111551 0.000312562 0.000661797 0.000422673
internal_weight=329 228 137 108 54 101 91 54 45 56 60 40
internal_count=329 228 137 108 54 101 91 54 45 56 60 40
is_linear=0
shrinkage=0.0426353


Tree=56
num_leaves=12
num_cat=0
split_feature=71 55 27 32 61 73 27 49 35 64 77
split_gain=0.031099 0.0146807 0.0135982 0.0129384 0.011693 0.00724398 0.00686363 0.00351532 0.00324975 0.00390586 0.00234002
threshold=0.45444476472403972 0.1137048141745536 31.943108959008274 0.047443467692433426 0.011668495135626894 0.50243079192170736 35.428705330884078 0.30768429780627743 0.040502694067129773 0.12967094688356876 -0.67930240350980708
decision_type=2 2 2 2 2 2 2 2 2 2 2
left_child=2 -2 8 -3 -4 -5 7 10 9 -1 -6
right_child=1 3 4 5 6 -7 -8 -9 -10 -11 -12
leaf_value=0.0014005199503107648 -0.0014564729860462812 0.00036436590132526655 -0.0007306021691487265 -0.00013164963834455334 -3.6802177426113722e-05 -0.0010460112410396458 -0.00027263247084615772 0.00095316569257080405 0.00039408438071540826 0.00065653020060632799 0.00055000357612416863
leaf_weight=23 24 36 26 28 21 36 29 22 25 29 30
leaf_count=23 24 36 26 28 21 36 29 22 25 29 30
internal_value=2.34577e-05 -0.000509522 0.000345846 -0.000282254 7.65227e-05 -0.000645978 0.00028226 0.000502697 0.000793551 0.000985603 0.000308378
internal_weight=329 124 205 100 128 64 102 73 77 52 51
internal_count=329 124 205 100 128 64 102 73 77 52 51
is_linear=0
shrinkage=0.0426353


Tree=57
num_leaves=13
num_cat=0
split_feature=71 30 28 61 32 44 83 39 28 49 43 66
split_gain=0.0285037 0.0134724 0.0115197 0.0121749 0.00901176 0.00721186 0.0071953 0.00589104 0.00529757 0.00306741 0.00318602 0.00298855
threshold=0.45444476472403972 0.0027165202927071012 8.6412113051428019 0.011668495135626894 0.019464354504742206 0.081936603814541945 -0.10480264613053068 0.17848275131161548 10.304191995434389 0.25066473379414084 0.42793290978233517 -0.093189073404878586
decision_type=2 2 2 2 2 2 2 2 2 2 2 2
left_child=2 4 7 -4 -2 -3 -6 -1 9 11 -11 -5
right_child=1 5 3 8 6 -7 -8 -9 -10 10 -12 -13
leaf_value=0.00052400612880097405 0.00065809375403086661 -0.00037539031597524637 -0.00069945268330655883 0.00061735773492568706 -0.0010142872263365814 -0.0013472633691801134 7.0677232742093421e-05 0.0014461704748335788 -0.00016874794704985069 0.0011132780655261079 0.00038692684713987192 -4.6682522532559917e-05
leaf_weight=34 21 23 26 22 20 35 25 20 31 21 23 28
leaf_count=34 21 23 26 22 20 35 25 20 31 21 23 28
internal_value=2.24576e-05 -0.000487799 0.0003311 0.000139973 -7.11946e-05 -0.000961865 -0.000411529 0.000865548 0.000314574 0.000473967 0.000733594 0.000245495
internal_weight=329 124 205 151 66 58 45 54 125 94 44 50
internal_count=329 124 205 151 66 58 45 54 125 94 44 50
is_linear=0
shrinkage=0.0426353


Tree=58
num_leaves=13
num_cat=0
split_feature=81 76 84 28 30 30 27 91 37 45 47 43
split_gain=0.0266351 0.0298693 0.0246672 0.0125589 0.00761342 0.00543222 0.00504216 0.00414126 0.00362101 0.00337388 0.00334699 0.00224386
threshold=0.28932879009086365 -0.040312306838021443 0.34391229438717036 7.9141471733526716 -0.00085117537099345581 0.0027165202927071012 34.330441248457269 0.53000968953474137 -0.034844300015048298 0.062621646118501129 -0.9739371015108006 0.47484522296105908
decision_type=2 2 2 2 2 2 2 2 2 2 2 2
left_child=4 2 -2 -4 7 -5 9 -1 -7 -3 -11 -6
right_child=1 6 3 5 11 8 -8 -9 -10 10 -12 -13
leaf_value=0.0014680988971113673 -0.0017355765731172162 0.0010451985022597887 0.00040625608740810936 -0.00022584444482772614 0.00052645925560603195 -0.00057638675690510047 -7.6584179645994475e-05 0.00064499011095299214 -0.0013607909208718186 0.00075698851761638302 -2.3015707297295784e-05 -1.3649381172375709e-05
leaf_weight=20 29 20 30 35 29 23 31 25 20 20 20 27
leaf_count=20 29 20 30 35 29 23 31 25 20 20 20 27
internal_value=2.15001e-05 -0.000233825 -0.000631542 -0.000335089 0.000597876 -0.000620221 0.000364938 0.00101082 -0.000941226 0.000593057 0.000366986 0.00026605
internal_weight=329 228 137 108 101 78 91 45 43 60 40 56
internal_count=329 228 137 108 101 78 91 45 43 60 40 56
is_linear=0
shrinkage=0.0426353


Tree=59
num_leaves=13
num_cat=0
split_feature=81 76 84 28 35 35 27 54 81 45 47 77
split_gain=0.0244124 0.0273766 0.0226087 0.0115108 0.00719212 0.00633498 0.00462137 0.00449228 0.00947341 0.00309232 0.00306767 0.00305029
threshold=0.28932879009086365 -0.040312306838021443 0.34391229438717036 7.9141471733526716 0.020247665332039876 0.049919034669326907 34.330441248457269 0.1878242883899606 0.50370139716164652 0.062621646118501129 -0.9739371015108006 -0.70263048257185867
decision_type=2 2 2 2 2 2 2 2 2 2 2 2
left_child=4 2 -2 -4 -1 11 9 -5 -9 -3 -11 -6
right_child=1 6 3 7 5 -7 -8 8 -10 10 -12 -13
leaf_value=4.4077741824340242e-05 -0.0016615797020874702 0.0010006361073557827 0.00038893521856262517 -0.00020584241799300194 0.00075908283625782352 0.00023965747757438748 -7.3318981588484138e-05 -0.00025179775424425836 -0.0014754948636277777 0.00072471405574607236 -2.2034414974392847e-05 0.0014534540489194955
leaf_weight=32 29 20 30 32 23 23 31 23 23 20 20 23
leaf_count=32 29 20 30 32 23 23 31 23 23 20 20 23
internal_value=2.05834e-05 -0.000223855 -0.000604616 -0.000320802 0.000572386 0.000817398 0.000349378 -0.000593778 -0.000863646 0.000567772 0.00035134 0.00110627
internal_weight=329 228 137 108 101 69 91 78 46 60 40 46
internal_count=329 228 137 108 101 69 91 78 46 60 40 46
is_linear=0
shrinkage=0.0426353


Tree=60
num_leaves=13
num_cat=0
split_feature=75 81 34 27 55 56 47 30 47 36 37 40
split_gain=0.0173084 0.010852 0.0143798 0.00838119 0.00613864 0.00412168 0.00528823 0.00303261 0.00355629 0.0034309 0.00263733 0.00257982
threshold=0.13564780123555165 0.28932879009086365 -0.033312499866237369 30.302974665831943 0.08359011995519143 -0.36716350761244659 -1.0134734941337731 -0.017030983471032563 -1.3269475709218799 -0.074512011865580097 -0.32630958224769613 0.26170645653765973
decision_type=2 2 2 2 2 2 2 2 2 2 2 2
left_child=-1 3 -3 -2 -5 6 -4 -7 -9 -10 -6 -11
right_child=1 2 5 4 10 7 -8 8 9 11 -12 -13
leaf_value=-0.0012060423456415146 0.0012062480595921986 0.00081356217076445855 -0.0010646262144359423 0.00087205133139313005 0.00027415127492919138 0.00031416405820737221 -0.00011668760467317376 0.00022163304758648136 -0.00082408306745398519 5.2381262476136324e-05 -0.00030222177404462579 -0.00050402663178238994
leaf_weight=21 20 26 23 20 31 22 20 24 22 33 27 28
leaf_count=21 20 26 23 20 31 22 20 24 22 33 27 28
internal_value=-2.32584e-05 6.06553e-05 -0.000120963 0.000427599 0.000227945 -0.000262229 -0.000623725 -0.00014173 -0.000235465 -0.000367638 5.83968e-06 -0.000203019
internal_weight=317 296 198 98 78 172 43 129 107 83 58 61
internal_count=317 296 198 98 78 172 43 129 107 83 58 61
is_linear=0
shrinkage=0.0426353


Tree=61
num_leaves=11
num_cat=0
split_feature=87 28 55 65 56 39 28 55 54 86
split_gain=0.0150718 0.0143337 0.00804267 0.00800985 0.00520404 0.00573792 0.00375473 0.00623064 0.00566612 0.00306688
threshold=-0.37230394627815505 8.6412113051428019 0.08359011995519143 0.15123267883282138 -0.12451627094104975 0.17848275131161548 8.6963151713952929 0.1900835466468144 0.1878242883899606 -0.26781094065022498
decision_type=2 2 2 2 2 2 2 2 2 2
left_child=1 -1 -3 -2 5 -4 7 -5 -8 -6
right_child=3 2 4 6 9 -7 8 -9 -10 -11
leaf_value=0.0009740669649992604 -0.0011816119893783099 0.00083487113256578631 7.0005714549623469e-05 0.00060194701679380845 -9.1738304170007576e-05 -0.00068195720868632014 -8.7493690861486031e-05 -0.00040767162406761537 -0.00097311076021910187 0.00047681243844935523
leaf_weight=36 20 20 35 20 35 39 29 25 24 34
leaf_count=36 20 20 35 20 35 39 29 25 24 34
internal_value=-2.22668e-05 0.000204113 3.40618e-05 -0.000404043 -7.79395e-05 -0.000326299 -0.000245355 4.10478e-05 -0.000488528 0.000188417
internal_weight=317 199 163 118 143 74 98 45 53 69
internal_count=317 199 163 118 143 74 98 45 53 69
is_linear=0
shrinkage=0.0426353


Tree=62
num_leaves=12
num_cat=0
split_feature=75 57 28 44 57 53 30 66 45 42 57
split_gain=0.0149616 0.0131599 0.0124922 0.00765843 0.00729357 0.0061053 0.00601911 0.00504806 0.00370415 0.00232338 0.0019367
threshold=0.13564780123555165 -1.1661307942852013 8.6412113051428019 0.39827496352785158 -1.2949765073565083 0.48395672896047331 0.0031066476973604807 -0.3143952103413562 0.056041647799136472 0.48428764184874629 -0.94360967935164697
decision_type=2 2 2 2 2 2 2 2 2 2 2
left_child=-1 4 6 7 8 9 -3 -4 -2 -5 -9
right_child=1 2 3 5 -6 -7 -8 10 -10 -11 -12
leaf_value=-0.0011209947161230586 -0.00034728118392039688 0.0013960198003750656 -0.0006802704885260412 0.00035471813615331775 -0.00084085536542912061 -0.00016335251815462778 0.00037405897991136063 0.00028169004164133575 0.00031676248385572079 0.0009659511205180228 -0.00019588364444740993
leaf_weight=21 37 22 26 20 35 22 20 29 26 26 33
leaf_count=21 37 22 26 20 35 22 20 29 26 26 33
internal_value=-2.13175e-05 5.67002e-05 0.000256701 8.09818e-05 -0.000347383 0.000420814 0.000909372 -0.000181616 -7.32314e-05 0.000700198 2.74976e-05
internal_weight=317 296 198 156 98 68 42 88 63 46 62
internal_count=317 296 198 156 98 68 42 88 63 46 62
is_linear=0
shrinkage=0.0426353


Tree=63
num_leaves=12
num_cat=0
split_feature=75 57 28 44 57 30 61 66 81 46 32
split_gain=0.013713 0.0120617 0.0114497 0.00701931 0.00674483 0.0055168 0.00546248 0.00462679 0.00327435 0.0019451 0.00192672
threshold=0.13564780123555165 -1.1661307942852013 8.6412113051428019 0.39827496352785158 -1.2517083853403643 0.0031066476973604807 0.46473957352662282 -0.3143952103413562 0.53229541973409089 1.0000000180025095e-35 0.48986184649697839
decision_type=2 2 2 2 2 2 2 2 2 2 2
left_child=-1 4 5 7 8 -3 10 -4 -2 -9 -5
right_child=1 2 3 6 -6 -7 -8 9 -10 -11 -12
leaf_value=-0.001073200711888971 -0.00037672057611864193 0.0013365000143566407 -0.00065126692320274869 0.00042819713053297078 -0.00090614616460920879 0.00035811085405394413 -8.2805502435759343e-05 -0.00022841843192090763 0.00020518715980443378 0.00025019085699768681 0.0010063958746216039
leaf_weight=21 39 22 26 22 27 20 26 29 32 33 20
leaf_count=21 39 22 26 22 27 20 26 29 32 33 20
internal_value=-2.04086e-05 5.42827e-05 0.000245756 7.75291e-05 -0.000332572 0.0008706 0.000402872 -0.000173872 -0.000114452 2.63252e-05 0.00070353
internal_weight=317 296 198 156 98 42 68 88 71 62 42
internal_count=317 296 198 156 98 42 68 88 71 62 42
is_linear=0
shrinkage=0.0426353


Tree=64
num_leaves=12
num_cat=0
split_feature=75 57 47 27 57 75 73 30 56 45 30
split_gain=0.0125686 0.0110551 0.00803651 0.00698808 0.00620786 0.00502477 0.0046157 0.00444044 0.00370948 0.00325708 0.00252563
threshold=0.13564780123555165 -1.1661307942852013 -0.92386576925600594 34.330441248457269 -1.2949765073565083 0.18775960820074583 0.50643374589842283 0.002837392120695528 -0.12451627094104975 0.056041647799136472 0.0034993994910452624
decision_type=2 2 2 2 2 2 2 2 2 2 2
left_child=-1 4 5 6 9 -3 7 -4 -5 -2 -7
right_child=1 2 3 8 -6 10 -8 -9 -10 -11 -12
leaf_value=-0.0010274444421295803 -0.00032244795171732849 -0.00064840025955815962 0.0012837575979464915 -0.00037318396425670597 -0.00077365726102538021 0.00043992919908796159 0.00022890377494896844 0.00051745013095572036 0.00041056925008572926 0.00030023433064829946 -0.00018529287994277789
leaf_weight=21 37 23 27 23 35 23 29 28 21 26 24
leaf_count=21 37 23 27 23 35 23 29 28 21 26 24
internal_value=-1.95385e-05 5.19684e-05 0.000235278 0.000436148 -0.000318393 -0.000132027 0.000664146 0.000893637 8.8007e-07 -6.5468e-05 0.000120667
internal_weight=317 296 198 128 98 70 84 55 44 63 47
internal_count=317 296 198 128 98 70 84 55 44 63 47
is_linear=0
shrinkage=0.0426353


Tree=65
num_leaves=13
num_cat=0
split_feature=71 47 65 76 40 35 35 61 63 54 28 37
split_gain=0.0147972 0.0083794 0.00966088 0.00781602 0.00734076 0.0112406 0.00498536 0.00539793 0.00383537 0.003721 0.00220197 0.00181684
threshold=0.50811555928086471 -0.83183541240872527 0.20425376606534554 -0.26225394696656523 0.063220525667155483 0.028072563514241821 0.018472959033134916 0.28932879009086365 0.59147974665851988 0.13845531396388702 9.5798819897458092 -0.8340488130933239
decision_type=2 2 2 2 2 2 2 2 2 2 2 2
left_child=1 3 6 -1 -2 8 -3 9 -6 -8 11 -5
right_child=4 2 -4 10 5 -7 7 -9 -10 -11 -12 -13
leaf_value=-0.00081157798146570175 0.00035901654583363315 0.00010310490489855913 -0.00022985821046693194 5.3296220502218209e-05 -0.00059632679701775301 -0.0013028101983388347 0.0002405119836635406 0.0013107715787460256 0.00012428501716295204 0.00091778802170978577 -0.00015173560579020547 0.0006210962956389452
leaf_weight=20 20 24 29 20 25 25 30 26 29 29 27 21
leaf_count=20 20 24 29 20 25 25 30 26 29 29 27 21
internal_value=6.40203e-05 0.000254427 0.000461738 -7.06758e-05 -0.000370645 -0.000555369 0.000645741 0.000798956 -0.000209332 0.00057341 0.000147237 0.000344121
internal_weight=325 226 138 88 99 79 109 85 54 59 68 41
internal_count=325 226 138 88 99 79 109 85 54 59 68 41
is_linear=0
shrinkage=0.0426353


Tree=66
num_leaves=13
num_cat=0
split_feature=71 45 47 76 65 27 47 27 65 55 77 40
split_gain=0.0136103 0.0146009 0.00907365 0.0106654 0.00892224 0.00465972 0.00457799 0.00387543 0.00364628 0.00332098 0.00293461 0.00127637
threshold=0.52712549758218119 0.09094891791815328 -0.83183541240872527 -0.27623172604771862 0.20425376606534554 33.854912718531416 -0.55026499885412616 32.978389175782688 0.14529356229822735 0.1373626037976001 -1.0213027394625704 0.1149021271166787
decision_type=2 2 2 2 2 2 2 2 2 2 2 2
left_child=2 6 3 -1 5 8 9 11 -4 -2 -10 -5
right_child=1 -3 4 7 -6 -7 -8 -9 10 -11 -12 -13
leaf_value=-0.00091473729087072626 -0.00022947881029471682 -0.0014059840028021466 0.00039177257747460012 0.00019868938071469121 -0.00022005813129542297 0.00022749633594417186 -0.00063354164794836776 -0.00017479363767229517 0.00063855731094874689 0.0004874599905799149 0.0013003495042111781 0.00068036842152954238
leaf_weight=22 23 20 25 20 29 37 20 35 21 24 29 20
leaf_count=22 23 20 25 20 29 37 20 35 21 24 29 20
internal_value=6.12908e-05 -0.000395052 0.000228105 -8.9287e-05 0.000446453 0.000619031 -9.32807e-05 0.000152845 0.000812189 0.000136618 0.0010224 0.000439529
internal_weight=325 87 238 97 141 112 67 75 75 47 50 40
internal_count=325 87 238 97 141 112 67 75 75 47 50 40
is_linear=0
shrinkage=0.0426353


Tree=67
num_leaves=13
num_cat=0
split_feature=71 45 47 75 65 27 27 47 55 27 56 86
split_gain=0.0124745 0.0133824 0.00835671 0.0108351 0.00864506 0.00564026 0.00491424 0.00419594 0.00304383 0.00228107 0.0036221 0.00184541
threshold=0.52712549758218119 0.09094891791815328 -0.76896999692946588 0.16740719576488569 0.20425376606534554 32.978389175782688 33.854912718531416 -0.55026499885412616 0.1373626037976001 28.709946646007108 -0.34698755785102292 -0.60619811278524749
decision_type=2 2 2 2 2 2 2 2 2 2 2 2
left_child=2 7 3 -1 6 11 9 8 -2 -4 -11 -5
right_child=1 -3 4 5 -6 -7 -8 -9 -10 10 -12 -13
leaf_value=-0.00096024719108920241 -0.00021969489325904314 -0.0013460394015637773 0.0012022209253913676 0.00014936329639593645 -0.00021067587929021785 -0.00026941891641175399 0.00021711065774614641 -0.00060653036213711834 0.0004666769659089306 0.00023123718040901227 0.00098247362583142876 0.00067540541817953724
leaf_weight=20 23 20 21 22 29 35 36 20 24 20 28 27
leaf_count=20 23 20 21 22 29 35 36 20 24 20 28 27
internal_value=5.86776e-05 -0.000378208 0.00021838 -6.8391e-05 0.000440948 0.000143956 0.00062092 -8.93036e-05 0.000130793 0.000831604 0.000669458 0.000439223
internal_weight=325 87 238 104 134 84 105 67 47 69 48 49
internal_count=325 87 238 104 134 84 105 67 47 69 48 49
is_linear=0
shrinkage=0.0426353


Tree=68
num_leaves=13
num_cat=0
split_feature=71 45 32 71 56 28 74 84 64 57 63 56
split_gain=0.0114334 0.0122656 0.00703162 0.00969506 0.00708926 0.00628457 0.00492833 0.00444418 0.00313442 0.00284897 0.00228815 0.000924681
threshold=0.52712549758218119 0.09094891791815328 0.019464354504742206 0.31852718530053986 -0.2961136215441596 9.6589870140000489 0.17975232337561756 0.32164314619356449 0.27125573412979559 -1.3185795029922718 0.044258517230916693 -0.16323949489128811
decision_type=2 2 2 2 2 2 2 2 2 2 2 2
left_child=2 9 -1 5 -5 6 11 -8 10 -2 -7 -4
right_child=1 -3 3 4 -6 8 7 -9 -10 -11 -12 -13
leaf_value=0.00085690971901065862 0.00022326065265218514 -0.0012886505394552267 0.0010675746735198651 -0.0010094375264559949 0.00011216113693867398 -0.00054711519880768866 0.00062725554120280865 -0.00016104897349729588 0.00032843578919684364 -0.00033583948812436557 4.3676191683403423e-05 0.00065759172513062234
leaf_weight=27 30 20 20 21 20 22 26 26 30 37 26 20
leaf_count=27 30 20 20 21 20 22 26 26 30 37 26 20
internal_value=5.61759e-05 -0.000362083 0.000209069 0.00012617 -0.000462316 0.000268099 0.00050679 0.000233103 -1.34344e-05 -8.54961e-05 -0.000227103 0.000862583
internal_weight=325 87 238 211 41 170 92 52 78 67 48 40
internal_count=325 87 238 211 41 170 92 52 78 67 48 40
is_linear=0
shrinkage=0.0426353


Tree=69
num_leaves=13
num_cat=0
split_feature=71 55 47 76 27 77 77 47 36 55 27 40
split_gain=0.0104793 0.00833627 0.00740142 0.00893492 0.00617283 0.00658441 0.00723264 0.00397846 0.00376114 0.00296769 0.00292711 0.00105649
threshold=0.52712549758218119 0.11885204371717896 -0.83183541240872527 -0.2910503650788045 28.709946646007108 -0.51623566205734328 -0.83085799699206497 -0.020868190659391734 -0.7357493813384981 0.1373626037976001 32.978389175782688 0.1149021271166787
decision_type=2 2 2 2 2 2 2 2 2 2 2 2
left_child=2 -2 3 -1 -4 6 -6 -8 -3 -10 11 -5
right_child=1 8 4 10 5 -7 7 -9 9 -11 -12 -13
leaf_value=-0.00086494399860829194 -0.0011105141880670411 -0.00059140777432257357 0.00099064561107751179 0.00016049680151031403 0.00068103822524203099 0.0007717692547986048 -0.00066771827299164782 6.7016454689712148e-05 -0.00029324602531469873 0.00039756083731045977 -0.00015031422796307417 0.00059872673225769258
leaf_weight=21 20 21 26 20 24 33 21 37 20 26 36 20
leaf_count=21 20 21 26 20 24 33 21 37 20 26 36 20
internal_value=5.37808e-05 -0.000346646 0.000200155 -8.65017e-05 0.000397359 0.000263225 5.85664e-05 -0.000199008 -0.000118625 9.721e-05 0.000128594 0.000379612
internal_weight=325 87 238 97 141 115 82 58 67 46 76 40
internal_count=325 87 238 97 141 115 82 58 67 46 76 40
is_linear=0
shrinkage=0.0426353


Tree=70
num_leaves=11
num_cat=0
split_feature=46 56 50 61 56 86 46 77 28 46
split_gain=0.00720003 0.01073 0.00870773 0.00961648 0.00640639 0.0045015 0.00526503 0.00392715 0.00333776 0.00292325
threshold=-0.60840195720554069 -0.12965168920042955 0.26325002764434374 0.18735642804916888 -0.11821523584790085 -0.26781094065022498 0.47211721264560419 -0.83085799699206497 9.2573468238519201 1.0000000180025095e-35
decision_type=2 2 2 2 2 2 2 2 2 2
left_child=4 2 9 -4 -1 6 8 -5 -3 -2
right_child=1 5 3 7 -6 -7 -8 -9 -10 -11
leaf_value=0.00080997700335001279 -0.00024417410168269736 2.8950422513905457e-05 -0.0012593399845643438 0.00012384859465983789 -9.1031244902091909e-05 0.0005873756118827798 0.00044847834971210372 -0.00068173785146572613 -0.00069219713216838548 0.00035595696573945395
leaf_weight=32 36 28 31 22 26 35 30 22 20 25
leaf_count=32 36 28 31 22 26 35 30 22 20 25
internal_value=-2.17356e-05 -0.000121387 -0.000376503 -0.000684175 0.000406077 0.000185656 5.39769e-06 -0.000278945 -0.000271528 1.78125e-06
internal_weight=307 249 136 75 58 113 78 44 48 61
internal_count=307 249 136 75 58 113 78 44 48 61
is_linear=0
shrinkage=0.0426353


Tree=71
num_leaves=13
num_cat=0
split_feature=46 76 61 27 56 86 53 74 28 56 63 35
split_gain=0.00659916 0.0106852 0.00599407 0.00595205 0.00590928 0.00458216 0.00397033 0.00262308 0.00252061 0.00354643 0.00166408 0.000472674
