tree
version=v4
num_class=1
num_tree_per_iteration=1
label_index=0
max_feature_idx=94
objective=regression
feature_names=WeightedAverageNumberOfDilutedSharesOutstanding ROE ROA AssetTurnover DebtToEquity NetProfitMargin OperatingMargin EarningsPerShareDiluted_log GrossProfit_log NetIncomeLoss_log OperatingIncomeLoss_log Revenues_log Assets_log Liabilities_log NoncurrentAssets_log WeightedAverageNumberOfDilutedSharesOutstanding_log Equity_log ROE_log ROA_log BookValuePerShare_log SalesPerShare_log AssetTurnover_log DebtToEquity_log NetProfitMargin_log OperatingMargin_log EarningsPerShareDilutedTTM_log SalesPerShareTTM_log PE_Ratio PB_Ratio PS_Ratio MarketCapLog Price CostsAndExpenses_log Returns Returns_Daily lag_5 ma_5 std_5 skew_5 kurt_5 total_return_5 min_5 max_5 first_return_5 last_return_5 lag_25 ma_25 std_25 skew_25 kurt_25 total_return_25 min_25 max_25 first_return_25 last_return_25 lag_90 ma_90 std_90 skew_90 kurt_90 total_return_90 min_90 max_90 first_return_90 last_return_90 lag_180 ma_180 std_180 skew_180 kurt_180 total_return_180 min_180 max_180 first_return_180 last_return_180 lag_252 ma_252 std_252 skew_252 kurt_252 total_return_252 min_252 max_252 first_return_252 last_return_252 lag_504 ma_504 std_504 skew_504 kurt_504 total_return_504 min_504 max_504 first_return_504 last_return_504
feature_infos=none [0.059016846175089753:0.12085301938915137] [0.026409125174557273:0.051724328445618181] [0.072400750513744533:0.084561964339846224] [1.0074010572938992:1.4070681734915311] [0.44446564885496181:0.54186385147433569] [0.55057251908396942:0.68428630193336071] none none [-0.2620724782474565:0.38035125566227423] [-0.26883264193624457:0.20406197547334698] [-0.0021818190473334121:0.061074209167053473] [-0.026573199271776232:0.06722989750608728] [-0.053874954817960855:0.10245319423701718] none none [-0.037818095164317077:0.04348338325805743] [-0.28886094059116607:0.34058366936196632] [-0.32930237575354382:0.38646240300867135] none none [-0.021337970736749881:0.05559294446237141] [-0.084643392453311914:0.10002271399663019] [-0.14438282405152422:0.16377006400488511] [-0.17763672428483537:0.12965966960922867] none none none none none none [0.2821960110518672:0.57805609216149989] [-0.16433278885725869:0.30438124020941326] [-0.20019695664489071:0.41211136519180563] [-0.12061080298215622:0.10932184135190856] [-0.20019695664489071:0.41211136519180563] [-0.18579929888543395:0.34330304228521674] [0.0014446958479946573:0.099181104833830885] [-2.1963252397012365:2.2101992052729322] [-3.3299762742714827:4.9058651023562776] [-0.14972003046738977:0.16668527336637068] [-0.20019695664489071:0.33364615798223035] [-0.17156293266695138:0.41211136519180563] [-0.20019695664489071:0.41211136519180563] [-0.20019695664489071:0.41211136519180563] [-0.20019695664489071:0.41211136519180563] [-0.16742678687961576:0.31829830632791606] [0.0097375239778043302:0.12338139658509756] [-1.8258913400822552:2.4722359606618309] [-1.8040837927724231:7.5947104676587252] [-0.36069716854002654:0.1969545531688707] [-0.20019695664489071:0.28669538814211426] [-0.12722231970745518:0.41211136519180563] [-0.20019695664489071:0.41211136519180563] [-0.20019695664489071:0.41211136519180563] [-0.20019695664489071:0.41211136519180563] [-0.11980673554526852:0.26847807436907356] [0.02046911845781281:0.13627902174315393] [-1.7287038045517957:1.3512170787966107] [-1.5784643264986407:3.6692269131961317] [-0.23161896913165358:0.30876279135422552] [-0.20019695664489071:0.1715094707606053] [-0.044228375595396149:0.41211136519180563] [-0.20019695664489071:0.41211136519180563] [-0.20019695664489071:0.41211136519180563] [-0.20019695664489071:0.41211136519180563] [-0.085737358198262836:0.23116219853038519] [0.028091852464514431:0.11182592368028439] [-1.1119237911969047:1.4589705428943915] [-1.2320096848824111:5.5960049465172146] [-0.22124374291224022:0.3640093668736229] [-0.20019695664489071:0.11230284593117043] [0.046233244680614349:0.41211136519180563] [-0.20019695664489071:0.41211136519180563] [-0.20019695664489071:0.41211136519180563] [-0.20019695664489071:0.41211136519180563] [-0.056811133057700393:0.22439119105860644] [0.047680472104543653:0.099276842623301109] [-1.0244644771046003:1.375529666670597] [-1.0418476576772029:5.868248848112648] [-0.20019695664489115:0.41211136519180674] [-0.20019695664489071:0.11230284593117043] [0.099622150070351273:0.41211136519180563] [-0.20019695664489071:0.41211136519180563] [-0.20019695664489071:0.41211136519180563] [-0.10837852203866702:0.41211136519180563] [0.0056777125259932851:0.16160698565625747] [0.071041786864546139:0.11752366855477069] [-0.32910964129459447:0.62880890159531344] [-0.87388327656199616:1.1834690759170916] [-0.11151326361668015:0.49539966372935285] [-0.20019695664489071:-0.10837852203866702] [0.20075965532253182:0.41211136519180563] [-0.10837852203866702:0.41211136519180563] [-0.20019695664489071:0.41211136519180563]
tree_sizes=4136 4427 4168 4599 4462 4444 4647 4810 4561 4637 4174 4458 4467 4371 4475

Tree=0
num_leaves=44
num_cat=0
split_feature=86 56 51 67 86 1 86 64 60 31 65 50 31 78 64 51 56 56 86 52 66 49 4 57 59 60 31 50 67 50 46 79 50 59 60 69 56 69 31 2 31 46 60
split_gain=1.31465 0.225573 0.199371 0.138283 0.0674004 0.0694111 0.0629732 0.04106 0.0285642 0.0257597 0.0189484 0.0186311 0.0174999 0.0142664 0.00982718 0.00978053 0.009449 0.00886683 0.00853086 0.00721673 0.00676017 0.00647798 0.00600752 0.00548343 0.00552503 0.00547264 0.00492882 0.00466299 0.00433224 0.00410753 0.0032957 0.00276731 0.0021872 0.00211813 0.00170664 0.00128252 0.001128 0.00109199 0.00103397 0.000863652 0.000762469 0.000498057 0.000127791
threshold=0.096491509549228943 0.1268287311378965 0.080994506379431716 0.04965954256143696 0.06010435182118061 0.083312846000700394 0.0077739001820516388 0.28176561115565329 -0.039241757152367371 0.48023265400314702 0.072284616985820602 0.077880962325227038 0.38277840168992694 -0.2436614395955935 -0.082775140008295819 -0.012095990256998252 0.089551406184171498 0.17611994439297532 0.0151911413845924 0.19986607378401636 0.092244095581424643 -0.77610002782258081 1.0175262895031707 0.027752234893391733 -0.31660393023293026 -0.0064900366483544641 0.43578430060290357 0.03513243371342592 0.071370536119838762 0.037331103813287976 0.13315960019055748 -0.82589945939809273 0.0041505129693549274 -0.5506003938089773 0.015304551399072835 0.074379202977479131 0.14477307288397051 -1.1313073672450369 0.497311809588457 0.048632102133649602 0.34015764638216911 0.09335141274543747 0.096464374265846725
decision_type=10 10 10 8 10 2 10 8 10 2 10 8 2 8 10 10 10 10 8 10 10 10 2 10 10 10 2 10 10 10 10 10 10 10 10 8 10 8 2 2 2 10 10
left_child=2 9 3 -1 5 11 7 23 12 20 -3 16 -7 -10 -6 25 22 36 41 28 -2 -9 -5 27 32 -15 -14 33 38 37 -20 34 -25 -4 -27 -34 -12 -24 -11 -36 -39 -17 -31
right_child=1 10 6 4 14 8 -8 21 13 19 17 -13 26 15 -16 18 -18 -19 30 -21 -22 -23 29 24 -26 31 -28 -29 -30 42 -32 -33 35 -35 39 -37 -38 40 -40 -41 -42 -43 -44
leaf_value=-0.01006945356610852 -0.0082902352782522042 -0.013139594032441707 -0.0078650914854029187 -0.0075046799461943548 -0.0074180116508982263 -0.0048316013750810734 -0.0064977803542302561 -0.009701555577543524 -0.0072989490844567739 -0.0094554768086629552 -0.011314799070751377 -0.0084237523629388973 -0.0056881063266036452 -0.0060286572453235659 -0.0083879807202781979 -0.0065696063600618505 -0.0079169918128976779 -0.012585720647853214 -0.0053334230175633435 -0.010629864744778419 -0.0092578418653029917 -0.0088630028109718904 -0.0063479462037917666 -0.0078116115650663526 -0.0074538902428163906 -0.0065261174631078772 -0.0065171014825404772 -0.0088662676370064152 -0.010357039368832094 -0.0070676446641107062 -0.0060208028098493269 -0.0062353504212663627 -0.0084185568873196767 -0.0084093109546149319 -0.0070826023315242442 -0.0080109936116839978 -0.011704157169087494 -0.0065985521031666832 -0.0098228185673182328 -0.006733313315523029 -0.0069186667541580576 -0.0062786923086778999 -0.007216383964633733
leaf_weight=23 21 27 26 27 39 38 37 34 29 30 21 20 32 30 37 20 20 21 32 27 35 33 20 35 36 28 22 23 20 21 21 20 32 26 31 25 38 38 26 22 21 23 21
leaf_count=23 21 27 26 27 39 38 37 34 29 30 21 20 32 30 37 20 20 21 32 27 35 33 20 35 36 28 22 23 20 21 21 20 32 26 31 25 38 38 26 22 21 23 21
internal_value=-0.00800266 -0.0106495 -0.00725525 -0.00682397 -0.006702 -0.00653352 -0.00814731 -0.00837335 -0.00617691 -0.00963097 -0.012163 -0.00719363 -0.00553257 -0.00640847 -0.00789023 -0.00629471 -0.00704718 -0.0118334 -0.0059678 -0.0100311 -0.00889499 -0.00928854 -0.00692964 -0.0080713 -0.00790168 -0.00653429 -0.00602585 -0.00836078 -0.0098184 -0.00680133 -0.00560578 -0.00668447 -0.0080769 -0.0081372 -0.00679537 -0.0082398 -0.0115656 -0.0066202 -0.00962603 -0.00693761 -0.00671249 -0.006414 -0.00714201
internal_weight=1208 266 942 635 612 536 307 270 348 159 107 188 92 256 76 227 168 80 96 103 56 67 148 203 128 131 54 75 76 121 53 101 92 52 81 57 59 79 56 53 59 43 42
internal_count=1208 266 942 635 612 536 307 270 348 159 107 188 92 256 76 227 168 80 96 103 56 67 148 203 128 131 54 75 76 121 53 101 92 52 81 57 59 79 56 53 59 43 42
is_linear=0
shrinkage=1


Tree=1
num_leaves=47
num_cat=0
split_feature=86 51 72 67 86 1 86 31 64 12 45 31 50 53 50 59 54 57 70 49 73 59 78 3 70 48 50 40 67 93 50 59 66 45 40 31 50 55 66 57 58 58 53 58 31 1
split_gain=1.20493 0.182733 0.168109 0.126743 0.0617756 0.0636186 0.0577314 0.0504017 0.0371579 0.0212828 0.0198382 0.019479 0.0170763 0.0157057 0.0143928 0.0107862 0.00900707 0.00866733 0.0070583 0.00593737 0.00592808 0.00590414 0.00577301 0.00557917 0.005533 0.00654243 0.00389748 0.00384848 0.00357724 0.00343692 0.00335727 0.00321187 0.00287406 0.00250685 0.00136607 0.00131419 0.0011334 0.000995804 0.000978497 0.000909221 0.000820778 0.000726091 0.000645614 0.000541114 0.000533603 0.000107824
threshold=0.096491509549228943 0.080994506379431716 0.3085588044253702 0.04965954256143696 0.06010435182118061 0.083312846000700394 0.0075495417170424158 0.50201320834905505 0.28176561115565329 0.029065594939550844 0.1601824282252419 0.48023265400314702 0.077880962325227038 0.098661868580978196 0.020964610881199244 -1.1923141597022693 -0.082775140008295819 0.034832007362592336 0.11430187561531575 -0.77610002782258081 0.045099129268618122 -0.11828714977947548 -0.073664719944773138 0.07293888225261401 0.14423469421438437 -0.13819925080249634 0.037331103813287976 0.0084967192388237106 0.071370536119838762 0.16726970288439497 0.025869510218269054 -0.23080754581127849 0.092244095581424643 0.089634550694044593 0.015244123019737344 0.49391416924553649 -0.0057700193080831687 0.085372350773930558 0.059838715839389552 0.040025637792156211 0.084602551623257277 0.10654426562288936 0.19141627040576017 -0.15137913346555673 0.33970793369190516 0.075946481517632849
decision_type=10 10 10 8 10 2 10 2 8 2 10 2 8 8 10 8 10 8 10 10 10 10 10 8 10 10 10 10 10 8 10 10 10 8 10 2 10 10 10 10 10 10 10 10 2 2
left_child=1 3 11 -1 5 12 8 21 24 14 20 32 17 -11 18 -16 -6 -5 29 -10 -9 -4 -17 -19 31 -26 39 -15 35 36 42 38 -2 -31 40 -13 -7 -12 -3 44 -24 -20 -27 -40 -25 -28
right_child=2 6 7 4 16 9 -8 10 19 13 37 28 -14 27 15 22 -18 23 41 -21 -22 -23 34 26 25 30 45 -29 -30 33 -32 -33 -34 -35 -36 -37 -38 -39 43 -41 -42 -43 -44 -45 -46 -47
leaf_value=-0.0019792214535479403 -0.00027586077274369721 -0.00015076814673206765 -0.0027437462541900527 0.00010396659990196659 0.00055917531200942369 0.0019594948015282721 0.0013936186560821709 -0.0051199867473964876 -0.0016270089424695049 0.0016646210063121904 -0.0036221079849423654 -0.001368150959601025 -0.000403685300633328 0.0033514696855890353 0.0019457655080096787 0.00057399506906569717 -0.00036943879802792942 0.00047620213287049299 0.0012086830417496514 -0.00082420814908082721 -0.0042048780665971362 -0.0017077741515394076 0.0016141627987997754 0.0013441080252520081 -0.00074329948002066634 2.5197238020208391e-05 0.00075175821513522457 0.002525086533288349 -0.0022545458593618041 0.0026035988287677753 -0.00045438721232707042 0.00064079388369325428 -0.00097317849055698002 0.0020378538543828432 0.0010240573498171801 -0.0017762363289194759 0.0015360330165846028 -0.003246447635553542 0.00030537105668449529 0.0015726502257351071 0.0012279001441625392 0.0015676318332270001 0.00035216812679873751 1.2911894783249601e-05 0.0010736777085766458 0.00088853923129184672
leaf_weight=23 21 31 20 21 39 27 39 22 34 30 23 26 20 21 31 33 37 27 20 33 31 20 20 36 37 23 20 20 20 24 23 20 22 35 26 32 20 29 23 21 20 21 21 23 21 22
leaf_count=23 21 31 20 21 39 27 39 22 34 30 23 26 20 21 31 33 37 27 20 33 31 20 20 36 37 23 20 20 20 24 23 20 22 35 26 32 20 29 23 21 20 21 21 23 21 22
internal_value=-5.42626e-07 0.000714997 -0.00253452 0.00112789 0.00124466 0.00140595 -0.000139027 -0.00351363 -0.000362062 0.00174736 -0.00400425 -0.0013612 0.000773994 0.00240593 0.00157855 0.00125175 0.000107087 0.000914194 0.00186757 -0.0012316 -0.00458473 -0.00222576 0.00103443 0.00102994 -7.22157e-05 -0.000288249 0.00115453 0.00294836 -0.00176285 0.0020513 -3.69528e-05 0.000159408 -0.000632628 0.00226799 0.00126465 -0.0015933 0.0017793 -0.00341261 3.43727e-05 0.00133283 0.00142103 0.00139253 0.000181252 0.000159141 0.00124448 0.000823405
internal_weight=1208 942 266 635 612 536 307 145 268 348 105 121 188 71 277 130 76 168 147 67 53 40 99 147 201 104 120 41 78 106 67 97 43 59 66 58 47 52 77 78 40 41 44 46 57 42
internal_count=1208 942 266 635 612 536 307 145 268 348 105 121 188 71 277 130 76 168 147 67 53 40 99 147 201 104 120 41 78 106 67 97 43 59 66 58 47 52 77 78 40 41 44 46 57 42
is_linear=0
shrinkage=0.0426353


Tree=2
num_leaves=44
num_cat=0
split_feature=86 56 51 78 86 2 86 64 60 36 73 77 73 3 72 57 56 54 51 17 49 70 48 55 60 48 69 46 40 59 59 37 78 87 60 60 42 59 40 40 60 49 34
split_gain=1.10438 0.190274 0.167483 0.116243 0.0563466 0.0592355 0.0530402 0.0344704 0.0247127 0.0179533 0.0179419 0.015073 0.0145176 0.0131586 0.012339 0.0116303 0.00991407 0.00825541 0.00729567 0.00775949 0.00544188 0.00519727 0.00620944 0.00501328 0.00497004 0.00472029 0.00348214 0.00314154 0.00307564 0.0029429 0.00257602 0.00243737 0.00202794 0.00156138 0.00142004 0.00126826 0.000953909 0.00107472 0.000831644 0.000639458 0.000456118 0.000365763 0.00026694
threshold=0.096491509549228943 0.1268287311378965 0.080994506379431716 0.53370257092861562 0.06010435182118061 0.039402401652716676 0.0077739001820516388 0.28176561115565329 -0.039241757152367371 0.0051223933375669469 0.037710803329947577 0.089506084772545555 0.22905117884702944 0.07293888225261401 0.22983792616017726 0.034832007362592336 0.178653119631076 -0.082775140008295819 -0.012095990256998252 0.020930445469828633 -0.77610002782258081 0.15197303324696854 -0.13819925080249634 0.10794443190585458 -0.0064900366483544641 -0.32448163948804792 -0.68023523412131992 0.20031613588932004 0.013027390033017524 0.19465871159368883 -0.33204325566941989 0.0064043047528418492 0.065117058224635968 0.11666691762857982 0.033849202662334786 0.02751980298331818 0.19751314107456167 -0.27898678105040925 0.0043347778518569276 -0.0014509425381702197 0.12219694485300549 -0.31690233186330202 0.0015090287266797287
decision_type=10 10 10 10 10 2 10 8 10 10 10 10 8 8 10 8 10 10 10 2 10 10 10 10 10 10 10 10 8 10 10 10 10 10 10 10 10 10 10 10 8 10 10
left_child=2 9 3 4 5 13 7 21 12 -2 -3 18 26 28 29 -15 36 -6 24 42 -9 30 -23 -16 -10 -21 -7 -24 -1 -11 35 38 34 -34 -26 -4 37 -12 -17 -31 -40 -37 -20
right_child=1 10 6 -5 17 8 -8 20 11 14 16 -13 -14 15 23 31 -18 -19 19 25 -22 22 27 -25 32 -27 -28 -29 -30 39 -32 -33 33 -35 -36 41 -38 -39 40 -41 -42 -43 -44
leaf_value=0.00045925380075639507 -0.00066836532230921846 -0.0049016942991503302 0.0002946419141605327 -0.0019651927404234922 0.00053533467723768243 0.0013917096508402717 0.0013807548543059637 -0.0015576408376044638 0.0017997865441007281 -0.00095285480616365422 -0.0036033510964466552 0.00039051934019742723 0.0029401741757865362 5.5263181459865942e-05 -0.0027573035275452826 0.0011684828186255697 -0.0043394515445851342 -0.00035368764349442148 0.0014875055163166382 0.0016520218591360499 -0.00078906773533107854 -0.00074422959951497727 0.00022315788152151006 -0.0019066098041623817 0.0012352709610454725 0.0024406422362369395 0.0020933601523449529 -0.00039897684777938234 -0.00024587517973796935 -0.0013863677742319152 0.00046080779279735829 0.0014858572262919229 0.0016655597441585304 0.0011855845289338843 0.00078523376590887266 -0.00019159918665244817 -0.0030277154149471268 -0.0031814900776852718 0.0007792453444071183 -0.0017045954279297768 0.0010139664785413494 3.2831686518827272e-05 0.001267224683023823
leaf_weight=22 37 22 20 22 39 20 37 34 34 22 21 22 36 23 20 36 21 37 20 22 33 35 36 34 26 37 36 25 23 22 32 24 22 28 25 33 20 23 27 24 34 22 20
leaf_count=22 37 22 20 22 39 20 37 34 34 22 21 22 36 23 20 36 21 37 20 22 33 35 36 34 26 37 36 25 23 22 32 24 22 28 25 33 20 23 27 24 34 22 20
internal_value=-5.19489e-07 -0.00242646 0.000684512 0.0010798 0.00118908 0.00134286 -0.0001331 -0.000340554 0.00167286 -0.00149103 -0.00381649 0.00145747 0.00227219 0.000735238 -0.00174052 0.000934108 -0.00353562 0.000102521 0.00155779 0.00183579 -0.00117909 -6.37959e-05 -0.00029155 -0.00222168 0.00135392 0.00214658 0.00184277 -3.18154e-05 9.88545e-05 -0.00135843 0.000140544 0.00110116 0.00120383 0.00139677 0.00101466 3.89816e-06 -0.00327186 -0.00338283 0.00100598 -0.0015524 0.000910074 -0.000101827 0.00137737
internal_weight=1208 266 942 635 613 537 307 270 348 159 107 256 92 189 122 144 85 76 234 99 67 203 96 54 135 59 56 61 45 68 107 121 101 50 51 75 64 44 97 46 61 55 40
internal_count=1208 266 942 635 613 537 307 270 348 159 107 256 92 189 122 144 85 76 234 99 67 203 96 54 135 59 56 61 45 68 107 121 101 50 51 75 64 44 97 46 61 55 40
is_linear=0
shrinkage=0.0426353


Tree=3
num_leaves=49
num_cat=0
split_feature=86 51 72 78 86 1 86 31 64 77 60 45 31 3 57 31 51 31 86 59 31 65 72 53 69 16 55 69 67 33 60 79 40 66 46 69 31 59 84 49 31 59 37 1 60 53 59 40
split_gain=1.01222 0.153506 0.14142 0.106543 0.0516443 0.0542921 0.0486138 0.0424939 0.0315937 0.0227629 0.0230726 0.0167582 0.0167563 0.0120605 0.0106599 0.00987452 0.00883309 0.00778576 0.00623747 0.00515838 0.0050161 0.00474684 0.00441329 0.00411056 0.00350457 0.00330319 0.00468838 0.00321549 0.00298822 0.00293991 0.00288828 0.00299844 0.00281897 0.0025945 0.0024315 0.00222904 0.00223378 0.00219714 0.00184113 0.00131078 0.00107828 0.000918301 0.000894504 0.000639826 0.00056524 0.000432272 0.000242731 0.000173287
threshold=0.096491509549228943 0.080994506379431716 0.3085588044253702 0.53370257092861562 0.06010435182118061 0.083312846000700394 0.0077739001820516388 0.50201320834905505 0.28176561115565329 0.089427363757420483 -0.032216336829390381 0.1601824282252419 0.48023265400314702 0.07293888225261401 0.034387799208920787 0.38277840168992694 -0.012095990256998252 0.4855850042947652 0.0151911413845924 -0.11828714977947548 0.45522109548708239 0.043749212792278558 0.1715820994402345 0.20235953254939351 -0.56022946459115119 0.017940529057169335 0.1849020384540814 0.074379202977479131 0.071370536119838762 0.12002199835308676 0.0071746602521345669 -0.83169073668710192 0.013027390033017524 0.092244095581424643 0.13315960019055748 -1.1197369214372077 0.34634077219593201 -0.92518459787056606 -0.10444816968793623 -0.30361124235105236 0.49391416924553649 -0.86770819531553955 0.015170007118305068 0.075946481517632849 0.058862207461345607 0.19401560109018831 -0.74027383032863592 0.0073365360812573588
decision_type=10 10 10 10 10 2 10 2 8 10 10 10 2 8 8 2 10 2 8 10 2 10 10 10 10 2 10 10 10 8 10 10 8 10 10 8 2 10 10 10 2 10 10 2 10 10 10 10
left_child=1 3 12 4 5 13 8 19 22 10 15 21 33 32 -15 29 30 38 46 -4 23 -9 25 -10 -24 39 -27 -26 40 -7 41 44 -1 -2 -20 -16 43 -17 -6 -3 -14 -12 -13 -37 -32 -29 -18 -45
right_child=2 6 7 -5 17 9 -8 11 20 -11 16 42 28 14 35 37 18 -19 34 -21 -22 -23 24 -25 27 26 -28 45 -30 -31 31 -33 -34 -35 -36 36 -38 -39 -40 -41 -42 -43 -44 47 -46 -47 -48 -49
leaf_value=0.00043967335883017593 -0.00023213784632065171 -0.00019251782453938204 -0.002522675853958929 -0.0018814061494291908 0.00067454463683058003 0.0031504370925745768 0.0013218858740595707 -0.0047031331911166051 -0.0012465107206336766 0.00058641126571408193 0.0016861390728246091 -0.0032732905275982475 -0.0012604643852966199 3.0442652338383202e-05 0.0014281520643564789 0.0021487127217830054 0.0014981988122706781 -0.00048318911735136753 0.002323838915684264 -0.0015543386745975941 -0.0016943408025549814 -0.0038781872355962712 0.00063699051827739229 -0.0004445132452935563 -0.00041914925846147771 -0.0010028114276138271 -0.00017554169568306257 9.4563588174812114e-05 -0.0020687663221619812 0.0024281594330489101 0.0010203338657698187 0.0014718256193334469 -0.0002353922131389542 -0.0008946738173973511 0.0017369755529678017 0.001236096961135957 0.00061378290506573839 0.0015816413278884915 0.00015174590147264968 0.0002294485182956045 -0.0016301126618497848 0.0013070729340687655 -0.0029129010102984096 0.0010687294201801823 0.00073468758391933273 0.00034509336304835064 0.0012881440991730192 0.00090102542683730678
leaf_weight=22 21 32 20 22 25 20 37 21 26 36 26 31 26 22 23 27 20 27 33 20 20 32 21 21 22 20 33 31 20 21 34 26 23 22 21 29 25 23 24 23 32 21 21 21 20 21 20 24
leaf_count=22 21 32 20 22 25 20 37 21 26 36 26 31 26 22 23 27 20 27 33 20 20 32 21 21 22 20 33 31 20 21 34 26 23 22 21 29 25 23 24 23 32 21 21 21 20 21 20 24
internal_value=-4.97338e-07 0.000655328 -0.00232301 0.00103376 0.00113838 0.00128561 -0.000127425 -0.00322104 -0.000326034 0.00160154 0.00171867 -0.00367153 -0.00124685 0.000703891 0.000894282 0.00229003 0.0014834 9.81501e-05 0.0017967 -0.00203851 -0.00112882 -0.00420505 -6.10759e-05 -0.000888171 0.000150884 -0.000247522 -0.000487719 1.29344e-05 -0.00161937 0.00278049 0.0012515 0.00109566 9.46398e-05 -0.00057111 0.00209561 0.00105006 0.000962215 0.00188786 0.00041848 -1.60592e-05 -0.00146441 0.00151677 -0.00312775 0.00107993 0.000914539 0.000195739 0.00139317 0.000979287
internal_weight=1208 942 266 635 613 537 307 145 270 348 312 105 121 189 144 91 221 76 94 40 67 53 203 47 95 108 53 74 78 41 127 80 45 43 54 122 99 50 49 55 58 47 52 74 54 52 40 45
internal_count=1208 942 266 635 613 537 307 145 270 348 312 105 121 189 144 91 221 76 94 40 67 53 203 47 95 108 53 74 78 41 127 80 45 43 54 122 99 50 49 55 58 47 52 74 54 52 40 45
is_linear=0
shrinkage=0.0426353


Tree=4
num_leaves=47
num_cat=0
split_feature=86 56 70 78 42 10 10 10 68 73 76 66 36 63 73 72 56 70 59 42 40 40 70 57 51 74 86 59 78 56 36 59 49 66 58 78 38 59 68 34 34 34 56 59 34 40
split_gain=0.927775 0.162434 0.143735 0.0840349 0.051699 0.0501026 0.0355909 0.023412 0.0200916 0.0187681 0.0174994 0.0180132 0.0162521 0.0148077 0.0142631 0.0112747 0.00798501 0.0078985 0.00731353 0.00639357 0.00633041 0.00621813 0.00405266 0.00404989 0.00383802 0.00371903 0.00368402 0.00308501 0.00286588 0.00259331 0.00255751 0.00248469 0.00247924 0.00215745 0.00185394 0.00157909 0.00151829 0.00139213 0.00130268 0.00106722 0.000677723 0.000590977 0.000519757 0.000857487 0.000252669 0.000166979
threshold=0.096035076151533824 0.12845249938965234 0.098423901173208012 0.24792485917607157 0.20076483783907451 0.071652964395943736 0.0040653045844606167 1.0000000180025095e-35 -0.01179286642084868 0.071806836511624908 -0.019603172998355178 0.1863474421603632 0.0051223933375669469 0.24854436398110047 0.037710803329947577 0.22983792616017726 0.178653119631076 0.17425306029716567 -0.29280125714431721 0.18687381047678273 0.013027390033017524 0.0011371765793878131 -0.0061393272527634898 0.057204692967194999 0.00053029590354682641 -0.032124230117519907 0.03476128755367916 -0.098624441356923651 0.71976049337486336 0.20444189985592651 -0.081962178860971832 0.19465871159368883 -0.67296213622029966 0.15741963611277124 0.53092823597517225 -0.004578059878635043 0.071063912019277517 -0.52656374679875739 -0.1059582694811388 0.00086717539680725186 -0.0041188480304435665 -1.0000000180025095e-35 0.14477307288397051 -0.25463652228155692 0.0024156874258908752 0.012131284038220882
decision_type=10 10 10 10 10 2 2 2 10 8 8 10 10 8 10 10 10 10 8 8 10 8 10 10 10 10 8 8 10 10 10 10 8 10 8 8 8 10 10 10 10 10 10 10 10 10
left_child=2 12 5 4 7 6 10 27 19 -8 23 18 -2 29 -3 31 42 34 22 20 -7 32 -12 -1 -17 -10 -27 38 -5 39 -23 -14 -11 36 -9 -24 -20 -31 -4 -6 -38 -33 -16 -44 -36 -42
right_child=1 14 3 28 13 8 9 17 25 21 11 -13 15 -15 16 24 -18 -19 33 -21 -22 30 35 -25 -26 26 -28 -29 -30 37 -32 41 -34 -35 44 -37 40 -39 -40 -41 45 -43 43 -45 -46 -47
leaf_value=0.0021321302001046471 -0.00061762756503729911 -0.0044953863899936828 0.00019910272283228387 -0.0014513495390864716 0.00019943612672418203 0.0029994514092597097 0.0011622586607893579 0.0016345625392103394 0.0016533814199650859 1.2752133912305999e-05 0.00090313533219471282 0.0020577679765697594 -0.0008711552311980288 -0.0011856569057167254 -0.002847764220442557 -0.0023140298685664614 -0.0039898709819890747 0.00047800757591711886 0.00055464656799583483 0.0016965392493043117 0.0019858282188829255 -5.9783927118238572e-05 0.00045979467486337902 0.0013434967650850051 -0.0015809603906889586 0.0013508045113402793 0.00066465655108524494 0.00056571015092947419 -0.0021302033472940579 -0.00061888535012242921 -0.00060568810822947546 -0.0012757390702589854 0.00064415426617760185 0.0013038347289651953 0.0012944227239932138 -3.980674191875586e-05 0.0011839460942509184 -0.0001547022580981178 -0.00023597077265790611 -0.00015766158809908155 0.00096489433141177887 -0.0015816654309795937 -0.0033126711938873377 -0.0029225936430444634 0.0010876664290043307 0.00083661679985770631
leaf_weight=29 39 22 22 26 32 24 32 29 28 20 23 23 22 33 20 37 21 24 20 27 21 39 23 20 20 33 25 21 20 24 26 24 26 29 22 23 20 23 29 29 39 22 20 21 21 35
leaf_count=29 39 22 22 26 32 24 32 29 28 20 23 23 22 33 20 37 21 24 20 27 21 39 23 20 20 33 25 21 20 24 26 24 26 29 22 23 20 23 29 29 39 22 20 21 21 35
internal_value=-4.76131e-07 -0.00221334 0.000630425 -4.63596e-05 0.000206736 0.00104112 0.000801109 0.000711963 0.00168977 0.000252559 0.00107732 0.000924494 -0.00137747 -0.000395236 -0.00353143 -0.00161454 -0.00327281 0.00114784 0.000801544 0.00221522 0.00252643 -9.69739e-06 0.000441041 0.00181024 -0.00205681 0.00124986 0.00105505 0.000130792 -0.0017465 -0.000153719 -0.000278146 -0.00124382 0.000369632 0.000975493 0.00137112 0.000209994 0.000891968 -0.000391732 -4.8292e-05 2.96684e-05 0.000963738 -0.00142205 -0.00302595 -0.00311288 0.00119345 0.000904223
internal_weight=1208 268 940 355 309 585 427 168 158 143 284 235 164 141 104 125 82 96 212 72 45 111 69 49 57 86 58 72 46 108 65 68 46 143 72 46 114 47 51 61 94 46 61 41 43 74
internal_count=1208 268 940 355 309 585 427 168 158 143 284 235 164 141 104 125 82 96 212 72 45 111 69 49 57 86 58 72 46 108 65 68 46 143 72 46 114 47 51 61 94 46 61 41 43 74
is_linear=0
shrinkage=0.0426353


Tree=5
num_leaves=47
num_cat=0
split_feature=86 56 51 78 10 86 76 64 56 60 31 31 50 47 45 90 48 31 72 71 80 73 66 44 50 60 44 72 22 68 46 50 31 70 50 88 31 58 31 50 93 36 56 73 31 1
split_gain=0.861501 0.148193 0.129914 0.0789994 0.042995 0.0401372 0.0307402 0.0260217 0.0244538 0.0235741 0.0170441 0.0158225 0.0173218 0.0126955 0.0113924 0.00717733 0.00705121 0.00693844 0.00614641 0.00527611 0.00382595 0.00360852 0.00359772 0.00355407 0.00324233 0.00300517 0.0027043 0.00252969 0.00247238 0.00236671 0.00214364 0.00200618 0.00181968 0.00124828 0.00122945 0.00118521 0.00112223 0.00104322 0.00199552 0.00102657 0.000908285 0.000701784 0.00067104 0.000471365 0.000395318 0.00019208
threshold=0.096035076151533824 0.1268287311378965 0.080994506379431716 0.5116774185208649 0.071652964395943736 0.0079651884132880251 -0.013026891925664743 0.30827814187219377 0.15460516254488674 -0.015151568373108175 0.48255205373139981 0.46239241971044082 -0.12916085206550579 0.022726691867706338 0.097876661470822732 0.38876677478927923 1.110945629148387 0.38413978562488893 0.22983792616017726 -0.14231081989668629 0.11883891537553284 0.045099129268618122 0.092244095581424643 0.22818250898376316 0.044413465518144582 0.015791700323293693 0.18546785185126033 0.35075312730884928 0.010624935209521147 -0.58854549385908472 0.19434232958272749 0.020964610881199244 0.48113841208793146 0.16356706181033356 0.03282776875573603 0.03771859542677939 0.35353210985818079 -0.15655533953045075 0.34634077219593201 -0.0017229646682755428 0.18519107286212297 0.0041551251606364225 0.099550571384752373 0.13680759314085042 0.49611745344215669 0.075946481517632849
decision_type=10 10 10 10 2 10 8 8 10 10 2 2 10 10 10 10 10 2 10 10 8 10 10 10 10 10 10 8 2 8 10 10 2 10 10 10 2 8 2 10 10 10 10 10 2 2
left_child=2 10 3 4 6 7 16 15 11 17 22 12 -8 21 25 26 31 20 44 34 -6 -3 -2 -9 28 -11 27 42 -14 -28 -31 35 -21 -32 -13 -1 -26 -30 45 -27 -15 -24 -4 -44 -12 -39
right_child=1 13 5 -5 9 -7 8 23 -10 14 18 19 24 40 -16 -17 -18 -19 -20 32 -22 -23 41 -25 36 39 29 -29 37 30 33 -33 -34 -35 -36 -37 -38 38 -40 -41 -42 -43 43 -45 -46 -47
leaf_value=0.0012778702782400534 -0.00028262960582899332 -0.0042703545066030829 -0.00018084427975680433 -0.0015962281504798641 0.0029738785736575851 0.0012468546697495713 -0.00048510713627037538 -0.0006548880023811857 0.0018061979519442919 0.0012367884343395313 -0.0012219540110738937 0.00059427625237615418 0.00064548694730276186 -0.0030756242657918541 0.0019776572489869754 -0.00082951190607354227 0.0021094087083193013 0.0016091337361603968 -0.0020619643263146215 -5.4179296474690403e-05 0.0022017917930561752 -0.0035524496619469947 -0.0007931881063411721 -0.0013711549433857214 0.00071403188773235167 0.00091966609764386822 0.00027100486729800157 0.00048634455299467364 0.0012969523232054946 0.00010613807943238538 -0.00014306197409415188 0.0010274968706929372 -0.00060482669047458564 -0.00055767027526620828 0.00013292616533730283 0.0016692412893353119 0.00029498425087535075 0.0011953299397180835 0.00066380336219046179 0.00048768670394362809 -0.0027220587839283717 -0.0011503551446521039 0.00023092854738130533 -3.8397006805307984e-05 -0.0014697592382892696 0.0010359510555972759
leaf_weight=39 21 20 20 21 20 36 20 20 29 37 25 21 39 25 27 20 22 22 39 24 28 35 20 34 26 20 20 32 23 22 22 39 20 33 21 22 21 28 26 20 28 20 27 21 22 27
leaf_count=39 21 20 20 21 20 36 20 20 29 37 25 21 39 25 27 20 22 22 39 24 28 35 20 34 26 20 20 32 23 22 22 39 20 33 21 22 21 28 26 20 28 20 27 21 22 27
internal_value=3.95086e-05 -0.00216062 0.000630691 0.000975649 0.00106262 -9.06872e-05 0.000841284 -0.000268368 0.000624659 0.00163123 -0.00127963 0.0005089 0.000708381 -0.00335973 0.00122409 -5.99572e-05 0.00141836 0.00223612 -0.00166628 2.17955e-05 0.00252349 -0.00381351 -0.000734526 -0.00110587 0.000834012 0.000959847 1.81702e-05 0.000173749 0.000934984 -0.00014222 -0.000249551 0.00126633 -0.000304474 -0.000391827 0.000363601 0.00141902 0.000526798 0.00104355 0.00097159 0.000703676 -0.00288883 -0.000971772 2.66448e-05 0.000113099 -0.00133795 0.00111709
internal_weight=1204 255 949 642 621 307 447 271 325 174 147 296 210 108 104 217 122 70 86 86 48 55 61 54 190 77 197 100 143 97 77 100 44 55 42 61 47 104 81 40 53 40 68 48 47 55
internal_count=1204 255 949 642 621 307 447 271 325 174 147 296 210 108 104 217 122 70 86 86 48 55 61 54 190 77 197 100 143 97 77 100 44 55 42 61 47 104 81 40 53 40 68 48 47 55
is_linear=0
shrinkage=0.0426353


Tree=6
num_leaves=49
num_cat=0
split_feature=86 51 81 67 10 86 52 76 64 79 60 85 50 94 50 45 90 48 65 79 10 75 38 50 65 70 59 36 60 79 44 50 57 70 10 70 77 69 57 58 50 59 50 37 50 67 40 34
split_gain=0.789689 0.117994 0.0996435 0.0722211 0.0398892 0.0367876 0.030711 0.028599 0.0238502 0.0226198 0.0216068 0.0135723 0.0111183 0.0131297 0.0107974 0.0104417 0.00657836 0.00646276 0.0063594 0.00526023 0.00447332 0.00421806 0.00400784 0.0039965 0.00359591 0.00358298 0.00328313 0.00299531 0.00275438 0.00252183 0.00225464 0.00223978 0.00213258 0.00173682 0.00165911 0.00159065 0.0012629 0.00122129 0.00115737 0.000978017 0.000940895 0.000729211 0.000682305 0.000616637 0.000553873 0.000478246 0.000127603 6.75446e-05
threshold=0.096491509549228943 0.080994506379431716 -0.034587482903921406 0.0506854664361698 0.071652964395943736 0.0079651884132880251 0.19986607378401636 -0.013026891925664743 0.30827814187219377 0.20264854794256179 -0.015151568373108175 0.22158033725286672 0.053372052702682818 -0.09685779186379255 0.049706543096622251 0.097876661470822732 0.38876677478927923 1.110945629148387 0.23016646690029452 -0.80432518224572747 0.0040653045844606167 0.13699311916461365 0.16515290382404171 -0.013126270154882392 0.045548580531002365 0.064787635884409681 -0.29280125714431721 0.038470847405139681 0.015791700323293693 -0.7005851594232434 0.11402917836859765 0.0033148803521032013 0.10756463902540368 -0.11544098598324667 0.0040653045844606167 0.16356706181033356 0.072532612008665995 0.35215943901490659 0.049498244493948157 -0.24882660924623057 -0.0017229646682755428 -0.49917659609411474 0.020964610881199244 0.015841480090724978 0.02462940826398444 0.068567987295271277 0.0059741241369066543 0.0030620210172902246
decision_type=10 10 10 8 2 10 10 8 8 10 10 10 8 10 10 10 10 10 8 8 2 10 10 10 10 10 10 10 10 10 10 10 8 10 2 10 10 8 10 10 10 10 10 10 10 8 10 10
left_child=1 3 14 -1 7 8 24 17 16 12 18 30 13 19 23 28 26 29 -6 -9 32 -15 -10 38 -4 -20 31 33 -12 42 -8 45 -14 34 44 41 -32 -28 -2 -37 -30 -33 46 -25 -21 -3 -5 -46
right_child=2 5 6 4 10 -7 11 9 22 -11 15 -13 20 21 -16 -17 -18 -19 25 27 -22 -23 -24 43 -26 -27 37 -29 40 -31 36 35 -34 -35 -36 39 -38 -39 -40 -41 -42 -43 -44 -45 47 -47 -48 -49
leaf_value=-0.0014718164361967225 -0.00082011406590545518 0.00025159173698792252 -0.0040770090608669221 0.0012892714778638481 0.0015405277574067557 0.0011936945877365531 -0.0023201431252274085 0.00013792426631324982 -0.0013632758513180631 0.0017291901095672236 0.0011840575267179571 -0.0015574398282799701 -6.6516297050873277e-05 0.00033788211687351782 -0.001984012485331252 0.0018933391515939329 -0.00079414535871050673 0.0020194732749597632 0.0028335843304550926 0.0010894584731959772 -0.00047800225128469866 -0.00047903505158782608 -0.00061573382359017483 -0.00135067366660889 -0.0033565377960347344 0.0020910425337425619 0.00056877782980657753 0.0012402887782801161 0.00088045581443575683 0.0016405468470908088 -0.0026298354704766638 -0.00018119198772635341 0.00051628642383473751 0.00041424979765414889 0.00057655120186140608 -0.00062004813253934018 -0.0031032277664827766 0.00011421696128436334 -0.00038497661232568872 -0.00019840706507936101 0.00046689401875497531 0.00014214080898009734 0.00097105397955240364 -0.0010311248815193536 0.00090883486859795644 1.2542926371484049e-05 0.0011420211984534319 0.00080768284178159061
leaf_weight=22 25 29 20 23 22 36 20 20 32 29 37 28 21 27 21 27 20 22 21 31 23 20 22 23 34 27 22 32 20 20 20 32 25 20 30 20 21 21 20 20 20 21 37 21 24 32 20 24
leaf_count=22 25 29 20 23 22 36 20 20 32 29 37 28 21 27 21 27 20 22 21 31 23 20 22 23 34 27 22 32 20 20 20 32 25 20 30 20 21 21 20 20 20 21 37 21 24 32 20 24
internal_value=3.78242e-05 0.000601014 -0.00207915 0.00092891 0.00101382 -8.68207e-05 -0.00282125 0.00080104 -0.000256926 0.00059265 0.00156168 -0.00233456 0.000481674 0.00062518 -0.00111442 0.0011719 -5.74009e-05 0.00135789 0.00214079 0.000790049 7.48212e-06 -9.74221e-06 -0.00105872 -0.00090923 -0.00362338 0.0024159 1.73955e-05 0.000871058 0.000918924 0.00121234 -0.00269127 -7.45763e-05 0.000250224 0.000779466 0.000846479 -0.000206261 -0.0028723 0.000346783 -0.00062672 -0.000409228 0.000673675 -5.3079e-05 0.00110528 -0.00119816 0.000948983 0.000126189 0.00122078 0.000858259
internal_weight=1204 951 253 644 622 307 143 448 271 326 174 89 297 228 110 104 217 122 70 181 69 47 54 89 54 48 197 161 77 100 61 154 46 129 109 93 41 43 45 40 40 53 80 44 79 61 43 48
internal_count=1204 951 253 644 622 307 143 448 271 326 174 89 297 228 110 104 217 122 70 181 69 47 54 89 54 48 197 161 77 100 61 154 46 129 109 93 41 43 45 40 40 53 80 44 79 61 43 48
is_linear=0
shrinkage=0.0426353


Tree=7
num_leaves=51
num_cat=0
split_feature=86 51 31 78 10 86 76 66 31 64 9 50 31 66 45 48 90 87 31 13 90 38 66 40 59 70 59 50 79 50 10 70 49 31 69 31 50 57 31 78 59 49 55 38 59 31 57 38 42 50
split_gain=0.723788 0.108147 0.100433 0.0664065 0.0370436 0.0337176 0.0266478 0.0249874 0.0220449 0.0218598 0.0187573 0.017968 0.012407 0.0108202 0.0100904 0.0060499 0.00602938 0.00509088 0.00670692 0.00503431 0.00413349 0.00367338 0.00360836 0.0033197 0.00322355 0.00325401 0.00300915 0.00266585 0.00236406 0.00205287 0.00166133 0.00145791 0.00118127 0.00112499 0.00111937 0.00101943 0.000813034 0.000736761 0.000719542 0.00199639 0.000668356 0.00058618 0.000568259 0.000503676 0.000502049 0.000410019 0.000297581 0.000216892 0.00014961 0.000116329
threshold=0.096491509549228943 0.080994506379431716 0.50065176899057218 0.53370257092861562 0.071652964395943736 0.0079651884132880251 -0.011405951864773426 0.12187066155101255 0.45979828414194618 0.30827814187219377 0.10923533104613108 -0.2296603479725646 0.48255205373139981 0.1863474421603632 0.13283032893870192 1.110945629148387 0.38876677478927923 0.1166317375216487 0.33579677798521135 0.0094246632510951531 0.069399250794630316 0.16515290382404171 0.092244095581424643 0.011604022816546404 -0.27898678105040925 0.024846531741924176 -0.29280125714431721 0.018087300770280094 -0.7005851594232434 0.0033148803521032013 0.0040653045844606167 0.16356706181033356 -0.45631588249591587 0.48113841208793146 0.35215943901490659 0.47009836835673335 0.039267845377843391 0.042281691694919986 0.34348583671738614 0.064272793177389195 -0.49917659609411474 0.94194349575288772 0.098918624789523402 0.043043042895223996 -0.24171467240868669 0.33934167827035339 0.079253235983585205 0.19169488706715096 0.17621935290401064 0.023152632870630154
decision_type=10 10 2 10 2 10 8 10 2 8 2 10 2 10 10 10 10 8 2 2 10 10 10 10 10 10 10 10 10 10 2 10 10 2 8 2 10 10 2 10 10 10 10 10 10 2 10 10 10 10
left_child=1 3 12 4 6 9 15 -4 11 16 23 -8 22 24 -9 28 26 47 -19 42 43 -11 -2 -6 25 30 29 44 37 41 36 40 -33 -22 -28 -24 45 -1 -20 -40 -31 48 -14 -10 -16 49 -39 -12 -3 -13
right_child=2 5 7 -5 10 -7 8 14 20 21 17 13 19 -15 27 -17 -18 18 38 -21 33 -23 35 -25 -26 -27 34 -29 -30 31 -32 32 -34 -35 -36 -37 -38 46 39 -41 -42 -43 -44 -45 -46 -47 -48 -49 -50 -51
leaf_value=0.00086614727790258945 -0.00023798249504418384 0.00012966272369605871 -0.0017823621812328174 -0.0015289908785637791 0.0025119683615252093 0.0011428010038032415 -0.00044404462655396316 -0.0037758603330208446 0.00045099462983575113 -0.0013051521122271778 0.0017185300578998564 0.0011085300425567187 -0.0014332763275982984 0.0016736357468957977 -0.0028030825786828886 0.0019333723319201936 -0.0007602867104630084 0.0016251849010380471 0.0010056681735785935 -0.0021034581654507346 -3.9671720275349293e-05 -0.00058948178622250116 -0.00071776560699166698 0.0017927750138951714 0.0011715220192589746 0.00021494196764531933 0.00054452779821481819 -0.0032117675871007711 0.001570601572804064 -0.00017346680820805796 0.00054077066331228876 -0.0001600866627476614 -0.00062347342292516769 -0.0004615587245729761 0.00010934728191631349 -0.0011430861491322842 0.0006886273554211615 0.0012116420931929147 0.00038888250262616064 0.00098407872616979161 0.00013608058369628498 -6.8424226996408657e-05 -0.0011157277402890488 0.00016129282610792634 -0.0025079336120264056 0.00081353608897775519 0.001007517993826983 0.0015199703620866066 0.00029259890965802618 0.00096485516889284007
leaf_weight=26 21 20 32 20 28 36 20 32 20 32 20 21 21 28 20 22 20 25 20 20 20 22 21 20 31 22 22 24 20 32 39 20 20 27 21 20 30 37 20 21 21 20 20 24 22 23 20 20 21 20
leaf_count=26 21 20 32 20 28 36 20 32 20 32 20 21 21 28 20 22 20 25 20 20 20 22 21 20 31 22 22 24 20 32 39 20 20 27 21 20 30 37 20 21 21 20 20 24 22 23 20 20 21 20
internal_value=3.62115e-05 0.000575389 -0.0019905 0.000889306 0.000966815 -8.31191e-05 0.000762546 -0.00281678 0.000559073 -0.000245972 0.0014951 0.000778048 -0.00111719 0.000892262 -0.00315455 0.00129158 -5.49536e-05 0.00122188 0.00103705 -0.00154889 -4.00659e-06 -0.00101358 -0.000692459 0.0022123 0.000774636 0.000695259 1.66538e-05 -0.00285331 0.00115449 -7.13968e-05 0.00077471 -0.000197467 -0.00039178 -0.000282032 0.000331998 -0.000925239 0.00087177 0.00105423 0.000796011 0.000693739 -5.0816e-05 0.000120809 -0.00127837 0.000292975 -0.00264848 0.000957618 0.00114002 0.00161925 0.000213118 0.00103844
internal_weight=1204 951 253 644 624 307 450 130 325 271 174 234 123 214 98 125 217 126 86 61 91 54 62 48 186 155 197 66 103 154 133 93 40 47 43 41 94 83 61 41 53 61 41 44 42 64 57 40 41 41
internal_count=1204 951 253 644 624 307 450 130 325 271 174 234 123 214 98 125 217 126 86 61 91 54 62 48 186 155 197 66 103 154 133 93 40 47 43 41 94 83 61 41 53 61 41 44 42 64 57 40 41 41
is_linear=0
shrinkage=0.0426353


Tree=8
num_leaves=48
num_cat=0
split_feature=86 56 51 67 86 89 1 64 3 31 50 40 45 31 77 79 72 40 31 70 63 38 52 68 66 31 53 31 63 89 40 67 3 33 65 68 40 50 59 40 51 59 36 35 31 63 34
split_gain=0.663424 0.11487 0.100041 0.0610662 0.0309037 0.0304491 0.037546 0.0200355 0.0149413 0.0135832 0.012757 0.00978041 0.00883037 0.00765417 0.00752749 0.00660826 0.00515472 0.00478157 0.0040271 0.00365442 0.00422723 0.00336682 0.00309475 0.00295461 0.00290315 0.00232901 0.00231241 0.00328576 0.00173811 0.0016982 0.00169794 0.00166917 0.0016456 0.00124133 0.000948768 0.000897603 0.000862513 0.000805465 0.000663911 0.000626103 0.000521458 0.000512197 0.00049764 0.000482892 0.000308698 0.00024632 0.000125283
threshold=0.096035076151533824 0.1268287311378965 0.080994506379431716 0.0506854664361698 0.0079651884132880251 -0.39373870882122908 0.083312846000700394 0.30827814187219377 0.076850717658466017 0.48255205373139981 0.075998318095225045 -0.051042591902597356 0.1601824282252419 0.45690340254236567 0.089506084772545555 -0.82513901947849078 0.22983792616017726 -0.00089156665886195999 0.4855850042947652 0.16564180827386488 0.17288410289218362 0.16515290382404171 0.24887189992540518 -0.048385871949931943 0.092244095581424643 0.34947239771170974 0.038141273783129488 0.33749269914188296 0.21665793440436945 -0.57063004849391541 0.021764494774918656 0.076782928640842699 0.07293888225261401 -0.097191625952442975 0.017881339393588765 -0.61166740828128507 0.0034261793511720573 0.044973124462895801 -0.45028756086154137 -0.00089156665886195999 0.11407560523018216 -0.69080103594112996 0.0041551251606364225 0.1915682679433455 0.49283117132736887 -0.14442481504492446 0.0005555407000269768
decision_type=10 10 10 8 10 10 2 8 8 2 8 10 10 2 10 10 10 10 2 10 10 10 10 10 10 2 10 2 10 10 10 10 10 10 10 10 10 10 10 10 10 10 10 10 2 10 10
left_child=2 9 3 -1 7 6 10 19 -8 24 13 -10 17 23 15 26 44 -3 33 28 -21 -9 43 25 -2 32 27 -13 36 39 31 34 -5 -7 -17 -28 41 46 -38 -29 -14 -4 -26 -22 -11 -41 -34
right_child=1 12 4 5 -6 18 8 21 11 16 -12 14 40 -15 -16 30 -18 -19 -20 20 22 -23 -24 -25 42 -27 35 29 -30 -31 -32 -33 37 -35 -36 -37 38 -39 -40 45 -42 -43 -44 -45 -46 -47 -48
leaf_value=-0.0013512667817485804 -0.00022783604105958358 -0.0028649410106043847 -1.8194201579785605e-05 0.00046968089528487633 0.0010940772936431529 0.00054499038819076986 0.0021315211657120877 -0.0012495064996195767 0.002127299656677514 -0.0010379293469182506 -0.00040056538463279715 0.0013873593079631805 -0.0023873578542143578 -9.1589672400287935e-05 0.00039436297390347489 0.0012648940548526568 -0.0018279266634027556 -0.0036466445751039459 -0.00029917314480559841 -0.00080710259153641303 0.00021166664998677182 -0.00056434903913231296 -0.00050951066264678067 0.0012300606995243964 -0.00069650941150129831 0.0003040295916574106 0.0011231998682204539 0.00088033405587879734 0.00045950180804220689 0.0010997322334364407 0.0011873914289895868 0.0018202092798174007 0.0010400451645081663 0.0001304687040746227 0.0016335144806655154 0.0015048829581506664 -0.00024947283360759792 0.00066531939553633561 5.2379090420327205e-05 0.00070812825029580094 -0.0026636181887106534 0.0002511566867460482 -0.00099727444413037205 -6.4738986112297995e-05 -0.001258927711195531 0.00049906046558833314 0.00091431715557994432
leaf_weight=22 21 25 21 22 36 29 36 32 20 20 22 24 23 20 22 30 39 33 25 20 27 22 23 24 20 21 24 24 20 29 29 30 25 24 22 21 26 22 27 21 27 33 20 20 27 20 34
leaf_count=22 21 25 21 22 36 29 36 32 20 20 22 24 23 20 22 30 39 33 25 20 27 22 23 24 20 21 24 24 20 29 29 30 25 24 22 21 26 22 27 21 27 33 20 20 27 20 34
internal_value=3.46676e-05 -0.00189603 0.000553455 0.000856165 -7.95753e-05 0.000934494 0.00104784 -0.000235485 0.00130855 -0.0011204 0.000564841 0.00121479 -0.00295176 0.000691263 0.00115314 0.00121406 -0.00146557 -0.0033097 0.00014688 -5.26106e-05 -0.000260451 -0.000970368 -0.000104265 0.000797054 -0.000633774 0.000713246 0.00104128 0.000942108 9.46777e-05 0.000828427 0.00146779 0.00156696 0.000796679 0.000357282 0.00142085 0.00130132 2.64863e-05 0.000885493 -9.56992e-05 0.000707383 -0.00253654 0.000146409 -0.000846892 9.40472e-05 -0.00116489 0.000606144 0.000967592
internal_weight=1204 255 949 642 307 620 542 271 352 147 190 316 108 168 296 274 86 58 78 217 90 54 70 148 61 124 163 118 127 94 111 82 103 53 52 45 107 81 53 65 50 54 40 47 47 41 59
internal_count=1204 255 949 642 307 620 542 271 352 147 190 316 108 168 296 274 86 58 78 217 90 54 70 148 61 124 163 118 127 94 111 82 103 53 52 45 107 81 53 65 50 54 40 47 47 41 59
is_linear=0
shrinkage=0.0426353


Tree=9
num_leaves=49
num_cat=0
split_feature=86 56 51 78 10 86 76 31 64 9 50 31 56 73 56 48 90 50 71 47 31 51 66 40 66 50 90 79 56 66 32 31 69 50 31 31 37 73 31 57 50 36 79 85 35 40 1 35
split_gain=0.608103 0.104081 0.0908598 0.0560295 0.0312577 0.0283531 0.0222756 0.0187526 0.0184802 0.0158646 0.0148801 0.0136714 0.00938448 0.00866323 0.00551055 0.00530977 0.00432224 0.00408383 0.00377518 0.00375609 0.00566249 0.00357045 0.00340702 0.00298303 0.00266087 0.00237766 0.00228184 0.00197466 0.00179979 0.00175 0.00199318 0.00153433 0.00124405 0.00131121 0.000876228 0.00076074 0.000722057 0.000677512 0.000662012 0.000630054 0.000551745 0.00045611 0.000353086 0.000330571 0.000304333 0.000250322 0.000193596 9.62249e-05
threshold=0.096491509549228943 0.12845249938965234 0.080994506379431716 0.53370257092861562 0.071652964395943736 0.0081597403194452901 -0.011405951864773426 0.46239241971044082 0.30549289176017635 0.10923533104613108 -0.2296603479725646 0.48255205373139981 0.15766250702670284 0.037710803329947577 0.178653119631076 1.110945629148387 0.35367763930978896 0.053372052702682818 -0.14231081989668629 0.043996777043845123 0.33579677798521135 0.20753312836989832 0.11208444995271775 0.011604022816546404 0.092244095581424643 0.044413465518144582 0.087671892285392641 -0.7005851594232434 0.20737021934214736 0.15741963611277124 0.05820942084314288 0.48113841208793146 0.074379202977479131 0.03316986485627587 0.35353210985818079 0.34634077219593201 0.0097915638233198824 0.053233300618929662 0.34348583671738614 0.041456929193358166 0.0017318366393266579 0.0041551251606364225 -0.82933421209281166 0.17142816120288046 0.17476569083611937 0.014657268099678789 0.075946481517632849 0.20150025383098449
decision_type=10 10 10 10 2 10 8 2 8 2 10 2 10 10 10 10 10 10 10 8 2 10 10 10 10 10 10 10 10 10 2 2 8 10 2 2 10 10 2 10 10 10 10 10 10 10 2 10
left_child=2 11 3 4 6 8 15 10 16 23 -8 24 25 -3 36 27 26 22 -9 42 -21 -10 43 -6 -2 29 28 39 32 30 40 -20 37 44 -27 46 -15 -4 -22 -1 -12 -26 -11 -13 -34 -41 -32 -46
right_child=1 13 5 -5 9 -7 7 18 21 19 12 17 -14 14 -16 -17 -18 -19 31 20 38 -23 -24 -25 41 34 -28 -29 -30 -31 35 -33 33 -35 -36 -37 -38 -39 -40 45 -42 -43 -44 -45 47 -47 -48 -49
leaf_value=0.00077259347300005039 -0.00021812216782514371 -0.0036257197006848789 4.7422075461822554e-06 -0.001406190123929503 0.0023152624833468632 0.001066040938654506 -0.00040803439331081663 0.00027705105722151946 -0.00065552044957871772 0.001312733172867523 0.00065013167862918938 -0.001196830202239415 0.0015357982644315948 -0.0026340442711165891 -0.003219920613905572 0.0017836390547885058 -0.00062108353375092988 -0.0019738975715553795 -5.7409383316479698e-05 0.0014891726081256882 0.00092013209608251417 -0.0013593025419069784 -0.0017457280097084018 0.0016335119427399417 -0.00066681349139895043 0.0006021939083995665 0.00034002473604680019 0.0014342543610719823 -0.00036195683616946795 0.0011559909111106476 0.0010232612970198743 -0.00055034652818870052 8.9604674619734334e-05 -0.0001370875559005176 0.00023191341422170681 0.00065270776508582736 -0.0023313774917318526 -0.00032250764189540693 0.00061708525267555948 0.0010989534608937435 0.00035790602762062043 -0.00095475532324189468 0.0015576764742349473 -0.00097063598812028901 0.00035942479406542534 0.00091637338111076388 0.00086325467332658051 0.00022716939697395926
leaf_weight=23 21 21 23 20 28 35 20 39 38 20 24 23 28 23 23 22 21 20 24 25 20 20 20 20 20 26 34 20 27 20 28 22 20 26 21 23 38 23 38 39 23 20 23 24 20 21 27 20
leaf_count=23 21 21 23 20 28 35 20 39 38 20 24 23 28 23 23 22 21 20 24 25 20 20 20 20 20 26 34 20 27 20 28 22 20 26 21 23 38 23 38 39 23 20 23 24 20 21 27 20
internal_value=3.31896e-05 -0.00182451 0.000527403 0.000815138 0.000886334 -7.61826e-05 0.000698695 0.000512661 -0.00022316 0.00137161 0.000705397 -0.00109613 0.000806618 -0.00285118 -0.00265754 0.00118238 -4.0204e-05 -0.00143925 -3.15348e-05 0.00112034 0.000952786 -0.000898204 -0.00127966 0.0020312 -0.000606753 0.000700279 2.30005e-05 0.00105396 -4.47908e-05 0.000785699 0.000726452 -0.000293162 2.00841e-05 0.00011581 0.000436749 0.000858609 -0.0024455 -0.000158883 0.000721584 0.000962321 0.000507128 -0.000810784 0.00144375 -0.00108133 0.0002254 0.00103505 0.000944713 0.000293297
internal_weight=1204 253 951 644 624 307 450 325 272 174 240 148 220 105 84 125 214 87 85 126 83 58 67 48 61 192 193 103 159 145 125 46 132 86 47 78 61 46 58 83 47 40 43 47 60 60 55 40
internal_count=1204 253 951 644 624 307 450 325 272 174 240 148 220 105 84 125 214 87 85 126 83 58 67 48 61 192 193 103 159 145 125 46 132 86 47 78 61 46 58 83 47 40 43 47 60 60 55 40
is_linear=0
shrinkage=0.0426353


Tree=10
num_leaves=44
num_cat=0
split_feature=91 90 56 3 87 2 33 70 31 13 50 45 36 56 75 50 31 72 67 48 40 32 58 47 56 66 41 50 31 81 73 16 16 31 75 50 47 31 83 34 89 40 57
split_gain=0.540328 0.0898274 0.088845 0.0551509 0.0518623 0.0296496 0.0165758 0.0138598 0.0124854 0.0112851 0.0107604 0.00902573 0.0079524 0.0076407 0.00738072 0.00675181 0.00638992 0.00612195 0.00409205 0.00378702 0.00366913 0.00294113 0.00278507 0.00271283 0.00255907 0.00233959 0.002299 0.00223489 0.00222777 0.0022131 0.00211228 0.0013677 0.00224603 0.00170048 0.00132784 0.00130737 0.00113459 0.000675497 0.00054849 0.00040003 0.000349988 0.000419117 0.000315168
threshold=-0.1164411954835038 0.34110221145904046 0.12845249938965234 0.078567512328437589 0.091325458660709749 0.040517322410048635 0.18838144607621846 0.16877921197260645 0.48294210140089694 0.019997524145736863 0.0422772998214812 0.13283032893870192 0.10561008637260001 0.20831554582104247 0.15490086402688844 0.020964610881199244 0.35968521594129182 0.22983792616017726 0.073028308200270592 0.97947723485621163 -0.013326556404340046 0.10313736159140521 -0.17251066945670354 0.027809068058772559 0.17381485017184994 0.092244095581424643 0.21047886812553415 -0.052015445859256278 0.44136880334718048 -0.051906893760368104 0.037710803329947577 0.020794242999128989 0.017940529057169335 0.34634077219593201 0.12382177518030317 0.020412860874432028 0.038846516440525308 0.46919377802693779 -0.03251447255388315 0.0013110591585385283 -0.54096065537245208 1.0000000180025095e-35 0.039574490900272458
decision_type=10 10 10 10 8 2 10 10 2 2 8 10 10 8 10 10 2 10 10 10 10 2 8 10 10 10 10 10 2 10 10 2 2 2 10 10 10 2 10 10 8 10 10
left_child=1 3 8 4 14 10 9 -3 25 15 12 -4 20 35 23 19 -11 -10 -19 27 22 -12 -6 -1 34 -2 -15 -7 -17 -18 38 32 33 -22 -13 39 40 -27 -30 -5 -29 -42 -33
right_child=2 7 11 13 5 6 -8 -9 17 16 21 24 -14 26 -16 28 29 18 -20 -21 31 -23 -24 -25 -26 37 -28 36 30 -31 -32 42 -34 -35 -36 -37 -38 -39 -40 -41 41 -43 -44
leaf_value=-0.00012098847345899529 -0.00027307552755759663 -0.00030843360089257923 -0.0032871903458867938 0.00025899710799005138 0.0014918391268855691 0.0015139414280638734 7.3921152172871634e-05 -0.0016171546599079813 -0.0010104400880136849 0.0020304849179527741 -0.00024574407858321849 -0.0020712205496643986 -1.2212296078638495e-05 -0.00025812371649684885 -0.00061745470581163768 0.0011733002671908369 0.00098570457823064762 -0.0021454846780807695 -0.0013272809577026606 0.0016754689573140131 0.00099317410123019923 0.00031385700252065628 0.00082262539721920306 0.00042136556466228507 -0.0028401405435164546 -0.00065439328161973574 -0.00084825561423985214 0.001057126952914119 0.00066689952137436359 0.0015415876597888927 0.00035413960677112266 0.00075039693012662672 0.00017556170193613001 0.00048940482017965166 -0.002533303414545256 -0.00016018651122264287 0.0013257273853741959 -0.00098884564126004151 0.00093310877573207253 3.7711779705605953e-05 0.0010156429934786318 0.00073962489621301854 0.00096614782829505905
leaf_weight=38 20 24 36 33 20 22 26 38 32 37 31 26 26 20 39 21 23 25 20 28 21 38 26 30 21 21 30 39 24 30 25 32 21 29 20 38 20 23 34 27 20 20 20
leaf_count=38 20 24 36 33 20 22 26 38 32 37 31 26 26 20 39 21 23 25 20 28 21 38 26 30 21 21 30 39 24 30 25 32 21 29 20 38 20 23 34 27 20 20 20
internal_value=-1.20518e-06 0.000458447 -0.00179083 0.000567994 0.000718258 0.000865005 0.00111182 -0.00111055 -0.00109549 0.00119049 0.00052003 -0.00274271 0.000681946 -0.000183325 -0.000149882 0.00104463 0.00160052 -0.00146126 -0.00178184 0.00122864 0.000788739 6.2442e-05 0.00111359 0.000118285 -0.00245016 -0.000655425 -0.000612203 0.00112524 0.000781001 0.00130036 0.000681744 0.000667251 0.00054558 0.000700988 -0.00227213 3.54902e-05 0.00103887 -0.000829221 0.000822953 0.000159419 0.000966244 0.000877634 0.000833378
internal_weight=1194 950 244 888 740 633 369 62 141 343 264 103 195 148 107 253 90 77 45 149 169 69 46 68 67 64 50 121 104 53 83 123 71 50 46 98 99 44 58 60 79 40 52
internal_count=1194 950 244 888 740 633 369 62 141 343 264 103 195 148 107 253 90 77 45 149 169 69 46 68 67 64 50 121 104 53 83 123 71 50 46 98 99 44 58 60 79 40 52
is_linear=0
shrinkage=0.0426353


Tree=11
num_leaves=47
num_cat=0
split_feature=86 56 90 51 10 76 76 31 31 31 60 5 63 73 37 56 56 50 33 48 62 66 71 35 50 66 40 56 50 66 94 79 56 65 75 87 56 31 56 31 60 60 34 70 5 40
split_gain=0.501725 0.0900111 0.0852889 0.0564693 0.0266611 0.0212132 0.0203882 0.0183054 0.0139347 0.0127664 0.0115706 0.0106163 0.00838945 0.0078577 0.00709812 0.00602791 0.00589356 0.00530103 0.00471727 0.0045681 0.00435181 0.00380741 0.00376259 0.00365089 0.00315836 0.00277131 0.00244101 0.00230569 0.00174821 0.0015502 0.00151294 0.00146869 0.0010713 0.00101412 0.000928997 0.000903295 0.000783388 0.000616806 0.000600151 0.000527424 0.000489859 0.000461071 0.00033475 0.000302354 0.000241241 0.000171225
threshold=0.096736529557417433 0.12845249938965234 0.34110221145904046 0.080994506379431716 0.071652964395943736 0.028539761899414273 -0.011405951864773426 0.46239241971044082 0.47731595556541878 0.46239241971044082 -0.031419802448911967 0.51610971790468796 0.23016646690029452 0.062710818774532037 0.016290893988478928 0.178653119631076 0.15766250702670284 0.043455997949120077 0.2117270055569537 1.110945629148387 0.19099770757383353 0.11409207489399865 -0.14231081989668629 0.027247139062142042 0.039267845377843391 0.092244095581424643 0.0073365360812573588 0.20737021934214736 0.036550873432032872 0.15113543356972045 0.19879427169511824 -0.70328832571582323 0.082291959610913221 0.17557456733737717 0.12382177518030317 0.079375898758311095 0.18083128796968437 0.48113841208793146 0.19275139689535628 0.5202494259811804 -0.0058194193699143337 0.11388577862534316 0.0036972995386331882 0.092354689054376618 0.50320735222409185 -0.0076017791512564088
decision_type=10 10 10 10 2 10 8 2 2 2 10 10 8 10 8 10 10 10 10 10 10 10 10 10 10 10 10 10 8 8 8 10 8 10 10 10 10 2 10 2 10 10 10 10 10 10
left_child=2 8 3 4 6 12 19 11 25 -4 23 16 27 -3 -12 34 24 21 -14 31 -7 35 -9 -6 29 -2 43 36 -13 -8 -22 39 -31 -11 -15 -10 -5 -24 -38 45 -26 44 -40 -16 -34 -1
right_child=1 13 9 5 10 20 7 22 17 33 14 28 18 15 26 -17 -18 -19 -20 -21 30 -23 37 -25 40 -27 -28 -29 -30 32 -32 -33 41 -35 -36 -37 38 -39 42 -41 -42 -43 -44 -45 -46 -47
leaf_value=0.0010591306449009694 -7.0611358319794509e-05 -0.003320290483136628 -0.00017662588128965337 -9.6916526858084265e-05 0.0014530631747442684 0.00022294649762175781 0.00051809629350760842 0.00023256176937015683 -0.0010764803425135703 -0.0016851375418999561 0.0015472523596890796 0.00030869460788009542 -0.00023316337347578688 -0.002079541779749935 0.0011049480862802463 -0.0030464382098199577 0.0014475521877624204 -0.0017743914280696159 -0.0010157835660396578 0.0016371658910144826 0.0011866322230183475 -0.0015958803300152771 -0.00020786065609118901 0.0021455511194435522 0.00058324842815164854 -0.00069714234229610172 0.0005058697521376879 -0.00042531567650051723 -0.00022879570902503121 0.0011583625678474011 0.00069208003621611385 0.0012975663022263689 0.0010056713182044453 -0.0012656557340592078 -0.0024328889457917542 -0.00073202915491791816 0.00034722434580253535 -0.00051852867702198067 0.00014969556332550846 0.00071674609935144839 0.0003158423130579269 0.00068429722916423126 -6.484457001801508e-05 0.00087590050731885282 0.00080965399579992063 0.00090429360435572998
leaf_weight=20 21 23 20 35 31 24 26 36 31 22 31 22 28 38 22 21 21 30 28 23 22 21 26 25 20 33 33 20 22 21 23 20 21 20 21 25 20 21 39 23 33 30 20 20 25 37
leaf_count=20 21 23 20 35 31 24 26 36 31 22 31 22 28 38 22 21 21 30 28 23 22 21 26 25 20 33 33 20 22 21 23 20 21 20 21 25 20 21 39 23 33 30 20 20 25 37
internal_value=-1.15379e-06 -0.00164152 0.000464498 0.000573619 0.000797882 4.62984e-05 0.000628056 0.000450643 -0.00101183 -0.0010632 0.00126648 0.000638712 -0.000186227 -0.00262578 0.00100458 -0.00242611 0.000772446 -0.00129362 -0.000624473 0.00109539 0.000686586 -0.0011063 -9.54368e-05 0.00176221 0.000691893 -0.000453491 0.000780274 -3.07962e-06 3.99494e-05 0.000810451 0.000933861 0.00097078 0.000888814 -0.00148538 -0.00220531 -0.000922707 7.09969e-05 -0.00034667 0.000145389 0.000889083 0.00041675 0.000814334 7.69701e-05 0.000995878 0.00089914 0.000958622
internal_weight=1194 264 930 868 609 259 447 324 161 62 162 241 190 103 106 80 197 107 56 123 69 77 83 56 176 54 75 134 44 123 45 100 97 42 59 56 114 47 79 80 53 76 59 42 46 57
internal_count=1194 264 930 868 609 259 447 324 161 62 162 241 190 103 106 80 197 107 56 123 69 77 83 56 176 54 75 134 44 123 45 100 97 42 59 56 114 47 79 80 53 76 59 42 46 57
is_linear=0
shrinkage=0.0426353


Tree=12
num_leaves=47
num_cat=0
split_feature=86 56 90 51 10 76 76 31 31 70 60 4 63 73 53 56 72 56 67 33 48 57 31 87 60 69 59 70 56 94 79 40 40 59 37 31 40 31 34 31 1 31 31 46 60 40
split_gain=0.459855 0.0824994 0.0781713 0.0517568 0.0244362 0.0194429 0.0186868 0.0167777 0.0128417 0.0120473 0.010605 0.00973034 0.00768933 0.00720401 0.00653795 0.00562323 0.0054112 0.00540172 0.00513273 0.0043236 0.00418687 0.00412289 0.00346622 0.00344859 0.00311032 0.0027479 0.00259222 0.00349085 0.00211327 0.00156753 0.00134612 0.00104057 0.000995283 0.000921762 0.000826692 0.000823401 0.000648767 0.000565331 0.000548814 0.000483409 0.000477863 0.000463698 0.000405227 0.000361016 0.000314404 0.000156936
threshold=0.096736529557417433 0.12845249938965234 0.34110221145904046 0.080994506379431716 0.071652964395943736 0.028539761899414273 -0.011405951864773426 0.46239241971044082 0.48113841208793146 0.16877921197260645 -0.031419802448911967 1.0175262895031707 0.23016646690029452 0.045099129268618122 0.095239778998224986 0.17968252758815631 0.22983792616017726 0.15766250702670284 0.070751343878955153 0.2117270055569537 1.110945629148387 0.034587454287000559 0.37082600983643493 0.09057179044403281 0.010037196449019429 0.92224956967183147 -0.27436562815832738 0.038432223375572901 0.20737021934214736 0.19879427169511824 -0.70328832571582323 0.0022506298227651564 0.013027390033017524 -0.69080103594112996 0.0097915638233198824 0.3484289237797169 0.0096155600931929295 0.48113841208793146 0.0018132997760515691 0.5202494259811804 0.075946481517632849 0.49283117132736887 0.31551944649161273 0.19025490565525638 -0.0064900366483544641 -0.0076017791512564088
decision_type=10 10 10 10 2 10 8 2 2 10 10 2 8 10 10 10 10 10 10 10 10 10 2 10 10 10 10 10 10 8 10 10 8 10 10 2 10 2 10 2 2 2 2 10 10 10
left_child=2 8 3 4 6 12 20 11 25 -4 22 32 28 -3 24 34 41 26 -18 -14 30 -7 -6 37 44 -2 27 35 33 -23 39 -28 -8 -5 -15 40 43 -9 -36 45 -13 -10 -42 -35 -12 -1
right_child=1 13 9 5 10 21 7 23 16 -11 14 17 19 15 -16 -17 18 -19 -20 -21 -22 29 -24 -25 -26 -27 31 -29 -30 -31 -32 -33 -34 36 38 -37 -38 -39 -40 -41 42 -43 -44 -45 -46 -47
leaf_value=0.0010139742333690838 -0.0002585348707334724 -0.0032402045721688756 -0.00027004028616809674 -0.0001444997374839877 0.0019370929835332664 0.00022009115574807476 0.00023200549304411736 -0.00019899844933071411 -0.0008059832693351936 -0.0014901901775113643 0.0011430765657852605 0.00088432455438912632 -0.00022322237727391469 -0.0023519077269826857 0.0015206121564741968 -0.002961639914850934 -0.0021087788865728173 0.0013858352854461671 -0.0012270127908186265 -0.0009724752855668088 0.0015673647312903563 0.0011720562874467254 0.0012370486589753156 0.00022264641872167605 0.00048490597177145778 -0.00084898018353104143 0.0011570008089379416 0.00010490923222979553 -0.00040718219561612895 0.00066257294517210275 0.0012422441235480468 0.00073208410797791451 -0.00017396639426763496 0.00011840283379459017 -0.0018757064771277967 0.00049031782956971608 -2.2845975804969697e-05 -0.00049642102534635569 -0.0021877747516149018 0.00068618738571543788 0.00080179396397080918 -0.0010675498451378931 0.00055529001236251569 0.00033504661809429046 0.00090401266218913191 0.00086573873668123209
leaf_weight=20 38 20 24 28 36 25 23 26 22 38 20 29 28 22 28 20 20 21 30 28 23 21 20 36 38 23 22 24 20 23 20 20 21 29 21 32 30 21 20 23 22 28 27 27 20 37
leaf_count=20 38 20 24 28 36 25 23 26 22 38 20 29 28 22 28 20 20 21 30 28 23 21 20 36 38 23 22 24 20 23 20 20 21 29 21 32 30 21 20 23 22 28 27 27 20 37
internal_value=-1.1046e-06 -0.00157153 0.000444694 0.000549163 0.000763864 4.43244e-05 0.000601279 0.00043143 -0.000968695 -0.00101787 0.00121248 0.00061148 -0.000178287 -0.00251383 0.000961749 -0.0023388 -0.00126609 0.000739512 -0.00157972 -0.000597849 0.00104869 0.000657314 0.00168708 -9.13678e-05 0.000761131 -0.000481162 0.000662394 0.000570789 -2.94832e-06 0.000905735 0.00092939 0.00095466 3.82462e-05 6.79699e-05 -0.00214107 0.000672435 0.000137146 -0.000331889 -0.00202793 0.000851177 0.00074715 -0.000952461 0.000665965 0.000222856 0.00102354 0.000917751
internal_weight=1194 264 930 868 609 259 447 324 161 62 162 241 190 103 106 83 100 197 50 56 123 69 56 83 78 61 176 134 134 44 100 42 44 114 63 110 86 47 41 80 78 50 49 56 40 57
internal_count=1194 264 930 868 609 259 447 324 161 62 162 241 190 103 106 83 100 197 50 56 123 69 56 83 78 61 176 134 134 44 100 42 44 114 63 110 86 47 41 80 78 50 49 56 40 57
is_linear=0
shrinkage=0.0426353


Tree=13
num_leaves=46
num_cat=0
split_feature=86 56 90 42 10 76 76 69 31 31 24 60 63 53 47 72 90 55 69 31 40 69 50 67 56 69 60 78 52 53 69 52 70 52 50 72 58 90 50 82 57 76 60 31 1
split_gain=0.421478 0.0756146 0.0716477 0.0454313 0.0308881 0.0216546 0.0161032 0.0133998 0.0118262 0.0111162 0.00986637 0.00949148 0.00719029 0.00643255 0.00581376 0.00514574 0.00488625 0.00395275 0.0034206 0.00335124 0.00334697 0.00294224 0.00285321 0.00215725 0.0019762 0.00194468 0.00190704 0.00185857 0.00169856 0.0015462 0.00149501 0.0014801 0.00147585 0.00114501 0.00109358 0.00105856 0.00105697 0.000991355 0.000881783 0.000879172 0.000694381 0.000641879 0.000519218 0.000333289 0.000198643
threshold=0.096736529557417433 0.12845249938965234 0.34110221145904046 0.20076483783907451 0.071652964395943736 -0.011405951864773426 0.16377770622914731 -0.43287857503584842 0.48255205373139981 0.46239241971044082 -1.0000000180025095e-35 -0.031419802448911967 0.2330381051966495 0.13283032893870192 0.043180162232083437 0.22983792616017726 0.27598153181974511 0.11140680034826207 -0.59556587762566482 0.3484289237797169 0.011146277298832939 0.92224956967183147 0.0041505129693549274 0.074798387519410731 0.17381485017184994 -0.85011478083957248 0.010037196449019429 0.70007478551725588 0.14477751985332724 0.1865469845869269 0.074379202977479131 0.18625690673807674 -0.09601272987811163 0.24887189992540518 0.015560557028313566 0.19986607378401636 -0.062946328012796371 0.31053146089093037 0.043993270968738708 0.17185601910208939 0.029173232269538964 0.11137407691357185 0.063224582721642705 0.49283117132736887 0.075946481517632849
decision_type=10 10 10 10 2 8 10 8 2 2 8 10 8 10 8 10 10 10 10 2 10 10 8 10 10 8 10 10 8 10 10 10 8 10 10 10 10 10 10 10 10 10 10 2 2
left_child=2 8 3 4 5 18 10 -5 21 -4 19 20 30 -3 31 43 -8 -17 23 38 -6 41 32 -1 36 39 -16 -11 -27 -14 33 -13 -12 -9 -30 -34 -15 -18 44 -24 -37 -2 -20 -10 -7
right_child=1 13 9 7 11 6 16 12 15 27 22 14 29 24 26 17 37 -19 42 -21 -22 -23 25 -25 -26 28 -28 -29 34 -31 -32 -33 35 -35 -36 40 -38 -39 -40 -41 -42 -43 -44 -45 -46
leaf_value=0.0010222300429010239 -9.1658981669505473e-05 -0.0028663008670536793 -0.0001471778064545269 0.00070523816038460172 0.0018704634852347115 0.00088401991729137653 0.0014953593461606329 -4.4565823260006293e-05 -0.00079415402016664682 -0.0010848102976630306 0.00056077740272525293 0.0015582817801545565 -0.001040067730375823 -0.0021910549180069279 0.0009098152619236926 -0.0020087475410627046 0.00085398868437717675 -0.0012114938729696778 0.00090757250193473677 0.00020807674385235348 0.0011896222920589623 -0.00083846664207114306 -0.00010791929430115379 0.0015534754592965885 -0.0024908361932104882 -0.00054877584841059931 0.000451243610584605 -0.0016520467133879029 -0.00031860855786021501 -0.00052269038068438888 0.00014955162565497715 0.0011008323393280801 0.00032344369867315099 -0.00043421131483088293 9.7346514339484861e-05 0.00018869107437407453 -0.0017768725070461372 0.0004777038234389377 0.00047117565748493558 0.00023424948769350633 -0.00016233214914812422 -0.00043324196390304815 0.00066796435406488283 -0.0010220344958651549 0.00072583769725251995
leaf_weight=33 20 36 20 28 35 27 20 29 20 21 21 20 21 24 32 20 35 26 35 34 21 27 21 24 22 20 34 21 20 21 29 36 37 26 27 20 21 20 20 39 21 20 31 28 31
leaf_count=33 20 36 20 28 35 27 20 29 20 21 21 20 21 24 32 20 35 26 35 34 21 27 21 24 22 20 34 21 20 21 29 36 37 26 27 20 21 20 20 39 21 20 31 28 31
internal_value=-1.05751e-06 -0.00150453 0.000425734 0.000525749 0.000669001 0.000507399 0.000359509 -0.000138417 -0.000927394 -0.000974477 0.000234102 0.00115562 -0.000325895 -0.00240665 0.000944688 -0.00123589 0.000924678 -0.00155813 0.00100398 0.000561318 0.00161515 -0.000494576 7.19411e-05 0.00124591 -0.00215967 -6.18103e-05 0.000673581 -0.00136843 -0.000219692 -0.000781379 -9.81536e-05 0.00126421 0.000243521 -0.000228762 -7.96556e-05 0.000158106 -0.00199777 0.000717158 0.000715295 0.00011449 8.89869e-06 -0.00026245 0.000795029 -0.000927084 0.000799474
internal_weight=1194 264 930 868 714 536 413 154 161 62 338 178 126 103 122 94 75 46 123 112 56 67 226 57 67 127 66 42 67 42 84 56 99 55 47 78 45 55 78 60 41 40 66 48 58
internal_count=1194 264 930 868 714 536 413 154 161 62 338 178 126 103 122 94 75 46 123 112 56 67 226 57 67 127 66 42 67 42 84 56 99 55 47 78 45 55 78 60 41 40 66 48 58
is_linear=0
shrinkage=0.0426353


Tree=14
num_leaves=47
num_cat=0
split_feature=91 90 56 51 87 1 31 70 55 35 50 3 89 73 63 40 56 56 70 90 87 87 56 47 50 90 50 50 47 70 50 50 31 67 69 40 37 49 59 60 31 57 76 37 38 60
split_gain=0.381627 0.0634065 0.0625994 0.0392715 0.0360075 0.0203483 0.0140931 0.0104055 0.0103584 0.0101879 0.00925124 0.00874198 0.00676667 0.00626549 0.00522424 0.00506713 0.00489115 0.00453689 0.00426591 0.00421615 0.00305936 0.00377569 0.00279321 0.00240098 0.00201154 0.00187214 0.00184632 0.00182423 0.00167134 0.00148267 0.00145988 0.00129247 0.00124327 0.00114458 0.000982816 0.000939217 0.000886656 0.00085709 0.000666371 0.000658173 0.000544552 0.000888223 0.000447063 0.000316576 0.000254332 0.000211135
threshold=-0.1164411954835038 0.34110221145904046 0.12845249938965234 0.14680902216824648 0.091325458660709749 0.087265431465796114 0.38277840168992694 0.16877921197260645 0.25164012613736936 0.10007533013839866 0.043455997949120077 0.07293888225261401 -0.40337400606948143 0.045099129268618122 0.025373618990222713 -0.013326556404340046 0.178653119631076 0.1099959258982625 0.072081334690892951 0.31307449742972077 0.11666691762857982 0.099055288332278821 0.20444189985592651 0.040337523240753369 0.013790594625963177 0.28590192589828062 -0.013126270154882392 0.031893181185761045 0.027809068058772559 0.096312086506053607 0.036550873432032872 0.009320920733726647 0.34947239771170974 0.077211544870611812 0.76838476224206753 0.023819977895627648 0.0097915638233198824 0.59242911439187784 -0.91636203254901905 0.02751980298331818 0.33841483076878193 0.034832007362592336 0.11637995793179724 0.012617784646139139 0.043043042895223996 0.1159937432583799
decision_type=10 10 10 10 8 2 2 10 8 10 10 8 10 10 10 10 10 10 10 8 10 8 10 10 10 10 10 10 10 8 8 10 2 10 10 10 10 10 10 10 2 10 10 10 10 8
left_child=1 3 10 4 14 9 18 -3 22 11 17 30 19 -4 23 29 36 26 -7 20 21 39 24 -1 -5 33 34 40 -16 -13 -6 -11 -29 37 -2 -22 -15 38 -23 -8 45 -42 -28 -26 -40 -17
right_child=2 7 13 8 5 6 12 -9 -10 31 -12 15 -14 16 28 27 -18 -19 -20 -21 35 25 -24 -25 43 -27 42 32 -30 -31 -32 -33 -34 -35 -36 -37 -38 -39 44 -41 41 -43 -44 -45 -46 -47
leaf_value=-0.00019837101265271536 -0.00020979473773651182 -0.00023791893716466217 -0.002981452423645775 0.00048097204625273865 0.0002820189252324662 0.0020121949914908635 0.00089214922940205883 -0.0013718835756423309 -0.00082559016608769835 0.00011849581308137547 -0.0016151391969016244 0.0013409916694892246 0.00025089654779550505 -0.0021535726165107642 -0.00010913997711083164 0.0009124146075656361 -0.0026694347228890108 -0.0012838522121289228 0.0012164061557428517 0.00031620957150175474 0.00080437302987459416 0.0012265225712063627 -0.00025721467602231253 -0.00081470441789454468 0.00012463853551757125 0.00075330612322315491 -0.00066871574895465704 0.0005513480350016961 0.00034317314349664545 0.00084548992090858295 -0.00020915121716042853 -0.00029658367587287335 0.00012647126372303057 0.0014221344424691735 -0.00062275118113396563 0.00040068017484494727 -0.0018134623152519986 0.0013694941401145892 0.0010707868220385577 0.00063025192629840329 0.00042554521180744419 0.00079267323806370528 -0.00092917567652123093 -0.00011524951178802062 0.00086855589581437236 0.00071650746735527819
leaf_weight=27 22 24 20 27 22 24 33 38 34 30 28 23 33 22 27 20 23 23 25 21 22 26 39 20 20 20 25 31 33 21 22 25 21 31 20 20 38 20 20 37 25 23 23 20 26 20
leaf_count=27 22 24 20 27 22 24 33 38 34 30 28 23 33 22 27 20 23 23 25 21 22 26 39 20 20 20 25 31 33 21 22 25 21 31 20 20 38 20 20 37 25 23 23 20 26 20
internal_value=-1.01242e-06 0.000385283 -0.00150503 0.000477321 0.000599984 0.000720843 0.000934421 -0.00093293 -0.000178053 0.000450663 -0.000921361 0.000576305 0.000827896 -0.00230404 -0.000124039 0.000705404 -0.00214081 -0.000749452 0.00160618 0.000896886 0.000944706 0.00101028 2.96477e-05 -0.000460641 0.000196627 0.00113587 -0.000612883 0.000579973 0.000139632 0.0011045 3.64339e-05 -7.01767e-05 0.000379763 0.00119808 -0.000406441 0.000612138 -0.00193817 0.00112258 0.001054 0.000753718 0.000698279 0.000601461 -0.000793519 4.69451e-06 0.000956482 0.000814461
internal_weight=1194 950 244 888 748 641 358 62 140 283 141 228 309 103 107 184 83 113 49 276 255 213 106 47 67 143 90 140 60 44 44 55 52 123 42 42 60 92 72 70 88 48 48 40 46 40
internal_count=1194 950 244 888 748 641 358 62 140 283 141 228 309 103 107 184 83 113 49 276 255 213 106 47 67 143 90 140 60 44 44 55 52 123 42 42 60 92 72 70 88 48 48 40 46 40
is_linear=0
shrinkage=0.0426353


end of trees

feature_importances:
Price=69
total_return_25=49
ma_90=38
total_return_5=30
ma_504=29
kurt_90=28
total_return_90=27
total_return_180=21
min_25=18
ma_180=18
kurt_180=16
std_90=15
total_return_504=15
OperatingIncomeLoss_log=13
std_180=13
first_return_180=13
ma_252=13
skew_252=13
max_180=12
ROE=11
kurt_252=11
Returns_Daily=10
skew_25=10
last_return_90=10
kurt_25=9
ma_5=8
std_5=8
lag_25=8
first_return_25=8
skew_90=8
first_return_90=8
std_504=8
AssetTurnover=7
skew_5=7
std_25=7
ma_25=6
max_25=6
lag_90=6
lag_180=6
Returns=5
lag_5=5
max_5=5
skew_180=5
lag_252=4
std_252=4
kurt_504=4
ROA=3
Equity_log=3
last_return_5=3
min_180=3
last_return_504=3
DebtToEquity=2
NetProfitMargin=2
NetIncomeLoss_log=2
Liabilities_log=2
CostsAndExpenses_log=2
last_return_25=2
min_252=2
lag_504=2
min_504=2
first_return_504=2
Assets_log=1
ROE_log=1
DebtToEquity_log=1
OperatingMargin_log=1
min_5=1
max_90=1
last_return_180=1
total_return_252=1
max_252=1
first_return_252=1
last_return_252=1
skew_504=1

parameters:
[boosting: gbdt]
[objective: regression]
[metric: rmse]
[tree_learner: serial]
[device_type: cpu]
[data_sample_strategy: bagging]
[data: ]
[valid: ]
[num_iterations: 2000]
[learning_rate: 0.0426353]
[num_leaves: 64]
[num_threads: 4]
[seed: 42]
[deterministic: 0]
[force_col_wise: 0]
[force_row_wise: 0]
[histogram_pool_size: -1]
[max_depth: -1]
[min_data_in_leaf: 20]
[min_sum_hessian_in_leaf: 0.001]
[bagging_fraction: 0.8]
[pos_bagging_fraction: 1]
[neg_bagging_fraction: 1]
[bagging_freq: 5]
[bagging_seed: 400]
[bagging_by_query: 0]
[feature_fraction: 0.8]
[feature_fraction_bynode: 1]
[feature_fraction_seed: 30056]
[extra_trees: 0]
[extra_seed: 12879]
[early_stopping_round: 0]
[early_stopping_min_delta: 0]
[first_metric_only: 0]
[max_delta_step: 0]
[lambda_l1: 0]
[lambda_l2: 0]
[linear_lambda: 0]
[min_gain_to_split: 0]
[drop_rate: 0.1]
[max_drop: 50]
[skip_drop: 0.5]
[xgboost_dart_mode: 0]
[uniform_drop: 0]
[drop_seed: 17869]
[top_rate: 0.2]
[other_rate: 0.1]
[min_data_per_group: 100]
[max_cat_threshold: 32]
[cat_l2: 10]
[cat_smooth: 10]
[max_cat_to_onehot: 4]
[top_k: 20]
[monotone_constraints: ]
[monotone_constraints_method: basic]
[monotone_penalty: 0]
[feature_contri: ]
[forcedsplits_filename: ]
[refit_decay_rate: 0.9]
[cegb_tradeoff: 1]
[cegb_penalty_split: 0]
[cegb_penalty_feature_lazy: ]
[cegb_penalty_feature_coupled: ]
[path_smooth: 0]
[interaction_constraints: ]
[verbosity: -1]
[saved_feature_importance_type: 0]
[use_quantized_grad: 0]
[num_grad_quant_bins: 4]
[quant_train_renew_leaf: 0]
[stochastic_rounding: 1]
[linear_tree: 0]
[max_bin: 255]
[max_bin_by_feature: ]
[min_data_in_bin: 3]
[bin_construct_sample_cnt: 200000]
[data_random_seed: 175]
[is_enable_sparse: 1]
[enable_bundle: 1]
[use_missing: 1]
[zero_as_missing: 0]
[feature_pre_filter: 1]
[pre_partition: 0]
[two_round: 0]
[header: 0]
[label_column: ]
[weight_column: ]
[group_column: ]
[ignore_column: ]
[categorical_feature: ]
[forcedbins_filename: ]
[precise_float_parser: 0]
[parser_config_file: ]
[objective_seed: 16083]
[num_class: 1]
[is_unbalance: 0]
[scale_pos_weight: 1]
[sigmoid: 1]
[boost_from_average: 1]
[reg_sqrt: 0]
[alpha: 0.9]
[fair_c: 1]
[poisson_max_delta_step: 0.7]
[tweedie_variance_power: 1.5]
[lambdarank_truncation_level: 30]
[lambdarank_norm: 1]
[label_gain: ]
[lambdarank_position_bias_regularization: 0]
[eval_at: ]
[multi_error_top_k: 1]
[auc_mu_weights: ]
[num_machines: 1]
[local_listen_port: 12400]
[time_out: 120]
[machine_list_filename: ]
[machines: ]
[gpu_platform_id: -1]
[gpu_device_id: -1]
[gpu_use_dp: 0]
[num_gpu: 1]

end of parameters

pandas_categorical:[]
