tree
version=v4
num_class=1
num_tree_per_iteration=1
label_index=0
max_feature_idx=92
objective=regression
feature_names=WeightedAverageNumberOfDilutedSharesOutstanding ROE ROA AssetTurnover DebtToEquity NetProfitMargin OperatingMargin EarningsPerShareDiluted_log GrossProfit_log NetIncomeLoss_log OperatingIncomeLoss_log Revenues_log Assets_log Liabilities_log NoncurrentAssets_log WeightedAverageNumberOfDilutedSharesOutstanding_log Equity_log ROE_log ROA_log BookValuePerShare_log SalesPerShare_log AssetTurnover_log DebtToEquity_log NetProfitMargin_log OperatingMargin_log EarningsPerShareDilutedTTM_log SalesPerShareTTM_log PE_Ratio PB_Ratio PS_Ratio MarketCapLog CostsAndExpenses_log Returns lag_5 ma_5 std_5 skew_5 kurt_5 total_return_5 min_5 max_5 first_return_5 last_return_5 lag_25 ma_25 std_25 skew_25 kurt_25 total_return_25 min_25 max_25 first_return_25 last_return_25 lag_90 ma_90 std_90 skew_90 kurt_90 total_return_90 min_90 max_90 first_return_90 last_return_90 lag_180 ma_180 std_180 skew_180 kurt_180 total_return_180 min_180 max_180 first_return_180 last_return_180 lag_252 ma_252 std_252 skew_252 kurt_252 total_return_252 min_252 max_252 first_return_252 last_return_252 lag_504 ma_504 std_504 skew_504 kurt_504 total_return_504 min_504 max_504 first_return_504 last_return_504
feature_infos=[317860000:1278608000] [0.052259732312511846:0.087413985779255063] [0.036856549094453517:0.063035152116255697] none [0.38674981886356846:0.47072614530996393] none none [-1.3203580513097881:0.18860167658042745] [0.025453356368155378:0.14967190576564432] [-0.014268498504373447:0.18769833415224102] [0.032600600530327935:0.26642344356195125] none [-0.047548953946229516:0.10732884912762299] [-0.072243695586454076:0.15839217828719368] none [-0.0050557430033016755:1.3850484188793644] [-0.036132269754537712:0.10809779268037496] [-0.065125026831757707:0.13540086464050258] [-0.085594753854478511:0.14156975709520853] [-1.3561473704106211:0.10900113510856133] none none [-0.11383963605614285:0.081634117315795299] none none [-0.3795732040520316:0.15183123682174518] none [5.712575094450985:39.768675224765666] [1.3096404567373534:11.534324259789877] none [-0.17104675076951664:1.3850484188793644] none [-0.19104803589320468:0.72190063038357466] [-0.19104803589320468:0.72190063038357466] [-0.18162658712160246:0.70182241595358996] [0.0031342476505407794:0.13490434367964763] [-2.2049449099513772:2.2145379555087357] [-3.3133371676529872:4.9244829818369809] [-0.90813293560801234:3.5091120797679496] [-0.19104803589320468:0.69042465441336121] [-0.16111112519542681:0.72190063038357466] [-0.19104803589320468:0.72190063038357466] [-0.19104803589320468:0.72190063038357466] [-0.22369690663480704:0.72190063038357466] [-0.13185849907272751:0.63525441574548724] [0.017791454951933083:0.19478304377199876] [-3.163832023699146:2.2247507261172457] [-1.8406478988288797:12.341740871472258] [-3.296462476818188:15.881360393637182] [-0.22369690663480704:0.55283515738711486] [-0.049164590915145849:0.72190063038357466] [-0.22369690663480704:0.72190063038357466] [-0.19104803589320468:0.72190063038357466] [-0.28944675797106129:0.72190063038357466] [-0.11464901890085552:0.59458250895666509] [0.049137119606121979:0.22664006183587759] [-3.2615460051981171:1.9224295868407937] [-1.8601398968031069:13.942642606704386] [-10.318411701076997:53.512425806099856] [-0.28944675797106129:0.43494519453091496] [0.13548182092084871:0.72190063038357466] [-0.28944675797106129:0.72190063038357466] [-0.19104803589320468:0.72190063038357466] [-0.64907153840900078:0.72190063038357466] [-0.20611521101772551:0.5572438145078823] [0.071760585805870566:0.23716987488726493] [-1.944229709322026:0.78725619263611413] [-1.6710087657747321:7.212877977081062] [-37.100737983190591:100.30388661141882] [-0.64907153840900078:0.39166586467474385] [0.14336893668840214:0.72190063038357466] [-0.64907153840900078:0.72190063038357466] [-0.19104803589320468:0.72190063038357466] [-0.64907153840900078:0.72190063038357466] [-0.1704112578208026:0.52791404972880274] [0.084432303545183107:0.28614187218323928] [-1.6980962680055449:0.47399691003588007] [-1.6353509577383529:5.4955509876701942] [-42.943636970842256:133.0343405316583] [-0.64907153840900078:0.35343373314505389] [0.14336893668840214:0.72190063038357466] [-0.64907153840900078:0.72190063038357466] [-0.19104803589320468:0.72190063038357466] [-0.64907153840900078:0.71059317363842245] [-0.074969985067610406:0.40323267101144467] [0.16307979176515514:0.34812469154611503] [-1.0118872237432104:0.2013015067509159] [-1.1825307450739508:0.50031380547681237] [-37.784872474075648:203.22926618976811] [-0.64907153840900078:-0.0080684262746153687] [0.38564179913325425:0.72190063038357466] [-0.64907153840900078:0.71059317363842245] [-0.19104803589320468:0.72190063038357466]
tree_sizes=2128 2494 2326

Tree=0
num_leaves=24
num_cat=0
split_feature=85 1 50 27 64 67 85 56 66 67 80 27 67 85 46 57 66 28 35 39 51 44 84
split_gain=27.9899 2.34697 2.14717 0.682014 0.652141 0.460012 0.331951 0.28973 0.281382 0.261922 0.209056 0.166054 0.156323 0.152725 0.104315 0.089479 0.0814774 0.0442524 0.0304026 0.0283477 0.0263806 0.0238822 0.019794
threshold=0.25664949469578441 0.081314040246492983 0.61563008657985707 32.044552331557746 0.20528058907783664 1.316925950100345 0.32239352327690557 -0.24486655770168234 -0.096643121112845412 -1.1623685411453781 0.61212341065971887 34.330441248457269 -0.56825176833063906 0.28889497686842963 -0.4057173105880057 -0.6339590739497164 -0.2055488485590489 10.422696161610434 0.024111799120399364 0.24640725620600001 0.50979229429125905 0.097581930289964494 0.37965754930892781
decision_type=10 2 2 2 2 2 10 2 2 2 2 2 2 10 2 2 2 2 2 2 2 2 8
left_child=1 4 5 19 7 6 12 -1 -4 -6 -5 15 20 18 -11 -12 -9 -13 -14 -3 -2 -16 -18
right_child=2 3 8 10 9 -7 -8 16 -10 14 11 17 13 -15 21 -17 22 -19 -20 -21 -22 -23 -24
leaf_value=0.43826882876909001 0.43080874122032153 0.44834793043428861 0.41277737847660034 0.44084831876530878 0.4325662106779396 0.41993685191747615 0.42192868288316931 0.44129781549735692 0.4187049413193058 0.44040318131388168 0.44499786744897146 0.44428361244047931 0.42682781306490974 0.42389691012280278 0.43783618318628414 0.44865218926729866 0.44520307028413697 0.44166652770145115 0.42909579013161658 0.45020552269798325 0.42869151259807453 0.43627213252089525 0.44336910315348471
leaf_weight=34 20 28 24 32 21 21 22 29 37 22 29 24 21 27 35 21 20 23 22 32 23 36 23
leaf_count=34 20 28 24 32 21 21 22 29 37 22 29 24 21 27 35 21 20 23 22 32 23 36 23
internal_value=0.435532 0.442099 0.423155 0.445583 0.439105 0.425807 0.42672 0.441513 0.416373 0.436867 0.443837 0.444822 0.427653 0.42641 0.437838 0.446533 0.443044 0.443003 0.427988 0.449339 0.429676 0.437043 0.444222
internal_weight=626 409 217 189 220 156 135 106 61 114 129 97 113 70 93 50 72 47 43 60 43 71 43
internal_count=626 409 217 189 220 156 135 106 61 114 129 97 113 70 93 50 72 47 43 60 43 71 43
is_linear=0
shrinkage=1


Tree=1
num_leaves=27
num_cat=0
split_feature=59 83 50 77 77 59 27 27 64 27 54 50 28 76 40 73 87 53 44 44 46 56 32 43 44 77
split_gain=23.6176 2.95725 1.77595 0.686965 0.638608 0.623105 0.397585 0.301155 0.311086 0.268564 0.26854 0.23065 0.21855 0.171958 0.139479 0.11499 0.0886617 0.0823348 0.0618533 0.0608068 0.0605253 0.0487111 0.0315652 0.031391 0.0221036 0.0165075
threshold=0.27783531151323976 0.16872149679880372 0.61563008657985707 -1.1655166862788111 -0.5776101464715413 0.16177342783868179 9.588695589509852 33.854912718531416 0.091636723017297153 31.694868027412628 0.57732448218896726 0.56772474183730026 9.1550954167956675 -0.59274890635577038 0.48862680348369608 0.5285778360215484 -1.0138697915212449 0.20613986898459929 0.53182112325964159 0.40170015142178805 -0.10453691486700094 -0.13488328161620194 0.62027697521746161 0.19659520620126097 0.052653575679365162 -0.79991844571091086
decision_type=2 8 2 2 2 2 2 2 2 2 2 2 2 2 2 2 10 2 2 2 2 2 2 2 2 2
left_child=1 5 4 17 13 6 -1 8 24 23 22 -6 15 -2 16 25 -11 -3 -13 21 -15 -9 -4 -10 -5 -8
right_child=2 3 10 7 11 -7 12 19 9 14 -12 18 -14 20 -16 -17 -18 -19 -20 -21 -22 -23 -24 -25 -26 -27
leaf_value=0.0076107984347304567 -0.015956048543618821 0.0014300787317901265 -0.015328905737624774 0.0058281504763819832 -0.0029259790953143345 -0.0042722033443174014 0.0003983161551706095 0.0043552611869797026 0.012297688838081652 0.0057122465431117993 -0.022480463807888089 -0.0099754221918315969 -0.0020188915572343035 -0.0096711667471743087 0.011830815566981796 0.0050628186056690377 0.0097268042688208965 0.0051340462100108444 -0.006775024247305958 0.0081918488023121332 -0.012647472100546986 0.0072042415090778061 -0.017724282810532059 0.014394321922391293 0.0077661644539301824 0.0019526679605688037
leaf_weight=20 20 24 20 20 20 36 23 24 25 20 21 23 30 23 24 20 20 20 21 28 27 20 20 27 23 27
leaf_count=20 20 24 20 20 20 36 23 24 25 20 21 23 30 23 24 20 20 20 21 28 27 20 20 27 23 27
internal_value=-0.000233951 0.00533636 -0.0125458 0.00799629 -0.00980052 0.000647369 0.00212324 0.00892631 0.00996223 0.0111104 -0.0185763 -0.00672234 0.00102573 -0.0126149 0.00926126 0.00233057 0.00771953 0.0031137 -0.00844796 0.00663865 -0.0112784 0.00565025 -0.0165266 0.0133863 0.00686476 0.00123767
internal_weight=626 431 195 275 134 156 120 231 159 116 61 64 100 70 64 70 40 44 44 72 50 44 40 52 43 50
internal_count=626 431 195 275 134 156 120 231 159 116 61 64 100 70 64 70 40 44 44 72 50 44 40 52 43 50
is_linear=0
shrinkage=0.0426353


Tree=2
num_leaves=25
num_cat=0
split_feature=85 1 50 54 27 67 85 54 57 78 42 27 77 53 85 71 55 41 39 54 28 50 91 47
split_gain=23.5764 1.97689 1.79491 0.647648 0.57429 0.385295 0.284162 0.246402 0.214289 0.197896 0.196208 0.168168 0.144918 0.132568 0.113511 0.0791359 0.0504155 0.0480042 0.0287714 0.0218728 0.0179172 0.017397 0.0119834 0.00898868
threshold=0.25664949469578441 0.081314040246492983 0.61563008657985707 0.1635944514209676 31.694868027412628 1.316925950100345 0.32239352327690557 0.57638858193601739 1.432661085802118 35.075133237369762 0.18795622169811399 35.642383387409879 -0.21563489813440387 0.46531335442318095 0.28889497686842963 0.50811555928086471 0.14160347161945461 0.45109813731371179 0.24640725620600001 0.18869955357728027 9.5955242247315784 0.56495543072799748 -0.20993948749813149 -1.1356541003911191
decision_type=10 2 2 2 2 2 10 2 2 2 2 2 2 2 10 2 2 2 2 2 2 2 10 2
left_child=1 3 5 16 18 6 12 -4 10 -6 15 17 14 19 -2 -5 -1 20 -3 -12 -11 -14 -18 -17
right_child=2 4 7 8 9 -7 -8 -9 -10 11 13 -13 21 -15 -16 23 22 -19 -20 -21 -22 -23 -24 -25
leaf_value=0.0050852547438247379 -0.0072619395935069045 0.011773372585996587 -0.015676141637155642 0.0048247906803500391 0.0038481389611715352 -0.014530904988037279 -0.012756055455151672 -0.021267292752777913 0.0051019043750741419 0.0093034941327283273 0.0016163653187785869 0.0055778910864431848 -0.0048248664125617345 -0.0035967065267919767 -0.010897713024878514 0.0010417371215530791 0.0069689983610606654 0.010429044973071205 0.013780615370555947 -0.00024389642955397633 0.0076430115276528501 -0.0064400137412101988 0.008444905212234035 0.0022348451656788709
leaf_weight=20 37 25 38 20 22 21 22 23 27 21 20 31 22 20 27 24 20 36 27 27 27 27 20 22
leaf_count=20 37 25 38 20 22 21 22 23 27 21 20 31 22 20 27 24 20 36 27 27 27 27 20 22
internal_value=-0.000223976 0.00580286 -0.0115833 0.00305548 0.00900087 -0.00915859 -0.00832289 -0.0177843 0.0016389 0.00755295 0.00093588 0.0082617 -0.0074598 -0.000689433 -0.00879578 0.00258582 0.00683305 0.00925215 0.0128156 0.000547704 0.00836947 -0.00571485 0.00770695 0.00161235
internal_weight=626 409 217 220 189 156 135 61 160 137 133 115 113 67 64 66 60 84 52 47 48 49 40 46
internal_count=626 409 217 220 189 156 135 61 160 137 133 115 113 67 64 66 60 84 52 47 48 49 40 46
is_linear=0
shrinkage=0.0426353


end of trees

feature_importances:
PE_Ratio=7
std_504=6
max_25=5
ma_25=4
ma_90=4
kurt_180=4
kurt_252=4
PB_Ratio=3
ROE=2
min_5=2
skew_25=2
lag_90=2
skew_90=2
kurt_90=2
min_90=2
ma_180=2
skew_180=2
Returns=1
std_5=1
max_5=1
first_return_5=1
last_return_5=1
lag_25=1
kurt_25=1
first_return_25=1
std_90=1
first_return_180=1
lag_252=1
skew_252=1
total_return_252=1
max_252=1
lag_504=1
ma_504=1
kurt_504=1
first_return_504=1

parameters:
[boosting: gbdt]
[objective: regression]
[metric: rmse]
[tree_learner: serial]
[device_type: cpu]
[data_sample_strategy: bagging]
[data: ]
[valid: ]
[num_iterations: 2000]
[learning_rate: 0.0426353]
[num_leaves: 64]
[num_threads: 4]
[seed: 42]
[deterministic: 0]
[force_col_wise: 0]
[force_row_wise: 0]
[histogram_pool_size: -1]
[max_depth: -1]
[min_data_in_leaf: 20]
[min_sum_hessian_in_leaf: 0.001]
[bagging_fraction: 0.8]
[pos_bagging_fraction: 1]
[neg_bagging_fraction: 1]
[bagging_freq: 5]
[bagging_seed: 400]
[bagging_by_query: 0]
[feature_fraction: 0.8]
[feature_fraction_bynode: 1]
[feature_fraction_seed: 30056]
[extra_trees: 0]
[extra_seed: 12879]
[early_stopping_round: 0]
[early_stopping_min_delta: 0]
[first_metric_only: 0]
[max_delta_step: 0]
[lambda_l1: 0]
[lambda_l2: 0]
[linear_lambda: 0]
[min_gain_to_split: 0]
[drop_rate: 0.1]
[max_drop: 50]
[skip_drop: 0.5]
[xgboost_dart_mode: 0]
[uniform_drop: 0]
[drop_seed: 17869]
[top_rate: 0.2]
[other_rate: 0.1]
[min_data_per_group: 100]
[max_cat_threshold: 32]
[cat_l2: 10]
[cat_smooth: 10]
[max_cat_to_onehot: 4]
[top_k: 20]
[monotone_constraints: ]
[monotone_constraints_method: basic]
[monotone_penalty: 0]
[feature_contri: ]
[forcedsplits_filename: ]
[refit_decay_rate: 0.9]
[cegb_tradeoff: 1]
[cegb_penalty_split: 0]
[cegb_penalty_feature_lazy: ]
[cegb_penalty_feature_coupled: ]
[path_smooth: 0]
[interaction_constraints: ]
[verbosity: -1]
[saved_feature_importance_type: 0]
[use_quantized_grad: 0]
[num_grad_quant_bins: 4]
[quant_train_renew_leaf: 0]
[stochastic_rounding: 1]
[linear_tree: 0]
[max_bin: 255]
[max_bin_by_feature: ]
[min_data_in_bin: 3]
[bin_construct_sample_cnt: 200000]
[data_random_seed: 175]
[is_enable_sparse: 1]
[enable_bundle: 1]
[use_missing: 1]
[zero_as_missing: 0]
[feature_pre_filter: 1]
[pre_partition: 0]
[two_round: 0]
[header: 0]
[label_column: ]
[weight_column: ]
[group_column: ]
[ignore_column: ]
[categorical_feature: ]
[forcedbins_filename: ]
[precise_float_parser: 0]
[parser_config_file: ]
[objective_seed: 16083]
[num_class: 1]
[is_unbalance: 0]
[scale_pos_weight: 1]
[sigmoid: 1]
[boost_from_average: 1]
[reg_sqrt: 0]
[alpha: 0.9]
[fair_c: 1]
[poisson_max_delta_step: 0.7]
[tweedie_variance_power: 1.5]
[lambdarank_truncation_level: 30]
[lambdarank_norm: 1]
[label_gain: ]
[lambdarank_position_bias_regularization: 0]
[eval_at: ]
[multi_error_top_k: 1]
[auc_mu_weights: ]
[num_machines: 1]
[local_listen_port: 12400]
[time_out: 120]
[machine_list_filename: ]
[machines: ]
[gpu_platform_id: -1]
[gpu_device_id: -1]
[gpu_use_dp: 0]
[num_gpu: 1]

end of parameters

pandas_categorical:[]
