tree
version=v4
num_class=1
num_tree_per_iteration=1
label_index=0
max_feature_idx=94
objective=regression
feature_names=WeightedAverageNumberOfDilutedSharesOutstanding ROE ROA AssetTurnover DebtToEquity NetProfitMargin OperatingMargin EarningsPerShareDiluted_log GrossProfit_log NetIncomeLoss_log OperatingIncomeLoss_log Revenues_log Assets_log Liabilities_log NoncurrentAssets_log WeightedAverageNumberOfDilutedSharesOutstanding_log Equity_log ROE_log ROA_log BookValuePerShare_log SalesPerShare_log AssetTurnover_log DebtToEquity_log NetProfitMargin_log OperatingMargin_log EarningsPerShareDilutedTTM_log SalesPerShareTTM_log PE_Ratio PB_Ratio PS_Ratio MarketCapLog Price CostsAndExpenses_log Returns Returns_Daily lag_5 ma_5 std_5 skew_5 kurt_5 total_return_5 min_5 max_5 first_return_5 last_return_5 lag_25 ma_25 std_25 skew_25 kurt_25 total_return_25 min_25 max_25 first_return_25 last_return_25 lag_90 ma_90 std_90 skew_90 kurt_90 total_return_90 min_90 max_90 first_return_90 last_return_90 lag_180 ma_180 std_180 skew_180 kurt_180 total_return_180 min_180 max_180 first_return_180 last_return_180 lag_252 ma_252 std_252 skew_252 kurt_252 total_return_252 min_252 max_252 first_return_252 last_return_252 lag_504 ma_504 std_504 skew_504 kurt_504 total_return_504 min_504 max_504 first_return_504 last_return_504
feature_infos=[28341795:28560000] [0.027364614709963122:0.055176892436970083] [0.024076838416678265:0.048989492310598154] none [0.1229318489958478:0.14757518897129768] none none [-0.39518731633615128:0.45695203762490033] [-0.29589037717277622:0.35610348813957238] [-0.39565312750726833:0.46004403651768611] [-0.43967085386201188:0.48046134686231606] none [0.016865225993783272:0.055303263914203475] [-0.099931474692310229:0.092138363857907107] none [-0.00046581117111712915:0.0030919988927857697] [0.024123502154787681:0.055741893863257626] [-0.4197766296620562:0.41348928161442361] [-0.41251835350105165:0.41580290641697654] [0.024589313325904895:0.054430588231052041] none none [-0.15567336855556793:0.041987295658344671] none none [-0.022884713125046453:0.16922849188923356] none [13.589985749734929:24.60744737616513] [1.8445086193913434:3.5432085462922704] none [-0.083588499106048833:0.068932985306085423] [0.15865669053969345:0.32624812677743759] none [-0.31782994849610607:0.69637826346415199] [-0.076948713916753342:0.059573768037807062] [-0.31782994849610607:0.69637826346415199] [-0.31297210302522682:0.6637974697090725] [0.0029594063110167782:0.069305450311806571] [-2.1640975061932246:2.1731537162642494] [-3.3204057561945102:4.7916266335754072] [-0.1210760748033522:0.12357468903188222] [-0.31782994849610607:0.64381022285779876] [-0.31042149331975771:0.69637826346415199] [-0.31782994849610607:0.69637826346415199] [-0.31782994849610607:0.69637826346415199] [-0.31782994849610607:0.69637826346415199] [-0.29126907627329746:0.62412417476723581] [0.016295352105494668:0.1042996461452982] [-1.4928347628584615:1.9444661080058301] [-1.7788138863790233:5.7155836597886793] [-0.21260968675776645:0.23354363753884433] [-0.31782994849610607:0.56532742630272881] [-0.25018623771855847:0.69637826346415199] [-0.31782994849610607:0.69637826346415199] [-0.31782994849610607:0.69637826346415199] [-0.31782994849610607:0.68988604249191054] [-0.22991859316848998:0.59626656033133807] [0.037867764308972172:0.15304014856530923] [-1.8702218132357042:1.2831748798478997] [-1.5801384440400805:4.4191931304301715] [-0.20718811618433139:0.39267893895631323] [-0.31782994849610607:0.50092188426669337] [-0.10926227828468542:0.69637826346415199] [-0.31782994849610607:0.68988604249191054] [-0.31782994849610607:0.69637826346415199] [-0.31782994849610607:0.80429311302640194] [-0.19143835370312262:0.48712855631550173] [0.064053319619667939:0.21133071640959464] [-0.46019570377663122:1.1248770472753529] [-1.6181042624641746:0.9365080791543785] [-0.31761891694252675:0.60253893605186948] [-0.31782994849610607:0.26707734372882075] [-0.038336304698070978:0.80429311302640194] [-0.31782994849610607:0.80429311302640194] [-0.31782994849610607:0.69637826346415199] [-0.31782994849610607:0.80429311302640194] [-0.13260548449191312:0.40714033969556884] [0.112203901994125:0.26469902455566241] [-0.42296748577415733:1.0935055565454761] [-1.4876222369326377:0.82641702037728315] [-0.31782994849610657:0.69637826346415299] [-0.31782994849610607:0.10625144159829773] [0.13667146356976109:0.80429311302640194] [-0.31782994849610607:0.80429311302640194] [-0.31782994849610607:0.69637826346415199] [-0.1361644877309533:0.80429311302640194] [0.077067779598380709:0.27519249647285071] [0.19106806144098906:0.30545644729963528] [-0.10097629216286715:0.45758693612900497] [-1.3556551668584522:-0.40006300059821109] [0.01107955317200169:0.68794651104873128] [-0.31782994849610607:-0.1361644877309533] [0.49093680724549688:0.80429311302640194] [-0.1361644877309533:0.80429311302640194] [-0.31782994849610607:0.69637826346415199]
tree_sizes=1585

Tree=0
num_leaves=17
num_cat=0
split_feature=0 86 92 76 66 58 28 33 28 27 87 46 50 93 89 46
split_gain=3.26975 1.61004 0.282322 0.270981 0.19809 0.055463 0.0546676 0.0285686 0.0226808 0.0102102 0.0069547 0.00601581 0.00291451 0.00230485 0.00143081 0.000795403
threshold=28545000.000000004 0.21988156344609344 0.71107902285748159 0.37526199186930592 0.41883854813835886 -0.66523246523038859 2.1146768063260386 0.3384023994196585 2.4471494204022446 19.143166242054686 0.25740660577820246 0.11087041247860682 0.081622342254794325 0.13922560026720393 -0.66528920360396937 -0.25278687118979037
decision_type=2 2 2 2 2 2 2 2 2 2 2 2 2 2 2 2
left_child=1 2 5 -2 8 -1 13 -6 14 10 -7 12 -8 -4 -3 -15
right_child=3 4 6 -5 7 9 11 -9 -10 -11 -12 -13 -14 15 -16 -17
leaf_value=0.057088005362740217 0.060374404391480951 0.049988186752086834 0.052812530514720887 0.067231461566204673 0.04670743825756804 0.055476055707596471 0.051697352242142509 0.044793952678875849 0.048277272701845036 0.053980025784216665 0.054544989541233796 0.052134864487825019 0.051139102976784749 0.053562350898467559 0.049535275151543892 0.053215236320322497
leaf_weight=20 20 21 20 22 37 25 34 23 32 31 35 31 34 20 32 30
leaf_count=20 20 21 20 22 37 25 34 23 32 31 35 31 34 20 32 30
internal_value=0.0526177 0.0514962 0.0533846 0.0639662 0.0478496 0.0550551 0.0522874 0.0459739 0.0491736 0.0546083 0.0549329 0.0516426 0.0514182 0.0531994 0.0497147 0.0533541
internal_weight=467 425 280 42 145 111 169 60 85 91 60 99 68 70 53 50
internal_count=467 425 280 42 145 111 169 60 85 91 60 99 68 70 53 50
is_linear=0
shrinkage=1


end of trees

feature_importances:
PB_Ratio=2
ma_25=2
WeightedAverageNumberOfDilutedSharesOutstanding=1
PE_Ratio=1
Returns=1
total_return_25=1
skew_90=1
ma_180=1
ma_252=1
ma_504=1
std_504=1
kurt_504=1
max_504=1
first_return_504=1

parameters:
[boosting: gbdt]
[objective: regression]
[metric: rmse]
[tree_learner: serial]
[device_type: cpu]
[data_sample_strategy: bagging]
[data: ]
[valid: ]
[num_iterations: 2000]
[learning_rate: 0.0426353]
[num_leaves: 64]
[num_threads: 4]
[seed: 42]
[deterministic: 0]
[force_col_wise: 0]
[force_row_wise: 0]
[histogram_pool_size: -1]
[max_depth: -1]
[min_data_in_leaf: 20]
[min_sum_hessian_in_leaf: 0.001]
[bagging_fraction: 0.8]
[pos_bagging_fraction: 1]
[neg_bagging_fraction: 1]
[bagging_freq: 5]
[bagging_seed: 400]
[bagging_by_query: 0]
[feature_fraction: 0.8]
[feature_fraction_bynode: 1]
[feature_fraction_seed: 30056]
[extra_trees: 0]
[extra_seed: 12879]
[early_stopping_round: 0]
[early_stopping_min_delta: 0]
[first_metric_only: 0]
[max_delta_step: 0]
[lambda_l1: 0]
[lambda_l2: 0]
[linear_lambda: 0]
[min_gain_to_split: 0]
[drop_rate: 0.1]
[max_drop: 50]
[skip_drop: 0.5]
[xgboost_dart_mode: 0]
[uniform_drop: 0]
[drop_seed: 17869]
[top_rate: 0.2]
[other_rate: 0.1]
[min_data_per_group: 100]
[max_cat_threshold: 32]
[cat_l2: 10]
[cat_smooth: 10]
[max_cat_to_onehot: 4]
[top_k: 20]
[monotone_constraints: ]
[monotone_constraints_method: basic]
[monotone_penalty: 0]
[feature_contri: ]
[forcedsplits_filename: ]
[refit_decay_rate: 0.9]
[cegb_tradeoff: 1]
[cegb_penalty_split: 0]
[cegb_penalty_feature_lazy: ]
[cegb_penalty_feature_coupled: ]
[path_smooth: 0]
[interaction_constraints: ]
[verbosity: -1]
[saved_feature_importance_type: 0]
[use_quantized_grad: 0]
[num_grad_quant_bins: 4]
[quant_train_renew_leaf: 0]
[stochastic_rounding: 1]
[linear_tree: 0]
[max_bin: 255]
[max_bin_by_feature: ]
[min_data_in_bin: 3]
[bin_construct_sample_cnt: 200000]
[data_random_seed: 175]
[is_enable_sparse: 1]
[enable_bundle: 1]
[use_missing: 1]
[zero_as_missing: 0]
[feature_pre_filter: 1]
[pre_partition: 0]
[two_round: 0]
[header: 0]
[label_column: ]
[weight_column: ]
[group_column: ]
[ignore_column: ]
[categorical_feature: ]
[forcedbins_filename: ]
[precise_float_parser: 0]
[parser_config_file: ]
[objective_seed: 16083]
[num_class: 1]
[is_unbalance: 0]
[scale_pos_weight: 1]
[sigmoid: 1]
[boost_from_average: 1]
[reg_sqrt: 0]
[alpha: 0.9]
[fair_c: 1]
[poisson_max_delta_step: 0.7]
[tweedie_variance_power: 1.5]
[lambdarank_truncation_level: 30]
[lambdarank_norm: 1]
[label_gain: ]
[lambdarank_position_bias_regularization: 0]
[eval_at: ]
[multi_error_top_k: 1]
[auc_mu_weights: ]
[num_machines: 1]
[local_listen_port: 12400]
[time_out: 120]
[machine_list_filename: ]
[machines: ]
[gpu_platform_id: -1]
[gpu_device_id: -1]
[gpu_use_dp: 0]
[num_gpu: 1]

end of parameters

pandas_categorical:[]
