tree
version=v4
num_class=1
num_tree_per_iteration=1
label_index=0
max_feature_idx=94
objective=regression
feature_names=WeightedAverageNumberOfDilutedSharesOutstanding ROE ROA AssetTurnover DebtToEquity NetProfitMargin OperatingMargin EarningsPerShareDiluted_log GrossProfit_log NetIncomeLoss_log OperatingIncomeLoss_log Revenues_log Assets_log Liabilities_log NoncurrentAssets_log WeightedAverageNumberOfDilutedSharesOutstanding_log Equity_log ROE_log ROA_log BookValuePerShare_log SalesPerShare_log AssetTurnover_log DebtToEquity_log NetProfitMargin_log OperatingMargin_log EarningsPerShareDilutedTTM_log SalesPerShareTTM_log PE_Ratio PB_Ratio PS_Ratio MarketCapLog Price CostsAndExpenses_log Returns Returns_Daily lag_5 ma_5 std_5 skew_5 kurt_5 total_return_5 min_5 max_5 first_return_5 last_return_5 lag_25 ma_25 std_25 skew_25 kurt_25 total_return_25 min_25 max_25 first_return_25 last_return_25 lag_90 ma_90 std_90 skew_90 kurt_90 total_return_90 min_90 max_90 first_return_90 last_return_90 lag_180 ma_180 std_180 skew_180 kurt_180 total_return_180 min_180 max_180 first_return_180 last_return_180 lag_252 ma_252 std_252 skew_252 kurt_252 total_return_252 min_252 max_252 first_return_252 last_return_252 lag_504 ma_504 std_504 skew_504 kurt_504 total_return_504 min_504 max_504 first_return_504 last_return_504
feature_infos=[28170000:28560000] [0.024954201118978066:0.055176892436970083] [0.022011617242433508:0.048989492310598154] none [0.1229318489958478:0.14865310470779219] none none [-0.39518731633615128:0.45695203762490033] [-0.29589037717277622:0.35610348813957238] [-0.39565312750726833:0.46004403651768611] [-0.43967085386201188:0.48046134686231606] none [0.016865225993783272:0.055303263914203475] [-0.099931474692310229:0.10522464974147809] none [-0.00046581117111712915:0.0042705819566186609] [0.022923887789654682:0.055741893863257626] [-0.4197766296620562:0.41348928161442361] [-0.41251835350105165:0.41580290641697654] [0.020638352845720125:0.054430588231052041] none none [-0.15567336855556793:0.066763591159404306] none none [-0.023253665370589156:0.16922849188923356] none [13.589985749734929:30.352198404833008] [1.6797427304949502:3.5432085462922704] none [-0.088787788150605729:0.14995837025512421] [0.10671802885397279:0.32624812677743759] none [-0.31782994849610607:0.80429311302640194] [-0.084015473861978149:0.14155381462877714] [-0.31782994849610607:0.80429311302640194] [-0.31297210302522682:0.71789973995467904] [0.0023871168279489072:0.10842014511044401] [-2.2213442301669106:2.1731537162642494] [-3.3204057561945102:4.9460542393459663] [-0.1302172603107761:0.16310596236457972] [-0.31782994849610607:0.6476105862435253] [-0.31042149331975771:0.80429311302640194] [-0.31782994849610607:0.80429311302640194] [-0.31782994849610607:0.80429311302640194] [-0.31782994849610607:0.80429311302640194] [-0.29126907627329746:0.63835950665973717] [0.016295352105494668:0.11775578179630404] [-3.0111033605120157:2.853793703982253] [-1.7788138863790233:11.88677736399486] [-0.21260968675776645:0.24359454528279759] [-0.31782994849610607:0.56532742630272881] [-0.25018623771855847:0.80429311302640194] [-0.31782994849610607:0.80429311302640194] [-0.31782994849610607:0.80429311302640194] [-0.31782994849610607:0.80429311302640194] [-0.22991859316848998:0.59626656033133807] [0.037867764308972172:0.19244787359456864] [-1.8702218132357042:1.2831748798478997] [-1.5801384440400805:4.4191931304301715] [-0.26624022722503671:0.43253018871973464] [-0.31782994849610607:0.50092188426669337] [-0.10926227828468542:0.80429311302640194] [-0.31782994849610607:0.80429311302640194] [-0.31782994849610607:0.80429311302640194] [-0.31782994849610607:0.80429311302640194] [-0.19143835370312262:0.48712855631550173] [0.064053319619667939:0.21133071640959464] [-0.69034996399330661:1.4313845768836895] [-1.6181042624641746:2.8804953007148146] [-0.31761891694252675:0.70785788259359983] [-0.31782994849610607:0.26707734372882075] [-0.038336304698070978:0.80429311302640194] [-0.31782994849610607:0.80429311302640194] [-0.31782994849610607:0.80429311302640194] [-0.31782994849610607:0.80429311302640194] [-0.13260548449191312:0.40714033969556884] [0.112203901994125:0.26469902455566241] [-0.52075621752226242:1.0935055565454761] [-1.4876222369326377:1.6686477507312443] [-0.31782994849610657:0.80429311302640127] [-0.31782994849610607:0.10625144159829773] [0.13667146356976109:0.80429311302640194] [-0.31782994849610607:0.80429311302640194] [-0.31782994849610607:0.80429311302640194] [-0.1361644877309533:0.80429311302640194] [0.077067779598380709:0.27519249647285071] [0.11712273029311725:0.30545644729963528] [-0.10097629216286715:1.1491751944474695] [-1.3556551668584522:1.9537530639735101] [-0.15111773328444716:0.74308115884846471] [-0.31782994849610607:-0.1361644877309533] [0.36006526042979664:0.80429311302640194] [-0.1361644877309533:0.80429311302640194] [-0.31782994849610607:0.80429311302640194]
tree_sizes=2634 2640 2656 2570 2741 2848 2760 2671 2569

Tree=0
num_leaves=29
num_cat=0
split_feature=91 66 94 46 86 76 35 28 28 27 67 67 69 46 33 47 89 62 27 28 31 90 28 58 50 46 58 48
split_gain=4.61293 2.1971 0.748725 0.353054 0.200645 0.0824776 0.0792294 0.0587034 0.0294466 0.0106872 0.00921464 0.00886936 0.00812013 0.00717011 0.00626256 0.00611213 0.00286399 0.00251869 0.00251329 0.00251193 0.00183573 0.00143225 0.00127362 0.0011355 0.00107439 0.00100024 0.000657563 0.000607423
threshold=-0.25293862456092309 0.40152092002121337 0.10129236665377926 0.52211855220289405 0.10800493950460065 0.13491034704183705 0.35887374653168791 2.1292110358957546 2.4471494204022446 19.10936052797592 0.17960293291582152 0.17300376361407718 -0.64718130170388199 0.10924917147205662 0.066578127773372173 0.029065280522628457 -0.66528920360396937 -0.099392991103819509 16.835684371109036 2.5826741135723137 0.208019232058926 0.21455664303869409 2.0006034753958324 -0.59159154791995705 -0.0059817818566462897 0.5756753459554439 -0.088987659867825225 0.30846592375042681
decision_type=8 2 10 2 10 2 2 2 2 2 2 2 2 2 2 2 8 2 2 2 2 2 2 2 2 2 2 2
left_child=1 4 5 -3 9 14 12 17 16 10 11 -1 -4 18 -2 -8 -7 -6 -9 -10 -17 -20 -19 -14 -18 27 -16 -22
right_child=2 3 6 -5 7 8 15 13 19 -11 -12 -13 23 -15 26 20 24 22 21 -21 25 -23 -24 -25 -26 -27 -28 -29
leaf_value=0.020896687495439468 0.017820977267004958 0.033360219540850902 0.014000364346271636 0.026101384913465919 0.019723626068263982 0.016233484289641147 0.010803115833672192 0.017937914661112036 0.014725039877644787 0.020157336737990379 0.020623722028291856 0.022137237360049238 0.013204678003116321 0.018356332914293502 0.016734101884128886 0.011944491812986921 0.015798201879120892 0.019415753245962508 0.017588495269477734 0.014099435276419001 0.011549434585336018 0.01710635929087756 0.018955077516448697 0.012805027133034524 0.01544448339691736 0.011768370493306136 0.017075692469764876 0.011266973545967472
leaf_weight=20 20 21 20 29 28 20 20 20 28 29 37 22 24 28 21 24 37 24 24 20 31 21 20 28 27 21 20 25
leaf_count=20 20 21 20 29 28 20 20 20 28 29 37 22 24 28 21 24 37 24 24 20 31 21 20 28 27 21 20 25
internal_value=0.0171741 0.0209335 0.0140282 0.0291501 0.0194287 0.0159059 0.0121504 0.0184935 0.0153068 0.0208573 0.0211143 0.0215465 0.0132703 0.0177859 0.0172025 0.0114841 0.0157881 0.0194075 0.0175402 0.0144644 0.0116189 0.0173635 0.0192064 0.0129895 0.015649 0.0115174 0.0169007 0.0114233
internal_weight=709 323 386 50 273 193 193 165 132 108 79 42 72 93 61 121 84 72 65 48 101 45 44 52 64 77 41 56
internal_count=709 323 386 50 273 193 193 165 132 108 79 42 72 93 61 121 84 72 65 48 101 45 44 52 64 77 41 56
is_linear=0
shrinkage=1


Tree=1
num_leaves=28
num_cat=0
split_feature=91 63 94 46 51 0 43 28 93 28 27 28 69 46 86 31 42 85 27 28 70 90 47 78 31 50 46
split_gain=4.22796 2.00871 0.686241 0.237922 0.236045 0.0725822 0.07251 0.0538044 0.0383137 0.0257641 0.00772756 0.00772173 0.00724568 0.00657175 0.00597174 0.0058387 0.00301745 0.00268219 0.00230355 0.0023023 0.00185677 0.00131272 0.00121013 0.00103788 0.000841555 0.000792061 0.000789747
threshold=-0.25293862456092309 0.40363593514451596 0.10129236665377926 0.51051990691984239 0.2063823827072708 28202157.500000004 0.35887374653168791 2.1292110358957546 0.3764347298299201 2.4471494204022446 19.10936052797592 2.070147427637012 -0.64718130170388199 0.10924917147205662 0.087440894829115143 0.21605070393674017 -0.11181424945740938 0.13750434716322588 16.835684371109036 2.5826741135723137 0.39666709251529392 0.21455664303869409 0.03436717735424541 -0.11760486492160278 0.20908920365134884 0.0038604187476112719 -0.25065685258824622
decision_type=8 2 10 2 2 2 2 2 10 2 2 2 2 2 10 2 2 10 2 2 2 2 2 2 2 2 2
left_child=1 4 5 -3 7 11 12 17 -6 16 14 -2 -4 18 -10 20 -7 -1 -9 -11 24 -20 -13 -14 -8 -16 -19
right_child=2 3 6 -5 8 9 15 13 10 19 -12 22 23 -15 25 -17 -18 26 21 -21 -22 -23 -24 -25 -26 -27 -28
leaf_value=0.0017283998353180947 0.00057008964484798173 0.015657193985069345 -0.0030426856949476596 0.0092320122266308473 0.0054663936670384687 -0.0010778445473476326 -0.0052540491962625229 0.00072698584032343462 0.0041202257183573796 -0.002348906887992594 0.0028036104961069088 -0.00065174816810264092 -0.0037793608911562389 0.0011275646979129238 0.0035063927309003534 -0.0059495260534555517 -0.0016082066908708929 0.0024935400842983997 0.00039246409368931469 -0.002947838664211876 -0.0050226708569597461 -6.9115855004415214e-05 -0.00020680267933191173 -0.0041677062678632647 -0.0055817445899151042 0.0031269475724500112 0.0021547828848110235
leaf_weight=21 22 20 20 22 20 39 28 20 29 28 27 20 22 28 20 31 39 22 24 20 34 21 25 29 29 20 29
leaf_count=21 22 20 20 22 20 39 28 20 29 28 27 20 22 28 20 31 39 22 24 20 34 21 25 29 29 20 29
internal_value=-4.30095e-06 0.00359489 -0.00301606 0.0122916 0.00229502 -0.00121837 -0.00481375 0.00125892 0.00376878 -0.00182129 0.00341511 -8.45233e-05 -0.00373047 0.000581497 0.0036544 -0.00544418 -0.00134303 0.00213393 0.000346268 -0.00259846 -0.00527203 0.00017706 -0.000404556 -0.00400018 -0.00542077 0.00331667 0.00230091
internal_weight=709 323 386 42 281 193 193 165 116 126 96 67 71 93 69 122 78 72 65 48 91 45 45 51 57 40 51
internal_count=709 323 386 42 281 193 193 165 116 126 96 67 71 93 69 122 78 72 65 48 91 45 45 51 57 40 51
is_linear=0
shrinkage=0.0426353


Tree=2
num_leaves=28
num_cat=0
split_feature=91 66 94 67 51 51 1 28 79 27 67 28 69 47 92 89 58 42 28 85 31 58 70 79 79 69 50
split_gain=3.87513 1.85116 0.628973 0.295794 0.167752 0.0665611 0.066525 0.0493143 0.0237955 0.00921487 0.00922123 0.00707733 0.00642807 0.00549142 0.00437945 0.00428972 0.00317491 0.00286181 0.00250802 0.00245835 0.00201428 0.0017255 0.000848814 0.000834811 0.000672711 0.000527082 0.000235471
threshold=-0.25293862456092309 0.40152092002121337 0.10129236665377926 0.14385267945983712 0.2063823827072708 0.26685947676708727 0.027084088401379273 2.1292110358957546 -0.77183057812706324 18.741377289883733 0.18024046565862914 2.070147427637012 -0.64718130170388199 0.029065280522628457 0.64345286686045011 -1.3031058990949276 0.08262991020258835 -0.12833106274602862 2.549117596259022 0.13750434716322588 0.20764885553071086 -0.13136715986062916 0.39666709251529392 -0.62028562383314212 -0.89731743268165454 -0.9088081989317438 0.0076430038461667224
decision_type=8 2 10 2 2 2 2 2 2 2 2 2 2 2 10 10 2 2 2 10 2 2 2 2 2 2 2
left_child=1 4 6 -3 7 12 11 19 17 10 -6 -2 -4 -7 -11 -9 -17 -8 -10 -1 -15 -13 26 -14 -21 -19 -22
right_child=2 3 5 -5 9 13 8 15 18 14 -12 21 23 20 -16 16 -18 25 -20 24 22 -23 -24 -25 -26 -27 -28
leaf_value=0.0016547089574911497 0.00054578367091693474 0.014837251439657327 -0.002912959752083273 0.0081930829438329536 0.0042495804415235774 -0.0058523104734328688 -0.0010183083302446236 0.00012654131974300527 -0.0021851095230301949 0.0025230963214069512 0.0031834002576022419 -0.00066954720447997217 -0.0036691083364049641 -0.0047185082661357113 0.0033294064472675893 0.0010519160786031279 0.00045132919910750754 -0.0016765715634439679 -0.0028081472210720942 0.0023376819257051951 -0.0052066083908741739 -0.00014034838125562944 -0.0050242388675613711 -0.004022080209819456 0.0020250317497942471 -0.0013741538425795085 -0.0054017140691441871
leaf_weight=21 22 21 20 29 30 20 37 29 23 24 29 21 29 22 25 32 32 22 24 29 23 24 36 21 22 20 22
leaf_count=21 22 21 20 29 30 20 37 29 23 24 29 21 29 22 25 32 32 22 24 29 23 24 36 21 22 20 22
internal_value=-4.11756e-06 0.00344162 -0.00288747 0.0109836 0.0020603 -0.00460851 -0.00116642 0.00120525 -0.00174364 0.00336662 0.00372553 -8.09196e-05 -0.00355896 -0.00520582 0.00293448 0.000556705 0.000751623 -0.00129171 -0.00250326 0.00204295 -0.00508029 -0.000387308 -0.00517855 -0.00381736 0.00220281 -0.00153256 -0.00530199
internal_weight=709 323 386 50 273 193 193 165 126 108 59 67 70 123 49 93 64 79 47 72 103 45 81 50 51 42 45
internal_count=709 323 386 50 273 193 193 165 126 108 59 67 70 123 49 93 64 79 47 72 103 45 81 50 51 42 45
is_linear=0
shrinkage=0.0426353


Tree=3
num_leaves=27
num_cat=0
split_feature=91 66 56 46 56 46 78 62 69 67 67 46 31 79 90 66 85 47 90 50 46 70 40 31 63 78
split_gain=3.55174 1.69668 0.563801 0.271109 0.153752 0.102388 0.0458696 0.0453294 0.0100979 0.00872815 0.0129959 0.00736778 0.00709961 0.00661642 0.00516203 0.00462147 0.00417411 0.00178958 0.0012965 0.000870859 0.000773494 0.000662922 0.000619545 0.00040321 0.00013357 0.00011689
threshold=-0.25293862456092309 0.40152092002121337 0.18888852584397264 0.52211855220289405 0.13776427591732734 0.30672736288745345 -0.13259929114892344 -0.036198659290351785 -0.60361165869598998 0.17248419867854567 0.17869874055054033 0.10924917147205662 0.2070902629241754 -0.78887751343440538 0.084172438951842551 0.43986471223863738 0.13265112552726974 0.052751295062321034 0.2281638489045594 -0.03573753915695127 -0.25065685258824622 0.39666709251529392 0.0021249872539380464 0.14351686876488226 0.52661838246259129 -0.32168002653366429
decision_type=8 2 2 2 2 2 2 2 2 2 2 2 2 2 2 2 10 2 2 2 2 2 2 2 2 2
left_child=1 4 6 -3 7 8 13 16 17 -6 -11 18 -7 19 -8 21 -1 -4 -9 -2 -18 24 -12 -16 -14 -21
right_child=2 3 5 -5 9 12 14 11 -10 10 22 -13 15 -15 23 -17 20 -19 -20 25 -22 -23 -24 -25 -26 -27
leaf_value=0.0014384523414173581 -0.0010829521977892967 0.014204659527059817 -0.0029679828000946477 0.0078437678985287407 0.0026921454901816877 -0.0043106494491881829 0.00056307836826789898 0.00037630016321677125 -0.0035716779771226529 0.0042145986781393684 0.0032078584590455616 0.0010346417733260909 -0.004977712786548732 -0.0020752726133661729 -0.00011578229554856058 -0.0056404414551103768 0.0022905888316688727 -0.0024506923960632494 -3.1950156528657925e-05 -0.0014509334346725605 0.0019621846348760351 -0.0047983094404931859 0.0028833980904896524 -0.00036696412233333043 -0.0051230831786738913 -0.0013103054585566322
leaf_weight=26 30 21 20 29 37 28 20 31 38 28 20 28 27 24 21 21 22 31 26 22 32 37 23 26 20 21
leaf_count=26 30 21 20 29 37 28 20 31 38 28 20 28 27 24 21 21 22 31 26 22 32 37 23 26 20 21
internal_value=-3.94203e-06 0.00329488 -0.00276436 0.0105153 0.00197246 -0.00416486 -0.000868555 0.00115386 -0.00304556 0.00322309 0.00349978 0.000468289 -0.00491387 -0.00146116 -1.06109e-05 -0.00507473 0.00188228 -0.00265355 0.000190081 -0.00125925 0.00209598 -0.0049333 0.00303431 -0.000254734 -0.00503957 -0.00138225
internal_weight=709 323 386 50 273 222 164 165 89 108 71 85 133 97 67 105 80 51 57 73 54 84 43 47 47 43
internal_count=709 323 386 50 273 222 164 165 89 108 71 85 133 97 67 105 80 51 57 73 54 84 43 47 47 43
is_linear=0
shrinkage=0.0426353


Tree=4
num_leaves=29
num_cat=0
split_feature=91 63 94 46 92 76 43 28 59 28 40 46 88 31 33 28 67 89 27 90 28 70 90 50 45 79 31 60
split_gain=3.25534 1.55517 0.528536 0.182155 0.180602 0.0587644 0.0560842 0.0407918 0.0275824 0.021039 0.0110283 0.0058772 0.0057001 0.00470769 0.00443996 0.00390124 0.00298982 0.00216437 0.00194251 0.00189358 0.00182372 0.00152773 0.00109805 0.000750219 0.000740598 0.000635952 0.00062504 0.000470482
threshold=-0.25293862456092309 0.40363593514451596 0.10129236665377926 0.51051990691984239 0.71107902285748159 0.13491034704183705 0.35887374653168791 2.1292110358957546 -0.28462656299071992 2.4471494204022446 0.0021249872539380464 0.10924917147205662 0.26455289574992841 0.21605070393674017 0.066578127773372173 3.2360261054945689 0.17229972692562395 -0.66528920360396937 16.835684371109036 0.16557479127775412 2.5826741135723137 0.39666709251529392 0.21455664303869409 -0.0059817818566462897 0.27898356435787691 -0.89731743268165454 0.20908920365134884 0.19129569543711125
decision_type=8 2 10 2 10 2 2 2 2 2 2 2 10 2 2 2 2 8 2 2 2 2 2 2 2 2 2 2
left_child=1 4 5 -3 8 14 12 19 10 17 15 18 24 21 -2 -1 -12 -7 -9 25 -11 26 -20 -19 -4 -6 -8 -16
right_child=2 3 6 -5 7 9 13 11 -10 20 16 -13 -14 -15 27 -17 -18 23 22 -21 -22 -23 -24 -25 -26 -27 -28 -29
leaf_value=0.0030678893456888901 0.00054634579386197871 0.013751432323293422 -0.0033634222172889017 0.0081294619137378347 0.0021689384806093041 -0.00078054685315112865 -0.0046152634957763606 0.00065051320012191928 0.004562104969512668 -0.0020645265205603107 0.0021353628370898948 0.0010308016472159369 -0.0026614154082081022 -0.0052323752010526867 -8.0510152062956451e-05 0.0039100043070654034 0.0028083422578353036 -0.0011639750566380918 0.00034252402259423879 0.0015555352973967336 -0.0025975857983446529 -0.0043978390695122343 -7.9630264806461137e-05 -0.0014595522681699372 -0.0036899373477746861 0.0018611663767448257 -0.0048976754086917573 -0.00036945061784249413
leaf_weight=20 20 20 28 22 26 20 28 20 25 28 20 29 20 31 20 20 30 37 24 23 20 34 21 27 23 23 29 21
leaf_count=20 20 20 28 22 26 20 28 20 25 28 20 29 20 31 20 20 30 37 24 23 20 34 21 27 23 23 29 21
internal_value=-3.77394e-06 0.00315441 -0.0026465 0.0108066 0.00201066 -0.00106884 -0.00422416 0.00111101 0.00330929 -0.00157458 0.00296128 0.000526084 -0.00327145 -0.00477861 2.55451e-05 0.00348895 0.00253915 -0.00116769 0.000300902 0.00187467 -0.00228663 -0.00462403 0.000145519 -0.00128867 -0.00351067 0.00202447 -0.00475895 -0.000228504
internal_weight=709 323 386 42 281 193 193 166 115 132 90 94 71 122 61 40 50 84 65 72 48 91 45 64 51 49 57 41
internal_count=709 323 386 42 281 193 193 166 115 132 90 94 71 122 61 40 50 84 65 72 48 91 45 64 51 49 57 41
is_linear=0
shrinkage=0.0426353


Tree=5
num_leaves=30
num_cat=0
split_feature=91 66 94 92 58 76 35 28 79 86 86 31 28 58 56 89 28 63 90 76 31 85 50 47 79 58 70 79 65
split_gain=2.9481 1.5475 0.530999 0.203813 0.0723431 0.0567665 0.0449071 0.0380976 0.0182176 0.00546277 0.00856335 0.00443535 0.00369509 0.00368396 0.00294969 0.00212559 0.00169329 0.00165493 0.00157505 0.00255021 0.00135885 0.00135163 0.00114051 0.000995595 0.000696302 0.000663598 0.000560437 0.000548472 0.000427602
threshold=-0.25293862456092309 0.44783511076300792 0.10129236665377926 0.71107902285748159 -0.70189139468234674 0.13491034704183705 0.35887374653168791 2.1292110358957546 -0.78448484632974513 0.080064372065371314 0.087440894829115143 0.21540313636185562 2.0420478095738326 -0.011904719526046003 0.30470410514381374 -0.66960605817592478 2.549117596259022 0.52661838246259129 0.29690293611865248 -0.11998823256182557 0.20839311625271945 0.14917533350213288 -0.017884204567120258 0.056032692134243695 -0.89254130129243003 -0.088987659867825225 0.40821723568353652 -0.89254130129243003 0.45179096275225844
decision_type=8 2 10 10 2 2 2 2 2 10 10 2 2 2 2 8 2 2 2 2 2 10 2 2 2 2 2 2 2
left_child=1 3 5 4 -1 12 14 21 15 -6 -11 17 -2 -9 -4 -7 -10 20 19 -15 -8 -5 -12 27 -23 -14 -22 -17 -16
right_child=2 -3 6 7 9 8 11 13 16 10 22 -13 25 18 28 23 -18 -19 -20 -21 26 24 -24 -25 -26 -27 -28 -29 -30
leaf_value=0.0056612206223836167 0.00051627676921318357 0.011576502270237585 -0.0028741888620756177 0.0014992612468040947 0.0022711319924406384 -0.00074151946902430328 -0.004032812530635148 0.00099071437730223369 -0.0019261226280056836 0.0036655184034234205 0.0029435019405938188 -0.0050334362884889251 -0.00036252003200432298 0.0001648676408297224 -0.0035817288229778618 -0.0012095939385864426 -0.0024343492742766419 -0.0047080496531993563 2.6571339710161182e-05 0.00073062734360200728 -0.0045897580959580559 0.0020591526440865786 0.0025249940642552665 -0.00099585974898113924 0.0017343810607937922 -3.5857398179137542e-05 -0.0042869591612193217 -0.0014980857979872786 -0.003309340771340835
leaf_weight=20 20 34 26 23 23 20 20 20 26 25 20 31 20 28 22 25 22 30 21 30 25 24 29 21 24 26 20 23 20
leaf_count=20 20 34 26 23 23 20 20 20 26 25 20 31 20 28 22 25 22 30 21 30 25 24 29 21 24 26 20 23 20
internal_value=-6.24413e-05 0.00297579 -0.00251905 0.00195689 0.00332644 -0.000994735 -0.00411408 0.00101432 -0.00148959 0.00284504 0.00302342 -0.00459061 3.24673e-05 0.000473812 -0.00323108 -0.00112853 -0.00215906 -0.00444611 0.000342951 0.000457502 -0.00432522 0.001768 0.00269581 -0.00124071 0.00189677 -0.000177885 -0.00445518 -0.00134783 -0.00345202
internal_weight=718 321 397 287 117 203 194 170 137 97 74 126 66 99 68 89 48 95 79 58 65 71 49 69 48 46 45 48 42
internal_count=718 321 397 287 117 203 194 170 137 97 74 126 66 99 68 89 48 95 79 58 65 71 49 69 48 46 45 48 42
is_linear=0
shrinkage=0.0426353


Tree=6
num_leaves=29
num_cat=0
split_feature=87 76 94 92 56 76 35 28 79 40 31 85 87 28 69 56 78 28 56 28 50 67 79 93 52 35 77 46
split_gain=2.69425 1.43076 0.47971 0.209146 0.0886963 0.0535999 0.0411595 0.0356934 0.0154137 0.00570333 0.0040652 0.00393632 0.00362046 0.00352145 0.00351297 0.00270353 0.00250314 0.00157366 0.00153367 0.00147183 0.00118955 0.0011373 0.00111115 0.000985147 0.00087724 0.000406854 0.000221091 0.000162665
threshold=0.23901036104142079 0.34624302127473233 0.10129236665377926 0.71107902285748159 0.54732799481703354 0.13627954558127778 0.35887374653168791 2.0967450832567009 -0.77183057812706324 0.010906987488167881 0.21540313636185562 0.043773392292406711 0.29888844165085571 2.0420478095738326 -0.89065391646002634 0.30470410514381374 -0.050257676319326802 2.3805213312188003 0.4547567576963843 2.549117596259022 -0.024723130253803145 0.16728371936340511 -0.087044391718260367 -0.0033546963574999735 -0.10997671498834689 0.26206935730310432 0.12980703671061147 0.52211855220289405
decision_type=10 2 10 10 2 2 2 2 2 2 2 10 10 2 2 2 2 2 2 2 2 2 2 10 2 2 2 2
left_child=2 3 5 4 9 13 15 24 17 14 18 -9 21 -1 -2 -4 -11 20 -8 -10 -7 -13 -14 -20 -5 -17 -15 -25
right_child=1 -3 6 7 -6 8 10 11 19 16 -12 12 22 26 -16 25 -18 -19 23 -21 -22 -23 -24 27 -26 -27 -28 -29
leaf_value=0.00049426512970227922 0.0027782341702602483 0.011530610364385971 -0.0027516468292522966 0.0018805747586223606 0.0058583150845934523 -0.00084875174114052972 -0.0039915611309338022 -7.0301806279537252e-05 -0.0018755051756278011 0.0020857345544928046 -0.0048188340559246296 0.0011144546322449512 0.00013274778840764313 -0.00026078798831943856 0.0035077189692427108 -0.0031783194426745404 0.0026934591482831263 -0.0014686232136016959 -0.0041253308826371135 -0.0023691921563323824 -0.001203736474458464 0.00066521858331725016 0.00055223480323689786 -0.004554519377823198 0.0015695559893409185 -0.0034440170261592499 -7.3759861218921816e-05 -0.0043940180743519582
leaf_weight=20 30 31 26 34 20 32 28 20 23 22 31 20 24 27 20 22 28 20 21 21 37 21 22 24 32 20 20 22
leaf_count=20 30 31 26 34 20 32 28 20 23 22 31 20 24 27 20 22 28 20 21 21 37 21 22 24 32 20 20 22
internal_value=-5.97791e-05 0.00282029 -0.00242816 0.00189872 0.00326642 -0.000962958 -0.00393867 0.000950018 -0.00145835 0.00274804 -0.00439489 0.000469044 0.000593032 2.04303e-05 0.00307003 -0.00309333 0.00242606 -0.00113563 -0.00425655 -0.00211113 -0.00103911 0.000884358 0.000333372 -0.0043673 0.00172978 -0.00330484 -0.000181202 -0.00447776
internal_weight=718 324 394 293 120 200 194 173 133 100 126 107 87 67 50 68 50 89 95 44 69 41 46 67 66 42 47 46
internal_count=718 324 394 293 120 200 194 173 133 100 126 107 87 67 50 68 50 89 95 44 69 41 46 67 66 42 47 46
is_linear=0
shrinkage=0.0426353


Tree=7
num_leaves=28
num_cat=0
split_feature=87 66 94 92 66 76 35 28 79 86 86 58 31 0 66 85 76 28 28 31 40 40 70 52 58 43 46
split_gain=2.46941 1.31144 0.439677 0.18605 0.0748046 0.0491268 0.0377246 0.0327147 0.0141274 0.00503289 0.00923339 0.00373841 0.00372595 0.00325622 0.00247791 0.00220098 0.00235699 0.00144233 0.001349 0.00128733 0.00108714 0.000927718 0.000916884 0.000804032 0.000667141 0.000377974 0.000192083
threshold=0.23901036104142079 0.45342307622565231 0.10129236665377926 0.71107902285748159 0.39129903757378265 0.13627954558127778 0.35887374653168791 2.0967450832567009 -0.77183057812706324 0.080508365464112816 0.087440894829115143 -0.011904719526046003 0.21540313636185562 28177500.000000004 0.42143633804008873 0.043773392292406711 -0.11998823256182557 2.3805213312188003 2.549117596259022 0.208019232058926 0.00029148417754034246 0.0093983448671128445 0.40821723568353652 -0.10997671498834689 -0.088987659867825225 0.25565855195407178 0.52211855220289405
decision_type=10 2 10 10 2 2 2 2 2 10 10 2 2 2 2 10 2 2 2 2 2 2 2 2 2 2 2
left_child=2 3 5 4 9 13 14 23 17 -2 -11 -9 19 -1 -4 -13 -17 20 -10 -8 -7 -12 26 -5 -15 -16 -21
right_child=1 -3 6 7 -6 8 12 11 18 10 21 15 -14 24 25 16 -18 -19 -20 22 -22 -23 -24 -25 -26 -27 -28
leaf_value=0.00047520089400228144 0.0021098608229481414 0.010893883289135181 -0.0026343293798621282 0.0018003957959368433 0.0054779738762476306 -0.0008180443433207081 -0.0038260005079240925 0.00095903559694027662 -0.0017955422894887891 0.0034857973696647451 0.0026544146636814868 -6.7304464122164601e-05 -0.0046133813903514367 -0.00035306460279092519 -0.003041989621639091 0.00014642996368267373 0.00066195499639526748 -0.0014060079629068984 -0.0022681808443613879 -0.0043677460766977953 -0.0011568322135194359 0.0022833067325730076 -0.0039314327345418452 0.001502637394935565 -2.9968913797573456e-05 -0.0032980833186178832 -0.0041965722770918911
leaf_weight=20 26 32 26 34 20 33 27 21 23 24 24 20 31 21 22 28 38 20 21 22 36 25 20 32 26 20 26
leaf_count=20 26 32 26 34 20 33 27 21 23 24 24 20 31 21 22 28 38 20 21 22 36 25 20 32 26 20 26
internal_value=-5.72304e-05 0.00270004 -0.00232463 0.00180209 0.00309969 -0.000921902 -0.00377075 0.000909514 -0.00139617 0.00261923 0.00280065 0.000449047 -0.00420751 1.95592e-05 -0.00296144 0.000324514 0.000443247 -0.00108721 -0.00202112 -0.00407507 -0.000994803 0.00246507 -0.00417397 0.00165603 -0.000174331 -0.00316394 -0.00427503
internal_weight=718 324 394 292 119 200 194 173 133 99 73 107 126 67 68 86 66 89 44 95 69 49 68 66 47 42 48
internal_count=718 324 394 292 119 200 194 173 133 99 73 107 126 67 68 86 66 89 44 95 69 49 68 66 47 42 48
is_linear=0
shrinkage=0.0426353


Tree=8
num_leaves=27
num_cat=0
split_feature=91 55 56 51 56 41 78 28 79 41 40 31 69 46 28 78 70 28 28 90 28 45 79 31 56 48
split_gain=2.27013 1.19704 0.403324 0.171126 0.074625 0.0489017 0.0394456 0.0301952 0.00777523 0.00689048 0.00475194 0.00340534 0.00329204 0.00323696 0.00308413 0.00224578 0.00157188 0.00120085 0.00108582 0.000942622 0.000857112 0.000845253 0.000680117 0.000544417 0.0004929 0.000307455
threshold=-0.25293862456092309 0.48907969485921704 0.19197522667427261 0.2063823827072708 0.54732799481703354 0.33482917300800918 -0.11263703716797833 2.1292110358957546 -0.78448484632974513 0.10483421874018198 0.010906987488167881 0.21540313636185562 -0.89065391646002634 0.11092826109006966 2.0420478095738326 -0.050257676319326802 0.39666709251529392 2.0290726913694774 2.276649953896964 0.21455664303869409 2.3658400984419576 0.27898356435787691 -0.89254130129243003 0.20908920365134884 0.020722606539100148 -0.31665467226938188
decision_type=8 2 2 2 2 2 2 2 2 2 2 2 2 2 2 2 2 2 2 2 2 2 2 2 2 2
left_child=1 3 6 7 10 9 8 17 20 -4 12 16 -5 18 -8 -12 23 22 -9 -20 24 -11 -1 -7 -2 -16
right_child=2 -3 5 4 -6 11 14 13 -10 21 15 -13 -14 -15 25 -17 -18 -19 19 -21 -22 -23 -24 -25 -26 -27
leaf_value=0.0018537470941846293 -0.0011072712539146312 0.010574534528588505 -0.0020489690075303846 0.0025273157965545832 0.0053634430835344466 -0.0038861519726761094 0.00045616232918499434 0.00049981558758048494 -0.0018177940022670331 -0.0027968640548104258 0.001895179453377228 -0.004416688187160258 0.0032289193640716975 0.00076754110924274783 -4.0875021752259869e-05 0.0024708150546371519 -0.0036528733124339052 0.0013154097582117727 0.00028558597785086716 -9.7648963993306577e-05 -0.0012722585433830461 -0.0031195699223830115 0.0015255583739480075 -0.0041359521252312438 -0.00086084171685937394 -0.00025216168566791203
leaf_weight=22 25 31 22 31 20 29 20 20 33 36 22 31 20 30 21 28 31 25 28 20 22 25 24 35 36 31
leaf_count=22 25 31 22 31 20 29 20 20 33 36 22 31 20 30 21 28 31 25 28 20 22 25 24 35 36 31
internal_value=-5.47904e-05 0.0026113 -0.0022105 0.00176006 0.00298406 -0.00349936 -0.000777666 0.00088371 -0.00126422 -0.00269583 0.00251289 -0.00402868 0.00280245 0.000398632 6.22026e-06 0.00221754 -0.00390206 0.00155325 0.000235879 0.000125905 -0.00104412 -0.00292912 0.00168252 -0.00402276 -0.000961837 -0.000166834
internal_weight=718 321 397 290 121 209 188 169 116 83 101 126 51 98 72 50 95 71 68 48 83 61 46 64 61 52
internal_count=718 321 397 290 121 209 188 169 116 83 101 126 51 98 72 50 95 71 68 48 83 61 46 64 61 52
is_linear=0
shrinkage=0.0426353


end of trees

feature_importances:
PB_Ratio=30
Price=15
ma_25=15
kurt_252=13
ma_90=9
skew_90=9
ma_180=8
std_180=8
ma_252=8
total_return_504=8
total_return_25=7
kurt_180=7
total_return_180=7
min_504=7
last_return_504=7
PE_Ratio=6
total_return_5=6
skew_252=6
lag_504=6
ma_504=6
lag_5=5
std_25=5
max_504=5
min_25=4
first_return_90=4
kurt_504=4
first_return_5=3
std_504=3
WeightedAverageNumberOfDilutedSharesOutstanding=2
Returns=2
min_5=2
max_5=2
lag_25=2
skew_25=2
max_25=2
max_90=2
first_return_504=2
ROE=1
lag_90=1
kurt_90=1
total_return_90=1
lag_180=1
std_252=1
skew_504=1

parameters:
[boosting: gbdt]
[objective: regression]
[metric: rmse]
[tree_learner: serial]
[device_type: cpu]
[data_sample_strategy: bagging]
[data: ]
[valid: ]
[num_iterations: 2000]
[learning_rate: 0.0426353]
[num_leaves: 64]
[num_threads: 4]
[seed: 42]
[deterministic: 0]
[force_col_wise: 0]
[force_row_wise: 0]
[histogram_pool_size: -1]
[max_depth: -1]
[min_data_in_leaf: 20]
[min_sum_hessian_in_leaf: 0.001]
[bagging_fraction: 0.8]
[pos_bagging_fraction: 1]
[neg_bagging_fraction: 1]
[bagging_freq: 5]
[bagging_seed: 400]
[bagging_by_query: 0]
[feature_fraction: 0.8]
[feature_fraction_bynode: 1]
[feature_fraction_seed: 30056]
[extra_trees: 0]
[extra_seed: 12879]
[early_stopping_round: 0]
[early_stopping_min_delta: 0]
[first_metric_only: 0]
[max_delta_step: 0]
[lambda_l1: 0]
[lambda_l2: 0]
[linear_lambda: 0]
[min_gain_to_split: 0]
[drop_rate: 0.1]
[max_drop: 50]
[skip_drop: 0.5]
[xgboost_dart_mode: 0]
[uniform_drop: 0]
[drop_seed: 17869]
[top_rate: 0.2]
[other_rate: 0.1]
[min_data_per_group: 100]
[max_cat_threshold: 32]
[cat_l2: 10]
[cat_smooth: 10]
[max_cat_to_onehot: 4]
[top_k: 20]
[monotone_constraints: ]
[monotone_constraints_method: basic]
[monotone_penalty: 0]
[feature_contri: ]
[forcedsplits_filename: ]
[refit_decay_rate: 0.9]
[cegb_tradeoff: 1]
[cegb_penalty_split: 0]
[cegb_penalty_feature_lazy: ]
[cegb_penalty_feature_coupled: ]
[path_smooth: 0]
[interaction_constraints: ]
[verbosity: -1]
[saved_feature_importance_type: 0]
[use_quantized_grad: 0]
[num_grad_quant_bins: 4]
[quant_train_renew_leaf: 0]
[stochastic_rounding: 1]
[linear_tree: 0]
[max_bin: 255]
[max_bin_by_feature: ]
[min_data_in_bin: 3]
[bin_construct_sample_cnt: 200000]
[data_random_seed: 175]
[is_enable_sparse: 1]
[enable_bundle: 1]
[use_missing: 1]
[zero_as_missing: 0]
[feature_pre_filter: 1]
[pre_partition: 0]
[two_round: 0]
[header: 0]
[label_column: ]
[weight_column: ]
[group_column: ]
[ignore_column: ]
[categorical_feature: ]
[forcedbins_filename: ]
[precise_float_parser: 0]
[parser_config_file: ]
[objective_seed: 16083]
[num_class: 1]
[is_unbalance: 0]
[scale_pos_weight: 1]
[sigmoid: 1]
[boost_from_average: 1]
[reg_sqrt: 0]
[alpha: 0.9]
[fair_c: 1]
[poisson_max_delta_step: 0.7]
[tweedie_variance_power: 1.5]
[lambdarank_truncation_level: 30]
[lambdarank_norm: 1]
[label_gain: ]
[lambdarank_position_bias_regularization: 0]
[eval_at: ]
[multi_error_top_k: 1]
[auc_mu_weights: ]
[num_machines: 1]
[local_listen_port: 12400]
[time_out: 120]
[machine_list_filename: ]
[machines: ]
[gpu_platform_id: -1]
[gpu_device_id: -1]
[gpu_use_dp: 0]
[num_gpu: 1]

end of parameters

pandas_categorical:[]
