tree
version=v4
num_class=1
num_tree_per_iteration=1
label_index=0
max_feature_idx=94
objective=regression
feature_names=WeightedAverageNumberOfDilutedSharesOutstanding ROE ROA AssetTurnover DebtToEquity NetProfitMargin OperatingMargin EarningsPerShareDiluted_log GrossProfit_log NetIncomeLoss_log OperatingIncomeLoss_log Revenues_log Assets_log Liabilities_log NoncurrentAssets_log WeightedAverageNumberOfDilutedSharesOutstanding_log Equity_log ROE_log ROA_log BookValuePerShare_log SalesPerShare_log AssetTurnover_log DebtToEquity_log NetProfitMargin_log OperatingMargin_log EarningsPerShareDilutedTTM_log SalesPerShareTTM_log PE_Ratio PB_Ratio PS_Ratio MarketCapLog Price CostsAndExpenses_log Returns Returns_Daily lag_5 ma_5 std_5 skew_5 kurt_5 total_return_5 min_5 max_5 first_return_5 last_return_5 lag_25 ma_25 std_25 skew_25 kurt_25 total_return_25 min_25 max_25 first_return_25 last_return_25 lag_90 ma_90 std_90 skew_90 kurt_90 total_return_90 min_90 max_90 first_return_90 last_return_90 lag_180 ma_180 std_180 skew_180 kurt_180 total_return_180 min_180 max_180 first_return_180 last_return_180 lag_252 ma_252 std_252 skew_252 kurt_252 total_return_252 min_252 max_252 first_return_252 last_return_252 lag_504 ma_504 std_504 skew_504 kurt_504 total_return_504 min_504 max_504 first_return_504 last_return_504
feature_infos=[33934446:36146268] [0.070018916161449368:0.59061541708876253] [0.0071949740527079316:0.14005257334950491] [0.22500001465109457:0.27665556374916128] [3.1360400094121474:9.009058000545787] [0.031691157332224468:0.53068919743344944] [0.10771443941660097:0.29836423181215938] [-4.069351814277951:1.300279312349125] none [-0.65386030698944431:1.3108942180460197] [-0.36478924420584719:0.59019481152864961] [-0.040114657019689762:0.22310152322306132] [-0.082999535839988148:0.17592486364792204] [-0.13735956566930493:0.16981442154877074] none [-0.012737184967742364:3.6552214934411897] [0.099105980045685077:0.52957392535992531] [-0.84919355706108102:0.78132029268609404] [-0.82978517063736645:1.2305723415946896] [-3.4800530709755559:0.51895901966303071] [-3.6476297362567389:0.2358387081908036] [-0.0040693065670372531:0.094774342751898555] [-0.55585374772743512:0.053577363404217065] [-0.87696183021250551:1.1357979988427913] [-0.37238100139029823:0.63030946854833947] [-1.7167758288395492:1.1205235496895647] [-2.1624635171668301:0.13169655288712639] [0.29360202998016161:49.424991902923296] [2.5964157753860619:45.142664836336955] [0.015735871335587685:12.358641614696539] [-1.6347936730407049:0.56337647324164808] [0.02215015718289224:0.82238308963448314] [-0.21840314223968194:0.22374626059651606] [-0.27625124959614872:2.1225671129691657] [-1.5538246433593779:0.52252868002137631] [-0.27625124959614872:2.1225671129691657] [0.60095261554721502:2.0311038852230334] [0.01436589351685854:0.74348385838434305] [-2.2022760393399667:2.105127349928773] [-3.3114325698071472:4.8853284889262696] [-1.6460466270589433:0.74818373597327648] [-0.27625124959614872:1.9662346896263683] [0.65924739335841454:2.1225671129691657] [-0.27625124959614872:2.1225671129691657] [0.51543400981566223:2.1225671129691657] [-0.27625124959614872:2.1225671129691657] [0.73850484566984731:1.8767468119228103] [0.080476005090679634:0.41387122239486701] [-3.9303614367975923:1.3207122942607261] [-1.6738670197692611:17.411968702772846] [-1.928236133906815:1.0575812312597392] [-0.27625124959614872:1.6737530095414388] [0.85736481298661982:2.1225671129691657] [-0.27625124959614872:2.1225671129691657] [0.51543400981566223:2.1225671129691657] [-0.27625124959614872:2.1225671129691657] [0.93728071342080765:1.6203493429562335] [0.25089635015083978:0.47586412262060823] [-2.5663650899890951:0.92278512385311806] [-1.4403233190357461:12.36052585186316] [-0.82938702040076817:1.9934332016893013] [-0.27625124959614872:0.7821910417424609] [1.5085107051357276:2.1225671129691657] [-0.27625124959614872:2.1225671129691657] [0.51543400981566223:1.5525323332051533] none none none none none [-0.010115618240363815:2.4250812965350774] none none none none none none none none none [0.54163167274312074:3.3921161877987749] none none none none none none none none none none none none none none
tree_sizes=1003 1024 939 1022 1026 941 1025 1026 1027 854 945 943 943 950 940 1032 1028 1120 1032 1037 1120 947 1035 1039 1040 1040 1034 1037 1042 949 1048 953 951 950 1046 1050 1143 1053 869 1147 1055 1056 1152 1064 1058 1149 1055 871 1144 963 1152 1061 1060 1147 1062 1153 1062 1145 1057 965 1142 1141 1162 1058 1241 1150 1060 1161 1152 1154 1149 1165 1061 1064 1067 1150 1152 967 1080 1073 1150 1151 1146 1249 1243 1067 1067 882 1070 970 1068 1064 1161 1074 1069 1062 1059 1148 1158 1151 1072 981 981 978 1074 1163 1072 1161 1064 1163 1160 1152 1247 1247 1067 1069 983 1066 1065 1060 980 1062 1075 1076 1068 1062 1064 981 1069 1072 1156 1157 1069 1070 982 974 1061 1160 1074 1162 1162 1165 1076 1058 1167 1156 1164 1068 1165 1161 1067 1076 1157 1072 1071 1164 1161 1167 1063 1152 1164 978 972 1157 1159 1159 1159 1160 1154 1074 1166 1168 1071 1073 1163 1152 1160 1160 1062 1060 1156 1068 976 1074 1075 1159 1074 1168 1167 1169 1168 1156 1075 1076 1162 1064 1070 973 971 978 1068 1067 1071 1066 977 1154 1162 1163 1255 1064 971 1154 1153 1065 1158 1171 1071 1066 1075 970 1163 977 1066 1163 1066 1079 1073 1075 971 1069 1079 1159 1256 1252 1244 1076 1168 1074 1068 1170 1077 1079 1074 1076 1072 1072 978 1156 1071 978 1079 1167 1168 1165 1080 1067 981 1066 980 1073 1252 1163 1168 1169 1176 1178 1173 1157 1077 1066 983 891 1069 979 1081 1079 975 1067 984 1081 1075 1156 1072 1163 1079 1072 1074 1073 1073 1168 1077 1169 1078 1075 1077 1075 1079 1078 981 1075 1159 1078 982 976 1259 1067 992 1080 1077 1064 1163 1162 1163 1164 1067 1078 1081 1261 1162 1074 1169 1165 1169 1081 1167 1167 1169 1073 1260 1080 1079 1060 1166 1162 1070 1156 1065 1151 1065 1072 1082 1083 1086 1080 1077 1070 1071 985 1082 1067 1168 1171 980 1171 1165 977 1072 977 1071 1070 1072 975 1069 1071 1073 1162 1259 1066 1070 1073 977 889 979 1077 1078 979 1074 1075 1169 1177 1070 1081 1074 983 1155 1162 1075 1166 1075 1166 981 1166 1076 1175 1080 1073 1076 1069 1169 977 1078 985 981 1073 991 978 973 1067 980 984 1164 1169 1070 1169 1181 1081 1071 1069 1076 1077 1080 1079 1077 1082 1077 1067 1077 1166 1166 1065 1167 1078 1076 1160 1072 1080 1086 1169 1178 1084 1072 1170 1076 980 1171 988 1175 1169 990 1174 1085 1084 1082 1083 983 1068 1074 1155 987 1168 1072 1078 1072 987 1075 1164 1159 1163 978 1070 1164 989 1172 1169 1171 1068 1074 1070 1084 1071 987 1085 1076 991 1075 985 1086 1172 1061 1170 983 1071 977 1071 1070 1079 1083 1172 1174 1077 1081 974 1070 972 1067 1164 1268 1166 1160 1173 1069 1065 1074 1067 1072 1170 1069 1260 1173 1071 1170 983 1074 1154 979 1169 1074 1070 983 1070 1171 1253 1172 1155 1166 1070 1173 1074 1166 1078 1074 1075 1080 1075 1165 1171 1169 980 1073 1068 1172 1077 1075 1081 1160 984 1166 1080 1078 987 1164 1075 1074 973 1165 1073 1083 1078 1079 1086 1074 1074 1078 1063 1070 1079 986 1070 1074 1071 1080 1165 1172 1173 1078 1081 1074 1080 1165 1170 1080 1076 1068 977 1072 978 1071 988 1075 985 1081 891 1165 1078 1084 1175 1265 1076 1180 1174 980 1065 969 1071 978 1173 1169 1074 1169 1075 1171 1075 1072 1073 984 1071 1080 1158 1081 1171 1078 1166 1173 985 1165 1254 1169 1260 1075 1070 1252 1159 1080 1080 1070 1074 1077 1156 1076 1066 1171 1170 1070 980 1176 1066 1182 1080 1178 1081 1076 1071 1067 991 1072 1081 1171 1171 1078 981 1071 1083 981 980 989 1176 1160 1074 1170 1167 1163 1078 1169 1168 1074 1072 1162 1261 1263 1169 1171 1077 1166 1178 984 1159 1074 1080 1166 1079 1163 1163 1077 1071 986 1176 1175 1168 1077 1078 1073 1071 1069 1164 1166 1072 1078 1075 1074 1081 1076 1068 973 1083 978 1081 1077 1075 1171 1170 1178 984 1162 1079 1255 1081 1077 1175 1172 1265 1069 1079 1070 1075 1078 1077 1076 1169 989 1170 1082 1067 890 1163 1074 1069 1068 1167 1066 1066 1161 1076 1074 1169 1069 1164 1157 1159 1167 1075 1079 976 982 1071 1163 1070 1161 1075 1076 977 1169 1167 1063 1172 1075 1083 1083 1079 1073 981 1080 986 1084 1080 1175 1080 1075 1169 1073 1073 1082 1085 1166 1170 1071 1079 1074 980 988 1073 1076 1087 1172 1078 1082 979 1160 1073 1167 982 1073 1076 974 979 1073 1074 1249 986 1071 1072 987 985 988 984 1170 985 1075 1173 980 1079 1089 1078 984 1084 1082 978 1075 1071 1165 1163 986 1077 979 981 1077 1178 977 1077 1075 1081 1074 1167 1175 1255 1175 1071 1069 1074 1077 1077 1169 994 1165 1174 990 978 1076 1167 1164 1168 1080 1164 1080 1066 1083 977 1163 1078 1159 1076 977 980 978 888 979 1164 1075 1071 1080 1083 1064 1078 1080 1072 1075 1067 1076 1066 1077 1087 1083 992 1077 1078 1083 1075 978 1072 985 982 1077 1084 1065 1075 1077 1166 1167 1166 987 988 1079 1175 1077 1076 1158 1174 1079 1076 1082 1071 1074 1077 1076 1067 1080 1080 1077 1078 1080 1076 980 1074 1068 1173 979 1086 1164 1279 1163 1177 1077 1080 1175 983 1165 1265 1159 1081 1173 1169 1172 1077 1165 1176 1252 985 1071 1075 1078 1076 1072 977 978 1068 974 1177 1174 1088 1169 1072 980 1163 991 1076 1080 1170 1266 1079 1075 1084 978 1163 1070 1077 1074 1068 1165 1164 1170 1074 985 1079 1172 1167 1162 1084 1077 1083 1081 1088 1160 1066 1063 1078 1073 1175 1178 1069 1069 1088 1078 1162 1075 1074 1079 985 1079 1081 1079 1086 1072 1167 1078 1168 1162 1163 1075 1170 1078 1178 1066 1076 977 981 1069 1072 1072 1071 1078 1163 980 1070 1075 1072 982 1076 1172 1076 980 1077 1083 1075 1078 1082 1081 1070 1152 1067 1073 1072 1079 1084 1071 985 1073 1168 1165 1164 1092 1080 1080 1161 1068 1071 1077 1166 1165 1077 1166 1072 1086 1093 1076 1079 1091 1071 1078 1070 1082 982 1079 982 1076 1079 1088 1261 1171 1169 1170 1167 1165 1072 1071 1082 1178 979 1167 1075 1162 982 1087 987 1070 1167 1165 1173 1178 1175 1268 1074 1174 1075 1073 1158 1170 1083 1074 1171 1166 1085 1161 1168 1148 1067 1065 1170 1087 1166 1176 1085 1171 1171 1078 1171 1176 1076 896 988 984 992 1171 1162 1165 1078 1170 1166 1074 1070 1170 1171 1166 978 989 978 979 983 894 990 987 983 978 1067 975 974 1067 1074 1072 1077 1076 1079 1085 1272 1079 1082 1175 987 1170 1167 982 1163 1179 1079 1165 1169 1161 1072 1080 983 1168 1077 1079 1072 1075 1079 1080 1166 1168 1081 1171 1171 1076 1076 1080 1074 1081 1172 1174 1079 985 1176 1074 1070 1170 1165 1080 1078 1080 1079 987 1074 1159 1073 983 1078 1076 1075 1079 1082 980 1067 1075 1173 1263 1074 1071 1163 1165 1163 1167 1262 1077 1079 1077 1071 1086 1067 1079 1070 1160 1158 974 1078 1071 980 1162 885 1075 1078 1071 1069 978 1077 1085 974 1079 1077 1079 987 994 1083 1089 1173 1166 1258 1171 1084 1086 1077 1078 1078 1169 1074 1072 990 1075 986 981 1078 1073 1075 981 978 1072 986 1073 984 1159 991 1166 1173 1071 1072 1258 1168 1172 1078 1162 1161 1166 1159 1172 1172 1171 1170 1171 1166 1163 1259 1171 1177 988 983 977 1080 981 1076 1085 1078 1073 1169 1179 1172 1087 1277 1177 1079 977 1085 1073 1070 1082 1080 1077 1087 1079 1083 1177 1173 1087 1082 1170 1172 1178 1165 1183 1161 1069 1080 1164 1079 1162 1072 1162 984 1074 988 991 1082 1165 1076 1068 1068 1077 1073 978 1085 1075 1074 1258 1080 1166 1165 1169 1164 1174 1073 1078 1079 1076 1081 1069 1254 1069 1073 1168 1166 1160 1075 1073 1070 1160 1176 1172 1073 1168 1169 1168 1164 970 1077 1085 1175 1076 1078 1080 1080 990 1085 1079 1084 990 1078 1075 1079 1174 1074 1159 1082 1167 1071 1073 1168 1170 1165 1173 1078 981 983 984 1078 1074 1069 1074 1071 1073 1158 1071 1076 1074 1171 1083 1081 1164 1080 1170 1080 1077 1174 1071 1169 1076 1083 1078 1074 1084 983 980 1068 1077 998 1080 1074 990 1070 1174 1081 1174 1081 1079 1175 1162 989 991 979 1071 1071 989 1076 985 1172 1069 1165 1165 1076 1068 1170 1079 1067 1163 1074 1168 1164 1071 1162 1073 1074 1071 1078 979 1072 1178 1083 1180 1172 1272 1172 1170 1160 1074 987 974 1154 1259 1167 1158 1069 980 1157 979 1170 1081 1077 1074 974 1075 1171 1166 1078 1160 1169 1084 1077 1178 1076 1172 1171 1176 1173 1168 1170 978 1074 1171 1164 1164 1176 1178 1082 1087 1178 983 1171 989 981 1079 1080 1165 1075 1168 1074 1080 1076 1169 1080 1071 1082 1071 985 1078 986 1074 1170 1075 1079 1169 986 1168 1083 1079 1072 1078 1076 1169 1084 1174 1166 1270 1074 1069 1070 1088 991 1080 1078 1081 1075 1077 1060 983 1077 1165 1258 1165 1069 1262 1079 1073 982 1078 1072 1168 1166 1265 1162 1175 1071 1072 983 1070 1079 1069 1154 1066 1156 1070 974 1079 1076 992 1167 1078 1174 983 1078 979 991 1257 1072 1074 1080 1170 1170 1170 1258 1171 1077 1074 1079 1166 1170 1076 1074 1083 1069 1076 1076 1159 1083 1071 990 1172 1174 1176 1086 1166 979 1077 1160 1078 975 1081 1079 1174 1075 1269 1165 1171 1167 1166 1169 1081 1088 1174 1087 1178 1081 1177 1079 1077 1084 1172 984 1072 1077 1170 1173 1084 1157 1171 1081 982 1079 1163 1073 1088 977 1065 1171 1071 1074 1076 1173 1168 1079 1167 1070 1072 985 1076 1060 1169 1257 1075 1168 1267 991 1076 1083 984 1069 1172 1175 1170 1162 1265 1075 1086 1081 1074 1077 1077 1072 1169 1078 1080 1166 1078 1163 1066 983 985 1077 1077 1080 1079 1164 1068 1075 1067 1079 1265 1172 1173 1165 1260 1077 983 1254 1172 1168 1176 1179 1164 1172 1173 1173 1077 1076 1162 1173 1079 989 990 1093 1076 1263 1260 1263 1171 1169 1078 1168 1175 1169 1168 1079 1077 1081 1077 1081 1167 1078 1164 1167 1173 1077 1073 1076 1158 1069 1077 1069 976 1074 981 1081 1080 1075 1077 1072 1164 1165 1259 1075 1077 1075 1075 1079 1174 1074 978 1083 991 977 1079 1078 1077 1076 1078 1172 1086 1080 1171 1084 1173 1071 1172 1069 1075 1075 1165 1078 1082 1180 1269 1069 1164 1163 1167 1171 1168 1074 982 889 1074 1082 985 1173 1172 1170 1066 1079 1075 1077 1078 981 1077 1071 1082 1163 1081 1076 1076 1077 1169 1067 1072 1073 982 987 1166 1173 1159 1172 1166 1078 1077 1073 985 1076 980 981 1159 1067 1164 984 1166 1077 1082 1075 1163 1174 1167 1160 1172 1081 1164 1163 1166 1174 1168 1078 1072 1069 1162 984 978 1072 1081 984 1076 1071 1165 1080 1080 1075 1169 1159 1079 981 1076 1070 1172 1162 1166 1078 1079 1184 1079 1076 1157 983 1170 1175

Tree=0
num_leaves=10
num_cat=0
split_feature=52 27 70 36 50 28 29 40 45
split_gain=3.75799 0.598601 0.478357 0.263399 0.038344 0.0367614 0.0170648 0.00797526 0.0041098
threshold=1.340302602221324 25.779713198172079 1.4786044458399372 0.78452007937056611 -0.18090053006578891 17.582318090054468 0.17204733264724284 0.041677310971297205 1.532022787177999
decision_type=10 2 10 10 10 2 2 10 10
left_child=3 8 -3 4 -1 -5 7 -6 -2
right_child=1 2 -4 5 6 -7 -8 -9 -10
leaf_value=-0.043864574974765848 -0.034682469582818273 -0.022790783851145115 -0.031089064827454209 -0.037216281978579437 -0.04193413651723768 -0.039770353931237332 -0.04118066096056143 -0.042980328700360469 -0.033828489954674253
leaf_weight=27 21 23 28 21 26 20 29 27 20
leaf_count=27 21 23 28 21 26 20 29 27 20
internal_value=-0.0372143 -0.0304303 -0.0273467 -0.0413753 -0.042471 -0.0384622 -0.0420121 -0.0424671 -0.0342659
internal_weight=242 92 51 150 109 41 82 53 41
internal_count=242 92 51 150 109 41 82 53 41
is_linear=0
shrinkage=1


Tree=1
num_leaves=10
num_cat=0
split_feature=52 27 70 36 50 58 29 40 45
split_gain=3.44437 0.548646 0.438437 0.241418 0.035144 0.0280328 0.0156407 0.0073097 0.00376683
threshold=1.340302602221324 25.779713198172079 1.4786044458399372 0.78452007937056611 -0.18090053006578891 0.80327642417502243 0.17204733264724284 0.041677310971297205 1.532022787177999
decision_type=10 2 10 10 10 8 2 10 10
left_child=3 8 -3 4 -1 -5 7 -6 -2
right_child=1 2 -4 5 6 -7 -8 -9 -10
leaf_value=-0.0062011928714828315 0.0025894303119793163 0.013974109991030194 0.0060296290128329265 5.8847330540397469e-05 -0.0043530591845188371 -0.0021714897324942952 -0.003631708372869108 -0.0053546468102744389 0.0034070002751918158
leaf_weight=27 21 23 28 21 26 20 29 27 20
leaf_count=27 21 23 28 21 26 20 29 27 20
internal_value=0.000165502 0.00666035 0.00961243 -0.00381801 -0.00486703 -0.00102912 -0.00442774 -0.0048633 0.00298824
internal_weight=242 92 51 150 109 41 82 53 41
internal_count=242 92 51 150 109 41 82 53 41
is_linear=0
shrinkage=0.0426353


Tree=2
num_leaves=9
num_cat=0
split_feature=52 47 36 47 28 60 57 40
split_gain=3.15693 0.44074 0.221271 0.185804 0.0341443 0.0230023 0.0127175 0.00471466
threshold=1.340302602221324 0.1666469860688036 0.78452007937056611 0.14514154480645333 17.582318090054468 0.73839292366108256 0.41466647279016511 -0.029860426911216532
decision_type=10 10 10 10 2 10 8 10
left_child=2 3 5 -2 -4 7 -3 -1
right_child=1 6 4 -5 -6 -7 -8 -9
leaf_value=-0.0054614356981234216 0.0060267776283999298 0.0024492204704067927 0.00021547666485192304 0.011292687279857336 -0.0022460028822381831 -0.0037775600811167146 0.0039347076383984434 -0.0047745498926846939
leaf_weight=34 21 22 21 29 20 36 20 39
leaf_count=34 21 22 21 29 20 36 20 39
internal_value=0.000158445 0.00637638 -0.00365522 0.00908101 -0.000985245 -0.00465953 0.0031566 -0.00509447
internal_weight=242 92 150 50 41 109 42 73
internal_count=242 92 150 50 41 109 42 73
is_linear=0
shrinkage=0.0426353


Tree=3
num_leaves=10
num_cat=0
split_feature=52 27 70 42 58 50 29 31 45
split_gain=2.89348 0.47373 0.387028 0.200722 0.0316543 0.0297493 0.0120028 0.00626636 0.00304945
threshold=1.340302602221324 25.779713198172079 1.4786044458399372 0.84380541892340999 0.74951333783608365 -0.10369923445657296 0.17204733264724284 0.056075291231616364 1.532022787177999
decision_type=10 2 10 10 8 10 2 2 10
left_child=3 8 -3 5 -5 -1 7 -7 -2
right_child=1 2 -4 4 -6 6 -8 -9 -10
leaf_value=-0.0056539885360620381 0.0023334886027088688 0.01294565862196702 0.0054814585864552271 0.00020138039428720374 -0.0021178378892247121 -0.0040598233240703779 -0.0033277137878660601 -0.005027804085308593 0.0030690987255672306
leaf_weight=29 21 23 28 20 23 31 27 20 20
leaf_count=29 21 23 28 20 23 31 27 20 20
internal_value=0.00015169 0.00610452 0.00884767 -0.00349938 -0.00103913 -0.00448808 -0.0040546 -0.00443942 0.00269232
internal_weight=242 92 51 150 43 107 78 51 41
internal_count=242 92 51 150 43 107 78 51 41
is_linear=0
shrinkage=0.0426353


Tree=4
num_leaves=10
num_cat=0
split_feature=52 47 36 47 28 50 29 57 40
split_gain=2.65201 0.374954 0.187087 0.15825 0.0312826 0.0282814 0.012228 0.0115703 0.00674546
threshold=1.340302602221324 0.1666469860688036 0.78452007937056611 0.14514154480645333 17.582318090054468 -0.18090053006578891 0.17204733264724284 0.41466647279016511 0.041677310971297205
decision_type=10 10 10 10 2 10 2 8 10
left_child=2 3 5 -2 -4 -1 8 -3 -7
right_child=1 7 4 -5 -6 6 -8 -9 -10
leaf_value=-0.0054704856742294194 0.0055201976749625703 0.0021997520958654043 0.0002542071359385955 0.010379988848037248 -0.0021018660790661455 -0.0037745500068281173 -0.0031757307429681279 0.0036166575623022166 -0.0047367051115786629
leaf_weight=27 21 22 21 29 20 26 29 20 27
leaf_count=27 21 22 21 29 20 26 29 20 27
internal_value=0.000145223 0.00584426 -0.00335018 0.00833888 -0.000895097 -0.00427366 -0.00387958 0.00287447 -0.0042647
internal_weight=242 92 150 50 41 109 82 42 53
internal_count=242 92 150 50 41 109 82 42 53
is_linear=0
shrinkage=0.0426353


Tree=5
num_leaves=9
num_cat=0
split_feature=52 27 70 35 29 30 53 30
split_gain=2.3924 0.457575 0.369166 0.191296 0.0391546 0.0080331 0.00392692 0.00105971
threshold=1.340302602221324 25.779713198172079 1.4786044458399372 0.80641734556053801 0.16422963489129258 -0.017061348114925389 1.4964732602001802 0.040180625217426026
decision_type=10 2 10 10 2 10 10 10
left_child=3 6 -3 4 5 -1 -2 -7
right_child=1 2 -4 -5 -6 7 -8 -9
leaf_value=-0.0050514491649277758 0.0017844906709974548 0.012612620642752757 0.0051345423826575937 -0.00060188073406407152 -0.002896500323633013 -0.0040417587190937024 0.0025791350448138191 -0.0044424151777853723
leaf_weight=34 20 20 30 39 38 30 26 20
leaf_count=34 20 20 30 39 38 30 26 20
internal_value=-2.47264e-05 0.00530246 0.00812577 -0.00320118 -0.00403211 -0.00454584 0.00223364 -0.00420202
internal_weight=257 96 50 161 122 84 46 50
internal_count=257 96 50 161 122 84 46 50
is_linear=0
shrinkage=0.0426353


Tree=6
num_leaves=10
num_cat=0
split_feature=46 51 28 70 36 60 28 50 28
split_gain=2.06252 0.297455 0.331905 0.248238 0.159545 0.0385154 0.0292562 0.0165672 0.00933791
threshold=0.85580845422280249 0.91755724686879259 13.687464217948948 1.4786044458399372 0.74259726068610166 1.1278903678917556 16.259902448104171 -0.18090053006578891 6.2275682125874061
decision_type=10 10 2 10 10 10 2 10 2
left_child=4 -2 -3 -4 5 7 -6 -1 -9
right_child=1 2 3 -5 6 -7 -8 8 -10
leaf_value=-0.0051346353981079097 0.0016330079615980567 0.0021624229693332315 0.01207487740874229 0.0055801788782708344 0.00019450636371676159 -0.0023084715091510897 -0.0020585769311816447 -0.0035138021472763308 -0.0046022404465015498
leaf_weight=31 37 22 20 23 22 21 20 38 23
leaf_count=31 37 22 20 23 22 21 20 38 23
internal_value=-2.36722e-05 0.00468467 0.00642177 0.00860097 -0.00312206 -0.003956 -0.00087839 -0.00433206 -0.0039242
internal_weight=257 102 65 43 155 113 42 92 61
internal_count=257 102 65 43 155 113 42 92 61
is_linear=0
shrinkage=0.0426353


Tree=7
num_leaves=10
num_cat=0
split_feature=52 27 70 35 29 50 0 27 53
split_gain=2.01735 0.383604 0.315158 0.160696 0.0362426 0.0150472 0.00535333 0.00452978 0.00346629
threshold=1.340302602221324 25.779713198172079 1.5573495346102824 0.82606202745878898 0.16422963489129258 -0.18090053006578891 35033388.000000007 1.4498477998033257 1.4964732602001802
decision_type=10 2 10 10 2 10 2 2 10
left_child=3 8 -3 4 5 -1 -6 -7 -2
right_child=1 2 -4 -5 6 7 -8 -9 -10
leaf_value=-0.0049157183544406265 0.0016373366561399983 0.010977352830241977 0.0042020871156268633 -0.00042958710635624802 -0.0021478147242569635 -0.0034138651232780651 -0.0031224657545358735 -0.0042197285535049162 0.002383922268233374
leaf_weight=31 20 24 26 36 21 32 20 21 26
leaf_count=31 20 24 26 36 21 32 20 21 26
internal_value=-2.26629e-05 0.00486916 0.00745421 -0.00293953 -0.00366239 -0.00416959 -0.00262325 -0.00373317 0.00205932
internal_weight=257 96 50 161 125 84 41 53 46
internal_count=257 96 50 161 125 84 41 53 46
is_linear=0
shrinkage=0.0426353


Tree=8
num_leaves=10
num_cat=0
split_feature=53 70 36 42 48 60 47 50 11
split_gain=1.69483 0.337495 0.262543 0.170462 0.0340422 0.0300957 0.0284455 0.0165262 0.00639569
threshold=0.85856741518782409 1.6926908007696906 1.6673060218561122 1.0003659112466254 0.26316087114237741 1.1278903678917556 0.15255348130018026 -0.18090053006578891 0.17756946299184537
decision_type=10 8 10 10 8 10 10 10 2
left_child=3 -2 6 5 -5 7 -3 -1 -9
right_child=1 2 -4 4 -6 -7 -8 8 -10
leaf_value=-0.0047061350784592974 0.0091794355249171754 0.00031163649902616177 0.0072846782909977313 0.0008631616931446248 -0.0015672332098810903 -0.0021142696080857313 0.0023073498798525465 -0.0031182485764287924 -0.0039665996751877056
leaf_weight=31 21 20 20 20 22 21 37 35 30
leaf_count=31 21 20 20 20 22 21 37 35 30
internal_value=-2.16967e-05 0.00438843 0.0030818 -0.00273989 -0.000409902 -0.0035763 0.0016071 -0.00389611 -0.0035098
internal_weight=257 98 77 159 42 117 57 96 65
internal_count=257 98 77 159 42 117 57 96 65
is_linear=0
shrinkage=0.0426353


Tree=9
num_leaves=8
num_cat=0
split_feature=52 28 59 35 50 60 12
split_gain=1.69909 0.247228 0.309543 0.137498 0.029827 0.0155115 0.00662469
threshold=1.340302602221324 13.687464217948948 -1.0075869604327734 0.82606202745878898 -0.11704910382545598 1.1278903678917556 0.15720257708969196
decision_type=10 2 10 10 10 10 2
left_child=3 -2 -3 4 -1 6 -6
right_child=1 2 -4 -5 5 -7 -8
leaf_value=-0.0044659935365253161 0.0017364645414678589 0.0088301335865466207 0.0025806076242907419 -0.00037597235995569841 -0.0028905495720653917 -0.0019843897635973195 -0.0037214400660823131
leaf_weight=33 37 34 25 36 37 22 33
leaf_count=33 37 34 25 36 37 22 33
internal_value=-2.07716e-05 0.00446863 0.00618203 -0.00269768 -0.00336634 -0.0029719 -0.00328226
internal_weight=257 96 59 161 125 92 70
internal_count=257 96 59 161 125 92 70
is_linear=0
shrinkage=0.0426353


Tree=10
num_leaves=9
num_cat=0
split_feature=52 27 70 36 29 30 48 30
split_gain=1.68332 0.304188 0.207042 0.114321 0.0229703 0.00712678 0.00607646 0.00142426
threshold=1.340302602221324 25.779713198172079 1.5573495346102824 0.85607871250495238 0.17204733264724284 -0.017061348114925389 -0.26762858696737951 0.040180625217426026
decision_type=10 2 10 10 2 10 10 10
left_child=3 6 -3 4 5 -1 -2 -7
right_child=1 2 -4 -5 -6 7 -8 -9
leaf_value=-0.0041106980434975409 0.0015108359919020179 0.0094213128813053302 0.003849409499614495 -0.00053058500034619625 -0.002382245982716958 -0.0030749993068160636 0.0025247668996362682 -0.0035398895842215245
leaf_weight=36 22 27 22 36 37 23 21 25
leaf_count=36 22 27 22 36 37 23 21 25
internal_value=4.36524e-05 0.00462305 0.00691964 -0.00263982 -0.00326736 -0.00365723 0.00200601 -0.00331713
internal_weight=249 92 49 157 121 84 43 48
internal_count=249 92 49 157 121 84 43 48
is_linear=0
shrinkage=0.0426353


Tree=11
num_leaves=9
num_cat=0
split_feature=52 27 70 36 29 30 48 30
split_gain=1.54284 0.278803 0.190922 0.104781 0.0210533 0.00653203 0.00556936 0.0013054
threshold=1.340302602221324 25.779713198172079 1.6050353767328616 0.85607871250495238 0.17204733264724284 -0.017061348114925389 -0.26762858696737951 0.040180625217426026
decision_type=10 2 10 10 2 10 10 10
left_child=3 6 -3 4 5 -1 -2 -7
right_child=1 2 -4 -5 -6 7 -8 -9
leaf_value=-0.003935437079281197 0.0014464209925347147 0.0088347409739564699 0.0034199463227929999 -0.00050796332252132025 -0.0022806781285364653 -0.0029438956114828324 0.0024171226020362393 -0.0033889652046795215
leaf_weight=36 22 29 20 36 37 23 21 25
leaf_count=36 22 29 20 36 37 23 21 25
internal_value=4.17912e-05 0.00442595 0.00662462 -0.00252727 -0.00312805 -0.0035013 0.00192048 -0.0031757
internal_weight=249 92 49 157 121 84 43 48
internal_count=249 92 49 157 121 84 43 48
is_linear=0
shrinkage=0.0426353


Tree=12
num_leaves=9
num_cat=0
split_feature=52 27 70 42 29 50 37 31
split_gain=1.41408 0.255536 0.175542 0.0958834 0.0178545 0.00634772 0.00518428 0.00475936
threshold=1.340302602221324 25.779713198172079 1.4786044458399372 0.93125477236036092 0.17204733264724284 -0.18090053006578891 0.073622902161795997 0.05327639529425772
decision_type=10 2 10 10 2 10 10 2
left_child=3 6 -3 4 5 -1 -2 -7
right_child=1 2 -4 -5 -6 7 -8 -9
leaf_value=-0.0038366380138932414 0.0023406326785292528 0.0090553942426246075 0.0039420244443601022 -0.0005549709584292329 -0.0022058693689483789 -0.0027412741526939579 0.0014020573858248642 -0.0035673072364846656
leaf_weight=31 20 23 26 38 35 32 23 21
leaf_count=31 20 23 26 38 35 32 23 21
internal_value=4.00094e-05 0.00423725 0.00634218 -0.00241952 -0.00301492 -0.00335202 0.0018386 -0.00306857
internal_weight=249 92 49 157 119 84 43 53
internal_count=249 92 49 157 119 84 43 53
is_linear=0
shrinkage=0.0426353


Tree=13
num_leaves=9
num_cat=0
split_feature=53 28 47 37 60 30 11 31
split_gain=1.23589 0.187171 0.113464 0.112842 0.0423675 0.00546359 0.00514291 0.00623712
threshold=0.93261958287822033 13.249873873320702 0.13669417777820889 0.092621470357655528 1.1534988107380575 -0.017061348114925389 0.17756946299184537 0.035481912309852155
decision_type=10 2 10 10 10 10 2 2
left_child=2 -2 4 -3 5 -1 7 -7
right_child=1 3 -4 -5 -6 6 -8 -9
leaf_value=-0.0035256417652641853 0.0015789358296536471 0.0071207125860056507 0.00050078652273529822 0.0031457164275545076 -0.0014005606147677726 -0.0031411924367493868 -0.0034431758914033345 -0.002113945347519481
leaf_weight=38 34 34 24 21 35 21 20 22
leaf_count=38 34 34 24 21 35 21 20 22
internal_value=3.83036e-05 0.00406571 -0.00220194 0.00560299 -0.00267889 -0.00312188 -0.00287834 -0.00261562
internal_weight=249 89 160 55 136 101 63 43
internal_count=249 89 160 55 136 101 63 43
is_linear=0
shrinkage=0.0426353


Tree=14
num_leaves=9
num_cat=0
split_feature=52 70 36 36 29 42 28 31
split_gain=1.19529 0.183835 0.182194 0.0812461 0.0155951 0.00631588 0.00588978 0.00695606
threshold=1.340302602221324 1.6479563092941458 1.702523121101488 0.85607871250495238 0.17204733264724284 1.5063924562719644 6.2275682125874061 0.035481912309852155
decision_type=10 8 10 10 2 10 2 2
left_child=3 -2 5 4 6 -3 7 -1
right_child=1 2 -4 -5 -6 -7 -8 -9
leaf_value=-0.0032311663675330892 0.0073999332401247066 0.0019035256214251796 0.0063079352158839346 -0.0004464655730776493 -0.0020243145107408838 0.00093947119799772422 -0.0037135022930467067 -0.0023201228777017641
leaf_weight=39 21 30 20 36 37 21 20 25
leaf_count=39 21 30 20 36 37 21 20 25
internal_value=3.66705e-05 0.00389556 0.00285906 -0.00222459 -0.00275362 0.00150656 -0.00307486 -0.00287529
internal_weight=249 92 71 157 121 51 84 64
internal_count=249 92 71 157 121 51 84 64
is_linear=0
shrinkage=0.0426353


Tree=15
num_leaves=10
num_cat=0
split_feature=52 27 70 56 60 45 40 40 31
split_gain=1.04739 0.181089 0.184054 0.0776381 0.0310782 0.00745974 0.00629898 0.00432956 0.00235557
threshold=1.340302602221324 26.491423534817915 1.4786044458399372 1.2290709835270692 1.1278903678917556 0.84380541892340999 -0.020148188885229078 0.14872071832828071 0.035481912309852155
decision_type=10 2 10 10 10 8 10 8 2
left_child=3 6 -3 4 5 -1 -2 8 -7
right_child=1 2 -4 -5 -6 7 -8 -9 -10
leaf_value=-0.002038391456071252 0.001016388659763838 0.0082645868865761519 0.0031303959573223384 0.00043513714175369601 -0.0013249753013165485 -0.0029893351747945192 0.0020606525068487314 -0.0034847657145627388 -0.0024564592453813409
leaf_weight=20 21 22 30 20 36 38 21 21 25
leaf_count=20 21 22 30 20 36 38 21 21 25
internal_value=4.88195e-05 0.00362075 0.00530255 -0.00204969 -0.00240467 -0.00277841 0.00153852 -0.0029546 -0.00277788
internal_weight=254 94 52 160 140 104 42 84 63
internal_count=254 94 52 160 140 104 42 84 63
is_linear=0
shrinkage=0.0426353


Tree=16
num_leaves=10
num_cat=0
split_feature=52 27 27 58 60 50 33 36 50
split_gain=0.959982 0.165977 0.12869 0.073257 0.0299966 0.0106578 0.00430287 0.00365836 0.00134773
threshold=1.340302602221324 26.491423534817915 35.385244379472702 0.39967191423087006 1.1278903678917556 -0.28475440111313471 1.343826518994345 1.1650033731612741 0.26755416396898674
decision_type=10 2 2 8 10 10 10 8 10
left_child=3 6 -3 -1 5 -5 -2 -7 -9
right_child=1 2 -4 4 -6 7 -8 8 -10
leaf_value=0.00032257405842702782 0.0018843855822744892 0.0072806884777916947 0.0030355414052227986 -0.0033445746306307346 -0.0012684845203503844 -0.0028926708792697542 0.0010203188730532311 -0.0019800003092804211 -0.0024230609630710356
leaf_weight=22 22 25 27 32 36 20 20 24 26
leaf_count=22 22 25 27 32 36 20 20 24 26
internal_value=4.67381e-05 0.00346638 0.00507648 -0.0019623 -0.00232656 -0.00269999 0.00147293 -0.00240533 -0.00221039
internal_weight=254 94 52 160 138 102 42 70 50
internal_count=254 94 52 160 138 102 42 70 50
is_linear=0
shrinkage=0.0426353


Tree=17
num_leaves=11
num_cat=0
split_feature=52 27 70 58 43 50 27 33 28 27
split_gain=0.879869 0.152125 0.16055 0.0671435 0.0253495 0.0129059 0.0060686 0.00394378 0.00330811 0.000241891
threshold=1.340302602221324 26.491423534817915 1.4786044458399372 0.39967191423087006 1.0956567223251208 -0.28475440111313471 5.0352684760481594 1.343826518994345 10.843647920708683 0.77785236920654366
decision_type=10 2 10 8 10 10 2 10 2 2
left_child=3 7 -3 -1 5 -5 8 -2 9 -7
right_child=1 2 -4 4 -6 6 -8 -9 -10 -11
leaf_value=0.00030882101962021954 0.0018040441432370996 0.0076264895408230332 0.0028313104315104906 -0.0032019775439390413 -0.00086341294956085804 -0.0023060428203106071 -0.0028468762231792562 0.00097681720583696948 -0.0015413535530679299 -0.0021079034996732719
leaf_weight=22 22 22 30 32 21 21 20 20 20 24
leaf_count=22 22 22 30 32 21 21 20 20 20 24
internal_value=4.47454e-05 0.00331859 0.00486004 -0.00187864 -0.00222736 -0.00247217 -0.00219743 0.00141013 -0.00199759 -0.00220037
internal_weight=254 94 52 160 138 117 85 42 65 45
internal_count=254 94 52 160 138 117 85 42 65 45
is_linear=0
shrinkage=0.0426353


Tree=18
num_leaves=10
num_cat=0
split_feature=52 27 27 58 60 50 40 45 28
split_gain=0.806441 0.13943 0.11089 0.0616536 0.0249056 0.00932335 0.00561577 0.00306118 0.00344481
threshold=1.340302602221324 26.491423534817915 35.014504126604997 0.33854876303057857 1.1278903678917556 -0.28475440111313471 -0.020148188885229078 0.84380541892340999 5.4339172691887248
decision_type=10 2 2 8 10 10 10 8 2
left_child=3 6 -3 -1 5 -5 -2 -7 -9
right_child=1 2 -4 4 -6 7 -8 8 -10
leaf_value=0.00035467061630761889 0.00085700219695323144 0.0068636316465931673 0.0028994366952349786 -0.003065460156076053 -0.0011585124460488671 -0.0017418740747435707 0.0018430084685351431 -0.0020827867425263335 -0.0028004845684457087
leaf_weight=21 21 23 29 32 36 20 21 31 20
leaf_count=21 21 23 29 32 36 20 21 31 20
internal_value=4.28377e-05 0.0031771 0.00465283 -0.00179854 -0.00212385 -0.00246125 0.00135001 -0.00218892 -0.00236424
internal_weight=254 94 52 160 139 103 42 71 51
internal_count=254 94 52 160 139 103 42 71 51
is_linear=0
shrinkage=0.0426353


Tree=19
num_leaves=10
num_cat=0
split_feature=52 27 27 58 43 50 27 40 40
split_gain=0.739141 0.127794 0.101818 0.0566071 0.0220453 0.0106966 0.00554794 0.00514712 0.00380986
threshold=1.340302602221324 26.491423534817915 35.385244379472702 0.39967191423087006 1.0956567223251208 -0.28475440111313471 5.0352684760481594 -0.020148188885229078 0.077216771603128967
decision_type=10 2 2 8 10 10 2 10 10
left_child=3 7 -3 -1 5 -5 8 -2 -7
right_child=1 2 -4 4 -6 6 -8 -9 -10
leaf_value=0.00028664741034085175 0.00082046360014007924 0.0064150703393758644 0.0026390716445056327 -0.0029347631972515466 -0.00077010124954409159 -0.0014976866165270313 -0.0026411933230046673 0.001764431172366841 -0.0021505902018608639
leaf_weight=22 21 25 27 32 21 32 20 21 33
leaf_count=22 21 25 27 32 21 32 20 21 33
internal_value=4.10113e-05 0.00304164 0.00445446 -0.00172186 -0.00204206 -0.00227036 -0.00202023 0.00129245 -0.00182916
internal_weight=254 94 52 160 138 117 85 42 65
internal_count=254 94 52 160 138 117 85 42 65
is_linear=0
shrinkage=0.0426353


Tree=20
num_leaves=11
num_cat=0
split_feature=52 70 36 36 48 60 48 31 50 40
split_gain=0.76227 0.169019 0.147659 0.061119 0.0226006 0.0138646 0.0109007 0.0107359 0.00687488 0.00198059
threshold=1.340302602221324 1.6324717183353044 1.7106032901464865 0.73310630355451323 0.030495830482143712 1.1278903678917556 -0.26762858696737951 0.085457845319979131 0.0075507607367937659 0.054017616414663704
decision_type=10 8 10 10 8 10 10 2 8 8
left_child=3 -2 6 5 -5 7 -3 8 -1 -10
right_child=1 2 -4 4 -6 -7 -8 -9 9 -11
leaf_value=-0.0028252967453178449 0.0065337198633075369 0.00066231988180064159 0.0053705066436216435 0.00074323592350831753 -0.0011332990345227368 -0.001233184449109749 0.0018846075584234491 -0.0032772968900214175 -0.0016616504771963744 -0.0022053300993659986
leaf_weight=20 21 36 20 20 28 23 21 20 29 21
leaf_count=20 21 36 20 20 28 23 21 20 29 21
internal_value=0.000178594 0.00314325 0.00221858 -0.00162598 -0.000351409 -0.00216739 0.00111264 -0.00240613 -0.00215722 -0.00189
internal_weight=259 98 77 161 48 113 57 90 70 50
internal_count=259 98 77 161 48 113 57 90 70 50
is_linear=0
shrinkage=0.0426353


Tree=21
num_leaves=9
num_cat=0
split_feature=52 28 70 47 36 50 40 0
split_gain=0.699783 0.168114 0.128513 0.0821536 0.0166435 0.00679539 0.00281325 0.00262165
threshold=1.4926489521463084 13.249873873320702 1.4786044458399372 0.13669417777820889 0.73310630355451323 -0.11704910382545598 0.14678118317077701 34224576.000000007
decision_type=10 2 10 10 10 10 10 2
left_child=3 -2 -3 4 5 -1 7 -7
right_child=1 2 -4 -5 -6 6 -8 -9
leaf_value=-0.0025897662612464649 0.00096710843921605887 0.0070824172896299629 0.0028647143601984279 0.00064907455200904733 -0.00092999971716511151 -0.0014372241555652228 -0.002260650467212437 -0.002017757028848616
leaf_weight=33 35 24 29 29 29 31 23 26
leaf_count=33 35 24 29 29 29 31 23 26
internal_value=0.00017098 0.00326027 0.00477462 -0.00141883 -0.00184115 -0.00207498 -0.00186263 -0.00170203
internal_weight=259 88 53 171 142 113 80 57
internal_count=259 88 53 171 142 113 80 57
is_linear=0
shrinkage=0.0426353


Tree=22
num_leaves=10
num_cat=0
split_feature=51 56 70 36 36 40 50 60 50
split_gain=0.643119 0.13736 0.122245 0.0889532 0.0319307 0.0109288 0.00769076 0.00431692 0.00244812
threshold=0.78644566938205207 1.3586565819636893 1.6479563092941458 1.678868340568245 1.1650033731612741 0.14872071832828071 0.083699724860287525 1.0920561534477324 0.77303243308839864
decision_type=10 10 8 10 10 8 8 8 8
left_child=1 4 -2 -4 5 6 -1 -8 -9
right_child=2 -3 3 -5 -6 -7 7 8 -10
leaf_value=-0.0024128095119769224 0.0063951357854555319 0.0017069130889509185 0.00089419270378365422 0.0044031977426380788 -0.00032660206690951271 -0.0026428626494561158 -0.0019306826777518416 -0.0010501800238714293 -0.0016514892629150924
leaf_weight=22 20 26 29 24 28 29 29 32 20
leaf_count=22 20 26 29 24 28 29 29 32 20
internal_value=0.00016369 -0.00116729 0.00355495 0.00248318 -0.00163434 -0.00191174 -0.00170589 -0.00151389 -0.00128145
internal_weight=259 186 73 53 160 132 103 81 52
internal_count=259 186 73 53 160 132 103 81 52
is_linear=0
shrinkage=0.0426353


Tree=23
num_leaves=10
num_cat=0
split_feature=51 56 70 33 35 60 40 12 50
split_gain=0.589449 0.125897 0.112044 0.0801945 0.0296943 0.0114384 0.00908794 0.00489759 0.0021865
threshold=0.78644566938205207 1.3586565819636893 1.6479563092941458 1.6533063271107615 1.0003659112466254 1.1278903678917556 0.14872071832828071 0.11376070171630744 -0.0037026909380268517
decision_type=10 10 8 10 10 10 8 2 10
left_child=1 4 -2 -4 5 6 7 -1 -9
right_child=2 -3 3 -5 -6 -7 -8 8 -10
leaf_value=-0.0012837516301883992 0.0061224769679870924 0.001634138262826796 0.00086857782193649124 0.0042003503911215148 -0.00030354937584550252 -0.0010110886949261132 -0.0027547221328107414 -0.0023098190301189796 -0.0017904289109486389
leaf_weight=23 20 26 29 24 28 25 24 26 34
leaf_count=23 20 26 29 24 28 25 24 26 34
internal_value=0.000156711 -0.00111752 0.00340338 0.00237731 -0.00156466 -0.00183217 -0.00202401 -0.00181272 -0.0020155
internal_weight=259 186 73 53 160 132 107 83 60
internal_count=259 186 73 53 160 132 107 83 60
is_linear=0
shrinkage=0.0426353


Tree=24
num_leaves=10
num_cat=0
split_feature=51 56 70 36 35 40 22 50 50
split_gain=0.540257 0.115391 0.102693 0.0757897 0.0272162 0.00921894 0.00708861 0.00209943 0.00195424
threshold=0.78644566938205207 1.3586565819636893 1.6479563092941458 1.678868340568245 1.0003659112466254 0.14872071832828071 -0.034575213544428482 -0.0037026909380268517 0.51875626935145658
decision_type=10 10 8 10 10 8 2 10 10
left_child=1 4 -2 -4 5 6 8 -8 -1
right_child=2 -3 3 -5 -6 -7 7 -9 -10
leaf_value=-0.0010637121050700422 0.0058614430348615547 0.0015644662095712673 0.000809239739028217 0.0040482201060201787 -0.00029060744914877169 -0.0024255520585424999 -0.0022113391138143725 -0.0016303096053886731 -0.0015868064924559181
leaf_weight=37 20 26 29 24 28 29 26 20 20
leaf_count=37 20 26 29 24 28 29 26 20 20
internal_value=0.00015003 -0.00106987 0.00325828 0.00227595 -0.00149795 -0.00175406 -0.001565 -0.00195872 -0.00124725
internal_weight=259 186 73 53 160 132 103 46 57
internal_count=259 186 73 53 160 132 103 46 57
is_linear=0
shrinkage=0.0426353


Tree=25
num_leaves=10
num_cat=0
split_feature=47 27 27 45 33 60 40 40 40
split_gain=0.421668 0.11961 0.135454 0.0211141 0.0180106 0.00667022 0.00466089 0.00433344 0.00233459
threshold=0.12654153794397432 25.779713198172079 35.385244379472702 0.85856741518782409 1.2497871821247222 1.1278903678917556 0.0050873088973382588 -0.068514542699825681 0.14678118317077701
decision_type=10 2 2 10 10 10 10 8 10
left_child=4 3 -3 -2 5 6 7 -1 -8
right_child=1 2 -4 -5 -6 -7 8 -9 -10
leaf_value=-0.0017837079172205957 -0.00038834021884918502 0.0061908806138889598 0.0016253133772284568 0.0013394219710506905 -0.00052525090672521173 -0.0010200730373455841 -0.0013651453408785499 -0.0026206919441590635 -0.0019473643754243414
leaf_weight=23 20 21 27 36 28 20 31 22 21
leaf_count=23 20 21 27 36 28 20 31 22 21
internal_value=-1.06779e-05 0.002061 0.00362275 0.000722364 -0.00149657 -0.00172903 -0.0018752 -0.0021929 -0.00160027
internal_weight=249 104 48 56 145 117 97 45 52
internal_count=249 104 48 56 145 117 97 45 52
is_linear=0
shrinkage=0.0426353


Tree=26
num_leaves=10
num_cat=0
split_feature=52 70 36 48 58 60 30 10 50
split_gain=0.381793 0.16226 0.0516039 0.0303252 0.0291792 0.010432 0.00613802 0.00393596 0.00133505
threshold=1.5225909099522554 1.728536039273336 0.84864755049034346 0.23399814961417448 0.75990991859688017 1.1534988107380575 0.053217406478085517 0.20487679229395703 0.18304404633991231
decision_type=10 8 10 10 8 10 8 2 8
left_child=2 -2 5 -3 -4 6 7 -1 -9
right_child=1 3 4 -5 -6 -7 -8 8 -10
leaf_value=-0.0011377404656634999 0.005665428146143312 0.00050170909001301996 0.00099262378468830998 0.0025217652757187478 -0.0010272976952624578 -0.00073922419794432003 -0.0024740023580400988 -0.0021009132140387471 -0.0016705586111941161
leaf_weight=21 21 35 26 22 26 20 20 20 38
leaf_count=21 21 35 26 22 26 20 20 20 38
internal_value=-1.02227e-05 0.0024617 -0.00113777 0.00128138 -1.7337e-05 -0.00162737 -0.00180679 -0.00163787 -0.00181896
internal_weight=249 78 171 57 52 119 99 79 58
internal_count=249 78 171 57 52 119 99 79 58
is_linear=0
shrinkage=0.0426353


Tree=27
num_leaves=10
num_cat=0
split_feature=47 27 27 57 33 40 50 60 31
split_gain=0.354201 0.101657 0.120946 0.0190411 0.0152256 0.0056169 0.00757377 0.00471858 0.00128588
threshold=0.12654153794397432 25.779713198172079 35.385244379472702 0.41466647279016511 1.2497871821247222 0.18471986836583995 0.092932637889836758 1.0920561534477324 0.05137165933091415
decision_type=10 2 2 8 10 8 8 8 2
left_child=4 3 -3 -2 5 6 -1 -8 -9
right_child=1 2 -4 -5 -6 -7 7 8 -10
leaf_value=-0.0021366479838335387 -0.00032250352389556969 0.0057554162370011021 0.0014412809639952784 0.0012872504127937545 -0.00047856040427439141 -0.0021992276983361695 -0.0017240016715938198 -0.0012265371364665019 -0.00078889748665958231
leaf_weight=22 22 21 27 34 28 22 24 23 26
leaf_count=22 22 21 27 34 28 22 24 23 26
internal_value=-9.78683e-06 0.00188894 0.00332872 0.000654847 -0.00137163 -0.00158536 -0.0014432 -0.00123422 -0.00099432
internal_weight=249 104 48 56 145 117 95 73 49
internal_count=249 104 48 56 145 117 95 73 49
is_linear=0
shrinkage=0.0426353


Tree=28
num_leaves=10
num_cat=0
split_feature=52 70 42 48 58 60 30 30 22
split_gain=0.324713 0.14188 0.0430964 0.0251036 0.0240893 0.00907021 0.00522194 0.00362113 0.000552567
threshold=1.5225909099522554 1.728536039273336 0.86765690266159934 0.23399814961417448 0.75990991859688017 1.1534988107380575 0.053217406478085517 -0.017061348114925389 -0.034575213544428482
decision_type=10 8 10 10 8 10 8 10 2
left_child=2 -2 5 -3 -4 6 7 -1 -9
right_child=1 3 4 -5 -6 -7 -8 8 -10
leaf_value=-0.0018360957428065175 0.0052660843833496045 0.0004572060072602944 0.00085269014191118454 0.0022951385273378487 -0.00096555105499070495 -0.00067539533299525872 -0.0022863162628891224 -0.0011094969547669692 -0.0014159173541778013
leaf_weight=35 21 35 27 22 26 20 20 23 20
leaf_count=35 21 35 27 22 26 20 20 23 20
internal_value=-9.36957e-06 0.0022703 -0.00104922 0.00116658 -3.92772e-05 -0.00150283 -0.0016717 -0.0015141 -0.00125202
internal_weight=249 78 171 57 53 118 98 78 43
internal_count=249 78 171 57 53 118 98 78 43
is_linear=0
shrinkage=0.0426353


Tree=29
num_leaves=9
num_cat=0
split_feature=47 27 27 45 43 60 31 31
split_gain=0.297344 0.0864048 0.108119 0.0173669 0.0136914 0.0101239 0.00826889 0.0038969
threshold=0.12654153794397432 25.779713198172079 35.014504126604997 0.85856741518782409 0.80641734556053801 1.1534988107380575 0.085457845319979131 0.035481912309852155
decision_type=10 2 2 10 10 10 2 2
left_child=4 3 -3 -2 5 6 7 -1
right_child=1 2 -4 -5 -6 -7 -8 -9
leaf_value=-0.0016868496175537597 -0.00041438842711208031 0.0054522988844560201 0.0013479228708781609 0.0011525745837562156 -0.00047820503706701666 -0.00063252690555074583 -0.0022811045610253967 -0.0010131962665389101
leaf_weight=37 20 20 28 36 32 21 28 27
leaf_count=37 20 20 28 36 32 21 28 27
internal_value=-8.9701e-06 0.0017307 0.00305808 0.000592945 -0.00125673 -0.0014772 -0.00167001 -0.00140265
internal_weight=249 104 48 56 145 113 92 64
internal_count=249 104 48 56 145 113 92 64
is_linear=0
shrinkage=0.0426353


Tree=30
num_leaves=10
num_cat=0
split_feature=46 58 28 37 43 50 40 50 7
split_gain=0.260357 0.0665232 0.0548619 0.0629966 0.0198081 0.00851783 0.00256913 0.000980047 0.00179439
threshold=1.3041296517972103 -0.20108119645746572 13.249873873320702 0.079690614289352937 1.0003659112466254 -0.18090053006578891 0.17996359806851905 0.53329426092929921 0.47165826903994112
decision_type=10 8 2 10 10 10 10 10 2
left_child=1 -1 -2 -4 5 -3 7 8 -7
right_child=2 4 3 -5 -6 6 -8 -9 -10
leaf_value=0.0013971909133749703 0.00058148432715767937 -0.0020823988742558366 0.0048140316068629582 0.0014705755081733057 -0.00028191372311453804 -0.0012663357042467076 -0.0016413762432641193 -0.0013856514904698439 -0.00076394022505211383
leaf_weight=20 23 30 21 20 33 28 24 20 24
leaf_count=20 23 30 21 20 33 28 24 20 24
internal_value=-8.57984e-05 -0.000920276 0.00224813 0.00318308 -0.00121178 -0.00145532 -0.00125935 -0.00113201 -0.00103446
internal_weight=243 179 64 41 159 126 96 72 52
internal_count=243 179 64 41 159 126 96 72 52
is_linear=0
shrinkage=0.0426353


Tree=31
num_leaves=9
num_cat=0
split_feature=46 56 28 37 43 50 31 50
split_gain=0.238629 0.0609717 0.0502835 0.0577394 0.018155 0.00780699 0.00238634 0.00304178
threshold=1.3041296517972103 1.3586565819636893 13.249873873320702 0.079690614289352937 1.0003659112466254 -0.18090053006578891 0.064824622849931665 0.53329426092929921
decision_type=10 10 2 10 10 10 2 10
left_child=1 4 -2 -4 5 -1 -7 -8
right_child=2 -3 3 -5 -6 6 7 -9
leaf_value=-0.0019936150694820393 0.00055669253702829099 0.001337621224107856 0.004608783715407439 0.0014078769806224608 -0.00026989424007660309 -0.00094867793639779089 -0.0011436140709797113 -0.001789283305779471
leaf_weight=30 23 20 21 20 33 39 36 21
leaf_count=30 23 20 21 20 33 39 36 21
internal_value=-8.21404e-05 -0.000881039 0.00215228 0.00304737 -0.00116012 -0.00139327 -0.00120566 -0.00138149
internal_weight=243 179 64 41 159 126 96 57
internal_count=243 179 64 41 159 126 96 57
is_linear=0
shrinkage=0.0426353


Tree=32
num_leaves=9
num_cat=0
split_feature=46 56 36 36 36 50 60 40
split_gain=0.218715 0.0558834 0.0503051 0.0408072 0.0173587 0.00726326 0.00894124 0.00202446
threshold=1.3041296517972103 1.3586565819636893 1.747141407688096 1.4378978568198046 1.1650033731612741 -0.11704910382545598 1.1534988107380575 0.1061369838965807
decision_type=10 10 10 10 10 10 8 10
left_child=1 4 3 -2 5 -1 -7 -8
right_child=2 -3 -4 -5 -6 6 7 -9
leaf_value=-0.001886164582606775 0.0025695097713605689 0.0012805912702078836 0.0037709675088113451 -5.804272966880812e-05 -0.00020543329403451831 -0.0016876668549172891 -0.00060653986292801226 -0.001099434064383223
leaf_weight=32 21 20 21 22 31 35 33 28
leaf_count=32 21 20 21 22 31 35 33 28
internal_value=-7.86383e-05 -0.000843476 0.00206052 0.00122518 -0.00111065 -0.00132989 -0.00114446 -0.000832786
internal_weight=243 179 64 43 159 128 96 61
internal_count=243 179 64 43 159 128 96 61
is_linear=0
shrinkage=0.0426353


Tree=33
num_leaves=9
num_cat=0
split_feature=46 56 36 36 36 50 60 40
split_gain=0.200462 0.0512198 0.046107 0.0374017 0.0159101 0.00665712 0.00819507 0.00185552
threshold=1.3041296517972103 1.3586565819636893 1.747141407688096 1.4378978568198046 1.1650033731612741 -0.11704910382545598 1.1534988107380575 0.1061369838965807
decision_type=10 10 10 10 10 10 8 10
left_child=1 4 3 -2 5 -1 -7 -8
right_child=2 -3 -4 -5 -6 6 7 -9
leaf_value=-0.0018057473301439358 0.002459957822158017 0.0012259928181240895 0.0036101909895131382 -5.5568043320378454e-05 -0.00019667457184064806 -0.0016157125929825208 -0.00058067983621066361 -0.0010525593167041215
leaf_weight=32 21 20 21 22 31 35 33 28
leaf_count=32 21 20 21 22 31 35 33 28
internal_value=-7.52855e-05 -0.000807514 0.00197267 0.00117294 -0.0010633 -0.00127319 -0.00109567 -0.00079728
internal_weight=243 179 64 43 159 128 96 61
internal_count=243 179 64 43 159 128 96 61
is_linear=0
shrinkage=0.0426353


Tree=34
num_leaves=10
num_cat=0
split_feature=46 56 36 43 36 60 40 30 30
split_gain=0.183733 0.0469453 0.0422593 0.0347956 0.0145824 0.00592856 0.00420736 0.00149802 0.0015727
threshold=1.3041296517972103 1.3586565819636893 1.747141407688096 1.4808644488284055 1.1650033731612741 1.1534988107380575 0.14872071832828071 -0.017061348114925389 0.023773868244548805
decision_type=10 10 10 10 10 10 8 10 10
left_child=1 4 3 -2 5 6 7 -1 -9
right_child=2 -3 -4 -5 -6 -7 -8 8 -10
leaf_value=-0.0014494294050112642 0.002364301180637613 0.0011737221902171698 0.0034562692553944604 -6.2004081072378016e-05 -0.00018828928737395556 -0.0005446304998226164 -0.0018046873715706375 -0.00086229259737731153 -0.0013276052673469488
leaf_weight=27 21 20 21 22 31 20 27 31 23
leaf_count=27 21 20 21 22 31 20 27 31 23
internal_value=-7.20757e-05 -0.000773085 0.00188856 0.00112294 -0.00101797 -0.0012189 -0.00134377 -0.00119013 -0.00106048
internal_weight=243 179 64 43 159 128 108 81 54
internal_count=243 179 64 43 159 128 108 81 54
is_linear=0
shrinkage=0.0426353


Tree=35
num_leaves=10
num_cat=0
split_feature=51 56 49 40 38 31 50 50 31
split_gain=0.192607 0.0452396 0.044515 0.0153573 0.0073075 0.00831591 0.00465748 0.00594099 0.0021027
threshold=0.78644566938205207 1.3586565819636893 -0.10439971019423853 -0.017009468306833895 0.051491006729789922 0.17092059288074454 0.0394113722994524 0.527249643593659 0.064824622849931665
decision_type=10 10 10 10 8 2 8 8 2
left_child=1 4 -2 -4 -1 6 -6 -8 -9
right_child=2 -3 3 -5 5 -7 7 8 -10
leaf_value=-0.00048593855579444204 0.0031439379298275143 0.0010341065437080963 0.0017854369724148971 0.00011462426186430129 -0.0015856429820075904 -0.0019353058805198571 -0.00045560623603201577 -0.00093556708145479494 -0.0015220832131471824
leaf_weight=35 29 22 20 20 21 22 35 25 20
leaf_count=35 29 22 20 20 21 22 35 25 20
internal_value=-4.31099e-05 -0.000777277 0.00187211 0.000950031 -0.00102949 -0.00118416 -0.00102055 -0.000872213 -0.00119624
internal_weight=249 180 69 40 158 123 101 80 45
internal_count=249 180 69 40 158 123 101 80 45
is_linear=0
shrinkage=0.0426353


Tree=36
num_leaves=11
num_cat=0
split_feature=51 37 70 56 40 38 60 50 60 50
split_gain=0.176534 0.0418869 0.0441188 0.0414643 0.00719223 0.00703336 0.00447539 0.00262191 0.00227199 0.00337213
threshold=0.78644566938205207 0.096123256253372577 1.5573495346102824 1.3586565819636893 0.14678118317077701 -0.16278161269028754 1.1278903678917556 0.51131442744361111 0.61349697274046244 0.083699724860287525
decision_type=10 10 10 10 8 8 10 8 10 8
left_child=3 2 -2 4 5 -1 8 -6 9 -7
right_child=1 -3 -4 -5 7 6 -8 -9 -10 -11
leaf_value=-0.00013052448977986502 0.0039866006599720318 0.00035387186017592345 0.0013106853187023614 0.00099001705151728799 -0.0011344842841578098 -0.0014057476165890614 -0.00042555966908818508 -0.001824849077695038 -0.0015060308912343758 -0.00071462916463859913
leaf_weight=22 21 24 24 22 20 21 21 20 21 33
leaf_count=22 21 24 24 22 20 21 21 20 21 33
internal_value=-4.12719e-05 0.00179229 0.00255945 -0.000744137 -0.000985602 -0.000818122 -0.000975697 -0.00147967 -0.00112973 -0.000983397
internal_weight=249 69 45 180 158 118 96 40 75 54
internal_count=249 69 45 180 158 118 96 40 75 54
is_linear=0
shrinkage=0.0426353


Tree=37
num_leaves=10
num_cat=0
split_feature=51 37 70 56 40 38 37 28 40
split_gain=0.161801 0.0383913 0.04072 0.038004 0.00659868 0.00652549 0.00306805 0.00468095 0.00104924
threshold=0.78644566938205207 0.096123256253372577 1.6324717183353044 1.3586565819636893 0.14872071832828071 -0.16278161269028754 0.052799706986878171 10.370215132905034 -0.063767112574588655
decision_type=10 10 10 10 8 8 10 2 10
left_child=3 2 -2 4 5 -1 7 8 -7
right_child=1 -3 -4 -5 -6 6 -8 -9 -10
leaf_value=-0.00012495953205847782 0.0037046616489002427 0.00033878443019391197 0.0011389688302539513 0.00094780733893887474 -0.0014332108296904447 -0.00077822896909572961 -0.0013942926452101142 -0.00027006979556027608 -0.0011594324982420001
leaf_weight=22 23 24 22 22 38 21 21 21 35
leaf_count=22 23 24 22 22 38 21 21 21 35
internal_value=-3.95123e-05 0.00171587 0.00245032 -0.000712411 -0.00094358 -0.000788531 -0.000937495 -0.000812914 -0.00101648
internal_weight=249 69 45 180 158 120 98 77 56
internal_count=249 69 45 180 158 120 98 77 56
is_linear=0
shrinkage=0.0426353


Tree=38
num_leaves=8
num_cat=0
split_feature=53 70 38 38 60 1 30
split_gain=0.14681 0.0472479 0.0123778 0.0111132 0.00760684 0.00418062 0.00388814
threshold=0.85856741518782409 1.4786044458399372 0.014059138959917573 0.68731679748606511 1.1534988107380575 0.10252449479667519 -0.017061348114925389
decision_type=10 10 10 8 8 2 10
left_child=3 -2 -3 -1 -5 6 -6
right_child=1 2 -4 4 5 -7 -8
leaf_value=-0.00022141527625698843 0.0027226023213190245 9.1290646497732385e-05 0.0012692446645048909 -0.0017120694882811326 -0.0015369209903619617 -0.0004892841198104222 -0.00081748468760730697
leaf_weight=39 29 34 31 25 22 33 36
leaf_count=39 29 34 31 25 22 33 36
internal_value=-3.78277e-05 0.00129155 0.000653084 -0.000844032 -0.00105336 -0.000872397 -0.00109037
internal_weight=249 94 65 155 116 91 58
internal_count=249 94 65 155 116 91 58
is_linear=0
shrinkage=0.0426353


Tree=39
num_leaves=11
num_cat=0
split_feature=47 59 41 28 40 12 50 48 50 28
split_gain=0.13598 0.0658699 0.0552656 0.00972311 0.00634626 0.00437163 0.00369609 0.00170242 0.00222254 0.00115601
threshold=0.12654153794397432 -0.85879218268467106 1.5049365310779319 15.977907852559754 0.21622583584026442 0.045991470101409228 -0.11704910382545598 0.3495644252745555 0.53329426092929921 4.339683221475779
decision_type=10 8 10 2 8 2 10 8 10 2
left_child=4 -2 3 -3 5 -1 -7 -8 9 -9
right_child=1 2 -4 -5 -6 6 7 8 -10 -11
leaf_value=-0.00019675082041431001 0.0032805562568056293 0.00049529337760073448 0.0024322864789992895 -0.00059080270654382407 -0.0015588697032307966 -0.0013618590523277476 -0.0010815424052811841 -0.00066628382879994148 -0.00099908712245661523 -0.00021841719342917968
leaf_weight=21 21 29 22 31 21 22 20 22 20 20
leaf_count=21 21 29 22 31 21 22 20 22 20 20
internal_value=-3.62149e-05 0.00115001 0.000604377 -6.58563e-05 -0.000873069 -0.000757855 -0.000871155 -0.000739502 -0.000629167 -0.000453014
internal_weight=249 103 82 60 146 125 104 82 62 42
internal_count=249 103 82 60 146 125 104 82 62 42
is_linear=0
shrinkage=0.0426353


Tree=40
num_leaves=10
num_cat=0
split_feature=45 50 60 63 60 31 50 60 40
split_gain=0.102052 0.0383288 0.0126808 0.0107564 0.00898139 0.00543165 0.00623904 0.0019361 0.000804915
threshold=1.1810861521954306 0.29119673778029725 0.52062092827611506 1.7170688819399078 1.1534988107380575 0.085457845319979131 0.0075507607367937659 1.7512466868756966 0.10208114412513421
decision_type=10 10 10 8 10 2 8 10 8
left_child=3 2 -2 -1 5 6 -5 -6 -8
right_child=1 -3 -4 4 7 -7 8 -9 -10
leaf_value=-3.2821436505234766e-05 -0.00028830482405594292 0.0025490101854524242 0.0010593317074062186 -0.0015017799633277652 -9.5260923172398572e-05 -0.0015132313485109266 -0.00046468229344396006 -0.00065471589028450036 -0.00081626609149658066
leaf_weight=34 22 24 30 20 23 36 29 22 20
leaf_count=34 22 24 30 20 23 36 29 22 20
internal_value=-0.000174655 0.00113965 0.000489178 -0.00071752 -0.000872719 -0.0010887 -0.000867199 -0.000368772 -0.000608186
internal_weight=260 76 52 184 150 105 69 45 49
internal_count=260 76 52 184 150 105 69 45 49
is_linear=0
shrinkage=0.0426353


Tree=41
num_leaves=10
num_cat=0
split_feature=45 37 40 63 60 28 50 28 30
split_gain=0.0935357 0.040102 0.0104983 0.0098587 0.00823187 0.00511079 0.00565304 0.00215818 0.000925189
threshold=1.1810861521954306 0.066128158219390595 -0.042158101325268316 1.7170688819399078 1.1534988107380575 8.8816978520380889 0.0075507607367937659 13.509885417566581 -0.017061348114925389
decision_type=10 10 8 8 10 2 8 2 10
left_child=3 -2 -3 -1 5 6 -5 -6 -8
right_child=1 2 -4 4 7 -7 8 -9 -10
leaf_value=-3.142208612068129e-05 0.0024492008700758064 0.0010278513762446045 -0.00020872935041490879 -0.0014377510617373831 -2.2936495906213814e-05 -0.001462941340527263 -0.00081424444205444762 -0.00061713991807397302 -0.00043988012092989665
leaf_weight=34 26 24 26 20 20 35 20 25 30
leaf_count=34 26 24 26 20 20 35 20 25 30
internal_value=-0.000167208 0.00109106 0.000384829 -0.000686928 -0.00083551 -0.00104228 -0.000831947 -0.00035305 -0.000589626
internal_weight=260 76 50 184 150 105 70 45 50
internal_count=260 76 50 184 150 105 70 45 50
is_linear=0
shrinkage=0.0426353


Tree=42
num_leaves=11
num_cat=0
split_feature=47 59 37 70 30 35 50 60 50 30
split_gain=0.0775909 0.0352653 0.0269766 0.00959129 0.00605117 0.00549958 0.00508756 0.00620622 0.00118755 0.000674644
threshold=0.12654153794397432 -0.58712442569750334 0.066128158219390595 1.6631700818899173 0.09212954787647766 0.84380541892340999 0.092932637889836758 1.1278903678917556 0.39071948462118972 -0.012132926539057393
decision_type=10 10 10 10 8 10 8 8 8 10
left_child=4 2 -2 -4 5 6 -1 -8 -9 -10
right_child=1 -3 3 -5 -6 -7 7 8 9 -11
leaf_value=-0.0013151687886039315 0.0025021012707772431 -0.00029597403500237118 0.0013542244713499239 3.3816133436832692e-05 -0.001436065599265566 -4.0555430600511215e-05 -0.0011114676583099236 -0.00011190689599011329 -0.00068339218789078518 -0.0003373934703661633
leaf_weight=24 24 36 20 20 20 23 31 21 20 21
leaf_count=24 24 36 20 20 20 23 31 21 20 21
internal_value=-0.000160079 0.000771562 0.00137205 0.00069402 -0.000742355 -0.000643253 -0.000761732 -0.00061891 -0.000372631 -0.000506173
internal_weight=260 100 64 40 160 140 117 93 62 41
internal_count=260 100 64 40 160 140 117 93 62 41
is_linear=0
shrinkage=0.0426353


Tree=43
num_leaves=10
num_cat=0
split_feature=45 37 63 30 60 28 50 28 30
split_gain=0.079508 0.0344271 0.00848046 0.00742366 0.00694254 0.00461314 0.00482773 0.00190625 0.000814417
threshold=1.1810861521954306 0.066128158219390595 1.7170688819399078 0.016436712969710294 1.1534988107380575 8.8816978520380889 0.0075507607367937659 13.509885417566581 -0.017061348114925389
decision_type=10 10 8 10 10 2 8 2 10
left_child=2 -2 -1 -3 5 6 -4 -6 -8
right_child=1 3 4 -5 7 -7 8 -9 -10
leaf_value=-2.4458344543237943e-05 0.0022652116155348545 0.00079456022166358509 -0.0013201216554719233 -0.00025802000459230725 -1.6908316625979343e-05 -0.0013597703908457179 -0.00074709176243623033 -0.00057535449020360669 -0.00039585290079715901
leaf_weight=34 26 29 20 21 20 35 20 25 30
leaf_count=34 26 29 20 21 20 35 20 25 30
internal_value=-0.000153254 0.00100683 -0.000632421 0.000352477 -0.000770226 -0.000960113 -0.000760284 -0.000327156 -0.000536348
internal_weight=260 76 184 50 150 105 70 45 50
internal_count=260 76 184 50 150 105 70 45 50
is_linear=0
shrinkage=0.0426353


Tree=44
num_leaves=10
num_cat=0
split_feature=45 50 60 63 60 28 50 28 40
split_gain=0.0728729 0.0317198 0.0103397 0.00777274 0.00636317 0.00422816 0.00442484 0.00174717 0.00077616
threshold=1.1810861521954306 0.29119673778029725 0.52062092827611506 1.7170688819399078 1.1534988107380575 8.8816978520380889 0.0075507607367937659 13.509885417566581 0.11453006630615392
decision_type=10 10 10 8 10 2 8 2 8
left_child=3 2 -2 -1 5 6 -5 -6 -8
right_child=1 -3 -4 4 7 -7 8 -9 -10
leaf_value=-2.3415550365423501e-05 -0.00032989228160810606 0.0022460144122335921 0.00088700618379986278 -0.0012638378009735417 -1.6187420166355273e-05 -0.0013017961110708106 -0.00037632502058549983 -0.00055082405341007736 -0.00071921506848024214
leaf_weight=34 22 24 30 20 20 35 30 25 20
leaf_count=34 22 24 30 20 20 35 30 25 20
internal_value=-0.00014672 0.000963907 0.000372165 -0.000605457 -0.000737387 -0.000919178 -0.000727869 -0.000313208 -0.000513481
internal_weight=260 76 52 184 150 105 70 45 50
internal_count=260 76 52 184 150 105 70 45 50
is_linear=0
shrinkage=0.0426353


Tree=45
num_leaves=11
num_cat=0
split_feature=46 70 41 58 27 60 31 52 50 30
split_gain=0.097549 0.0442057 0.0201793 0.0197177 0.00548209 0.00377954 0.00274793 0.00798003 0.0039793 0.000977437
threshold=1.2843605752812406 1.7017198104846134 1.5049365310779319 -0.20108119645746572 25.207018801561507 1.2439257172807541 0.093828326857334943 1.0435248167019082 0.0075507607367937659 -0.012132926539057393
decision_type=10 8 10 8 2 10 2 10 8 10
left_child=3 -2 -3 -1 5 6 8 -8 -5 -10
right_child=1 2 -4 4 -6 -7 7 -9 9 -11
leaf_value=0.00069516640594867517 0.0030532771489668077 -0.00016026354659278604 0.0016494667943689257 -0.0011712344049607957 -2.9965050186938073e-05 -0.00027783947904128683 -0.0017388145931916412 -0.00057434677034851837 -0.00068572265850921877 -0.00029789104326305622
leaf_weight=23 21 24 21 21 23 26 20 23 21 27
leaf_count=23 21 24 21 21 23 26 20 23 21 27
internal_value=3.18467e-05 0.00143805 0.000684277 -0.000472552 -0.000639369 -0.000740937 -0.000848441 -0.00111596 -0.000681727 -0.000467567
internal_weight=250 66 45 184 161 138 112 43 69 48
internal_count=250 66 45 184 161 138 112 43 69 48
is_linear=0
shrinkage=0.0426353


Tree=46
num_leaves=10
num_cat=0
split_feature=46 28 39 56 50 50 46 42 50
split_gain=0.0894082 0.0403546 0.0265178 0.0187327 0.00466971 0.00372305 0.00528097 0.0027789 0.000648945
threshold=1.2843605752812406 13.249873873320702 -0.89079699591400774 1.3586565819636893 -0.11704910382545598 0.66345390413325112 0.8429924097567506 1.7720534222116224 0.37754619946352436
decision_type=10 2 10 10 10 10 8 8 10
left_child=3 -2 -3 4 -1 6 -6 -8 -9
right_child=1 2 -4 -5 5 -7 7 8 -10
leaf_value=-0.0010708724023123389 -1.7906323595584726e-05 0.0011023712977129396 0.0032449845884802374 0.00065834144018838217 -0.0010265146365730237 -0.0010355477367769981 0.00010101189301700539 -0.00030928225879018462 -0.00059767516195411113
leaf_weight=33 24 21 21 24 20 20 27 37 23
leaf_count=33 24 21 21 24 20 20 27 37 23
internal_value=3.04889e-05 0.00137674 0.00217368 -0.000452405 -0.000619017 -0.000501606 -0.000401803 -0.000258191 -0.000419833
internal_weight=250 66 42 184 160 127 107 87 60
internal_count=250 66 42 184 160 127 107 87 60
is_linear=0
shrinkage=0.0426353


Tree=47
num_leaves=8
num_cat=0
split_feature=27 60 56 51 60 50 40
split_gain=0.0828451 0.057231 0.015787 0.0056771 0.00488148 0.00583123 0.000708515
threshold=25.779713198172079 1.2537811951787152 1.3586565819636893 0.57431768152281182 1.1534988107380575 -0.11704910382545598 0.1061369838965807
decision_type=2 10 10 10 8 10 10
left_child=2 -2 3 4 -1 -6 -7
right_child=1 -3 -4 -5 5 6 -8
leaf_value=-0.0011871580434060802 0.0024414322634038459 -0.0001401897911744656 0.00057071815796728574 -9.1552409743256543e-05 -0.0010252153706198537 -0.0001983557530544995 -0.00048332715041114976
leaf_weight=30 37 27 25 34 33 35 29
leaf_count=30 37 27 25 34 33 35 29
internal_value=2.9189e-05 0.00135231 -0.000426079 -0.000580861 -0.000711857 -0.000564856 -0.000327483
internal_weight=250 64 186 161 127 97 64
internal_count=250 64 186 161 127 97 64
is_linear=0
shrinkage=0.0426353


Tree=48
num_leaves=11
num_cat=0
split_feature=46 70 41 56 27 60 28 46 50 34
split_gain=0.0764567 0.0372957 0.0171306 0.015938 0.00407508 0.00329222 0.00301179 0.00548282 0.00378891 0.000739933
threshold=1.2843605752812406 1.7017198104846134 1.5049365310779319 1.3586565819636893 25.207018801561507 1.1534988107380575 7.9090364339366355 0.78902681179637912 0.0075507607367937659 -0.012466514471491537
decision_type=10 8 10 10 2 10 2 10 8 10
left_child=3 -2 -3 4 5 6 8 -8 -1 -10
right_child=1 2 -4 -5 -6 -7 7 -9 9 -11
leaf_value=-0.001059798493679432 0.0027564972179465637 -0.00019761632007630448 0.001469809886789284 0.00060594007300752149 -4.7148793918536168e-05 -0.00023859032139496316 -0.001512840335837638 -0.00054970969211078395 -0.00055521515046377714 -0.00021192193137949979
leaf_weight=21 21 24 21 24 23 27 22 21 21 25
leaf_count=21 21 24 21 24 23 27 22 21 21 25
internal_value=2.79445e-05 0.00127287 0.000580516 -0.000418606 -0.000572288 -0.00066045 -0.000763998 -0.00104247 -0.000585274 -0.000368643
internal_weight=250 66 45 184 160 137 110 43 67 46
internal_count=250 66 45 184 160 137 110 43 67 46
is_linear=0
shrinkage=0.0426353


Tree=49
num_leaves=9
num_cat=0
split_feature=27 60 58 53 50 60 46 40
split_gain=0.0701168 0.0513618 0.0127878 0.00472193 0.00299587 0.0039179 0.00402184 0.00066113
threshold=25.779713198172079 1.2537811951787152 -0.20108119645746572 1.4117763181867009 -0.11704910382545598 1.1534988107380575 0.81579639401949333 0.1061369838965807
decision_type=2 10 8 10 10 8 10 10
left_child=2 -2 -1 4 -4 6 -6 -7
right_child=1 -3 3 -5 5 7 -8 -9
leaf_value=0.00052638381900181152 0.002275760819646584 -0.00016990395823308509 -0.000963565391449338 8.5187562662613519e-05 -0.0012232352571929727 -0.00017375555823413496 -0.00039834689822322361 -0.00044729471087470165
leaf_weight=24 37 27 34 20 22 36 21 29
leaf_count=24 37 27 34 20 22 36 21 29
internal_value=2.67531e-05 0.001244 -0.000392083 -0.000528152 -0.000614538 -0.000504659 -0.000820383 -0.000295796
internal_weight=250 64 186 162 142 108 43 65
internal_count=250 64 186 162 142 108 43 65
is_linear=0
shrinkage=0.0426353


Tree=50
num_leaves=11
num_cat=0
split_feature=46 70 36 56 46 34 34 40 40 50
split_gain=0.0743918 0.0337988 0.0212723 0.0178455 0.00402453 0.00264458 0.00138837 0.00130535 0.00117098 0.000172521
threshold=1.2843605752812406 1.728536039273336 1.702523121101488 1.3586565819636893 0.8429924097567506 -0.063522265227549599 0.02763587370580035 0.087825174597177466 -0.0067157369184071931 0.28663767441736393
decision_type=10 8 10 10 10 10 10 10 8 10
left_child=3 -2 -3 4 5 -1 8 -8 -7 -10
right_child=1 2 -4 -5 -6 6 7 -9 9 -11
leaf_value=-0.0010595383128794145 0.0025544821175257069 -0.00016773408553658002 0.0016273555379595823 0.00070386206823102671 -8.122841273222007e-06 -0.00024276381548271801 -0.00095277669228347427 -0.00049340496682309806 -0.00066648262817942052 -0.00048939394414098086
leaf_weight=20 24 28 21 25 24 36 22 23 20 20
leaf_count=20 24 28 21 25 24 36 22 23 20 20
internal_value=8.68057e-05 0.00124364 0.00060159 -0.000357661 -0.000518498 -0.00060537 -0.000530301 -0.000717987 -0.000419171 -0.000577938
internal_weight=263 73 49 190 165 141 121 45 76 40
internal_count=263 73 49 190 165 141 121 45 76 40
is_linear=0
shrinkage=0.0426353


Tree=51
num_leaves=10
num_cat=0
split_feature=47 70 59 38 34 49 50 50 27
split_gain=0.0768456 0.0428617 0.0149724 0.00521515 0.00510939 0.00152832 0.00263059 0.0017365 0.000559215
threshold=0.12654153794397432 1.3117221123817362 -0.61351526383476629 0.30754811263456033 0.064897741914410126 -0.70960043191764699 0.19598774631358992 0.39071948462118972 2.1812432599597615
decision_type=10 10 10 10 8 10 8 8 2
left_child=4 -2 3 -3 5 6 -1 -8 -9
right_child=1 2 -4 -5 -6 -7 7 8 -10
leaf_value=-0.00084364820701458647 0.0023491524399822153 0.0005465088261796926 -0.00022549696513946493 0.0014622658227998317 -0.0011702026985776321 -0.00015942413445794781 -5.8283570722141365e-05 -0.00039507323479990458 -0.00068002422813400712
leaf_weight=31 29 26 35 20 20 28 22 31 21
leaf_count=31 29 26 35 20 20 28 22 31 21
internal_value=8.31047e-05 0.000942614 0.000439039 0.000944664 -0.000534843 -0.000439301 -0.000513934 -0.000375811 -0.00051015
internal_weight=263 110 81 46 153 133 105 74 52
internal_count=263 110 81 46 153 133 105 74 52
is_linear=0
shrinkage=0.0426353


Tree=52
num_leaves=10
num_cat=0
split_feature=47 70 59 38 40 46 60 50 24
split_gain=0.0704326 0.0392847 0.0137229 0.00477993 0.00439428 0.00214349 0.00338017 0.00264056 0.000863954
threshold=0.12654153794397432 1.3117221123817362 -0.61351526383476629 0.30754811263456033 0.21622583584026442 0.78902681179637912 1.0920561534477324 0.083699724860287525 0.18772304133502069
decision_type=10 10 10 10 8 10 8 8 2
left_child=4 -2 3 -3 5 6 -1 -8 -9
right_child=1 2 -4 -5 -6 -7 7 8 -10
leaf_value=-0.00098351560656394547 0.0022489955148862258 0.00052320822321062581 -0.00021588283201414405 0.0013999216148494593 -0.0011012622070561159 -1.6590580719426341e-05 -0.00076851455644526322 -0.00010077192399842151 -0.0004048453682355938
leaf_weight=21 29 26 35 20 20 20 24 35 33
leaf_count=21 29 26 35 20 20 20 24 35 33
internal_value=7.95615e-05 0.000902426 0.00042032 0.000904388 -0.00051204 -0.000423435 -0.000495443 -0.000384035 -0.000248337
internal_weight=263 110 81 46 153 133 113 92 68
internal_count=263 110 81 46 153 133 113 92 68
is_linear=0
shrinkage=0.0426353


Tree=53
num_leaves=11
num_cat=0
split_feature=47 59 36 60 34 47 49 50 50 28
split_gain=0.0645548 0.0376253 0.0386611 0.00912917 0.00462896 0.00452805 0.0013419 0.00228545 0.00153696 0.00047132
threshold=0.12654153794397432 -1.0075869604327734 1.747141407688096 0.88275033771179234 0.064897741914410126 0.23272915590459661 -0.70960043191764699 0.19598774631358992 0.39071948462118972 7.9090364339366355
decision_type=10 8 10 10 8 10 10 8 8 2
left_child=4 -2 3 5 6 -3 7 -1 -9 -10
right_child=1 2 -4 -5 -6 -7 -8 8 9 -11
leaf_value=-0.00077652682215240164 0.002536656010618013 0.00076479022966177603 0.0020004382469055418 -0.00078842755289746768 -0.001094959964852336 -7.695007698434361e-05 -0.00013701711482203168 -4.1731491884390441e-05 -0.00036119783065738679 -0.00062279841348610802
leaf_weight=31 20 21 23 20 20 26 28 22 31 21
leaf_count=31 20 21 23 20 20 26 28 22 31 21
internal_value=7.61694e-05 0.00086395 0.000492238 -2.55024e-05 -0.000490209 0.000299147 -0.000399269 -0.000469203 -0.000340459 -0.000466844
internal_weight=263 110 90 67 153 47 133 105 74 52
internal_count=263 110 90 67 153 47 133 105 74 52
is_linear=0
shrinkage=0.0426353


Tree=54
num_leaves=10
num_cat=0
split_feature=46 49 58 37 45 18 50 50 50
split_gain=0.0533438 0.0305813 0.0129796 0.0123391 0.00442468 0.00395863 0.00229369 0.0012547 0.000904088
threshold=1.2843605752812406 -0.19741317291657542 -0.20108119645746572 0.079690614289352937 0.81782914181888289 -0.22288857542403123 -0.18090053006578891 0.41803478025167379 0.26755416396898674
decision_type=10 10 8 10 8 2 10 10 10
left_child=2 -2 -1 -3 -4 -6 -7 8 -8
right_child=1 3 4 -5 5 6 7 -9 -10
leaf_value=0.0006233186507291524 0.0023811719156952805 0.0012407817064527271 7.3338330834931602e-05 -9.8235753773775328e-05 -0.0010185480720624231 -0.00084158249310994297 -0.00034240408875645968 -0.00052899765546842229 9.6032805774120216e-06
leaf_weight=24 22 22 26 29 25 20 36 38 21
leaf_count=24 22 22 26 29 25 20 36 38 21
internal_value=7.29218e-05 0.00105252 -0.000303451 0.00047938 -0.000437442 -0.000532301 -0.000426595 -0.000339229 -0.000212717
internal_weight=263 73 190 51 166 140 115 95 57
internal_count=263 73 190 51 166 140 115 95 57
is_linear=0
shrinkage=0.0426353


Tree=55
num_leaves=11
num_cat=0
split_feature=62 41 56 30 50 51 40 60 0 30
split_gain=0.0557222 0.0401016 0.0120815 0.00688506 0.00651209 0.00629758 0.00217143 0.00210114 0.00102196 0.000698518
threshold=1.5673784784264611 1.6265968099238459 1.3836309235136146 0.040180625217426026 0.29119673778029725 0.57431768152281182 0.077216771603128967 0.79055120475523832 34224576.000000007 -0.014651678270450769
decision_type=8 10 10 8 10 10 8 10 2 10
left_child=-1 2 3 5 -5 6 8 -7 -2 -10
right_child=1 -3 -4 4 -6 7 -8 -9 9 -11
leaf_value=0.0022167150073332427 -8.0535724317501824e-05 0.0016464911407501231 0.00066190873674160501 -0.0014409004873092506 -0.00044769428107107527 -0.00011921295956003241 -0.00074718115596807784 0.00049879964063848385 -0.00058702326898977511 -0.0002503183206518392
leaf_weight=20 23 21 21 20 30 20 30 20 24 21
leaf_count=20 23 21 21 20 30 20 30 20 24 21
internal_value=5.81624e-05 -0.000129538 -0.000307991 -0.00041633 -0.000844977 -0.000261024 -0.000445031 0.000189793 -0.000311729 -0.000429894
internal_weight=250 230 209 188 50 138 98 40 68 45
internal_count=250 230 209 188 50 138 98 40 68 45
is_linear=0
shrinkage=0.0426353


Tree=56
num_leaves=10
num_cat=0
split_feature=63 41 70 38 49 41 50 27 50
split_gain=0.0550068 0.0370493 0.0125563 0.00742879 0.00656665 0.00616081 0.00368588 0.000715272 0.000571046
threshold=1.3577542542125467 1.6265968099238459 1.881145522244337 0.42656692225780751 0.92307984337626958 0.81782031242578157 -0.10369923445657296 2.1812432599597615 0.49220428886132683
decision_type=8 10 10 10 8 10 10 2 10
left_child=-1 2 3 4 -2 -4 -6 -8 -9
right_child=1 -3 5 -5 6 -7 7 8 -10
leaf_value=0.0022003343681689185 0.00027749529855424692 0.0015762924260887972 -0.00014445885082971946 -0.0012432806636208523 -0.00087878866748625868 0.00086558806973449566 -0.00021099263988839747 -0.00032867186625169011 -0.00061894041540506691
leaf_weight=20 24 21 23 20 33 21 38 28 22
leaf_count=20 24 21 23 20 33 21 38 28 22
internal_value=5.56826e-05 -0.000130809 -0.000302336 -0.000472988 -0.00036674 0.000337609 -0.000494523 -0.000350423 -0.00045639
internal_weight=250 230 209 165 145 44 121 88 50
internal_count=250 230 209 165 145 44 121 88 50
is_linear=0
shrinkage=0.0426353


Tree=57
num_leaves=11
num_cat=0
split_feature=63 41 70 28 41 49 50 40 50 11
split_gain=0.0504163 0.0339574 0.0115084 0.00714186 0.00564667 0.00534686 0.00307203 0.000469931 0.000501869 0.000249061
threshold=1.3577542542125467 1.6265968099238459 1.881145522244337 15.804873778395452 0.81782031242578157 1.4030218881948719 0.0394113722994524 0.063447241289042999 0.65198798444041683 0.17756946299184537
decision_type=8 10 10 2 10 8 8 8 8 2
left_child=-1 2 3 5 -4 -2 -7 9 -9 -8
right_child=1 -3 4 -5 -6 6 7 8 -10 -11
leaf_value=0.00210652235429825 0.00033615826879212617 0.001509086628604474 -0.0001382997921339159 -0.00098380056498130713 0.0008286834438421504 -0.00087232826124636212 -0.00030238369994642773 -0.00027044428586321342 -0.00056554033113576682 -0.00010052675983093349
leaf_weight=20 20 21 23 36 21 22 25 22 20 20
leaf_count=20 20 21 23 36 21 22 25 22 20 20
internal_value=5.33086e-05 -0.000125232 -0.000289446 -0.000452822 0.000323215 -0.000304642 -0.00042222 -0.000308399 -0.000410966 -0.00021267
internal_weight=250 230 209 165 44 129 109 87 42 45
internal_count=250 230 209 165 44 129 109 87 42 45
is_linear=0
shrinkage=0.0426353


Tree=58
num_leaves=10
num_cat=0
split_feature=63 41 56 49 31 56 28 60 40
split_gain=0.0462089 0.0311236 0.0112229 0.00463151 0.00696745 0.00580663 0.00139979 0.000693028 0.000558188
threshold=1.3577542542125467 1.6265968099238459 1.3836309235136146 0.95482238371738359 0.17092059288074454 0.94293101852918737 3.928892711897177 1.7131785080863875 0.13569258986148458
decision_type=8 10 10 8 2 10 2 8 8
left_child=-1 2 3 5 6 -2 -5 -8 -9
right_child=1 -3 -4 4 -6 -7 7 8 -10
leaf_value=0.0020167100342887443 0.00036474895712227849 0.0014447462227615579 0.00068332423139825669 -0.00061084266475790086 -0.0012320357796074403 -0.0004813052222964664 -0.00043977822250670148 -4.0920535567130664e-05 -0.0003431113144410169
leaf_weight=20 29 21 20 34 21 30 30 25 20
leaf_count=20 29 21 20 34 21 30 30 25 20
internal_value=5.10357e-05 -0.000119892 -0.000277105 -0.000378738 -0.000520923 -6.54481e-05 -0.00038392 -0.000281048 -0.000175228
internal_weight=250 230 209 189 130 59 109 75 45
internal_count=250 230 209 189 130 59 109 75 45
is_linear=0
shrinkage=0.0426353


Tree=59
num_leaves=9
num_cat=0
split_feature=59 41 30 53 70 50 50 30
split_gain=0.0425411 0.0299395 0.0113378 0.0088428 0.00553008 0.00221817 0.00137043 0.00125251
threshold=-1.058455062237966 1.6265968099238459 0.060030617129012372 0.88320053619725614 2.3380587729628521 0.34615650809638504 0.65198798444041683 0.017190464359746992
decision_type=8 10 8 10 8 8 8 10
left_child=-1 2 3 5 -5 7 -7 -2
right_child=1 -3 -4 4 -6 6 -8 -9
leaf_value=0.0016148954486613213 -0.00040974480842130632 0.0013831489688169907 -0.0009718883157893097 -4.0725344518658672e-05 0.00085773987771270866 8.383656528739956e-05 -0.00035615477537051933 -0.0008285201469170971
leaf_weight=28 37 21 38 33 20 22 31 20
leaf_count=28 37 21 38 33 20 22 31 20
internal_value=4.88598e-05 -0.000148658 -0.000308698 -0.000154089 0.000298318 -0.000372067 -0.000173517 -0.000556684
internal_weight=250 222 201 163 53 110 53 57
internal_count=250 222 201 163 53 110 53 57
is_linear=0
shrinkage=0.0426353


Tree=60
num_leaves=11
num_cat=0
split_feature=36 54 41 44 31 45 29 40 50 41
split_gain=0.018424 0.0153406 0.0131768 0.0134048 0.0111871 0.0037109 0.00118357 0.00104954 0.000843925 0.000413155
threshold=1.747141407688096 1.4358705405854626 0.81782031242578157 1.27481937368579 0.19477370328402702 0.91135558860627952 0.17204733264724284 0.10208114412513421 0.013918546272722919 1.658929713534173
decision_type=10 8 10 10 2 10 2 8 8 8
left_child=1 2 5 -4 6 -1 7 8 -3 -8
right_child=-2 4 3 -5 -6 -7 9 -9 -10 -11
leaf_value=8.7459155516225864e-05 0.0011261137697241646 -0.00052080827058730624 0.0014233137987825612 -3.7848408475068929e-05 -0.0013894314567667529 -0.00070662160665274784 -0.00026816365585079585 -0.00060888336719660846 -0.00018016450387397812 -9.2127590177979652e-06
leaf_weight=23 21 20 25 21 20 20 21 29 39 24
leaf_count=23 21 20 25 21 20 20 21 29 39 24
internal_value=-8.52693e-05 -0.000190389 0.000254687 0.000756261 -0.00044929 -0.000281881 -0.000307915 -0.000398866 -0.000295637 -0.000130057
internal_weight=263 242 89 46 153 43 133 88 59 45
internal_count=263 242 89 46 153 43 133 88 59 45
is_linear=0
shrinkage=0.0426353


Tree=61
num_leaves=11
num_cat=0
split_feature=36 33 41 44 31 64 34 50 60 0
split_gain=0.0168864 0.0151737 0.012005 0.0120345 0.00991003 0.00164271 0.000970205 0.00099468 0.000630475 0.000785424
threshold=1.747141407688096 1.4358705405854626 0.81782031242578157 1.27481937368579 0.19477370328402702 0.79478027958253217 0.069563711998947134 -0.18090053006578891 1.1278903678917556 34224576.000000007
decision_type=10 8 8 8 2 10 10 8 10 2
left_child=1 2 5 -4 6 -1 7 -3 9 -9
right_child=-2 4 3 -5 -6 -7 -8 8 -10 -11
leaf_value=1.2755341221856997e-05 0.0010781015160758192 -0.0005250142346789479 0.0013626303264458732 1.1274699905504253e-05 -0.0013301925599906127 -0.00050880273192908357 -0.000583898261273877 -0.00044552788196797427 -2.2158513140815572e-05 -0.00014132804496047656
leaf_weight=21 21 21 25 23 20 23 20 27 26 36
leaf_count=21 21 21 25 23 20 23 20 27 26 36
internal_value=-8.16338e-05 -0.000182272 0.00024881 0.000715106 -0.000446669 -0.000259877 -0.000310742 -0.000261077 -0.0001988 -0.000271699
internal_weight=263 242 92 48 150 44 130 110 89 63
internal_count=263 242 92 48 150 44 130 110 89 63
is_linear=0
shrinkage=0.0426353


Tree=62
num_leaves=11
num_cat=0
split_feature=47 30 60 64 30 27 34 28 30 30
split_gain=0.0146216 0.00744073 0.00629058 0.00609505 0.00571081 0.00469982 0.00133404 0.000889877 0.000670622 0.000934405
threshold=0.12654153794397432 0.045676603030477457 0.51511167160166715 1.1339617615430753 0.088075053979826776 25.207018801561507 0.041765857738668408 3.5607085202346407 -0.037129867641802386 -0.0092237021305553567
decision_type=10 10 10 10 8 2 10 2 10 10
left_child=4 2 -2 5 6 -4 7 -1 -9 -10
right_child=1 -3 3 -5 -6 -7 -8 8 9 -11
leaf_value=-0.00053085995422808409 -0.00014145239364943393 -0.0004020351605339541 0.00056939569737002977 0.00012166287924570928 -0.0010088722503559886 0.0014826203128519675 4.3718646020676641e-05 -8.1988681343555918e-05 -0.00055227109407379933 -0.00019619652870124475
leaf_weight=24 21 21 21 21 20 20 25 32 21 37
leaf_count=24 21 21 21 21 20 20 25 32 21 37
internal_value=-7.81533e-05 0.000314917 0.000496315 0.000712333 -0.000335256 0.00101487 -0.000238333 -0.000300186 -0.000238673 -0.00032512
internal_weight=263 104 83 62 159 41 139 114 90 58
internal_count=263 104 83 62 159 41 139 114 90 58
is_linear=0
shrinkage=0.0426353


Tree=63
num_leaves=10
num_cat=0
split_feature=36 33 36 47 64 30 60 34 50
split_gain=0.0143795 0.0132445 0.00798103 0.00752717 0.00629889 0.00264998 0.0013524 0.00108598 8.09733e-05
threshold=1.747141407688096 1.4358705405854626 0.85607871250495238 0.10825468268784298 1.2677706130111301 0.076489939471656138 1.1278903678917556 -0.018433511230157257 0.34021803466971129
decision_type=10 8 8 10 8 8 10 10 8
left_child=1 2 -1 5 -4 6 7 -3 -9
right_child=-2 3 4 -5 -6 -7 -8 8 -10
leaf_value=-0.00029591761441183199 0.00099537166498672551 -0.0004672536709306699 0.0009507162945211207 -0.001184718249556039 6.8514279455304046e-05 -0.00074768476137946336 4.794585667024224e-05 -0.00010177521682080807 -0.00021618725464028616
leaf_weight=33 21 38 31 20 28 20 27 23 22
leaf_count=33 21 38 31 20 28 20 27 23 22
internal_value=-7.48212e-05 -0.000167689 0.000235058 -0.000414707 0.000532044 -0.000296244 -0.000214164 -0.000299429 -0.00015771
internal_weight=263 242 92 150 59 130 110 83 45
internal_count=263 242 92 150 59 130 110 83 45
is_linear=0
shrinkage=0.0426353


Tree=64
num_leaves=12
num_cat=0
split_feature=36 33 41 54 31 45 40 40 50 50 30
split_gain=0.0131795 0.0121393 0.0102486 0.0107715 0.00870849 0.00327919 0.000854993 0.00131485 0.00119117 0.00081508 9.55518e-05
threshold=1.747141407688096 1.4358705405854626 0.81782031242578157 1.1768395698698317 0.19477370328402702 0.91135558860627952 0.10208114412513421 0.013760355984814931 -0.0037026909380268517 0.18304404633991231 0.025713106557294602
decision_type=10 8 8 10 2 10 8 10 8 10 10
left_child=1 2 5 -4 6 -1 7 8 -3 -10 -8
right_child=-2 4 3 -5 -6 -7 10 -9 9 -11 -12
leaf_value=9.1030038929312791e-05 0.00095293364768795458 -0.00052992703610101543 0.00141157502687278 0.00011608571829695177 -0.0012252589350330674 -0.00064816506369656812 -0.0004973957587213598 9.0588399384522802e-05 2.636356688060751e-05 -0.00034498607781546016 -0.00036718213132231497
leaf_weight=24 21 24 20 28 20 20 20 22 22 21 21
leaf_count=24 21 24 20 28 20 20 20 22 22 21 21
internal_value=-7.16312e-05 -0.00016054 0.000225036 0.000655873 -0.000397026 -0.000244968 -0.000269606 -0.000195393 -0.000289298 -0.000154993 -0.000430701
internal_weight=263 242 92 48 150 44 130 89 67 43 41
internal_count=263 242 92 48 150 44 130 89 67 43 41
is_linear=0
shrinkage=0.0426353


Tree=65
num_leaves=11
num_cat=0
split_feature=55 46 34 70 33 35 38 48 50 50
split_gain=0.0338487 0.0181895 0.00547329 0.00243018 0.00284641 0.0031294 0.00363654 0.00160845 0.00143532 0.00099166
threshold=1.3674982345760924 1.7012209402252954 0.11164484698612015 1.5573495346102824 1.9663395828013603 0.82606202745878898 -0.63029707410614277 -0.60252686625441199 0.19598774631358992 0.41803478025167379
decision_type=8 10 8 8 8 8 8 10 8 10
left_child=-1 2 3 -2 5 -5 -7 -8 -6 -10
right_child=1 -3 -4 4 8 6 7 -9 9 -11
leaf_value=0.0016991790570248936 -0.00062355234414304401 0.00096478746950481539 -0.00088680700484192231 -0.00042152652417734766 -0.00056231022854072693 -0.00024825009006689192 0.00013091472025900127 0.00064861586331313404 -2.8476518564315372e-05 -0.00036189341682134525
leaf_weight=20 20 25 22 20 26 23 20 24 34 31
leaf_count=20 20 25 22 20 26 23 20 24 34 31
internal_value=1.26804e-05 -0.000124993 -0.000248832 -0.000177946 -0.000127877 4.64919e-05 0.000186199 0.000413297 -0.000294582 -0.000187491
internal_weight=265 245 220 198 178 87 67 44 91 65
internal_count=265 245 220 198 178 87 67 44 91 65
is_linear=0
shrinkage=0.0426353


Tree=66
num_leaves=10
num_cat=0
split_feature=55 46 34 70 33 38 41 50 50
split_gain=0.0310239 0.0166716 0.00501653 0.00222738 0.00260887 0.00276035 0.00305033 0.00131554 0.000908903
threshold=1.3674982345760924 1.7012209402252954 0.11164484698612015 1.5573495346102824 1.9663395828013603 -0.63029707410614277 0.81782031242578157 0.19598774631358992 0.41803478025167379
decision_type=8 10 8 8 8 8 8 8 10
left_child=-1 2 3 -2 5 -5 -7 -6 -9
right_child=1 -3 -4 4 7 6 -8 8 -10
leaf_value=0.0016267339721516012 -0.00059696698569341262 0.00092365341743255865 -0.00084899766444103712 -0.00029512151192471228 -0.00053833593586513195 -0.00021186725095947252 0.0004386370984600722 -2.7262411376179006e-05 -0.00034646396478503195
leaf_weight=20 20 25 22 29 26 20 38 34 31
leaf_count=20 20 25 22 29 26 20 38 34 31
internal_value=1.21397e-05 -0.000119664 -0.000238223 -0.000170359 -0.000122425 4.45097e-05 0.000214325 -0.000282022 -0.000179497
internal_weight=265 245 220 198 178 87 58 91 65
internal_count=265 245 220 198 178 87 58 91 65
is_linear=0
shrinkage=0.0426353


Tree=67
num_leaves=11
num_cat=0
split_feature=55 46 40 30 37 37 50 43 60 34
split_gain=0.0284349 0.0152803 0.00467991 0.00672875 0.00342823 0.00292562 0.00280673 0.00197052 0.000941973 0.000686657
threshold=1.3674982345760924 1.7012209402252954 0.17996359806851905 0.061498361339299985 0.096123256253372577 0.062491041531075327 0.0075507607367937659 0.81782914181888289 1.7131785080863875 -0.0088592474496151322
decision_type=8 10 8 8 10 10 8 10 8 10
left_child=-1 2 4 -4 5 6 -2 8 -8 -10
right_child=1 -3 3 -5 -6 -7 7 -9 9 -11
leaf_value=0.0015573776155843057 -0.000551954669030404 0.00088427313970461808 -0.00016627774250669132 -0.0011980625745898789 0.00026534984096495681 -0.00060751894197408514 -0.0003019746349507891 0.00035848480610220626 -0.00016257915497611337 0.00019071765232465734
leaf_weight=20 22 25 27 20 33 28 30 20 20 20
leaf_count=20 22 25 27 20 33 28 30 20 20 20
internal_value=1.16221e-05 -0.000114562 -0.000228066 -0.000605335 -0.000125571 -0.000217716 -0.000120266 -1.47419e-05 -0.000121378 1.40692e-05
internal_weight=265 245 220 47 173 140 112 90 70 40
internal_count=265 245 220 47 173 140 112 90 70 40
is_linear=0
shrinkage=0.0426353


Tree=68
num_leaves=11
num_cat=0
split_feature=55 36 40 37 37 70 43 40 50 50
split_gain=0.0260619 0.0173514 0.00642951 0.00240821 0.00282022 0.00322021 0.00110562 0.00100158 0.000793028 0.001283
threshold=1.3674982345760924 1.747141407688096 0.28676904553585897 0.057868062120126199 0.085040995211523945 1.881145522244337 1.1137236752827462 0.17996359806851905 0.0394113722994524 0.42488151834209975
decision_type=8 10 8 8 8 10 10 10 8 10
left_child=-1 2 3 -2 -5 6 7 8 -6 -10
right_child=1 -3 -4 4 5 -7 -8 -9 9 -11
leaf_value=0.0014909782865646681 0.00022800262620527886 0.0010326601860332985 -0.0009143539111910675 -0.00063388709936161103 -0.00043063974785491766 0.00035350153212855903 6.7246499552244527e-05 -0.0005432041813186446 2.1346902377087531e-05 -0.00036098541624772973
leaf_weight=20 27 22 22 24 22 21 21 20 39 27
leaf_count=20 27 22 22 24 22 21 21 20 39 27
internal_value=1.11266e-05 -0.000109678 -0.000222375 -0.000146636 -0.000204769 -0.00013611 -0.000215814 -0.000270854 -0.000208956 -0.000135062
internal_weight=265 245 223 201 174 150 129 108 88 66
internal_count=265 245 223 201 174 150 129 108 88 66
is_linear=0
shrinkage=0.0426353


Tree=69
num_leaves=11
num_cat=0
split_feature=55 36 40 37 37 49 60 28 50 60
split_gain=0.023887 0.0159033 0.00589295 0.00220724 0.00258487 0.00349031 0.00438391 0.00177366 0.00112186 0.000423867
threshold=1.3674982345760924 1.747141407688096 0.28676904553585897 0.057868062120126199 0.085040995211523945 0.30086907505946775 1.1534988107380575 4.5254564101211239 -0.08731022746181559 1.3814855817466059
decision_type=8 10 8 8 8 8 8 2 10 10
left_child=-1 2 3 -2 -5 -6 -7 8 -8 -9
right_child=1 -3 -4 4 5 6 7 9 -10 -11
leaf_value=0.0014274099019188544 0.00021828165823295845 0.00098863236454615187 -0.00087537009404959547 -0.00060686110284320887 0.00031883149746255227 -0.0007166521406589603 -0.00050666831862854439 0.00020816979726244456 -8.5164257169256403e-05 -3.6005491965946366e-05
leaf_weight=20 27 22 22 24 26 26 22 24 24 28
leaf_count=20 27 22 22 24 26 26 22 24 24 28
internal_value=1.06522e-05 -0.000105001 -0.000212894 -0.000140384 -0.000196039 -0.000130307 -0.000224481 -9.39053e-05 -0.000286753 7.66908e-05
internal_weight=265 245 223 201 174 150 124 98 46 52
internal_count=265 245 223 201 174 150 124 98 46 52
is_linear=0
shrinkage=0.0426353


Tree=70
num_leaves=11
num_cat=0
split_feature=45 37 28 58 59 40 33 0 60 30
split_gain=0.0159181 0.0227536 0.0230298 0.0030875 0.00399166 0.00255623 0.00294815 0.000821344 0.000528041 0.000268462
threshold=1.2823497014063772 0.10653547224188228 13.877679457273841 0.39967191423087006 -0.51633651875856457 0.25317599845881145 1.6936528952186518 34224576.000000007 1.6197725602232189 -0.014651678270450769
decision_type=10 10 2 8 8 8 8 2 8 10
left_child=3 2 -2 -1 -5 6 -6 8 -8 -9
right_child=1 -3 -4 4 5 -7 7 9 -10 -11
leaf_value=0.00026265638429830222 -7.0922180452429957e-06 -0.00046336521079973274 0.0018606821746786808 -0.00076012699077695697 0.0003550627938298228 -0.00063775443801331792 -0.00021668414451444647 -0.0004385847884770978 8.6008600267843102e-05 -0.00024511123226052695
leaf_weight=21 21 28 28 27 20 20 22 22 20 32
leaf_count=21 21 28 28 27 20 20 22 22 20 32
internal_value=-8.5243e-06 0.000506181 0.00106021 -0.000223917 -0.000286605 -0.000192597 -0.000115845 -0.000213951 -7.25447e-05 -0.000323934
internal_weight=261 77 49 184 163 136 116 96 42 54
internal_count=261 77 49 184 163 136 116 96 42 54
is_linear=0
shrinkage=0.0426353


Tree=71
num_leaves=11
num_cat=0
split_feature=51 49 58 35 45 40 7 50 60 40
split_gain=0.0148685 0.0245777 0.00451915 0.0038804 0.00386982 0.00228818 0.00237478 0.00172221 0.000574004 0.000230141
threshold=0.92917487113914254 -0.10439971019423853 0.39967191423087006 0.85856741518782409 0.81782914181888289 0.25317599845881145 1.0000000180025095e-35 -0.18090053006578891 0.63256295538579899 0.044301745383622228
decision_type=10 10 8 10 10 8 2 10 10 10
left_child=2 -2 3 -1 5 6 -4 -8 -9 -10
right_child=1 -3 4 -5 -6 -7 7 8 9 -11
leaf_value=-0.00020101188819812433 0.0015332216979349904 -0.00025431082181275483 0.00030605900843033772 0.00062879169756010361 -0.00076479039731149707 -0.00061056355657862558 -0.00054601321305531518 1.7169241641667282e-05 -0.00032114987689555466 -0.00012339754114560998
leaf_weight=20 27 29 20 21 25 20 21 35 20 23
leaf_count=20 27 29 20 21 25 20 21 35 20 23
internal_value=-8.16087e-06 0.000607535 -0.000176351 0.000224009 -0.000276441 -0.000188609 -0.000117692 -0.000203298 -0.000111028 -0.000215375
internal_weight=261 56 205 41 164 139 119 99 78 43
internal_count=261 56 205 41 164 139 119 99 78 43
is_linear=0
shrinkage=0.0426353


Tree=72
num_leaves=10
num_cat=0
split_feature=36 58 43 27 59 33 50 60 31
split_gain=0.0137957 0.0167836 0.0176038 0.00931977 0.00309103 0.00386993 0.00162365 0.00133172 0.000353464
threshold=1.7570016165824396 0.39967191423087006 0.85856741518782409 28.922745266801474 -0.45587761792440945 1.532022787177999 -0.18090053006578891 1.7131785080863875 0.05137165933091415
decision_type=10 8 10 2 8 8 10 8 2
left_child=1 2 -1 4 -3 -6 -7 -8 -9
right_child=-2 3 -4 -5 5 6 7 8 -10
leaf_value=-0.00012820212251316121 0.0010138545925091175 -0.00064816862233559448 0.0015844864228586083 -0.00099141098263328493 0.00040002641070405155 -0.00040915548033744519 -0.00029123239247350898 -3.4264352619248934e-05 0.0001937999706706553
leaf_weight=24 22 20 20 28 25 39 32 30 21
leaf_count=24 22 20 20 28 25 39 32 30 21
internal_value=-7.81292e-06 -0.000101858 0.000650293 -0.000271574 -0.000150882 -8.32243e-05 -0.000182251 -7.56333e-05 5.96445e-05
internal_weight=261 239 44 195 167 147 122 83 51
internal_count=261 239 44 195 167 147 122 83 51
is_linear=0
shrinkage=0.0426353


Tree=73
num_leaves=10
num_cat=0
split_feature=51 49 30 58 4 38 30 27 0
split_gain=0.0129622 0.0219112 0.00375781 0.00382063 0.0030041 0.00234483 0.0011464 0.000841454 0.000414534
threshold=0.92917487113914254 -0.10439971019423853 0.053217406478085517 0.39967191423087006 8.5817546689284558 -0.27296467912418271 -0.014651678270450769 3.1087718693949369 34224576.000000007
decision_type=10 10 8 8 2 10 10 2 2
left_child=2 -2 3 -1 -4 6 8 -8 -5
right_child=1 -3 4 5 -6 -7 7 -9 -10
leaf_value=0.00032393657411430556 0.0014414237990953704 -0.00024635804722937846 -0.00090098534562665521 -0.0001071130623890099 -0.00018651828812568598 -0.00056873101831242726 -9.1063707047217533e-05 0.00025417165372079844 -0.0003534271440653494
leaf_weight=35 27 29 20 23 23 23 33 21 27
leaf_count=35 27 29 20 23 23 23 33 21 27
internal_value=-7.47982e-06 0.000567394 -0.000164518 -7.04732e-05 -0.000518829 -0.000179169 -9.30157e-05 4.31945e-05 -0.000240123
internal_weight=261 56 205 162 43 127 104 54 50
internal_count=261 56 205 162 43 127 104 54 50
is_linear=0
shrinkage=0.0426353


Tree=74
num_leaves=10
num_cat=0
split_feature=59 54 27 50 33 30 30 37 60
split_gain=0.0119716 0.00892952 0.00330748 0.0039188 0.00569786 0.00461972 0.00145977 0.000751649 0.000475629
threshold=-1.1951335150163567 1.6924066437695606 28.459526676990158 0.26755416396898674 1.706194246711533 0.020436095482736321 -0.0082263905599848312 0.034752295532713612 1.7131785080863875
decision_type=8 10 2 10 8 8 10 10 8
left_child=-1 2 3 5 -5 6 7 -2 -6
right_child=1 -3 -4 4 8 -7 -8 -9 -10
leaf_value=0.00094456906008246204 -0.00010784455842963952 0.00066770036405340029 -0.00056950433836043437 0.00074422012289893948 -0.00024184495602617531 -0.00073365881209899503 0.00015719198431403387 -0.00043908506529022963 1.6810102067397767e-05
leaf_weight=22 33 25 34 20 24 29 26 20 28
leaf_count=22 33 25 34 20 24 29 26 20 28
internal_value=-7.16091e-06 -9.47679e-05 -0.000183841 -0.000110994 0.00013265 -0.000273423 -0.000104476 -0.000232841 -0.000102569
internal_weight=261 239 214 180 72 108 79 53 52
internal_count=261 239 214 180 72 108 79 53 52
is_linear=0
shrinkage=0.0426353


Tree=75
num_leaves=11
num_cat=0
split_feature=37 27 40 28 48 70 48 50 30 34
split_gain=0.00987041 0.0165062 0.00561211 0.00534701 0.00383929 0.00155951 0.0031208 0.00100529 0.000255686 0.000418653
threshold=0.078696154563199769 29.925657266687121 0.14872071832828071 9.6730996340393443 0.030495830482143712 1.881145522244337 -1.013374264675466 0.083699724860287525 -0.017061348114925389 0.024737057957484619
decision_type=8 2 8 2 8 8 10 8 10 10
left_child=1 4 5 -4 -1 -2 7 -7 -9 -10
right_child=2 -3 3 -5 -6 6 -8 8 9 -11
leaf_value=-0.00052561578843005887 -0.00037148454076648129 0.0012199281479257698 -0.00013023067238414557 -0.0011161132279165532 0.0002997806018195814 -0.00033874318106486223 0.0003875314378162888 -0.00014711268729384328 0.00017843545863405444 -9.4125668401285868e-05
leaf_weight=21 23 28 20 20 20 26 30 20 20 21
leaf_count=21 23 28 20 20 20 26 30 20 20 21
internal_value=-1.1594e-05 0.000421966 -0.000177792 -0.000623172 -0.000122983 -5.05408e-05 1.25507e-05 -0.000116753 -2.21342e-05 3.8831e-05
internal_weight=249 69 180 40 41 140 117 87 61 41
internal_count=249 69 180 40 41 140 117 87 61 41
is_linear=0
shrinkage=0.0426353


Tree=76
num_leaves=11
num_cat=0
split_feature=37 27 40 28 48 70 48 50 34 34
split_gain=0.0090467 0.0151287 0.00514376 0.00490078 0.00351889 0.00142937 0.00286036 0.000921395 0.000234348 0.000383715
threshold=0.078696154563199769 29.925657266687121 0.14872071832828071 9.6730996340393443 0.030495830482143712 1.881145522244337 -1.013374264675466 0.083699724860287525 -0.018433511230157257 0.024737057957484619
decision_type=8 2 8 2 8 8 10 8 10 10
left_child=1 4 5 -4 -1 -2 7 -7 -9 -10
right_child=2 -3 3 -5 -6 6 -8 8 9 -11
leaf_value=-0.00050320596994753955 -0.00035564617652052947 0.0011679160982646095 -0.00012467824541364649 -0.0010685273671856229 0.000286999345300436 -0.00032430074657550549 0.00037100890914532389 -0.00014084048593502864 0.00017082780712792482 -9.0112591787451366e-05
leaf_weight=21 23 28 20 20 20 26 30 20 20 21
leaf_count=21 23 28 20 20 20 26 30 20 20 21
internal_value=-1.10997e-05 0.000403976 -0.000170212 -0.000596603 -0.00011774 -4.83859e-05 1.20156e-05 -0.000111775 -2.11905e-05 3.71754e-05
internal_weight=249 69 180 40 41 140 117 87 61 41
internal_count=249 69 180 40 41 140 117 87 61 41
is_linear=0
shrinkage=0.0426353


Tree=77
num_leaves=9
num_cat=0
split_feature=37 27 30 47 60 27 4 30
split_gain=0.00829172 0.0138662 0.00481579 0.00334454 0.00242487 0.00195201 0.00171649 0.000466251
threshold=0.078696154563199769 29.925657266687121 0.060030617129012372 0.16407094548680354 1.0475453975568612 18.523339740670089 8.5817546689284558 -0.017061348114925389
decision_type=8 2 8 8 10 2 2 10
left_child=1 3 4 -1 5 6 -2 -8
right_child=2 -3 -4 -5 -6 -7 7 -9
leaf_value=-0.00050730497627300328 0.00024085723153261635 0.0011181215756572765 -0.0006040142874089206 0.00026307504607348122 0.00025606362956801421 -0.00049137945670960613 -0.00030668924177463288 -6.8456676138996784e-05
leaf_weight=20 25 28 36 21 35 24 28 32
leaf_count=20 25 28 36 21 35 24 28 32
internal_value=-1.06265e-05 0.000386752 -0.000162955 -0.00011272 -5.269e-05 -0.000151831 -5.59586e-05 -0.000179632
internal_weight=249 69 180 41 144 109 85 60
internal_count=249 69 180 41 144 109 85 60
is_linear=0
shrinkage=0.0426353


Tree=78
num_leaves=10
num_cat=0
split_feature=37 59 49 45 40 40 40 60 40
split_gain=0.00771776 0.00628426 0.00560728 0.00531244 0.00138527 0.00173734 0.000791637 0.000310768 0.000192199
threshold=0.038732022714193161 -0.85879218268467106 1.0000000180025095e-35 1.532022787177999 -0.029860426911216532 -0.079171078683733923 0.10208114412513421 0.61349697274046244 0.19180279545381609
decision_type=8 8 10 10 10 8 10 10 10
left_child=-1 -2 3 4 5 -3 7 -6 -8
right_child=1 2 -4 -5 6 -7 8 -9 -10
leaf_value=0.00079301714971445072 0.00047384155221421573 -0.00012961588405794973 -0.00071781774324248919 0.00052614872526772234 0.00019452849324917828 -0.00060080913752905672 -0.00026676835977946454 -4.3148917045212114e-05 -9.429389484616036e-05
leaf_weight=20 32 33 29 23 20 25 24 20 23
leaf_count=20 32 33 29 23 20 25 24 20 23
internal_value=-1.01734e-05 -8.03211e-05 -0.000170337 -7.58318e-05 -0.000171318 -0.000332716 -6.37196e-05 7.56898e-05 -0.000182366
internal_weight=249 229 197 168 145 58 87 40 47
internal_count=249 229 197 168 145 58 87 40 47
is_linear=0
shrinkage=0.0426353


Tree=79
num_leaves=10
num_cat=0
split_feature=36 31 40 56 46 30 34 30 10
split_gain=0.00721697 0.00853076 0.00600175 0.00314133 0.00258689 0.000998178 0.00144634 0.000695157 0.000504223
threshold=1.7570016165824396 0.48591172085552614 0.17996359806851905 1.3836309235136146 0.85174291322465656 -0.014651678270450769 -0.048735212138030982 0.0031298313920464179 0.35584408433591513
decision_type=10 2 8 10 8 10 10 10 2
left_child=1 2 3 4 -1 6 -6 -7 -9
right_child=-2 -3 -4 -5 5 7 -8 8 -10
leaf_value=-0.00055744239793739604 0.00074657973061558955 0.00073938794401785931 -0.000699334226043707 0.00043857738266714786 4.5340666661197495e-05 0.00023676544976216612 -0.00042036366105910881 -0.00017617750849568666 6.8142167048638837e-05
leaf_weight=22 21 21 32 20 22 22 27 28 34
leaf_count=22 21 21 32 20 22 22 27 28 34
internal_value=-9.73968e-06 -7.94007e-05 -0.000162466 -6.4296e-05 -0.000129183 -5.8343e-05 -0.000211272 3.08655e-05 -4.21958e-05
internal_weight=249 228 207 175 155 133 49 84 62
internal_count=249 228 207 175 155 133 49 84 62
is_linear=0
shrinkage=0.0426353


Tree=80
num_leaves=11
num_cat=0
split_feature=55 35 30 43 35 70 42 29 30 27
split_gain=0.0222483 0.00702412 0.0048977 0.00205766 0.00507859 0.00520553 0.00217272 0.00130524 0.000842706 0.000334057
threshold=1.2497871821247222 1.7465967386285268 0.11538212347780334 1.5367757639459365 0.82606202745878898 2.0606018329863005 0.80178158863351989 0.16422963489129258 -0.017061348114925389 0.67706178410448448
decision_type=8 10 8 10 10 8 10 2 10 2
left_child=-1 2 3 4 6 -6 7 8 -2 -10
right_child=1 -3 -4 -5 5 -7 -8 -9 9 -11
leaf_value=0.0014579016579912372 -0.0002867333131703119 0.00074394707506200686 -0.0007098178774918684 -0.00041492657418227354 4.6753851535294295e-05 0.00091360572508275865 -0.000482240500592263 0.00023623513625551748 0.00012122736967156086 -0.000113970285624059
leaf_weight=20 33 20 21 22 34 20 25 24 21 23
leaf_count=20 33 20 21 22 34 20 25 24 21 23
internal_value=9.10268e-05 -2.14732e-05 -9.01207e-05 -2.56968e-05 2.18758e-05 0.00036781 -0.000126382 -3.8298e-05 -0.000123867 -1.71686e-06
internal_weight=263 243 223 202 180 54 126 101 77 44
internal_count=263 243 223 202 180 54 126 101 77 44
is_linear=0
shrinkage=0.0426353


Tree=81
num_leaves=11
num_cat=0
split_feature=70 46 30 50 41 33 36 53 50 27
split_gain=0.0212397 0.00717566 0.0070492 0.00220242 0.00132208 0.00495334 0.00207607 0.00170633 0.00129514 0.000550152
threshold=1.4202096879700787 1.7012209402252954 0.12159605069132086 -0.15837565153745278 0.81782031242578157 1.4358705405854626 1.7749589647756259 0.88320053619725614 0.39071948462118972 1.6721425027540382
decision_type=8 10 8 8 8 8 8 10 8 2
left_child=-1 2 3 -2 7 -6 -7 -5 -8 -10
right_child=1 -3 -4 4 5 6 8 -9 9 -11
leaf_value=0.0013878070850714434 -0.00043451990947308784 0.00072742491022062278 -0.00086064259491199565 8.9179583462270666e-05 0.00056517800951986434 -0.00038699315251068699 0.00027415869474293678 -0.00045432952939937103 4.1880287628385009e-05 -0.00024264823831272148
leaf_weight=21 21 21 20 21 31 25 31 21 30 21
